{"learner":{"attributes":{},"feature_names":[],"feature_types":[],"gradient_booster":{"model":{"gbtree_model_param":{"num_parallel_tree":"1","num_trees":"20"},"iteration_indptr":[0,1,2,3,4,5,6,7,8,9,10,11,12,13,14,15,16,17,18,19,20],"tree_info":[0,0,0,0,0,0,0,0,0,0,0,0,0,0,0,0,0,0,0,0],"trees":[{"base_weights":[1.0654207E-8,-2.7891155E-2,8.499036E-3,-3.7408177E-2,-2.323649E-2,-5.71658E-3,1.1327619E-2,-4.3073047E-2,-1.4763971E-2,-1.5829198E-2,-2.7469944E-2,-2.766001E-3,-1.1861167E-2,1.39817195E-2,8.669907E-3,-2.305105E-2,-2.234223E-2,-2.0343682E-2,-1.1205869E-2,-3.125811E-2,-9.396762E-3,-1.1327894E-2,6.2154443E-3,-3.2464678E-3,-9.781734E-3,1.858695E-2,5.624143E-3,1.2222934E-2,1.9016438E-3,-1.5201519E-2,-3.417005E-3,-1.1432384E-2,-1.31155765E-2,-1.40201375E-2,-8.797296E-3,-1.80518E-2,-2.5396751E-2,-1.2479007E-2,-5.6259334E-5,-3.0252805E-3,-1.8321808E-2,5.3172014E-3,6.3853536E-4,2.7574215E-3,-8.786576E-3,2.4127513E-3,1.8968023E-2,1.9144878E-3,6.8154563E-3,6.9520506E-3,1.4188522E-2,-1.1587799E-2,5.5460073E-3,-1.0151009E-2,-3.0902983E-3,-8.89463E-3,-4.100406E-3,-7.8578934E-4,-7.0100687E-3,-9.874505E-3,-1.6229117E-2,-7.6382556E-3,-2.5814995E-3,2.4627547E-3,-3.9948323E-3,-2.5627464E-3,-9.449148E-3,-4.393288E-3,4.986214E-3,-1.3188794E-3,3.7316233E-3,-8.467506E-3,-1.0701001E-3,-2.5627464E-3,3.3169985E-3,5.707715E-3,9.631404E-3,4.7681867E-3,-2.5973665E-3,-1.081358E-3,8.346672E-3,7.862575E-3,4.5577497E-3,-4.999836E-5,-6.6737304E-3,3.875345E-4,4.2349836E-3],"categories":[],"categories_nodes":[],"categories_segments":[],"categories_sizes":[],"default_left":[0,0,0,0,0,0,0,0,0,0,0,0,0,0,0,0,0,0,0,0,0,0,0,0,0,0,0,0,0,0,0,0,0,0,0,0,0,0,0,0,0,0,0,0,0,0,0,0,0,0,0,0,0,0,0,0,0,0,0,0,0,0,0,0,0,0,0,0,0,0,0,0,0,0,0,0,0,0,0,0,0,0,0,0,0,0,0],"id":0,"left_children":[1,3,5,7,9,11,13,15,-1,17,19,21,23,25,27,-1,29,31,33,35,37,39,41,43,-1,45,47,49,51,-1,-1,-1,53,55,57,-1,59,61,-1,63,65,-1,67,69,71,73,75,77,-1,79,81,83,85,-1,-1,-1,-1,-1,-1,-1,-1,-1,-1,-1,-1,-1,-1,-1,-1,-1,-1,-1,-1,-1,-1,-1,-1,-1,-1,-1,-1,-1,-1,-1,-1,-1,-1],"loss_changes":[1.4412501E-1,5.421154E-3,1.880264E-2,7.3696673E-4,2.638299E-3,1.381339E-3,2.6227236E-3,4.770495E-4,0E0,5.6516565E-4,3.8825907E-3,4.2229095E-3,1.5953132E-3,7.323757E-3,4.714177E-3,0E0,4.172693E-4,2.8123613E-5,1.9006664E-5,5.0314516E-4,3.4199166E-4,1.5704688E-3,6.5860106E-4,4.566369E-4,0E0,7.1851537E-4,2.053069E-3,1.2378506E-3,3.456336E-3,0E0,0E0,0E0,2.2338622E-4,2.9583578E-5,5.063092E-4,0E0,3.9589778E-4,1.0532641E-4,0E0,5.9194403E-4,1.7249025E-5,0E0,1.2312721E-3,1.9740766E-4,3.4285855E-4,1.6128561E-4,4.9501657E-5,2.7046367E-3,0E0,3.3213184E-3,5.8162585E-4,3.0188495E-4,7.6068705E-4,0E0,0E0,0E0,0E0,0E0,0E0,0E0,0E0,0E0,0E0,0E0,0E0,0E0,0E0,0E0,0E0,0E0,0E0,0E0,0E0,0E0,0E0,0E0,0E0,0E0,0E0,0E0,0E0,0E0,0E0,0E0,0E0,0E0,0E0],"parents":[2147483647,0,0,1,1,2,2,3,3,4,4,5,5,6,6,7,7,9,9,10,10,11,11,12,12,13,13,14,14,16,16,17,17,18,18,19,19,20,20,21,21,22,22,23,23,25,25,26,26,27,27,28,28,32,32,33,33,34,34,36,36,37,37,39,39,40,40,42,42,43,43,44,44,45,45,46,46,47,47,49,49,50,50,51,51,52,52],"right_children":[2,4,6,8,10,12,14,16,-1,18,20,22,24,26,28,-1,30,32,34,36,38,40,42,44,-1,46,48,50,52,-1,-1,-1,54,56,58,-1,60,62,-1,64,66,-1,68,70,72,74,76,78,-1,80,82,84,86,-1,-1,-1,-1,-1,-1,-1,-1,-1,-1,-1,-1,-1,-1,-1,-1,-1,-1,-1,-1,-1,-1,-1,-1,-1,-1,-1,-1,-1,-1,-1,-1,-1,-1],"split_conditions":[2.4E1,8E0,3.7E1,1E0,1.4E1,2E0,1E0,7E0,-1.4763971E-2,1.1E1,2.2E1,1E0,1E0,7.7E1,2E0,-2.305105E-2,2E0,2E0,1E0,1E0,2E0,1E0,3.1E1,3E1,-9.781734E-3,3.8E1,2E0,5.5E1,5E1,-1.5201519E-2,-3.417005E-3,-1.1432384E-2,9E0,1E0,2E0,-1.80518E-2,2E0,1E0,-5.6259334E-5,2.9E1,2.5E1,5.3172014E-3,1E0,2.6E1,3.2E1,1E0,4E1,1E0,6.8154563E-3,1E0,9.1E1,3.8E1,7.2E1,-1.0151009E-2,-3.0902983E-3,-8.89463E-3,-4.100406E-3,-7.8578934E-4,-7.0100687E-3,-9.874505E-3,-1.6229117E-2,-7.6382556E-3,-2.5814995E-3,2.4627547E-3,-3.9948323E-3,-2.5627464E-3,-9.449148E-3,-4.393288E-3,4.986214E-3,-1.3188794E-3,3.7316233E-3,-8.467506E-3,-1.0701001E-3,-2.5627464E-3,3.3169985E-3,5.707715E-3,9.631404E-3,4.7681867E-3,-2.5973665E-3,-1.081358E-3,8.346672E-3,7.862575E-3,4.5577497E-3,-4.999836E-5,-6.6737304E-3,3.875345E-4,4.2349836E-3],"split_indices":[0,0,0,1,0,2,1,0,0,0,0,2,1,0,2,0,2,2,2,1,2,1,0,0,0,0,2,0,0,0,0,0,0,1,2,0,2,1,0,0,0,0,1,0,0,2,0,2,0,2,0,0,0,0,0,0,0,0,0,0,0,0,0,0,0,0,0,0,0,0,0,0,0,0,0,0,0,0,0,0,0,0,0,0,0,0,0],"split_type":[0,0,0,0,0,0,0,0,0,0,0,0,0,0,0,0,0,0,0,0,0,0,0,0,0,0,0,0,0,0,0,0,0,0,0,0,0,0,0,0,0,0,0,0,0,0,0,0,0,0,0,0,0,0,0,0,0,0,0,0,0,0,0,0,0,0,0,0,0,0,0,0,0,0,0,0,0,0,0,0,0,0,0,0,0,0,0],"sum_hessian":[6.06E2,1.41E2,4.65E2,4.4E1,9.7E1,7.7E1,3.88E2,2.3E1,2.1E1,3.7E1,6E1,5.3E1,2.4E1,1.92E2,1.96E2,1.9E1,4E0,1.7E1,2E1,4.9E1,1.1E1,2.7E1,2.6E1,1.2E1,1.2E1,1.23E2,6.9E1,1.28E2,6.8E1,2E0,2E0,1.1E1,6E0,7E0,1.3E1,2.4E1,2.5E1,8E0,3E0,1.3E1,1.4E1,1.4E1,1.2E1,6E0,6E0,3E0,1.2E2,4.8E1,2.1E1,3.6E1,9.2E1,1.4E1,5.4E1,2E0,4E0,3E0,4E0,6E0,7E0,1.6E1,9E0,5E0,3E0,5E0,8E0,1E0,1.3E1,6E0,6E0,3E0,3E0,2E0,4E0,1E0,2E0,6E0,1.14E2,2.3E1,2.5E1,1.9E1,1.7E1,6.9E1,2.3E1,2E0,1.2E1,2.1E1,3.3E1],"tree_param":{"num_deleted":"0","num_feature":"3","num_nodes":"87","size_leaf_vector":"1"}},{"base_weights":[-2.2767928E-4,-1.42582115E-2,4.573557E-3,-2.4811808E-2,-1.2601372E-2,-2.6779606E-3,5.773493E-3,-7.6729176E-3,-2.0099606E-2,-1.4050978E-2,-5.6030797E-3,1.4720424E-3,-4.6920995E-3,6.6753644E-3,2.6128278E-3,-5.357958E-3,-1.5040562E-2,-5.2395193E-3,-1.6538382E-3,9.500667E-3,-7.4202796E-3,-7.7263773E-3,-2.076993E-3,8.952504E-3,4.3389364E-3,7.0952857E-3,4.027595E-4,2.1445751E-3,-1.13874E-2,-1.1865313E-2,-1.346928E-2,4.5838527E-4,-3.1129187E-3,1.0594428E-2,4.6645403E-3,-4.186332E-3,-2.089699E-3,-1.0930514E-2,-4.1111275E-3,-1.2794137E-4,-6.202735E-3,1.0064505E-2,7.1286256E-3,6.5001E-3,3.3647375E-4,8.192527E-3,1.9001961E-4,-2.88238E-3,4.0138527E-3,-1.5879214E-3,3.1104137E-3,-4.555518E-3,-8.256081E-3,-2.5544066E-3,1.8535138E-3,-3.515929E-5,-2.3112495E-3,7.474917E-3,2.0600676E-3,3.8962564E-4,4.080102E-3,-2.7257204E-3,1.1584461E-3,-6.2864507E-3,-2.661854E-3,-5.351208E-3,-1.5079603E-4,-1.4517069E-3,1.4850663E-3,-9.1759115E-4,-4.228115E-3,3.4104518E-3,5.7619875E-3,3.7183054E-3,1.5329967E-3,1.9198603E-3,4.2983554E-3,-3.121064E-3,1.3975188E-3,1.2118717E-3,4.2943903E-3,-1.6394058E-3,1.7977556E-3,-4.2189397E-3,1.2579384E-3,1.5699303E-3,3.7905215E-3],"categories":[],"categories_nodes":[],"categories_segments":[],"categories_sizes":[],"default_left":[0,0,0,0,0,0,0,0,0,0,0,0,0,0,0,0,0,0,0,0,0,0,0,0,0,0,0,0,0,0,0,0,0,0,0,0,0,0,0,0,0,0,0,0,0,0,0,0,0,0,0,0,0,0,0,0,0,0,0,0,0,0,0,0,0,0,0,0,0,0,0,0,0,0,0,0,0,0,0,0,0,0,0,0,0,0,0],"id":1,"left_children":[1,3,5,7,9,11,13,-1,-1,15,17,19,21,23,25,27,29,-1,31,33,35,37,39,41,43,45,47,49,-1,-1,51,53,55,57,59,-1,61,63,65,67,69,71,73,75,77,79,81,83,85,-1,-1,-1,-1,-1,-1,-1,-1,-1,-1,-1,-1,-1,-1,-1,-1,-1,-1,-1,-1,-1,-1,-1,-1,-1,-1,-1,-1,-1,-1,-1,-1,-1,-1,-1,-1,-1,-1],"loss_changes":[4.0955104E-2,2.397608E-3,3.9571756E-3,2.2962438E-3,1.3009626E-3,5.5022124E-4,1.0914085E-3,0E0,0E0,8.8288635E-4,4.640778E-4,1.6411464E-3,3.3309055E-4,1.5679076E-3,8.689176E-4,1.7475579E-3,1.0458212E-3,0E0,4.765548E-5,1.4056568E-5,3.8348022E-5,1.8673833E-4,2.0023852E-4,2.3653265E-4,1.3039592E-3,2.1816907E-4,7.233462E-4,2.3663003E-4,0E0,0E0,1.0033175E-3,1.4553936E-4,4.1012398E-5,1.9218819E-4,4.79678E-5,0E0,5.7071866E-5,2.5151065E-5,2.7297944E-4,1.6339865E-4,6.321934E-5,3.5691913E-4,5.3524273E-5,5.136137E-4,8.908383E-4,3.6330428E-5,7.085438E-5,9.809091E-4,6.660979E-5,0E0,0E0,0E0,0E0,0E0,0E0,0E0,0E0,0E0,0E0,0E0,0E0,0E0,0E0,0E0,0E0,0E0,0E0,0E0,0E0,0E0,0E0,0E0,0E0,0E0,0E0,0E0,0E0,0E0,0E0,0E0,0E0,0E0,0E0,0E0,0E0,0E0,0E0],"parents":[2147483647,0,0,1,1,2,2,3,3,4,4,5,5,6,6,9,9,10,10,11,11,12,12,13,13,14,14,15,15,16,16,18,18,19,19,20,20,21,21,22,22,23,23,24,24,25,25,26,26,27,27,30,30,31,31,32,32,33,33,34,34,36,36,37,37,38,38,39,39,40,40,41,41,42,42,43,43,44,44,45,45,46,46,47,47,48,48],"right_children":[2,4,6,8,10,12,14,-1,-1,16,18,20,22,24,26,28,30,-1,32,34,36,38,40,42,44,46,48,50,-1,-1,52,54,56,58,60,-1,62,64,66,68,70,72,74,76,78,80,82,84,86,-1,-1,-1,-1,-1,-1,-1,-1,-1,-1,-1,-1,-1,-1,-1,-1,-1,-1,-1,-1,-1,-1,-1,-1,-1,-1,-1,-1,-1,-1,-1,-1,-1,-1,-1,-1,-1,-1],"split_conditions":[2.6E1,4E0,3.7E1,3E0,2.2E1,3E1,8.7E1,-7.6729176E-3,-2.0099606E-2,6E0,1E0,1E0,3.3E1,1E0,1E0,2E0,8E0,-5.2395193E-3,2E0,2E0,2.9E1,1E0,2E0,6.6E1,2E0,9.9E1,2E0,5E0,-1.13874E-2,-1.1865313E-2,1.4E1,2.4E1,2.4E1,2.8E1,2.8E1,-4.186332E-3,1E0,3.2E1,1E0,1E0,1E0,1E0,8.5E1,5.9E1,5E1,8.8E1,1E0,1E0,9.9E1,-1.5879214E-3,3.1104137E-3,-4.555518E-3,-8.256081E-3,-2.5544066E-3,1.8535138E-3,-3.515929E-5,-2.3112495E-3,7.474917E-3,2.0600676E-3,3.8962564E-4,4.080102E-3,-2.7257204E-3,1.1584461E-3,-6.2864507E-3,-2.661854E-3,-5.351208E-3,-1.5079603E-4,-1.4517069E-3,1.4850663E-3,-9.1759115E-4,-4.228115E-3,3.4104518E-3,5.7619875E-3,3.7183054E-3,1.5329967E-3,1.9198603E-3,4.2983554E-3,-3.121064E-3,1.3975188E-3,1.2118717E-3,4.2943903E-3,-1.6394058E-3,1.7977556E-3,-4.2189397E-3,1.2579384E-3,1.5699303E-3,3.7905215E-3],"split_indices":[0,0,0,0,0,0,0,0,0,0,2,1,0,1,2,2,0,0,2,2,0,1,2,0,2,0,2,0,0,0,0,0,0,0,0,0,2,0,2,2,1,2,0,0,0,0,1,1,0,0,0,0,0,0,0,0,0,0,0,0,0,0,0,0,0,0,0,0,0,0,0,0,0,0,0,0,0,0,0,0,0,0,0,0,0,0,0],"split_type":[0,0,0,0,0,0,0,0,0,0,0,0,0,0,0,0,0,0,0,0,0,0,0,0,0,0,0,0,0,0,0,0,0,0,0,0,0,0,0,0,0,0,0,0,0,0,0,0,0,0,0,0,0,0,0,0,0,0,0,0,0,0,0,0,0,0,0,0,0,0,0,0,0,0,0,0,0,0,0,0,0,0,0,0,0,0,0],"sum_hessian":[6.06E2,1.54E2,4.52E2,1.9E1,1.35E2,6.4E1,3.88E2,1.3E1,6E0,1.11E2,2.4E1,2.1E1,4.3E1,3.01E2,8.7E1,1.2E1,9.9E1,1E1,1.4E1,1.1E1,1E1,1.9E1,2.4E1,1.51E2,1.5E2,2.8E1,5.9E1,9E0,3E0,1.3E1,8.6E1,6E0,8E0,8E0,3E0,8E0,2E0,9E0,1E1,1.7E1,7E0,9.1E1,6E1,9.7E1,5.3E1,2.4E1,4E0,3.1E1,2.8E1,4E0,5E0,3.7E1,4.9E1,2E0,4E0,3E0,5E0,4E0,4E0,2E0,1E0,1E0,1E0,6E0,3E0,3E0,7E0,9E0,8E0,3E0,4E0,3E1,6.1E1,5.5E1,5E0,4.4E1,5.3E1,1.4E1,3.9E1,2E0,2.2E1,2E0,2E0,1.5E1,1.6E1,2.4E1,4E0],"tree_param":{"num_deleted":"0","num_feature":"3","num_nodes":"87","size_leaf_vector":"1"}},{"base_weights":[-2.0433027E-4,-7.5845965E-3,2.3213774E-3,-1.1266987E-2,-5.7760673E-3,-1.2897277E-3,2.9959278E-3,-1.4720976E-2,-7.224158E-3,-9.864519E-3,-3.3462774E-3,9.421706E-5,-4.2422283E-3,3.3151053E-3,-7.2492514E-4,-1.928869E-2,-9.428029E-3,-4.868539E-3,-1.0870976E-2,-1.480152E-2,-4.4342936E-3,5.293107E-3,-3.968944E-3,-3.0551048E-3,3.3657432E-3,-1.6121268E-3,-6.141374E-3,4.1306457E-3,1.6628423E-3,-4.2807963E-3,1.7461934E-3,-4.847333E-3,-2.3136366E-2,2.5704384E-3,-1.44844595E-2,-1.0455317E-4,-4.545788E-3,-1.7434433E-3,-1.3981874E-2,-1.7264664E-2,-3.959155E-3,1.656735E-3,-6.0605966E-3,7.2559617E-3,-5.690078E-3,-6.9456045E-3,-7.752329E-4,2.8403907E-4,-5.9375167E-3,-5.2209085E-5,6.524792E-3,1.0955466E-3,-4.598886E-3,-3.9036383E-3,1.0070304E-3,7.0573282E-3,3.6679246E-3,-5.3211506E-3,3.1424444E-3,3.857687E-4,-5.8736503E-3,3.632857E-4,4.0649944E-3,-3.2767057E-3,6.772578E-5,-7.6359552E-3,-1.5557535E-2,4.896231E-3,-6.579414E-3,-1.0952525E-2,-4.0874565E-3,-6.039063E-3,2.5209573E-3,-7.824579E-3,-1.4113635E-3,-5.1319036E-3,-1.1491273E-2,8.756022E-4,-4.174898E-3,-1.0910183E-3,1.5809685E-3,-5.1915688E-3,-1.2143791E-3,-3.6162734E-3,-6.5128505E-4,-1.610829E-3,-6.5970197E-3,9.2886685E-4,-1.4631517E-3,4.469745E-3,-1.6032725E-3,-3.1591034E-3,-2.4713576E-4,2.9768287E-3,-1.6915003E-3,1.9052558E-3,5.052769E-3,-7.61237E-4,5.509928E-3,2.0033221E-3,4.666986E-3,2.0830017E-3,1.0611541E-3,-1.4430203E-3,-3.6362598E-3,2.23185E-3,9.1864663E-4,-3.90414E-3,-1.6412586E-3,-1.1409393E-3,1.4782761E-3,2.5572255E-3,9.996444E-4],"categories":[],"categories_nodes":[],"categories_segments":[],"categories_sizes":[],"default_left":[0,0,0,0,0,0,0,0,0,0,0,0,0,0,0,0,0,0,0,0,0,0,0,0,0,0,0,0,0,0,0,0,0,0,0,0,0,0,0,0,0,0,0,0,0,0,0,0,0,0,0,0,0,0,0,0,0,0,0,0,0,0,0,0,0,0,0,0,0,0,0,0,0,0,0,0,0,0,0,0,0,0,0,0,0,0,0,0,0,0,0,0,0,0,0,0,0,0,0,0,0,0,0,0,0,0,0,0,0,0,0,0,0],"id":2,"left_children":[1,3,5,7,9,11,13,15,17,19,21,23,25,27,29,31,33,35,37,39,41,43,45,47,49,51,53,55,57,59,61,63,65,67,69,71,-1,-1,73,75,77,79,81,-1,83,85,87,89,91,93,95,97,-1,-1,-1,99,101,103,105,-1,107,109,111,-1,-1,-1,-1,-1,-1,-1,-1,-1,-1,-1,-1,-1,-1,-1,-1,-1,-1,-1,-1,-1,-1,-1,-1,-1,-1,-1,-1,-1,-1,-1,-1,-1,-1,-1,-1,-1,-1,-1,-1,-1,-1,-1,-1,-1,-1,-1,-1,-1,-1],"loss_changes":[1.1332327E-2,9.6717663E-4,1.1073139E-3,5.918476E-4,1.0200029E-3,2.9459875E-4,4.5607146E-4,4.4673914E-4,1.6183709E-4,9.799183E-4,3.8681092E-4,5.254372E-4,1.0498299E-4,4.6744663E-4,2.7987146E-4,6.1020395E-4,8.8660314E-4,3.4106374E-4,1.5798712E-4,4.6577258E-4,2.0815796E-4,5.888338E-4,6.0303765E-4,2.5193102E-4,2.7027764E-4,2.3601053E-4,1.9234442E-4,2.9236032E-4,1.2360781E-3,1.0915092E-4,5.9450293E-5,3.4891767E-5,1.5229499E-4,6.96843E-4,2.8913375E-4,6.1549136E-4,0E0,0E0,6.7459536E-5,4.045926E-4,1.3998288E-4,3.5790094E-5,2.2596226E-4,0E0,1.0881886E-5,7.253649E-4,1.8667459E-4,4.214284E-4,2.588774E-5,2.8019698E-4,8.784165E-5,2.5061585E-4,0E0,0E0,0E0,1.7790706E-4,1.4897552E-4,7.879897E-5,1.6079377E-4,0E0,2.4498004E-5,9.59215E-5,4.9498267E-6,0E0,0E0,0E0,0E0,0E0,0E0,0E0,0E0,0E0,0E0,0E0,0E0,0E0,0E0,0E0,0E0,0E0,0E0,0E0,0E0,0E0,0E0,0E0,0E0,0E0,0E0,0E0,0E0,0E0,0E0,0E0,0E0,0E0,0E0,0E0,0E0,0E0,0E0,0E0,0E0,0E0,0E0,0E0,0E0,0E0,0E0,0E0,0E0,0E0,0E0],"parents":[2147483647,0,0,1,1,2,2,3,3,4,4,5,5,6,6,7,7,8,8,9,9,10,10,11,11,12,12,13,13,14,14,15,15,16,16,17,17,18,18,19,19,20,20,21,21,22,22,23,23,24,24,25,25,26,26,27,27,28,28,29,29,30,30,31,31,32,32,33,33,34,34,35,35,38,38,39,39,40,40,41,41,42,42,44,44,45,45,46,46,47,47,48,48,49,49,50,50,51,51,55,55,56,56,57,57,58,58,60,60,61,61,62,62],"right_children":[2,4,6,8,10,12,14,16,18,20,22,24,26,28,30,32,34,36,38,40,42,44,46,48,50,52,54,56,58,60,62,64,66,68,70,72,-1,-1,74,76,78,80,82,-1,84,86,88,90,92,94,96,98,-1,-1,-1,100,102,104,106,-1,108,110,112,-1,-1,-1,-1,-1,-1,-1,-1,-1,-1,-1,-1,-1,-1,-1,-1,-1,-1,-1,-1,-1,-1,-1,-1,-1,-1,-1,-1,-1,-1,-1,-1,-1,-1,-1,-1,-1,-1,-1,-1,-1,-1,-1,-1,-1,-1,-1,-1,-1,-1],"split_conditions":[2.6E1,9E0,3.8E1,1E0,1E0,2E0,9.6E1,5E0,2E0,1E0,1E1,1E0,1E0,2E0,9.8E1,2E0,6E0,5E0,3E0,2.3E1,1.2E1,1E0,1.8E1,1E0,1E0,3.6E1,3.7E1,4.5E1,4.8E1,1E0,2E0,2E0,2E0,2E0,7E0,2E0,-4.545788E-3,-1.7434433E-3,8E0,1.6E1,2.4E1,1E1,1.8E1,7.2559617E-3,2E0,1.5E1,2E0,2.9E1,3.7E1,3E1,3.4E1,3.4E1,-4.598886E-3,-3.9036383E-3,1.0070304E-3,1E0,8.4E1,4.3E1,1E0,3.857687E-4,1E0,1E0,1E0,-3.2767057E-3,6.772578E-5,-7.6359552E-3,-1.5557535E-2,4.896231E-3,-6.579414E-3,-1.0952525E-2,-4.0874565E-3,-6.039063E-3,2.5209573E-3,-7.824579E-3,-1.4113635E-3,-5.1319036E-3,-1.1491273E-2,8.756022E-4,-4.174898E-3,-1.0910183E-3,1.5809685E-3,-5.1915688E-3,-1.2143791E-3,-3.6162734E-3,-6.5128505E-4,-1.610829E-3,-6.5970197E-3,9.2886685E-4,-1.4631517E-3,4.469745E-3,-1.6032725E-3,-3.1591034E-3,-2.4713576E-4,2.9768287E-3,-1.6915003E-3,1.9052558E-3,5.052769E-3,-7.61237E-4,5.509928E-3,2.0033221E-3,4.666986E-3,2.0830017E-3,1.0611541E-3,-1.4430203E-3,-3.6362598E-3,2.23185E-3,9.1864663E-4,-3.90414E-3,-1.6412586E-3,-1.1409393E-3,1.4782761E-3,2.5572255E-3,9.996444E-4],"split_indices":[0,0,0,1,2,2,0,0,2,1,0,2,1,2,0,0,0,0,0,0,0,1,0,1,1,0,0,0,0,2,2,2,2,2,0,0,0,0,0,0,0,0,0,0,2,0,2,0,0,0,0,0,0,0,0,2,0,0,1,0,1,1,1,0,0,0,0,0,0,0,0,0,0,0,0,0,0,0,0,0,0,0,0,0,0,0,0,0,0,0,0,0,0,0,0,0,0,0,0,0,0,0,0,0,0,0,0,0,0,0,0,0,0],"split_type":[0,0,0,0,0,0,0,0,0,0,0,0,0,0,0,0,0,0,0,0,0,0,0,0,0,0,0,0,0,0,0,0,0,0,0,0,0,0,0,0,0,0,0,0,0,0,0,0,0,0,0,0,0,0,0,0,0,0,0,0,0,0,0,0,0,0,0,0,0,0,0,0,0,0,0,0,0,0,0,0,0,0,0,0,0,0,0,0,0,0,0,0,0,0,0,0,0,0,0,0,0,0,0,0,0,0,0,0,0,0,0,0,0],"sum_hessian":[6.06E2,1.54E2,4.52E2,4.9E1,1.05E2,7.1E1,3.81E2,2.5E1,2.4E1,3.8E1,6.7E1,4.9E1,2.2E1,3.51E2,3E1,1.2E1,1.3E1,1.6E1,8E0,1.9E1,1.9E1,4E0,6.3E1,2.5E1,2.4E1,1E1,1.2E1,2.34E2,1.17E2,1.2E1,1.8E1,3E0,9E0,4E0,9E0,8E0,8E0,3E0,5E0,1.5E1,4E0,4E0,1.5E1,2E0,2E0,3.2E1,3.1E1,1.2E1,1.3E1,1.2E1,1.2E1,8E0,2E0,1E1,2E0,3E1,2.04E2,2E1,9.7E1,3E0,9E0,1.2E1,6E0,2E0,1E0,6E0,3E0,3E0,1E0,3E0,6E0,2E0,6E0,4E0,1E0,8E0,7E0,2E0,2E0,1E0,3E0,6E0,9E0,1E0,1E0,2.1E1,1.1E1,1.4E1,1.7E1,3E0,9E0,1.2E1,1E0,4E0,8E0,8E0,4E0,7E0,1E0,1.4E1,1.6E1,1.53E2,5.1E1,1E1,1E1,4.7E1,5E1,4E0,5E0,6E0,6E0,3E0,3E0],"tree_param":{"num_deleted":"0","num_feature":"3","num_nodes":"113","size_leaf_vector":"1"}},{"base_weights":[-2.375545E-4,-4.3972055E-3,1.18625E-3,-9.63486E-3,-3.59463E-3,-5.965538E-4,1.5877887E-3,-4.679448E-3,-1.8169275E-2,-6.1546075E-3,-2.1735788E-3,3.4141025E-4,-2.589345E-3,1.7646562E-3,-4.032677E-4,-6.190368E-3,-2.7724616E-3,-9.292603E-3,-1.3453652E-2,-9.41722E-3,-2.7763152E-3,-3.3392282E-3,-3.6472746E-4,-1.6193708E-3,2.3580317E-3,-6.8218436E-4,-4.0695947E-3,2.4713208E-3,1.0518045E-3,-3.8121939E-3,5.673623E-4,-3.7263036E-3,-2.0231802E-3,9.680867E-4,-6.7550316E-3,-6.6901743E-3,-2.1073222E-3,-5.3204023E-3,-2.6394366E-3,3.4202188E-3,-3.4620315E-3,-2.0159516E-3,-5.348038E-3,1.2758374E-3,-1.7409712E-3,1.668053E-3,-2.510729E-3,8.98082E-4,2.3326983E-3,4.0206015E-3,-2.4950802E-3,-2.6492563E-3,-2.6615923E-3,4.3403823E-3,1.4901093E-3,-7.985105E-4,2.0336534E-3,-9.740606E-3,3.0692667E-3,1.6415864E-3,-3.939271E-4,5.079806E-5,-1.5681833E-3,1.2451211E-3,-4.3838224E-4,-6.143905E-3,-4.0741762E-4,-2.0528734E-3,4.723817E-4,5.837381E-4,-2.7832687E-3,-2.3243546E-3,-6.679058E-4,-1.9283439E-3,5.819698E-4,-1.7357668E-3,2.9407244E-3,1.8030026E-3,-3.724274E-3,2.7935877E-3,-1.3340414E-3,-2.6631025E-3,-3.850516E-4,1.887736E-3,-1.3592574E-3,5.1348406E-4,3.2503754E-3,-3.2957892E-3,-3.235042E-4,-4.0900282E-4,-3.0380487E-3,3.1548212E-3,1.4165342E-4,-1.2857252E-3,9.120257E-4,-2.2977456E-3,6.819253E-4,2.7692325E-3,1.5030253E-4,1.2566149E-4,-6.577512E-3,1.7827749E-4,1.9273261E-3,-5.4112077E-4,2.835697E-3,1.0175572E-3,-1.9859176E-3],"categories":[],"categories_nodes":[],"categories_segments":[],"categories_sizes":[],"default_left":[0,0,0,0,0,0,0,0,0,0,0,0,0,0,0,0,0,0,0,0,0,0,0,0,0,0,0,0,0,0,0,0,0,0,0,0,0,0,0,0,0,0,0,0,0,0,0,0,0,0,0,0,0,0,0,0,0,0,0,0,0,0,0,0,0,0,0,0,0,0,0,0,0,0,0,0,0,0,0,0,0,0,0,0,0,0,0,0,0,0,0,0,0,0,0,0,0,0,0,0,0,0,0,0,0,0,0],"id":3,"left_children":[1,3,5,7,9,11,13,15,17,19,21,23,25,27,29,31,33,35,-1,37,39,41,43,45,47,49,51,53,55,57,59,-1,61,63,65,-1,67,-1,69,-1,71,73,-1,75,77,79,81,83,-1,85,87,-1,89,91,93,95,97,99,101,103,105,-1,-1,-1,-1,-1,-1,-1,-1,-1,-1,-1,-1,-1,-1,-1,-1,-1,-1,-1,-1,-1,-1,-1,-1,-1,-1,-1,-1,-1,-1,-1,-1,-1,-1,-1,-1,-1,-1,-1,-1,-1,-1,-1,-1,-1,-1],"loss_changes":[3.600192E-3,6.169267E-4,3.252338E-4,7.608087E-4,4.813713E-4,1.5789403E-4,1.3100827E-4,2.3175671E-5,2.9291376E-4,5.029136E-4,1.8643733E-4,2.3315939E-4,7.344675E-5,1.6867474E-4,1.0473588E-4,2.1741958E-5,1.2571542E-4,1.18661264E-4,0E0,1.7095078E-4,1.885409E-4,5.0413515E-4,8.3502615E-5,9.20962E-5,9.350055E-5,1.2086532E-4,1.1852331E-5,3.053029E-4,3.122847E-4,3.1546946E-4,2.6462669E-5,0E0,7.414459E-6,1.6224109E-5,1.2145062E-4,0E0,2.217705E-5,0E0,6.221488E-5,0E0,5.4345524E-5,2.79596E-4,0E0,3.921149E-4,6.372251E-4,1.3386397E-4,1.1351486E-4,2.079845E-4,0E0,2.302257E-5,7.144143E-5,0E0,5.168414E-5,4.6159967E-4,1.5795534E-4,4.9889414E-4,6.78624E-4,1.397726E-4,7.1477043E-6,1.3785585E-4,1.2975556E-4,0E0,0E0,0E0,0E0,0E0,0E0,0E0,0E0,0E0,0E0,0E0,0E0,0E0,0E0,0E0,0E0,0E0,0E0,0E0,0E0,0E0,0E0,0E0,0E0,0E0,0E0,0E0,0E0,0E0,0E0,0E0,0E0,0E0,0E0,0E0,0E0,0E0,0E0,0E0,0E0,0E0,0E0,0E0,0E0,0E0,0E0],"parents":[2147483647,0,0,1,1,2,2,3,3,4,4,5,5,6,6,7,7,8,8,9,9,10,10,11,11,12,12,13,13,14,14,15,15,16,16,17,17,19,19,20,20,21,21,22,22,23,23,24,24,25,25,26,26,27,27,28,28,29,29,30,30,32,32,33,33,34,34,36,36,38,38,40,40,41,41,43,43,44,44,45,45,46,46,47,47,49,49,50,50,52,52,53,53,54,54,55,55,56,56,57,57,58,58,59,59,60,60],"right_children":[2,4,6,8,10,12,14,16,18,20,22,24,26,28,30,32,34,36,-1,38,40,42,44,46,48,50,52,54,56,58,60,-1,62,64,66,-1,68,-1,70,-1,72,74,-1,76,78,80,82,84,-1,86,88,-1,90,92,94,96,98,100,102,104,106,-1,-1,-1,-1,-1,-1,-1,-1,-1,-1,-1,-1,-1,-1,-1,-1,-1,-1,-1,-1,-1,-1,-1,-1,-1,-1,-1,-1,-1,-1,-1,-1,-1,-1,-1,-1,-1,-1,-1,-1,-1,-1,-1,-1,-1,-1],"split_conditions":[2.6E1,4E0,4E1,3E0,1E0,2E0,9.6E1,2E0,2E0,1E0,1.7E1,1E0,1E0,1E0,9.7E1,2E0,2E0,1E0,-1.3453652E-2,2.3E1,5E0,1.5E1,2E0,2.9E1,3.5E1,3E1,3.3E1,5.8E1,6E1,1E0,1E0,-3.7263036E-3,1E0,1E0,1E0,-6.6901743E-3,1E0,-5.3204023E-3,2.4E1,3.4202188E-3,1.8E1,1.1E1,-5.348038E-3,1E0,1E0,1E0,3.3E1,3.1E1,2.3326983E-3,2.8E1,3.2E1,-2.6492563E-3,3.8E1,2E0,6E1,1E0,1E0,1E0,1E0,2E0,2E0,5.079806E-5,-1.5681833E-3,1.2451211E-3,-4.3838224E-4,-6.143905E-3,-4.0741762E-4,-2.0528734E-3,4.723817E-4,5.837381E-4,-2.7832687E-3,-2.3243546E-3,-6.679058E-4,-1.9283439E-3,5.819698E-4,-1.7357668E-3,2.9407244E-3,1.8030026E-3,-3.724274E-3,2.7935877E-3,-1.3340414E-3,-2.6631025E-3,-3.850516E-4,1.887736E-3,-1.3592574E-3,5.1348406E-4,3.2503754E-3,-3.2957892E-3,-3.235042E-4,-4.0900282E-4,-3.0380487E-3,3.1548212E-3,1.4165342E-4,-1.2857252E-3,9.120257E-4,-2.2977456E-3,6.819253E-4,2.7692325E-3,1.5030253E-4,1.2566149E-4,-6.577512E-3,1.7827749E-4,1.9273261E-3,-5.4112077E-4,2.835697E-3,1.0175572E-3,-1.9859176E-3],"split_indices":[0,0,0,0,2,2,0,0,2,1,0,2,1,1,0,2,2,1,0,0,0,0,2,0,0,0,0,0,0,1,1,0,1,2,1,0,2,0,0,0,0,0,0,1,1,1,0,0,0,0,0,0,0,2,0,2,2,2,2,2,2,0,0,0,0,0,0,0,0,0,0,0,0,0,0,0,0,0,0,0,0,0,0,0,0,0,0,0,0,0,0,0,0,0,0,0,0,0,0,0,0,0,0,0,0,0,0],"split_type":[0,0,0,0,0,0,0,0,0,0,0,0,0,0,0,0,0,0,0,0,0,0,0,0,0,0,0,0,0,0,0,0,0,0,0,0,0,0,0,0,0,0,0,0,0,0,0,0,0,0,0,0,0,0,0,0,0,0,0,0,0,0,0,0,0,0,0,0,0,0,0,0,0,0,0,0,0,0,0,0,0,0,0,0,0,0,0,0,0,0,0,0,0,0,0,0,0,0,0,0,0,0,0,0,0,0,0],"sum_hessian":[6.06E2,1.54E2,4.52E2,1.9E1,1.35E2,8.3E1,3.69E2,1.3E1,6E0,4.7E1,8.8E1,5.7E1,2.6E1,3.39E2,3E1,6E0,7E0,4E0,2E0,2.3E1,2.4E1,5.3E1,3.5E1,2.9E1,2.8E1,1.2E1,1.4E1,1.69E2,1.7E2,6E0,2.4E1,4E0,2E0,4E0,3E0,2E0,2E0,1.9E1,4E0,1E0,2.3E1,4.6E1,7E0,1.6E1,1.9E1,6E0,2.3E1,1.8E1,1E1,3E0,9E0,6E0,8E0,5.7E1,1.12E2,5.9E1,1.11E2,3E0,3E0,1.1E1,1.3E1,1E0,1E0,2E0,2E0,1E0,2E0,1E0,1E0,2E0,2E0,1.4E1,9E0,2.9E1,1.7E1,8E0,8E0,1E1,9E0,3E0,3E0,8E0,1.5E1,1E1,8E0,2E0,1E0,2E0,7E0,6E0,2E0,3.8E1,1.9E1,8E0,1.04E2,2.1E1,3.8E1,3.6E1,7.5E1,1E0,2E0,1E0,2E0,7E0,4E0,8E0,5E0],"tree_param":{"num_deleted":"0","num_feature":"3","num_nodes":"107","size_leaf_vector":"1"}},{"base_weights":[-2.0228408E-4,-2.5032177E-3,5.854576E-4,-6.4530624E-3,-1.9039521E-3,-1.525532E-4,8.9267007E-4,-3.124601E-3,-1.218812E-2,1.1441892E-3,-2.2081607E-3,7.568099E-4,-2.0946194E-3,1.3159431E-3,9.4842166E-5,-1.2396931E-3,-1.8772974E-3,-8.232508E-3,-4.8641935E-3,3.6064922E-3,-5.297616E-3,-7.7373725E-3,-1.8614435E-3,1.0510188E-3,-4.57263E-3,-1.2822802E-3,-4.3412177E-3,1.6118628E-4,1.8839219E-3,2.005416E-3,-8.365535E-4,-1.8631518E-3,1.6601483E-3,-1.5804967E-3,-3.678821E-3,-9.229183E-4,3.3899595E-3,-1.1268457E-3,-4.452482E-3,-1.1396378E-2,-2.1440238E-3,-2.9396429E-3,-1.24916E-3,1.9264325E-4,2.6231082E-3,-6.401161E-3,-6.099443E-4,-1.8929397E-3,2.7276475E-3,-6.97915E-3,2.2013187E-4,-4.6476317E-3,3.288761E-3,5.301616E-3,6.941988E-4,3.7477831E-3,1.5750057E-4,-2.2823706E-3,7.491015E-4,1.6654283E-3,-4.2031705E-4,-1.5396625E-3,3.5429E-4,-2.1744866E-3,1.4053881E-3,3.1730533E-4,-1.1624396E-3,-7.1212747E-3,-7.14466E-4,-1.7636567E-3,-2.5357804E-4,-5.3569523E-4,-2.2182E-3,-1.058382E-3,-1.0112839E-4,-4.3132703E-4,6.3884363E-4,2.5148194E-3,7.8368705E-4,-4.607424E-3,-1.9344687E-4,-8.2355735E-5,-1.6532488E-3,-4.5183077E-3,-1.5884489E-3,-6.492734E-4,8.3271664E-4,-1.8011857E-3,-5.009301E-3,3.6925708E-3,2.9387628E-4,4.5286417E-3,7.3229166E-4,-3.6109838E-4,1.3371259E-3,1.1672839E-3,2.529313E-3,-2.0810887E-3,6.1378814E-4,-2.0126274E-3,-1.691118E-4,-2.1786764E-3,6.6391425E-4],"categories":[],"categories_nodes":[],"categories_segments":[],"categories_sizes":[],"default_left":[0,0,0,0,0,0,0,0,0,0,0,0,0,0,0,0,0,0,0,0,0,0,0,0,0,0,0,0,0,0,0,0,0,0,0,0,0,0,0,0,0,0,0,0,0,0,0,0,0,0,0,0,0,0,0,0,0,0,0,0,0,0,0,0,0,0,0,0,0,0,0,0,0,0,0,0,0,0,0,0,0,0,0,0,0,0,0,0,0,0,0,0,0,0,0,0,0,0,0,0,0,0,0],"id":4,"left_children":[1,3,5,7,9,11,13,15,17,19,21,23,25,27,29,31,-1,-1,33,35,37,39,41,43,45,47,49,51,53,55,57,-1,59,61,-1,63,-1,65,-1,67,69,71,73,75,77,79,-1,81,-1,83,85,87,89,91,93,95,97,99,101,-1,-1,-1,-1,-1,-1,-1,-1,-1,-1,-1,-1,-1,-1,-1,-1,-1,-1,-1,-1,-1,-1,-1,-1,-1,-1,-1,-1,-1,-1,-1,-1,-1,-1,-1,-1,-1,-1,-1,-1,-1,-1,-1,-1],"loss_changes":[1.1016781E-3,3.545995E-4,1.028431E-4,3.4369528E-4,1.286355E-4,2.3823505E-4,1.0793889E-4,1.1970187E-5,1.3917661E-4,2.2530762E-4,2.2331445E-4,1.4905908E-4,7.2908355E-5,1.3677476E-4,2.0098168E-4,4.22401E-5,0E0,0E0,2.1122185E-5,1.4999483E-4,5.014715E-5,1.1882855E-4,7.4227224E-5,1.18245676E-4,2.2844259E-5,1.4610059E-4,1.338942E-4,1.0680807E-3,5.655749E-4,1.1854038E-4,1.759448E-4,0E0,1.5334266E-5,1.2474748E-5,0E0,7.6183205E-5,0E0,7.806244E-6,0E0,9.3124574E-5,7.2681505E-6,1.1269227E-4,6.9510774E-5,6.751475E-5,7.0876995E-5,4.720164E-5,0E0,7.518684E-5,0E0,2.6052614E-5,1.31373845E-5,1.21103076E-4,4.714268E-4,5.0551724E-4,2.9640787E-4,2.3387867E-5,9.293466E-5,1.3417553E-4,1.151298E-4,0E0,0E0,0E0,0E0,0E0,0E0,0E0,0E0,0E0,0E0,0E0,0E0,0E0,0E0,0E0,0E0,0E0,0E0,0E0,0E0,0E0,0E0,0E0,0E0,0E0,0E0,0E0,0E0,0E0,0E0,0E0,0E0,0E0,0E0,0E0,0E0,0E0,0E0,0E0,0E0,0E0,0E0,0E0,0E0],"parents":[2147483647,0,0,1,1,2,2,3,3,4,4,5,5,6,6,7,7,8,8,9,9,10,10,11,11,12,12,13,13,14,14,15,15,18,18,19,19,20,20,21,21,22,22,23,23,24,24,25,25,26,26,27,27,28,28,29,29,30,30,32,32,33,33,35,35,37,37,39,39,40,40,41,41,42,42,43,43,44,44,45,45,47,47,49,49,50,50,51,51,52,52,53,53,54,54,55,55,56,56,57,57,58,58],"right_children":[2,4,6,8,10,12,14,16,18,20,22,24,26,28,30,32,-1,-1,34,36,38,40,42,44,46,48,50,52,54,56,58,-1,60,62,-1,64,-1,66,-1,68,70,72,74,76,78,80,-1,82,-1,84,86,88,90,92,94,96,98,100,102,-1,-1,-1,-1,-1,-1,-1,-1,-1,-1,-1,-1,-1,-1,-1,-1,-1,-1,-1,-1,-1,-1,-1,-1,-1,-1,-1,-1,-1,-1,-1,-1,-1,-1,-1,-1,-1,-1,-1,-1,-1,-1,-1,-1],"split_conditions":[2.6E1,4E0,4.8E1,3E0,6E0,2E0,8.3E1,1E0,1E0,2E0,7E0,4.7E1,4.3E1,1E0,1E0,2E0,-1.8772974E-3,-8.232508E-3,2E0,1E0,5E0,1E0,1E0,4E1,1E0,4.2E1,4.6E1,6E1,5.7E1,9.2E1,2E0,-1.8631518E-3,1E0,1E0,-3.678821E-3,1E0,3.3899595E-3,1E0,-4.452482E-3,2E0,1E0,1.6E1,1.7E1,1E0,4.2E1,1E0,-6.099443E-4,1E0,2.7276475E-3,1E0,1E0,5.9E1,6.9E1,2E0,7.2E1,8.8E1,9.3E1,9.2E1,8.4E1,1.6654283E-3,-4.2031705E-4,-1.5396625E-3,3.5429E-4,-2.1744866E-3,1.4053881E-3,3.1730533E-4,-1.1624396E-3,-7.1212747E-3,-7.14466E-4,-1.7636567E-3,-2.5357804E-4,-5.3569523E-4,-2.2182E-3,-1.058382E-3,-1.0112839E-4,-4.3132703E-4,6.3884363E-4,2.5148194E-3,7.8368705E-4,-4.607424E-3,-1.9344687E-4,-8.2355735E-5,-1.6532488E-3,-4.5183077E-3,-1.5884489E-3,-6.492734E-4,8.3271664E-4,-1.8011857E-3,-5.009301E-3,3.6925708E-3,2.9387628E-4,4.5286417E-3,7.3229166E-4,-3.6109838E-4,1.3371259E-3,1.1672839E-3,2.529313E-3,-2.0810887E-3,6.1378814E-4,-2.0126274E-3,-1.691118E-4,-2.1786764E-3,6.6391425E-4],"split_indices":[0,0,0,0,0,2,0,2,1,2,0,0,0,2,2,0,0,0,2,2,0,1,2,0,2,0,0,0,0,0,2,0,1,2,0,1,0,1,0,2,2,0,0,2,0,1,0,1,0,1,1,0,0,2,0,0,0,0,0,0,0,0,0,0,0,0,0,0,0,0,0,0,0,0,0,0,0,0,0,0,0,0,0,0,0,0,0,0,0,0,0,0,0,0,0,0,0,0,0,0,0,0,0],"split_type":[0,0,0,0,0,0,0,0,0,0,0,0,0,0,0,0,0,0,0,0,0,0,0,0,0,0,0,0,0,0,0,0,0,0,0,0,0,0,0,0,0,0,0,0,0,0,0,0,0,0,0,0,0,0,0,0,0,0,0,0,0,0,0,0,0,0,0,0,0,0,0,0,0,0,0,0,0,0,0,0,0,0,0,0,0,0,0,0,0,0,0,0,0,0,0,0,0,0,0,0,0,0,0],"sum_hessian":[6.06E2,1.54E2,4.52E2,1.9E1,1.35E2,1.33E2,3.19E2,1.3E1,6E0,1.2E1,1.23E2,9.1E1,4.2E1,2.08E2,1.11E2,4E0,9E0,3E0,3E0,9E0,3E0,6E0,1.17E2,8.7E1,4E0,3.2E1,1E1,6.9E1,1.39E2,3.6E1,7.5E1,2E0,2E0,2E0,1E0,4E0,5E0,2E0,1E0,3E0,3E0,4.1E1,7.6E1,5.7E1,3E1,2E0,2E0,3E1,2E0,6E0,4E0,2.7E1,4.2E1,3.5E1,1.04E2,1.8E1,1.8E1,3.9E1,3.6E1,1E0,1E0,1E0,1E0,2E0,2E0,1E0,1E0,2E0,1E0,1E0,2E0,1.9E1,2.2E1,4.1E1,3.5E1,2.9E1,2.8E1,8E0,2.2E1,1E0,1E0,1.4E1,1.6E1,3E0,3E0,2E0,2E0,2.4E1,3E0,1.6E1,2.6E1,1.7E1,1.8E1,6.1E1,4.3E1,1E1,8E0,3E0,1.5E1,2E1,1.9E1,3E0,3.3E1],"tree_param":{"num_deleted":"0","num_feature":"3","num_nodes":"103","size_leaf_vector":"1"}},{"base_weights":[-1.6197655E-4,-2.6387938E-3,1.1957041E-4,-1.98196E-3,-7.516495E-3,-3.5127832E-4,5.213816E-4,-2.907374E-3,4.911278E-3,-5.2069128E-3,-2.7400404E-3,1.0529862E-4,-1.2822036E-3,1.4641832E-3,1.3910905E-4,-2.041235E-3,-4.333774E-3,5.202651E-3,-1.8105656E-3,1.7540008E-3,-2.9960275E-3,-9.625688E-4,1.2630413E-3,5.6348643E-3,-1.5225617E-3,2.622921E-3,1.5668607E-4,-1.3528236E-3,3.9386484E-4,-1.0631572E-4,-5.4184846E-3,-6.6384673E-3,-6.230995E-4,-2.7583838E-3,2.5822222E-4,-5.277661E-4,-2.9133707E-3,4.6087834E-3,8.390586E-4,8.50454E-4,3.3756942E-3,-5.3843735E-3,-9.6505217E-4,8.6865627E-4,5.7482347E-3,1.3848586E-3,-2.310851E-3,2.0486354E-3,-2.8374493E-3,-1.0446576E-5,1.1894029E-3,-6.630526E-4,1.6837368E-3,-3.819396E-3,-1.3706471E-3,-4.8164204E-3,-1.2688413E-3,1.2529889E-3,-3.3367772E-3,-1.0326505E-4,-1.9655228E-3,-4.1741345E-4,1.9383192E-3,-1.1076033E-3,-2.6001732E-3,6.018168E-3,-1.8702627E-3,-2.750799E-3,5.9223047E-4,-6.7204116E-3,1.113365E-3,6.0314935E-5,-9.976545E-4,-2.8934685E-4,2.4606027E-3,6.2112807E-4,3.5733532E-3,-2.2683889E-3,8.861036E-4,1.4582723E-3,-1.4686539E-3,1.6957342E-3,2.9408434E-4,-5.5092573E-4,-2.0959799E-3,3.842565E-4,-3.698913E-4,1.0709176E-3,3.2293385E-5],"categories":[],"categories_nodes":[],"categories_segments":[],"categories_sizes":[],"default_left":[0,0,0,0,0,0,0,0,0,0,0,0,0,0,0,0,0,0,0,0,0,0,0,0,0,0,0,0,0,0,0,0,0,0,0,0,0,0,0,0,0,0,0,0,0,0,0,0,0,0,0,0,0,0,0,0,0,0,0,0,0,0,0,0,0,0,0,0,0,0,0,0,0,0,0,0,0,0,0,0,0,0,0,0,0,0,0,0,0],"id":5,"left_children":[1,3,5,7,9,11,13,15,17,-1,19,21,23,25,27,29,31,-1,33,-1,-1,35,37,39,41,43,45,47,49,51,53,55,57,59,-1,61,63,65,67,-1,-1,69,71,73,75,77,79,81,83,85,87,-1,-1,-1,-1,-1,-1,-1,-1,-1,-1,-1,-1,-1,-1,-1,-1,-1,-1,-1,-1,-1,-1,-1,-1,-1,-1,-1,-1,-1,-1,-1,-1,-1,-1,-1,-1,-1,-1],"loss_changes":[4.236011E-4,1.8374069E-4,1.0348215E-4,3.7150847E-4,6.833847E-5,1.0724486E-4,1.0611644E-4,5.29268E-5,2.7734926E-4,0E0,1.02295046E-4,2.1138943E-4,1.4657297E-4,1.2836797E-4,8.072939E-5,2.1506919E-4,1.4979899E-4,0E0,1.024688E-5,0E0,0E0,7.3953466E-5,1.1245298E-4,1.693581E-6,1.6919654E-4,2.4172498E-4,1.274532E-4,1.6235962E-4,5.8230195E-5,9.768605E-5,5.0390052E-5,1.1062695E-4,1.6818252E-4,8.165507E-6,0E0,1.033154E-4,1.40271E-5,6.031565E-4,1.6858219E-4,0E0,0E0,6.4311386E-4,8.077495E-5,1.7881158E-4,9.1945694E-5,7.226478E-5,5.441311E-5,1.7616876E-5,4.7100562E-5,6.931145E-5,6.521164E-5,0E0,0E0,0E0,0E0,0E0,0E0,0E0,0E0,0E0,0E0,0E0,0E0,0E0,0E0,0E0,0E0,0E0,0E0,0E0,0E0,0E0,0E0,0E0,0E0,0E0,0E0,0E0,0E0,0E0,0E0,0E0,0E0,0E0,0E0,0E0,0E0,0E0,0E0],"parents":[2147483647,0,0,1,1,2,2,3,3,4,4,5,5,6,6,7,7,8,8,10,10,11,11,12,12,13,13,14,14,15,15,16,16,18,18,21,21,22,22,23,23,24,24,25,25,26,26,27,27,28,28,29,29,30,30,31,31,32,32,33,33,35,35,36,36,37,37,38,38,41,41,42,42,43,43,44,44,45,45,46,46,47,47,48,48,49,49,50,50],"right_children":[2,4,6,8,10,12,14,16,18,-1,20,22,24,26,28,30,32,-1,34,-1,-1,36,38,40,42,44,46,48,50,52,54,56,58,60,-1,62,64,66,68,-1,-1,70,72,74,76,78,80,82,84,86,88,-1,-1,-1,-1,-1,-1,-1,-1,-1,-1,-1,-1,-1,-1,-1,-1,-1,-1,-1,-1,-1,-1,-1,-1,-1,-1,-1,-1,-1,-1,-1,-1,-1,-1,-1,-1,-1,-1],"split_conditions":[1.1E1,1E1,5.2E1,9E0,1E0,2E0,6.6E1,2E0,1E0,-5.2069128E-3,1E0,1E0,1.2E1,1E0,7.1E1,6E0,6E0,5.202651E-3,2E0,1.7540008E-3,-2.9960275E-3,4.5E1,1.5E1,1E0,1.6E1,2E0,2E0,1E0,2E0,5E0,1E0,1E0,8E0,1E0,2.5822222E-4,4.3E1,5.1E1,1E0,1.7E1,8.50454E-4,3.3756942E-3,1E0,1E0,6.2E1,5.5E1,5.3E1,5.3E1,1E0,2E0,1E0,8.7E1,-6.630526E-4,1.6837368E-3,-3.819396E-3,-1.3706471E-3,-4.8164204E-3,-1.2688413E-3,1.2529889E-3,-3.3367772E-3,-1.0326505E-4,-1.9655228E-3,-4.1741345E-4,1.9383192E-3,-1.1076033E-3,-2.6001732E-3,6.018168E-3,-1.8702627E-3,-2.750799E-3,5.9223047E-4,-6.7204116E-3,1.113365E-3,6.0314935E-5,-9.976545E-4,-2.8934685E-4,2.4606027E-3,6.2112807E-4,3.5733532E-3,-2.2683889E-3,8.861036E-4,1.4582723E-3,-1.4686539E-3,1.6957342E-3,2.9408434E-4,-5.5092573E-4,-2.0959799E-3,3.842565E-4,-3.698913E-4,1.0709176E-3,3.2293385E-5],"split_indices":[0,0,0,0,1,2,0,2,1,0,2,2,0,1,0,0,0,0,2,0,0,0,0,1,0,2,2,2,2,0,1,1,0,2,0,0,0,1,0,0,0,1,1,0,0,0,0,1,2,2,0,0,0,0,0,0,0,0,0,0,0,0,0,0,0,0,0,0,0,0,0,0,0,0,0,0,0,0,0,0,0,0,0,0,0,0,0,0,0],"split_type":[0,0,0,0,0,0,0,0,0,0,0,0,0,0,0,0,0,0,0,0,0,0,0,0,0,0,0,0,0,0,0,0,0,0,0,0,0,0,0,0,0,0,0,0,0,0,0,0,0,0,0,0,0,0,0,0,0,0,0,0,0,0,0,0,0,0,0,0,0,0,0,0,0,0,0,0,0,0,0,0,0,0,0,0,0,0,0,0,0],"sum_hessian":[6.06E2,6.1E1,5.45E2,5.5E1,6E0,2.51E2,2.94E2,4.9E1,6E0,3E0,3E0,1.69E2,8.2E1,8.4E1,2.1E2,3.2E1,1.7E1,3E0,3E0,1E0,2E0,8.8E1,8.1E1,2E0,8E1,4.4E1,4E1,3E1,1.8E2,2.1E1,1.1E1,1E1,7E0,2E0,1E0,7.3E1,1.5E1,8E0,7.3E1,1E0,1E0,9E0,7.1E1,2.9E1,1.5E1,2.7E1,1.3E1,9E0,2.1E1,1.2E2,6E1,1.6E1,5E0,5E0,6E0,5E0,5E0,5E0,2E0,1E0,1E0,6.9E1,4E0,1.3E1,2E0,4E0,4E0,3E0,7E1,4E0,5E0,3.5E1,3.6E1,2.2E1,7E0,4E0,1.1E1,1E0,2.6E1,1E0,1.2E1,4E0,5E0,1E1,1.1E1,5.8E1,6.2E1,3.2E1,2.8E1],"tree_param":{"num_deleted":"0","num_feature":"3","num_nodes":"89","size_leaf_vector":"1"}},{"base_weights":[-1.0154412E-4,-1.567704E-3,6.512888E-5,-1.1507326E-3,-4.6795183E-3,2.211608E-3,3.314936E-5,-1.7004525E-3,2.940229E-3,-6.5086335E-3,-1.6805232E-3,-4.464388E-4,1.9478619E-3,-5.4309174E-4,2.1026672E-4,-4.016906E-4,-2.1459179E-3,6.503314E-3,-1.357913E-3,-3.8554668E-3,-7.2543323E-4,1.3155043E-3,-1.9973516E-3,-1.399368E-3,6.3528615E-4,-3.1008307E-4,-2.5625457E-3,3.2889673E-3,1.5679946E-4,-9.909953E-4,1.6416237E-4,-6.7168092E-3,-1.0445579E-3,3.553182E-4,4.0986636E-3,-2.0687778E-3,1.9367039E-4,-6.5910886E-4,7.4768683E-4,-1.8917389E-3,1.476407E-4,1.1126101E-2,-1.0355532E-3,-2.228697E-3,1.9201385E-4,7.823035E-4,-1.6494244E-3,8.3886384E-4,-8.8441744E-4,-1.1199653E-3,-5.9696683E-3,3.8060546E-4,-1.1125536E-3,-7.7441335E-5,-1.4741421E-3,-2.1199137E-4,-1.4639907E-3,5.7830836E-4,-1.4477968E-4,-4.557868E-4,5.788207E-4,7.083893E-3,1.2606829E-3,-4.6154163E-3,1.7900392E-3,1.8873045E-3,6.410013E-5],"categories":[],"categories_nodes":[],"categories_segments":[],"categories_sizes":[],"default_left":[0,0,0,0,0,0,0,0,0,0,0,0,0,0,0,0,0,0,0,0,0,0,0,0,0,0,0,0,0,0,0,0,0,0,0,0,0,0,0,0,0,0,0,0,0,0,0,0,0,0,0,0,0,0,0,0,0,0,0,0,0,0,0,0,0,0,0],"id":6,"left_children":[1,3,5,7,9,11,13,15,17,19,21,23,-1,25,27,29,31,33,35,-1,-1,-1,-1,-1,-1,37,39,41,43,45,47,49,51,-1,-1,53,-1,55,57,-1,59,61,-1,63,65,-1,-1,-1,-1,-1,-1,-1,-1,-1,-1,-1,-1,-1,-1,-1,-1,-1,-1,-1,-1,-1,-1],"loss_changes":[1.4843425E-4,7.506246E-5,3.7405967E-5,1.3093719E-4,2.7460657E-5,3.7550875E-5,5.512577E-5,2.8065682E-5,1.1603344E-4,1.313629E-5,5.0420746E-5,1.971168E-5,0E0,5.8965292E-5,6.746808E-5,4.831122E-6,1.7924917E-4,3.3426186E-5,5.763881E-6,0E0,0E0,0E0,0E0,0E0,0E0,4.2949538E-5,4.3574997E-5,3.1709665E-4,3.461748E-5,4.6447094E-5,2.6373364E-5,1.369211E-4,6.777955E-5,0E0,0E0,4.59321E-6,0E0,4.5170575E-5,1.2635581E-5,0E0,6.404311E-6,4.2796484E-5,0E0,2.770901E-4,9.142062E-5,0E0,0E0,0E0,0E0,0E0,0E0,0E0,0E0,0E0,0E0,0E0,0E0,0E0,0E0,0E0,0E0,0E0,0E0,0E0,0E0,0E0,0E0],"parents":[2147483647,0,0,1,1,2,2,3,3,4,4,5,5,6,6,7,7,8,8,9,9,10,10,11,11,13,13,14,14,15,15,16,16,17,17,18,18,25,25,26,26,27,27,28,28,29,29,30,30,31,31,32,32,35,35,37,37,38,38,40,40,41,41,43,43,44,44],"right_children":[2,4,6,8,10,12,14,16,18,20,22,24,-1,26,28,30,32,34,36,-1,-1,-1,-1,-1,-1,38,40,42,44,46,48,50,52,-1,-1,54,-1,56,58,-1,60,62,-1,64,66,-1,-1,-1,-1,-1,-1,-1,-1,-1,-1,-1,-1,-1,-1,-1,-1,-1,-1,-1,-1,-1,-1],"split_conditions":[1.1E1,1E1,1.2E1,9E0,1E0,1E0,3.3E1,3E0,1E0,2E0,1E0,1E0,1.9478619E-3,3.1E1,3.4E1,2E0,4E0,1E0,2E0,-3.8554668E-3,-7.2543323E-4,1.3155043E-3,-1.9973516E-3,-1.399368E-3,6.3528615E-4,2.6E1,2E0,1E0,3.5E1,1E0,2E0,2E0,6E0,3.553182E-4,4.0986636E-3,1E0,1.9367039E-4,2.5E1,2E0,-1.8917389E-3,3.2E1,1E0,-1.0355532E-3,1E0,3.6E1,7.823035E-4,-1.6494244E-3,8.3886384E-4,-8.8441744E-4,-1.1199653E-3,-5.9696683E-3,3.8060546E-4,-1.1125536E-3,-7.7441335E-5,-1.4741421E-3,-2.1199137E-4,-1.4639907E-3,5.7830836E-4,-1.4477968E-4,-4.557868E-4,5.788207E-4,7.083893E-3,1.2606829E-3,-4.6154163E-3,1.7900392E-3,1.8873045E-3,6.410013E-5],"split_indices":[0,0,0,0,1,1,0,0,1,2,2,2,0,0,0,0,0,2,2,0,0,0,0,0,0,0,2,2,0,1,2,2,0,0,0,2,0,0,2,0,0,1,0,1,0,0,0,0,0,0,0,0,0,0,0,0,0,0,0,0,0,0,0,0,0,0,0],"split_type":[0,0,0,0,0,0,0,0,0,0,0,0,0,0,0,0,0,0,0,0,0,0,0,0,0,0,0,0,0,0,0,0,0,0,0,0,0,0,0,0,0,0,0,0,0,0,0,0,0,0,0,0,0,0,0,0,0,0,0,0,0,0,0,0,0,0,0],"sum_hessian":[6.06E2,6.1E1,5.45E2,5.5E1,6E0,7E0,5.38E2,4.9E1,6E0,3E0,3E0,3E0,4E0,1.26E2,4.12E2,1.3E1,3.6E1,3E0,3E0,2E0,1E0,1E0,2E0,1E0,2E0,1.14E2,1.2E1,6E0,4.06E2,6E0,7E0,6E0,3E1,1E0,2E0,2E0,1E0,8.6E1,2.8E1,8E0,4E0,2E0,4E0,5E0,4.01E2,3E0,3E0,4E0,3E0,4E0,2E0,1.2E1,1.8E1,1E0,1E0,7.9E1,7E0,2E1,8E0,2E0,2E0,1E0,1E0,2E0,3E0,6E0,3.95E2],"tree_param":{"num_deleted":"0","num_feature":"3","num_nodes":"67","size_leaf_vector":"1"}},{"base_weights":[-6.111921E-5,-7.899471E-4,9.289847E-5,-4.2569137E-4,-3.6078095E-3,3.5050937E-3,4.4555192E-5,-1.352078E-3,1.8859115E-4,-5.8641285E-3,7.238627E-4,3.4833476E-3,-8.327812E-4,-1.8317024E-3,1.02852515E-4,-2.5313317E-3,-3.9596307E-5,1.5798509E-3,-3.334354E-5,-5.666338E-3,-3.164649E-4,3.3039253E-3,-1.0487437E-3,1.0399123E-3,-2.3926497E-3,-5.025089E-3,8.555651E-4,1.5660198E-4,-6.841671E-4,9.778738E-4,-3.2081252E-3,9.788275E-4,-2.4093192E-3,-1.6074895E-3,5.169064E-3,6.038231E-4,-1.2350281E-3,-1.107792E-3,8.440713E-4,2.2525042E-3,2.2543967E-4,-7.362485E-3,5.4560107E-4,4.3851435E-3,-4.652694E-3,-1.18214404E-4,3.2903458E-4,-2.1691644E-3,3.678924E-4,-3.5872063E-4,1.5159547E-3,-7.410844E-4,-3.0626755E-3,-2.4257736E-4,2.3800358E-3,-2.1627743E-3,-1.8490851E-4,-1.6989609E-3,3.593862E-4,3.9883554E-3,-8.134693E-4,1.2009214E-3,-5.639262E-4,-2.2183987E-3,8.8503363E-4,-1.5626153E-3,-4.5727887E-3,-1.0580271E-3,1.4672279E-3,8.361737E-4,2.6617274E-3,1.3260543E-4,-3.1901996E-3,8.695053E-5,-4.9593707E-4,6.0862844E-4,8.066449E-5,-3.2238662E-4,-1.2810022E-3,-2.8221606E-4,6.317139E-4],"categories":[],"categories_nodes":[],"categories_segments":[],"categories_sizes":[],"default_left":[0,0,0,0,0,0,0,0,0,0,0,0,0,0,0,0,0,0,0,0,0,0,0,0,0,0,0,0,0,0,0,0,0,0,0,0,0,0,0,0,0,0,0,0,0,0,0,0,0,0,0,0,0,0,0,0,0,0,0,0,0,0,0,0,0,0,0,0,0,0,0,0,0,0,0,0,0,0,0,0,0],"id":7,"left_children":[1,3,5,7,9,11,13,15,17,19,21,-1,23,25,27,29,31,33,35,-1,37,39,-1,-1,-1,41,43,45,47,49,51,53,55,57,59,61,63,-1,-1,-1,-1,65,67,69,71,73,75,77,79,-1,-1,-1,-1,-1,-1,-1,-1,-1,-1,-1,-1,-1,-1,-1,-1,-1,-1,-1,-1,-1,-1,-1,-1,-1,-1,-1,-1,-1,-1,-1,-1],"loss_changes":[6.8210575E-5,1.0726498E-4,8.265209E-5,5.4315984E-5,1.2152844E-4,1.109137E-4,5.4441265E-5,5.8714228E-5,1.7961269E-5,2.3911492E-4,4.332624E-5,0E0,5.6001096E-5,1.3302155E-4,2.0496649E-5,5.063729E-5,4.821257E-5,9.9829565E-5,3.9795075E-5,0E0,2.2775166E-5,8.249022E-6,0E0,0E0,0E0,9.516334E-5,1.9537921E-4,2.145796E-5,4.9229486E-5,1.6104166E-5,7.651627E-5,7.980881E-5,2.1849264E-5,2.3267403E-5,8.9300716E-5,1.08570865E-4,1.8104263E-4,0E0,0E0,0E0,0E0,9.195064E-6,2.5284391E-5,6.3700136E-6,3.567891E-5,4.4834156E-5,4.1214458E-5,6.1330284E-6,1.657678E-5,0E0,0E0,0E0,0E0,0E0,0E0,0E0,0E0,0E0,0E0,0E0,0E0,0E0,0E0,0E0,0E0,0E0,0E0,0E0,0E0,0E0,0E0,0E0,0E0,0E0,0E0,0E0,0E0,0E0,0E0,0E0,0E0],"parents":[2147483647,0,0,1,1,2,2,3,3,4,4,5,5,6,6,7,7,8,8,9,9,10,10,12,12,13,13,14,14,15,15,16,16,17,17,18,18,20,20,21,21,25,25,26,26,27,27,28,28,29,29,30,30,31,31,32,32,33,33,34,34,35,35,36,36,41,41,42,42,43,43,44,44,45,45,46,46,47,47,48,48],"right_children":[2,4,6,8,10,12,14,16,18,20,22,-1,24,26,28,30,32,34,36,-1,38,40,-1,-1,-1,42,44,46,48,50,52,54,56,58,60,62,64,-1,-1,-1,-1,66,68,70,72,74,76,78,80,-1,-1,-1,-1,-1,-1,-1,-1,-1,-1,-1,-1,-1,-1,-1,-1,-1,-1,-1,-1,-1,-1,-1,-1,-1,-1,-1,-1,-1,-1,-1,-1],"split_conditions":[1.8E1,1.6E1,1.9E1,7E0,2E0,1E0,2.1E1,1E0,8E0,1.7E1,1E0,3.4833476E-3,2E0,1E0,9.6E1,2E0,5E0,2E0,2E0,-5.666338E-3,1E0,1.7E1,-1.0487437E-3,1.0399123E-3,-2.3926497E-3,2E0,2E0,5E1,9.8E1,2E0,2E0,4E0,6E0,1E0,1E0,1E0,1E0,-1.107792E-3,8.440713E-4,2.2525042E-3,2.2543967E-4,1E0,2E1,1E0,2E1,4.3E1,5.7E1,1E0,1E0,-3.5872063E-4,1.5159547E-3,-7.410844E-4,-3.0626755E-3,-2.4257736E-4,2.3800358E-3,-2.1627743E-3,-1.8490851E-4,-1.6989609E-3,3.593862E-4,3.9883554E-3,-8.134693E-4,1.2009214E-3,-5.639262E-4,-2.2183987E-3,8.8503363E-4,-1.5626153E-3,-4.5727887E-3,-1.0580271E-3,1.4672279E-3,8.361737E-4,2.6617274E-3,1.3260543E-4,-3.1901996E-3,8.695053E-5,-4.9593707E-4,6.0862844E-4,8.066449E-5,-3.2238662E-4,-1.2810022E-3,-2.8221606E-4,6.317139E-4],"split_indices":[0,0,0,0,2,1,0,1,0,0,1,0,2,1,0,0,0,2,2,0,2,0,0,0,0,2,2,0,0,2,2,0,0,1,1,1,1,0,0,0,0,2,0,2,0,0,0,2,1,0,0,0,0,0,0,0,0,0,0,0,0,0,0,0,0,0,0,0,0,0,0,0,0,0,0,0,0,0,0,0,0],"split_type":[0,0,0,0,0,0,0,0,0,0,0,0,0,0,0,0,0,0,0,0,0,0,0,0,0,0,0,0,0,0,0,0,0,0,0,0,0,0,0,0,0,0,0,0,0,0,0,0,0,0,0,0,0,0,0,0,0,0,0,0,0,0,0,0,0,0,0,0,0,0,0,0,0,0,0,0,0,0,0,0,0],"sum_hessian":[6.06E2,1.05E2,5.01E2,9.4E1,1.1E1,6E0,4.95E2,3.7E1,5.7E1,7E0,4E0,3E0,3E0,1.4E1,4.81E2,1.9E1,1.8E1,7E0,5E1,3E0,4E0,2E0,2E0,2E0,1E0,6E0,8E0,4.51E2,3E1,3E0,1.6E1,1.3E1,5E0,4E0,3E0,3.3E1,1.7E1,2E0,2E0,1E0,1E0,4E0,2E0,5E0,3E0,1.74E2,2.77E2,1.2E1,1.8E1,2E0,1E0,1.1E1,5E0,1E1,3E0,2E0,3E0,2E0,2E0,2E0,1E0,1.6E1,1.7E1,8E0,9E0,2E0,2E0,1E0,1E0,2E0,3E0,1E0,2E0,1.31E2,4.3E1,4.3E1,2.34E2,3E0,9E0,9E0,9E0],"tree_param":{"num_deleted":"0","num_feature":"3","num_nodes":"81","size_leaf_vector":"1"}},{"base_weights":[-4.7601723E-5,-1.1803001E-3,-8.993611E-6,1.2284305E-4,-3.6179721E-3,-3.1565974E-4,1.4632323E-4,-6.2948465E-4,7.657744E-4,-9.5047953E-4,-6.8578026E-3,-1.0133499E-3,8.4206345E-4,4.7479922E-4,-3.1123075E-4,-1.8575788E-3,1.6271671E-3,-3.856495E-4,1.5337586E-3,-8.7457895E-4,1.650254E-4,-4.2545125E-3,-8.8883936E-4,-5.1116553E-4,-2.981553E-3,4.4101714E-3,2.8868247E-4,5.2489773E-5,2.4583414E-3,-1.3861798E-3,5.835537E-5,-2.391537E-4,-1.3088286E-3,1.1369586E-3,8.34167E-5,2.082765E-3,-1.9477233E-3,-2.9854476E-4,1.1078715E-3,-6.483495E-4,7.7211857E-4,-1.2181158E-3,-7.6637385E-5,-4.3589557E-3,-1.1261204E-3,5.193216E-3,-6.5253675E-4,-6.1122514E-4,1.103207E-3,1.9688671E-3,-4.3089713E-5,4.8646033E-3,-4.5724292E-4,-1.3917685E-4,-2.1482133E-3,9.96652E-4,-4.584372E-4,1.3903826E-3,1.7169118E-4,-1.3234796E-3,1.0009557E-4,5.895265E-4,-6.2695146E-4,-2.581656E-3,1.5572707E-4,-2.4373233E-3,5.5524706E-5,-1.3010161E-3,4.4392757E-4,9.604216E-4,-4.2767415E-4,1.6756306E-3,-2.9847026E-4,5.0331993E-5,-3.3378688E-4,2.667354E-3,5.4518383E-5,4.4199824E-4,-8.76379E-4,-9.467966E-4,8.153518E-4,-1.8440038E-3,-6.934075E-4,1.0166054E-3,2.4067858E-5,-1.2594223E-3,-8.0891055E-5],"categories":[],"categories_nodes":[],"categories_segments":[],"categories_sizes":[],"default_left":[0,0,0,0,0,0,0,0,0,0,0,0,0,0,0,0,0,0,0,0,0,0,0,0,0,0,0,0,0,0,0,0,0,0,0,0,0,0,0,0,0,0,0,0,0,0,0,0,0,0,0,0,0,0,0,0,0,0,0,0,0,0,0,0,0,0,0,0,0,0,0,0,0,0,0,0,0,0,0,0,0,0,0,0,0,0,0],"id":8,"left_children":[1,3,5,7,9,11,13,15,17,19,21,23,25,27,29,31,33,35,37,-1,39,-1,-1,41,43,45,47,49,51,53,55,-1,-1,-1,-1,57,-1,-1,-1,-1,-1,59,61,63,65,-1,-1,67,69,71,73,75,77,79,81,83,85,-1,-1,-1,-1,-1,-1,-1,-1,-1,-1,-1,-1,-1,-1,-1,-1,-1,-1,-1,-1,-1,-1,-1,-1,-1,-1,-1,-1,-1,-1],"loss_changes":[2.6534313E-5,6.397715E-5,2.805287E-5,7.253774E-6,5.3977376E-5,1.6078424E-4,5.8913312E-5,2.2422255E-5,7.665698E-6,4.743303E-6,1.003893E-5,1.2103762E-4,1.4681609E-4,1.908594E-4,6.523583E-5,3.989726E-6,2.4540468E-6,4.276784E-5,8.589022E-6,0E0,8.050493E-6,0E0,0E0,3.062563E-5,5.8983263E-5,3.5511295E-4,4.90521E-5,3.470328E-5,2.828507E-4,3.9611856E-5,6.010018E-5,0E0,0E0,0E0,0E0,2.6874031E-6,0E0,0E0,0E0,0E0,0E0,7.753836E-5,9.461011E-5,5.4201548E-5,5.619209E-5,0E0,0E0,9.7810385E-5,5.769148E-5,3.3923116E-5,1.6315913E-5,4.8601825E-5,3.4563756E-5,5.5874716E-5,2.5367728E-5,4.316262E-5,4.8490925E-5,0E0,0E0,0E0,0E0,0E0,0E0,0E0,0E0,0E0,0E0,0E0,0E0,0E0,0E0,0E0,0E0,0E0,0E0,0E0,0E0,0E0,0E0,0E0,0E0,0E0,0E0,0E0,0E0,0E0,0E0],"parents":[2147483647,0,0,1,1,2,2,3,3,4,4,5,5,6,6,7,7,8,8,9,9,10,10,11,11,12,12,13,13,14,14,15,15,16,16,17,17,18,18,20,20,23,23,24,24,25,25,26,26,27,27,28,28,29,29,30,30,35,35,41,41,42,42,43,43,44,44,47,47,48,48,49,49,50,50,51,51,52,52,53,53,54,54,55,55,56,56],"right_children":[2,4,6,8,10,12,14,16,18,20,22,24,26,28,30,32,34,36,38,-1,40,-1,-1,42,44,46,48,50,52,54,56,-1,-1,-1,-1,58,-1,-1,-1,-1,-1,60,62,64,66,-1,-1,68,70,72,74,76,78,80,82,84,86,-1,-1,-1,-1,-1,-1,-1,-1,-1,-1,-1,-1,-1,-1,-1,-1,-1,-1,-1,-1,-1,-1,-1,-1,-1,-1,-1,-1,-1,-1],"split_conditions":[4E0,3E0,1E0,2E0,2E0,6.2E1,6.1E1,2E0,1E0,1E0,1E0,5.1E1,6.7E1,5.1E1,7.1E1,1E0,1E0,2E0,1E0,-8.7457895E-4,1E0,-4.2545125E-3,-8.8883936E-4,2.2E1,1E0,1E0,1E0,6E0,1E0,6.5E1,8.2E1,-2.391537E-4,-1.3088286E-3,1.1369586E-3,8.34167E-5,1E0,-1.9477233E-3,-2.9854476E-4,1.1078715E-3,-6.483495E-4,7.7211857E-4,1E0,1E0,6E1,5.3E1,5.193216E-3,-6.5253675E-4,8.2E1,9.2E1,2E0,4.3E1,6E1,2E0,1E0,6.7E1,1E0,8.4E1,1.3903826E-3,1.7169118E-4,-1.3234796E-3,1.0009557E-4,5.895265E-4,-6.2695146E-4,-2.581656E-3,1.5572707E-4,-2.4373233E-3,5.5524706E-5,-1.3010161E-3,4.4392757E-4,9.604216E-4,-4.2767415E-4,1.6756306E-3,-2.9847026E-4,5.0331993E-5,-3.3378688E-4,2.667354E-3,5.4518383E-5,4.4199824E-4,-8.76379E-4,-9.467966E-4,8.153518E-4,-1.8440038E-3,-6.934075E-4,1.0166054E-3,2.4067858E-5,-1.2594223E-3,-8.0891055E-5],"split_indices":[0,0,2,0,2,0,0,2,1,1,1,0,0,0,0,1,1,2,2,0,2,0,0,0,1,1,1,0,1,0,0,0,0,0,0,2,0,0,0,0,0,1,1,0,0,0,0,0,0,2,0,0,2,1,0,1,0,0,0,0,0,0,0,0,0,0,0,0,0,0,0,0,0,0,0,0,0,0,0,0,0,0,0,0,0,0,0],"split_type":[0,0,0,0,0,0,0,0,0,0,0,0,0,0,0,0,0,0,0,0,0,0,0,0,0,0,0,0,0,0,0,0,0,0,0,0,0,0,0,0,0,0,0,0,0,0,0,0,0,0,0,0,0,0,0,0,0,0,0,0,0,0,0,0,0,0,0,0,0,0,0,0,0,0,0,0,0,0,0,0,0,0,0,0,0,0,0],"sum_hessian":[6.06E2,1.9E1,5.87E2,1.3E1,6E0,1.97E2,3.9E2,6E0,7E0,4E0,2E0,1.23E2,7.4E1,2.27E2,1.63E2,4E0,2E0,3E0,4E0,2E0,2E0,1E0,1E0,9.9E1,2.4E1,9E0,6.5E1,1.88E2,3.9E1,4.1E1,1.22E2,2E0,2E0,1E0,1E0,2E0,1E0,1E0,3E0,1E0,1E0,3.7E1,6.2E1,1.3E1,1.1E1,4E0,5E0,3.1E1,3.4E1,8E0,1.8E2,2.1E1,1.8E1,1.6E1,2.5E1,4.3E1,7.9E1,1E0,1E0,1.8E1,1.9E1,3E1,3.2E1,1.1E1,2E0,2E0,9E0,1.3E1,1.8E1,2.4E1,1E1,5E0,3E0,1.47E2,3.3E1,1.9E1,2E0,9E0,9E0,8E0,8E0,7E0,1.8E1,2E1,2.3E1,9E0,7E1],"tree_param":{"num_deleted":"0","num_feature":"3","num_nodes":"87","size_leaf_vector":"1"}},{"base_weights":[-3.5722675E-5,-5.655755E-4,2.450919E-5,-2.590402E-4,-2.9370615E-3,1.2207854E-3,-2.3297483E-5,-5.794948E-4,2.0669273E-3,5.7419143E-6,-4.115331E-3,2.5080952E-3,-1.1846051E-3,-1.2014477E-3,2.081305E-5,-3.8730237E-4,-1.9243559E-3,4.6250224E-3,-1.0078996E-3,-1.0982901E-3,1.1025965E-3,-2.7529895E-3,-1.3529062E-3,2.5289654E-4,6.516874E-3,3.0589222E-3,-6.192863E-3,-1.0848045E-4,-3.5514634E-3,9.750953E-4,-4.2403417E-6,-6.988245E-4,1.1408404E-3,-4.1425228E-4,-3.2963753E-3,3.6744276E-4,4.0738583E-3,5.787611E-5,-1.4210343E-3,-2.041459E-6,-1.0126382E-3,4.111922E-3,-3.0051072E-3,1.6864141E-3,4.5875213E-3,1.8880168E-3,6.6108507E-4,-6.9754273E-3,5.217095E-4,1.1045709E-3,-1.4793277E-3,-3.3948347E-3,1.949966E-3,2.860461E-3,-1.0495697E-3,-1.1386593E-3,3.107195E-5,-1.6082404E-4,-1.1616136E-3,-4.2354464E-4,1.6702712E-3,1.5977174E-3,-1.3413131E-3,-3.0389577E-3,5.6667626E-4,-9.772032E-4,-8.85725E-5,-7.836123E-4,4.2102137E-3,6.186515E-4,-3.8299758E-3,-1.3157278E-3,2.5805384E-3,1.1781752E-3,-8.835892E-4,-9.836971E-4,-8.6387E-5,1.6767979E-3,-2.143234E-4,1.7295778E-4,2.3299456E-3,3.3195614E-4,-1.7777582E-3,-1.490593E-3,2.1046732E-4,4.1068508E-4,-4.2552533E-6],"categories":[],"categories_nodes":[],"categories_segments":[],"categories_sizes":[],"default_left":[0,0,0,0,0,0,0,0,0,0,0,0,0,0,0,0,0,0,0,0,0,0,0,0,0,0,0,0,0,0,0,0,0,0,0,0,0,0,0,0,0,0,0,0,0,0,0,0,0,0,0,0,0,0,0,0,0,0,0,0,0,0,0,0,0,0,0,0,0,0,0,0,0,0,0,0,0,0,0,0,0,0,0,0,0,0,0],"id":9,"left_children":[1,3,5,7,9,11,13,15,17,19,21,23,25,27,29,31,33,35,37,-1,-1,-1,39,41,43,45,47,49,51,53,55,57,59,61,63,-1,-1,-1,65,-1,-1,67,69,71,-1,-1,-1,-1,-1,73,75,-1,77,79,81,83,85,-1,-1,-1,-1,-1,-1,-1,-1,-1,-1,-1,-1,-1,-1,-1,-1,-1,-1,-1,-1,-1,-1,-1,-1,-1,-1,-1,-1,-1,-1],"loss_changes":[1.9385672E-5,4.4309723E-5,3.1254174E-5,4.2938333E-5,2.4295547E-5,6.799725E-5,2.7360617E-5,1.2178301E-5,5.9721453E-5,1.9375584E-5,1.1758719E-5,1.249202E-4,1.8896491E-4,4.8416037E-5,1.2149403E-5,2.2219507E-5,1.1065817E-5,4.882741E-5,2.021366E-6,0E0,0E0,0E0,2.7124574E-6,1.3808395E-4,4.8727976E-5,1.2346682E-6,2.3911265E-4,2.4914736E-5,1.2012819E-4,5.262629E-5,1.990461E-5,2.2534821E-5,3.7812555E-5,4.1324638E-5,4.3852815E-5,0E0,0E0,0E0,1.644155E-6,0E0,0E0,1.3553989E-4,1.2796425E-4,5.8590565E-5,0E0,0E0,0E0,0E0,0E0,3.2922464E-5,4.1238836E-6,0E0,1.1453582E-5,3.0061314E-5,3.241781E-5,4.4358778E-5,1.5084887E-5,0E0,0E0,0E0,0E0,0E0,0E0,0E0,0E0,0E0,0E0,0E0,0E0,0E0,0E0,0E0,0E0,0E0,0E0,0E0,0E0,0E0,0E0,0E0,0E0,0E0,0E0,0E0,0E0,0E0,0E0],"parents":[2147483647,0,0,1,1,2,2,3,3,4,4,5,5,6,6,7,7,8,8,9,9,10,10,11,11,12,12,13,13,14,14,15,15,16,16,17,17,18,18,22,22,23,23,24,24,25,25,26,26,27,27,28,28,29,29,30,30,31,31,32,32,33,33,34,34,38,38,41,41,42,42,43,43,49,49,50,50,52,52,53,53,54,54,55,55,56,56],"right_children":[2,4,6,8,10,12,14,16,18,20,22,24,26,28,30,32,34,36,38,-1,-1,-1,40,42,44,46,48,50,52,54,56,58,60,62,64,-1,-1,-1,66,-1,-1,68,70,72,-1,-1,-1,-1,-1,74,76,-1,78,80,82,84,86,-1,-1,-1,-1,-1,-1,-1,-1,-1,-1,-1,-1,-1,-1,-1,-1,-1,-1,-1,-1,-1,-1,-1,-1,-1,-1,-1,-1,-1,-1],"split_conditions":[1.1E1,1E1,1.4E1,9E0,1E0,2E0,1.7E1,8E0,1E0,1E0,2E0,1.3E1,1.3E1,1.6E1,1.9E1,7E0,2E0,2E0,1E0,-1.0982901E-3,1.1025965E-3,-2.7529895E-3,1E0,1E0,1E0,1.2E1,1E0,1E0,2E0,1E0,2.1E1,6E0,2E0,1E0,1E0,3.6744276E-4,4.0738583E-3,5.787611E-5,2E0,-2.041459E-6,-1.0126382E-3,1.2E1,1.2E1,1E0,4.5875213E-3,1.8880168E-3,6.6108507E-4,-6.9754273E-3,5.217095E-4,2E0,2E0,-3.3948347E-3,1E0,1.8E1,2E0,1E0,2.5E1,-1.6082404E-4,-1.1616136E-3,-4.2354464E-4,1.6702712E-3,1.5977174E-3,-1.3413131E-3,-3.0389577E-3,5.6667626E-4,-9.772032E-4,-8.85725E-5,-7.836123E-4,4.2102137E-3,6.186515E-4,-3.8299758E-3,-1.3157278E-3,2.5805384E-3,1.1781752E-3,-8.835892E-4,-9.836971E-4,-8.6387E-5,1.6767979E-3,-2.143234E-4,1.7295778E-4,2.3299456E-3,3.3195614E-4,-1.7777582E-3,-1.490593E-3,2.1046732E-4,4.1068508E-4,-4.2552533E-6],"split_indices":[0,0,0,0,2,2,0,0,1,1,2,0,0,0,0,0,2,2,2,0,0,0,1,1,1,0,1,1,2,1,0,0,2,1,1,0,0,0,2,0,0,0,0,2,0,0,0,0,0,2,2,0,1,0,2,1,0,0,0,0,0,0,0,0,0,0,0,0,0,0,0,0,0,0,0,0,0,0,0,0,0,0,0,0,0,0,0],"split_type":[0,0,0,0,0,0,0,0,0,0,0,0,0,0,0,0,0,0,0,0,0,0,0,0,0,0,0,0,0,0,0,0,0,0,0,0,0,0,0,0,0,0,0,0,0,0,0,0,0,0,0,0,0,0,0,0,0,0,0,0,0,0,0,0,0,0,0,0,0,0,0,0,0,0,0,0,0,0,0,0,0,0,0,0,0,0,0],"sum_hessian":[6.06E2,6.1E1,5.45E2,5.5E1,6E0,2E1,5.25E2,4.9E1,6E0,2E0,4E0,1.3E1,7E0,1.8E1,5.07E2,4.4E1,5E0,3E0,3E0,1E0,1E0,2E0,2E0,9E0,4E0,4E0,3E0,1.3E1,5E0,1.2E1,4.95E2,3.7E1,7E0,3E0,2E0,2E0,1E0,1E0,2E0,1E0,1E0,4E0,5E0,2E0,2E0,2E0,2E0,1E0,2E0,7E0,6E0,3E0,2E0,6E0,6E0,1.4E1,4.81E2,3.1E1,6E0,4E0,3E0,1E0,2E0,1E0,1E0,1E0,1E0,2E0,2E0,3E0,2E0,1E0,1E0,5E0,2E0,4E0,2E0,1E0,1E0,3E0,3E0,4E0,2E0,6E0,8E0,2.2E1,4.59E2],"tree_param":{"num_deleted":"0","num_feature":"3","num_nodes":"87","size_leaf_vector":"1"}},{"base_weights":[-2.2792934E-5,-1.8385053E-4,1.00875666E-4,-7.8922814E-5,-3.531672E-3,1.7490983E-3,3.6032983E-5,-1.8612626E-4,1.7951174E-3,2.2414725E-3,-5.8296323E-3,3.8636592E-3,-2.406931E-3,-7.684873E-4,6.8604015E-5,-6.970482E-5,-9.2840556E-4,-6.2479975E-4,2.8255642E-3,2.2693872E-3,-5.8828294E-4,-4.3201745E-3,-1.3879935E-4,7.273793E-3,-3.192067E-4,-4.547298E-3,5.357464E-4,-3.3116E-3,1.8844093E-3,4.1251737E-4,-4.330896E-6,-1.9147243E-4,1.2533168E-3,-1.856111E-3,-3.6138754E-5,-5.488594E-4,2.8192997E-5,3.8538675E-3,1.0264873E-3,9.576231E-4,-1.0617226E-3,3.0644736E-4,5.908271E-3,4.924536E-4,-1.0244647E-3,-4.2304844E-3,8.200109E-4,1.4635324E-3,-1.0617226E-3,-2.2003173E-3,-1.963377E-4,2.615139E-3,6.825775E-4,1.7945648E-3,-1.1383692E-3,-1.7547031E-4,3.3038988E-4,-4.8064143E-5,-7.59448E-4,1.4107014E-3,1.1707842E-4,4.7266058E-4,-5.451578E-4,3.253271E-3,4.504472E-4,-1.034985E-3,1.8903911E-3,2.2693872E-3,-2.0395517E-3,-5.8828294E-4,9.576231E-4,1.5328825E-4,-9.216368E-4,1.5328825E-4,1.6412338E-3,-1.17103256E-4,8.582324E-4,1.5056521E-3,-2.904155E-4,-9.086217E-4,-1.8909147E-4,-6.5839157E-4,-6.1727337E-6,-1.6924662E-4,4.1284927E-4],"categories":[],"categories_nodes":[],"categories_segments":[],"categories_sizes":[],"default_left":[0,0,0,0,0,0,0,0,0,0,0,0,0,0,0,0,0,0,0,0,0,0,0,0,0,0,0,0,0,0,0,0,0,0,0,0,0,0,0,0,0,0,0,0,0,0,0,0,0,0,0,0,0,0,0,0,0,0,0,0,0,0,0,0,0,0,0,0,0,0,0,0,0,0,0,0,0,0,0,0,0,0,0,0,0],"id":10,"left_children":[1,3,5,7,9,11,13,15,17,19,21,23,25,27,29,31,33,35,37,-1,-1,-1,39,41,43,45,47,49,51,53,55,57,59,-1,61,-1,-1,63,65,-1,-1,67,-1,69,71,-1,-1,-1,-1,-1,-1,73,75,77,79,81,83,-1,-1,-1,-1,-1,-1,-1,-1,-1,-1,-1,-1,-1,-1,-1,-1,-1,-1,-1,-1,-1,-1,-1,-1,-1,-1,-1,-1],"loss_changes":[1.21086305E-5,9.2459E-5,3.6702033E-5,5.196633E-5,1.19198616E-4,1.2354585E-4,8.752468E-6,2.1021086E-5,3.6675752E-5,2.8896964E-5,9.477265E-5,1.3069905E-4,3.392825E-5,9.3946415E-5,8.02844E-6,3.439343E-5,8.1834776E-5,1.6726249E-6,1.4544021E-5,0E0,0E0,0E0,1.6296579E-5,1.5463331E-4,3.3666513E-6,8.652158E-5,2.5292386E-5,2.052365E-5,4.3624623E-6,1.2207321E-4,1.5238212E-5,2.4533592E-5,2.8105696E-5,0E0,2.7931139E-5,0E0,0E0,4.1137966E-5,5.0468887E-5,0E0,0E0,7.4197385E-5,0E0,9.37742E-6,3.83471E-6,0E0,0E0,0E0,0E0,0E0,0E0,5.1559527E-6,4.1934127E-6,8.845619E-5,1.3246663E-5,3.2750806E-5,3.0096817E-5,0E0,0E0,0E0,0E0,0E0,0E0,0E0,0E0,0E0,0E0,0E0,0E0,0E0,0E0,0E0,0E0,0E0,0E0,0E0,0E0,0E0,0E0,0E0,0E0,0E0,0E0,0E0,0E0],"parents":[2147483647,0,0,1,1,2,2,3,3,4,4,5,5,6,6,7,7,8,8,9,9,10,10,11,11,12,12,13,13,14,14,15,15,16,16,17,17,18,18,22,22,23,23,24,24,25,25,26,26,27,27,28,28,29,29,30,30,31,31,32,32,34,34,37,37,38,38,41,41,43,43,44,44,51,51,52,52,53,53,54,54,55,55,56,56],"right_children":[2,4,6,8,10,12,14,16,18,20,22,24,26,28,30,32,34,36,38,-1,-1,-1,40,42,44,46,48,50,52,54,56,58,60,-1,62,-1,-1,64,66,-1,-1,68,-1,70,72,-1,-1,-1,-1,-1,-1,74,76,78,80,82,84,-1,-1,-1,-1,-1,-1,-1,-1,-1,-1,-1,-1,-1,-1,-1,-1,-1,-1,-1,-1,-1,-1,-1,-1,-1,-1,-1,-1],"split_conditions":[4.4E1,4.3E1,4.6E1,4.1E1,1E0,2E0,4.8E1,3.6E1,1E0,1E0,1E0,1E0,1E0,1E0,5.7E1,3.3E1,3.7E1,4.2E1,1E0,2.2693872E-3,-5.8828294E-4,-4.3201745E-3,2E0,1E0,4.5E1,4.5E1,4.5E1,2E0,4.7E1,1E0,2E0,3.1E1,1E0,-1.856111E-3,3.9E1,-5.488594E-4,2.8192997E-5,4.2E1,4.2E1,9.576231E-4,-1.0617226E-3,4.5E1,5.908271E-3,1E0,1E0,-4.2304844E-3,8.200109E-4,1.4635324E-3,-1.0617226E-3,-2.2003173E-3,-1.963377E-4,1E0,2E0,2E0,5.2E1,6.2E1,7.6E1,-4.8064143E-5,-7.59448E-4,1.4107014E-3,1.1707842E-4,4.7266058E-4,-5.451578E-4,3.253271E-3,4.504472E-4,-1.034985E-3,1.8903911E-3,2.2693872E-3,-2.0395517E-3,-5.8828294E-4,9.576231E-4,1.5328825E-4,-9.216368E-4,1.5328825E-4,1.6412338E-3,-1.17103256E-4,8.582324E-4,1.5056521E-3,-2.904155E-4,-9.086217E-4,-1.8909147E-4,-6.5839157E-4,-6.1727337E-6,-1.6924662E-4,4.1284927E-4],"split_indices":[0,0,0,0,2,2,0,0,2,1,1,1,1,1,0,0,0,0,1,0,0,0,2,2,0,0,0,2,0,1,2,0,2,0,0,0,0,0,0,0,0,0,0,2,2,0,0,0,0,0,0,2,2,2,0,0,0,0,0,0,0,0,0,0,0,0,0,0,0,0,0,0,0,0,0,0,0,0,0,0,0,0,0,0,0],"split_type":[0,0,0,0,0,0,0,0,0,0,0,0,0,0,0,0,0,0,0,0,0,0,0,0,0,0,0,0,0,0,0,0,0,0,0,0,0,0,0,0,0,0,0,0,0,0,0,0,0,0,0,0,0,0,0,0,0,0,0,0,0,0,0,0,0,0,0,0,0,0,0,0,0,0,0,0,0,0,0,0,0,0,0,0,0],"sum_hessian":[6.06E2,2.63E2,3.43E2,2.56E2,7E0,1.2E1,3.31E2,2.43E2,1.3E1,2E0,5E0,8E0,4E0,1.2E1,3.19E2,2.11E2,3.2E1,4E0,9E0,1E0,1E0,3E0,2E0,4E0,4E0,2E0,2E0,6E0,6E0,5.5E1,2.64E2,1.94E2,1.7E1,7E0,2.5E1,2E0,2E0,5E0,4E0,1E0,1E0,2E0,2E0,2E0,2E0,1E0,1E0,1E0,1E0,4E0,2E0,3E0,3E0,2.9E1,2.6E1,1.75E2,8.9E1,1.82E2,1.2E1,6E0,1.1E1,1.3E1,1.2E1,2E0,3E0,2E0,2E0,1E0,1E0,1E0,1E0,1E0,1E0,1E0,2E0,2E0,1E0,1.9E1,1E1,1.3E1,1.3E1,2.1E1,1.54E2,3.8E1,5.1E1],"tree_param":{"num_deleted":"0","num_feature":"3","num_nodes":"85","size_leaf_vector":"1"}},{"base_weights":[-7.027702E-6,-6.816432E-4,1.5930354E-5,2.6221148E-4,-2.4719748E-3,5.992163E-5,-3.4518447E-4,-1.8253496E-4,6.185882E-4,-4.5831205E-4,-5.004088E-3,-9.5215575E-5,1.3910122E-4,-2.186285E-3,-4.3129283E-5,-1.07131E-3,1.3596019E-3,-1.3261288E-4,1.0958314E-3,-5.4608285E-4,3.283123E-4,-3.1386614E-3,-6.144047E-4,-5.0536013E-4,8.312052E-4,3.2333235E-4,-2.9034162E-4,-2.6911667E-3,-2.794663E-4,-7.8009017E-4,6.215731E-4,-8.98242E-5,-8.0293417E-4,9.049326E-4,1.1476874E-4,1.7012954E-3,-1.4085844E-3,-1.7169118E-4,7.707402E-4,-3.8506836E-4,6.313026E-4,-1.4835501E-4,-1.6190311E-3,2.009136E-3,-7.821806E-5,3.538202E-5,8.7138795E-4,-8.9727587E-4,1.285237E-4,-4.051129E-4,-1.7622828E-3,-6.8672E-4,4.7712028E-4,3.1416863E-3,-1.4012158E-3,-3.273332E-3,1.3466867E-3,1.0949969E-3,1.809746E-4,-1.1409883E-4,1.1881093E-3,-1.3673971E-3,-7.4265256E-5,2.2292272E-3,-2.941915E-5,-1.5036941E-3,5.993675E-4,8.849217E-5,-1.8260876E-3,7.392998E-4,1.2901633E-4,-3.2706367E-4,-1.3071895E-3,5.5431545E-4,-2.9508164E-4,-1.144141E-3,8.403063E-4,2.552271E-3,-6.8672E-4,-1.703895E-3,4.4467053E-4,-3.6140978E-3,8.8632107E-4,1.7665762E-3,-3.898974E-4],"categories":[],"categories_nodes":[],"categories_segments":[],"categories_sizes":[],"default_left":[0,0,0,0,0,0,0,0,0,0,0,0,0,0,0,0,0,0,0,0,0,0,0,0,0,0,0,0,0,0,0,0,0,0,0,0,0,0,0,0,0,0,0,0,0,0,0,0,0,0,0,0,0,0,0,0,0,0,0,0,0,0,0,0,0,0,0,0,0,0,0,0,0,0,0,0,0,0,0,0,0,0,0,0,0],"id":11,"left_children":[1,3,5,7,9,11,13,15,17,19,21,23,25,27,29,31,33,35,37,-1,39,-1,-1,41,43,45,47,49,51,53,55,-1,-1,-1,-1,57,-1,-1,-1,-1,-1,59,61,63,65,67,69,71,73,75,-1,-1,-1,77,79,81,83,-1,-1,-1,-1,-1,-1,-1,-1,-1,-1,-1,-1,-1,-1,-1,-1,-1,-1,-1,-1,-1,-1,-1,-1,-1,-1,-1,-1],"loss_changes":[9.411991E-6,3.444444E-5,9.361594E-6,2.3318757E-6,3.339832E-5,6.4621872E-6,3.5497003E-5,1.10508445E-5,3.0133663E-6,2.851595E-6,6.7068177E-6,6.805408E-5,2.7626504E-5,7.912367E-6,2.7917024E-5,2.0947336E-6,1.1110483E-6,2.4485755E-5,3.7362388E-6,0E0,4.051198E-6,0E0,0E0,4.90605E-5,5.907522E-5,3.847549E-5,2.6808808E-5,1.190852E-5,5.3595213E-6,7.017191E-5,8.913561E-5,0E0,0E0,0E0,0E0,1.1709426E-6,0E0,0E0,0E0,0E0,0E0,1.9691268E-5,4.881573E-5,1.2182539E-4,1.2329826E-4,8.471521E-5,3.090314E-5,1.6242837E-5,4.5030865E-5,1.5629037E-5,0E0,0E0,0E0,4.2460946E-5,1.13338814E-4,1.125937E-4,1.236416E-4,0E0,0E0,0E0,0E0,0E0,0E0,0E0,0E0,0E0,0E0,0E0,0E0,0E0,0E0,0E0,0E0,0E0,0E0,0E0,0E0,0E0,0E0,0E0,0E0,0E0,0E0,0E0,0E0],"parents":[2147483647,0,0,1,1,2,2,3,3,4,4,5,5,6,6,7,7,8,8,9,9,10,10,11,11,12,12,13,13,14,14,15,15,16,16,17,17,18,18,20,20,23,23,24,24,25,25,26,26,27,27,28,28,29,29,30,30,35,35,41,41,42,42,43,43,44,44,45,45,46,46,47,47,48,48,49,49,53,53,54,54,55,55,56,56],"right_children":[2,4,6,8,10,12,14,16,18,20,22,24,26,28,30,32,34,36,38,-1,40,-1,-1,42,44,46,48,50,52,54,56,-1,-1,-1,-1,58,-1,-1,-1,-1,-1,60,62,64,66,68,70,72,74,76,-1,-1,-1,78,80,82,84,-1,-1,-1,-1,-1,-1,-1,-1,-1,-1,-1,-1,-1,-1,-1,-1,-1,-1,-1,-1,-1,-1,-1,-1,-1,-1,-1,-1],"split_conditions":[4E0,3E0,9.1E1,2E0,2E0,1E0,9.2E1,2E0,1E0,1E0,1E0,6.2E1,6.5E1,2E0,1E0,1E0,1E0,2E0,1E0,-5.4608285E-4,1E0,-3.1386614E-3,-6.144047E-4,4.9E1,7.5E1,4.4E1,7.6E1,1E0,1E0,9.3E1,9.3E1,-8.98242E-5,-8.0293417E-4,9.049326E-4,1.1476874E-4,1E0,-1.4085844E-3,-1.7169118E-4,7.707402E-4,-3.8506836E-4,6.313026E-4,4.8E1,5.6E1,1E0,8E1,4.3E1,2E0,7.5E1,8.2E1,1E0,-1.7622828E-3,-6.8672E-4,4.7712028E-4,2E0,9.7E1,1E0,9.7E1,1.0949969E-3,1.809746E-4,-1.1409883E-4,1.1881093E-3,-1.3673971E-3,-7.4265256E-5,2.2292272E-3,-2.941915E-5,-1.5036941E-3,5.993675E-4,8.849217E-5,-1.8260876E-3,7.392998E-4,1.2901633E-4,-3.2706367E-4,-1.3071895E-3,5.5431545E-4,-2.9508164E-4,-1.144141E-3,8.403063E-4,2.552271E-3,-6.8672E-4,-1.703895E-3,4.4467053E-4,-3.6140978E-3,8.8632107E-4,1.7665762E-3,-3.898974E-4],"split_indices":[0,0,0,0,2,2,0,2,1,2,1,0,0,2,1,1,1,2,2,0,1,0,0,0,0,0,0,2,1,0,0,0,0,0,0,2,0,0,0,0,0,0,0,1,0,0,2,0,0,1,0,0,0,2,0,2,0,0,0,0,0,0,0,0,0,0,0,0,0,0,0,0,0,0,0,0,0,0,0,0,0,0,0,0,0],"split_type":[0,0,0,0,0,0,0,0,0,0,0,0,0,0,0,0,0,0,0,0,0,0,0,0,0,0,0,0,0,0,0,0,0,0,0,0,0,0,0,0,0,0,0,0,0,0,0,0,0,0,0,0,0,0,0,0,0,0,0,0,0,0,0,0,0,0,0,0,0,0,0,0,0,0,0,0,0,0,0,0,0,0,0,0,0],"sum_hessian":[6.06E2,1.9E1,5.87E2,1.3E1,6E0,5.24E2,6.3E1,6E0,7E0,4E0,2E0,1.77E2,3.47E2,8E0,5.5E1,4E0,2E0,3E0,4E0,2E0,2E0,1E0,1E0,1.23E2,5.4E1,2.43E2,1.04E2,6E0,2E0,2.6E1,2.9E1,2E0,2E0,1E0,1E0,2E0,1E0,1E0,3E0,1E0,1E0,9.4E1,2.9E1,2.3E1,3.1E1,1.6E2,8.3E1,4.2E1,6.2E1,2E0,4E0,1E0,1E0,3E0,2.3E1,4E0,2.5E1,1E0,1E0,9.2E1,2E0,1.6E1,1.3E1,1E1,1.3E1,9E0,2.2E1,1.55E2,5E0,4.1E1,4.2E1,3.8E1,4E0,2.6E1,3.6E1,1E0,1E0,2E0,1E0,1.2E1,1.1E1,2E0,2E0,1.2E1,1.3E1],"tree_param":{"num_deleted":"0","num_feature":"3","num_nodes":"85","size_leaf_vector":"1"}},{"base_weights":[-1.6365304E-5,-1.3184044E-4,9.7653836E-5,1.6991937E-5,-6.8557635E-4,2.4295149E-4,-1.828012E-4,-4.0091362E-4,4.2784953E-4,-6.20912E-3,-3.121378E-4,8.698785E-5,1.9350859E-3,-2.468884E-5,-2.7875404E-3,-7.65519E-5,-1.3606349E-3,3.2180804E-3,2.5428896E-4,-4.935056E-3,-1.6987523E-3,1.0371874E-3,-8.149465E-4,1.1000388E-3,-2.4412795E-4,5.5473843E-3,1.0836204E-3,-5.051825E-4,1.1691123E-3,-3.948619E-3,8.7080896E-4,-5.657572E-4,1.3731226E-3,-1.9902715E-3,-5.39802E-4,2.3942888E-3,-4.721085E-4,-4.4243675E-4,4.056253E-4,7.906556E-4,-2.0647198E-3,6.136757E-4,9.654403E-4,-2.7154598E-3,-4.5293264E-4,5.731149E-4,4.2307875E-3,-1.5352033E-3,-7.3573035E-5,3.7498176E-3,4.107207E-4,-4.8116595E-4,1.2564771E-3,-8.8104815E-4,5.0397713E-5,2.7460654E-3,4.376031E-4,-7.9803285E-5,-2.368023E-3,9.218256E-4,2.1816956E-4,1.2365665E-3,-8.4075495E-4,-9.648651E-4,6.107837E-4,2.0682017E-4,-1.1068413E-3,4.9598847E-4,2.3526947E-5,6.29031E-4,-3.3447743E-4,-2.3204028E-3,6.9930154E-4,4.3709463E-4,-5.37571E-4,-1.4543303E-4,8.6262036E-4,6.8494206E-4,-1.5468356E-4,-1.3006926E-3,9.667448E-5,-2.2121117E-4,-2.0630597E-3,8.061777E-4,-4.6937718E-4,5.67317E-4,1.9041419E-3,-5.501658E-4,6.425828E-4],"categories":[],"categories_nodes":[],"categories_segments":[],"categories_sizes":[],"default_left":[0,0,0,0,0,0,0,0,0,0,0,0,0,0,0,0,0,0,0,0,0,0,0,0,0,0,0,0,0,0,0,0,0,0,0,0,0,0,0,0,0,0,0,0,0,0,0,0,0,0,0,0,0,0,0,0,0,0,0,0,0,0,0,0,0,0,0,0,0,0,0,0,0,0,0,0,0,0,0,0,0,0,0,0,0,0,0,0,0],"id":12,"left_children":[1,3,5,7,9,11,13,15,17,19,21,23,25,27,29,31,33,35,37,-1,39,41,43,45,47,49,51,53,55,-1,-1,57,59,-1,61,-1,63,65,67,-1,-1,69,-1,71,73,75,-1,-1,77,-1,-1,79,-1,81,83,85,87,-1,-1,-1,-1,-1,-1,-1,-1,-1,-1,-1,-1,-1,-1,-1,-1,-1,-1,-1,-1,-1,-1,-1,-1,-1,-1,-1,-1,-1,-1,-1,-1],"loss_changes":[8.004865E-6,2.4900626E-5,1.2513745E-5,4.120775E-5,1.3007497E-4,5.3141775E-5,4.3174532E-5,3.6940168E-5,5.7778838E-5,4.9282797E-5,4.223085E-5,6.2659856E-5,4.627646E-5,5.7951995E-5,1.5260975E-4,6.460381E-5,6.23665E-5,4.2828746E-5,1.2305054E-5,0E0,3.0448355E-5,5.249389E-6,2.9730623E-5,1.7358312E-4,6.774113E-5,2.1518157E-5,3.4758177E-5,1.5079697E-5,3.2251435E-5,0E0,0E0,1.1442014E-4,9.333562E-6,0E0,8.6716E-5,0E0,9.763511E-6,3.275845E-5,1.992697E-5,0E0,0E0,1.1586211E-5,0E0,6.193759E-5,3.3144035E-5,4.4300064E-5,0E0,0E0,4.603186E-5,0E0,0E0,1.1943931E-5,0E0,5.9379512E-5,4.786401E-5,1.1084216E-5,2.878752E-5,0E0,0E0,0E0,0E0,0E0,0E0,0E0,0E0,0E0,0E0,0E0,0E0,0E0,0E0,0E0,0E0,0E0,0E0,0E0,0E0,0E0,0E0,0E0,0E0,0E0,0E0,0E0,0E0,0E0,0E0,0E0,0E0],"parents":[2147483647,0,0,1,1,2,2,3,3,4,4,5,5,6,6,7,7,8,8,9,9,10,10,11,11,12,12,13,13,14,14,15,15,16,16,17,17,18,18,20,20,21,21,22,22,23,23,24,24,25,25,26,26,27,27,28,28,31,31,32,32,34,34,36,36,37,37,38,38,41,41,43,43,44,44,45,45,48,48,51,51,53,53,54,54,55,55,56,56],"right_children":[2,4,6,8,10,12,14,16,18,20,22,24,26,28,30,32,34,36,38,-1,40,42,44,46,48,50,52,54,56,-1,-1,58,60,-1,62,-1,64,66,68,-1,-1,70,-1,72,74,76,-1,-1,78,-1,-1,80,-1,82,84,86,88,-1,-1,-1,-1,-1,-1,-1,-1,-1,-1,-1,-1,-1,-1,-1,-1,-1,-1,-1,-1,-1,-1,-1,-1,-1,-1,-1,-1,-1,-1,-1,-1],"split_conditions":[1E0,7.9E1,2E0,4E1,8E1,9.3E1,9.7E1,3E1,4.2E1,1E0,8.6E1,2.3E1,9.4E1,7.2E1,9.8E1,2.3E1,3.2E1,2E0,4.8E1,-4.935056E-3,2E0,2E0,8.8E1,2.2E1,2.7E1,1E0,1E0,4.2E1,7.8E1,-3.948619E-3,8.7080896E-4,2.1E1,2.7E1,-1.9902715E-3,3.4E1,2.3942888E-3,4.1E1,4.6E1,5.9E1,7.906556E-4,-2.0647198E-3,8.4E1,9.654403E-4,2E0,1E0,1.3E1,4.2307875E-3,-1.5352033E-3,3.6E1,3.7498176E-3,4.107207E-4,9.5E1,1.2564771E-3,3.8E1,5.3E1,7.6E1,8.4E1,-7.9803285E-5,-2.368023E-3,9.218256E-4,2.1816956E-4,1.2365665E-3,-8.4075495E-4,-9.648651E-4,6.107837E-4,2.0682017E-4,-1.1068413E-3,4.9598847E-4,2.3526947E-5,6.29031E-4,-3.3447743E-4,-2.3204028E-3,6.9930154E-4,4.3709463E-4,-5.37571E-4,-1.4543303E-4,8.6262036E-4,6.8494206E-4,-1.5468356E-4,-1.3006926E-3,9.667448E-5,-2.2121117E-4,-2.0630597E-3,8.061777E-4,-4.6937718E-4,5.67317E-4,1.9041419E-3,-5.501658E-4,6.425828E-4],"split_indices":[1,0,2,0,0,0,0,0,0,2,0,0,0,0,0,0,0,2,0,0,2,2,0,0,0,2,2,0,0,0,0,0,0,0,0,0,0,0,0,0,0,0,0,2,2,0,0,0,0,0,0,0,0,0,0,0,0,0,0,0,0,0,0,0,0,0,0,0,0,0,0,0,0,0,0,0,0,0,0,0,0,0,0,0,0,0,0,0,0],"split_type":[0,0,0,0,0,0,0,0,0,0,0,0,0,0,0,0,0,0,0,0,0,0,0,0,0,0,0,0,0,0,0,0,0,0,0,0,0,0,0,0,0,0,0,0,0,0,0,0,0,0,0,0,0,0,0,0,0,0,0,0,0,0,0,0,0,0,0,0,0,0,0,0,0,0,0,0,0,0,0,0,0,0,0,0,0,0,0,0,0],"sum_hessian":[6.06E2,3.01E2,3.05E2,2.38E2,6.3E1,2.01E2,1.04E2,1.18E2,1.2E2,3E0,6E1,1.85E2,1.6E1,9.9E1,5E0,8.9E1,2.9E1,6E0,1.14E2,1E0,2E0,1.6E1,4.4E1,4.5E1,1.4E2,2E0,1.4E1,7.1E1,2.8E1,2E0,3E0,6.7E1,2.2E1,6E0,2.3E1,4E0,2E0,2E1,9.4E1,1E0,1E0,1.2E1,4E0,6E0,3.8E1,4.3E1,2E0,7E0,1.33E2,1E0,1E0,7E0,7E0,4.2E1,2.9E1,8E0,2E1,6.2E1,5E0,1.4E1,8E0,6E0,1.7E1,1E0,1E0,1.4E1,6E0,3.5E1,5.9E1,8E0,4E0,4E0,2E0,1.2E1,2.6E1,2.5E1,1.8E1,1.8E1,1.15E2,1E0,6E0,3.8E1,4E0,1.1E1,1.8E1,4E0,4E0,7E0,1.3E1],"tree_param":{"num_deleted":"0","num_feature":"3","num_nodes":"89","size_leaf_vector":"1"}},{"base_weights":[-1.1837365E-5,8.657962E-6,-3.9293306E-4,-9.128384E-6,1.4582787E-3,-2.1392363E-3,1.1174917E-4,5.990003E-6,-1.2280941E-3,1.1214018E-3,-1.676778E-4,-4.415497E-3,6.7183375E-4,-1.1633188E-3,6.722377E-4,-7.184759E-6,1.0572331E-3,-7.590592E-4,-1.676778E-4,1.1764467E-4,-3.0220945E-3,-4.0751696E-4,7.195671E-4,-1.7271042E-3,-4.7962664E-4,1.7420782E-3,-3.5784245E-4,1.7989756E-5,-8.626692E-4,-5.7253987E-4,2.9952377E-3,1.1882186E-4,-1.2306174E-3,-4.4540563E-4,4.5716763E-5,5.3239665E-3,-4.1885036E-5,1.5724063E-3,-1.9067427E-3,-1.8142022E-6,3.077623E-4,1.868563E-4,-8.209348E-4,2.8123707E-3,1.2191137E-4,7.377118E-4,3.255263E-3,-8.918941E-4,5.0581695E-4,1.4349222E-3,2.6529282E-4,-2.6324093E-3,5.4425E-4],"categories":[],"categories_nodes":[],"categories_segments":[],"categories_sizes":[],"default_left":[0,0,0,0,0,0,0,0,0,0,0,0,0,0,0,0,0,0,0,0,0,0,0,0,0,0,0,0,0,0,0,0,0,0,0,0,0,0,0,0,0,0,0,0,0,0,0,0,0,0,0,0,0],"id":13,"left_children":[1,3,5,7,9,11,13,15,17,-1,-1,19,21,23,25,27,29,-1,-1,-1,-1,-1,-1,31,33,35,37,39,41,-1,43,-1,-1,-1,-1,45,47,49,51,-1,-1,-1,-1,-1,-1,-1,-1,-1,-1,-1,-1,-1,-1],"loss_changes":[4.744485E-6,1.48903655E-5,2.7560229E-5,1.0530199E-5,1.06021935E-5,4.7757585E-5,1.8648552E-5,7.832777E-6,1.3033005E-6,0E0,0E0,3.1720927E-5,5.7364405E-6,2.2552804E-6,2.0459776E-5,1.2054369E-5,3.330643E-5,0E0,0E0,0E0,0E0,0E0,0E0,6.354423E-6,1.2555058E-6,5.7732606E-5,3.2895798E-5,7.02941E-6,1.6027814E-5,0E0,2.7567985E-5,0E0,0E0,0E0,0E0,4.0937957E-6,1.4650435E-5,5.2357927E-6,6.608027E-5,0E0,0E0,0E0,0E0,0E0,0E0,0E0,0E0,0E0,0E0,0E0,0E0,0E0,0E0],"parents":[2147483647,0,0,1,1,2,2,3,3,4,4,5,5,6,6,7,7,8,8,11,11,12,12,13,13,14,14,15,15,16,16,23,23,24,24,25,25,26,26,27,27,28,28,30,30,35,35,36,36,37,37,38,38],"right_children":[2,4,6,8,10,12,14,16,18,-1,-1,20,22,24,26,28,30,-1,-1,-1,-1,-1,-1,32,34,36,38,40,42,-1,44,-1,-1,-1,-1,46,48,50,52,-1,-1,-1,-1,-1,-1,-1,-1,-1,-1,-1,-1,-1,-1],"split_conditions":[9.6E1,9.5E1,9.7E1,9.4E1,2E0,1E0,1E0,9.3E1,2E0,1.1214018E-3,-1.676778E-4,1E0,1E0,1E0,1E0,9.1E1,1E0,-7.590592E-4,-1.676778E-4,1.1764467E-4,-3.0220945E-3,-4.0751696E-4,7.195671E-4,9.9E1,9.9E1,9.8E1,2E0,8.8E1,1E0,-5.7253987E-4,1E0,1.1882186E-4,-1.2306174E-3,-4.4540563E-4,4.5716763E-5,2E0,9.9E1,9.8E1,9.8E1,-1.8142022E-6,3.077623E-4,1.868563E-4,-8.209348E-4,2.8123707E-3,1.2191137E-4,7.377118E-4,3.255263E-3,-8.918941E-4,5.0581695E-4,1.4349222E-3,2.6529282E-4,-2.6324093E-3,5.4425E-4],"split_indices":[0,0,0,0,2,1,2,0,2,0,0,2,2,1,1,0,1,0,0,0,0,0,0,0,0,0,2,0,1,0,2,0,0,0,0,2,0,0,0,0,0,0,0,0,0,0,0,0,0,0,0,0,0],"split_type":[0,0,0,0,0,0,0,0,0,0,0,0,0,0,0,0,0,0,0,0,0,0,0,0,0,0,0,0,0,0,0,0,0,0,0,0,0,0,0,0,0,0,0,0,0,0,0,0,0,0,0,0,0],"sum_hessian":[6.06E2,5.76E2,3E1,5.7E2,6E0,6E0,2.4E1,5.64E2,6E0,4E0,2E0,3E0,3E0,7E0,1.7E1,5.58E2,6E0,4E0,2E0,1E0,2E0,1E0,2E0,3E0,4E0,8E0,9E0,5.43E2,1.5E1,3E0,3E0,1E0,2E0,2E0,2E0,2E0,6E0,4E0,5E0,5.25E2,1.8E1,6E0,9E0,1E0,2E0,1E0,1E0,2E0,4E0,1E0,3E0,2E0,3E0],"tree_param":{"num_deleted":"0","num_feature":"3","num_nodes":"53","size_leaf_vector":"1"}},{"base_weights":[-4.0030363E-6,-8.568049E-5,7.661982E-5,-1.4036298E-3,-2.6304557E-5,9.007965E-4,3.6977868E-5,3.496153E-4,-2.9563564E-3,3.7010075E-3,-9.137538E-5,1.00639736E-4,2.8760284E-3,-1.6148487E-3,7.052786E-5,1.087149E-3,-1.6282797E-4,-4.0621697E-3,-1.2788177E-4,5.9659183E-3,-1.3396591E-3,-2.8315932E-3,-5.2321506E-5,-3.5955012E-4,4.9792975E-4,2.6402276E-3,-1.0843128E-3,-2.5923277E-4,1.3673256E-4,-2.6285648E-5,8.416474E-4,9.018183E-4,-1.1731982E-3,-3.3101937E-4,-3.0541222E-3,-2.333589E-3,2.2376776E-3,6.480068E-4,3.5452743E-3,-2.2096138E-3,4.8282743E-4,1.7979741E-3,-1.19659584E-4,-1.4739235E-4,8.1129867E-4,-7.8982775E-6,-2.4693967E-3,3.808541E-3,2.7705597E-5,-2.2739172E-5,6.991029E-4,1.5613437E-4,-1.036033E-3,2.8303266E-4,1.7521605E-3,-1.547426E-3,-3.765188E-5,5.55858E-4,7.015467E-5,-1.3723678E-4,1.0897995E-3,9.504954E-5,-2.15288E-3,4.573539E-4,2.8751194E-3,-1.0671344E-3,6.617441E-5],"categories":[],"categories_nodes":[],"categories_segments":[],"categories_sizes":[],"default_left":[0,0,0,0,0,0,0,0,0,0,0,0,0,0,0,0,0,0,0,0,0,0,0,0,0,0,0,0,0,0,0,0,0,0,0,0,0,0,0,0,0,0,0,0,0,0,0,0,0,0,0,0,0,0,0,0,0,0,0,0,0,0,0,0,0,0,0],"id":14,"left_children":[1,3,5,7,9,11,13,15,17,19,21,23,25,-1,27,29,31,33,35,37,-1,39,41,-1,43,-1,-1,45,47,-1,-1,49,51,-1,-1,-1,-1,-1,-1,-1,-1,53,55,-1,57,59,61,63,65,-1,-1,-1,-1,-1,-1,-1,-1,-1,-1,-1,-1,-1,-1,-1,-1,-1,-1],"loss_changes":[4.0037025E-6,2.3595929E-5,9.964315E-6,3.642362E-5,7.067457E-5,2.1837492E-5,3.233969E-5,2.8226275E-6,2.1374879E-5,8.823893E-5,3.0458456E-5,3.940481E-6,5.9969338E-5,0E0,6.388471E-6,2.1268115E-6,6.4364463E-6,3.0740717E-5,8.357364E-5,1.1818236E-5,0E0,2.8382012E-5,3.5475634E-5,0E0,2.226455E-6,0E0,0E0,2.7199525E-5,9.717373E-5,0E0,0E0,1.4742664E-6,4.6527575E-6,0E0,0E0,0E0,0E0,0E0,0E0,0E0,0E0,1.9036965E-5,3.5925936E-5,0E0,1.0534773E-6,2.6839214E-5,2.5237525E-5,3.4072866E-5,5.3900403E-5,0E0,0E0,0E0,0E0,0E0,0E0,0E0,0E0,0E0,0E0,0E0,0E0,0E0,0E0,0E0,0E0,0E0,0E0],"parents":[2147483647,0,0,1,1,2,2,3,3,4,4,5,5,6,6,7,7,8,8,9,9,10,10,11,11,12,12,14,14,15,15,16,16,17,17,18,18,19,19,21,21,22,22,24,24,27,27,28,28,31,31,32,32,41,41,42,42,44,44,45,45,46,46,47,47,48,48],"right_children":[2,4,6,8,10,12,14,16,18,20,22,24,26,-1,28,30,32,34,36,38,-1,40,42,-1,44,-1,-1,46,48,-1,-1,50,52,-1,-1,-1,-1,-1,-1,-1,-1,54,56,-1,58,60,62,64,66,-1,-1,-1,-1,-1,-1,-1,-1,-1,-1,-1,-1,-1,-1,-1,-1,-1,-1],"split_conditions":[1E0,5E0,5E0,3E0,6E0,4E0,6E0,1E0,2E0,2E0,7E0,1E0,2E0,-1.6148487E-3,2.1E1,2E0,2E0,4E0,4E0,1E0,-1.3396591E-3,2E0,1E1,-3.5955012E-4,2E0,2.6402276E-3,-1.0843128E-3,2E1,2.3E1,-2.6285648E-5,8.416474E-4,2E0,2E0,-3.3101937E-4,-3.0541222E-3,-2.333589E-3,2.2376776E-3,6.480068E-4,3.5452743E-3,-2.2096138E-3,4.8282743E-4,9E0,1.1E1,-1.4739235E-4,3E0,1.9E1,2E0,2.2E1,2.7E1,-2.2739172E-5,6.991029E-4,1.5613437E-4,-1.036033E-3,2.8303266E-4,1.7521605E-3,-1.547426E-3,-3.765188E-5,5.55858E-4,7.015467E-5,-1.3723678E-4,1.0897995E-3,9.504954E-5,-2.15288E-3,4.573539E-4,2.8751194E-3,-1.0671344E-3,6.617441E-5],"split_indices":[1,0,0,0,0,0,0,2,2,2,0,2,2,0,0,0,0,0,0,2,0,2,0,0,0,0,0,0,0,0,0,2,2,0,0,0,0,0,0,0,0,0,0,0,0,0,2,0,0,0,0,0,0,0,0,0,0,0,0,0,0,0,0,0,0,0,0],"split_type":[0,0,0,0,0,0,0,0,0,0,0,0,0,0,0,0,0,0,0,0,0,0,0,0,0,0,0,0,0,0,0,0,0,0,0,0,0,0,0,0,0,0,0,0,0,0,0,0,0,0,0,0,0,0,0,0,0,0,0,0,0,0,0,0,0,0,0],"sum_hessian":[6.06E2,3.01E2,3.05E2,1.2E1,2.89E2,1.3E1,2.92E2,6E0,6E0,4E0,2.85E2,1E1,3E0,2E0,2.9E2,2E0,4E0,4E0,2E0,3E0,1E0,3E0,2.82E2,3E0,7E0,2E0,1E0,4.8E1,2.42E2,1E0,1E0,2E0,2E0,2E0,2E0,1E0,1E0,1E0,2E0,2E0,1E0,9E0,2.73E2,2E0,5E0,4.4E1,4E0,6E0,2.36E2,1E0,1E0,1E0,1E0,6E0,3E0,3E0,2.7E2,3E0,2E0,4E1,4E0,2E0,2E0,3E0,3E0,1E1,2.26E2],"tree_param":{"num_deleted":"0","num_feature":"3","num_nodes":"67","size_leaf_vector":"1"}},{"base_weights":[-1.9997015E-6,3.3397526E-5,-1.2719586E-4,-1.0894772E-5,6.256338E-4,-2.374202E-3,-2.1697939E-5,4.266951E-5,-7.751954E-4,3.4821134E-3,-8.812973E-6,-3.6914349E-3,1.0410547E-4,3.6062466E-4,-8.294891E-5,-3.6180816E-5,3.827963E-4,-1.3414791E-3,-2.312474E-4,2.0351112E-3,1.3539195E-4,-1.4111655E-3,4.377907E-4,1.0799369E-3,-1.9863646E-3,-5.4597855E-4,8.594245E-4,-9.4055384E-4,-1.6817592E-5,1.0419524E-5,-1.9539222E-3,2.4293065E-3,1.7851342E-4,-4.453361E-4,-2.8654695E-3,5.204916E-4,-1.2721249E-3,-2.5221556E-3,5.2616E-5,-3.207028E-4,1.569026E-3,-1.538679E-3,4.890561E-5,3.1459332E-4,-1.2700558E-3,4.1635832E-4,1.6414672E-3,1.7117659E-3,-2.1099548E-3,-3.0455829E-4,2.4039405E-4,5.029088E-5,-8.5409665E-5,-3.4775436E-3,1.218897E-3,2.210483E-3,-8.483976E-5,-1.0565367E-4,4.3816178E-4,-7.972519E-4,5.113661E-4,-2.6903052E-3,3.024141E-4,8.32212E-4,-2.5976697E-4,-9.951949E-4,1.7451246E-4,-2.4554133E-4,-2.1538436E-3,7.150173E-4,-4.416009E-4,3.1427667E-4,-6.7987613E-4,3.4477562E-4,9.4691914E-4,-5.5772066E-4,5.8154267E-4,1.8924475E-4,-9.72867E-4,5.408287E-4,-1.6610623E-4,4.890561E-5,1.0617077E-3,1.3129413E-3,-2.9116869E-5,-2.6714802E-4,-1.382105E-3,-3.3122813E-4,2.486892E-4,4.0126118E-4,-5.9906073E-5],"categories":[],"categories_nodes":[],"categories_segments":[],"categories_sizes":[],"default_left":[0,0,0,0,0,0,0,0,0,0,0,0,0,0,0,0,0,0,0,0,0,0,0,0,0,0,0,0,0,0,0,0,0,0,0,0,0,0,0,0,0,0,0,0,0,0,0,0,0,0,0,0,0,0,0,0,0,0,0,0,0,0,0,0,0,0,0,0,0,0,0,0,0,0,0,0,0,0,0,0,0,0,0,0,0,0,0,0,0,0,0],"id":15,"left_children":[1,3,5,7,9,11,13,15,17,19,21,-1,23,25,27,29,31,33,35,-1,-1,37,39,-1,41,43,45,47,49,51,53,55,57,59,61,63,65,67,69,71,73,-1,-1,75,77,79,81,83,85,87,89,-1,-1,-1,-1,-1,-1,-1,-1,-1,-1,-1,-1,-1,-1,-1,-1,-1,-1,-1,-1,-1,-1,-1,-1,-1,-1,-1,-1,-1,-1,-1,-1,-1,-1,-1,-1,-1,-1,-1,-1],"loss_changes":[2.6942273E-6,1.244055E-5,3.1713786E-5,1.812821E-5,5.983607E-5,7.524672E-5,3.0507877E-6,1.1116961E-5,8.622625E-6,1.02295235E-5,1.8154076E-5,0E0,2.5777905E-5,8.609071E-6,6.336211E-6,3.0137171E-5,3.2175558E-5,1.7843891E-5,1.3181621E-5,0E0,0E0,1.1516435E-5,1.9379953E-5,0E0,7.1224677E-6,4.761394E-6,3.4745217E-6,2.842475E-5,7.84429E-6,5.409678E-6,1.9266465E-4,3.6984213E-5,1.9770678E-5,1.8501318E-5,4.6895788E-5,1.2761913E-5,8.845601E-6,1.2390747E-5,6.4190604E-6,1.4663213E-5,1.2650817E-6,0E0,0E0,6.1508454E-6,5.191985E-6,4.841551E-6,2.7681544E-6,5.006874E-6,4.708394E-6,1.4680068E-5,1.143515E-5,0E0,0E0,0E0,0E0,0E0,0E0,0E0,0E0,0E0,0E0,0E0,0E0,0E0,0E0,0E0,0E0,0E0,0E0,0E0,0E0,0E0,0E0,0E0,0E0,0E0,0E0,0E0,0E0,0E0,0E0,0E0,0E0,0E0,0E0,0E0,0E0,0E0,0E0,0E0,0E0],"parents":[2147483647,0,0,1,1,2,2,3,3,4,4,5,5,6,6,7,7,8,8,9,9,10,10,12,12,13,13,14,14,15,15,16,16,17,17,18,18,21,21,22,22,24,24,25,25,26,26,27,27,28,28,29,29,30,30,31,31,32,32,33,33,34,34,35,35,36,36,37,37,38,38,39,39,40,40,43,43,44,44,45,45,46,46,47,47,48,48,49,49,50,50],"right_children":[2,4,6,8,10,12,14,16,18,20,22,-1,24,26,28,30,32,34,36,-1,-1,38,40,-1,42,44,46,48,50,52,54,56,58,60,62,64,66,68,70,72,74,-1,-1,76,78,80,82,84,86,88,90,-1,-1,-1,-1,-1,-1,-1,-1,-1,-1,-1,-1,-1,-1,-1,-1,-1,-1,-1,-1,-1,-1,-1,-1,-1,-1,-1,-1,-1,-1,-1,-1,-1,-1,-1,-1,-1,-1,-1,-1],"split_conditions":[7.9E1,7.4E1,8E1,6.9E1,7.5E1,1E0,8.3E1,5.6E1,7.1E1,2E0,7.6E1,-3.6914349E-3,2E0,8.1E1,8.4E1,5.5E1,5.7E1,2E0,7.3E1,2.0351112E-3,1.3539195E-4,1E0,2E0,1.0799369E-3,1E0,1E0,2E0,1E0,1E0,2E0,1E0,1E0,2E0,7E1,1E0,1E0,2E0,2E0,1E0,1E0,1E0,-1.538679E-3,4.890561E-5,1E0,1E0,1E0,8.2E1,1E0,2E0,2E0,9.1E1,5.029088E-5,-8.5409665E-5,-3.4775436E-3,1.218897E-3,2.210483E-3,-8.483976E-5,-1.0565367E-4,4.3816178E-4,-7.972519E-4,5.113661E-4,-2.6903052E-3,3.024141E-4,8.32212E-4,-2.5976697E-4,-9.951949E-4,1.7451246E-4,-2.4554133E-4,-2.1538436E-3,7.150173E-4,-4.416009E-4,3.1427667E-4,-6.7987613E-4,3.4477562E-4,9.4691914E-4,-5.5772066E-4,5.8154267E-4,1.8924475E-4,-9.72867E-4,5.408287E-4,-1.6610623E-4,4.890561E-5,1.0617077E-3,1.3129413E-3,-2.9116869E-5,-2.6714802E-4,-1.382105E-3,-3.3122813E-4,2.486892E-4,4.0126118E-4,-5.9906073E-5],"split_indices":[0,0,0,0,0,2,0,0,0,2,0,0,2,0,0,0,0,2,0,0,0,1,2,0,1,1,2,2,1,2,2,1,2,0,1,1,2,2,2,1,1,0,0,2,2,2,0,1,2,2,0,0,0,0,0,0,0,0,0,0,0,0,0,0,0,0,0,0,0,0,0,0,0,0,0,0,0,0,0,0,0,0,0,0,0,0,0,0,0,0,0],"split_type":[0,0,0,0,0,0,0,0,0,0,0,0,0,0,0,0,0,0,0,0,0,0,0,0,0,0,0,0,0,0,0,0,0,0,0,0,0,0,0,0,0,0,0,0,0,0,0,0,0,0,0,0,0,0,0,0,0,0,0,0,0,0,0,0,0,0,0,0,0,0,0,0,0,0,0,0,0,0,0,0,0,0,0,0,0,0,0,0,0,0,0],"sum_hessian":[6.06E2,4.73E2,1.33E2,4.41E2,3.2E1,5E0,1.28E2,4.13E2,2.8E1,5E0,2.7E1,1E0,4E0,1.7E1,1.11E2,3.36E2,7.7E1,1.3E1,1.5E1,4E0,1E0,6E0,2.1E1,2E0,2E0,6E0,1.1E1,7E0,1.04E2,3.29E2,7E0,6E0,7.1E1,9E0,4E0,9E0,6E0,3E0,3E0,1.3E1,8E0,1E0,1E0,3E0,3E0,8E0,3E0,2E0,5E0,4.9E1,5.5E1,2.2E2,1.09E2,3E0,4E0,3E0,3E0,4.6E1,2.5E1,5E0,4E0,2E0,2E0,4E0,5E0,4E0,2E0,2E0,1E0,1E0,2E0,7E0,6E0,3E0,5E0,1E0,2E0,1E0,2E0,4E0,4E0,1E0,2E0,1E0,1E0,2E0,3E0,3.4E1,1.5E1,2.1E1,3.4E1],"tree_param":{"num_deleted":"0","num_feature":"3","num_nodes":"91","size_leaf_vector":"1"}},{"base_weights":[-9.6839385E-6,1.548129E-4,-3.530952E-5,-8.5940286E-5,8.5823593E-4,-7.045722E-4,-1.909367E-6,4.9403734E-5,-1.1564152E-3,1.7537773E-3,-8.162409E-4,-1.784718E-3,1.4554709E-5,1.2781961E-3,-1.9971521E-5,-7.900834E-5,9.595752E-4,7.166664E-4,-2.0489811E-3,3.5749673E-4,4.195583E-3,1.1335075E-3,-4.4662505E-3,-5.4533086E-3,-1.8590689E-4,3.086555E-3,-1.2666583E-3,3.0183792E-3,-7.815361E-4,-8.510073E-4,5.9320223E-6,7.760525E-5,-1.2404422E-3,-8.036733E-4,3.5784643E-3,-3.8851798E-4,9.2601776E-4,-3.093322E-3,-3.2164654E-4,2.8451085E-3,-1.7750958E-3,1.3513366E-3,2.8206508E-3,-5.1905215E-3,4.828473E-4,-3.3885688E-3,-7.0141256E-4,2.6224703E-3,-1.1977137E-3,3.0045807E-3,-8.6490315E-4,-2.0683333E-3,2.693534E-4,3.0049682E-4,2.567634E-3,3.1986833E-4,-1.2613386E-3,-1.5824522E-3,-1.8754933E-4,6.135855E-5,-7.666693E-5,-1.4556423E-4,1.7913088E-4,-3.4302473E-5,-1.1947056E-3,-2.7964512E-5,-6.417632E-4,2.6489943E-3,3.4853816E-5,-1.9665211E-3,-3.5347044E-4,4.169643E-4,-6.581992E-4,-4.7914186E-4,2.8500657E-3,5.0993264E-4,-2.4550061E-3,-9.290278E-4,1.9425303E-3,2.2159219E-3,-7.0141256E-4,-1.867488E-3,1.2188107E-3,-1.6225099E-3,-4.0195882E-5,5.8116514E-4,-3.56704E-4,-1.5513778E-3,7.394354E-4,6.1980385E-4,-1.1406988E-3,1.2397551E-5,4.1786066E-4,-4.3085642E-4,-7.760788E-6],"categories":[],"categories_nodes":[],"categories_segments":[],"categories_sizes":[],"default_left":[0,0,0,0,0,0,0,0,0,0,0,0,0,0,0,0,0,0,0,0,0,0,0,0,0,0,0,0,0,0,0,0,0,0,0,0,0,0,0,0,0,0,0,0,0,0,0,0,0,0,0,0,0,0,0,0,0,0,0,0,0,0,0,0,0,0,0,0,0,0,0,0,0,0,0,0,0,0,0,0,0,0,0,0,0,0,0,0,0,0,0,0,0,0,0],"id":16,"left_children":[1,3,5,7,9,11,13,15,17,19,21,23,25,27,29,31,33,35,37,39,41,-1,43,45,47,49,51,53,55,57,59,61,63,65,67,-1,-1,69,71,73,75,77,-1,-1,-1,-1,-1,79,-1,-1,81,83,85,-1,-1,-1,-1,87,89,91,93,-1,-1,-1,-1,-1,-1,-1,-1,-1,-1,-1,-1,-1,-1,-1,-1,-1,-1,-1,-1,-1,-1,-1,-1,-1,-1,-1,-1,-1,-1,-1,-1,-1,-1],"loss_changes":[2.5641696E-6,1.3960567E-5,1.1756583E-5,9.039839E-6,3.292233E-5,1.9445026E-5,1.1632501E-5,6.620927E-6,1.3171378E-5,4.6232326E-5,1.00156365E-4,5.7640027E-5,6.68838E-5,2.744915E-5,1.0682328E-5,9.1910815E-6,3.5200177E-5,6.5268086E-6,8.024674E-6,5.8100963E-5,1.2936602E-5,0E0,1.3854023E-4,6.579299E-6,5.592327E-5,6.294013E-5,1.5333702E-5,1.7383081E-5,1.1512394E-5,6.9824573E-6,2.2113838E-6,4.7612384E-6,7.914502E-6,1.722251E-6,1.7730868E-5,0E0,0E0,3.231251E-6,4.5463134E-6,5.9756203E-5,5.7579367E-5,3.1613803E-5,0E0,0E0,0E0,0E0,0E0,3.5350153E-5,0E0,0E0,3.7539918E-5,1.84526E-5,5.217132E-6,0E0,0E0,0E0,0E0,3.716755E-5,2.972229E-5,8.161843E-6,9.298996E-6,0E0,0E0,0E0,0E0,0E0,0E0,0E0,0E0,0E0,0E0,0E0,0E0,0E0,0E0,0E0,0E0,0E0,0E0,0E0,0E0,0E0,0E0,0E0,0E0,0E0,0E0,0E0,0E0,0E0,0E0,0E0,0E0,0E0,0E0],"parents":[2147483647,0,0,1,1,2,2,3,3,4,4,5,5,6,6,7,7,8,8,9,9,10,10,11,11,12,12,13,13,14,14,15,15,16,16,17,17,18,18,19,19,20,20,22,22,23,23,24,24,25,25,26,26,27,27,28,28,29,29,30,30,31,31,32,32,33,33,34,34,37,37,38,38,39,39,40,40,41,41,47,47,50,50,51,51,52,52,57,57,58,58,59,59,60,60],"right_children":[2,4,6,8,10,12,14,16,18,20,22,24,26,28,30,32,34,36,38,40,42,-1,44,46,48,50,52,54,56,58,60,62,64,66,68,-1,-1,70,72,74,76,78,-1,-1,-1,-1,-1,80,-1,-1,82,84,86,-1,-1,-1,-1,88,90,92,94,-1,-1,-1,-1,-1,-1,-1,-1,-1,-1,-1,-1,-1,-1,-1,-1,-1,-1,-1,-1,-1,-1,-1,-1,-1,-1,-1,-1,-1,-1,-1,-1,-1,-1],"split_conditions":[1.4E1,1.1E1,1.8E1,1E1,2E0,1E0,1.9E1,9E0,1E0,1.3E1,1.3E1,1.5E1,1.5E1,1E0,2.1E1,8E0,2E0,1E0,2E0,1E0,1E0,1.1335075E-3,1E0,1E0,1.6E1,1E0,1.7E1,2E0,2E0,1E0,6.9E1,4E0,2E0,1E0,1E0,-3.8851798E-4,9.2601776E-4,1E0,1E0,1.2E1,1.2E1,1E0,2.8206508E-3,-5.1905215E-3,4.828473E-4,-3.3885688E-3,-7.0141256E-4,1E0,-1.1977137E-3,3.0045807E-3,2E0,1E0,1E0,3.0049682E-4,2.567634E-3,3.1986833E-4,-1.2613386E-3,2E0,2E0,6.7E1,7.1E1,-1.4556423E-4,1.7913088E-4,-3.4302473E-5,-1.1947056E-3,-2.7964512E-5,-6.417632E-4,2.6489943E-3,3.4853816E-5,-1.9665211E-3,-3.5347044E-4,4.169643E-4,-6.581992E-4,-4.7914186E-4,2.8500657E-3,5.0993264E-4,-2.4550061E-3,-9.290278E-4,1.9425303E-3,2.2159219E-3,-7.0141256E-4,-1.867488E-3,1.2188107E-3,-1.6225099E-3,-4.0195882E-5,5.8116514E-4,-3.56704E-4,-1.5513778E-3,7.394354E-4,6.1980385E-4,-1.1406988E-3,1.2397551E-5,4.1786066E-4,-4.3085642E-4,-7.760788E-6],"split_indices":[0,0,0,0,2,2,0,0,2,0,0,0,0,1,0,0,2,1,2,1,1,0,1,1,0,1,0,2,2,1,0,0,2,2,1,0,0,1,1,0,0,2,0,0,0,0,0,1,0,0,2,1,1,0,0,0,0,2,2,0,0,0,0,0,0,0,0,0,0,0,0,0,0,0,0,0,0,0,0,0,0,0,0,0,0,0,0,0,0,0,0,0,0,0,0],"split_type":[0,0,0,0,0,0,0,0,0,0,0,0,0,0,0,0,0,0,0,0,0,0,0,0,0,0,0,0,0,0,0,0,0,0,0,0,0,0,0,0,0,0,0,0,0,0,0,0,0,0,0,0,0,0,0,0,0,0,0,0,0,0,0,0,0,0,0,0,0,0,0,0,0,0,0,0,0,0,0,0,0,0,0,0,0,0,0,0,0,0,0,0,0,0,0],"sum_hessian":[6.06E2,8.1E1,5.25E2,6.1E1,2E1,2.4E1,5.01E2,5.5E1,6E0,1.3E1,7E0,9E0,1.5E1,6E0,4.95E2,4.9E1,6E0,2E0,4E0,9E0,4E0,4E0,3E0,2E0,7E0,4E0,1.1E1,3E0,3E0,1.4E1,4.81E2,4.4E1,5E0,4E0,2E0,1E0,1E0,2E0,2E0,4E0,5E0,2E0,2E0,1E0,2E0,1E0,1E0,3E0,4E0,2E0,2E0,7E0,4E0,2E0,1E0,2E0,1E0,6E0,8E0,2.88E2,1.93E2,1.9E1,2.5E1,3E0,2E0,2E0,2E0,1E0,1E0,1E0,1E0,1E0,1E0,2E0,2E0,3E0,2E0,1E0,1E0,2E0,1E0,1E0,1E0,4E0,3E0,2E0,2E0,4E0,2E0,5E0,3E0,2.76E2,1.2E1,1.3E1,1.8E2],"tree_param":{"num_deleted":"0","num_feature":"3","num_nodes":"95","size_leaf_vector":"1"}},{"base_weights":[-9.4405605E-6,1.7241389E-4,-1.7774426E-5,-1.1263745E-3,-4.546577E-6,6.890893E-5,-2.7430553E-3,3.9272584E-4,-1.3504901E-5,-1.8892188E-4,4.92692E-4,-1.6924515E-3,-3.6484003E-4,-1.4324188E-4,6.4684945E-4,-7.321664E-4,-4.655541E-6,-1.4702976E-4,5.1654875E-4,-1.1981527E-3,9.594162E-4,1.4771124E-3,-7.6025724E-4,-1.9856244E-3,7.043332E-4,6.070882E-4,-1.3339901E-5,-1.3272613E-3,4.286468E-4,1.0645092E-3,-3.4494698E-4,-1.244843E-4,1.2011975E-3,4.1622916E-4,-1.384601E-3,-1.5495518E-3,3.387034E-4,8.923014E-4,-6.341189E-4,-3.049612E-4,9.882897E-4,-4.1252375E-4,-2.2939778E-6],"categories":[],"categories_nodes":[],"categories_segments":[],"categories_sizes":[],"default_left":[0,0,0,0,0,0,0,0,0,0,0,0,0,0,0,0,0,0,0,0,0,0,0,0,0,0,0,0,0,0,0,0,0,0,0,0,0,0,0,0,0,0,0],"id":17,"left_children":[1,-1,3,5,7,9,11,13,15,-1,17,-1,-1,19,21,23,25,-1,-1,27,29,31,33,35,37,39,41,-1,-1,-1,-1,-1,-1,-1,-1,-1,-1,-1,-1,-1,-1,-1,-1],"loss_changes":[1.7982509E-6,0E0,8.705529E-6,1.3715765E-5,2.0979342E-6,1.1327917E-6,1.4069428E-6,1.8632827E-6,3.6597755E-6,0E0,1.5792866E-6,0E0,0E0,6.965557E-6,1.1637401E-5,1.4002686E-5,3.0362821E-6,0E0,0E0,1.1256176E-5,7.255906E-6,1.0180797E-5,1.5103957E-5,1.3960274E-5,1.0786935E-5,1.4539042E-5,3.995778E-6,0E0,0E0,0E0,0E0,0E0,0E0,0E0,0E0,0E0,0E0,0E0,0E0,0E0,0E0,0E0,0E0],"parents":[2147483647,0,0,2,2,3,3,4,4,5,5,6,6,7,7,8,8,10,10,13,13,14,14,15,15,16,16,19,19,20,20,21,21,22,22,23,23,24,24,25,25,26,26],"right_children":[2,-1,4,6,8,10,12,14,16,-1,18,-1,-1,20,22,24,26,-1,-1,28,30,32,34,36,38,40,42,-1,-1,-1,-1,-1,-1,-1,-1,-1,-1,-1,-1,-1,-1,-1,-1],"split_conditions":[3E0,1.7241389E-4,4E0,2E0,6E0,1E0,1E0,1E0,7E0,-1.8892188E-4,1E0,-1.6924515E-3,-3.6484003E-4,1E0,1E0,1E0,8E0,-1.4702976E-4,5.1654875E-4,5E0,5E0,5E0,5E0,2E0,2E0,2E0,9E0,-1.3272613E-3,4.286468E-4,1.0645092E-3,-3.4494698E-4,-1.244843E-4,1.2011975E-3,4.1622916E-4,-1.384601E-3,-1.5495518E-3,3.387034E-4,8.923014E-4,-6.341189E-4,-3.049612E-4,9.882897E-4,-4.1252375E-4,-2.2939778E-6],"split_indices":[0,0,0,2,0,1,1,2,0,0,2,0,0,1,1,1,0,0,0,0,0,0,0,2,2,2,0,0,0,0,0,0,0,0,0,0,0,0,0,0,0,0,0],"split_type":[0,0,0,0,0,0,0,0,0,0,0,0,0,0,0,0,0,0,0,0,0,0,0,0,0,0,0,0,0,0,0,0,0,0,0,0,0,0,0,0,0,0,0],"sum_hessian":[6.06E2,1.3E1,5.93E2,6E0,5.87E2,4E0,2E0,1.2E1,5.75E2,2E0,2E0,1E0,1E0,4E0,8E0,6E0,5.69E2,1E0,1E0,2E0,2E0,5E0,3E0,3E0,3E0,7E0,5.62E2,1E0,1E0,1E0,1E0,2E0,3E0,2E0,1E0,2E0,1E0,2E0,1E0,4E0,3E0,5E0,5.57E2],"tree_param":{"num_deleted":"0","num_feature":"3","num_nodes":"43","size_leaf_vector":"1"}},{"base_weights":[-8.798854E-6,-7.983307E-5,3.1214753E-5,-1.7374052E-5,-1.725018E-3,1.0426725E-3,-6.5289278E-6,-7.725037E-5,1.7471825E-3,-8.883774E-4,-2.8232932E-3,7.786751E-5,1.4208078E-3,7.9633945E-5,-1.7811902E-4,-1.4513138E-5,-2.1660726E-3,-4.0044784E-4,4.744172E-3,1.1208057E-3,-2.1731704E-3,-2.7234554E-3,6.059855E-4,-2.6310284E-3,2.7608078E-3,2.4351974E-3,-8.062124E-5,4.458669E-4,-8.806569E-5,-8.176504E-4,1.0733374E-4,-6.480813E-5,1.3886349E-3,-3.1882625E-3,1.5332848E-3,-1.8413464E-3,5.869667E-4,3.9012432E-3,-3.4311414E-4,2.5467873E-3,-1.706183E-3,-2.5428731E-3,1.6411394E-3,-2.134204E-3,1.6093254E-4,2.4722815E-3,-4.016757E-4,3.2009482E-3,1.252085E-3,2.065599E-4,-5.474885E-4,-1.9019697E-4,1.1031169E-3,-1.8493045E-3,3.13312E-5,-5.0067663E-4,-6.45715E-4,2.8226632E-3,-1.2577162E-4,-3.7846507E-6,-4.3278473E-4,3.3741891E-3,-1.052469E-3,1.2347201E-3,-3.1879544E-4,-1.2509674E-3,-1.3004243E-4,2.2905767E-3,1.1013448E-4,-1.0218173E-3,1.5159348E-3,1.167655E-4,-5.273819E-4,-2.589854E-4,1.1366844E-3,1.1289248E-3,-1.15612616E-4,-1.8384712E-3,5.396247E-4,1.8296551E-4,-1.400092E-4,-4.33375E-4,1.236389E-3,2.768293E-3,-2.984628E-4,-2.6822955E-4,6.074E-5],"categories":[],"categories_nodes":[],"categories_segments":[],"categories_sizes":[],"default_left":[0,0,0,0,0,0,0,0,0,0,0,0,0,0,0,0,0,0,0,0,0,0,0,0,0,0,0,0,0,0,0,0,0,0,0,0,0,0,0,0,0,0,0,0,0,0,0,0,0,0,0,0,0,0,0,0,0,0,0,0,0,0,0,0,0,0,0,0,0,0,0,0,0,0,0,0,0,0,0,0,0,0,0,0,0,0,0],"id":18,"left_children":[1,3,5,7,9,11,13,15,17,19,21,23,25,27,29,31,33,35,37,39,41,-1,-1,43,45,47,49,51,53,55,57,59,61,-1,63,65,-1,-1,-1,-1,-1,-1,-1,-1,-1,-1,-1,67,69,-1,71,73,75,77,79,81,-1,83,85,-1,-1,-1,-1,-1,-1,-1,-1,-1,-1,-1,-1,-1,-1,-1,-1,-1,-1,-1,-1,-1,-1,-1,-1,-1,-1,-1,-1],"loss_changes":[1.7277895E-6,2.2473734E-5,1.4857327E-5,2.253386E-5,4.842741E-6,4.9969412E-6,5.5732303E-6,2.6964228E-5,4.6954767E-5,1.792401E-5,3.8362472E-5,4.3602795E-5,1.5426665E-5,1.5454967E-5,2.3089815E-5,1.4274831E-5,1.03232844E-4,1.35042355E-5,5.51779E-5,7.140887E-5,8.025048E-5,0E0,0E0,1.587887E-5,2.7321976E-5,1.4279613E-6,1.378736E-6,3.3236E-5,3.6437497E-5,5.210264E-6,5.60553E-5,8.931203E-6,1.452775E-4,0E0,9.703602E-6,2.4829742E-6,0E0,0E0,0E0,0E0,0E0,0E0,0E0,0E0,0E0,0E0,0E0,1.1332759E-5,2.965872E-5,0E0,1.4348957E-6,3.4284727E-5,6.06136E-5,6.284403E-5,1.7083405E-5,2.9355848E-5,0E0,6.826843E-5,8.391707E-6,0E0,0E0,0E0,0E0,0E0,0E0,0E0,0E0,0E0,0E0,0E0,0E0,0E0,0E0,0E0,0E0,0E0,0E0,0E0,0E0,0E0,0E0,0E0,0E0,0E0,0E0,0E0,0E0],"parents":[2147483647,0,0,1,1,2,2,3,3,4,4,5,5,6,6,7,7,8,8,9,9,10,10,11,11,12,12,13,13,14,14,15,15,16,16,17,17,18,18,19,19,20,20,23,23,24,24,25,25,26,26,27,27,28,28,29,29,30,30,31,31,32,32,34,34,35,35,47,47,48,48,50,50,51,51,52,52,53,53,54,54,55,55,57,57,58,58],"right_children":[2,4,6,8,10,12,14,16,18,20,22,24,26,28,30,32,34,36,38,40,42,-1,-1,44,46,48,50,52,54,56,58,60,62,-1,64,66,-1,-1,-1,-1,-1,-1,-1,-1,-1,-1,-1,68,70,-1,72,74,76,78,80,82,-1,84,86,-1,-1,-1,-1,-1,-1,-1,-1,-1,-1,-1,-1,-1,-1,-1,-1,-1,-1,-1,-1,-1,-1,-1,-1,-1,-1,-1,-1],"split_conditions":[3.7E1,3.6E1,3.9E1,3.5E1,2E0,1E0,2E0,3.4E1,2E0,1E0,1E0,3.8E1,3.8E1,5.8E1,5.8E1,3.3E1,1E0,1E0,1E0,1E0,1E0,-2.7234554E-3,6.059855E-4,1E0,1E0,2E0,2E0,1E0,6E1,5.1E1,6.1E1,3.1E1,1E0,-3.1882625E-3,2E0,1E0,5.869667E-4,3.9012432E-3,-3.4311414E-4,2.5467873E-3,-1.706183E-3,-2.5428731E-3,1.6411394E-3,-2.134204E-3,1.6093254E-4,2.4722815E-3,-4.016757E-4,1E0,1E0,2.065599E-4,1E0,5.6E1,1E0,1E0,1E0,5E1,-6.45715E-4,1E0,7.6E1,-3.7846507E-6,-4.3278473E-4,3.3741891E-3,-1.052469E-3,1.2347201E-3,-3.1879544E-4,-1.2509674E-3,-1.3004243E-4,2.2905767E-3,1.1013448E-4,-1.0218173E-3,1.5159348E-3,1.167655E-4,-5.273819E-4,-2.589854E-4,1.1366844E-3,1.1289248E-3,-1.15612616E-4,-1.8384712E-3,5.396247E-4,1.8296551E-4,-1.400092E-4,-4.33375E-4,1.236389E-3,2.768293E-3,-2.984628E-4,-2.6822955E-4,6.074E-5],"split_indices":[0,0,0,0,2,2,2,0,2,1,1,0,0,0,0,0,1,1,1,2,2,0,0,1,1,2,2,2,0,0,0,0,2,0,2,2,0,0,0,0,0,0,0,0,0,0,0,1,1,0,1,0,1,1,2,0,0,1,0,0,0,0,0,0,0,0,0,0,0,0,0,0,0,0,0,0,0,0,0,0,0,0,0,0,0,0,0],"split_type":[0,0,0,0,0,0,0,0,0,0,0,0,0,0,0,0,0,0,0,0,0,0,0,0,0,0,0,0,0,0,0,0,0,0,0,0,0,0,0,0,0,0,0,0,0,0,0,0,0,0,0,0,0,0,0,0,0,0,0,0,0,0,0,0,0,0,0,0,0,0,0,0,0,0,0,0,0,0,0,0,0,0,0,0,0,0,0],"sum_hessian":[6.06E2,2.18E2,3.88E2,2.11E2,7E0,1.3E1,3.75E2,2.05E2,6E0,5E0,2E0,4E0,9E0,2.5E2,1.25E2,2E2,5E0,4E0,2E0,2E0,3E0,1E0,1E0,2E0,2E0,5E0,4E0,7.8E1,1.72E2,3.8E1,8.7E1,1.94E2,6E0,2E0,3E0,2E0,2E0,1E0,1E0,1E0,1E0,2E0,1E0,1E0,1E0,1E0,1E0,2E0,3E0,2E0,2E0,4E1,3.8E1,1E1,1.62E2,2.4E1,1.4E1,6E0,8.1E1,1.82E2,1.2E1,2E0,4E0,2E0,1E0,1E0,1E0,1E0,1E0,1E0,2E0,1E0,1E0,3.6E1,4E0,2E1,1.8E1,6E0,4E0,7.8E1,8.4E1,2.2E1,2E0,3E0,3E0,3E1,5.1E1],"tree_param":{"num_deleted":"0","num_feature":"3","num_nodes":"87","size_leaf_vector":"1"}},{"base_weights":[5.54279E-6,4.3359923E-5,-1.13091504E-4,1.4239914E-5,6.847441E-4,-6.4274075E-4,-4.5197767E-6,2.5358973E-5,-6.8035297E-4,2.1867838E-3,-1.15185976E-4,-2.0106211E-3,9.1393787E-7,5.331586E-4,-6.208782E-5,-5.4568836E-6,2.3035314E-4,-1.6960502E-3,6.513596E-5,3.0177236E-3,1.2508631E-3,9.4898045E-4,-4.916841E-4,-4.642725E-3,1.782164E-3,9.1043446E-4,-8.177459E-4,2.3961067E-4,1.0603517E-3,-5.4071844E-4,-2.5029409E-5,-1.0031338E-4,9.195142E-5,7.0981734E-4,-2.570543E-4,-1.8240511E-3,5.520135E-4,6.144345E-4,-1.120309E-3,2.468869E-3,-2.0557642E-4,-7.802844E-4,1.4325281E-3,1.1757016E-5,6.2481564E-4,-8.4271433E-4,-1.707077E-4,-2.6709363E-3,-4.6153367E-4,1.1223158E-3,9.869039E-5,9.6516014E-4,-2.9153825E-4,-2.4355054E-3,6.6667795E-4,8.7440014E-4,-4.4310093E-4,2.399087E-5,6.9090724E-4,1.1684895E-3,-1.3052026E-3,-1.7048717E-4,1.0529054E-4,-2.5146537E-6,-6.5911456E-4,-1.03503466E-4,1.2768988E-4,1.4957885E-3,2.1499947E-4,-1.8530973E-4,4.2535862E-4,-1.0015517E-3,1.6131997E-4,-1.0782331E-3,4.930198E-4,-4.529953E-5,-6.569624E-4,-4.2874366E-4,2.7937442E-4,4.8752627E-4,-7.3047477E-4,-1.7343163E-3,-2.952715E-4,5.9806305E-4,5.146116E-5,-4.8359236E-4,1.2122592E-3,9.0909004E-4,-1.2783408E-3,9.4145536E-4,-6.508827E-5,-1.2809038E-4,-8.828342E-4,-2.1822102E-4,3.540367E-4,-1.16461204E-4,1.358131E-4],"categories":[],"categories_nodes":[],"categories_segments":[],"categories_sizes":[],"default_left":[0,0,0,0,0,0,0,0,0,0,0,0,0,0,0,0,0,0,0,0,0,0,0,0,0,0,0,0,0,0,0,0,0,0,0,0,0,0,0,0,0,0,0,0,0,0,0,0,0,0,0,0,0,0,0,0,0,0,0,0,0,0,0,0,0,0,0,0,0,0,0,0,0,0,0,0,0,0,0,0,0,0,0,0,0,0,0,0,0,0,0,0,0,0,0,0,0],"id":19,"left_children":[1,3,5,7,9,11,13,15,17,19,21,23,25,27,29,31,33,35,37,39,41,43,45,47,49,51,53,55,57,59,61,63,65,67,69,-1,-1,-1,71,-1,-1,73,-1,-1,-1,75,77,-1,-1,-1,-1,-1,79,81,83,85,87,-1,-1,89,91,93,95,-1,-1,-1,-1,-1,-1,-1,-1,-1,-1,-1,-1,-1,-1,-1,-1,-1,-1,-1,-1,-1,-1,-1,-1,-1,-1,-1,-1,-1,-1,-1,-1,-1,-1],"loss_changes":[2.7281537E-6,8.600397E-6,8.45032E-6,3.4309162E-6,2.4282417E-5,2.2012904E-5,3.8403327E-6,2.7554997E-6,5.4108104E-6,1.669101E-6,6.0757925E-6,8.813813E-5,1.4147087E-5,1.6030056E-6,1.9730423E-6,3.520352E-6,1.3503042E-5,2.0425294E-5,8.274421E-6,2.1780643E-5,1.8628878E-5,1.0835852E-6,1.0955389E-6,8.072042E-6,2.4885949E-6,1.1595636E-5,2.5638108E-5,4.287851E-6,1.2354549E-6,1.19784145E-5,2.0083357E-6,2.239063E-5,9.238221E-6,1.7229497E-5,3.9636166E-6,0E0,0E0,0E0,4.4677636E-6,0E0,0E0,9.418711E-6,0E0,0E0,0E0,1.6529827E-6,3.9859515E-6,0E0,0E0,0E0,0E0,0E0,8.830331E-6,7.482031E-6,1.6677684E-6,1.6618327E-5,2.8545508E-5,0E0,0E0,3.028495E-6,2.4459014E-6,1.1991905E-5,3.2136527E-6,0E0,0E0,0E0,0E0,0E0,0E0,0E0,0E0,0E0,0E0,0E0,0E0,0E0,0E0,0E0,0E0,0E0,0E0,0E0,0E0,0E0,0E0,0E0,0E0,0E0,0E0,0E0,0E0,0E0,0E0,0E0,0E0,0E0,0E0],"parents":[2147483647,0,0,1,1,2,2,3,3,4,4,5,5,6,6,7,7,8,8,9,9,10,10,11,11,12,12,13,13,14,14,15,15,16,16,17,17,18,18,19,19,20,20,21,21,22,22,23,23,24,24,25,25,26,26,27,27,28,28,29,29,30,30,31,31,32,32,33,33,34,34,38,38,41,41,45,45,46,46,52,52,53,53,54,54,55,55,56,56,59,59,60,60,61,61,62,62],"right_children":[2,4,6,8,10,12,14,16,18,20,22,24,26,28,30,32,34,36,38,40,42,44,46,48,50,52,54,56,58,60,62,64,66,68,70,-1,-1,-1,72,-1,-1,74,-1,-1,-1,76,78,-1,-1,-1,-1,-1,80,82,84,86,88,-1,-1,90,92,94,96,-1,-1,-1,-1,-1,-1,-1,-1,-1,-1,-1,-1,-1,-1,-1,-1,-1,-1,-1,-1,-1,-1,-1,-1,-1,-1,-1,-1,-1,-1,-1,-1,-1,-1],"split_conditions":[7.7E1,7.4E1,8.1E1,7.3E1,1E0,1E0,8.3E1,6.3E1,1E0,7.5E1,7.5E1,1E0,1E0,2E0,8.4E1,1E0,1E0,1E0,1E0,1E0,7.6E1,1E0,7.6E1,8E1,7.9E1,2E0,2E0,8.2E1,8.2E1,1E0,1E0,5.9E1,1E0,6.4E1,7.2E1,-1.8240511E-3,5.520135E-4,6.144345E-4,2E0,2.468869E-3,-2.0557642E-4,1E0,1.4325281E-3,1.1757016E-5,6.2481564E-4,2E0,2E0,-2.6709363E-3,-4.6153367E-4,1.1223158E-3,9.869039E-5,9.6516014E-4,7.9E1,7.9E1,7.8E1,1E0,1E0,2.399087E-5,6.9090724E-4,1E0,2E0,9.7E1,1E0,-2.5146537E-6,-6.5911456E-4,-1.03503466E-4,1.2768988E-4,1.4957885E-3,2.1499947E-4,-1.8530973E-4,4.2535862E-4,-1.0015517E-3,1.6131997E-4,-1.0782331E-3,4.930198E-4,-4.529953E-5,-6.569624E-4,-4.2874366E-4,2.7937442E-4,4.8752627E-4,-7.3047477E-4,-1.7343163E-3,-2.952715E-4,5.9806305E-4,5.146116E-5,-4.8359236E-4,1.2122592E-3,9.0909004E-4,-1.2783408E-3,9.4145536E-4,-6.508827E-5,-1.2809038E-4,-8.828342E-4,-2.1822102E-4,3.540367E-4,-1.16461204E-4,1.358131E-4],"split_indices":[0,0,0,0,2,2,0,0,2,0,0,1,1,2,0,1,1,1,1,1,0,1,0,0,0,2,2,0,0,2,1,0,2,0,0,0,0,0,2,0,0,1,0,0,0,2,2,0,0,0,0,0,0,0,0,2,2,0,0,1,2,0,2,0,0,0,0,0,0,0,0,0,0,0,0,0,0,0,0,0,0,0,0,0,0,0,0,0,0,0,0,0,0,0,0,0,0],"split_type":[0,0,0,0,0,0,0,0,0,0,0,0,0,0,0,0,0,0,0,0,0,0,0,0,0,0,0,0,0,0,0,0,0,0,0,0,0,0,0,0,0,0,0,0,0,0,0,0,0,0,0,0,0,0,0,0,0,0,0,0,0,0,0,0,0,0,0,0,0,0,0,0,0,0,0,0,0,0,0,0,0,0,0,0,0,0,0,0,0,0,0,0,0,0,0,0,0],"sum_hessian":[6.06E2,4.6E2,1.46E2,4.41E2,1.9E1,2.4E1,1.22E2,4.35E2,6E0,6E0,1.3E1,7E0,1.7E1,1.1E1,1.11E2,3.79E2,5.6E1,2E0,4E0,2E0,4E0,3E0,1E1,4E0,3E0,8E0,9E0,8E0,3E0,7E0,1.04E2,1.92E2,1.87E2,2.8E1,2.8E1,1E0,1E0,2E0,2E0,1E0,1E0,2E0,2E0,1E0,2E0,4E0,6E0,3E0,1E0,2E0,1E0,4E0,4E0,4E0,5E0,4E0,4E0,1E0,2E0,2E0,5E0,4.9E1,5.5E1,1.79E2,1.3E1,6.6E1,1.21E2,2E0,2.6E1,2.6E1,2E0,1E0,1E0,1E0,1E0,2E0,2E0,3E0,3E0,2E0,2E0,2E0,2E0,2E0,3E0,2E0,2E0,2E0,2E0,1E0,1E0,2E0,3E0,3.8E1,1.1E1,1.8E1,3.7E1],"tree_param":{"num_deleted":"0","num_feature":"3","num_nodes":"97","size_leaf_vector":"1"}}]},"name":"gbtree"},"learner_model_param":{"base_score":"5.6580657E-1","boost_from_average":"1","num_class":"0","num_feature":"3","num_target":"1"},"objective":{"name":"reg:squarederror","reg_loss_param":{"scale_pos_weight":"1"}}},"version":[2,1,1]}