{"learner":{"attributes":{},"feature_names":[],"feature_types":[],"gradient_booster":{"model":{"gbtree_model_param":{"num_parallel_tree":"1","num_trees":"20"},"iteration_indptr":[0,1,2,3,4,5,6,7,8,9,10,11,12,13,14,15,16,17,18,19,20],"tree_info":[0,0,0,0,0,0,0,0,0,0,0,0,0,0,0,0,0,0,0,0],"trees":[{"base_weights":[1.4542362E-8,-7.2671264E-2,7.723626E-2,-2.1713909E-2,-8.0366544E-2,9.915829E-2,2.7755644E-2,-7.452208E-2,5.5563144E-2,-6.1804175E-2,-9.8351926E-2,5.6554865E-2,4.2016547E-2,-1.3274327E-2,-3.8326472E-2,-2.134723E-2,5.9272453E-2,-4.134562E-2,-2.2186838E-2,-3.688562E-2,-1.2589125E-1,-2.834639E-2,2.9245257E-2,-1.1114586E-1,-6.575127E-2,-5.7243474E-2,-1.4103651E-3],"categories":[],"categories_nodes":[],"categories_segments":[],"categories_sizes":[],"default_left":[0,0,0,0,0,0,0,0,0,0,0,0,0,0,0,0,0,0,0,0,0,0,0,0,0,0,0],"id":0,"left_children":[1,3,5,7,9,11,-1,13,15,17,19,-1,-1,21,-1,-1,-1,-1,-1,-1,23,-1,-1,25,-1,-1,-1],"loss_changes":[1.1427775E1,4.0960026E-1,4.6456003E-1,5.713802E-1,2.9805994E-1,9.3894005E-2,0E0,9.814829E-3,3.5780215E-1,1.6052699E-1,3.0278015E-1,0E0,0E0,1.5779665E-2,0E0,0E0,0E0,0E0,0E0,0E0,3.2556057E-3,0E0,0E0,2.3563981E-2,0E0,0E0,0E0],"parents":[2147483647,0,0,1,1,2,2,3,3,4,4,5,5,7,7,8,8,9,9,10,10,13,13,20,20,23,23],"right_children":[2,4,6,8,10,12,-1,14,16,18,20,-1,-1,22,-1,-1,-1,-1,-1,-1,24,-1,-1,26,-1,-1,-1],"split_conditions":[2E0,1.265E-1,3E0,1E0,1E0,1E0,2.7755644E-2,4.7E-3,1E0,1E0,1E0,5.6554865E-2,4.2016547E-2,1E0,-3.8326472E-2,-2.134723E-2,5.9272453E-2,-4.134562E-2,-2.2186838E-2,-3.688562E-2,3.61E-1,-2.834639E-2,2.9245257E-2,3.571E-1,-6.575127E-2,-5.7243474E-2,-1.4103651E-3],"split_indices":[1,2,1,0,1,0,0,2,1,0,0,0,0,1,0,0,0,0,0,0,2,0,0,2,0,0,0],"split_type":[0,0,0,0,0,0,0,0,0,0,0,0,0,0,0,0,0,0,0,0,0,0,0,0,0,0,0],"sum_hessian":[2.034E3,1.048E3,9.86E2,1.38E2,9.1E2,4.89E2,4.97E2,8.2E1,5.6E1,4.5E2,4.6E2,2.51E2,2.38E2,3E0,7.9E1,2.2E1,3.4E1,2.03E2,2.47E2,2.45E2,2.15E2,2E0,1E0,6.5E1,1.5E2,6.3E1,2E0],"tree_param":{"num_deleted":"0","num_feature":"3","num_nodes":"27","size_leaf_vector":"1"}},{"base_weights":[-4.8144986E-5,-3.654947E-2,3.8746122E-2,-1.0853371E-2,-4.0430054E-2,4.978032E-2,1.3905687E-2,-3.7711974E-2,2.8446935E-2,-3.104295E-2,-4.952583E-2,2.8389651E-2,2.109618E-2,-6.4124465E-3,-3.880555E-2,-1.1137688E-2,3.0482985E-2,-2.0774141E-2,-1.1138148E-2,-1.8517781E-2,-6.352157E-2,-1.8897593E-2,2.1933943E-2,-2.9749775E-2,-2.0863786E-2,-6.4920016E-2,-4.9628995E-2,-1.9117635E-2,1.9782638E-2,-2.8230816E-2,-3.4387093E-2,-3.2972652E-4,-3.295777E-2],"categories":[],"categories_nodes":[],"categories_segments":[],"categories_sizes":[],"default_left":[0,0,0,0,0,0,0,0,0,0,0,0,0,0,0,0,0,0,0,0,0,0,0,0,0,0,0,0,0,0,0,0,0],"id":1,"left_children":[1,3,5,7,9,11,-1,13,15,17,19,-1,-1,21,23,-1,-1,-1,-1,-1,25,-1,-1,27,-1,29,31,-1,-1,-1,-1,-1,-1],"loss_changes":[2.883062E0,1.0416317E-1,1.177032E-1,1.4779443E-1,7.624638E-2,2.3627281E-2,0E0,2.5921315E-3,9.5376156E-2,4.0610045E-2,7.823503E-2,0E0,0E0,7.969732E-3,8.754954E-4,0E0,0E0,0E0,0E0,0E0,9.7459555E-4,0E0,0E0,1.5040755E-2,0E0,2.408743E-3,1.9097608E-2,0E0,0E0,0E0,0E0,0E0,0E0],"parents":[2147483647,0,0,1,1,2,2,3,3,4,4,5,5,7,7,8,8,9,9,10,10,13,13,14,14,20,20,23,23,25,25,26,26],"right_children":[2,4,6,8,10,12,-1,14,16,18,20,-1,-1,22,24,-1,-1,-1,-1,-1,26,-1,-1,28,-1,30,32,-1,-1,-1,-1,-1,-1],"split_conditions":[2E0,1.265E-1,3E0,1E0,1E0,1E0,1.3905687E-2,4.7E-3,1E0,1E0,1E0,2.8389651E-2,2.109618E-2,1E0,3.2778796E-2,-1.1137688E-2,3.0482985E-2,-2.0774141E-2,-1.1138148E-2,-1.8517781E-2,9.151405E-1,-1.8897593E-2,2.1933943E-2,2.95E-2,-2.0863786E-2,3.61E-1,9.3015295E-1,-1.9117635E-2,1.9782638E-2,-2.8230816E-2,-3.4387093E-2,-3.2972652E-4,-3.295777E-2],"split_indices":[1,2,1,0,1,0,0,2,1,0,0,0,0,1,2,0,0,0,0,0,2,0,0,2,0,2,2,0,0,0,0,0,0],"split_type":[0,0,0,0,0,0,0,0,0,0,0,0,0,0,0,0,0,0,0,0,0,0,0,0,0,0,0,0,0,0,0,0,0],"sum_hessian":[2.034E3,1.048E3,9.86E2,1.38E2,9.1E2,4.89E2,4.97E2,8.2E1,5.6E1,4.5E2,4.6E2,2.51E2,2.38E2,3E0,7.9E1,2.2E1,3.4E1,2.03E2,2.47E2,2.45E2,2.15E2,2E0,1E0,2.2E1,5.7E1,1.92E2,2.3E1,2E1,2E0,6.5E1,1.27E2,6E0,1.7E1],"tree_param":{"num_deleted":"0","num_feature":"3","num_nodes":"33","size_leaf_vector":"1"}},{"base_weights":[-6.375777E-5,-1.841216E-2,1.9437293E-2,-5.410986E-3,-2.0375662E-2,2.4991151E-2,1.3933623E-2,-1.9062776E-2,1.4562866E-2,-1.5592244E-2,-2.5011119E-2,2.8502297E-2,1.0592228E-2,7.237121E-3,1.16372155E-2,-2.2414671E-2,-1.4899122E-2,-5.8109644E-3,1.5676968E-2,-1.0437995E-2,-1.1183065E-2,-9.296523E-3,-3.22048E-2,2.8985407E-2,2.2705026E-2,-4.4301383E-2,1.3544719E-2,-1.2111911E-2,-1.2544331E-2,1.6450457E-2,-8.4841885E-3,-1.0797253E-2,-1.3626729E-2,-2.8658558E-2,-3.3541534E-2,2.6719037E-2,1.5597154E-2,-3.9970666E-2,1.5321811E-2,7.260022E-3,9.891823E-3,-1.34377945E-2,3.3881217E-2,-5.623473E-3,-4.2853067E-3,-2.3029558E-2,-5.460063E-3,-1.5174101E-2,8.470029E-3,-1.7327875E-2,-1.31007405E-2,1.415468E-2,-1.3238832E-2,-2.157411E-2,7.0369607E-3],"categories":[],"categories_nodes":[],"categories_segments":[],"categories_sizes":[],"default_left":[0,0,0,0,0,0,0,0,0,0,0,0,0,0,0,0,0,0,0,0,0,0,0,0,0,0,0,0,0,0,0,0,0,0,0,0,0,0,0,0,0,0,0,0,0,0,0,0,0,0,0,0,0,0,0],"id":2,"left_children":[1,3,5,7,9,11,13,15,17,19,21,23,-1,-1,25,27,29,-1,-1,-1,31,-1,33,35,37,-1,39,41,-1,-1,-1,43,45,47,49,51,-1,-1,-1,-1,53,-1,-1,-1,-1,-1,-1,-1,-1,-1,-1,-1,-1,-1,-1],"loss_changes":[7.285076E-1,2.666843E-2,2.9821008E-2,3.8179968E-2,1.9809932E-2,5.945474E-3,4.498139E-4,8.2440116E-4,2.5425624E-2,1.0273479E-2,2.0685375E-2,4.7683716E-5,0E0,0E0,2.0320902E-2,9.0830587E-4,4.514694E-3,0E0,0E0,0E0,8.668378E-5,0E0,6.2674284E-5,3.1292439E-4,2.200652E-2,0E0,2.0908378E-4,1.4792787E-2,0E0,0E0,0E0,1.2289174E-4,2.1304768E-3,5.5991E-3,3.2691658E-4,1.0901555E-2,0E0,0E0,0E0,0E0,5.9309127E-3,0E0,0E0,0E0,0E0,0E0,0E0,0E0,0E0,0E0,0E0,0E0,0E0,0E0,0E0],"parents":[2147483647,0,0,1,1,2,2,3,3,4,4,5,5,6,6,7,7,8,8,9,9,10,10,11,11,14,14,15,15,16,16,20,20,22,22,23,23,24,24,26,26,27,27,31,31,32,32,33,33,34,34,35,35,40,40],"right_children":[2,4,6,8,10,12,14,16,18,20,22,24,-1,-1,26,28,30,-1,-1,-1,32,-1,34,36,38,-1,40,42,-1,-1,-1,44,46,48,50,52,-1,-1,-1,-1,54,-1,-1,-1,-1,-1,-1,-1,-1,-1,-1,-1,-1,-1,-1],"split_conditions":[2E0,1.265E-1,3E0,1E0,1E0,1E0,7.717391E-1,1E0,1E0,1E0,1E0,8.992E-1,1.0592228E-2,7.237121E-3,7.737E-1,3.2778796E-2,4.7E-3,-5.8109644E-3,1.5676968E-2,-1.0437995E-2,9.052136E-1,-9.296523E-3,3.61E-1,4.882E-1,9.11E-1,-4.4301383E-2,9.347E-1,2.95E-2,-1.2544331E-2,1.6450457E-2,-8.4841885E-3,7.737E-1,9.187E-1,3.571E-1,9.151405E-1,4.859E-1,1.5597154E-2,-3.9970666E-2,1.5321811E-2,7.260022E-3,9.4057053E-1,-1.34377945E-2,3.3881217E-2,-5.623473E-3,-4.2853067E-3,-2.3029558E-2,-5.460063E-3,-1.5174101E-2,8.470029E-3,-1.7327875E-2,-1.31007405E-2,1.415468E-2,-1.3238832E-2,-2.157411E-2,7.0369607E-3],"split_indices":[1,2,1,0,1,0,2,1,1,0,0,2,0,0,2,2,2,0,0,0,2,0,2,2,2,0,2,2,0,0,0,2,2,2,2,2,0,0,0,0,2,0,0,0,0,0,0,0,0,0,0,0,0,0,0],"split_type":[0,0,0,0,0,0,0,0,0,0,0,0,0,0,0,0,0,0,0,0,0,0,0,0,0,0,0,0,0,0,0,0,0,0,0,0,0,0,0,0,0,0,0,0,0,0,0,0,0,0,0,0,0,0,0],"sum_hessian":[2.034E3,1.048E3,9.86E2,1.38E2,9.1E2,4.89E2,4.97E2,8.2E1,5.6E1,4.5E2,4.6E2,2.51E2,2.38E2,3.98E2,9.9E1,4.3E1,3.9E1,2.2E1,3.4E1,2.03E2,2.47E2,2.45E2,2.15E2,2.28E2,2.3E1,1E0,9.8E1,1E1,3.3E1,1E0,3.8E1,2.18E2,2.9E1,6.5E1,1.5E2,1.19E2,1.09E2,1E0,2.2E1,7.5E1,2.3E1,9E0,1E0,1.78E2,4E1,1E0,2.8E1,6.3E1,2E0,1.27E2,2.3E1,1.16E2,3E0,1E0,2.2E1],"tree_param":{"num_deleted":"0","num_feature":"3","num_nodes":"55","size_leaf_vector":"1"}},{"base_weights":[-8.662708E-5,-9.272366E-3,9.676216E-3,-2.5203752E-3,-1.0292403E-2,1.2500591E-2,6.877784E-3,-9.340239E-3,7.45452E-3,-7.904413E-3,-1.2606268E-2,1.4218861E-2,1.0636553E-2,7.255274E-3,5.3028227E-3,1.5915185E-4,-9.698455E-3,-3.031802E-3,1.6124872E-2,-1.0489162E-2,-5.7463753E-3,-9.334301E-3,-1.6274313E-2,8.772223E-3,1.3266487E-2,6.3882545E-3,9.763717E-3,7.0826476E-3,9.8915165E-3,-3.3226036E-2,6.6988524E-3,-8.119126E-3,1.2337841E-2,-7.0733055E-3,-1.0633633E-2,5.736223E-3,1.0188061E-2,-5.9257783E-3,-9.091747E-3,-5.111972E-3,-7.350502E-3,-5.118488E-3,-8.516272E-3,-1.5637018E-2,-1.12079205E-2,-4.603459E-2,1.4258471E-2,-5.2312285E-2,1.1029687E-2,3.7810155E-3,5.8765947E-3,2.075892E-2,3.5415182E-3,3.6777733E-3,4.340203E-3,-5.148313E-3,5.808726E-3,-6.4566396E-3,-3.4805324E-3,3.9808936E-2,-5.3551407E-3,-2.8274506E-3,1.4493406E-2,-4.2004E-3,-2.824175E-3,1.8472785E-2,-4.7388473E-3,-8.258376E-3,5.4261917E-3,7.356888E-3,5.162734E-3,6.2055215E-3,4.909719E-3,-4.1060157E-2,3.7045912E-3,1.8691346E-3,1.259319E-2,-1.6180582E-2,3.6714608E-3],"categories":[],"categories_nodes":[],"categories_segments":[],"categories_sizes":[],"default_left":[0,0,0,0,0,0,0,0,0,0,0,0,0,0,0,0,0,0,0,0,0,0,0,0,0,0,0,0,0,0,0,0,0,0,0,0,0,0,0,0,0,0,0,0,0,0,0,0,0,0,0,0,0,0,0,0,0,0,0,0,0,0,0,0,0,0,0,0,0,0,0,0,0,0,0,0,0,0,0],"id":3,"left_children":[1,3,5,7,9,11,13,15,17,19,21,23,25,27,29,31,33,-1,35,37,39,41,43,-1,45,-1,47,49,51,-1,53,-1,-1,55,57,-1,-1,-1,59,61,63,-1,65,67,-1,-1,69,-1,71,-1,73,75,-1,-1,77,-1,-1,-1,-1,-1,-1,-1,-1,-1,-1,-1,-1,-1,-1,-1,-1,-1,-1,-1,-1,-1,-1,-1,-1],"loss_changes":[1.8258636E-1,7.198818E-3,7.7150986E-3,9.525439E-3,4.9340725E-3,1.4181882E-3,2.576057E-4,2.8397935E-4,6.778567E-3,2.4553984E-3,5.380884E-3,5.6537986E-4,3.2166764E-4,1.1152029E-4,1.0462351E-2,2.0087198E-3,1.2118369E-4,0E0,4.5848824E-4,2.8062984E-4,2.1480396E-4,9.4467774E-5,4.949011E-4,0E0,2.2211026E-2,0E0,2.6351292E-2,1.7410517E-4,5.244233E-4,0E0,1.21417455E-4,0E0,0E0,1.5655315E-3,3.873231E-4,0E0,0E0,0E0,1.5928578E-2,3.5148137E-3,7.4117444E-5,0E0,6.2507475E-3,4.8166737E-3,0E0,0E0,2.0442903E-4,0E0,1.6734935E-4,0E0,1.5713096E-2,2.0727958E-4,0E0,0E0,2.8825188E-3,0E0,0E0,0E0,0E0,0E0,0E0,0E0,0E0,0E0,0E0,0E0,0E0,0E0,0E0,0E0,0E0,0E0,0E0,0E0,0E0,0E0,0E0,0E0,0E0],"parents":[2147483647,0,0,1,1,2,2,3,3,4,4,5,5,6,6,7,7,8,8,9,9,10,10,11,11,12,12,13,13,14,14,15,15,16,16,18,18,19,19,20,20,21,21,22,22,24,24,26,26,27,27,28,28,30,30,33,33,34,34,38,38,39,39,40,40,42,42,43,43,46,46,48,48,50,50,51,51,54,54],"right_children":[2,4,6,8,10,12,14,16,18,20,22,24,26,28,30,32,34,-1,36,38,40,42,44,-1,46,-1,48,50,52,-1,54,-1,-1,56,58,-1,-1,-1,60,62,64,-1,66,68,-1,-1,70,-1,72,-1,74,76,-1,-1,78,-1,-1,-1,-1,-1,-1,-1,-1,-1,-1,-1,-1,-1,-1,-1,-1,-1,-1,-1,-1,-1,-1,-1,-1],"split_conditions":[2E0,1.265E-1,3E0,1E0,1E0,1E0,7.717391E-1,4.7E-3,1E0,1E0,1E0,2.211E-1,2.7742925E-1,7.361E-1,7.737E-1,1E0,3.6550548E-2,-3.031802E-3,5.66E-2,5.263E-1,7.866E-1,4.911699E-1,9.3015295E-1,8.772223E-3,2.3458122E-1,6.3882545E-3,2.8387833E-1,5.241E-1,7.382568E-1,-3.3226036E-2,9.347E-1,-8.119126E-3,1.2337841E-2,2.95E-2,1E0,5.736223E-3,1.0188061E-2,-5.9257783E-3,5.306E-1,7.737E-1,9.187E-1,-5.118488E-3,4.964E-1,9.151405E-1,-1.12079205E-2,-4.603459E-2,8.992E-1,-5.2312285E-2,5.846387E-1,3.7810155E-3,5.263E-1,1E0,3.5415182E-3,3.6777733E-3,9.4057053E-1,-5.148313E-3,5.808726E-3,-6.4566396E-3,-3.4805324E-3,3.9808936E-2,-5.3551407E-3,-2.8274506E-3,1.4493406E-2,-4.2004E-3,-2.824175E-3,1.8472785E-2,-4.7388473E-3,-8.258376E-3,5.4261917E-3,7.356888E-3,5.162734E-3,6.2055215E-3,4.909719E-3,-4.1060157E-2,3.7045912E-3,1.8691346E-3,1.259319E-2,-1.6180582E-2,3.6714608E-3],"split_indices":[1,2,1,0,1,0,2,2,1,0,0,2,2,2,2,1,2,0,2,2,2,2,2,0,2,0,2,2,2,0,2,0,0,2,1,0,0,0,2,2,2,0,2,2,0,0,2,0,2,0,2,0,0,0,2,0,0,0,0,0,0,0,0,0,0,0,0,0,0,0,0,0,0,0,0,0,0,0,0],"split_type":[0,0,0,0,0,0,0,0,0,0,0,0,0,0,0,0,0,0,0,0,0,0,0,0,0,0,0,0,0,0,0,0,0,0,0,0,0,0,0,0,0,0,0,0,0,0,0,0,0,0,0,0,0,0,0,0,0,0,0,0,0,0,0,0,0,0,0,0,0,0,0,0,0,0,0,0,0,0,0],"sum_hessian":[2.034E3,1.048E3,9.86E2,1.38E2,9.1E2,4.89E2,4.97E2,8.2E1,5.6E1,4.5E2,4.6E2,2.51E2,2.38E2,3.98E2,9.9E1,3E0,7.9E1,2.2E1,3.4E1,2.03E2,2.47E2,2.45E2,2.15E2,5.2E1,1.99E2,6.5E1,1.73E2,3.77E2,2.1E1,1E0,9.8E1,2E0,1E0,2.3E1,5.6E1,1.8E1,1.6E1,9.9E1,1.04E2,1.8E2,6.7E1,1.11E2,1.34E2,1.98E2,1.7E1,1E0,1.98E2,1E0,1.72E2,2.66E2,1.11E2,3E0,1.8E1,7.5E1,2.3E1,2E1,3E0,3.3E1,2.3E1,1E0,1.03E2,1.78E2,2E0,3.9E1,2.8E1,2E0,1.32E2,1.92E2,6E0,1.75E2,2.3E1,7.6E1,9.6E1,1E0,1.1E2,1E0,2E0,1E0,2.2E1],"tree_param":{"num_deleted":"0","num_feature":"3","num_nodes":"79","size_leaf_vector":"1"}},{"base_weights":[-8.341207E-5,-4.6022646E-3,4.719384E-3,-1.2038281E-3,-5.115745E-3,6.128762E-3,3.3231706E-3,-4.731058E-3,3.953433E-3,-3.8786524E-3,-6.314906E-3,5.7862448E-3,9.738611E-3,3.5886122E-3,2.230827E-3,-2.5619073E-3,-5.621866E-3,-1.5818153E-3,8.517406E-3,-5.104735E-3,-2.8544606E-3,-4.6321326E-3,-8.202162E-3,6.0776947E-3,-3.1268686E-2,5.524844E-3,3.8194798E-3,3.4525027E-3,5.7641063E-3,-2.4919525E-2,3.26021E-3,-4.530236E-3,1.4038692E-2,-3.3232688E-3,-2.0017189E-3,2.7124563E-3,5.1603694E-3,-4.201495E-3,-3.5074619E-3,-2.5492832E-3,-4.9871057E-3,-3.8564245E-3,-2.7704097E-3,-5.534694E-3,-8.993108E-3,7.1518184E-3,4.937188E-3,1.8975857E-3,2.6047786E-3,1.3995044E-2,1.8639518E-3,1.8630765E-3,1.6488818E-3,-4.7769547E-3,-4.3955247E-4,2.3958735E-2,-1.3429716E-2,-2.7035775E-3,4.1147724E-2,-1.421616E-3,-6.018848E-4,-1.6222067E-2,-1.4607742E-3,-2.5189968E-3,2.5102904E-2,-8.7575166E-4,-3.142896E-3,-6.8552173E-3,-4.266755E-3,2.7347368E-3,4.0534437E-3,2.2640652E-3,4.649442E-3,-3.079512E-2,1.8689896E-3,1.4018491E-3,8.395463E-3,-1.2135439E-2,1.9155417E-3],"categories":[],"categories_nodes":[],"categories_segments":[],"categories_sizes":[],"default_left":[0,0,0,0,0,0,0,0,0,0,0,0,0,0,0,0,0,0,0,0,0,0,0,0,0,0,0,0,0,0,0,0,0,0,0,0,0,0,0,0,0,0,0,0,0,0,0,0,0,0,0,0,0,0,0,0,0,0,0,0,0,0,0,0,0,0,0,0,0,0,0,0,0,0,0,0,0,0,0],"id":4,"left_children":[1,3,5,7,9,11,13,15,17,19,21,23,25,27,29,31,33,-1,35,37,39,41,43,45,-1,-1,-1,47,49,-1,51,53,55,-1,-1,-1,-1,57,-1,59,61,63,-1,65,67,69,71,-1,73,75,-1,-1,77,-1,-1,-1,-1,-1,-1,-1,-1,-1,-1,-1,-1,-1,-1,-1,-1,-1,-1,-1,-1,-1,-1,-1,-1,-1,-1],"loss_changes":[4.4187587E-2,1.824379E-3,1.9218475E-3,2.5472315E-3,1.3269503E-3,5.4950267E-4,1.3639033E-4,1.4597795E-4,1.8784245E-3,5.5176904E-4,1.4260616E-3,9.340891E-3,2.8456794E-5,9.824615E-5,5.522471E-3,9.131599E-4,6.957562E-5,0E0,1.3919896E-4,3.2249978E-4,1.4869357E-4,1.5203189E-4,4.0594768E-4,5.147364E-4,0E0,0E0,0E0,9.991927E-5,3.1654473E-4,0E0,6.818399E-5,4.3181132E-4,5.4437714E-3,0E0,0E0,0E0,0E0,1.5149295E-2,0E0,8.319446E-5,1.6066348E-3,8.940381E-3,0E0,1.3675087E-4,2.4073292E-4,3.2360666E-4,3.521978E-4,0E0,8.377756E-3,7.8082085E-5,0E0,0E0,1.4504751E-3,0E0,0E0,0E0,0E0,0E0,0E0,0E0,0E0,0E0,0E0,0E0,0E0,0E0,0E0,0E0,0E0,0E0,0E0,0E0,0E0,0E0,0E0,0E0,0E0,0E0,0E0],"parents":[2147483647,0,0,1,1,2,2,3,3,4,4,5,5,6,6,7,7,8,8,9,9,10,10,11,11,12,12,13,13,14,14,15,15,16,16,18,18,19,19,20,20,21,21,22,22,23,23,27,27,28,28,30,30,31,31,32,32,37,37,39,39,40,40,41,41,43,43,44,44,45,45,46,46,48,48,49,49,52,52],"right_children":[2,4,6,8,10,12,14,16,18,20,22,24,26,28,30,32,34,-1,36,38,40,42,44,46,-1,-1,-1,48,50,-1,52,54,56,-1,-1,-1,-1,58,-1,60,62,64,-1,66,68,70,72,-1,74,76,-1,-1,78,-1,-1,-1,-1,-1,-1,-1,-1,-1,-1,-1,-1,-1,-1,-1,-1,-1,-1,-1,-1,-1,-1,-1,-1,-1,-1],"split_conditions":[2E0,1.265E-1,3E0,1E0,1E0,9.11E-1,7.717391E-1,3.2778796E-2,1E0,1E0,1E0,9.052136E-1,1E0,7.361E-1,7.737E-1,2.95E-2,1E0,-1.5818153E-3,4.89E-2,6.895E-1,9.052136E-1,5.97E-1,2.951E-1,1E0,-3.1268686E-2,5.524844E-3,3.8194798E-3,5.241E-1,7.382568E-1,-2.4919525E-2,9.347E-1,1E0,1E0,-3.3232688E-3,-2.0017189E-3,2.7124563E-3,5.1603694E-3,6.867657E-1,-3.5074619E-3,7.737E-1,9.187E-1,5.932E-1,-2.7704097E-3,1.6167033E-1,3.571E-1,3.78E-1,8.203E-1,1.8975857E-3,5.263E-1,1E0,1.8639518E-3,1.8630765E-3,9.4057053E-1,-4.7769547E-3,-4.3955247E-4,2.3958735E-2,-1.3429716E-2,-2.7035775E-3,4.1147724E-2,-1.421616E-3,-6.018848E-4,-1.6222067E-2,-1.4607742E-3,-2.5189968E-3,2.5102904E-2,-8.7575166E-4,-3.142896E-3,-6.8552173E-3,-4.266755E-3,2.7347368E-3,4.0534437E-3,2.2640652E-3,4.649442E-3,-3.079512E-2,1.8689896E-3,1.4018491E-3,8.395463E-3,-1.2135439E-2,1.9155417E-3],"split_indices":[1,2,1,0,1,2,2,2,1,0,0,2,0,2,2,2,1,0,2,2,2,2,2,0,0,0,0,2,2,0,2,1,1,0,0,0,0,2,0,2,2,2,0,2,2,2,2,0,2,0,0,0,2,0,0,0,0,0,0,0,0,0,0,0,0,0,0,0,0,0,0,0,0,0,0,0,0,0,0],"split_type":[0,0,0,0,0,0,0,0,0,0,0,0,0,0,0,0,0,0,0,0,0,0,0,0,0,0,0,0,0,0,0,0,0,0,0,0,0,0,0,0,0,0,0,0,0,0,0,0,0,0,0,0,0,0,0,0,0,0,0,0,0,0,0,0,0,0,0,0,0,0,0,0,0,0,0,0,0,0,0],"sum_hessian":[2.034E3,1.048E3,9.86E2,1.38E2,9.1E2,4.89E2,4.97E2,8.2E1,5.6E1,4.5E2,4.6E2,4.49E2,4E1,3.98E2,9.9E1,2.5E1,5.7E1,2.2E1,3.4E1,2.03E2,2.47E2,2.45E2,2.15E2,4.48E2,1E0,2.2E1,1.8E1,3.77E2,2.1E1,1E0,9.8E1,2.3E1,2E0,3.3E1,2.4E1,1.4E1,2E1,1.4E2,6.3E1,2.18E2,2.9E1,1.35E2,1.1E2,5.1E1,1.64E2,2.28E2,2.2E2,2.66E2,1.11E2,3E0,1.8E1,7.5E1,2.3E1,9E0,1.4E1,1E0,1E0,1.39E2,1E0,1.78E2,4E1,1E0,2.8E1,1.33E2,2E0,9E0,4.2E1,1.2E1,1.52E2,8.5E1,1.43E2,2.03E2,1.7E1,1E0,1.1E2,1E0,2E0,1E0,2.2E1],"tree_param":{"num_deleted":"0","num_feature":"3","num_nodes":"79","size_leaf_vector":"1"}},{"base_weights":[-5.6778703E-5,-2.2761677E-3,2.3020825E-3,-5.567438E-4,-2.5360184E-3,3.0476036E-3,1.5639149E-3,-2.36568E-3,2.0870885E-3,-1.9055505E-3,-3.147309E-3,5.2441233E-3,2.3979684E-3,1.7557987E-3,7.8266E-4,3.6326274E-3,-2.6360243E-3,-8.252937E-4,4.4836444E-3,-1.5630951E-3,-2.97869E-3,-2.2355095E-3,-4.1711763E-3,3.1272927E-3,2.1237684E-3,-4.5505922E-2,2.7718144E-3,1.6547547E-3,3.4121072E-3,-1.8689647E-2,1.5457029E-3,-3.8204293E-3,9.363271E-3,-1.7633935E-3,-3.5081904E-3,1.476538E-3,2.965268E-3,-1.7452694E-3,9.8629E-3,-3.420498E-3,-2.1421039E-3,-1.7621398E-3,-1.3976771E-3,-3.7045646E-3,-4.0587266E-3,-3.5209633E-2,1.0801926E-3,-3.563869E-4,3.3631616E-3,1.904705E-3,1.0441169E-3,9.446852E-3,9.81025E-4,9.438023E-4,3.986098E-4,2.3473485E-3,-1.7105117E-3,-2.99518E-3,-8.5361797E-4,-1.1773469E-3,-4.1915316E-4,-1.3666141E-3,-5.0906464E-3,-1.6702184E-3,-7.546156E-4,-1.2688903E-3,1.6735265E-2,-2.1491414E-3,1.7863074E-2,1.381006E-3,-2.2742037E-2,2.738859E-3,1.4401872E-3,1.0816971E-3,8.9424074E-4,-2.3096338E-2,9.429119E-4,1.0513887E-3,5.5969753E-3,-9.101577E-3,9.994118E-4],"categories":[],"categories_nodes":[],"categories_segments":[],"categories_sizes":[],"default_left":[0,0,0,0,0,0,0,0,0,0,0,0,0,0,0,0,0,0,0,0,0,0,0,0,0,0,0,0,0,0,0,0,0,0,0,0,0,0,0,0,0,0,0,0,0,0,0,0,0,0,0,0,0,0,0,0,0,0,0,0,0,0,0,0,0,0,0,0,0,0,0,0,0,0,0,0,0,0,0,0,0],"id":5,"left_children":[1,3,5,7,9,11,13,15,17,19,21,23,25,27,29,31,33,-1,35,37,39,41,43,-1,-1,45,47,49,51,-1,53,-1,-1,55,57,-1,-1,59,-1,61,63,65,-1,67,-1,-1,-1,69,71,73,75,77,-1,-1,79,-1,-1,-1,-1,-1,-1,-1,-1,-1,-1,-1,-1,-1,-1,-1,-1,-1,-1,-1,-1,-1,-1,-1,-1,-1,-1],"loss_changes":[1.0658935E-2,4.672734E-4,5.38399E-4,6.697082E-4,3.451011E-4,6.866236E-4,7.3280884E-5,1.4416926E-4,5.179809E-4,1.6108749E-4,4.210472E-4,8.5211825E-5,6.931428E-3,6.1130384E-5,2.9696983E-3,8.23731E-4,5.469995E-5,0E0,5.99965E-5,1.368558E-3,3.259082E-5,6.026763E-5,3.6766613E-4,0E0,0E0,3.7147142E-3,7.0044305E-4,5.5704964E-5,1.7398075E-4,0E0,3.8074722E-5,0E0,0E0,4.6567593E-4,1.6411374E-4,0E0,0E0,1.8705812E-4,0E0,2.9278005E-4,2.5294197E-5,3.8015351E-3,0E0,4.7186525E-3,0E0,0E0,0E0,8.709921E-3,3.088622E-4,4.1584717E-6,4.5401794E-3,2.7784903E-5,0E0,0E0,7.507881E-4,0E0,0E0,0E0,0E0,0E0,0E0,0E0,0E0,0E0,0E0,0E0,0E0,0E0,0E0,0E0,0E0,0E0,0E0,0E0,0E0,0E0,0E0,0E0,0E0,0E0,0E0],"parents":[2147483647,0,0,1,1,2,2,3,3,4,4,5,5,6,6,7,7,8,8,9,9,10,10,11,11,12,12,13,13,14,14,15,15,16,16,18,18,19,19,20,20,21,21,22,22,25,25,26,26,27,27,28,28,30,30,33,33,34,34,37,37,39,39,40,40,41,41,43,43,47,47,48,48,49,49,50,50,51,51,54,54],"right_children":[2,4,6,8,10,12,14,16,18,20,22,24,26,28,30,32,34,-1,36,38,40,42,44,-1,-1,46,48,50,52,-1,54,-1,-1,56,58,-1,-1,60,-1,62,64,66,-1,68,-1,-1,-1,70,72,74,76,78,-1,-1,80,-1,-1,-1,-1,-1,-1,-1,-1,-1,-1,-1,-1,-1,-1,-1,-1,-1,-1,-1,-1,-1,-1,-1,-1,-1,-1],"split_conditions":[2E0,1.265E-1,3E0,1E0,1E0,2.3035645E-1,7.717391E-1,4.7E-3,1E0,7.866E-1,1E0,1E0,2.3458122E-1,7.361E-1,7.737E-1,1E0,1E0,-8.252937E-4,5.66E-2,7.795E-1,9.23E-1,5.97E-1,9.174E-1,3.1272927E-3,2.1237684E-3,1E0,3.78E-1,5.241E-1,7.382568E-1,-1.8689647E-2,9.347E-1,-3.8204293E-3,9.363271E-3,3.2778796E-2,3.6550548E-2,1.476538E-3,2.965268E-3,5.263E-1,9.8629E-3,9.174E-1,1E0,5.932E-1,-1.3976771E-3,9.151405E-1,-4.0587266E-3,-3.5209633E-2,1.0801926E-3,3.762207E-1,4.859E-1,1.343E-1,5.263E-1,1E0,9.81025E-4,9.438023E-4,9.4057053E-1,2.3473485E-3,-1.7105117E-3,-2.99518E-3,-8.5361797E-4,-1.1773469E-3,-4.1915316E-4,-1.3666141E-3,-5.0906464E-3,-1.6702184E-3,-7.546156E-4,-1.2688903E-3,1.6735265E-2,-2.1491414E-3,1.7863074E-2,1.381006E-3,-2.2742037E-2,2.738859E-3,1.4401872E-3,1.0816971E-3,8.9424074E-4,-2.3096338E-2,9.429119E-4,1.0513887E-3,5.5969753E-3,-9.101577E-3,9.994118E-4],"split_indices":[1,2,1,0,1,2,2,2,1,2,0,0,2,2,2,1,1,0,2,2,2,2,2,0,0,0,2,2,2,0,2,0,0,2,2,0,0,2,0,2,0,2,0,2,0,0,0,2,2,2,2,0,0,0,2,0,0,0,0,0,0,0,0,0,0,0,0,0,0,0,0,0,0,0,0,0,0,0,0,0,0],"split_type":[0,0,0,0,0,0,0,0,0,0,0,0,0,0,0,0,0,0,0,0,0,0,0,0,0,0,0,0,0,0,0,0,0,0,0,0,0,0,0,0,0,0,0,0,0,0,0,0,0,0,0,0,0,0,0,0,0,0,0,0,0,0,0,0,0,0,0,0,0,0,0,0,0,0,0,0,0,0,0,0,0],"sum_hessian":[2.034E3,1.048E3,9.86E2,1.38E2,9.1E2,4.89E2,4.97E2,8.2E1,5.6E1,4.5E2,4.6E2,1.1E2,3.79E2,3.98E2,9.9E1,3E0,7.9E1,2.2E1,3.4E1,3.43E2,1.07E2,2.45E2,2.15E2,5.2E1,5.8E1,2E0,3.77E2,3.77E2,2.1E1,1E0,9.8E1,2E0,1E0,4.1E1,3.8E1,1.8E1,1.6E1,3.41E2,2E0,6.8E1,3.9E1,1.35E2,1.1E2,1.94E2,2.1E1,1E0,1E0,6E1,3.17E2,2.66E2,1.11E2,3E0,1.8E1,7.5E1,2.3E1,8E0,3.3E1,1.5E1,2.3E1,2.03E2,1.38E2,6.3E1,5E0,1.2E1,2.7E1,1.33E2,2E0,1.92E2,2E0,5.7E1,3E0,5.7E1,2.6E2,7.7E1,1.89E2,1E0,1.1E2,1E0,2E0,1E0,2.2E1],"tree_param":{"num_deleted":"0","num_feature":"3","num_nodes":"81","size_leaf_vector":"1"}},{"base_weights":[-5.463608E-5,-1.1084826E-3,1.0654648E-3,-3.5828367E-4,-1.3071381E-3,1.816875E-3,8.3346403E-4,-1.0736494E-3,5.6727306E-4,-1.1853017E-3,-2.2702704E-3,2.6693596E-3,1.0263612E-3,-1.4110506E-2,9.7182975E-4,-1.3772113E-3,5.1765293E-3,-5.81672E-4,1.4552252E-3,-1.2829049E-3,1.0936111E-2,-1.4968942E-2,-1.8217562E-3,1.5931422E-3,1.07988E-3,3.533447E-4,1.5044659E-3,-3.412944E-2,3.6147833E-4,-1.6566584E-3,1.09896E-3,3.2020211E-3,-1.5219952E-3,5.8424324E-3,-4.994273E-4,-4.3059172E-4,-1.239209E-4,2.104888E-3,-5.240701E-4,-9.093574E-4,-1.6549885E-3,-7.2945654E-4,1.190872E-2,-3.3281744E-4,-1.0893889E-2,-8.4831094E-4,-2.694306E-3,8.112937E-3,4.4180686E-4,-2.6407227E-2,8.1014633E-4,2.9324363E-3,-2.432602E-2,1.6086946E-3,5.818637E-4,-2.546956E-3,7.0224553E-3,-1.228661E-3,-6.5190555E-4,6.467627E-4,9.248368E-3,-7.1866537E-4,-2.2687759E-4,-4.9396895E-4,-1.196722E-3,7.9410675E-4,-5.6583434E-4,-6.400335E-4,-2.1216052E-3,5.2892515E-3,1.790598E-4,2.353792E-3,4.2172472E-4,2.1363993E-3,-1.9846816E-2,3.8331404E-4,1.2094815E-3,3.768239E-4,6.642103E-5],"categories":[],"categories_nodes":[],"categories_segments":[],"categories_sizes":[],"default_left":[0,0,0,0,0,0,0,0,0,0,0,0,0,0,0,0,0,0,0,0,0,0,0,0,0,0,0,0,0,0,0,0,0,0,0,0,0,0,0,0,0,0,0,0,0,0,0,0,0,0,0,0,0,0,0,0,0,0,0,0,0,0,0,0,0,0,0,0,0,0,0,0,0,0,0,0,0,0,0],"id":6,"left_children":[1,3,5,7,9,11,13,15,17,19,21,23,25,27,29,31,33,35,37,39,41,43,45,-1,-1,-1,47,49,-1,51,53,55,57,-1,-1,-1,-1,59,-1,61,63,-1,-1,-1,-1,65,67,69,-1,-1,-1,71,73,75,77,-1,-1,-1,-1,-1,-1,-1,-1,-1,-1,-1,-1,-1,-1,-1,-1,-1,-1,-1,-1,-1,-1,-1,-1],"loss_changes":[2.4033242E-3,1.5586533E-4,1.7054717E-4,1.4693572E-4,9.45878E-5,1.5360524E-4,1.5769198E-3,2.4429365E-4,9.980665E-5,8.871498E-4,4.967195E-4,2.2358494E-5,1.7582875E-5,2.103325E-3,2.5244086E-4,8.443337E-5,2.5282032E-4,3.7988657E-6,9.165509E-5,1.003755E-4,9.927338E-4,2.7809304E-4,7.415857E-5,0E0,0E0,0E0,1.8976975E-4,2.0895277E-3,0E0,3.7124495E-3,1.8778851E-4,4.313511E-4,2.0672742E-5,0E0,0E0,0E0,0E0,5.6126213E-4,0E0,8.7868684E-5,1.7792231E-4,0E0,0E0,0E0,0E0,3.217529E-5,9.752286E-5,7.269168E-5,0E0,0E0,0E0,1.07277185E-4,2.8065762E-3,2.4377357E-4,2.7437003E-5,0E0,0E0,0E0,0E0,0E0,0E0,0E0,0E0,0E0,0E0,0E0,0E0,0E0,0E0,0E0,0E0,0E0,0E0,0E0,0E0,0E0,0E0,0E0,0E0],"parents":[2147483647,0,0,1,1,2,2,3,3,4,4,5,5,6,6,7,7,8,8,9,9,10,10,11,11,12,12,13,13,14,14,15,15,16,16,17,17,18,18,19,19,20,20,21,21,22,22,26,26,27,27,29,29,30,30,31,31,32,32,37,37,39,39,40,40,45,45,46,46,47,47,51,51,52,52,53,53,54,54],"right_children":[2,4,6,8,10,12,14,16,18,20,22,24,26,28,30,32,34,36,38,40,42,44,46,-1,-1,-1,48,50,-1,52,54,56,58,-1,-1,-1,-1,60,-1,62,64,-1,-1,-1,-1,66,68,70,-1,-1,-1,72,74,76,78,-1,-1,-1,-1,-1,-1,-1,-1,-1,-1,-1,-1,-1,-1,-1,-1,-1,-1,-1,-1,-1,-1,-1,-1],"split_conditions":[2E0,2.002E-1,2.3035645E-1,1E0,9.174E-1,3E0,2.3458122E-1,1.933E-1,1E0,9.151405E-1,9.187E-1,1E0,1.293E-1,3E0,2.8387833E-1,4.7E-3,1E0,1.265E-1,1.6167033E-1,1E0,1E0,1E0,1E0,1.5931422E-3,1.07988E-3,3.533447E-4,1.343E-1,1E0,3.6147833E-4,2.7742925E-1,3E0,1E0,2.95E-2,5.8424324E-3,-4.994273E-4,-4.3059172E-4,-1.239209E-4,1.544E-1,-5.240701E-4,1E0,1E0,-7.2945654E-4,1.190872E-2,-3.3281744E-4,-1.0893889E-2,9.23E-1,1E0,1E0,4.4180686E-4,-2.6407227E-2,8.1014633E-4,3E0,1E0,6.085E-1,7.717391E-1,-2.546956E-3,7.0224553E-3,-1.228661E-3,-6.5190555E-4,6.467627E-4,9.248368E-3,-7.1866537E-4,-2.2687759E-4,-4.9396895E-4,-1.196722E-3,7.9410675E-4,-5.6583434E-4,-6.400335E-4,-2.1216052E-3,5.2892515E-3,1.790598E-4,2.353792E-3,4.2172472E-4,2.1363993E-3,-1.9846816E-2,3.8331404E-4,1.2094815E-3,3.768239E-4,6.642103E-5],"split_indices":[1,2,2,0,2,1,2,2,1,2,2,0,2,1,2,2,1,2,2,1,0,0,1,0,0,0,2,0,0,2,1,1,2,0,0,0,0,2,0,0,0,0,0,0,0,2,0,0,0,0,0,1,0,2,2,0,0,0,0,0,0,0,0,0,0,0,0,0,0,0,0,0,0,0,0,0,0,0,0],"split_type":[0,0,0,0,0,0,0,0,0,0,0,0,0,0,0,0,0,0,0,0,0,0,0,0,0,0,0,0,0,0,0,0,0,0,0,0,0,0,0,0,0,0,0,0,0,0,0,0,0,0,0,0,0,0,0,0,0,0,0,0,0,0,0,0,0,0,0,0,0,0,0,0,0,0,0,0,0,0,0],"sum_hessian":[2.034E3,1.048E3,9.86E2,2.2E2,8.28E2,2.31E2,7.55E2,1.24E2,9.6E1,7.37E2,9.1E1,1.1E2,1.21E2,6E0,7.49E2,1.19E2,5E0,4.2E1,5.4E1,7.32E2,5E0,2E0,8.9E1,5.2E1,5.8E1,7.4E1,4.7E1,2E0,4E0,3.4E1,7.15E2,3E0,1.16E2,2E0,3E0,2.2E1,2E1,4.3E1,1.1E1,3.67E2,3.65E2,3E0,2E0,1E0,1E0,4.3E1,4.6E1,3E0,4.4E1,1E0,1E0,2.9E1,5E0,3.59E2,3.56E2,2E0,1E0,2E1,9.6E1,4.2E1,1E0,1.69E2,1.98E2,1.93E2,1.72E2,4E0,3.9E1,2.5E1,2.1E1,2E0,1E0,1.5E1,1.4E1,2E0,3E0,1.77E2,1.82E2,2.57E2,9.9E1],"tree_param":{"num_deleted":"0","num_feature":"3","num_nodes":"79","size_leaf_vector":"1"}},{"base_weights":[-3.5996167E-5,-5.432438E-4,5.0315144E-4,-3.407442E-4,-9.572595E-4,4.3728616E-4,1.7825315E-3,-5.170947E-4,3.0738033E-2,-1.6840381E-3,-5.801089E-4,6.197749E-4,-9.74292E-4,2.4245107E-3,4.8965734E-4,-3.412238E-4,-1.7584192E-3,4.1263144E-2,-2.0932406E-4,-7.844605E-4,-1.3253595E-3,1.5760655E-2,-1.0171693E-3,3.0821998E-4,1.497289E-3,-3.0111635E-2,4.3590998E-4,1.568096E-3,7.357918E-4,-4.4706385E-4,1.2703014E-2,-2.0693224E-3,-1.3591298E-3,3.1145245E-2,-1.9788742E-4,-3.8338453E-4,9.609747E-3,-8.230004E-4,-1.2847033E-3,5.841422E-4,-4.917544E-3,2.716157E-3,3.615134E-4,7.9311925E-4,-2.5886148E-2,1.63701E-3,-1.8783071E-3,-1.5582712E-4,-9.075948E-4,1.1321505E-2,-7.356604E-4,-1.5767526E-3,-4.0044604E-4,-3.7928423E-4,-1.0421856E-3,-6.0088065E-4,3.665636E-3,-5.6133517E-3,-4.695144E-4,2.276939E-4,8.742E-4,-1.464833E-2,-1.1038063E-4,1.1684346E-3,1.543318E-3,4.2578118E-4,-7.55826E-4,1.1965444E-3,4.3873157E-4,-7.7371323E-3,4.0687958E-4],"categories":[],"categories_nodes":[],"categories_segments":[],"categories_sizes":[],"default_left":[0,0,0,0,0,0,0,0,0,0,0,0,0,0,0,0,0,0,0,0,0,0,0,0,0,0,0,0,0,0,0,0,0,0,0,0,0,0,0,0,0,0,0,0,0,0,0,0,0,0,0,0,0,0,0,0,0,0,0,0,0,0,0,0,0,0,0,0,0,0,0],"id":7,"left_children":[1,3,5,7,9,11,13,15,17,19,21,23,25,27,-1,29,31,33,-1,-1,-1,35,37,39,41,43,45,-1,-1,47,49,51,53,-1,-1,-1,-1,55,57,59,61,63,65,-1,-1,67,69,-1,-1,-1,-1,-1,-1,-1,-1,-1,-1,-1,-1,-1,-1,-1,-1,-1,-1,-1,-1,-1,-1,-1,-1],"loss_changes":[5.5680785E-4,8.7619905E-5,8.239184E-5,3.8853083E-3,9.3315204E-5,2.4274518E-4,2.2376757E-5,1.528739E-4,1.328985E-3,8.861156E-6,1.6443848E-3,2.272756E-4,4.4507957E-3,1.3017532E-5,0E0,8.575111E-4,7.98775E-6,2.6525827E-3,0E0,0E0,0E0,3.5773113E-4,1.0526812E-5,8.9108583E-4,3.008087E-4,3.5151076E-3,2.9215385E-4,0E0,0E0,1.1299706E-4,7.377793E-4,6.210928E-5,1.6276492E-5,0E0,0E0,0E0,0E0,4.16495E-4,3.0563382E-4,8.7047156E-5,3.543138E-3,7.5413263E-6,1.0593274E-4,0E0,0E0,3.7525286E-5,1.3302362E-3,0E0,0E0,0E0,0E0,0E0,0E0,0E0,0E0,0E0,0E0,0E0,0E0,0E0,0E0,0E0,0E0,0E0,0E0,0E0,0E0,0E0,0E0,0E0,0E0],"parents":[2147483647,0,0,1,1,2,2,3,3,4,4,5,5,6,6,7,7,8,8,9,9,10,10,11,11,12,12,13,13,15,15,16,16,17,17,21,21,22,22,23,23,24,24,25,25,26,26,29,29,30,30,31,31,32,32,37,37,38,38,39,39,40,40,41,41,42,42,45,45,46,46],"right_children":[2,4,6,8,10,12,14,16,18,20,22,24,26,28,-1,30,32,34,-1,-1,-1,36,38,40,42,44,46,-1,-1,48,50,52,54,-1,-1,-1,-1,56,58,60,62,64,66,-1,-1,68,70,-1,-1,-1,-1,-1,-1,-1,-1,-1,-1,-1,-1,-1,-1,-1,-1,-1,-1,-1,-1,-1,-1,-1,-1],"split_conditions":[2E0,6.895E-1,9.4057053E-1,6.867657E-1,7.795E-1,8.177766E-1,3E0,5.97E-1,1E0,7.737E-1,7.891E-1,6.142E-1,8.203E-1,1E0,4.8965734E-4,5.932E-1,1E0,1E0,-2.0932406E-4,-7.844605E-4,-1.3253595E-3,1E0,9.174E-1,5.846387E-1,3E0,1E0,9.052136E-1,1.568096E-3,7.357918E-4,5.347E-1,1E0,1E0,1E0,3.1145245E-2,-1.9788742E-4,-3.8338453E-4,9.609747E-3,9.151405E-1,9.187E-1,5.263E-1,5.886E-1,1E0,7.717391E-1,7.9311925E-4,-2.5886148E-2,3E0,9.11E-1,-1.5582712E-4,-9.075948E-4,1.1321505E-2,-7.356604E-4,-1.5767526E-3,-4.0044604E-4,-3.7928423E-4,-1.0421856E-3,-6.0088065E-4,3.665636E-3,-5.6133517E-3,-4.695144E-4,2.276939E-4,8.742E-4,-1.464833E-2,-1.1038063E-4,1.1684346E-3,1.543318E-3,4.2578118E-4,-7.55826E-4,1.1965444E-3,4.3873157E-4,-7.7371323E-3,4.0687958E-4],"split_indices":[1,2,2,2,2,2,1,2,1,2,2,2,2,0,0,2,0,0,0,0,0,0,2,2,1,0,2,0,0,2,0,1,1,0,0,0,0,2,2,2,2,0,2,0,0,1,2,0,0,0,0,0,0,0,0,0,0,0,0,0,0,0,0,0,0,0,0,0,0,0,0],"split_type":[0,0,0,0,0,0,0,0,0,0,0,0,0,0,0,0,0,0,0,0,0,0,0,0,0,0,0,0,0,0,0,0,0,0,0,0,0,0,0,0,0,0,0,0,0,0,0,0,0,0,0,0,0,0,0,0,0,0,0,0,0,0,0,0,0,0,0,0,0,0,0],"sum_hessian":[2.034E3,1.048E3,9.86E2,7.05E2,3.43E2,9.39E2,4.7E1,7.02E2,3E0,1.16E2,2.27E2,8.32E2,1.07E2,2.5E1,2.2E1,6.16E2,8.6E1,2E0,1E0,1.06E2,1E1,5E0,2.22E2,6.15E2,2.17E2,4E0,1.03E2,1.3E1,1.2E1,6.12E2,4E0,4.6E1,4E1,1E0,1E0,1E0,4E0,1.31E2,9.1E1,5.85E2,3E1,1.04E2,1.13E2,2E0,2E0,6.8E1,3.5E1,5.58E2,5.4E1,2E0,2E0,2.4E1,2.2E1,2.3E1,1.7E1,1.26E2,5E0,2E0,8.9E1,5.28E2,5.7E1,4E0,2.6E1,5.5E1,4.9E1,9E1,2.3E1,3.3E1,3.5E1,5E0,3E1],"tree_param":{"num_deleted":"0","num_feature":"3","num_nodes":"71","size_leaf_vector":"1"}},{"base_weights":[-1.716419E-5,-2.3257184E-4,2.1179204E-4,2.6869387E-4,-3.0879947E-4,7.2024687E-4,5.5478125E-5,-2.6457317E-4,1.0404916E-3,-6.078881E-4,-8.774022E-5,1.1331186E-3,3.3869754E-4,-1.0855496E-2,1.5723992E-4,8.185987E-4,-7.455714E-4,-1.5012985E-4,1.8918285E-3,-1.0294649E-3,-1.4677845E-4,1.5833218E-2,-2.4036411E-4,6.999036E-4,4.371728E-4,6.670515E-5,6.5240264E-4,-2.574887E-2,1.2581349E-4,-1.4762257E-3,2.3686848E-4,-5.236156E-4,1.1283447E-2,-1.8169433E-3,-6.311468E-4,5.445833E-4,1.3388185E-3,-1.3806587E-3,-7.349282E-4,-1.5498683E-3,2.2135184E-5,-6.000797E-4,1.3794427E-2,-4.737151E-3,-9.76982E-5,5.2527785E-3,1.1449125E-4,-1.9862339E-2,5.506873E-4,1.3386339E-3,-1.5304486E-2,1.6727274E-3,4.0797586E-5,-2.3120015E-3,1.1224418E-3,1.7584145E-2,-9.12156E-3,-4.884263E-4,-5.7549525E-5,-1.2009757E-4,-8.197056E-4,-3.120214E-4,-4.5586433E-4,8.946906E-6,-1.734005E-3,4.653409E-3,-7.3405696E-5,-4.2361135E-4,-8.097565E-3,4.199261E-3,-1.6054258E-4,3.4502696E-3,7.737428E-5,1.1437247E-3,1.1866093E-4,-1.6609073E-2,6.8409443E-3,1.6261503E-3,1.4640993E-4,-1.4442902E-2,1.12489244E-4],"categories":[],"categories_nodes":[],"categories_segments":[],"categories_sizes":[],"default_left":[0,0,0,0,0,0,0,0,0,0,0,0,0,0,0,0,0,0,0,0,0,0,0,0,0,0,0,0,0,0,0,0,0,0,0,0,0,0,0,0,0,0,0,0,0,0,0,0,0,0,0,0,0,0,0,0,0,0,0,0,0,0,0,0,0,0,0,0,0,0,0,0,0,0,0,0,0,0,0,0,0],"id":8,"left_children":[1,3,5,7,9,11,13,15,17,19,21,23,25,27,29,31,33,-1,35,37,39,41,43,-1,-1,-1,45,47,-1,49,51,53,55,-1,57,-1,-1,59,61,63,65,-1,-1,67,69,71,-1,-1,-1,73,75,77,79,-1,-1,-1,-1,-1,-1,-1,-1,-1,-1,-1,-1,-1,-1,-1,-1,-1,-1,-1,-1,-1,-1,-1,-1,-1,-1,-1,-1],"loss_changes":[1.0041326E-4,4.0165574E-5,7.840538E-5,5.7484118E-5,6.0178623E-5,3.6163387E-5,8.4110897E-4,4.3853634E-5,6.562961E-5,7.507902E-5,1.2795129E-3,6.436414E-6,7.769721E-6,1.1644369E-3,9.7902564E-5,3.7110603E-4,1.6875154E-5,0E0,1.9159459E-5,1.9880084E-5,4.411649E-5,1.0343019E-3,3.337786E-4,0E0,0E0,0E0,9.229601E-5,1.1695134E-3,0E0,1.3828486E-3,2.0150737E-4,2.8282643E-4,2.7572913E-3,0E0,1.0056408E-5,0E0,0E0,2.6460111E-5,1.6267513E-6,6.0205864E-5,2.6332514E-4,0E0,0E0,6.994107E-4,9.630567E-4,3.2533484E-5,0E0,0E0,0E0,3.0805397E-5,3.5699992E-3,1.8649883E-4,3.368295E-3,0E0,0E0,0E0,0E0,0E0,0E0,0E0,0E0,0E0,0E0,0E0,0E0,0E0,0E0,0E0,0E0,0E0,0E0,0E0,0E0,0E0,0E0,0E0,0E0,0E0,0E0,0E0,0E0],"parents":[2147483647,0,0,1,1,2,2,3,3,4,4,5,5,6,6,7,7,8,8,9,9,10,10,11,11,12,12,13,13,14,14,15,15,16,16,18,18,19,19,20,20,21,21,22,22,26,26,27,27,29,29,30,30,31,31,32,32,34,34,37,37,38,38,39,39,40,40,43,43,44,44,45,45,49,49,50,50,51,51,52,52],"right_children":[2,4,6,8,10,12,14,16,18,20,22,24,26,28,30,32,34,-1,36,38,40,42,44,-1,-1,-1,46,48,-1,50,52,54,56,-1,58,-1,-1,60,62,64,66,-1,-1,68,70,72,-1,-1,-1,74,76,78,80,-1,-1,-1,-1,-1,-1,-1,-1,-1,-1,-1,-1,-1,-1,-1,-1,-1,-1,-1,-1,-1,-1,-1,-1,-1,-1,-1,-1],"split_conditions":[2E0,1.265E-1,2.3035645E-1,1E0,4.911699E-1,3E0,2.3458122E-1,3.2778796E-2,1E0,1E0,4.964E-1,1E0,1.293E-1,3E0,2.8387833E-1,2.95E-2,3.6550548E-2,-1.5012985E-4,5.66E-2,1E0,1.544E-1,1E0,5.186E-1,6.999036E-4,4.371728E-4,6.670515E-5,1.343E-1,1E0,1.2581349E-4,2.7742925E-1,3.762207E-1,1E0,1E0,-1.8169433E-3,1E0,5.445833E-4,1.3388185E-3,1.988648E-1,3.571E-1,1E0,1.6167033E-1,-6.000797E-4,1.3794427E-2,5.1409376E-1,5.306E-1,1E0,1.1449125E-4,-1.9862339E-2,5.506873E-4,3E0,3E0,3E0,3.78E-1,-2.3120015E-3,1.1224418E-3,1.7584145E-2,-9.12156E-3,-4.884263E-4,-5.7549525E-5,-1.2009757E-4,-8.197056E-4,-3.120214E-4,-4.5586433E-4,8.946906E-6,-1.734005E-3,4.653409E-3,-7.3405696E-5,-4.2361135E-4,-8.097565E-3,4.199261E-3,-1.6054258E-4,3.4502696E-3,7.737428E-5,1.1437247E-3,1.1866093E-4,-1.6609073E-2,6.8409443E-3,1.6261503E-3,1.4640993E-4,-1.4442902E-2,1.12489244E-4],"split_indices":[1,2,2,0,2,1,2,2,1,0,2,0,2,1,2,2,2,0,2,1,2,1,2,0,0,0,2,0,0,2,2,1,1,0,1,0,0,2,2,1,2,0,0,2,2,0,0,0,0,1,1,1,2,0,0,0,0,0,0,0,0,0,0,0,0,0,0,0,0,0,0,0,0,0,0,0,0,0,0,0,0],"split_type":[0,0,0,0,0,0,0,0,0,0,0,0,0,0,0,0,0,0,0,0,0,0,0,0,0,0,0,0,0,0,0,0,0,0,0,0,0,0,0,0,0,0,0,0,0,0,0,0,0,0,0,0,0,0,0,0,0,0,0,0,0,0,0,0,0,0,0,0,0,0,0,0,0,0,0,0,0,0,0,0,0],"sum_hessian":[2.034E3,1.048E3,9.86E2,1.38E2,9.1E2,2.31E2,7.55E2,8.2E1,5.6E1,3.86E2,5.24E2,1.1E2,1.21E2,6E0,7.49E2,2.5E1,5.7E1,2.2E1,3.4E1,2.01E2,1.85E2,4E0,5.2E2,5.2E1,5.8E1,7.4E1,4.7E1,2E0,4E0,3.4E1,7.15E2,2.3E1,2E0,1E0,5.6E1,1.8E1,1.6E1,9E1,1.11E2,1.9E1,1.66E2,2E0,2E0,1.5E1,5.05E2,3E0,4.4E1,1E0,1E0,2.9E1,5E0,8.5E1,6.3E2,9E0,1.4E1,1E0,1E0,3.3E1,2.3E1,1.7E1,7.3E1,7.1E1,4E1,1.1E1,8E0,2E0,1.64E2,1.2E1,3E0,1.2E1,4.93E2,2E0,1E0,1.5E1,1.4E1,3E0,2E0,3.9E1,4.6E1,3E0,6.27E2],"tree_param":{"num_deleted":"0","num_feature":"3","num_nodes":"81","size_leaf_vector":"1"}},{"base_weights":[-1.7874056E-5,5.0526978E-5,-3.4506005E-4,-3.0318854E-6,1.4062831E-3,-6.5279156E-3,-5.0488095E-5,3.671273E-5,-2.5417965E-3,4.292532E-3,3.5477243E-4,-2.350157E-4,-1.654605E-2,-3.35219E-4,3.0246002E-4,-3.950052E-5,5.7231885E-4,-5.065697E-4,-1.3100095E-2,9.551833E-3,6.525852E-4,-4.791264E-4,6.810339E-4,5.61662E-4,-1.7294934E-2,-1.2620662E-4,-5.4967514E-4,1.3007012E-3,4.4212607E-5,2.112787E-4,-1.5981158E-4,1.17905475E-2,1.01911835E-4,-1.071659E-3,5.8947253E-4,-1.3873018E-2,5.1528215E-4,-2.4740398E-4,5.8300616E-3,-7.089547E-5,-8.53134E-4,-4.2393475E-4,4.410371E-3,-7.377436E-3,-3.1597566E-4,3.841775E-4,7.391192E-3,-1.0132174E-3,6.401447E-4,5.508907E-4,8.811672E-5,-4.1528814E-4,-2.7391936E-5,1.5527193E-2,9.676814E-5,-3.157671E-4,4.5300016E-4,-6.863583E-4,-2.2273723E-4,-2.8954446E-4,6.01736E-5,-3.16153E-5,-6.4247183E-4,-1.0362753E-4,-3.0271526E-4,-1.7703138E-3,6.7707896E-3,1.1938661E-3,-6.726943E-3,9.8378485E-5,-3.9462888E-4,3.6853977E-4,1.4595191E-5,8.7827444E-5,4.8689097E-3,1.3001148E-4,-4.5602047E-3,7.7050127E-4,-1.7433967E-4],"categories":[],"categories_nodes":[],"categories_segments":[],"categories_sizes":[],"default_left":[0,0,0,0,0,0,0,0,0,0,0,0,0,0,0,0,0,0,0,0,0,0,0,0,0,0,0,0,0,0,0,0,0,0,0,0,0,0,0,0,0,0,0,0,0,0,0,0,0,0,0,0,0,0,0,0,0,0,0,0,0,0,0,0,0,0,0,0,0,0,0,0,0,0,0,0,0,0,0],"id":9,"left_children":[1,3,5,7,9,11,13,15,17,19,21,-1,23,25,27,29,31,33,35,37,-1,39,-1,-1,-1,41,43,45,47,49,51,53,55,57,-1,-1,-1,-1,-1,59,61,63,65,67,69,71,73,75,77,-1,-1,-1,-1,-1,-1,-1,-1,-1,-1,-1,-1,-1,-1,-1,-1,-1,-1,-1,-1,-1,-1,-1,-1,-1,-1,-1,-1,-1,-1],"loss_changes":[4.556045E-5,1.2228414E-4,6.407666E-4,1.6365583E-4,1.9271212E-4,9.63242E-4,3.396828E-5,6.52126E-5,5.3057726E-4,2.546276E-4,4.0971758E-5,0E0,1.9517936E-3,8.312716E-6,3.8869268E-5,4.2243715E-5,1.0489479E-3,2.2217691E-5,8.5642125E-4,1.3285689E-4,0E0,4.0619175E-6,0E0,0E0,0E0,1.3153373E-4,1.4446817E-4,1.7020493E-4,7.689753E-5,1.397421E-5,6.659914E-5,1.7812136E-3,1.1380524E-4,2.5932895E-6,0E0,0E0,0E0,0E0,0E0,1.4303275E-6,4.693982E-6,3.4532277E-6,4.83559E-4,2.1013695E-4,2.1995336E-5,3.4862032E-6,6.601821E-5,4.565573E-4,7.001893E-5,0E0,0E0,0E0,0E0,0E0,0E0,0E0,0E0,0E0,0E0,0E0,0E0,0E0,0E0,0E0,0E0,0E0,0E0,0E0,0E0,0E0,0E0,0E0,0E0,0E0,0E0,0E0,0E0,0E0,0E0],"parents":[2147483647,0,0,1,1,2,2,3,3,4,4,5,5,6,6,7,7,8,8,9,9,10,10,12,12,13,13,14,14,15,15,16,16,17,17,18,18,19,19,21,21,25,25,26,26,27,27,28,28,29,29,30,30,31,31,32,32,33,33,39,39,40,40,41,41,42,42,43,43,44,44,45,45,46,46,47,47,48,48],"right_children":[2,4,6,8,10,12,14,16,18,20,22,-1,24,26,28,30,32,34,36,38,-1,40,-1,-1,-1,42,44,46,48,50,52,54,56,58,-1,-1,-1,-1,-1,60,62,64,66,68,70,72,74,76,78,-1,-1,-1,-1,-1,-1,-1,-1,-1,-1,-1,-1,-1,-1,-1,-1,-1,-1,-1,-1,-1,-1,-1,-1,-1,-1,-1,-1,-1,-1],"split_conditions":[8.131152E-1,7.795E-1,8.203E-1,7.717391E-1,7.891E-1,2E0,2E0,6.867657E-1,3E0,2E0,2E0,-2.350157E-4,1E0,9.174E-1,8.615E-1,2.154E-1,6.895E-1,2E0,7.737E-1,1E0,6.525852E-4,1E0,6.810339E-4,5.61662E-4,-1.7294934E-2,9.151405E-1,9.187E-1,8.535E-1,9.11E-1,4.7E-3,2.8387833E-1,1E0,2E0,1E0,5.8947253E-4,-1.3873018E-2,5.1528215E-4,-2.4740398E-4,5.8300616E-3,1E0,1E0,1E0,1E0,1E0,1E0,1E0,1E0,9.052136E-1,3E0,5.508907E-4,8.811672E-5,-4.1528814E-4,-2.7391936E-5,1.5527193E-2,9.676814E-5,-3.157671E-4,4.5300016E-4,-6.863583E-4,-2.2273723E-4,-2.8954446E-4,6.01736E-5,-3.16153E-5,-6.4247183E-4,-1.0362753E-4,-3.0271526E-4,-1.7703138E-3,6.7707896E-3,1.1938661E-3,-6.726943E-3,9.8378485E-5,-3.9462888E-4,3.6853977E-4,1.4595191E-5,8.7827444E-5,4.8689097E-3,1.3001148E-4,-4.5602047E-3,7.7050127E-4,-1.7433967E-4],"split_indices":[2,2,2,2,2,1,1,2,1,1,1,0,0,2,2,2,2,1,2,0,0,1,0,0,0,2,2,2,2,2,2,1,1,0,0,0,0,0,0,0,0,1,0,0,1,0,0,2,1,0,0,0,0,0,0,0,0,0,0,0,0,0,0,0,0,0,0,0,0,0,0,0,0,0,0,0,0,0,0],"split_type":[0,0,0,0,0,0,0,0,0,0,0,0,0,0,0,0,0,0,0,0,0,0,0,0,0,0,0,0,0,0,0,0,0,0,0,0,0,0,0,0,0,0,0,0,0,0,0,0,0,0,0,0,0,0,0,0,0,0,0,0,0,0,0,0,0,0,0,0,0,0,0,0,0,0,0,0,0,0,0],"sum_hessian":[2.034E3,1.683E3,3.51E2,1.62E3,6.3E1,1.5E1,3.36E2,1.596E3,2.4E1,1.6E1,4.7E1,1E1,5E0,1.86E2,1.5E2,1.398E3,1.98E2,2.1E1,3E0,5E0,1.1E1,2.6E1,2.1E1,3E0,2E0,9.5E1,9.1E1,3E1,1.2E2,4.53E2,9.45E2,7E0,1.91E2,1.6E1,5E0,1E0,2E0,1E0,4E0,1.3E1,1.3E1,9E1,5E0,2E0,8.9E1,2.7E1,3E0,4.3E1,7.7E1,1.6E1,4.37E2,1.27E2,8.18E2,2E0,5E0,1E2,9.1E1,1E1,6E0,3E0,1E1,5E0,8E0,4.2E1,4.8E1,3E0,2E0,1E0,1E0,4.3E1,4.6E1,1.3E1,1.4E1,1E0,2E0,3.8E1,5E0,4E1,3.7E1],"tree_param":{"num_deleted":"0","num_feature":"3","num_nodes":"79","size_leaf_vector":"1"}},{"base_weights":[-1.3069724E-5,2.989578E-5,-2.2436207E-4,-2.4989238E-6,6.826803E-4,-8.618008E-3,-2.4440602E-5,2.8345023E-5,-2.8998684E-3,1.8627918E-3,1.436541E-4,1.4461875E-4,-1.7597564E-2,-2.3532867E-4,6.907052E-4,-7.708543E-5,2.4873568E-4,-4.799189E-4,-1.0404766E-2,3.2866918E-4,3.2536227E-3,-2.53034E-4,3.619084E-4,-3.0263513E-4,-1.1529952E-2,-6.421275E-4,1.15437186E-4,1.2553362E-3,-6.0849387E-4,-5.081338E-6,-8.653008E-3,1.2752394E-2,2.7160719E-5,-6.4942986E-4,2.355526E-4,-1.6684532E-4,3.3006404E-4,6.996083E-3,4.0648214E-4,-5.916423E-5,-4.434235E-4,5.945033E-5,-2.1178141E-2,-1.5924842E-4,7.8928616E-4,1.06027146E-4,3.1660106E-3,-6.929055E-3,2.8505144E-4,2.0479236E-5,-9.303222E-4,-4.936531E-4,-1.7494656E-2,2.9813036E-2,-2.8003752E-4,-3.9128488E-4,1.17256226E-4,-8.515162E-5,-4.9374346E-4,1.5578071E-3,4.272262E-3,-2.1015604E-4,5.6035242E-5,6.06291E-6,-3.817603E-4,-9.442673E-5,3.3923064E-4,-7.3611736E-5,-2.1067724E-2,7.514946E-4,-1.6909772E-4,6.7021535E-4,4.0284896E-5,5.2349446E-3,2.6015838E-4],"categories":[],"categories_nodes":[],"categories_segments":[],"categories_sizes":[],"default_left":[0,0,0,0,0,0,0,0,0,0,0,0,0,0,0,0,0,0,0,0,0,0,0,0,0,0,0,0,0,0,0,0,0,0,0,0,0,0,0,0,0,0,0,0,0,0,0,0,0,0,0,0,0,0,0,0,0,0,0,0,0,0,0,0,0,0,0,0,0,0,0,0,0,0,0],"id":10,"left_children":[1,3,5,7,9,11,13,15,17,19,21,-1,23,25,27,29,31,33,-1,35,37,39,-1,-1,-1,41,43,45,47,49,51,53,55,57,-1,-1,-1,59,-1,61,63,65,67,69,71,-1,73,-1,-1,-1,-1,-1,-1,-1,-1,-1,-1,-1,-1,-1,-1,-1,-1,-1,-1,-1,-1,-1,-1,-1,-1,-1,-1,-1,-1],"loss_changes":[1.8481012E-5,3.5782028E-5,5.7704543E-4,1.4423007E-4,5.0621285E-5,6.4495474E-4,5.098744E-5,3.7126887E-5,7.268013E-4,5.227326E-5,1.3071193E-5,0E0,3.5731343E-4,3.7316513E-5,5.7248595E-5,6.6747516E-4,1.4320009E-3,2.8852935E-6,0E0,3.0743638E-6,1.1305533E-4,1.2287312E-6,0E0,0E0,0E0,1.74458E-3,2.6224316E-5,1.0697073E-4,3.8268344E-4,9.1742346E-5,1.782431E-3,5.6494344E-3,8.5644126E-5,2.0994376E-6,0E0,0E0,0E0,3.421941E-6,0E0,1.1602435E-6,2.4881986E-6,1.8265056E-5,1.7568022E-3,3.0551008E-5,1.5906813E-5,0E0,3.6170502E-4,0E0,0E0,0E0,0E0,0E0,0E0,0E0,0E0,0E0,0E0,0E0,0E0,0E0,0E0,0E0,0E0,0E0,0E0,0E0,0E0,0E0,0E0,0E0,0E0,0E0,0E0,0E0,0E0],"parents":[2147483647,0,0,1,1,2,2,3,3,4,4,5,5,6,6,7,7,8,8,9,9,10,10,12,12,13,13,14,14,15,15,16,16,17,17,19,19,20,20,21,21,25,25,26,26,27,27,28,28,29,29,30,30,31,31,32,32,33,33,37,37,39,39,40,40,41,41,42,42,43,43,44,44,46,46],"right_children":[2,4,6,8,10,12,14,16,18,20,22,-1,24,26,28,30,32,34,-1,36,38,40,-1,-1,-1,42,44,46,48,50,52,54,56,58,-1,-1,-1,60,-1,62,64,66,68,70,72,-1,74,-1,-1,-1,-1,-1,-1,-1,-1,-1,-1,-1,-1,-1,-1,-1,-1,-1,-1,-1,-1,-1,-1,-1,-1,-1,-1,-1,-1],"split_conditions":[8.177766E-1,7.771E-1,8.203E-1,7.717391E-1,7.891E-1,1E0,3E0,5.263E-1,3E0,1E0,2E0,1.4461875E-4,2E0,9.11E-1,9.347E-1,5.241E-1,5.306E-1,2E0,-1.0404766E-2,1E0,2E0,1E0,3.619084E-4,-3.0263513E-4,-1.1529952E-2,9.052136E-1,2E0,9.052136E-1,9.4057053E-1,5.1409376E-1,3E0,1E0,5.886E-1,7.737E-1,2.355526E-4,-1.6684532E-4,3.3006404E-4,1E0,4.0648214E-4,1E0,1E0,2E0,2E0,9.174E-1,1E0,1.06027146E-4,9.11E-1,-6.929055E-3,2.8505144E-4,2.0479236E-5,-9.303222E-4,-4.936531E-4,-1.7494656E-2,2.9813036E-2,-2.8003752E-4,-3.9128488E-4,1.17256226E-4,-8.515162E-5,-4.9374346E-4,1.5578071E-3,4.272262E-3,-2.1015604E-4,5.6035242E-5,6.06291E-6,-3.817603E-4,-9.442673E-5,3.3923064E-4,-7.3611736E-5,-2.1067724E-2,7.514946E-4,-1.6909772E-4,6.7021535E-4,4.0284896E-5,5.2349446E-3,2.6015838E-4],"split_indices":[2,2,2,2,2,0,1,2,1,0,1,0,1,2,2,2,2,1,0,1,1,1,0,0,0,2,1,2,2,2,1,1,2,2,0,0,0,1,0,0,0,1,1,2,0,0,2,0,0,0,0,0,0,0,0,0,0,0,0,0,0,0,0,0,0,0,0,0,0,0,0,0,0,0,0],"split_type":[0,0,0,0,0,0,0,0,0,0,0,0,0,0,0,0,0,0,0,0,0,0,0,0,0,0,0,0,0,0,0,0,0,0,0,0,0,0,0,0,0,0,0,0,0,0,0,0,0,0,0,0,0,0,0,0,0,0,0,0,0,0,0,0,0,0,0,0,0,0,0,0,0,0,0],"sum_hessian":[2.034E3,1.691E3,3.43E2,1.612E3,7.9E1,7E0,3.36E2,1.596E3,1.6E1,2.4E1,5.5E1,4E0,3E0,2.6E2,7.6E1,1.08E3,5.16E2,1.5E1,1E0,1.2E1,1.2E1,3.3E1,2.2E1,1E0,2E0,1.2E2,1.4E2,5.3E1,2.3E1,1.072E3,8E0,8E0,5.08E2,1.3E1,2E0,4E0,8E0,4E0,8E0,1.7E1,1.6E1,1.17E2,3E0,1E2,4E1,3.5E1,1.8E1,1E0,2.2E1,1.047E3,2.5E1,7E0,1E0,1E0,7E0,1.03E2,4.05E2,6E0,7E0,2E0,2E0,5E0,1.2E1,7E0,9E0,8.4E1,3.3E1,2E0,1E0,9E0,9.1E1,2.2E1,1.8E1,4E0,1.4E1],"tree_param":{"num_deleted":"0","num_feature":"3","num_nodes":"75","size_leaf_vector":"1"}},{"base_weights":[-1.9548794E-5,6.381843E-5,-1.3537888E-4,-5.6020686E-5,1.3088402E-3,-1.00318305E-2,-2.9687597E-5,-3.3844244E-6,-6.3252086E-3,9.657638E-3,5.1250664E-4,3.6409497E-3,-1.7475046E-2,2.1063313E-3,-9.2092916E-5,-6.7643254E-5,8.9093135E-4,-5.5536255E-4,-1.3120994E-2,2.2359774E-2,-3.1504408E-4,-2.70134E-4,1.1525762E-3,-5.9936446E-4,4.5399964E-3,-4.1499734E-6,-1.3103172E-2,1.7997272E-4,5.936552E-3,-1.4099961E-3,-4.8930135E-5,4.176853E-5,-6.4095478E-3,6.8461467E-3,3.9558392E-5,-2.1171533E-3,1.2494326E-3,-1.6511679E-3,1.2311091E-3,-6.8265334E-4,1.3619466E-4,1.123914E-3,7.318126E-6,-8.450367E-4,1.7649914E-3,1.1479661E-2,3.1475426E-4,-4.2171404E-3,9.297192E-4,1.8052747E-4,-1.7242384E-4,-8.109249E-5,1.3301427E-4,-6.782923E-3,-2.1777301E-5,-3.9775172E-4,4.5715594E-3,-1.5711169E-3,8.33266E-4,9.4734505E-4,-3.201763E-5,-8.173151E-4,1.2343998E-4,2.5542453E-4,-3.1506922E-4,-6.1651814E-4,-1.5809883E-4,1.3601445E-3,1.8422306E-4,7.57123E-3,1.2281537E-4,-4.6688318E-4,7.2917837E-4,1.0531396E-5,-5.077419E-3,-2.5389236E-4,9.7223785E-4,5.3557604E-5,1.1854967E-3,-2.7045934E-4,-4.4193093E-5],"categories":[],"categories_nodes":[],"categories_segments":[],"categories_sizes":[],"default_left":[0,0,0,0,0,0,0,0,0,0,0,0,0,0,0,0,0,0,0,0,0,0,0,0,0,0,0,0,0,0,0,0,0,0,0,0,0,0,0,0,0,0,0,0,0,0,0,0,0,0,0,0,0,0,0,0,0,0,0,0,0,0,0,0,0,0,0,0,0,0,0,0,0,0,0,0,0,0,0,0,0],"id":11,"left_children":[1,3,5,7,9,11,13,15,17,19,21,23,25,27,29,31,33,35,-1,-1,37,39,41,-1,-1,-1,-1,43,45,47,49,51,53,55,57,-1,-1,-1,59,61,63,-1,-1,65,67,69,71,73,75,77,79,-1,-1,-1,-1,-1,-1,-1,-1,-1,-1,-1,-1,-1,-1,-1,-1,-1,-1,-1,-1,-1,-1,-1,-1,-1,-1,-1,-1,-1,-1],"loss_changes":[1.9659483E-5,1.7672885E-4,8.908676E-4,3.566941E-4,6.864869E-4,9.795506E-4,1.1269828E-4,6.17231E-5,1.0196769E-3,3.16104E-3,4.8402013E-5,1.1617734E-4,9.1482664E-4,1.7601266E-4,4.663307E-5,6.955346E-4,3.6477705E-4,1.0047162E-4,0E0,0E0,4.101602E-5,7.468185E-6,6.6022636E-5,0E0,0E0,0E0,0E0,2.9110688E-5,2.456846E-4,1.7468663E-4,2.2587034E-5,4.514142E-5,7.7387725E-4,1.6524733E-4,3.365449E-4,0E0,0E0,0E0,5.277926E-6,1.9871231E-5,6.9254374E-6,0E0,0E0,1.867199E-6,8.336534E-6,1.6087259E-4,8.500821E-6,3.0219584E-4,2.2868122E-5,4.4611195E-5,1.5993326E-5,0E0,0E0,0E0,0E0,0E0,0E0,0E0,0E0,0E0,0E0,0E0,0E0,0E0,0E0,0E0,0E0,0E0,0E0,0E0,0E0,0E0,0E0,0E0,0E0,0E0,0E0,0E0,0E0,0E0,0E0],"parents":[2147483647,0,0,1,1,2,2,3,3,4,4,5,5,6,6,7,7,8,8,9,9,10,10,11,11,12,12,13,13,14,14,15,15,16,16,17,17,20,20,21,21,22,22,27,27,28,28,29,29,30,30,31,31,32,32,33,33,34,34,38,38,39,39,40,40,43,43,44,44,45,45,46,46,47,47,48,48,49,49,50,50],"right_children":[2,4,6,8,10,12,14,16,18,20,22,24,26,28,30,32,34,36,-1,-1,38,40,42,-1,-1,-1,-1,44,46,48,50,52,54,56,58,-1,-1,-1,60,62,64,-1,-1,66,68,70,72,74,76,78,80,-1,-1,-1,-1,-1,-1,-1,-1,-1,-1,-1,-1,-1,-1,-1,-1,-1,-1,-1,-1,-1,-1,-1,-1,-1,-1,-1,-1,-1,-1],"split_conditions":[5.846387E-1,5.263E-1,5.886E-1,5.241E-1,5.306E-1,1E0,5.97E-1,4.911699E-1,3E0,1E0,2E0,1E0,2E0,5.932E-1,6.085E-1,4.859E-1,4.964E-1,2E0,-1.3120994E-2,2.2359774E-2,2E0,1E0,3E0,-5.9936446E-4,4.5399964E-3,-4.1499734E-6,-1.3103172E-2,2E0,1E0,1E0,7.382568E-1,2E0,1E0,1E0,2E0,-2.1171533E-3,1.2494326E-3,-1.6511679E-3,1E0,1E0,1E0,1.123914E-3,7.318126E-6,1E0,3E0,2E0,2E0,6.062E-1,2E0,7.361E-1,7.771E-1,-8.109249E-5,1.3301427E-4,-6.782923E-3,-2.1777301E-5,-3.9775172E-4,4.5715594E-3,-1.5711169E-3,8.33266E-4,9.4734505E-4,-3.201763E-5,-8.173151E-4,1.2343998E-4,2.5542453E-4,-3.1506922E-4,-6.1651814E-4,-1.5809883E-4,1.3601445E-3,1.8422306E-4,7.57123E-3,1.2281537E-4,-4.6688318E-4,7.2917837E-4,1.0531396E-5,-5.077419E-3,-2.5389236E-4,9.7223785E-4,5.3557604E-5,1.1854967E-3,-2.7045934E-4,-4.4193093E-5],"split_indices":[2,2,2,2,2,0,2,2,1,1,1,1,1,2,2,2,2,1,0,0,1,0,1,0,0,0,0,1,0,0,2,1,0,1,1,0,0,0,0,1,1,0,0,0,1,1,1,2,1,2,2,0,0,0,0,0,0,0,0,0,0,0,0,0,0,0,0,0,0,0,0,0,0,0,0,0,0,0,0,0,0],"split_type":[0,0,0,0,0,0,0,0,0,0,0,0,0,0,0,0,0,0,0,0,0,0,0,0,0,0,0,0,0,0,0,0,0,0,0,0,0,0,0,0,0,0,0,0,0,0,0,0,0,0,0,0,0,0,0,0,0,0,0,0,0,0,0,0,0,0,0,0,0,0,0,0,0,0,0,0,0,0,0,0,0],"sum_hessian":[2.034E3,1.183E3,8.51E2,1.08E3,1.03E2,8E0,8.43E2,1.072E3,8E0,8E0,9.5E1,3E0,5E0,2.3E1,8.2E2,1.001E3,7.1E1,7E0,1E0,1E0,7E0,4.3E1,5.2E1,2E0,1E0,2E0,3E0,1.6E1,7E0,2.5E1,7.95E2,9.85E2,1.6E1,8E0,6.3E1,3E0,4E0,2E0,5E0,2.1E1,2.2E1,2.6E1,2.6E1,1E1,6E0,3E0,4E0,1.1E1,1.4E1,2.78E2,5.17E2,5.16E2,4.69E2,7E0,9E0,2E0,6E0,2.1E1,4.2E1,3E0,2E0,1E1,1.1E1,1.5E1,7E0,5E0,5E0,3E0,3E0,2E0,1E0,2E0,2E0,7E0,4E0,6E0,8E0,2.7E2,8E0,9.5E1,4.22E2],"tree_param":{"num_deleted":"0","num_feature":"3","num_nodes":"81","size_leaf_vector":"1"}},{"base_weights":[-9.363421E-6,2.1697684E-5,-1.621135E-4,-1.9731797E-7,4.6288446E-4,-5.731333E-3,-2.942546E-5,1.925578E-5,-1.8276327E-3,1.229819E-3,1.1223714E-4,1.0444522E-4,-1.1723779E-2,-1.48752E-4,3.7542722E-4,-5.755467E-5,1.456305E-4,-7.869676E-6,-7.73596E-3,2.5191968E-3,2.3743247E-4,-4.95972E-5,2.0995412E-4,-2.1592528E-4,-7.6719024E-3,-4.502908E-4,1.4483638E-4,7.7476766E-4,-5.3873163E-4,2.0940302E-5,-8.65072E-3,3.0324757E-3,6.191962E-5,-2.9363565E-4,1.5730038E-4,-8.2433224E-5,4.699421E-3,7.561228E-5,-5.584147E-3,2.0581037E-3,2.220959E-5,7.596612E-5,1.9140997E-3,-5.185738E-3,1.6985639E-4,-3.3567456E-5,1.7534912E-4,8.474857E-4,-8.633134E-3,3.1033505E-3,-2.3934577E-4,-2.9114156E-4,7.575737E-5,7.0539114E-5,-3.3481122E-4,1.0532737E-3,2.8629105E-3,-2.5935384E-5,1.96048E-4,-7.920627E-3,-2.0248609E-4,-9.511948E-4,3.2470971E-3,-1.4402926E-3,7.049727E-5,3.1586408E-3,1.5938282E-4],"categories":[],"categories_nodes":[],"categories_segments":[],"categories_sizes":[],"default_left":[0,0,0,0,0,0,0,0,0,0,0,0,0,0,0,0,0,0,0,0,0,0,0,0,0,0,0,0,0,0,0,0,0,0,0,0,0,0,0,0,0,0,0,0,0,0,0,0,0,0,0,0,0,0,0,0,0,0,0,0,0,0,0,0,0,0,0],"id":12,"left_children":[1,3,5,7,9,11,13,15,17,19,21,-1,23,25,27,29,31,33,-1,35,-1,-1,-1,-1,-1,37,39,41,43,45,47,49,51,53,-1,-1,55,57,59,61,63,-1,65,-1,-1,-1,-1,-1,-1,-1,-1,-1,-1,-1,-1,-1,-1,-1,-1,-1,-1,-1,-1,-1,-1,-1,-1],"loss_changes":[9.65875E-6,1.634445E-5,2.5403665E-4,5.7376183E-5,2.1375852E-5,2.8722073E-4,1.6336206E-5,1.55103E-5,4.2197751E-4,2.3139251E-5,3.6845295E-6,0E0,1.5688204E-4,2.31711E-5,2.8527058E-5,6.706543E-4,1.4577509E-4,1.5667954E-6,0E0,5.3441512E-5,0E0,0E0,0E0,0E0,0E0,3.487107E-4,3.115846E-5,3.8028465E-5,2.108238E-4,2.8660439E-5,8.3146995E-4,1.924401E-4,3.402607E-5,1.5654894E-6,0E0,0E0,1.2449163E-6,4.7812027E-6,6.310649E-4,1.5290733E-4,4.3852E-5,0E0,1.3145263E-4,0E0,0E0,0E0,0E0,0E0,0E0,0E0,0E0,0E0,0E0,0E0,0E0,0E0,0E0,0E0,0E0,0E0,0E0,0E0,0E0,0E0,0E0,0E0,0E0],"parents":[2147483647,0,0,1,1,2,2,3,3,4,4,5,5,6,6,7,7,8,8,9,9,10,10,12,12,13,13,14,14,15,15,16,16,17,17,19,19,25,25,26,26,27,27,28,28,29,29,30,30,31,31,32,32,33,33,36,36,37,37,38,38,39,39,40,40,42,42],"right_children":[2,4,6,8,10,12,14,16,18,20,22,-1,24,26,28,30,32,34,-1,36,-1,-1,-1,-1,-1,38,40,42,44,46,48,50,52,54,-1,-1,56,58,60,62,64,-1,66,-1,-1,-1,-1,-1,-1,-1,-1,-1,-1,-1,-1,-1,-1,-1,-1,-1,-1,-1,-1,-1,-1,-1,-1],"split_conditions":[8.177766E-1,7.771E-1,8.203E-1,7.717391E-1,7.891E-1,1E0,3E0,4.882E-1,3E0,2E0,2E0,1.0444522E-4,2E0,9.151405E-1,9.347E-1,4.859E-1,4.964E-1,1E0,-7.73596E-3,1E0,2.3743247E-4,-4.95972E-5,2.0995412E-4,-2.1592528E-4,-7.6719024E-3,9.052136E-1,9.174E-1,9.052136E-1,9.4057053E-1,3.884E-1,2E0,2E0,5.263E-1,7.737E-1,1.5730038E-4,-8.2433224E-5,1E0,2E0,9.11E-1,1E0,9.187E-1,7.596612E-5,9.11E-1,-5.185738E-3,1.6985639E-4,-3.3567456E-5,1.7534912E-4,8.474857E-4,-8.633134E-3,3.1033505E-3,-2.3934577E-4,-2.9114156E-4,7.575737E-5,7.0539114E-5,-3.3481122E-4,1.0532737E-3,2.8629105E-3,-2.5935384E-5,1.96048E-4,-7.920627E-3,-2.0248609E-4,-9.511948E-4,3.2470971E-3,-1.4402926E-3,7.049727E-5,3.1586408E-3,1.5938282E-4],"split_indices":[2,2,2,2,2,0,1,2,1,1,1,0,1,2,2,2,2,0,0,0,0,0,0,0,0,2,2,2,2,2,1,1,2,2,0,0,1,1,2,0,2,0,2,0,0,0,0,0,0,0,0,0,0,0,0,0,0,0,0,0,0,0,0,0,0,0,0],"split_type":[0,0,0,0,0,0,0,0,0,0,0,0,0,0,0,0,0,0,0,0,0,0,0,0,0,0,0,0,0,0,0,0,0,0,0,0,0,0,0,0,0,0,0,0,0,0,0,0,0,0,0,0,0,0,0,0,0,0,0,0,0,0,0,0,0,0,0],"sum_hessian":[2.034E3,1.691E3,3.43E2,1.612E3,7.9E1,7E0,3.36E2,1.596E3,1.6E1,2.4E1,5.5E1,4E0,3E0,2.6E2,7.6E1,9.93E2,6.03E2,1.5E1,1E0,8E0,1.6E1,3.3E1,2.2E1,1E0,2E0,1.28E2,1.32E2,5.3E1,2.3E1,9.85E2,8E0,1.6E1,5.87E2,8E0,7E0,4E0,4E0,1.17E2,1.1E1,7E0,1.25E2,3.5E1,1.8E1,1E0,2.2E1,7.78E2,2.07E2,4E0,4E0,8E0,8E0,7.1E1,5.16E2,4E0,4E0,2E0,2E0,8.4E1,3.3E1,3E0,8E0,4E0,3E0,4E0,1.21E2,4E0,1.4E1],"tree_param":{"num_deleted":"0","num_feature":"3","num_nodes":"67","size_leaf_vector":"1"}},{"base_weights":[-1.6989858E-5,1.1903139E-4,-5.962814E-5,5.327936E-5,4.4713382E-4,-5.980432E-3,-2.503225E-5,-2.5984072E-4,1.5375212E-4,2.5444692E-3,1.8243308E-4,-1.4580868E-2,3.7496537E-4,1.1237851E-4,-1.687883E-4,1.0395213E-3,-6.229961E-4,1.6688596E-3,9.7309385E-5,3.9889566E-3,-7.3822484E-5,-3.3852382E-6,3.842754E-4,-1.4822908E-2,1.6135971E-4,1.3413961E-3,-7.2653925E-6,-1.2953235E-3,1.9518633E-5,-1.4232865E-3,1.3189621E-2,-8.7771E-4,-1.8619696E-4,6.5917373E-3,-7.876423E-5,-4.63458E-4,2.2898885E-4,-1.8436501E-4,3.27326E-4,3.0345717E-4,7.0143906E-5,-1.8578842E-4,3.2686861E-3,-1.3199141E-3,1.294381E-4,-2.0360504E-3,1.2453317E-3,1.6660288E-2,-8.3870495E-5,-1.3151541E-3,-1.4941394E-4,-2.48458E-4,-8.160202E-4,-3.3737524E-5,-2.5212392E-4,4.9110055E-3,3.2797456E-5,5.3312197E-5,-1.0333986E-3,1.6171942E-4,2.2078853E-5,7.939239E-5,3.2086245E-4,-2.3308222E-4,1.0276213E-5,2.5597324E-3,1.5613207E-4,1.7971861E-4,-1.8912837E-2,1.26295E-4,-1.0958445E-4,-2.065969E-4,-3.1610916E-3,1.881836E-3,2.8442177E-5,7.9363585E-5,1.105395E-2,8.468288E-4,-7.770487E-5],"categories":[],"categories_nodes":[],"categories_segments":[],"categories_sizes":[],"default_left":[0,0,0,0,0,0,0,0,0,0,0,0,0,0,0,0,0,0,0,0,0,0,0,0,0,0,0,0,0,0,0,0,0,0,0,0,0,0,0,0,0,0,0,0,0,0,0,0,0,0,0,0,0,0,0,0,0,0,0,0,0,0,0,0,0,0,0,0,0,0,0,0,0,0,0,0,0,0,0],"id":13,"left_children":[1,3,5,7,9,11,13,15,17,19,21,23,-1,25,27,29,31,33,35,-1,-1,37,39,-1,-1,41,43,45,47,49,-1,51,53,55,-1,57,59,-1,61,-1,-1,63,65,67,69,71,73,75,77,-1,-1,-1,-1,-1,-1,-1,-1,-1,-1,-1,-1,-1,-1,-1,-1,-1,-1,-1,-1,-1,-1,-1,-1,-1,-1,-1,-1,-1,-1],"loss_changes":[1.1809513E-5,1.0460851E-5,3.1734532E-4,1.2812727E-5,4.4504268E-5,5.318911E-4,3.0479065E-5,4.736278E-5,2.6176782E-5,1.3282496E-4,2.739239E-6,9.0765435E-4,0E0,1.16027826E-4,1.5997462E-4,1.4104962E-3,8.514762E-6,9.994033E-5,2.211091E-5,0E0,0E0,4.832816E-6,1.8160972E-6,0E0,0E0,2.066402E-4,1.2937028E-4,2.0578415E-4,1.1145443E-3,2.7716156E-5,0E0,1.3263991E-5,1.0987642E-6,6.25994E-5,0E0,5.2320385E-5,4.210384E-6,0E0,1.0108765E-6,0E0,0E0,2.3237017E-6,1.6802354E-4,4.1824034E-3,2.8089697E-5,5.816731E-4,7.4608775E-5,3.5606732E-4,8.21562E-5,0E0,0E0,0E0,0E0,0E0,0E0,0E0,0E0,0E0,0E0,0E0,0E0,0E0,0E0,0E0,0E0,0E0,0E0,0E0,0E0,0E0,0E0,0E0,0E0,0E0,0E0,0E0,0E0,0E0,0E0],"parents":[2147483647,0,0,1,1,2,2,3,3,4,4,5,5,6,6,7,7,8,8,9,9,10,10,11,11,13,13,14,14,15,15,16,16,17,17,18,18,21,21,22,22,25,25,26,26,27,27,28,28,29,29,31,31,32,32,33,33,35,35,36,36,38,38,41,41,42,42,43,43,44,44,45,45,46,46,47,47,48,48],"right_children":[2,4,6,8,10,12,14,16,18,20,22,24,-1,26,28,30,32,34,36,-1,-1,38,40,-1,-1,42,44,46,48,50,-1,52,54,56,-1,58,60,-1,62,-1,-1,64,66,68,70,72,74,76,78,-1,-1,-1,-1,-1,-1,-1,-1,-1,-1,-1,-1,-1,-1,-1,-1,-1,-1,-1,-1,-1,-1,-1,-1,-1,-1,-1,-1,-1,-1],"split_conditions":[2.3035645E-1,1.933E-1,2.3458122E-1,1E0,1.988648E-1,1E0,1E0,3.2778796E-2,4.7E-3,1E0,2E0,3E0,3.7496537E-4,3.0013674E-1,3.571E-1,2.95E-2,1E0,2E0,3.6550548E-2,3.9889566E-3,-7.3822484E-5,1E0,3E0,-1.4822908E-2,1.6135971E-4,2E0,3.78E-1,3E0,3.61E-1,1E0,1.3189621E-2,1.265E-1,1.4964987E-1,1E0,-7.876423E-5,2.95E-2,3E0,-1.8436501E-4,2.154E-1,3.0345717E-4,7.0143906E-5,1E0,3E0,3.762207E-1,3E0,2E0,2.8387833E-1,1E0,3.78E-1,-1.3151541E-3,-1.4941394E-4,-2.48458E-4,-8.160202E-4,-3.3737524E-5,-2.5212392E-4,4.9110055E-3,3.2797456E-5,5.3312197E-5,-1.0333986E-3,1.6171942E-4,2.2078853E-5,7.939239E-5,3.2086245E-4,-2.3308222E-4,1.0276213E-5,2.5597324E-3,1.5613207E-4,1.7971861E-4,-1.8912837E-2,1.26295E-4,-1.0958445E-4,-2.065969E-4,-3.1610916E-3,1.881836E-3,2.8442177E-5,7.9363585E-5,1.105395E-2,8.468288E-4,-7.770487E-5],"split_indices":[2,2,2,1,2,0,0,2,2,1,1,1,0,2,2,2,0,1,2,0,0,0,1,0,0,1,2,1,2,0,0,2,2,0,0,2,1,0,2,0,0,1,1,2,1,1,2,1,2,0,0,0,0,0,0,0,0,0,0,0,0,0,0,0,0,0,0,0,0,0,0,0,0,0,0,0,0,0,0],"split_type":[0,0,0,0,0,0,0,0,0,0,0,0,0,0,0,0,0,0,0,0,0,0,0,0,0,0,0,0,0,0,0,0,0,0,0,0,0,0,0,0,0,0,0,0,0,0,0,0,0,0,0,0,0,0,0,0,0,0,0,0,0,0,0,0,0,0,0,0,0,0,0,0,0,0,0,0,0,0,0],"sum_hessian":[2.034E3,4.85E2,1.549E3,4.05E2,8E1,8E0,1.541E3,9.8E1,3.07E2,8E0,7.2E1,3E0,5E0,7.88E2,7.53E2,2.1E1,7.7E1,1E1,2.97E2,2E0,6E0,3.8E1,3.4E1,1E0,2E0,6.9E1,7.19E2,1.07E2,6.46E2,2E1,1E0,4.8E1,2.9E1,2E0,8E0,5.6E1,2.41E2,1.8E1,2E1,1.7E1,1.7E1,3.9E1,3E1,6.7E1,6.52E2,8.3E1,2.4E1,3E0,6.43E2,9E0,1.1E1,3.3E1,1.5E1,2.2E1,7E0,1E0,1E0,4.2E1,1.4E1,1.59E2,8.2E1,1.4E1,6E0,1.6E1,2.3E1,1.8E1,1.2E1,6.5E1,2E0,4.82E2,1.7E2,6.1E1,2.2E1,7E0,1.7E1,1E0,2E0,2.4E1,6.19E2],"tree_param":{"num_deleted":"0","num_feature":"3","num_nodes":"79","size_leaf_vector":"1"}},{"base_weights":[-9.046836E-6,5.331984E-5,-9.57054E-5,-1.8339138E-5,7.976471E-4,-6.100709E-3,-3.1557604E-5,1.88788E-5,-4.453507E-3,7.0971944E-3,1.9875572E-4,2.654083E-3,-1.0920453E-2,1.3559312E-3,-7.207913E-5,-2.7948567E-5,6.0047285E-4,-1.3991073E-4,-9.740569E-3,1.6719311E-2,-3.7531182E-4,-2.4766E-4,5.656149E-4,-4.6693286E-4,3.3544824E-3,-2.1184485E-6,-8.188751E-3,7.0722665E-5,3.917508E-3,-8.5540203E-4,-3.8189464E-5,1.9605894E-5,-5.2346983E-3,1.1856873E-3,-6.605759E-4,-1.2104027E-3,8.563936E-4,-1.1681318E-3,6.677161E-4,-5.6573615E-4,6.7354544E-5,5.4215227E-4,1.2988294E-5,-5.838979E-4,1.089309E-3,7.5707734E-3,2.1139384E-4,-2.277589E-3,2.5400816E-4,1.8794581E-4,-9.520108E-5,-7.185975E-5,9.961106E-5,4.9877167E-4,-5.21E-3,9.427622E-4,-1.7880897E-4,-2.3522966E-3,8.7855756E-4,5.1631406E-4,-2.070268E-5,-5.3764746E-4,-2.5747964E-5,1.3659708E-4,-1.76372E-4,-4.438261E-4,-9.1413654E-5,8.253157E-4,1.2782961E-4,4.980137E-3,1.0056794E-4,-3.1060478E-4,4.867663E-4,-1.6980184E-3,8.23576E-4,-2.316968E-4,5.0887465E-4,-1.033172E-4,3.8307384E-3,-6.111752E-5,1.104188E-4],"categories":[],"categories_nodes":[],"categories_segments":[],"categories_sizes":[],"default_left":[0,0,0,0,0,0,0,0,0,0,0,0,0,0,0,0,0,0,0,0,0,0,0,0,0,0,0,0,0,0,0,0,0,0,0,0,0,0,0,0,0,0,0,0,0,0,0,0,0,0,0,0,0,0,0,0,0,0,0,0,0,0,0,0,0,0,0,0,0,0,0,0,0,0,0,0,0,0,0,0,0],"id":14,"left_children":[1,3,5,7,9,11,13,15,17,19,21,23,25,27,29,31,33,35,-1,-1,37,39,41,-1,-1,-1,-1,43,45,47,49,51,53,55,57,-1,-1,-1,59,61,63,-1,-1,65,67,69,71,73,75,77,79,-1,-1,-1,-1,-1,-1,-1,-1,-1,-1,-1,-1,-1,-1,-1,-1,-1,-1,-1,-1,-1,-1,-1,-1,-1,-1,-1,-1,-1,-1],"loss_changes":[1.1003477E-5,6.31665E-5,3.280045E-4,1.7852237E-4,3.909549E-4,4.0874645E-4,4.7550086E-5,2.9239422E-5,5.806825E-4,1.7840783E-3,1.5862164E-5,6.446011E-5,3.5735243E-4,7.873478E-5,2.1762053E-5,2.462212E-4,5.9821956E-5,3.7952792E-5,0E0,0E0,1.7922583E-5,4.4468443E-6,1.4806785E-5,0E0,0E0,0E0,0E0,1.1971434E-5,1.0671493E-4,5.422334E-5,1.0177056E-5,2.895382E-5,3.0123888E-4,6.007772E-5,2.624733E-4,0E0,0E0,0E0,1.5953578E-6,5.7094103E-6,2.085245E-6,0E0,0E0,1.177809E-6,2.853626E-6,6.843562E-5,3.7775642E-6,7.1438066E-5,1.1429804E-5,4.704594E-4,5.4095735E-6,0E0,0E0,0E0,0E0,0E0,0E0,0E0,0E0,0E0,0E0,0E0,0E0,0E0,0E0,0E0,0E0,0E0,0E0,0E0,0E0,0E0,0E0,0E0,0E0,0E0,0E0,0E0,0E0,0E0,0E0],"parents":[2147483647,0,0,1,1,2,2,3,3,4,4,5,5,6,6,7,7,8,8,9,9,10,10,11,11,12,12,13,13,14,14,15,15,16,16,17,17,20,20,21,21,22,22,27,27,28,28,29,29,30,30,31,31,32,32,33,33,34,34,38,38,39,39,40,40,43,43,44,44,45,45,46,46,47,47,48,48,49,49,50,50],"right_children":[2,4,6,8,10,12,14,16,18,20,22,24,26,28,30,32,34,36,-1,-1,38,40,42,-1,-1,-1,-1,44,46,48,50,52,54,56,58,-1,-1,-1,60,62,64,-1,-1,66,68,70,72,74,76,78,80,-1,-1,-1,-1,-1,-1,-1,-1,-1,-1,-1,-1,-1,-1,-1,-1,-1,-1,-1,-1,-1,-1,-1,-1,-1,-1,-1,-1,-1,-1],"split_conditions":[5.846387E-1,5.263E-1,5.886E-1,5.241E-1,5.306E-1,1E0,5.97E-1,4.882E-1,3E0,1E0,2E0,1E0,2E0,5.932E-1,6.142E-1,4.859E-1,5.1409376E-1,2E0,-9.740569E-3,1.6719311E-2,2E0,1E0,3E0,-4.6693286E-4,3.3544824E-3,-2.1184485E-6,-8.188751E-3,2E0,1E0,1E0,6.895E-1,2E0,2E0,3E0,2E0,-1.2104027E-3,8.563936E-4,-1.1681318E-3,1E0,1E0,1E0,5.4215227E-4,1.2988294E-5,1E0,3E0,2E0,2E0,3E0,2E0,6.867657E-1,9.7331184E-1,-7.185975E-5,9.961106E-5,4.9877167E-4,-5.21E-3,9.427622E-4,-1.7880897E-4,-2.3522966E-3,8.7855756E-4,5.1631406E-4,-2.070268E-5,-5.3764746E-4,-2.5747964E-5,1.3659708E-4,-1.76372E-4,-4.438261E-4,-9.1413654E-5,8.253157E-4,1.2782961E-4,4.980137E-3,1.0056794E-4,-3.1060478E-4,4.867663E-4,-1.6980184E-3,8.23576E-4,-2.316968E-4,5.0887465E-4,-1.033172E-4,3.8307384E-3,-6.111752E-5,1.104188E-4],"split_indices":[2,2,2,2,2,0,2,2,1,1,1,1,1,2,2,2,2,1,0,0,1,0,1,0,0,0,0,1,0,0,2,1,1,1,1,0,0,0,0,1,1,0,0,0,1,1,1,1,1,2,2,0,0,0,0,0,0,0,0,0,0,0,0,0,0,0,0,0,0,0,0,0,0,0,0,0,0,0,0,0,0],"split_type":[0,0,0,0,0,0,0,0,0,0,0,0,0,0,0,0,0,0,0,0,0,0,0,0,0,0,0,0,0,0,0,0,0,0,0,0,0,0,0,0,0,0,0,0,0,0,0,0,0,0,0,0,0,0,0,0,0,0,0,0,0,0,0,0,0,0,0,0,0,0,0,0,0,0,0,0,0,0,0,0,0],"sum_hessian":[2.034E3,1.183E3,8.51E2,1.08E3,1.03E2,8E0,8.43E2,1.072E3,8E0,8E0,9.5E1,3E0,5E0,2.3E1,8.2E2,9.93E2,7.9E1,7E0,1E0,1E0,7E0,4.3E1,5.2E1,2E0,1E0,2E0,3E0,1.6E1,7E0,3.3E1,7.87E2,9.85E2,8E0,5.4E1,2.5E1,3E0,4E0,2E0,5E0,2.1E1,2.2E1,2.6E1,2.6E1,1E1,6E0,3E0,4E0,1.4E1,1.9E1,1.58E2,6.29E2,5.16E2,4.69E2,4E0,4E0,3.7E1,1.7E1,9E0,1.6E1,3E0,2E0,1E1,1.1E1,1.5E1,7E0,5E0,5E0,3E0,3E0,2E0,1E0,2E0,2E0,1.1E1,3E0,1E1,9E0,1.51E2,7E0,5.8E2,4.9E1],"tree_param":{"num_deleted":"0","num_feature":"3","num_nodes":"81","size_leaf_vector":"1"}},{"base_weights":[-2.5238173E-6,1.4330754E-4,-2.645239E-5,1.0141066E-4,1.2937099E-3,-5.372976E-4,-1.1721134E-5,2.0729414E-4,-9.397229E-5,-7.635781E-6,3.261E-3,-7.735455E-4,-2.3546465E-5,2.0408002E-3,-2.2625429E-5,6.924981E-5,3.8488794E-4,2.190267E-3,-2.4400651E-5,-3.0444987E-4,-1.0632351E-3,4.6410114E-3,-1.6403696E-5,-2.3603601E-4,1.24451935E-5,1.4442466E-3,-3.230271E-5,-2.962172E-5,5.497864E-4,-3.6555954E-4,5.3470954E-5,-1.3559684E-4,-1.0005765E-3,-1.0759607E-3,7.6226294E-3,1.4172875E-5,-6.631838E-3,4.0831752E-4,-3.3708973E-5,-3.3212305E-4,1.8594004E-3,2.4069914E-4,-1.871403E-4,4.83859E-4,3.00965E-5,-7.396191E-5,5.790934E-3,-9.752977E-5,2.3946849E-4,3.6248206E-3,-9.593475E-3,4.0014438E-5,1.5053039E-3,-8.783837E-4,5.509757E-6],"categories":[],"categories_nodes":[],"categories_segments":[],"categories_sizes":[],"default_left":[0,0,0,0,0,0,0,0,0,0,0,0,0,0,0,0,0,0,0,0,0,0,0,0,0,0,0,0,0,0,0,0,0,0,0,0,0,0,0,0,0,0,0,0,0,0,0,0,0,0,0,0,0,0,0],"id":15,"left_children":[1,3,5,7,9,11,13,15,-1,-1,17,19,-1,21,23,25,27,-1,-1,29,31,33,-1,35,37,39,41,-1,43,-1,-1,-1,-1,-1,45,47,49,51,53,-1,-1,-1,-1,-1,-1,-1,-1,-1,-1,-1,-1,-1,-1,-1,-1],"loss_changes":[7.1049963E-6,1.3701705E-5,1.3155611E-5,8.556308E-6,2.5801262E-5,5.6382532E-6,3.811676E-5,4.974574E-6,0E0,0E0,1.5035515E-5,4.160738E-6,0E0,4.867862E-5,1.2674098E-5,1.6244243E-5,6.5506247E-6,0E0,0E0,2.5355826E-6,1.4314699E-5,9.7419026E-5,0E0,3.8256246E-4,2.6598296E-5,4.0837247E-5,1.9328683E-5,0E0,1.3241828E-5,0E0,0E0,0E0,0E0,0E0,9.400968E-5,2.2556722E-5,1.7076503E-3,1.2961302E-4,1.0051838E-4,0E0,0E0,0E0,0E0,0E0,0E0,0E0,0E0,0E0,0E0,0E0,0E0,0E0,0E0,0E0,0E0],"parents":[2147483647,0,0,1,1,2,2,3,3,4,4,5,5,6,6,7,7,10,10,11,11,13,13,14,14,15,15,16,16,19,19,20,20,21,21,23,23,24,24,25,25,26,26,28,28,34,34,35,35,36,36,37,37,38,38],"right_children":[2,4,6,8,10,12,14,16,-1,-1,18,20,-1,22,24,26,28,-1,-1,30,32,34,-1,36,38,40,42,-1,44,-1,-1,-1,-1,-1,46,48,50,52,54,-1,-1,-1,-1,-1,-1,-1,-1,-1,-1,-1,-1,-1,-1,-1,-1],"split_conditions":[1.343E-1,1.293E-1,1.544E-1,3E0,3E0,2E0,1.6167033E-1,1E0,-9.397229E-5,-7.635781E-6,1E0,1E0,-2.3546465E-5,2E0,2.8387833E-1,4.7E-3,1E0,2.190267E-3,-2.4400651E-5,1E0,1E0,1E0,-1.6403696E-5,2.7742925E-1,3.6487433E-1,3.858566E-3,1E0,-2.962172E-5,2E0,-3.6555954E-4,5.3470954E-5,-1.3559684E-4,-1.0005765E-3,-1.0759607E-3,1E0,2.3925352E-1,1E0,3.571E-1,3.78E-1,-3.3212305E-4,1.8594004E-3,2.4069914E-4,-1.871403E-4,4.83859E-4,3.00965E-5,-7.396191E-5,5.790934E-3,-9.752977E-5,2.3946849E-4,3.6248206E-3,-9.593475E-3,4.0014438E-5,1.5053039E-3,-8.783837E-4,5.509757E-6],"split_indices":[2,2,2,1,1,1,2,0,0,0,0,1,0,1,2,2,1,0,0,0,0,1,0,2,2,2,1,0,1,0,0,0,0,0,0,2,0,2,2,0,0,0,0,0,0,0,0,0,0,0,0,0,0,0,0],"split_type":[0,0,0,0,0,0,0,0,0,0,0,0,0,0,0,0,0,0,0,0,0,0,0,0,0,0,0,0,0,0,0,0,0,0,0,0,0,0,0,0,0,0,0,0,0,0,0,0,0,0,0,0,0,0,0],"sum_hessian":[2.034E3,2.86E2,1.748E3,2.77E2,9E0,4.8E1,1.7E3,2.03E2,7.4E1,6E0,3E0,3.2E1,1.6E1,8E0,1.692E3,1.15E2,8.8E1,2E0,1E0,1.3E1,1.9E1,3E0,5E0,2.38E2,1.454E3,7E0,1.08E2,2.4E1,6.4E1,6E0,7E0,1.1E1,8E0,1E0,2E0,2.3E2,8E0,1.51E2,1.303E3,4E0,3E0,4.3E1,6.5E1,3.4E1,3E1,1E0,1E0,1.59E2,7.1E1,4E0,4E0,1.35E2,1.6E1,3.2E1,1.271E3],"tree_param":{"num_deleted":"0","num_feature":"3","num_nodes":"55","size_leaf_vector":"1"}},{"base_weights":[-2.1898482E-7,9.827518E-5,-3.1101532E-5,4.4188037E-5,3.6816538E-4,-4.541344E-3,-4.756988E-6,1.9819482E-4,9.465517E-7,1.8006728E-3,1.865115E-4,-1.095736E-2,2.4644533E-4,-7.707922E-5,7.171806E-5,-7.2316354E-5,1.3481431E-3,-3.1108322E-4,1.0022484E-4,2.7157713E-3,-6.3266075E-6,1.688774E-5,1.8531129E-4,-1.1117697E-2,1.06891E-4,-2.7049158E-4,2.2168415E-5,-9.5335674E-4,1.217263E-4,-7.460543E-4,1.9600088E-4,1.3125837E-2,-1.0972718E-3,-2.517159E-4,2.464652E-5,1.7556846E-4,-4.6223402E-5,2.7424493E-4,-5.1082653E-4,5.549139E-3,-3.091608E-5,-3.545024E-3,1.9992923E-3,5.9035135E-4,-5.8540332E-5,-7.420421E-4,-3.4429133E-5,2.9732162E-4,-6.4723194E-5,9.850003E-3,-5.6251884E-6,-3.6254153E-3,5.2267686E-4,-5.2352963E-5,2.2307038E-4,5.2175987E-5,1.9330457E-4,-8.210486E-5,8.956883E-5,-1.9058924E-4,4.941773E-4,-1.059117E-3,-1.8927956E-4,-1.6578138E-3,6.2820963E-3,-5.392185E-4,1.0919163E-5,4.5990944E-4,-1.02590695E-2,-3.0635495E-4,7.196436E-3,7.015286E-4,-1.14129034E-4,-3.1282008E-3,9.3201834E-7],"categories":[],"categories_nodes":[],"categories_segments":[],"categories_sizes":[],"default_left":[0,0,0,0,0,0,0,0,0,0,0,0,0,0,0,0,0,0,0,0,0,0,0,0,0,0,0,0,0,0,0,0,0,0,0,0,0,0,0,0,0,0,0,0,0,0,0,0,0,0,0,0,0,0,0,0,0,0,0,0,0,0,0,0,0,0,0,0,0,0,0,0,0,0,0],"id":16,"left_children":[1,3,5,7,9,11,13,15,17,19,21,23,-1,25,27,29,31,33,35,-1,-1,-1,-1,-1,-1,37,39,41,43,45,47,49,51,-1,53,55,57,59,61,63,65,67,69,71,73,-1,-1,-1,-1,-1,-1,-1,-1,-1,-1,-1,-1,-1,-1,-1,-1,-1,-1,-1,-1,-1,-1,-1,-1,-1,-1,-1,-1,-1,-1],"loss_changes":[6.1930186E-6,7.078161E-6,1.8414983E-4,2.7035621E-6,2.074202E-5,2.9609835E-4,8.534093E-6,2.778307E-5,9.882114E-6,5.9324288E-5,2.0402706E-6,5.087076E-4,0E0,1.5228203E-5,3.8562684E-5,1.3342839E-5,5.0402555E-4,4.984846E-6,2.6783289E-6,0E0,0E0,0E0,0E0,0E0,0E0,3.5357363E-5,1.5420467E-4,2.7491746E-4,6.0520422E-5,1.0393417E-5,6.9530392E-6,2.5931792E-4,2.0535124E-4,0E0,1.6278316E-6,2.3643888E-6,2.2363463E-6,3.9224404E-5,3.8955757E-5,3.5259224E-4,2.881471E-5,1.4587366E-3,5.591436E-4,1.3271271E-4,1.9393943E-4,0E0,0E0,0E0,0E0,0E0,0E0,0E0,0E0,0E0,0E0,0E0,0E0,0E0,0E0,0E0,0E0,0E0,0E0,0E0,0E0,0E0,0E0,0E0,0E0,0E0,0E0,0E0,0E0,0E0,0E0],"parents":[2147483647,0,0,1,1,2,2,3,3,4,4,5,5,6,6,7,7,8,8,9,9,10,10,11,11,13,13,14,14,15,15,16,16,17,17,18,18,25,25,26,26,27,27,28,28,29,29,30,30,31,31,32,32,34,34,35,35,36,36,37,37,38,38,39,39,40,40,41,41,42,42,43,43,44,44],"right_children":[2,4,6,8,10,12,14,16,18,20,22,24,-1,26,28,30,32,34,36,-1,-1,-1,-1,-1,-1,38,40,42,44,46,48,50,52,-1,54,56,58,60,62,64,66,68,70,72,74,-1,-1,-1,-1,-1,-1,-1,-1,-1,-1,-1,-1,-1,-1,-1,-1,-1,-1,-1,-1,-1,-1,-1,-1,-1,-1,-1,-1,-1,-1],"split_conditions":[2.3035645E-1,1.933E-1,2.3458122E-1,3.6550548E-2,1.988648E-1,1E0,2E0,2.95E-2,1E0,1E0,2.154E-1,3E0,2.4644533E-4,4.911699E-1,2.8387833E-1,1E0,1E0,1E0,3E0,2.7157713E-3,-6.3266075E-6,1.688774E-5,1.8531129E-4,-1.1117697E-2,1.06891E-4,3.133E-1,4.964E-1,3E0,4.859E-1,1E0,2E0,1E0,2E0,-2.517159E-4,1.6167033E-1,1.544E-1,1.293E-1,1E0,3.2718182E-1,1E0,5.263E-1,2.7742925E-1,2.7742925E-1,3E0,4.882E-1,-7.420421E-4,-3.4429133E-5,2.9732162E-4,-6.4723194E-5,9.850003E-3,-5.6251884E-6,-3.6254153E-3,5.2267686E-4,-5.2352963E-5,2.2307038E-4,5.2175987E-5,1.9330457E-4,-8.210486E-5,8.956883E-5,-1.9058924E-4,4.941773E-4,-1.059117E-3,-1.8927956E-4,-1.6578138E-3,6.2820963E-3,-5.392185E-4,1.0919163E-5,4.5990944E-4,-1.02590695E-2,-3.0635495E-4,7.196436E-3,7.015286E-4,-1.14129034E-4,-3.1282008E-3,9.3201834E-7],"split_indices":[2,2,2,2,2,0,1,2,1,1,2,1,0,2,2,1,1,0,1,0,0,0,0,0,0,2,2,1,2,0,1,0,1,0,2,2,2,0,2,1,2,2,2,1,2,0,0,0,0,0,0,0,0,0,0,0,0,0,0,0,0,0,0,0,0,0,0,0,0,0,0,0,0,0,0],"split_type":[0,0,0,0,0,0,0,0,0,0,0,0,0,0,0,0,0,0,0,0,0,0,0,0,0,0,0,0,0,0,0,0,0,0,0,0,0,0,0,0,0,0,0,0,0,0,0,0,0,0,0,0,0,0,0,0,0,0,0,0,0,0,0,0,0,0,0,0,0,0,0,0,0,0,0],"sum_hessian":[2.034E3,4.85E2,1.549E3,4.05E2,8E1,8E0,1.541E3,8.8E1,3.17E2,8E0,7.2E1,3E0,5E0,7.92E2,7.49E2,7.2E1,1.6E1,7.6E1,2.41E2,2E0,6E0,4E1,3.2E1,1E0,2E0,2.68E2,5.24E2,3.4E1,7.15E2,2E1,5.2E1,2E0,1.4E1,4.8E1,2.8E1,1.59E2,8.2E1,8.2E1,1.86E2,4E0,5.2E2,1.8E1,1.6E1,1.98E2,5.17E2,9E0,1.1E1,2.3E1,2.9E1,1E0,1E0,3E0,1.1E1,2.2E1,6E0,1.2E2,3.9E1,5.4E1,2.8E1,4.3E1,3.9E1,1.3E1,1.73E2,2E0,2E0,2.4E1,4.96E2,1.5E1,3E0,1.4E1,2E0,9.9E1,9.9E1,4E0,5.13E2],"tree_param":{"num_deleted":"0","num_feature":"3","num_nodes":"75","size_leaf_vector":"1"}},{"base_weights":[-1.9625159E-6,1.20632E-4,-4.357884E-5,9.5181575E-4,8.34468E-5,7.3125685E-4,-4.9194477E-5,-4.1000333E-4,7.387504E-3,-6.884897E-5,2.1914819E-4,4.012406E-3,-4.4371022E-4,-1.5045467E-4,5.8817427E-6,-4.0812045E-4,-1.8652529E-5,-3.86139E-4,2.985583E-4,3.8208943E-3,-1.5050535E-5,3.1620413E-3,-1.527369E-4,1.9481779E-5,-4.1882097E-4,-9.0923667E-4,-1.12816866E-4,6.5744985E-5,-2.3360124E-4,-9.9115176E-5,-7.6700194E-4,3.342863E-4,-8.9001656E-4,7.32853E-4,1.2535378E-2,-5.991408E-4,2.7356663E-4,-1.0463325E-4,-4.5317635E-3,2.0813532E-4,-2.59635E-4,2.3635805E-5,8.2826905E-4,-7.5579286E-3,-1.19134325E-4,-1.2842915E-4,1.0701299E-4,-1.2001196E-3,-3.2901333E-4,5.587616E-5,2.8155462E-4,-1.7752685E-4,8.6457655E-4,-6.0141756E-4,-1.1815581E-5,8.978794E-3,-2.579482E-5,-3.8279693E-3,1.2101904E-3,-2.1341733E-5,2.3292213E-4,-9.755376E-4,-6.993562E-5,-6.683075E-5,5.496016E-5,2.21641E-3,2.1352305E-4,1.00426376E-4,-5.768873E-3,-2.9326323E-4,1.676489E-4],"categories":[],"categories_nodes":[],"categories_segments":[],"categories_sizes":[],"default_left":[0,0,0,0,0,0,0,0,0,0,0,0,0,0,0,0,0,0,0,0,0,0,0,0,0,0,0,0,0,0,0,0,0,0,0,0,0,0,0,0,0,0,0,0,0,0,0,0,0,0,0,0,0,0,0,0,0,0,0,0,0,0,0,0,0,0,0,0,0,0,0],"id":17,"left_children":[1,3,5,7,9,11,13,15,-1,17,19,21,23,25,27,-1,-1,29,31,33,35,-1,-1,-1,-1,37,39,41,43,45,47,49,-1,51,-1,53,55,-1,57,59,61,63,65,67,69,-1,-1,-1,-1,-1,-1,-1,-1,-1,-1,-1,-1,-1,-1,-1,-1,-1,-1,-1,-1,-1,-1,-1,-1,-1,-1],"loss_changes":[1.038769E-5,1.5868964E-5,6.6497937E-6,4.202009E-4,1.0245129E-5,4.418801E-5,8.422199E-6,3.1490356E-6,0E0,2.7393755E-5,2.210609E-4,3.187647E-5,1.743902E-6,1.5090751E-5,1.4050526E-5,0E0,0E0,1.3697889E-5,8.689809E-6,1.0315541E-3,4.1802792E-5,0E0,0E0,0E0,0E0,6.244317E-5,2.3991815E-5,2.5154086E-5,1.6342466E-4,3.6608722E-6,8.031635E-6,5.4365273E-6,0E0,1.6872164E-5,0E0,2.8460994E-5,9.554382E-4,0E0,1.0540915E-4,1.0362002E-5,7.042517E-5,1.01125E-5,5.740235E-5,9.4952964E-5,4.1401872E-5,0E0,0E0,0E0,0E0,0E0,0E0,0E0,0E0,0E0,0E0,0E0,0E0,0E0,0E0,0E0,0E0,0E0,0E0,0E0,0E0,0E0,0E0,0E0,0E0,0E0,0E0],"parents":[2147483647,0,0,1,1,2,2,3,3,4,4,5,5,6,6,7,7,9,9,10,10,11,11,12,12,13,13,14,14,17,17,18,18,19,19,20,20,25,25,26,26,27,27,28,28,29,29,30,30,31,31,33,33,35,35,36,36,38,38,39,39,40,40,41,41,42,42,43,43,44,44],"right_children":[2,4,6,8,10,12,14,16,-1,18,20,22,24,26,28,-1,-1,30,32,34,36,-1,-1,-1,-1,38,40,42,44,46,48,50,-1,52,-1,54,56,-1,58,60,62,64,66,68,70,-1,-1,-1,-1,-1,-1,-1,-1,-1,-1,-1,-1,-1,-1,-1,-1,-1,-1,-1,-1,-1,-1,-1,-1,-1,-1],"split_conditions":[1E0,3.2778796E-2,4.7E-3,2.95E-2,4.964E-1,2E0,2E0,1E0,7.387504E-3,1E0,5.306E-1,1E0,3.858566E-3,3.6550548E-2,7.717391E-1,-4.0812045E-4,-1.8652529E-5,2.7742925E-1,4.859E-1,5.263E-1,6.867657E-1,3.1620413E-3,-1.527369E-4,1.9481779E-5,-4.1882097E-4,2.95E-2,3.133E-1,7.361E-1,7.737E-1,1.895E-1,2.8387833E-1,3.133E-1,-8.9001656E-4,1E0,1.2535378E-2,1E0,6.895E-1,-1.0463325E-4,1E0,1E0,3.571E-1,2.8387833E-1,7.382568E-1,1E0,3E0,-1.2842915E-4,1.0701299E-4,-1.2001196E-3,-3.2901333E-4,5.587616E-5,2.8155462E-4,-1.7752685E-4,8.6457655E-4,-6.0141756E-4,-1.1815581E-5,8.978794E-3,-2.579482E-5,-3.8279693E-3,1.2101904E-3,-2.1341733E-5,2.3292213E-4,-9.755376E-4,-6.993562E-5,-6.683075E-5,5.496016E-5,2.21641E-3,2.1352305E-4,1.00426376E-4,-5.768873E-3,-2.9326323E-4,1.676489E-4],"split_indices":[1,2,2,2,2,1,1,0,0,0,2,0,2,2,2,0,0,2,2,2,2,0,0,0,0,2,2,2,2,2,2,2,0,0,0,0,2,0,0,0,2,2,2,0,1,0,0,0,0,0,0,0,0,0,0,0,0,0,0,0,0,0,0,0,0,0,0,0,0,0,0],"split_type":[0,0,0,0,0,0,0,0,0,0,0,0,0,0,0,0,0,0,0,0,0,0,0,0,0,0,0,0,0,0,0,0,0,0,0,0,0,0,0,0,0,0,0,0,0,0,0,0,0,0,0,0,0,0,0,0,0,0,0,0,0,0,0,0,0,0,0,0,0,0,0],"sum_hessian":[2.034E3,5.15E2,1.519E3,2.1E1,4.94E2,1E1,1.509E3,2E1,1E0,2.33E2,2.61E2,2E0,8E0,5.31E2,9.78E2,9E0,1.1E1,1.25E2,1.08E2,1.5E1,2.46E2,1E0,1E0,4E0,4E0,2.4E1,5.07E2,7.83E2,1.95E2,7.2E1,5.3E1,1.07E2,1E0,1.4E1,1E0,8.1E1,1.65E2,2.1E1,3E0,1.59E2,3.48E2,7.43E2,4E1,2E0,1.93E2,4.8E1,2.4E1,2E0,5.1E1,5.5E1,5.2E1,7E0,7E0,3.9E1,4.2E1,2E0,1.63E2,2E0,1E0,8.1E1,7.8E1,2.2E1,3.26E2,2.63E2,4.8E2,3E0,3.7E1,1E0,1E0,9.5E1,9.8E1],"tree_param":{"num_deleted":"0","num_feature":"3","num_nodes":"71","size_leaf_vector":"1"}},{"base_weights":[9.8775445E-6,1.1152006E-4,-2.4633913E-5,7.923042E-4,8.1037695E-5,8.2549275E-5,-8.480287E-5,-1.1266271E-4,5.5406317E-3,-4.341243E-5,1.918785E-4,9.371126E-6,6.679217E-3,-1.4976446E-3,-3.8316757E-5,-6.559478E-6,-1.0804087E-3,2.7368553E-3,2.6244867E-5,2.649361E-4,-2.4156447E-4,-4.480034E-4,6.977886E-3,-4.851516E-3,1.5497506E-3,5.8044792E-5,-1.4929769E-4,-2.7672882E-5,1.2123808E-3,4.1223766E-4,9.40153E-3,-3.0705915E-4,1.9073092E-4,-6.437204E-5,1.5186326E-3,8.290637E-5,-1.4782851E-3,3.8459897E-4,-5.5506825E-4,2.179994E-4,-1.2601122E-2,-8.2140166E-4,1.2888928E-2,5.3329347E-4,-4.74514E-5,-6.1642984E-4,8.797921E-5,-1.0062645E-4,8.5135856E-5,-9.985641E-5,4.863292E-4,2.9539933E-5,-3.7698005E-4,5.985866E-3,-1.2969099E-5,4.3872216E-5,-3.856103E-4,8.330424E-3,3.246378E-4,9.4095274E-5,-5.616538E-5,-6.222126E-3,-2.079339E-4,-6.2221073E-4,8.2463876E-4,-9.4955566E-4,-1.284304E-4,-3.733933E-4,1.00400895E-2,-4.9054623E-5,4.3583836E-4,-3.0848146E-3,1.357155E-5,-9.436657E-4,-2.0155334E-4,1.258047E-4,-1.3242982E-4],"categories":[],"categories_nodes":[],"categories_segments":[],"categories_sizes":[],"default_left":[0,0,0,0,0,0,0,0,0,0,0,0,0,0,0,0,0,0,0,0,0,0,0,0,0,0,0,0,0,0,0,0,0,0,0,0,0,0,0,0,0,0,0,0,0,0,0,0,0,0,0,0,0,0,0,0,0,0,0,0,0,0,0,0,0,0,0,0,0,0,0,0,0,0,0,0,0],"id":18,"left_children":[1,3,5,7,9,11,13,-1,-1,15,17,19,21,23,25,27,-1,29,31,33,35,37,-1,39,41,43,45,47,-1,49,-1,51,53,55,57,59,61,-1,-1,63,-1,65,67,69,71,73,75,-1,-1,-1,-1,-1,-1,-1,-1,-1,-1,-1,-1,-1,-1,-1,-1,-1,-1,-1,-1,-1,-1,-1,-1,-1,-1,-1,-1,-1,-1],"loss_changes":[7.141184E-6,1.064378E-5,9.809634E-6,2.3284458E-4,6.8364357E-6,2.6399174E-4,6.391252E-5,0E0,0E0,1.824546E-5,1.1037002E-4,3.482265E-5,3.174219E-4,3.2435637E-4,1.010408E-5,1.192513E-5,0E0,5.898132E-4,1.3600058E-5,1.1115508E-4,1.1007322E-4,4.077712E-6,0E0,1.5530192E-3,4.6766456E-4,2.5394587E-5,4.8712845E-5,7.93689E-6,0E0,5.3384983E-6,0E0,1.346203E-5,4.2403865E-4,2.3077659E-5,7.263662E-4,4.5022125E-6,6.5889955E-4,0E0,0E0,2.9263101E-5,0E0,8.638358E-6,3.0916912E-4,1.9741885E-5,1.8968999E-4,3.9363887E-5,1.6925285E-5,0E0,0E0,0E0,0E0,0E0,0E0,0E0,0E0,0E0,0E0,0E0,0E0,0E0,0E0,0E0,0E0,0E0,0E0,0E0,0E0,0E0,0E0,0E0,0E0,0E0,0E0,0E0,0E0,0E0,0E0],"parents":[2147483647,0,0,1,1,2,2,3,3,4,4,5,5,6,6,9,9,10,10,11,11,12,12,13,13,14,14,15,15,17,17,18,18,19,19,20,20,21,21,23,23,24,24,25,25,26,26,27,27,29,29,31,31,32,32,33,33,34,34,35,35,36,36,39,39,41,41,42,42,43,43,44,44,45,45,46,46],"right_children":[2,4,6,8,10,12,14,-1,-1,16,18,20,22,24,26,28,-1,30,32,34,36,38,-1,40,42,44,46,48,-1,50,-1,52,54,56,58,60,62,-1,-1,64,-1,66,68,70,72,74,76,-1,-1,-1,-1,-1,-1,-1,-1,-1,-1,-1,-1,-1,-1,-1,-1,-1,-1,-1,-1,-1,-1,-1,-1,-1,-1,-1,-1,-1,-1],"split_conditions":[1E0,3.2778796E-2,3.61E-1,2.95E-2,4.964E-1,3.571E-1,3.78E-1,-1.1266271E-4,5.5406317E-3,4.882E-1,5.306E-1,1E0,1E0,1E0,1E0,4.859E-1,-1.0804087E-3,5.263E-1,6.867657E-1,2.7742925E-1,2.7742925E-1,3E0,6.977886E-3,3.762207E-1,3.762207E-1,4.859E-1,2E0,1E0,1.2123808E-3,1E0,9.40153E-3,6.142E-1,6.895E-1,2.2457561E-1,2.8387833E-1,3E0,2.8387833E-1,3.8459897E-4,-5.5506825E-4,3.6767498E-1,-1.2601122E-2,3.6487433E-1,2E0,2E0,4.882E-1,4.911699E-1,7.717391E-1,-1.0062645E-4,8.5135856E-5,-9.985641E-5,4.863292E-4,2.9539933E-5,-3.7698005E-4,5.985866E-3,-1.2969099E-5,4.3872216E-5,-3.856103E-4,8.330424E-3,3.246378E-4,9.4095274E-5,-5.616538E-5,-6.222126E-3,-2.079339E-4,-6.2221073E-4,8.2463876E-4,-9.4955566E-4,-1.284304E-4,-3.733933E-4,1.00400895E-2,-4.9054623E-5,4.3583836E-4,-3.0848146E-3,1.357155E-5,-9.436657E-4,-2.0155334E-4,1.258047E-4,-1.3242982E-4],"split_indices":[1,2,2,2,2,2,2,0,0,2,2,0,0,0,0,2,0,2,2,2,2,1,0,2,2,2,1,0,0,0,0,2,2,2,2,1,2,0,0,2,0,2,1,1,2,2,2,0,0,0,0,0,0,0,0,0,0,0,0,0,0,0,0,0,0,0,0,0,0,0,0,0,0,0,0,0,0],"split_type":[0,0,0,0,0,0,0,0,0,0,0,0,0,0,0,0,0,0,0,0,0,0,0,0,0,0,0,0,0,0,0,0,0,0,0,0,0,0,0,0,0,0,0,0,0,0,0,0,0,0,0,0,0,0,0,0,0,0,0,0,0,0,0,0,0,0,0,0,0,0,0,0,0,0,0,0,0],"sum_hessian":[2.034E3,5.15E2,1.519E3,2.1E1,4.94E2,5.46E2,9.73E2,2E1,1E0,2.33E2,2.61E2,5.41E2,5E0,3E1,9.43E2,2.3E2,3E0,1.5E1,2.46E2,2.68E2,2.73E2,3E0,2E0,1.4E1,1.6E1,5.05E2,4.38E2,2.29E2,1E0,1.4E1,1E0,8.1E1,1.65E2,2.13E2,5.5E1,2.17E2,5.6E1,1E0,2E0,1.2E1,2E0,1.4E1,2E0,9.1E1,4.14E2,1.47E2,2.91E2,1.22E2,1.07E2,7E0,7E0,4.5E1,3.6E1,2E0,1.63E2,1.76E2,3.7E1,2E0,5.3E1,1.41E2,7.6E1,4E0,5.2E1,6E0,6E0,4E0,1E1,1E0,1E0,3.2E1,5.9E1,4E0,4.1E2,2E1,1.27E2,1.99E2,9.2E1],"tree_param":{"num_deleted":"0","num_feature":"3","num_nodes":"77","size_leaf_vector":"1"}},{"base_weights":[1.5772503E-5,9.6368756E-5,-1.1598181E-5,6.4286863E-4,7.188519E-5,-3.6532958E-5,2.5087156E-4,-5.9018534E-5,4.155472E-3,1.0657835E-4,-2.610747E-4,-1.667858E-5,-3.953972E-3,1.355317E-3,1.7661398E-5,9.046109E-5,1.8317774E-3,-6.1197206E-3,2.77463E-4,-3.5305777E-5,3.615668E-4,-1.5596737E-2,1.9112409E-3,1.2931973E-4,2.134221E-3,4.119873E-4,-4.6376942E-4,-2.1220018E-5,2.1159094E-4,-1.0188023E-3,-4.591517E-3,-3.285408E-4,6.0224225E-4,-1.5032094E-5,-5.099572E-4,2.2867902E-3,5.124091E-5,2.060011E-3,-1.3757564E-2,-4.0645152E-4,4.4647604E-4,4.6108365E-3,6.8249105E-4,8.230388E-4,1.3601748E-4,-1.2681657E-3,2.8333627E-5,9.4496585E-7,-6.752573E-4,9.9009E-4,3.4522935E-5,4.9102306E-4,-3.5326296E-4,8.9176744E-4,2.4817776E-4,-1.9919447E-5,2.5591606E-4,-2.0047012E-3,5.5013224E-6,1.2598335E-4,1.9321278E-3,1.4888112E-4,-1.9277314E-4,5.1534176E-4,3.327022E-3,6.0611067E-4,6.365031E-5,4.9374625E-4,6.195903E-5,-2.343942E-4,-1.4610091E-3,-2.5885756E-4,1.5003505E-4],"categories":[],"categories_nodes":[],"categories_segments":[],"categories_sizes":[],"default_left":[0,0,0,0,0,0,0,0,0,0,0,0,0,0,0,0,0,0,0,0,0,0,0,0,0,0,0,0,0,0,0,0,0,0,0,0,0,0,0,0,0,0,0,0,0,0,0,0,0,0,0,0,0,0,0,0,0,0,0,0,0,0,0,0,0,0,0,0,0,0,0,0,0],"id":19,"left_children":[1,3,5,7,9,11,13,-1,-1,15,17,19,21,23,25,27,-1,29,31,33,35,37,-1,39,41,43,45,47,49,-1,-1,51,53,55,57,59,61,-1,-1,-1,-1,63,65,67,-1,69,71,-1,-1,-1,-1,-1,-1,-1,-1,-1,-1,-1,-1,-1,-1,-1,-1,-1,-1,-1,-1,-1,-1,-1,-1,-1,-1],"loss_changes":[4.490276E-6,6.858005E-6,9.956993E-6,1.2934399E-4,5.745783E-6,1.0796814E-4,3.3975026E-5,0E0,0E0,2.540918E-5,1.4998777E-4,9.756901E-6,6.933942E-4,2.168749E-5,2.1073538E-5,6.0649963E-6,0E0,3.1307805E-5,8.857829E-6,1.2684982E-5,3.871686E-5,8.183391E-4,0E0,7.921001E-6,4.7188412E-5,3.2852895E-6,1.9828223E-5,7.191016E-6,5.406556E-5,0E0,0E0,8.619959E-6,2.7421438E-6,1.6566779E-5,9.8489916E-5,2.7915106E-5,6.2524105E-6,0E0,0E0,0E0,0E0,2.9716772E-5,2.7866954E-6,1.6022268E-6,0E0,2.3749184E-5,4.9035543E-6,0E0,0E0,0E0,0E0,0E0,0E0,0E0,0E0,0E0,0E0,0E0,0E0,0E0,0E0,0E0,0E0,0E0,0E0,0E0,0E0,0E0,0E0,0E0,0E0,0E0,0E0],"parents":[2147483647,0,0,1,1,2,2,3,3,4,4,5,5,6,6,9,9,10,10,11,11,12,12,13,13,14,14,15,15,17,17,18,18,19,19,20,20,21,21,23,23,24,24,25,25,26,26,27,27,28,28,31,31,32,32,33,33,34,34,35,35,36,36,41,41,42,42,43,43,45,45,46,46],"right_children":[2,4,6,8,10,12,14,-1,-1,16,18,20,22,24,26,28,-1,30,32,34,36,38,-1,40,42,44,46,48,50,-1,-1,52,54,56,58,60,62,-1,-1,-1,-1,64,66,68,-1,70,72,-1,-1,-1,-1,-1,-1,-1,-1,-1,-1,-1,-1,-1,-1,-1,-1,-1,-1,-1,-1,-1,-1,-1,-1,-1,-1],"split_conditions":[1E0,3.2778796E-2,9.11E-1,2.95E-2,9.11E-1,9.052136E-1,9.187E-1,-5.9018534E-5,4.155472E-3,9.052136E-1,9.187E-1,8.5156685E-1,3E0,9.151405E-1,1E0,4.964E-1,1.8317774E-3,1E0,1E0,8.177766E-1,8.615E-1,2E0,1.9112409E-3,2E0,2E0,9.4057053E-1,9.4057053E-1,4.882E-1,5.306E-1,-1.0188023E-3,-4.591517E-3,9.23E-1,9.23E-1,7.771E-1,8.203E-1,1E0,1E0,2.060011E-3,-1.3757564E-2,-4.0645152E-4,4.4647604E-4,1E0,1E0,3E0,1.3601748E-4,9.347E-1,2E0,9.4496585E-7,-6.752573E-4,9.9009E-4,3.4522935E-5,4.9102306E-4,-3.5326296E-4,8.9176744E-4,2.4817776E-4,-1.9919447E-5,2.5591606E-4,-2.0047012E-3,5.5013224E-6,1.2598335E-4,1.9321278E-3,1.4888112E-4,-1.9277314E-4,5.1534176E-4,3.327022E-3,6.0611067E-4,6.365031E-5,4.9374625E-4,6.195903E-5,-2.343942E-4,-1.4610091E-3,-2.5885756E-4,1.5003505E-4],"split_indices":[1,2,2,2,2,2,2,0,0,2,2,2,1,2,0,2,0,0,0,2,2,1,0,1,1,2,2,2,2,0,0,2,2,2,2,0,0,0,0,0,0,0,0,1,0,2,1,0,0,0,0,0,0,0,0,0,0,0,0,0,0,0,0,0,0,0,0,0,0,0,0,0,0],"split_type":[0,0,0,0,0,0,0,0,0,0,0,0,0,0,0,0,0,0,0,0,0,0,0,0,0,0,0,0,0,0,0,0,0,0,0,0,0,0,0,0,0,0,0,0,0,0,0,0,0,0,0,0,0,0,0,0,0,0,0,0,0,0,0,0,0,0,0,0,0,0,0,0,0],"sum_hessian":[2.034E3,5.15E2,1.519E3,2.1E1,4.94E2,1.388E3,1.31E2,2E1,1E0,4.48E2,4.6E1,1.382E3,6E0,2.2E1,1.09E2,4.47E2,1E0,3E0,4.3E1,1.318E3,6.4E1,2E0,4E0,9E0,1.3E1,6E1,4.9E1,2.33E2,2.14E2,2E0,1E0,1.5E1,2.8E1,1.265E3,5.3E1,8E0,5.6E1,1E0,1E0,4E0,5E0,4E0,9E0,1.4E1,4.6E1,1.8E1,3.1E1,2.3E2,3E0,1.5E1,1.99E2,3E0,1.2E1,1E0,2.7E1,1.209E3,5.6E1,6E0,4.7E1,4E0,4E0,3.6E1,2E1,2E0,2E0,4E0,5E0,1.1E1,3E0,1.3E1,5E0,1E1,2.1E1],"tree_param":{"num_deleted":"0","num_feature":"3","num_nodes":"73","size_leaf_vector":"1"}}]},"name":"gbtree"},"learner_model_param":{"base_score":"3.7796846E-1","boost_from_average":"1","num_class":"0","num_feature":"3","num_target":"1"},"objective":{"name":"reg:squarederror","reg_loss_param":{"scale_pos_weight":"1"}}},"version":[2,1,1]}