{"learner":{"attributes":{},"feature_names":[],"feature_types":[],"gradient_booster":{"model":{"gbtree_model_param":{"num_parallel_tree":"1","num_trees":"20"},"iteration_indptr":[0,1,2,3,4,5,6,7,8,9,10,11,12,13,14,15,16,17,18,19,20],"tree_info":[0,0,0,0,0,0,0,0,0,0,0,0,0,0,0,0,0,0,0,0],"trees":[{"base_weights":[-2.916003E-8,5.0959833E-2,-6.420843E-2],"categories":[],"categories_nodes":[],"categories_segments":[],"categories_sizes":[],"default_left":[0,0,0],"id":0,"left_children":[1,-1,-1],"loss_changes":[3.0377722E1,0E0,0E0],"parents":[2147483647,0,0],"right_children":[2,-1,-1],"split_conditions":[1E0,5.0959833E-2,-6.420843E-2],"split_indices":[0,0,0],"split_type":[0,0,0],"sum_hessian":[2.319E3,1.293E3,1.026E3],"tree_param":{"num_deleted":"0","num_feature":"2","num_nodes":"3","size_leaf_vector":"1"}},{"base_weights":[-5.713131E-6,5.0999224E-2,-3.2135468E-2,2.5646107E-2,4.387114E-2,5.9169615E-3,2.3670081E-2],"categories":[],"categories_nodes":[],"categories_segments":[],"categories_sizes":[],"default_left":[0,0,0,0,0,0,0],"id":1,"left_children":[1,3,-1,-1,5,-1,-1],"loss_changes":[7.607875E0,4.5228004E-4,0E0,0E0,5.8857873E-3,0E0,0E0],"parents":[2147483647,0,0,1,1,4,4],"right_children":[2,4,-1,-1,6,-1,-1],"split_conditions":[1E0,9.322387E2,-3.2135468E-2,2.5646107E-2,9.35945E2,5.9169615E-3,2.3670081E-2],"split_indices":[0,1,0,0,1,0,0],"split_type":[0,0,0,0,0,0,0],"sum_hessian":[2.319E3,1.293E3,1.026E3,1.236E3,5.7E1,6E0,5.1E1],"tree_param":{"num_deleted":"0","num_feature":"2","num_nodes":"7","size_leaf_vector":"1"}},{"base_weights":[7.116923E-6,2.5542311E-2,-1.6083369E-2,2.598479E-2,2.4066357E-2,2.443085E-2,1.3257791E-2,-2.7644038E-3,2.4763718E-2,2.5294056E-2,-1.2584681E-2,2.2740157E-2,2.5788598E-2,2.6058411E-2,1.9269725E-2,2.4698326E-2,-2.7792826E-3,1.3503356E-2,2.2445694E-2,1.1432887E-2,1.3521765E-2,-8.228664E-3,1.3118659E-2,1.3428527E-2,9.094653E-3,8.283659E-3,1.4076131E-2],"categories":[],"categories_nodes":[],"categories_segments":[],"categories_sizes":[],"default_left":[0,0,0,0,0,0,0,0,0,0,0,0,0,0,0,0,0,0,0,0,0,0,0,0,0,0,0],"id":2,"left_children":[1,3,-1,5,7,9,-1,-1,11,13,-1,15,17,19,21,23,-1,-1,25,-1,-1,-1,-1,-1,-1,-1,-1],"loss_changes":[1.906854E0,2.1982193E-4,0E0,1.629591E-4,6.576121E-3,1.18970275E-2,0E0,0E0,4.6104193E-5,6.905049E-4,0E0,6.2882043E-3,1.8787384E-4,9.556115E-5,8.646539E-3,9.7281486E-4,0E0,0E0,1.4792252E-3,0E0,0E0,0E0,0E0,0E0,0E0,0E0,0E0],"parents":[2147483647,0,0,1,1,3,3,4,4,5,5,8,8,9,9,11,11,12,12,13,13,14,14,15,15,18,18],"right_children":[2,4,-1,6,8,10,-1,-1,12,14,-1,16,18,20,22,24,-1,-1,26,-1,-1,-1,-1,-1,-1,-1,-1],"split_conditions":[1E0,6.925434E2,-1.6083369E-2,2.16788E2,6.9732465E2,2.1180673E2,1.3257791E-2,-2.7644038E-3,8.135372E2,1.8663344E2,-1.2584681E-2,8.04406E2,9.322387E2,5.6022804E1,1.8855457E2,7.667242E2,-2.7792826E-3,1.3503356E-2,9.664252E2,1.1432887E-2,1.3521765E-2,-8.228664E-3,1.3118659E-2,1.3428527E-2,9.094653E-3,8.283659E-3,1.4076131E-2],"split_indices":[0,1,0,1,1,1,0,0,1,1,0,1,1,1,1,1,0,0,1,0,0,0,0,0,0,0,0],"split_type":[0,0,0,0,0,0,0,0,0,0,0,0,0,0,0,0,0,0,0,0,0,0,0,0,0,0,0],"sum_hessian":[2.319E3,1.293E3,1.026E3,9.82E2,3.11E2,2.62E2,7.2E2,7E0,3.04E2,2.58E2,4E0,1.1E2,1.94E2,2.26E2,3.2E1,1.03E2,7E0,1.37E2,5.7E1,5.9E1,1.67E2,5E0,2.7E1,7.5E1,2.8E1,3E1,2.7E1],"tree_param":{"num_deleted":"0","num_feature":"2","num_nodes":"27","size_leaf_vector":"1"}},{"base_weights":[3.2547217E-5,1.2835566E-2,-1.609904E-2,1.29341325E-2,8.802392E-3,-1.6468437E-2,-1.4126183E-2,1.2818642E-2,9.904472E-3,-7.7805007E-3,7.2894343E-3,-1.599489E-2,-9.146808E-3,1.1886711E-2,-1.5426619E-2,1.2882731E-2,-1.6902175E-4,-1.6322888E-2,1.610284E-2,-7.3123234E-3,-9.12489E-3,7.758539E-3,1.2747023E-2,-1.6601931E-2,-8.280914E-3,-1.2228502E-2,2.2453293E-2,-1.7155027E-2,6.4679678E-3,-8.115727E-3,-9.12022E-3,1.1884376E-2,-8.740884E-3,-8.9041265E-3,2.303966E-3],"categories":[],"categories_nodes":[],"categories_segments":[],"categories_sizes":[],"default_left":[0,0,0,0,0,0,0,0,0,0,0,0,0,0,0,0,0,0,0,0,0,0,0,0,0,0,0,0,0,0,0,0,0,0,0],"id":3,"left_children":[1,3,5,7,9,11,13,15,-1,-1,-1,17,-1,-1,19,21,-1,23,-1,25,-1,-1,27,29,31,33,-1,-1,-1,-1,-1,-1,-1,-1,-1],"loss_changes":[4.7936323E-1,4.0057302E-4,5.157888E-4,7.4727833E-4,5.011837E-3,4.4985116E-4,8.696079E-3,1.052469E-3,0E0,0E0,0E0,1.1434436E-2,0E0,0E0,3.6234595E-3,2.4442375E-4,0E0,1.401931E-3,0E0,1.18447095E-2,0E0,0E0,1.09514E-2,1.0578334E-4,7.787627E-3,3.933727E-3,0E0,0E0,0E0,0E0,0E0,0E0,0E0,0E0,0E0],"parents":[2147483647,0,0,1,1,2,2,3,3,4,4,5,5,6,6,7,7,11,11,14,14,15,15,17,17,19,19,22,22,23,23,24,24,25,25],"right_children":[2,4,6,8,10,12,14,16,-1,-1,-1,18,-1,-1,20,22,-1,24,-1,26,-1,-1,28,30,32,34,-1,-1,-1,-1,-1,-1,-1,-1,-1],"split_conditions":[1E0,9.61624E2,8.252101E2,9.35945E2,9.664252E2,6.472664E2,8.2961975E2,9.322387E2,9.904472E-3,-7.7805007E-3,7.2894343E-3,6.453404E2,-9.146808E-3,1.1886711E-2,8.618957E2,5.1896E1,-1.6902175E-4,6.307504E2,1.610284E-2,8.557984E2,-9.12489E-3,7.758539E-3,5.6022804E1,5.358815E2,6.336486E2,8.4348267E2,2.2453293E-2,-1.7155027E-2,6.4679678E-3,-8.115727E-3,-9.12022E-3,1.1884376E-2,-8.740884E-3,-8.9041265E-3,2.303966E-3],"split_indices":[0,1,1,1,1,1,1,1,0,0,0,1,0,0,1,1,0,1,0,1,0,0,1,1,1,1,0,0,0,0,0,0,0,0,0],"split_type":[0,0,0,0,0,0,0,0,0,0,0,0,0,0,0,0,0,0,0,0,0,0,0,0,0,0,0,0,0,0,0,0,0,0,0],"sum_hessian":[2.319E3,1.293E3,1.026E3,1.26E3,3.3E1,8.58E2,1.68E2,1.242E3,1.8E1,6E0,2.7E1,6.89E2,1.69E2,5E0,1.63E2,1.236E3,6E0,6.85E2,4E0,4.3E1,1.2E2,5.5E1,1.181E3,6.61E2,2.4E1,4E1,3E0,4E0,1.177E3,5.48E2,1.13E2,5E0,1.9E1,3E1,1E1],"tree_param":{"num_deleted":"0","num_feature":"2","num_nodes":"35","size_leaf_vector":"1"}},{"base_weights":[2.3953515E-5,6.4226906E-3,-8.038354E-3,6.472491E-3,4.3867705E-3,-5.0795814E-3,-7.848466E-3,6.406856E-3,5.2128937E-3,-4.446004E-3,3.7748974E-3,1.2345352E-2,-8.082181E-3,6.439025E-3,-9.657656E-5,-5.102258E-3,-7.744563E-3,3.948533E-3,6.364499E-3,1.2351351E-2,-8.01541E-3,-1.0293007E-2,3.2367436E-3,-5.085289E-3,-3.869322E-3],"categories":[],"categories_nodes":[],"categories_segments":[],"categories_sizes":[],"default_left":[0,0,0,0,0,0,0,0,0,0,0,0,0,0,0,0,0,0,0,0,0,0,0,0,0],"id":4,"left_children":[1,3,5,7,9,-1,11,13,-1,-1,-1,-1,15,17,-1,-1,19,-1,21,-1,23,-1,-1,-1,-1],"loss_changes":[1.1973714E-1,1.0280684E-4,3.3386052E-4,2.6040897E-4,1.4951702E-3,0E0,7.4013807E-3,2.6514754E-4,0E0,0E0,0E0,0E0,5.9523433E-4,8.415803E-5,0E0,0E0,7.369213E-3,0E0,3.6051385E-3,0E0,4.0443987E-4,0E0,0E0,0E0,0E0],"parents":[2147483647,0,0,1,1,2,2,3,3,4,4,6,6,7,7,12,12,13,13,16,16,18,18,20,20],"right_children":[2,4,6,8,10,-1,12,14,-1,-1,-1,-1,16,18,-1,-1,20,-1,22,-1,24,-1,-1,-1,-1],"split_conditions":[1E0,9.61624E2,7.9580894E1,9.35945E2,9.664252E2,-5.0795814E-3,8.46009E1,9.322387E2,5.2128937E-3,-4.446004E-3,3.7748974E-3,1.2345352E-2,1.987064E2,5.1896E1,-9.657656E-5,-5.102258E-3,2.050521E2,3.948533E-3,5.6022804E1,1.2351351E-2,2.8676794E2,-1.0293007E-2,3.2367436E-3,-5.085289E-3,-3.869322E-3],"split_indices":[0,1,1,1,1,0,1,1,0,0,0,0,1,1,0,0,1,0,1,0,1,0,0,0,0],"split_type":[0,0,0,0,0,0,0,0,0,0,0,0,0,0,0,0,0,0,0,0,0,0,0,0,0],"sum_hessian":[2.319E3,1.293E3,1.026E3,1.26E3,3.3E1,8E1,9.46E2,1.242E3,1.8E1,6E0,2.7E1,6E0,9.4E2,1.236E3,6E0,1.25E2,8.15E2,5.5E1,1.181E3,6E0,8.09E2,4E0,1.177E3,8.8E1,7.21E2],"tree_param":{"num_deleted":"0","num_feature":"2","num_nodes":"25","size_leaf_vector":"1"}},{"base_weights":[1.4929139E-5,3.2123558E-3,-4.0137805E-3,2.9311134E-3,3.496053E-3,-3.8293602E-3,-2.6814996E-3,3.2780746E-3,-1.2791242E-2,2.1153593E-3,2.7125068E-3,-3.9790976E-3,1.5484288E-2,2.9614116E-3,2.1097516E-3,-5.8007874E-3,3.0790647E-3,-4.097813E-3,6.030966E-3,3.434493E-3,-2.1759873E-2,1.3153323E-3,3.6897704E-3,-4.187595E-3,-1.8416825E-3,1.2543604E-2,-7.0152185E-3,1.3797707E-3,2.1075553E-3,2.0141103E-3,-2.009182E-2,4.0405164E-3,1.5640155E-3,-1.947066E-3,-2.6770378E-3,8.546119E-3,-2.7234515E-3],"categories":[],"categories_nodes":[],"categories_segments":[],"categories_sizes":[],"default_left":[0,0,0,0,0,0,0,0,0,0,0,0,0,0,0,0,0,0,0,0,0,0,0,0,0,0,0,0,0,0,0,0,0,0,0,0,0],"id":5,"left_children":[1,3,5,7,9,11,-1,13,-1,-1,15,17,-1,19,-1,-1,21,23,25,27,-1,29,31,33,35,-1,-1,-1,-1,-1,-1,-1,-1,-1,-1,-1,-1],"loss_changes":[2.989798E-2,9.299815E-5,2.3500621E-4,6.5737376E-3,3.5636034E-4,4.849191E-3,0E0,1.8098159E-4,0E0,0E0,1.6727669E-3,1.0989811E-3,0E0,1.0902267E-2,0E0,0E0,3.2366882E-4,1.7337687E-4,4.5572286E-3,2.4390453E-4,0E0,9.168435E-3,5.3220685E-4,2.7320255E-4,2.5504944E-3,0E0,0E0,0E0,0E0,0E0,0E0,0E0,0E0,0E0,0E0,0E0,0E0],"parents":[2147483647,0,0,1,1,2,2,3,3,4,4,5,5,7,7,10,10,11,11,13,13,16,16,17,17,18,18,19,19,21,21,22,22,23,23,24,24],"right_children":[2,4,6,8,10,12,-1,14,-1,-1,16,18,-1,20,-1,-1,22,24,26,28,-1,30,32,34,36,-1,-1,-1,-1,-1,-1,-1,-1,-1,-1,-1,-1],"split_conditions":[1E0,4.99045E2,8.618957E2,4.930808E2,6.925434E2,8.557984E2,-2.6814996E-3,3.791074E2,-1.2791242E-2,2.1153593E-3,6.9732465E2,8.4348267E2,1.5484288E-2,3.7505E2,2.1097516E-3,-5.8007874E-3,7.79433E2,8.252101E2,8.497206E2,2.16788E2,-2.1759873E-2,7.667242E2,8.04406E2,6.472664E2,8.2961975E2,1.2543604E-2,-7.0152185E-3,1.3797707E-3,2.1075553E-3,2.0141103E-3,-2.009182E-2,4.0405164E-3,1.5640155E-3,-1.947066E-3,-2.6770378E-3,8.546119E-3,-2.7234515E-3],"split_indices":[0,1,1,1,1,1,0,1,0,0,1,1,0,1,0,0,1,1,1,1,0,1,1,1,1,0,0,0,0,0,0,0,0,0,0,0,0],"split_type":[0,0,0,0,0,0,0,0,0,0,0,0,0,0,0,0,0,0,0,0,0,0,0,0,0,0,0,0,0,0,0,0,0,0,0,0,0],"sum_hessian":[2.319E3,1.293E3,1.026E3,6.55E2,6.38E2,9.06E2,1.2E2,6.48E2,7E0,3.27E2,3.11E2,9.03E2,3E0,4.88E2,1.6E2,7E0,3.04E2,8.93E2,1E1,4.84E2,4E0,7.9E1,2.25E2,8.58E2,3.5E1,5E0,5E0,2.62E2,2.22E2,7.5E1,4E0,2.4E1,2.01E2,6.89E2,1.69E2,5E0,3E1],"tree_param":{"num_deleted":"0","num_feature":"2","num_nodes":"37","size_leaf_vector":"1"}},{"base_weights":[-3.5756877E-6,1.5713047E-3,-1.9878908E-3,2.2729742E-3,1.4206958E-3,-2.4285952E-3,-1.4923152E-3,1.3650358E-3,1.2918542E-3,-9.4185965E-3,1.533703E-3,-1.8356706E-3,-2.216736E-3,1.2708321E-2,-1.9386187E-3,1.3319583E-3,-6.727719E-3,-1.2089703E-3,1.617261E-3,-2.3846647E-3,3.763471E-2,-1.7174487E-3,-1.4672679E-3,1.4492677E-3,-1.1984604E-2,1.0585005E-3,1.4776817E-3,-1.6491275E-3,-2.2145887E-3,9.356022E-3,-1.7985936E-3,-1.3055926E-2,8.2349963E-4,-1.1940601E-3,2.7648047E-2,9.757206E-4,-1.0297735E-3],"categories":[],"categories_nodes":[],"categories_segments":[],"categories_sizes":[],"default_left":[0,0,0,0,0,0,0,0,0,0,0,0,0,0,0,0,0,0,0,0,0,0,0,0,0,0,0,0,0,0,0,0,0,0,0,0,0],"id":6,"left_children":[1,3,5,7,9,11,13,15,-1,-1,17,19,-1,-1,21,-1,-1,23,25,27,-1,-1,29,-1,-1,-1,31,33,-1,-1,35,-1,-1,-1,-1,-1,-1],"loss_changes":[7.2532604E-3,1.3351766E-4,2.2067502E-4,6.0515944E-5,2.4738493E-3,6.3615944E-4,5.8859196E-3,1.1908462E-3,0E0,0E0,2.4556532E-4,1.7958198E-2,0E0,0E0,3.327853E-4,0E0,0E0,3.0610857E-3,6.88571E-5,6.2129064E-4,0E0,0E0,2.480704E-3,0E0,0E0,0E0,3.8268354E-3,1.3135423E-2,0E0,0E0,3.5728794E-4,0E0,0E0,0E0,0E0,0E0,0E0],"parents":[2147483647,0,0,1,1,2,2,3,3,4,4,5,5,6,6,7,7,10,10,11,11,14,14,17,17,18,18,19,19,22,22,26,26,27,27,30,30],"right_children":[2,4,6,8,10,12,14,16,-1,-1,18,20,-1,-1,22,-1,-1,24,26,28,-1,-1,30,-1,-1,-1,32,34,-1,-1,36,-1,-1,-1,-1,-1,-1],"split_conditions":[1E0,1.8663344E2,5.277698E2,5.6022804E1,1.8855457E2,4.122269E2,5.358815E2,5.1896E1,1.2918542E-3,-9.4185965E-3,2.16788E2,4.102689E2,-2.216736E-3,1.2708321E-2,6.307504E2,1.3319583E-3,-6.727719E-3,2.1180673E2,3.7505E2,2.907678E2,3.763471E-2,-1.7174487E-3,6.336486E2,1.4492677E-3,-1.1984604E-2,1.0585005E-3,3.791074E2,2.8676794E2,-2.2145887E-3,9.356022E-3,6.472664E2,-1.3055926E-2,8.2349963E-4,-1.1940601E-3,2.7648047E-2,9.757206E-4,-1.0297735E-3],"split_indices":[0,1,1,1,1,1,1,1,0,0,1,1,0,0,1,0,0,1,1,1,0,0,1,0,0,0,1,1,0,0,1,0,0,0,0,0,0],"split_type":[0,0,0,0,0,0,0,0,0,0,0,0,0,0,0,0,0,0,0,0,0,0,0,0,0,0,0,0,0,0,0,0,0,0,0,0,0],"sum_hessian":[2.319E3,1.293E3,1.026E3,2.26E2,1.067E3,5.41E2,4.85E2,5.9E1,1.67E2,5E0,1.062E3,4.19E2,1.22E2,7E0,4.78E2,5.5E1,4E0,3.1E1,1.031E3,4.17E2,2E0,1.13E2,3.65E2,2.7E1,4E0,2.22E2,8.09E2,3.08E2,1.09E2,5E0,3.6E2,4E0,8.05E2,3.05E2,3E0,2.3E1,3.37E2],"tree_param":{"num_deleted":"0","num_feature":"2","num_nodes":"37","size_leaf_vector":"1"}},{"base_weights":[1.7488439E-5,7.584195E-4,-9.160873E-4,6.543325E-4,1.3416874E-3,-1.01999E-3,-8.189897E-4,7.588516E-4,-6.8536885E-3,1.6451405E-3,-1.4363843E-4,8.400666E-3,-9.491951E-4,6.9610466E-4,1.7057789E-3,1.4252117E-3,1.6126916E-3,-3.5637873E-3,8.037378E-4,-1.013279E-3,-7.816744E-4,8.150054E-4,-1.2384486E-2,7.9829106E-4,-1.0784183E-3,8.404111E-3,-9.327208E-4,3.0942156E-4,5.634386E-4,-1.0183072E-3,-3.976767E-4],"categories":[],"categories_nodes":[],"categories_segments":[],"categories_sizes":[],"default_left":[0,0,0,0,0,0,0,0,0,0,0,0,0,0,0,0,0,0,0,0,0,0,0,0,0,0,0,0,0,0,0],"id":7,"left_children":[1,3,5,7,9,-1,11,13,-1,15,17,-1,19,21,-1,23,-1,-1,-1,-1,25,27,-1,-1,-1,-1,29,-1,-1,-1,-1],"loss_changes":[1.605474E-3,7.7681616E-5,1.10402994E-4,1.6615817E-3,8.812797E-5,0E0,2.1886125E-3,1.7955428E-4,0E0,5.1704817E-5,4.2726612E-4,0E0,1.6824802E-4,3.2569226E-3,0E0,9.1839E-5,0E0,0E0,0E0,0E0,2.1837E-3,6.44566E-5,0E0,0E0,0E0,0E0,1.2120773E-4,0E0,0E0,0E0,0E0],"parents":[2147483647,0,0,1,1,2,2,3,3,4,4,6,6,7,7,9,9,10,10,12,12,13,13,15,15,20,20,21,21,26,26],"right_children":[2,4,6,8,10,-1,12,14,-1,16,18,-1,20,22,-1,24,-1,-1,-1,-1,26,28,-1,-1,-1,-1,30,-1,-1,-1,-1],"split_conditions":[1E0,8.135372E2,7.9580894E1,8.04406E2,9.61624E2,-1.01999E-3,8.46009E1,7.79433E2,-6.8536885E-3,9.35945E2,9.664252E2,8.400666E-3,1.987064E2,7.667242E2,1.7057789E-3,9.322387E2,1.6126916E-3,-3.5637873E-3,8.037378E-4,-1.013279E-3,2.050521E2,4.99045E2,-1.2384486E-2,7.9829106E-4,-1.0784183E-3,8.404111E-3,2.8676794E2,3.0942156E-4,5.634386E-4,-1.0183072E-3,-3.976767E-4],"split_indices":[0,1,1,1,1,0,1,1,0,1,1,0,1,1,0,1,0,0,0,0,1,1,0,0,0,0,1,0,0,0,0],"split_type":[0,0,0,0,0,0,0,0,0,0,0,0,0,0,0,0,0,0,0,0,0,0,0,0,0,0,0,0,0,0,0],"sum_hessian":[2.319E3,1.293E3,1.026E3,1.099E3,1.94E2,8E1,9.46E2,1.092E3,7E0,1.61E2,3.3E1,6E0,9.4E2,1.068E3,2.4E1,1.43E2,1.8E1,6E0,2.7E1,1.25E2,8.15E2,1.064E3,4E0,1.37E2,6E0,6E0,8.09E2,6.55E2,4.09E2,8.8E1,7.21E2],"tree_param":{"num_deleted":"0","num_feature":"2","num_nodes":"31","size_leaf_vector":"1"}},{"base_weights":[6.7106093E-6,3.6523966E-4,-4.4503555E-4,8.103443E-4,2.702921E-4,-3.320887E-4,-6.439962E-4,2.8831165E-4,4.9598055E-4,-5.623097E-3,3.3504152E-4,-4.2357118E-4,1.0212988E-2,5.2591733E-4,-4.160404E-3,-1.2334716E-3,3.8335292E-4,-4.8756346E-4,4.815763E-3,6.013257E-4,-7.314533E-3,6.443174E-4,2.2642319E-4,-9.7417134E-5,-6.924571E-4,7.911876E-3,-3.4974266E-3,1.9567902E-4,4.984862E-4,-7.6907314E-3,2.1073637E-4,-2.7701832E-4,1.7429166E-2,-9.203163E-4,-2.1311347E-4],"categories":[],"categories_nodes":[],"categories_segments":[],"categories_sizes":[],"default_left":[0,0,0,0,0,0,0,0,0,0,0,0,0,0,0,0,0,0,0,0,0,0,0,0,0,0,0,0,0,0,0,0,0,0,0],"id":8,"left_children":[1,3,5,7,9,11,-1,13,-1,-1,15,17,-1,-1,-1,19,21,23,25,-1,-1,27,29,31,33,-1,-1,-1,-1,-1,-1,-1,-1,-1,-1],"loss_changes":[3.759193E-4,5.446747E-5,9.7352255E-5,2.1235872E-5,8.0016034E-4,1.7310441E-3,0E0,4.031478E-4,0E0,0E0,8.10239E-5,3.0543836E-4,0E0,0E0,0E0,1.0618597E-3,4.2117696E-5,7.1397546E-5,1.5408073E-3,0E0,0E0,3.4133103E-5,1.973108E-3,4.951409E-3,1.783433E-4,0E0,0E0,0E0,0E0,0E0,0E0,0E0,0E0,0E0,0E0],"parents":[2147483647,0,0,1,1,2,2,3,3,4,4,5,5,7,7,10,10,11,11,15,15,16,16,17,17,18,18,21,21,22,22,23,23,24,24],"right_children":[2,4,6,8,10,12,-1,14,-1,-1,16,18,-1,-1,-1,20,22,24,26,-1,-1,28,30,32,34,-1,-1,-1,-1,-1,-1,-1,-1,-1,-1],"split_conditions":[1E0,1.8663344E2,8.618957E2,5.6022804E1,1.8855457E2,8.557984E2,-6.439962E-4,5.1896E1,4.9598055E-4,-5.623097E-3,2.16788E2,8.4348267E2,1.0212988E-2,5.2591733E-4,-4.160404E-3,2.1180673E2,4.930808E2,2.907678E2,8.497206E2,6.013257E-4,-7.314533E-3,3.791074E2,4.99045E2,2.8676794E2,4.102689E2,7.911876E-3,-3.4974266E-3,1.9567902E-4,4.984862E-4,-7.6907314E-3,2.1073637E-4,-2.7701832E-4,1.7429166E-2,-9.203163E-4,-2.1311347E-4],"split_indices":[0,1,1,1,1,1,0,1,0,0,1,1,0,0,0,1,1,1,1,0,0,1,1,1,1,0,0,0,0,0,0,0,0,0,0],"split_type":[0,0,0,0,0,0,0,0,0,0,0,0,0,0,0,0,0,0,0,0,0,0,0,0,0,0,0,0,0,0,0,0,0,0,0],"sum_hessian":[2.319E3,1.293E3,1.026E3,2.26E2,1.067E3,9.06E2,1.2E2,5.9E1,1.67E2,5E0,1.062E3,9.03E2,3E0,5.5E1,4E0,3.1E1,1.031E3,8.93E2,1E1,2.7E1,4E0,3.86E2,6.45E2,3.08E2,5.85E2,5E0,5E0,2.26E2,1.6E2,7E0,6.38E2,3.05E2,3E0,1.09E2,4.76E2],"tree_param":{"num_deleted":"0","num_feature":"2","num_nodes":"35","size_leaf_vector":"1"}},{"base_weights":[6.6820917E-6,1.6540723E-4,-1.9331499E-4,2.570533E-4,-1.2386686E-4,1.2312262E-4,-4.115888E-4,1.2070431E-4,2.644838E-4,-3.9619394E-3,8.1129736E-5,-2.393513E-4,2.529339E-2,-8.1446744E-4,-1.0264815E-4,2.2865737E-4,-4.326038E-3,-5.743842E-4,4.5385238E-4,6.823671E-6,-4.6435161E-4,7.4156485E-3,-3.5185256E-4,1.383269E-4,2.5079746E-4,-5.751848E-6,-3.9474033E-3,6.213435E-4,-3.5754195E-4,-2.7789964E-4,1.0893226E-2,-5.6355173E-4,-1.09419634E-4,1.5257504E-4,-8.035595E-3,-2.4931543E-4,7.858455E-4,2.506841E-4,7.4896374E-4,-2.1267873E-3,3.146178E-4,-4.075112E-5,-3.7792022E-4,5.7121664E-3,-1.5040663E-4],"categories":[],"categories_nodes":[],"categories_segments":[],"categories_sizes":[],"default_left":[0,0,0,0,0,0,0,0,0,0,0,0,0,0,0,0,0,0,0,0,0,0,0,0,0,0,0,0,0,0,0,0,0,0,0,0,0,0,0,0,0,0,0,0,0],"id":9,"left_children":[1,3,5,7,9,11,13,15,-1,-1,17,19,-1,-1,21,23,-1,25,27,29,-1,-1,31,33,-1,35,-1,37,39,41,-1,-1,43,-1,-1,-1,-1,-1,-1,-1,-1,-1,-1,-1,-1],"loss_changes":[7.3679366E-5,3.4336856E-5,7.09856E-5,3.6381112E-5,4.9952336E-4,7.6946467E-3,2.2849413E-4,6.232422E-4,0E0,0E0,7.4779775E-5,7.094143E-5,0E0,0E0,1.8139186E-3,1.5931437E-5,0E0,4.620064E-4,2.6722912E-5,1.9222152E-3,0E0,0E0,8.990297E-5,1.3272204E-3,0E0,8.16425E-5,0E0,1.628627E-5,1.333901E-4,2.8661494E-5,0E0,0E0,8.1137667E-4,0E0,0E0,0E0,0E0,0E0,0E0,0E0,0E0,0E0,0E0,0E0,0E0],"parents":[2147483647,0,0,1,1,2,2,3,3,4,4,5,5,6,6,7,7,10,10,11,11,14,14,15,15,17,17,18,18,19,19,22,22,23,23,25,25,27,27,28,28,29,29,32,32],"right_children":[2,4,6,8,10,12,14,16,-1,-1,18,20,-1,-1,22,24,-1,26,28,30,-1,-1,32,34,-1,36,-1,38,40,42,-1,-1,44,-1,-1,-1,-1,-1,-1,-1,-1,-1,-1,-1,-1],"split_conditions":[1E0,6.925434E2,4.122269E2,4.99045E2,6.9732465E2,4.102689E2,5.277698E2,4.930808E2,2.644838E-4,-3.9619394E-3,8.135372E2,2.907678E2,2.529339E-2,-8.1446744E-4,5.358815E2,3.791074E2,-4.326038E-3,8.04406E2,9.61624E2,2.8676794E2,-4.6435161E-4,7.4156485E-3,6.307504E2,3.7505E2,2.5079746E-4,7.79433E2,-3.9474033E-3,9.35945E2,9.664252E2,2.050521E2,1.0893226E-2,-5.6355173E-4,6.336486E2,1.5257504E-4,-8.035595E-3,-2.4931543E-4,7.858455E-4,2.506841E-4,7.4896374E-4,-2.1267873E-3,3.146178E-4,-4.075112E-5,-3.7792022E-4,5.7121664E-3,-1.5040663E-4],"split_indices":[0,1,1,1,1,1,1,1,0,0,1,1,0,0,1,1,0,1,1,1,0,0,1,1,0,1,0,1,1,1,0,0,1,0,0,0,0,0,0,0,0,0,0,0,0],"split_type":[0,0,0,0,0,0,0,0,0,0,0,0,0,0,0,0,0,0,0,0,0,0,0,0,0,0,0,0,0,0,0,0,0,0,0,0,0,0,0,0,0,0,0,0,0],"sum_hessian":[2.319E3,1.293E3,1.026E3,9.82E2,3.11E2,4.19E2,6.07E2,6.55E2,3.27E2,7E0,3.04E2,4.17E2,2E0,1.22E2,4.85E2,6.48E2,7E0,1.1E2,1.94E2,3.08E2,1.09E2,7E0,4.78E2,4.88E2,1.6E2,1.03E2,7E0,1.61E2,3.3E1,3.05E2,3E0,1.13E2,3.65E2,4.84E2,4E0,7.9E1,2.4E1,1.43E2,1.8E1,6E0,2.7E1,2.17E2,8.8E1,5E0,3.6E2],"tree_param":{"num_deleted":"0","num_feature":"2","num_nodes":"45","size_leaf_vector":"1"}},{"base_weights":[1.4984839E-5,8.936071E-5,-1.604821E-4,1.408235E-5,4.395855E-3,-6.4601155E-4,2.7493876E-4,5.102619E-5,-2.065831E-3,1.7061923E-2,1.659312E-4,-3.430022E-4,-1.6773407E-3,3.7247161E-3,8.5253705E-5,-3.8093067E-4,9.208665E-5,1.1710249E-4,-1.9027479E-3,6.823739E-5,1.1902404E-2,1.3715177E-4,-3.0593076E-4,2.3178791E-4,-4.5531103E-4,-7.874167E-3,-6.981776E-4,1.5948464E-4,8.367747E-3,7.496337E-4,-1.4683719E-4,-1.609721E-4,-1.231449E-3,1.8647184E-3,4.5306406E-5,-4.715759E-4,3.549935E-4,-7.415271E-3,-3.8241348E-4,-1.431991E-4,-3.7362396E-3,-3.0593076E-4,5.7314634E-3,1.7499705E-4,5.9019197E-3,1.6406481E-4,-2.5010307E-4,1.9273534E-4,-3.572117E-4,-1.4605522E-3,-1.3867178E-4,-2.2062233E-5,3.5115033E-3,-1.4328821E-4,6.1028208E-5,1.237293E-4,-2.228599E-3,4.0864825E-4,-4.4455566E-4,-2.2204258E-3,-3.0593076E-4,-1.664753E-4,9.3838415E-4,1.33425E-4,6.439522E-3,1.453834E-4,-1.1602307E-4],"categories":[],"categories_nodes":[],"categories_segments":[],"categories_sizes":[],"default_left":[0,0,0,0,0,0,0,0,0,0,0,0,0,0,0,0,0,0,0,0,0,0,0,0,0,0,0,0,0,0,0,0,0,0,0,0,0,0,0,0,0,0,0,0,0,0,0,0,0,0,0,0,0,0,0,0,0,0,0,0,0,0,0,0,0,0,0],"id":10,"left_children":[1,3,5,7,9,11,13,15,17,19,21,23,25,27,29,31,33,-1,-1,-1,-1,-1,-1,35,-1,37,39,-1,41,43,45,47,49,51,53,55,-1,-1,-1,57,59,-1,-1,61,63,65,-1,-1,-1,-1,-1,-1,-1,-1,-1,-1,-1,-1,-1,-1,-1,-1,-1,-1,-1,-1,-1],"loss_changes":[3.0291516E-5,5.28361E-4,1.462617E-4,1.232799E-4,1.497311E-3,1.0161294E-4,2.3852792E-4,2.7987562E-5,1.1292744E-4,7.9563586E-4,2.0222428E-6,8.3081686E-5,4.4351257E-4,2.977777E-4,5.3616273E-5,2.5431571E-5,1.1932628E-4,0E0,0E0,0E0,0E0,0E0,0E0,4.3051E-5,0E0,4.832095E-4,1.0905882E-4,0E0,2.2936182E-4,2.654295E-4,2.8426748E-5,3.354263E-5,4.432892E-5,3.646253E-4,3.5797682E-5,1.5012457E-4,0E0,0E0,0E0,4.084761E-5,1.9297557E-5,0E0,0E0,7.1506554E-5,3.5041245E-4,6.9934204E-6,0E0,0E0,0E0,0E0,0E0,0E0,0E0,0E0,0E0,0E0,0E0,0E0,0E0,0E0,0E0,0E0,0E0,0E0,0E0,0E0,0E0],"parents":[2147483647,0,0,1,1,2,2,3,3,4,4,5,5,6,6,7,7,8,8,9,9,10,10,11,11,12,12,13,13,14,14,15,15,16,16,23,23,25,25,26,26,28,28,29,29,30,30,31,31,32,32,33,33,34,34,35,35,39,39,40,40,43,43,44,44,45,45],"right_children":[2,4,6,8,10,12,14,16,18,20,22,24,26,28,30,32,34,-1,-1,-1,-1,-1,-1,36,-1,38,40,-1,42,44,46,48,50,52,54,56,-1,-1,-1,58,60,-1,-1,62,64,66,-1,-1,-1,-1,-1,-1,-1,-1,-1,-1,-1,-1,-1,-1,-1,-1,-1,-1,-1,-1,-1],"split_conditions":[6.475646E2,6.453404E2,8.135372E2,6.355049E2,6.472664E2,7.667242E2,8.2961975E2,6.457644E1,1E0,1E0,1E0,1E0,7.79433E2,1E0,8.618957E2,5.1896E1,8.46009E1,1.1710249E-4,-1.9027479E-3,6.823739E-5,1.1902404E-2,1.3715177E-4,-3.0593076E-4,6.9732465E2,-4.5531103E-4,1E0,8.04406E2,1.5948464E-4,8.252101E2,8.557984E2,1E0,1E0,5.6022804E1,7.9580894E1,1.8855457E2,6.925434E2,3.549935E-4,-7.415271E-3,-3.8241348E-4,1E0,1E0,-3.0593076E-4,5.7314634E-3,8.4348267E2,1E0,9.61624E2,-2.5010307E-4,1.9273534E-4,-3.572117E-4,-1.4605522E-3,-1.3867178E-4,-2.2062233E-5,3.5115033E-3,-1.4328821E-4,6.1028208E-5,1.237293E-4,-2.228599E-3,4.0864825E-4,-4.4455566E-4,-2.2204258E-3,-3.0593076E-4,-1.664753E-4,9.3838415E-4,1.33425E-4,6.439522E-3,1.453834E-4,-1.1602307E-4],"split_indices":[1,1,1,1,1,1,1,1,0,0,0,0,1,0,1,1,1,0,0,0,0,0,0,1,0,0,1,0,1,1,0,0,1,1,1,1,0,0,0,0,0,0,0,1,0,1,0,0,0,0,0,0,0,0,0,0,0,0,0,0,0,0,0,0,0,0,0],"split_type":[0,0,0,0,0,0,0,0,0,0,0,0,0,0,0,0,0,0,0,0,0,0,0,0,0,0,0,0,0,0,0,0,0,0,0,0,0,0,0,0,0,0,0,0,0,0,0,0,0,0,0,0,0,0,0,0,0,0,0,0,0,0,0,0,0,0,0],"sum_hessian":[2.319E3,1.629E3,6.9E2,1.602E3,2.7E1,3.26E2,3.64E2,1.575E3,2.7E1,6E0,2.1E1,2.53E2,7.3E1,1.8E1,3.46E2,1.36E2,1.439E3,1.2E1,1.5E1,2E0,4E0,1.9E1,2E0,1.26E2,1.27E2,9E0,6.4E1,1.1E1,7E0,8.9E1,2.57E2,1.09E2,2.7E1,3.6E1,1.403E3,5.1E1,7.5E1,4E0,5E0,5.5E1,9E0,2E0,5E0,8.1E1,8E0,1.37E2,1.2E2,5.5E1,5.4E1,9E0,1.8E1,2.7E1,9E0,2.63E2,1.14E3,4.4E1,7E0,2.4E1,3.1E1,7E0,2E0,6.3E1,1.8E1,5E0,3E0,1.04E2,3.3E1],"tree_param":{"num_deleted":"0","num_feature":"2","num_nodes":"67","size_leaf_vector":"1"}},{"base_weights":[1.2577171E-5,1.0411328E-4,-5.3153843E-5,-1.7882636E-6,8.558735E-3,-4.8829516E-4,3.8912913E-5,8.068706E-5,-5.057909E-4,8.266866E-5,1.6841909E-2,-1.3257217E-4,-4.404738E-4,1.0224693E-3,-2.0903342E-5,-6.3859676E-5,2.4207601E-4,-1.1620023E-3,-5.3970904E-5,9.678831E-5,-1.323541E-3,-2.1398067E-5,6.6614924E-3,-1.2133943E-4,1.7607781E-4,3.38199E-5,-3.840918E-3,1.9866663E-3,5.9047998E-5,-2.778924E-4,-5.1127076E-3,9.2991526E-5,-2.5740586E-4,-2.460096E-3,9.064823E-5,9.7736716E-5,-4.074052E-4,5.022685E-5,4.144598E-3,-2.0254452E-5,-8.7009853E-4,4.076588E-3,6.3163745E-5,1.3318514E-4,-1.1514693E-4,-3.2840122E-3,-2.3682912E-4,6.456354E-5,3.4945547E-3,-1.2549899E-3,1.02072336E-4,1.5360968E-4,-2.5885034E-4,-4.845768E-3,-2.224495E-4,8.225165E-5,-1.2803485E-4,-2.3584187E-3,-1.6925545E-4,6.456375E-5,3.3433537E-3,2.6141576E-4,-2.9543422E-5],"categories":[],"categories_nodes":[],"categories_segments":[],"categories_sizes":[],"default_left":[0,0,0,0,0,0,0,0,0,0,0,0,0,0,0,0,0,0,0,0,0,0,0,0,0,0,0,0,0,0,0,0,0,0,0,0,0,0,0,0,0,0,0,0,0,0,0,0,0,0,0,0,0,0,0,0,0,0,0,0,0,0,0],"id":11,"left_children":[1,3,5,7,9,11,13,15,17,-1,-1,19,-1,21,23,25,27,29,31,-1,33,35,37,39,41,43,45,47,49,51,53,-1,-1,-1,-1,-1,-1,-1,-1,55,57,59,61,-1,-1,-1,-1,-1,-1,-1,-1,-1,-1,-1,-1,-1,-1,-1,-1,-1,-1,-1,-1],"loss_changes":[1.396442E-5,8.685121E-4,5.4142827E-5,3.9904313E-5,2.5250483E-3,3.2846634E-5,6.567862E-5,1.9261262E-5,3.996336E-5,0E0,0E0,4.881034E-5,0E0,3.7687167E-4,2.0853933E-5,1.6098836E-4,1.2441317E-4,1.906864E-4,9.052773E-6,0E0,1.4702615E-4,9.623042E-6,1.0596149E-4,5.2812815E-5,1.5653291E-4,2.6226158E-5,9.790063E-5,3.4291018E-4,1.3246851E-4,6.613521E-6,2.0941917E-4,0E0,0E0,0E0,0E0,0E0,0E0,0E0,0E0,2.6880442E-5,1.6812826E-4,1.0217E-4,1.953044E-5,0E0,0E0,0E0,0E0,0E0,0E0,0E0,0E0,0E0,0E0,0E0,0E0,0E0,0E0,0E0,0E0,0E0,0E0,0E0,0E0],"parents":[2147483647,0,0,1,1,2,2,3,3,4,4,5,5,6,6,7,7,8,8,11,11,13,13,14,14,15,15,16,16,17,17,18,18,20,20,21,21,22,22,23,23,24,24,25,25,26,26,27,27,28,28,29,29,30,30,39,39,40,40,41,41,42,42],"right_children":[2,4,6,8,10,12,14,16,18,-1,-1,20,-1,22,24,26,28,30,32,-1,34,36,38,40,42,44,46,48,50,52,54,-1,-1,-1,-1,-1,-1,-1,-1,56,58,60,62,-1,-1,-1,-1,-1,-1,-1,-1,-1,-1,-1,-1,-1,-1,-1,-1,-1,-1,-1,-1],"split_conditions":[4.122269E2,4.102689E2,5.162555E2,3.452078E2,1E0,1E0,5.358815E2,1.8855457E2,3.791074E2,8.266866E-5,1.6841909E-2,4.930808E2,-4.404738E-4,5.277698E2,8.252101E2,1.8663344E2,2.050521E2,3.7505E2,1E0,9.678831E-5,4.99045E2,1E0,1E0,7.667242E2,8.2961975E2,1E0,1E0,1.987064E2,2.16788E2,1E0,1E0,9.2991526E-5,-2.5740586E-4,-2.460096E-3,9.064823E-5,9.7736716E-5,-4.074052E-4,5.022685E-5,4.144598E-3,1E0,7.79433E2,1E0,8.497206E2,1.3318514E-4,-1.1514693E-4,-3.2840122E-3,-2.3682912E-4,6.456354E-5,3.4945547E-3,-1.2549899E-3,1.02072336E-4,1.5360968E-4,-2.5885034E-4,-4.845768E-3,-2.224495E-4,8.225165E-5,-1.2803485E-4,-2.3584187E-3,-1.6925545E-4,6.456375E-5,3.3433537E-3,2.6141576E-4,-2.9543422E-5],"split_indices":[1,1,1,1,0,0,1,1,1,0,0,1,0,1,1,1,1,1,0,0,1,0,0,1,1,0,0,1,1,0,0,0,0,0,0,0,0,0,0,0,1,0,1,0,0,0,0,0,0,0,0,0,0,0,0,0,0,0,0,0,0,0,0],"split_type":[0,0,0,0,0,0,0,0,0,0,0,0,0,0,0,0,0,0,0,0,0,0,0,0,0,0,0,0,0,0,0,0,0,0,0,0,0,0,0,0,0,0,0,0,0,0,0,0,0,0,0,0,0,0,0,0,0,0,0,0,0,0,0],"sum_hessian":[2.319E3,9.69E2,1.35E3,9.58E2,1.1E1,2.35E2,1.115E3,8.24E2,1.34E2,9E0,2E0,1.24E2,1.11E2,6.3E1,1.052E3,4.35E2,3.89E2,5.4E1,8E1,9.8E1,2.6E1,5.4E1,9E0,6.97E2,3.55E2,4.25E2,1E1,3.6E1,3.53E2,4.5E1,9E0,5.3E1,2.7E1,7E0,1.9E1,4.3E1,1.1E1,2E0,7E0,6.15E2,8.2E1,9E0,3.46E2,2.26E2,1.99E2,5E0,5E0,2.7E1,9E0,1.8E1,3.35E2,1.3E1,3.2E1,4E0,5E0,3.45E2,2.7E2,9E0,7.3E1,4E0,5E0,7.2E1,2.74E2],"tree_param":{"num_deleted":"0","num_feature":"2","num_nodes":"63","size_leaf_vector":"1"}},{"base_weights":[1.1784891E-5,-2.0865585E-4,2.5607509E-5,-9.2042035E-5,-6.593295E-4,1.0044865E-3,8.734079E-6,3.268623E-5,-1.2532256E-4,-1.6022921E-3,-1.2833194E-4,-6.2576364E-5,3.8918138E-3,-1.05767085E-5,1.3551535E-4,-2.0263195E-3,3.533562E-4,1.7334148E-4,-2.1715711E-4,1.1534161E-4,-2.6838345E-4,-1.2269989E-3,3.4810093E-3,4.271597E-5,-2.0099373E-4,4.6634735E-3,-2.9630444E-5,-7.061422E-6,2.5851706E-3,-1.5859345E-4,-4.2641722E-4,-3.501475E-4,4.1780174E-3,-2.9953301E-3,8.197342E-5,7.0046494E-6,-5.316777E-4,5.1453584E-3,7.949092E-6,-1.16823954E-4,1.1895478E-3,1.320576E-4,-5.8501E-4,-1.6792417E-4,-2.3561716E-3,1.8537939E-3,-2.2409613E-5],"categories":[],"categories_nodes":[],"categories_segments":[],"categories_sizes":[],"default_left":[0,0,0,0,0,0,0,0,0,0,0,0,0,0,0,0,0,0,0,0,0,0,0,0,0,0,0,0,0,0,0,0,0,0,0,0,0,0,0,0,0,0,0,0,0,0,0],"id":12,"left_children":[1,3,5,7,9,11,13,-1,-1,15,17,19,21,23,25,-1,-1,-1,-1,-1,-1,-1,-1,27,29,31,33,35,37,39,41,-1,-1,43,45,-1,-1,-1,-1,-1,-1,-1,-1,-1,-1,-1,-1],"loss_changes":[7.074541E-6,7.1393183E-6,3.606446E-5,2.7626918E-6,1.3814281E-5,1.1423904E-4,5.2602663E-6,0E0,0E0,5.9442667E-5,2.912146E-6,4.017529E-6,2.1191417E-4,1.8934294E-5,2.125058E-4,0E0,0E0,0E0,0E0,0E0,0E0,0E0,0E0,1.8453799E-4,3.832043E-6,2.039121E-4,9.126601E-5,3.1864485E-5,5.541705E-4,6.626624E-5,3.3171855E-5,0E0,0E0,4.4081025E-5,1.224467E-4,0E0,0E0,0E0,0E0,0E0,0E0,0E0,0E0,0E0,0E0,0E0,0E0],"parents":[2147483647,0,0,1,1,2,2,3,3,4,4,5,5,6,6,9,9,10,10,11,11,12,12,13,13,14,14,23,23,24,24,25,25,26,26,27,27,28,28,29,29,30,30,33,33,34,34],"right_children":[2,4,6,8,10,12,14,-1,-1,16,18,20,22,24,26,-1,-1,-1,-1,-1,-1,-1,-1,28,30,32,34,36,38,40,42,-1,-1,44,46,-1,-1,-1,-1,-1,-1,-1,-1,-1,-1,-1,-1],"split_conditions":[6.457644E1,5.1896E1,8.46009E1,1E0,5.6022804E1,7.9580894E1,8.4348267E2,3.268623E-5,-1.2532256E-4,1E0,1E0,1E0,1E0,6.475646E2,8.497206E2,-2.0263195E-3,3.533562E-4,1.7334148E-4,-2.1715711E-4,1.1534161E-4,-2.6838345E-4,-1.2269989E-3,3.4810093E-3,6.453404E2,8.2961975E2,1E0,8.557984E2,6.355049E2,6.472664E2,8.252101E2,1E0,-3.501475E-4,4.1780174E-3,1E0,8.618957E2,7.0046494E-6,-5.316777E-4,5.1453584E-3,7.949092E-6,-1.16823954E-4,1.1895478E-3,1.320576E-4,-5.8501E-4,-1.6792417E-4,-2.3561716E-3,1.8537939E-3,-2.2409613E-5],"split_indices":[1,1,1,0,1,1,1,0,0,0,0,0,0,1,1,0,0,0,0,0,0,0,0,1,1,0,1,1,1,1,0,0,0,0,1,0,0,0,0,0,0,0,0,0,0,0,0],"split_type":[0,0,0,0,0,0,0,0,0,0,0,0,0,0,0,0,0,0,0,0,0,0,0,0,0,0,0,0,0,0,0,0,0,0,0,0,0,0,0,0,0,0,0,0,0,0,0],"sum_hessian":[2.319E3,1.36E2,2.183E3,1.09E2,2.7E1,3.6E1,2.147E3,5.5E1,5.4E1,9E0,1.8E1,2.7E1,9E0,1.864E3,2.83E2,4E0,5E0,7E0,1.1E1,1.7E1,1E1,3E0,6E0,1.457E3,4.07E2,9E0,2.74E2,1.43E3,2.7E1,3.44E2,6.3E1,4E0,5E0,9E0,2.65E2,1.403E3,2.7E1,6E0,2.1E1,3.35E2,9E0,3.3E1,3E1,4E0,5E0,8E0,2.57E2],"tree_param":{"num_deleted":"0","num_feature":"2","num_nodes":"47","size_leaf_vector":"1"}},{"base_weights":[9.615745E-6,5.29932E-5,-2.1535807E-5,-1.7514318E-5,5.683303E-3,-2.6264938E-4,2.9471666E-5,5.5580436E-5,-2.5483305E-4,4.2301417E-5,1.1225601E-2,-1.5501081E-4,-5.9795275E-4,5.650036E-4,-3.1052718E-6,-2.0116033E-5,5.5380166E-3,-8.878137E-5,-4.2913502E-4,4.5397064E-5,-2.2494247E-4,-2.0009726E-3,-2.189486E-4,-2.324798E-5,3.743887E-3,-1.5278235E-4,4.666486E-5,5.6797155E-5,-1.7103492E-4,1.0174087E-4,6.744474E-3,1.1644363E-4,-4.2001132E-4,-3.14489E-4,-1.405528E-4,-1.3868697E-3,-1.8217563E-4,4.4244527E-5,-2.1928549E-4,4.6534973E-5,-2.2390485E-4,3.113349E-5,2.3282543E-3,5.9499343E-5,-2.5452438E-4,4.064256E-3,-4.770658E-6,-2.3303035E-5,1.2867906E-3,-1.7873973E-3,-1.30415465E-5,-2.9102862E-3,4.3909306E-5,3.5750865E-5,3.3570875E-3,-2.0824763E-4,1.6254551E-5],"categories":[],"categories_nodes":[],"categories_segments":[],"categories_sizes":[],"default_left":[0,0,0,0,0,0,0,0,0,0,0,0,0,0,0,0,0,0,0,0,0,0,0,0,0,0,0,0,0,0,0,0,0,0,0,0,0,0,0,0,0,0,0,0,0,0,0,0,0,0,0,0,0,0,0,0,0],"id":13,"left_children":[1,3,5,7,9,11,13,15,17,-1,-1,19,21,23,25,27,29,31,33,-1,-1,35,37,39,41,43,45,47,49,-1,-1,-1,51,-1,-1,-1,-1,-1,-1,-1,-1,-1,-1,-1,-1,53,55,-1,-1,-1,-1,-1,-1,-1,-1,-1,-1],"loss_changes":[3.1360992E-6,3.8516935E-4,1.662314E-5,1.6649703E-5,1.1246417E-3,8.424924E-6,1.947148E-5,3.047222E-4,6.503047E-6,0E0,0E0,1.308752E-5,2.9871662E-5,1.1976597E-4,7.851399E-6,8.425262E-6,4.2140047E-4,1.2563731E-5,3.0772826E-6,0E0,0E0,1.41661E-5,3.1447375E-6,2.757805E-6,3.3309305E-5,2.5525933E-5,1.6347707E-4,1.252971E-4,1.2078514E-4,0E0,0E0,0E0,1.5958001E-4,0E0,0E0,0E0,0E0,0E0,0E0,0E0,0E0,0E0,0E0,0E0,0E0,1.0532468E-4,1.2016453E-5,0E0,0E0,0E0,0E0,0E0,0E0,0E0,0E0,0E0,0E0],"parents":[2147483647,0,0,1,1,2,2,3,3,4,4,5,5,6,6,7,7,8,8,11,11,12,12,13,13,14,14,15,15,16,16,17,17,18,18,21,21,22,22,23,23,24,24,25,25,26,26,27,27,28,28,32,32,45,45,46,46],"right_children":[2,4,6,8,10,12,14,16,18,-1,-1,20,22,24,26,28,30,32,34,-1,-1,36,38,40,42,44,46,48,50,-1,-1,-1,52,-1,-1,-1,-1,-1,-1,-1,-1,-1,-1,-1,-1,54,56,-1,-1,-1,-1,-1,-1,-1,-1,-1,-1],"split_conditions":[4.122269E2,4.102689E2,5.162555E2,2.907678E2,1E0,4.930808E2,5.358815E2,2.8676794E2,1E0,4.2301417E-5,1.1225601E-2,1E0,4.99045E2,5.277698E2,6.307504E2,2.1180673E2,1E0,3.7505E2,3.452078E2,4.5397064E-5,-2.2494247E-4,1E0,1E0,1E0,1E0,1E0,6.336486E2,1.987064E2,2.16788E2,1.0174087E-4,6.744474E-3,1.1644363E-4,3.791074E2,-3.14489E-4,-1.405528E-4,-1.3868697E-3,-1.8217563E-4,4.4244527E-5,-2.1928549E-4,4.6534973E-5,-2.2390485E-4,3.113349E-5,2.3282543E-3,5.9499343E-5,-2.5452438E-4,1E0,6.453404E2,-2.3303035E-5,1.2867906E-3,-1.7873973E-3,-1.30415465E-5,-2.9102862E-3,4.3909306E-5,3.5750865E-5,3.3570875E-3,-2.0824763E-4,1.6254551E-5],"split_indices":[1,1,1,1,0,1,1,1,0,0,0,0,1,1,1,1,0,1,1,0,0,0,0,0,0,0,1,1,1,0,0,0,1,0,0,0,0,0,0,0,0,0,0,0,0,0,1,0,0,0,0,0,0,0,0,0,0],"split_type":[0,0,0,0,0,0,0,0,0,0,0,0,0,0,0,0,0,0,0,0,0,0,0,0,0,0,0,0,0,0,0,0,0,0,0,0,0,0,0,0,0,0,0,0,0,0,0,0,0,0,0,0,0,0,0,0,0],"sum_hessian":[2.319E3,9.69E2,1.35E3,9.58E2,1.1E1,2.35E2,1.115E3,7.33E2,2.25E2,9E0,2E0,1.79E2,5.6E1,6.3E1,1.052E3,7.24E2,9E0,1.16E2,1.09E2,9.8E1,8.1E1,1.1E1,4.5E1,5.4E1,9E0,2.62E2,7.9E2,4.8E2,2.44E2,6E0,3E0,5.9E1,5.7E1,4.5E1,6.4E1,7E0,4E0,1.9E1,2.6E1,4.3E1,1.1E1,2E0,7E0,1.49E2,1.13E2,9E0,7.81E2,4.62E2,1.8E1,9E0,2.35E2,4E0,5.3E1,4E0,5E0,6.4E1,7.17E2],"tree_param":{"num_deleted":"0","num_feature":"2","num_nodes":"57","size_leaf_vector":"1"}},{"base_weights":[1.2404112E-5,3.6151792E-5,-4.127906E-5,1.0669417E-5,5.8664507E-3,-1.3681356E-4,4.991897E-5,1.7067805E-5,-3.4984946E-4,-1.7024776E-3,5.1280023E-3,-8.50509E-5,-1.877886E-3,8.195262E-4,7.635234E-6,4.6619402E-6,4.2055515E-4,3.665892E-4,-6.03972E-4,-1.3953049E-4,1.9275716E-4,-1.1309274E-3,-1.14003815E-4,-9.32912E-5,2.0863116E-3,-2.3631286E-4,6.258257E-5,4.1313393E-5,-5.8718757E-5,2.3713945E-3,-1.03890896E-4,-5.30516E-5,-2.5037467E-3,3.4201503E-4,-9.853672E-5,2.072677E-4,-4.4357777E-4,-1.14003815E-4,1.4478763E-3,6.006132E-5,-3.0980955E-4,2.6998757E-3,-3.3546577E-5,-2.7599624E-6,1.8903166E-3,6.5669747E-6,-7.6401135E-5,2.144575E-5,1.9582908E-3,1.6494183E-4,-1.5163899E-3,5.5242075E-5,-1.1815337E-4,-3.465557E-3,8.015086E-4,-2.165854E-4,2.4303843E-3,-8.823633E-4,1.5830747E-5],"categories":[],"categories_nodes":[],"categories_segments":[],"categories_sizes":[],"default_left":[0,0,0,0,0,0,0,0,0,0,0,0,0,0,0,0,0,0,0,0,0,0,0,0,0,0,0,0,0,0,0,0,0,0,0,0,0,0,0,0,0,0,0,0,0,0,0,0,0,0,0,0,0,0,0,0,0,0,0],"id":14,"left_children":[1,3,5,7,9,11,13,15,17,-1,-1,19,21,23,25,27,29,-1,-1,31,33,-1,-1,35,37,39,41,43,45,47,49,51,53,-1,-1,-1,-1,-1,-1,-1,-1,55,57,-1,-1,-1,-1,-1,-1,-1,-1,-1,-1,-1,-1,-1,-1,-1,-1],"loss_changes":[2.9591463E-6,2.3898632E-4,6.210171E-6,3.7036746E-6,3.1980255E-4,3.1202926E-5,1.1871525E-5,7.886881E-6,2.6907166E-5,0E0,0E0,5.1576153E-6,5.8192963E-6,2.2165168E-5,4.6660803E-6,3.5566077E-6,4.8332542E-5,0E0,0E0,5.7932335E-5,1.0859544E-5,0E0,0E0,5.205502E-6,1.5646692E-5,8.818363E-6,7.2090465E-5,1.6989188E-4,3.794454E-6,3.5811732E-5,4.9278606E-5,8.267519E-6,1.9293222E-4,0E0,0E0,0E0,0E0,0E0,0E0,0E0,0E0,6.980734E-5,3.1099775E-5,0E0,0E0,0E0,0E0,0E0,0E0,0E0,0E0,0E0,0E0,0E0,0E0,0E0,0E0,0E0,0E0],"parents":[2147483647,0,0,1,1,2,2,3,3,4,4,5,5,6,6,7,7,8,8,11,11,12,12,13,13,14,14,15,15,16,16,19,19,20,20,23,23,24,24,25,25,26,26,27,27,28,28,29,29,30,30,31,31,32,32,41,41,42,42],"right_children":[2,4,6,8,10,12,14,16,18,-1,-1,20,22,24,26,28,30,-1,-1,32,34,-1,-1,36,38,40,42,44,46,48,50,52,54,-1,-1,-1,-1,-1,-1,-1,-1,56,58,-1,-1,-1,-1,-1,-1,-1,-1,-1,-1,-1,-1,-1,-1,-1,-1],"split_conditions":[6.472664E2,6.453404E2,8.135372E2,6.355049E2,1E0,8.04406E2,8.2961975E2,6.307504E2,1E0,-1.7024776E-3,5.1280023E-3,7.79433E2,1E0,1E0,8.4348267E2,4.122269E2,6.336486E2,3.665892E-4,-6.03972E-4,7.667242E2,1E0,-1.1309274E-3,-1.14003815E-4,8.252101E2,8.252101E2,1E0,8.497206E2,4.102689E2,1E0,1E0,1E0,1E0,1E0,3.4201503E-4,-9.853672E-5,2.072677E-4,-4.4357777E-4,-1.14003815E-4,1.4478763E-3,6.006132E-5,-3.0980955E-4,1E0,8.557984E2,-2.7599624E-6,1.8903166E-3,6.5669747E-6,-7.6401135E-5,2.144575E-5,1.9582908E-3,1.6494183E-4,-1.5163899E-3,5.5242075E-5,-1.1815337E-4,-3.465557E-3,8.015086E-4,-2.165854E-4,2.4303843E-3,-8.823633E-4,1.5830747E-5],"split_indices":[1,1,1,1,0,1,1,1,0,0,0,1,0,0,1,1,1,0,0,1,0,0,0,1,1,0,1,1,0,0,0,0,0,0,0,0,0,0,0,0,0,0,1,0,0,0,0,0,0,0,0,0,0,0,0,0,0,0,0],"split_type":[0,0,0,0,0,0,0,0,0,0,0,0,0,0,0,0,0,0,0,0,0,0,0,0,0,0,0,0,0,0,0,0,0,0,0,0,0,0,0,0,0,0,0,0,0,0,0,0,0,0,0,0,0,0,0,0,0,0,0],"sum_hessian":[2.319E3,1.608E3,7.11E2,1.602E3,6E0,3.47E2,3.64E2,1.575E3,2.7E1,2E0,4E0,3.38E2,9E0,1.8E1,3.46E2,1.529E3,4.6E1,1.2E1,1.5E1,2.83E2,5.5E1,7E0,2E0,1.1E1,7E0,6.3E1,2.83E2,9.69E2,5.6E2,9E0,3.7E1,2.74E2,9E0,2.4E1,3.1E1,7E0,4E0,2E0,5E0,3.3E1,3E1,9E0,2.74E2,9.58E2,1.1E1,3.18E2,2.42E2,4E0,5E0,3.3E1,4E0,1.45E2,1.29E2,4E0,5E0,4E0,5E0,9E0,2.65E2],"tree_param":{"num_deleted":"0","num_feature":"2","num_nodes":"59","size_leaf_vector":"1"}},{"base_weights":[7.960868E-6,1.639675E-5,-1.4548459E-4,4.045801E-6,1.697046E-4,-1.285249E-3,-4.2420947E-5,1.4522863E-5,-1.2325971E-4,1.5713274E-3,7.818245E-5,-8.678011E-4,-8.79094E-5,1.7912227E-4,-1.1529102E-4,-9.631179E-5,2.2593656E-5,-1.5182853E-3,-2.6865773E-5,-1.2994409E-4,1.4177263E-3,-9.7057817E-4,1.4947988E-4,3.347177E-4,-1.0014457E-4,-1.0514259E-5,-5.270933E-4,4.6505488E-4,1.0684943E-5,-2.079344E-3,4.6754876E-4,1.0072227E-4,-1.0508626E-4,2.4568438E-4,-1.0135522E-3,2.0311873E-3,2.5676645E-5,-1.1570539E-3,2.2846142E-4,-7.021837E-4,5.0840277E-5,-7.498909E-6,1.0973722E-3,-3.9764087E-5,1.356263E-5,1.7784954E-4,-5.081296E-5,-5.317122E-4,6.5328873E-6,-6.9565076E-4,3.3285618E-3,1.0435559E-4,-1.1519163E-4],"categories":[],"categories_nodes":[],"categories_segments":[],"categories_sizes":[],"default_left":[0,0,0,0,0,0,0,0,0,0,0,0,0,0,0,0,0,0,0,0,0,0,0,0,0,0,0,0,0,0,0,0,0,0,0,0,0,0,0,0,0,0,0,0,0,0,0,0,0,0,0,0,0],"id":15,"left_children":[1,3,5,7,9,11,13,15,17,19,21,-1,-1,23,-1,25,27,29,31,-1,-1,33,35,-1,37,-1,39,41,43,-1,-1,45,47,-1,-1,49,51,-1,-1,-1,-1,-1,-1,-1,-1,-1,-1,-1,-1,-1,-1,-1,-1],"loss_changes":[3.0055044E-6,4.165008E-6,1.415914E-5,2.718716E-6,2.0914995E-5,4.691203E-6,4.7101134E-6,1.686564E-6,2.080237E-5,2.3885754E-5,1.1735042E-5,0E0,0E0,7.1873073E-6,0E0,4.140038E-6,9.2476475E-6,6.8667956E-5,1.4676643E-6,0E0,0E0,1.6441907E-5,3.396022E-5,0E0,4.2990476E-5,0E0,1.062333E-5,3.8228656E-5,2.5397965E-6,0E0,0E0,2.9254174E-6,1.0317788E-5,0E0,0E0,1.51752E-4,6.51584E-6,0E0,0E0,0E0,0E0,0E0,0E0,0E0,0E0,0E0,0E0,0E0,0E0,0E0,0E0,0E0,0E0],"parents":[2147483647,0,0,1,1,2,2,3,3,4,4,5,5,6,6,7,7,8,8,9,9,10,10,13,13,15,15,16,16,17,17,18,18,21,21,22,22,24,24,26,26,27,27,28,28,31,31,32,32,35,35,36,36],"right_children":[2,4,6,8,10,12,14,16,18,20,22,-1,-1,24,-1,26,28,30,32,-1,-1,34,36,-1,38,-1,40,42,44,-1,-1,46,48,-1,-1,50,52,-1,-1,-1,-1,-1,-1,-1,-1,-1,-1,-1,-1,-1,-1,-1,-1],"split_conditions":[9.322387E2,8.4348267E2,9.35945E2,7.667242E2,8.497206E2,1E0,1E0,5.9601E1,7.79433E2,1E0,8.557984E2,-8.678011E-4,-8.79094E-5,9.61624E2,-1.1529102E-4,5.1896E1,8.46009E1,1E0,8.04406E2,-1.2994409E-4,1.4177263E-3,1E0,8.618957E2,3.347177E-4,9.664252E2,-1.0514259E-5,1E0,7.9580894E1,1.8855457E2,-2.079344E-3,4.6754876E-4,1E0,8.135372E2,2.4568438E-4,-1.0135522E-3,1E0,1E0,-1.1570539E-3,2.2846142E-4,-7.021837E-4,5.0840277E-5,-7.498909E-6,1.0973722E-3,-3.9764087E-5,1.356263E-5,1.7784954E-4,-5.081296E-5,-5.317122E-4,6.5328873E-6,-6.9565076E-4,3.3285618E-3,1.0435559E-4,-1.1519163E-4],"split_indices":[1,1,1,1,1,0,0,1,1,0,1,0,0,1,0,1,1,0,1,0,0,0,1,0,1,0,0,1,1,0,0,0,1,0,0,0,0,0,0,0,0,0,0,0,0,0,0,0,0,0,0,0,0],"split_type":[0,0,0,0,0,0,0,0,0,0,0,0,0,0,0,0,0,0,0,0,0,0,0,0,0,0,0,0,0,0,0,0,0,0,0,0,0,0,0,0,0,0,0,0,0,0,0,0,0,0,0,0,0],"sum_hessian":[2.319E3,2.199E3,1.2E2,2.036E3,1.63E2,9E0,1.11E2,1.882E3,1.54E2,9E0,1.54E2,6E0,3E0,5.1E1,6E1,1.27E2,1.755E3,9E0,1.45E2,4E0,5E0,9E0,1.45E2,1.8E1,3.3E1,1.09E2,1.8E1,4.5E1,1.71E3,4E0,5E0,5.5E1,9E1,4E0,5E0,8E0,1.37E2,6E0,2.7E1,7E0,1.1E1,3.6E1,9E0,2.63E2,1.447E3,2.4E1,3.1E1,9E0,8.1E1,5E0,3E0,8E1,5.7E1],"tree_param":{"num_deleted":"0","num_feature":"2","num_nodes":"53","size_leaf_vector":"1"}},{"base_weights":[3.9042325E-6,4.226221E-5,-1.3839094E-5,-4.714604E-6,3.443855E-3,-2.2008525E-4,7.052569E-6,6.70873E-5,-1.0325083E-4,5.3486652E-5,4.211217E-3,-9.987868E-5,-1.8449068E-3,2.4034537E-4,-8.839355E-6,2.2032739E-4,-1.1256521E-4,5.1104187E-5,-2.7371207E-4,5.3846838E-5,-1.2913461E-4,-1.7505229E-3,-7.86533E-5,-1.4277888E-5,2.0353992E-3,-1.2051857E-4,1.4785317E-5,-9.285856E-5,2.0600359E-4,-1.6066706E-3,1.1901633E-4,-1.8266265E-4,2.963308E-3,-8.334935E-4,6.84911E-3,-6.1210325E-5,-3.056934E-4,3.2009184E-4,-3.7848667E-6,7.56092E-6,-1.1686161E-3,-4.0611083E-4,-3.2643497E-3,7.492441E-5,-2.054021E-4,2.855565E-3,4.726513E-4,1.29456475E-5,-8.2811566E-5,-5.610262E-4,-4.3042328E-5,-9.020892E-6,1.0739088E-3,-3.0775715E-5,7.713376E-6],"categories":[],"categories_nodes":[],"categories_segments":[],"categories_sizes":[],"default_left":[0,0,0,0,0,0,0,0,0,0,0,0,0,0,0,0,0,0,0,0,0,0,0,0,0,0,0,0,0,0,0,0,0,0,0,0,0,0,0,0,0,0,0,0,0,0,0,0,0,0,0,0,0,0,0],"id":16,"left_children":[1,3,5,7,9,11,13,15,17,-1,-1,19,21,23,25,27,29,31,-1,-1,-1,-1,-1,-1,33,35,37,39,-1,41,-1,43,45,-1,-1,47,49,51,53,-1,-1,-1,-1,-1,-1,-1,-1,-1,-1,-1,-1,-1,-1,-1,-1],"loss_changes":[1.5795724E-6,1.173065E-4,6.8396575E-6,5.136366E-6,1.6522831E-4,2.8331611E-5,5.3482977E-6,1.1587387E-5,2.1007452E-5,0E0,0E0,4.532031E-6,2.739827E-5,4.4465793E-5,3.5662397E-6,1.3665391E-5,1.0200549E-4,1.5575837E-4,0E0,0E0,0E0,0E0,0E0,0E0,5.4099795E-4,2.5731335E-6,6.3284833E-6,2.111965E-5,0E0,1.3937836E-4,0E0,1.6143811E-5,8.886827E-5,0E0,0E0,1.6413028E-6,1.0122346E-5,3.9591745E-5,1.1695575E-6,0E0,0E0,0E0,0E0,0E0,0E0,0E0,0E0,0E0,0E0,0E0,0E0,0E0,0E0,0E0,0E0],"parents":[2147483647,0,0,1,1,2,2,3,3,4,4,5,5,6,6,7,7,8,8,11,11,12,12,13,13,14,14,15,15,16,16,17,17,24,24,25,25,26,26,27,27,29,29,31,31,32,32,35,35,36,36,37,37,38,38],"right_children":[2,4,6,8,10,12,14,16,18,-1,-1,20,22,24,26,28,30,32,-1,-1,-1,-1,-1,-1,34,36,38,40,-1,42,-1,44,46,-1,-1,48,50,52,54,-1,-1,-1,-1,-1,-1,-1,-1,-1,-1,-1,-1,-1,-1,-1,-1],"split_conditions":[2.907678E2,2.8676794E2,3.791074E2,1E0,1E0,3.7505E2,4.122269E2,1.8663344E2,2.16788E2,5.3486652E-5,4.211217E-3,1E0,1E0,4.102689E2,5.162555E2,8.46009E1,2.16788E2,1.987064E2,-2.7371207E-4,5.3846838E-5,-1.2913461E-4,-1.7505229E-3,-7.86533E-5,-1.4277888E-5,1E0,4.930808E2,5.358815E2,7.9580894E1,2.0600359E-4,2.1180673E2,1.1901633E-4,8.46009E1,2.050521E2,-8.334935E-4,6.84911E-3,1E0,4.99045E2,5.277698E2,6.307504E2,7.56092E-6,-1.1686161E-3,-4.0611083E-4,-3.2643497E-3,7.492441E-5,-2.054021E-4,2.855565E-3,4.726513E-4,1.29456475E-5,-8.2811566E-5,-5.610262E-4,-4.3042328E-5,-9.020892E-6,1.0739088E-3,-3.0775715E-5,7.713376E-6],"split_indices":[1,1,1,0,0,1,1,1,1,0,0,0,0,1,1,1,1,1,0,0,0,0,0,0,0,1,1,1,0,1,0,1,1,0,0,0,1,1,1,0,0,0,0,0,0,0,0,0,0,0,0,0,0,0,0],"split_type":[0,0,0,0,0,0,0,0,0,0,0,0,0,0,0,0,0,0,0,0,0,0,0,0,0,0,0,0,0,0,0,0,0,0,0,0,0,0,0,0,0,0,0,0,0,0,0,0,0,0,0,0,0,0,0],"sum_hessian":[2.319E3,7.33E2,1.586E3,7.24E2,9E0,1.45E2,1.441E3,4.19E2,3.05E2,6E0,3E0,1.36E2,9E0,9.1E1,1.35E3,2.26E2,1.93E2,2.27E2,7.8E1,5.9E1,7.7E1,4E0,5E0,8E1,1.1E1,2.35E2,1.115E3,8.6E1,1.4E2,3.6E1,1.57E2,2.11E2,1.6E1,9E0,2E0,1.79E2,5.6E1,6.3E1,1.052E3,8.3E1,3E0,3.2E1,4E0,8.6E1,1.25E2,6E0,1E1,9.8E1,8.1E1,1.1E1,4.5E1,5.4E1,9E0,2.62E2,7.9E2],"tree_param":{"num_deleted":"0","num_feature":"2","num_nodes":"55","size_leaf_vector":"1"}},{"base_weights":[5.039136E-6,-1.0867279E-4,1.1182043E-5,-5.1198764E-5,-7.300198E-4,2.6044305E-4,4.7944554E-6,3.087148E-5,-8.2631545E-5,-9.275198E-4,1.6458333E-4,-1.7455091E-5,1.5127301E-3,2.2146132E-5,-3.0232446E-5,2.5838136E-4,-1.650561E-4,-7.3038787E-4,1.497886E-3,5.5860505E-6,3.4043363E-3,-2.0383742E-4,8.895532E-6,3.6283582E-4,8.0837446E-5,1.3032401E-5,-1.5110236E-4,-1.1420747E-3,3.0682802E-3,-4.815464E-5,-1.8978174E-3,1.793087E-5,-9.413987E-5,1.5354341E-6,6.8225263E-4,1.0813514E-4,-4.9425213E-4,1.978362E-5,-7.206047E-5,-1.2790561E-3,-5.1386654E-5,-3.725618E-4,-1.7587894E-5],"categories":[],"categories_nodes":[],"categories_segments":[],"categories_sizes":[],"default_left":[0,0,0,0,0,0,0,0,0,0,0,0,0,0,0,0,0,0,0,0,0,0,0,0,0,0,0,0,0,0,0,0,0,0,0,0,0,0,0,0,0,0,0],"id":17,"left_children":[1,3,5,7,9,11,13,-1,-1,-1,-1,15,17,19,21,23,-1,-1,-1,25,27,29,31,-1,-1,33,35,-1,-1,37,39,-1,41,-1,-1,-1,-1,-1,-1,-1,-1,-1,-1],"loss_changes":[1.6217856E-6,4.21227E-6,3.5047233E-6,1.4272922E-6,1.2526674E-5,1.9166857E-5,1.3061713E-6,0E0,0E0,0E0,0E0,4.0524374E-6,4.8474492E-5,8.046641E-5,4.8382954E-6,1.0124272E-6,0E0,0E0,0E0,1.671598E-6,1.2281234E-4,3.445639E-5,1.620448E-6,0E0,0E0,1.8399376E-5,2.021029E-5,0E0,0E0,1.0243223E-6,1.2774934E-5,0E0,4.6183336E-6,0E0,0E0,0E0,0E0,0E0,0E0,0E0,0E0,0E0,0E0],"parents":[2147483647,0,0,1,1,2,2,3,3,4,4,5,5,6,6,11,11,12,12,13,13,14,14,15,15,19,19,20,20,21,21,22,22,25,25,26,26,29,29,30,30,32,32],"right_children":[2,4,6,8,10,12,14,-1,-1,-1,-1,16,18,20,22,24,-1,-1,-1,26,28,30,32,-1,-1,34,36,-1,-1,38,40,-1,42,-1,-1,-1,-1,-1,-1,-1,-1,-1,-1],"split_conditions":[5.6022804E1,5.1896E1,8.46009E1,1E0,1E0,7.9580894E1,6.472664E2,3.087148E-5,-8.2631545E-5,-9.275198E-4,1.6458333E-4,1E0,1E0,6.453404E2,6.9732465E2,5.9601E1,-1.650561E-4,-7.3038787E-4,1.497886E-3,6.336486E2,1E0,6.925434E2,9.322387E2,3.6283582E-4,8.0837446E-5,6.307504E2,1E0,-1.1420747E-3,3.0682802E-3,1E0,1E0,1.793087E-5,9.35945E2,1.5354341E-6,6.8225263E-4,1.0813514E-4,-4.9425213E-4,1.978362E-5,-7.206047E-5,-1.2790561E-3,-5.1386654E-5,-3.725618E-4,-1.7587894E-5],"split_indices":[1,1,1,0,0,1,1,0,0,0,0,0,0,1,1,1,0,0,0,1,0,1,1,0,0,1,0,0,0,0,0,0,1,0,0,0,0,0,0,0,0,0,0],"split_type":[0,0,0,0,0,0,0,0,0,0,0,0,0,0,0,0,0,0,0,0,0,0,0,0,0,0,0,0,0,0,0,0,0,0,0,0,0,0,0,0,0,0,0],"sum_hessian":[2.319E3,1.18E2,2.201E3,1.09E2,9E0,5.4E1,2.147E3,5.5E1,5.4E1,4E0,5E0,4.5E1,9E0,1.436E3,7.11E2,2.4E1,2.1E1,3E0,6E0,1.43E3,6E0,1.3E2,5.81E2,3E0,2.1E1,1.366E3,6.4E1,2E0,4E0,1.2E2,1E1,4.61E2,1.2E2,1.357E3,9E0,4.5E1,1.9E1,6.3E1,5.7E1,7E0,3E0,9E0,1.11E2],"tree_param":{"num_deleted":"0","num_feature":"2","num_nodes":"43","size_leaf_vector":"1"}},{"base_weights":[2.810693E-6],"categories":[],"categories_nodes":[],"categories_segments":[],"categories_sizes":[],"default_left":[0],"id":18,"left_children":[-1],"loss_changes":[0E0],"parents":[2147483647],"right_children":[-1],"split_conditions":[1.4053466E-6],"split_indices":[0],"split_type":[0],"sum_hessian":[2.319E3],"tree_param":{"num_deleted":"0","num_feature":"2","num_nodes":"1","size_leaf_vector":"1"}},{"base_weights":[1.3807982E-6],"categories":[],"categories_nodes":[],"categories_segments":[],"categories_sizes":[],"default_left":[0],"id":19,"left_children":[-1],"loss_changes":[0E0],"parents":[2147483647],"right_children":[-1],"split_conditions":[6.903991E-7],"split_indices":[0],"split_type":[0],"sum_hessian":[2.319E3],"tree_param":{"num_deleted":"0","num_feature":"2","num_nodes":"1","size_leaf_vector":"1"}}]},"name":"gbtree"},"learner_model_param":{"base_score":"7.014594E-1","boost_from_average":"1","num_class":"0","num_feature":"2","num_target":"1"},"objective":{"name":"reg:squarederror","reg_loss_param":{"scale_pos_weight":"1"}}},"version":[2,1,1]}