{"learner":{"attributes":{},"feature_names":[],"feature_types":[],"gradient_booster":{"model":{"gbtree_model_param":{"num_parallel_tree":"1","num_trees":"20"},"iteration_indptr":[0,1,2,3,4,5,6,7,8,9,10,11,12,13,14,15,16,17,18,19,20],"tree_info":[0,0,0,0,0,0,0,0,0,0,0,0,0,0,0,0,0,0,0,0],"trees":[{"base_weights":[1.547798E-8,-3.863398E-2,2.1682498E-3,-3.9407432E-2,-2.6785824E-2,6.629483E-3,-7.211751E-3,-2.1358723E-2,-1.8502675E-2,-1.2010682E-3,1.4584744E-2,-9.7242305E-3,-5.5761333E-3,-1.3194648E-2,-6.13905E-3,-6.373266E-3,2.7962803E-4,-1.1783426E-3,1.5608053E-2,-8.990315E-3,-3.8947759E-3,-5.038867E-3,-4.7208015E-3,-6.836926E-4,2.256468E-3,-2.8198897E-3,1.4311605E-3,1.2940497E-2,9.567844E-3,-2.3116588E-3,-9.468804E-3,-2.864778E-3,-4.8576226E-3,-1.0097836E-3,-2.6231387E-3,-1.684175E-5,-1.1754632E-3,2.535276E-3,9.903482E-4,1.472107E-4,1.8032491E-3,7.4302703E-3,5.8292323E-3,1.250282E-4,-3.13963E-3,-5.4055587E-3,-3.682318E-3,-9.754678E-4,-1.5556033E-3,-1.8959421E-3,-2.7017882E-3],"categories":[],"categories_nodes":[],"categories_segments":[],"categories_sizes":[],"default_left":[0,0,0,0,0,0,0,0,0,0,0,0,0,0,0,0,0,0,0,0,0,0,0,0,0,0,0,0,0,0,0,0,0,0,0,0,0,0,0,0,0,0,0,0,0,0,0,0,0,0,0],"id":0,"left_children":[1,3,5,-1,7,9,11,13,-1,15,17,-1,19,-1,-1,21,23,25,27,29,31,-1,33,35,37,-1,39,41,-1,43,45,47,49,-1,-1,-1,-1,-1,-1,-1,-1,-1,-1,-1,-1,-1,-1,-1,-1,-1,-1],"loss_changes":[5.2019652E-2,1.3599172E-2,2.4653474E-2,0E0,7.0709735E-4,2.4872858E-2,3.694323E-3,5.896045E-4,0E0,1.5487899E-3,3.2122247E-3,0E0,9.3512237E-4,0E0,0E0,2.2789242E-4,3.0242695E-4,1.5941917E-4,1.5026666E-3,1.5387312E-4,1.0013301E-4,0E0,3.6246085E-5,1.15878545E-4,3.0311086E-5,0E0,2.1193295E-5,9.5060095E-5,0E0,5.238949E-5,6.442703E-5,6.9916714E-6,1.3257144E-5,0E0,0E0,0E0,0E0,0E0,0E0,0E0,0E0,0E0,0E0,0E0,0E0,0E0,0E0,0E0,0E0,0E0,0E0],"parents":[2147483647,0,0,1,1,2,2,4,4,5,5,6,6,7,7,9,9,10,10,12,12,15,15,16,16,17,17,18,18,19,19,20,20,22,22,23,23,24,24,26,26,27,27,29,29,30,30,31,31,32,32],"right_children":[2,4,6,-1,8,10,12,14,-1,16,18,-1,20,-1,-1,22,24,26,28,30,32,-1,34,36,38,-1,40,42,-1,44,46,48,50,-1,-1,-1,-1,-1,-1,-1,-1,-1,-1,-1,-1,-1,-1,-1,-1,-1,-1],"split_conditions":[6E0,2E0,2E0,-3.9407432E-2,2E0,1E0,1.7E1,4E0,-1.8502675E-2,2.6E1,1.1E1,-9.7242305E-3,4.5E1,-1.3194648E-2,-6.13905E-3,1.2E1,7.8E1,8E0,6.3E1,1.8E1,1E0,-5.038867E-3,1.4E1,6.4E1,7.9E1,-2.8198897E-3,1E1,3E1,9.567844E-3,1E0,3.3E1,5.9E1,6.5E1,-1.0097836E-3,-2.6231387E-3,-1.684175E-5,-1.1754632E-3,2.535276E-3,9.903482E-4,1.472107E-4,1.8032491E-3,7.4302703E-3,5.8292323E-3,1.250282E-4,-3.13963E-3,-5.4055587E-3,-3.682318E-3,-9.754678E-4,-1.5556033E-3,-1.8959421E-3,-2.7017882E-3],"split_indices":[0,0,2,0,2,2,0,0,0,0,0,0,0,0,0,0,0,0,0,0,1,0,0,0,0,0,0,0,0,1,0,0,0,0,0,0,0,0,0,0,0,0,0,0,0,0,0,0,0,0,0],"split_type":[0,0,0,0,0,0,0,0,0,0,0,0,0,0,0,0,0,0,0,0,0,0,0,0,0,0,0,0,0,0,0,0,0,0,0,0,0,0,0,0,0,0,0,0,0,0,0,0,0,0,0],"sum_hessian":[6.19E2,3.2E1,5.87E2,6E0,2.6E1,3.98E2,1.89E2,1.9E1,7E0,2.01E2,1.97E2,2.1E1,1.68E2,1.1E1,8E0,4.4E1,1.57E2,1.2E1,1.85E2,5.4E1,1.14E2,1.2E1,3.2E1,1.06E2,5.1E1,4E0,8E0,1.08E2,7.7E1,4E0,5E1,5.7E1,5.7E1,6E0,2.6E1,7.7E1,2.9E1,3E0,4.8E1,6E0,2E0,3.9E1,6.9E1,3E0,1E0,2.8E1,2.2E1,1.4E1,4.3E1,2.2E1,3.5E1],"tree_param":{"num_deleted":"0","num_feature":"3","num_nodes":"51","size_leaf_vector":"1"}},{"base_weights":[-1.4608329E-4,-3.3593975E-2,6.820759E-4,-2.2518532E-2,-2.0961132E-2,2.976013E-3,-4.1680997E-3,-1.264416E-2,-1.2441719E-2,-1.0099793E-3,7.0451135E-3,-7.1921316E-3,-3.111588E-3,-8.734365E-4,-9.494662E-3,-4.71322E-3,-4.0365057E-4,-2.610992E-3,7.880798E-3,-4.898931E-3,-1.8513276E-3,-2.2590354E-3,7.9025177E-4,-4.6802363E-3,-2.5163757E-4,6.183025E-3,9.512793E-3,-3.7877026E-3,-5.935813E-3,-1.2964606E-3,-2.3616354E-3,-1.4354045E-3,-8.8010036E-4,1.867671E-4,9.387759E-4,-1.1330843E-4,-2.9601625E-3,5.764961E-4,-1.1478364E-3,3.7125547E-3,2.5512294E-3,3.894949E-3,5.4680333E-3,-9.053424E-4,-2.0878585E-3,-4.149072E-3,-2.2822309E-3,1.5038252E-4,-7.935478E-4,-7.2529283E-4,-1.388433E-3],"categories":[],"categories_nodes":[],"categories_segments":[],"categories_sizes":[],"default_left":[0,0,0,0,0,0,0,0,0,0,0,0,0,0,0,0,0,0,0,0,0,0,0,0,0,0,0,0,0,0,0,0,0,0,0,0,0,0,0,0,0,0,0,0,0,0,0,0,0,0,0],"id":1,"left_children":[1,3,5,-1,7,9,11,-1,13,15,17,-1,19,-1,-1,-1,21,23,25,27,29,31,33,35,37,39,41,43,45,47,49,-1,-1,-1,-1,-1,-1,-1,-1,-1,-1,-1,-1,-1,-1,-1,-1,-1,-1,-1,-1],"loss_changes":[1.7197026E-2,1.2243539E-3,6.754759E-3,0E0,1.7155893E-5,6.6895084E-3,2.0599738E-3,0E0,3.169562E-4,1.0627517E-3,1.666747E-3,0E0,3.9187865E-4,0E0,0E0,0E0,4.3595428E-4,8.181765E-5,4.6208408E-4,6.162829E-5,2.6952446E-5,1.8445164E-5,5.367031E-5,4.8364338E-5,2.848691E-5,8.961838E-5,1.4531147E-4,2.158928E-5,7.874856E-5,2.5080451E-5,1.6399892E-5,0E0,0E0,0E0,0E0,0E0,0E0,0E0,0E0,0E0,0E0,0E0,0E0,0E0,0E0,0E0,0E0,0E0,0E0,0E0,0E0],"parents":[2147483647,0,0,1,1,2,2,4,4,5,5,6,6,8,8,9,9,10,10,12,12,16,16,17,17,18,18,19,19,20,20,21,21,22,22,23,23,24,24,25,25,26,26,27,27,28,28,29,29,30,30],"right_children":[2,4,6,-1,8,10,12,-1,14,16,18,-1,20,-1,-1,-1,22,24,26,28,30,32,34,36,38,40,42,44,46,48,50,-1,-1,-1,-1,-1,-1,-1,-1,-1,-1,-1,-1,-1,-1,-1,-1,-1,-1,-1,-1],"split_conditions":[3E0,2E0,2E0,-2.2518532E-2,1E0,1E0,1.2E1,-1.264416E-2,1E0,9E0,1E1,-7.1921316E-3,5E1,-8.734365E-4,-9.494662E-3,-4.71322E-3,4.5E1,7E0,5.5E1,1E0,1E0,2.3E1,8.6E1,4E0,9E0,3E1,1E0,1.8E1,2.3E1,5.8E1,6.5E1,-1.4354045E-3,-8.8010036E-4,1.867671E-4,9.387759E-4,-1.1330843E-4,-2.9601625E-3,5.764961E-4,-1.1478364E-3,3.7125547E-3,2.5512294E-3,3.894949E-3,5.4680333E-3,-9.053424E-4,-2.0878585E-3,-4.149072E-3,-2.2822309E-3,1.5038252E-4,-7.935478E-4,-7.2529283E-4,-1.388433E-3],"split_indices":[0,0,2,0,1,2,0,0,2,0,0,0,0,0,0,0,0,0,0,1,1,0,0,0,0,0,1,0,0,0,0,0,0,0,0,0,0,0,0,0,0,0,0,0,0,0,0,0,0,0,0],"split_type":[0,0,0,0,0,0,0,0,0,0,0,0,0,0,0,0,0,0,0,0,0,0,0,0,0,0,0,0,0,0,0,0,0,0,0,0,0,0,0,0,0,0,0,0,0,0,0,0,0,0,0],"sum_hessian":[6.19E2,1.4E1,6.05E2,6E0,8E0,4.11E2,1.94E2,4E0,4E0,2.08E2,2.03E2,1.7E1,1.77E2,2E0,2E0,1.3E1,1.95E2,1.6E1,1.87E2,7.2E1,1.05E2,7.6E1,1.19E2,8E0,8E0,9.4E1,9.3E1,3.7E1,3.5E1,5.2E1,5.3E1,3.2E1,4.4E1,8.7E1,3.2E1,2E0,6E0,5E0,3E0,4.1E1,5.3E1,4.5E1,4.8E1,7E0,3E1,1.1E1,2.4E1,8E0,4.4E1,1.8E1,3.5E1],"tree_param":{"num_deleted":"0","num_feature":"3","num_nodes":"51","size_leaf_vector":"1"}},{"base_weights":[-1.6791494E-4,-1.7097967E-2,4.2491674E-4,-1.1616472E-2,-1.4432813E-2,1.6104976E-3,-2.064549E-3,-6.7969696E-3,-6.055037E-3,-3.6682378E-4,3.619001E-3,-6.1788154E-3,-1.5294135E-3,-4.4846237E-3,-7.5538956E-5,-1.4501031E-3,3.9092684E-4,-1.0513015E-3,4.195656E-3,-3.8501173E-3,-3.9573745E-3,-2.4411385E-3,-8.553013E-4,-2.8339326E-3,-1.0087896E-3,1.4510041E-3,-1.6356913E-4,-1.5709301E-3,2.7312041E-4,3.7941544E-3,3.6089823E-3,-6.1477226E-4,-3.3202071E-3,-2.89104E-3,-1.8400445E-3,4.8257707E-4,-9.914261E-4,5.1825243E-4,-1.6607824E-3,1.123488E-3,-5.997462E-4,-7.0329224E-5,8.600942E-4,-9.529243E-3,2.7801492E-4,6.5147213E-4,-5.44978E-4,2.1322418E-3,-9.4419945E-4,1.4378726E-3,-1.5394837E-3,-1.1124611E-3,-1.755087E-3,2.2939593E-4,-1.0386561E-3,4.046758E-4,-3.0338765E-6,-1.0068621E-3,-3.830624E-4],"categories":[],"categories_nodes":[],"categories_segments":[],"categories_sizes":[],"default_left":[0,0,0,0,0,0,0,0,0,0,0,0,0,0,0,0,0,0,0,0,0,0,0,0,0,0,0,0,0,0,0,0,0,0,0,0,0,0,0,0,0,0,0,0,0,0,0,0,0,0,0,0,0,0,0,0,0,0,0],"id":2,"left_children":[1,3,5,7,-1,9,11,-1,13,15,17,19,21,-1,-1,23,25,27,29,-1,31,33,35,37,39,41,43,-1,45,47,-1,49,-1,51,53,55,57,-1,-1,-1,-1,-1,-1,-1,-1,-1,-1,-1,-1,-1,-1,-1,-1,-1,-1,-1,-1,-1,-1],"loss_changes":[6.230001E-3,1.0192748E-3,1.7742026E-3,9.364914E-5,0E0,1.6177103E-3,4.176778E-4,0E0,1.0187722E-4,1.6966314E-4,5.484284E-4,4.3881708E-5,1.04238716E-4,0E0,0E0,4.9050883E-5,7.194999E-5,6.454008E-5,1.9103708E-4,0E0,9.456935E-5,1.4421996E-5,1.8872408E-5,4.118982E-5,4.3673535E-5,1.8236875E-5,1.1119349E-3,0E0,2.247608E-5,4.3835305E-4,0E0,6.0462226E-5,0E0,8.686795E-6,1.9498002E-5,1.6016777E-6,1.9647137E-5,0E0,0E0,0E0,0E0,0E0,0E0,0E0,0E0,0E0,0E0,0E0,0E0,0E0,0E0,0E0,0E0,0E0,0E0,0E0,0E0,0E0,0E0],"parents":[2147483647,0,0,1,1,2,2,3,3,5,5,6,6,8,8,9,9,10,10,11,11,12,12,15,15,16,16,17,17,18,18,20,20,21,21,22,22,23,23,24,24,25,25,26,26,28,28,29,29,31,31,33,33,34,34,35,35,36,36],"right_children":[2,4,6,8,-1,10,12,-1,14,16,18,20,22,-1,-1,24,26,28,30,-1,32,34,36,38,40,42,44,-1,46,48,-1,50,-1,52,54,56,58,-1,-1,-1,-1,-1,-1,-1,-1,-1,-1,-1,-1,-1,-1,-1,-1,-1,-1,-1,-1,-1,-1],"split_conditions":[4E0,2E0,2E0,3E0,-1.4432813E-2,1E0,1.5E1,-6.7969696E-3,1E0,4.4E1,1.4E1,1E1,5.2E1,-4.4846237E-3,-7.5538956E-5,1.3E1,6.4E1,8E0,9.1E1,-3.8501173E-3,1E0,3.5E1,5.6E1,5E0,1.4E1,4.7E1,6.5E1,-1.5709301E-3,1E0,8.7E1,3.6089823E-3,1.1E1,-3.3202071E-3,1E0,3.6E1,5.4E1,6.4E1,5.1825243E-4,-1.6607824E-3,1.123488E-3,-5.997462E-4,-7.0329224E-5,8.600942E-4,-9.529243E-3,2.7801492E-4,6.5147213E-4,-5.44978E-4,2.1322418E-3,-9.4419945E-4,1.4378726E-3,-1.5394837E-3,-1.1124611E-3,-1.755087E-3,2.2939593E-4,-1.0386561E-3,4.046758E-4,-3.0338765E-6,-1.0068621E-3,-3.830624E-4],"split_indices":[0,2,2,0,0,2,0,0,2,0,0,0,0,0,0,0,0,0,0,0,1,0,0,0,0,0,0,0,1,0,0,0,0,1,0,0,0,0,0,0,0,0,0,0,0,0,0,0,0,0,0,0,0,0,0,0,0,0,0],"split_type":[0,0,0,0,0,0,0,0,0,0,0,0,0,0,0,0,0,0,0,0,0,0,0,0,0,0,0,0,0,0,0,0,0,0,0,0,0,0,0,0,0,0,0,0,0,0,0,0,0,0,0,0,0,0,0,0,0,0,0],"sum_hessian":[6.19E2,2E1,5.99E2,1.5E1,5E0,4.06E2,1.93E2,1E1,5E0,2.05E2,2.01E2,2.1E1,1.72E2,3E0,2E0,8.4E1,1.21E2,2.2E1,1.79E2,1.1E1,1E1,7.2E1,1E2,1.9E1,6.5E1,4.1E1,8E1,8E0,1.4E1,1.6E2,1.9E1,5E0,5E0,3.9E1,3.3E1,9E0,9.1E1,2E0,1.7E1,3E0,6.2E1,6E0,3.5E1,2E0,7.8E1,8E0,6E0,1.48E2,1.2E1,2E0,3E0,2.1E1,1.8E1,3E0,3E1,5E0,4E0,1.5E1,7.6E1],"tree_param":{"num_deleted":"0","num_feature":"3","num_nodes":"59","size_leaf_vector":"1"}},{"base_weights":[-1.5407521E-4,-1.7727852E-2,4.652822E-5,-5.0685406E-3,-1.2234926E-2,-4.000806E-3,3.2048568E-4,-5.382779E-3,-2.4187923E-3,9.191219E-4,-9.396608E-4,-3.8194547E-3,-2.362758E-3,-1.1853059E-3,-5.099376E-3,-1.2719451E-4,1.9822742E-3,-2.3205578E-3,-6.6981005E-4,-1.4061587E-3,-4.9266964E-4,1.3483167E-3,-1.9310713E-3,-3.3477347E-3,-2.6274621E-3,-3.0803017E-4,6.680102E-4,1.2496402E-3,3.2338845E-3,-1.5400298E-3,-3.1025878E-3,-1.0698291E-3,-4.3742493E-4,1.6833643E-3,-1.1767298E-3,-1.3598885E-3,-3.4453472E-4,-2.9672682E-4,-1.5538236E-3,-3.6913157E-4,5.5181692E-5,4.946446E-4,-6.0980136E-7,2.114959E-4,1.0482288E-3,2.331899E-3,9.7051874E-4,-4.434471E-4,-1.4650881E-3,-1.9466409E-3,-1.0114536E-3,-3.759183E-4,-6.754655E-4,8.4596024E-5,-3.3052225E-4],"categories":[],"categories_nodes":[],"categories_segments":[],"categories_sizes":[],"default_left":[0,0,0,0,0,0,0,0,0,0,0,0,0,0,0,0,0,0,0,0,0,0,0,0,0,0,0,0,0,0,0,0,0,0,0,0,0,0,0,0,0,0,0,0,0,0,0,0,0,0,0,0,0,0,0],"id":3,"left_children":[1,3,5,-1,-1,7,9,11,13,15,17,-1,19,21,23,25,27,29,31,-1,-1,33,35,-1,37,39,41,43,45,47,49,51,53,-1,-1,-1,-1,-1,-1,-1,-1,-1,-1,-1,-1,-1,-1,-1,-1,-1,-1,-1,-1,-1,-1],"loss_changes":[2.186548E-3,1.1018594E-4,6.8208383E-4,0E0,0E0,7.224589E-5,4.3538044E-4,1.1822238E-4,6.0084945E-5,4.3519805E-4,6.7756E-5,0E0,3.421228E-6,3.0946016E-5,6.080343E-6,2.8678442E-5,1.7385144E-4,1.3533805E-5,1.4126512E-5,0E0,0E0,3.7810296E-5,9.880776E-6,0E0,2.0625575E-6,2.9242561E-5,7.95656E-6,8.5915715E-5,1.2220215E-4,1.2836463E-5,4.076006E-6,4.079455E-6,1.381264E-5,0E0,0E0,0E0,0E0,0E0,0E0,0E0,0E0,0E0,0E0,0E0,0E0,0E0,0E0,0E0,0E0,0E0,0E0,0E0,0E0,0E0,0E0],"parents":[2147483647,0,0,1,1,2,2,5,5,6,6,7,7,8,8,9,9,10,10,12,12,13,13,14,14,15,15,16,16,17,17,18,18,21,21,22,22,24,24,25,25,26,26,27,27,28,28,29,29,30,30,31,31,32,32],"right_children":[2,4,6,-1,-1,8,10,12,14,16,18,-1,20,22,24,26,28,30,32,-1,-1,34,36,-1,38,40,42,44,46,48,50,52,54,-1,-1,-1,-1,-1,-1,-1,-1,-1,-1,-1,-1,-1,-1,-1,-1,-1,-1,-1,-1,-1,-1],"split_conditions":[2E0,2E0,8E0,-5.0685406E-3,-1.2234926E-2,1E0,2E0,5E0,2E0,1E0,2.2E1,-3.8194547E-3,7E0,3E0,5E0,8.4E1,6.7E1,1E0,5.2E1,-1.4061587E-3,-4.9266964E-4,1E0,1E0,-3.3477347E-3,6E0,1E0,9.6E1,1E0,8.4E1,1.8E1,1.5E1,1E0,6.5E1,1.6833643E-3,-1.1767298E-3,-1.3598885E-3,-3.4453472E-4,-2.9672682E-4,-1.5538236E-3,-3.6913157E-4,5.5181692E-5,4.946446E-4,-6.0980136E-7,2.114959E-4,1.0482288E-3,2.331899E-3,9.7051874E-4,-4.434471E-4,-1.4650881E-3,-1.9466409E-3,-1.0114536E-3,-3.759183E-4,-6.754655E-4,8.4596024E-5,-3.3052225E-4],"split_indices":[0,2,0,0,0,1,2,0,2,2,0,0,0,0,0,0,0,1,0,0,0,2,2,0,0,1,0,1,0,0,0,1,0,0,0,0,0,0,0,0,0,0,0,0,0,0,0,0,0,0,0,0,0,0,0],"split_type":[0,0,0,0,0,0,0,0,0,0,0,0,0,0,0,0,0,0,0,0,0,0,0,0,0,0,0,0,0,0,0,0,0,0,0,0,0,0,0,0,0,0,0,0,0,0,0,0,0,0,0,0,0,0,0],"sum_hessian":[6.19E2,6E0,6.13E2,4E0,2E0,3.8E1,5.75E2,1.9E1,1.9E1,3.9E2,1.85E2,1E1,9E0,1.4E1,5E0,1.97E2,1.93E2,2.9E1,1.56E2,6E0,3E0,3E0,1.1E1,2E0,3E0,1.61E2,3.6E1,1.23E2,7E1,1.6E1,1.3E1,5.6E1,1E2,2E0,1E0,6E0,5E0,1E0,2E0,7.9E1,8.2E1,2.4E1,1.2E1,6.3E1,6E1,3.2E1,3.8E1,1.2E1,4E0,6E0,7E0,2.8E1,2.8E1,2.7E1,7.3E1],"tree_param":{"num_deleted":"0","num_feature":"3","num_nodes":"55","size_leaf_vector":"1"}},{"base_weights":[-1.2678148E-4,-1.133585E-2,1.2156823E-6,-3.0411244E-3,-8.156617E-3,-1.7014382E-3,2.3053768E-4,-3.1870643E-3,-1.2948988E-3,5.3820113E-4,-4.1775193E-4,-4.12133E-3,-1.5305707E-3,-8.101985E-4,-2.1995544E-3,-3.2747175E-5,1.1218777E-3,-6.7780114E-4,-7.797758E-5,-5.5663823E-3,-1.8520117E-3,-3.3662716E-4,-2.1735579E-3,7.033587E-4,-9.979092E-4,-2.233088E-3,-1.6995867E-3,-8.6152024E-5,5.165272E-4,7.8297127E-4,2.882902E-3,-5.550741E-4,-2.0044371E-3,4.6964884E-3,-3.3500307E-4,-3.4410655E-3,-1.1975864E-3,-2.2011995E-4,-1.3232231E-3,4.004091E-4,-8.70506E-4,7.9879165E-4,-2.1265943E-4,-1.4244675E-3,-3.387509E-4,-4.7733568E-4,-1.2556985E-3,-1.7471484E-5,-9.3061925E-4,5.6854007E-4,-6.3901916E-3,2.344104E-3,6.663957E-4,-4.3068756E-4,-1.459712E-4,-4.9007684E-4,-1.2114883E-3,-5.7698786E-4,3.5156508E-3,-7.092804E-4,-8.1574E-5],"categories":[],"categories_nodes":[],"categories_segments":[],"categories_sizes":[],"default_left":[0,0,0,0,0,0,0,0,0,0,0,0,0,0,0,0,0,0,0,0,0,0,0,0,0,0,0,0,0,0,0,0,0,0,0,0,0,0,0,0,0,0,0,0,0,0,0,0,0,0,0,0,0,0,0,0,0,0,0,0,0],"id":4,"left_children":[1,3,5,-1,-1,7,9,11,13,15,17,19,21,23,25,27,29,31,33,35,37,39,-1,41,43,-1,45,47,-1,49,51,53,55,57,59,-1,-1,-1,-1,-1,-1,-1,-1,-1,-1,-1,-1,-1,-1,-1,-1,-1,-1,-1,-1,-1,-1,-1,-1,-1,-1],"loss_changes":[8.895458E-4,8.3823106E-5,2.4013224E-4,0E0,0E0,3.9962557E-5,1.0832945E-4,1.690611E-5,2.4088651E-5,1.2267241E-4,1.5409802E-5,1.920454E-5,2.207621E-5,1.2066324E-5,1.5074103E-5,1.0732848E-5,1.0636446E-4,1.500599E-5,9.6064614E-5,4.378686E-6,4.442729E-6,1.0978699E-5,0E0,5.725938E-6,1.9420811E-5,0E0,8.487579E-6,1.6206151E-5,0E0,7.5417967E-4,7.4905896E-5,7.1635004E-6,1.0547337E-6,6.275292E-5,1.3548467E-5,0E0,0E0,0E0,0E0,0E0,0E0,0E0,0E0,0E0,0E0,0E0,0E0,0E0,0E0,0E0,0E0,0E0,0E0,0E0,0E0,0E0,0E0,0E0,0E0,0E0,0E0],"parents":[2147483647,0,0,1,1,2,2,5,5,6,6,7,7,8,8,9,9,10,10,11,11,12,12,13,13,14,14,15,15,16,16,17,17,18,18,19,19,20,20,21,21,23,23,24,24,26,26,27,27,29,29,30,30,31,31,32,32,33,33,34,34],"right_children":[2,4,6,-1,-1,8,10,12,14,16,18,20,22,24,26,28,30,32,34,36,38,40,-1,42,44,-1,46,48,-1,50,52,54,56,58,60,-1,-1,-1,-1,-1,-1,-1,-1,-1,-1,-1,-1,-1,-1,-1,-1,-1,-1,-1,-1,-1,-1,-1,-1,-1,-1],"split_conditions":[2E0,2E0,1.3E1,-3.0411244E-3,-8.156617E-3,4E0,2E0,1E0,2E0,1E0,6.4E1,1E0,2E0,5E0,5E0,9.7E1,8.8E1,6E1,6.5E1,3E0,2E0,3E0,-2.1735579E-3,1E0,6E0,-2.233088E-3,1E0,9.6E1,5.165272E-4,8.7E1,1E0,3.5E1,1E0,1E0,7E1,-3.4410655E-3,-1.1975864E-3,-2.2011995E-4,-1.3232231E-3,4.004091E-4,-8.70506E-4,7.9879165E-4,-2.1265943E-4,-1.4244675E-3,-3.387509E-4,-4.7733568E-4,-1.2556985E-3,-1.7471484E-5,-9.3061925E-4,5.6854007E-4,-6.3901916E-3,2.344104E-3,6.663957E-4,-4.3068756E-4,-1.459712E-4,-4.9007684E-4,-1.2114883E-3,-5.7698786E-4,3.5156508E-3,-7.092804E-4,-8.1574E-5],"split_indices":[0,2,0,0,0,0,2,1,2,2,0,2,2,0,0,0,0,0,0,0,2,0,0,2,0,0,1,0,0,0,1,0,1,1,0,0,0,0,0,0,0,0,0,0,0,0,0,0,0,0,0,0,0,0,0,0,0,0,0,0,0],"split_type":[0,0,0,0,0,0,0,0,0,0,0,0,0,0,0,0,0,0,0,0,0,0,0,0,0,0,0,0,0,0,0,0,0,0,0,0,0,0,0,0,0,0,0,0,0,0,0,0,0,0,0,0,0,0,0,0,0,0,0,0,0],"sum_hessian":[6.19E2,6E0,6.13E2,4E0,2E0,7.2E1,5.41E2,1.4E1,5.8E1,3.67E2,1.74E2,8E0,6E0,3.9E1,1.9E1,1.86E2,1.81E2,9.8E1,7.6E1,4E0,4E0,5E0,1E0,4E0,3.5E1,2E0,1.7E1,1.78E2,8E0,1.53E2,2.8E1,9.1E1,7E0,3E0,7.3E1,2E0,2E0,2E0,2E0,3E0,2E0,2E0,2E0,4E0,3.1E1,1E1,7E0,1.74E2,4E0,1.5E2,3E0,1.2E1,1.6E1,4.1E1,5E1,3E0,4E0,1E0,2E0,9E0,6.4E1],"tree_param":{"num_deleted":"0","num_feature":"3","num_nodes":"61","size_leaf_vector":"1"}},{"base_weights":[-1.09429224E-4,-7.2675943E-3,-2.7643257E-5,-3.6493302E-3,-5.4377518E-3,-1.491079E-3,7.149153E-5,-2.6572545E-3,-3.838539E-4,-2.1819153E-3,-1.0169339E-3,-1.1660329E-4,4.256928E-4,-2.7475622E-3,-1.1429532E-3,-6.7908625E-4,-1.542098E-3,-4.5494067E-5,-8.564844E-4,1.2544378E-3,2.2355237E-4,-3.7109375E-3,-1.2346745E-3,-2.466639E-4,-1.6301721E-3,4.6892167E-4,-1.0683903E-3,-1.4887253E-3,-7.066471E-4,1.365103E-4,-4.3556257E-4,-2.3554529E-3,6.928654E-4,1.9274744E-3,-8.508989E-5,-2.6447943E-3,3.508272E-4,-2.2940536E-3,-7.9839426E-4,-1.4674664E-4,-8.8214874E-4,2.502501E-4,-5.8033067E-4,5.325377E-4,-1.4176965E-4,-8.687292E-4,-1.2334755E-4,3.159841E-4,-6.8424345E-4,-2.4903342E-5,3.8269494E-4,-6.867892E-5,-3.6563494E-4,-4.8843473E-3,-3.4568566E-5,1.7962232E-3,-9.253834E-5,3.2565743E-4,1.032806E-3,1.8928573E-4,-3.0141644E-4,-3.5891533E-3,3.0213594E-4,-2.1408002E-6,3.4850006E-4],"categories":[],"categories_nodes":[],"categories_segments":[],"categories_sizes":[],"default_left":[0,0,0,0,0,0,0,0,0,0,0,0,0,0,0,0,0,0,0,0,0,0,0,0,0,0,0,0,0,0,0,0,0,0,0,0,0,0,0,0,0,0,0,0,0,0,0,0,0,0,0,0,0,0,0,0,0,0,0,0,0,0,0,0,0],"id":5,"left_children":[1,3,5,7,-1,9,11,-1,-1,13,15,17,19,21,23,25,27,29,31,33,35,37,39,41,-1,43,45,-1,47,49,51,53,55,57,59,61,63,-1,-1,-1,-1,-1,-1,-1,-1,-1,-1,-1,-1,-1,-1,-1,-1,-1,-1,-1,-1,-1,-1,-1,-1,-1,-1,-1,-1],"loss_changes":[3.627703E-4,5.1692274E-5,8.918411E-5,1.9912091E-5,0E0,1.055585E-5,3.842473E-5,0E0,0E0,5.6749486E-6,3.3884207E-6,1.9795898E-5,3.3224143E-5,8.535506E-6,1.2480355E-5,8.098703E-6,8.688494E-6,2.4552448E-5,7.827209E-5,3.5324498E-5,6.0068942E-5,1.9461004E-6,1.9745466E-6,4.678348E-6,0E0,2.5449026E-6,6.7183873E-6,0E0,7.066482E-6,2.7690463E-5,9.599498E-6,2.8745778E-4,4.394117E-5,3.238063E-6,3.589019E-6,1.0744542E-4,1.9179919E-5,0E0,0E0,0E0,0E0,0E0,0E0,0E0,0E0,0E0,0E0,0E0,0E0,0E0,0E0,0E0,0E0,0E0,0E0,0E0,0E0,0E0,0E0,0E0,0E0,0E0,0E0,0E0,0E0],"parents":[2147483647,0,0,1,1,2,2,3,3,5,5,6,6,9,9,10,10,11,11,12,12,13,13,14,14,15,15,16,16,17,17,18,18,19,19,20,20,21,21,22,22,23,23,25,25,26,26,28,28,29,29,30,30,31,31,32,32,33,33,34,34,35,35,36,36],"right_children":[2,4,6,8,-1,10,12,-1,-1,14,16,18,20,22,24,26,28,30,32,34,36,38,40,42,-1,44,46,-1,48,50,52,54,56,58,60,62,64,-1,-1,-1,-1,-1,-1,-1,-1,-1,-1,-1,-1,-1,-1,-1,-1,-1,-1,-1,-1,-1,-1,-1,-1,-1,-1,-1,-1],"split_conditions":[2E0,2E0,8E0,1E0,-5.4377518E-3,4E0,6.9E1,-2.6572545E-3,-3.838539E-4,1E0,2E0,6.4E1,7.6E1,1E0,2E0,5E0,5E0,2E0,1E0,2E0,7.7E1,3E0,2E0,3E0,-1.6301721E-3,1E0,1E0,-1.4887253E-3,6E0,5.1E1,1E0,6.5E1,6.5E1,7E1,1E0,1E0,1E0,-2.2940536E-3,-7.9839426E-4,-1.4674664E-4,-8.8214874E-4,2.502501E-4,-5.8033067E-4,5.325377E-4,-1.4176965E-4,-8.687292E-4,-1.2334755E-4,3.159841E-4,-6.8424345E-4,-2.4903342E-5,3.8269494E-4,-6.867892E-5,-3.6563494E-4,-4.8843473E-3,-3.4568566E-5,1.7962232E-3,-9.253834E-5,3.2565743E-4,1.032806E-3,1.8928573E-4,-3.0141644E-4,-3.5891533E-3,3.0213594E-4,-2.1408002E-6,3.4850006E-4],"split_indices":[0,2,0,2,0,0,0,0,0,1,2,0,0,2,2,0,0,2,1,2,0,0,2,0,0,2,2,0,0,0,1,0,0,0,1,2,1,0,0,0,0,0,0,0,0,0,0,0,0,0,0,0,0,0,0,0,0,0,0,0,0,0,0,0,0],"split_type":[0,0,0,0,0,0,0,0,0,0,0,0,0,0,0,0,0,0,0,0,0,0,0,0,0,0,0,0,0,0,0,0,0,0,0,0,0,0,0,0,0,0,0,0,0,0,0,0,0,0,0,0,0,0,0,0,0,0,0,0,0,0,0,0,0],"sum_hessian":[6.19E2,6E0,6.13E2,4E0,2E0,3.8E1,5.75E2,2E0,2E0,1.4E1,2.4E1,3.76E2,1.99E2,8E0,6E0,1.6E1,8E0,3.44E2,3.2E1,3.8E1,1.61E2,4E0,4E0,5E0,1E0,4E0,1.2E1,2E0,6E0,2.35E2,1.09E2,1.6E1,1.6E1,2.5E1,1.3E1,6E0,1.55E2,2E0,2E0,2E0,2E0,3E0,2E0,2E0,2E0,6E0,6E0,2E0,4E0,1.82E2,5.3E1,5.5E1,5.4E1,3E0,1.3E1,3E0,1.3E1,3E0,2.2E1,7E0,6E0,2E0,4E0,7.7E1,7.8E1],"tree_param":{"num_deleted":"0","num_feature":"3","num_nodes":"65","size_leaf_vector":"1"}},{"base_weights":[-9.020913E-5,-4.8450744E-3,-3.585365E-5,-2.4328947E-3,-3.6251743E-3,-7.902806E-4,5.337108E-5,-1.7715096E-3,-2.5590262E-4,-5.102326E-4,-1.3948769E-3,-1.311222E-4,2.3700253E-4,-1.6750012E-3,-2.9364228E-4,-9.953082E-4,-3.3273299E-3,-2.7031644E-4,6.698966E-4,5.3069723E-4,-3.8604924E-4,-1.6220212E-3,3.1279027E-4,2.5535197E-4,-8.554041E-4,-1.6199747E-3,1.5960187E-3,-2.04131E-3,-4.541874E-4,-6.674869E-5,-9.621084E-3,1.2313458E-3,-3.8537185E-4,8.3266445E-5,9.868549E-4,-1.5947703E-4,-8.7395735E-4,9.053449E-4,-1.045227E-3,-2.4661754E-4,3.7698104E-4,-2.2988766E-4,-6.4393214E-4,-1.1978298E-3,-4.962832E-4,1.2883842E-3,-3.3655763E-4,-1.4523434E-4,3.1878162E-4,-2.2536516E-4,-5.9004948E-3,1.6318075E-3,1.7843544E-4,-6.8552047E-4,3.2423437E-4,1.3589144E-3,-3.0410678E-5,-5.6953233E-4,5.6029484E-4,-1.6221174E-4,3.173839E-4,-6.03497E-4,-2.5242966E-4],"categories":[],"categories_nodes":[],"categories_segments":[],"categories_sizes":[],"default_left":[0,0,0,0,0,0,0,0,0,0,0,0,0,0,0,0,0,0,0,0,0,0,0,0,0,0,0,0,0,0,0,0,0,0,0,0,0,0,0,0,0,0,0,0,0,0,0,0,0,0,0,0,0,0,0,0,0,0,0,0,0,0,0],"id":6,"left_children":[1,3,5,7,-1,9,11,-1,-1,13,15,17,19,21,23,25,27,29,31,33,35,-1,37,39,41,43,45,-1,-1,47,49,51,53,55,57,59,61,-1,-1,-1,-1,-1,-1,-1,-1,-1,-1,-1,-1,-1,-1,-1,-1,-1,-1,-1,-1,-1,-1,-1,-1,-1,-1],"loss_changes":[1.6006712E-4,2.2974345E-5,4.137269E-5,8.849907E-6,0E0,1.0293828E-5,1.86644E-5,0E0,0E0,1.111292E-5,1.2131237E-5,3.0842813E-5,5.0709285E-5,2.2847193E-5,1.255459E-5,3.172239E-5,1.7724888E-6,4.4668379E-4,2.4766196E-5,3.8288435E-5,9.699255E-6,0E0,1.8184437E-5,8.210195E-6,2.8297454E-6,4.9222144E-6,1.063627E-5,0E0,0E0,3.658355E-5,9.463346E-5,4.6818863E-5,1.6174447E-5,3.6607697E-5,2.77172E-5,8.328422E-6,2.8324903E-6,0E0,0E0,0E0,0E0,0E0,0E0,0E0,0E0,0E0,0E0,0E0,0E0,0E0,0E0,0E0,0E0,0E0,0E0,0E0,0E0,0E0,0E0,0E0,0E0,0E0,0E0],"parents":[2147483647,0,0,1,1,2,2,3,3,5,5,6,6,9,9,10,10,11,11,12,12,13,13,14,14,15,15,16,16,17,17,18,18,19,19,20,20,22,22,23,23,24,24,25,25,26,26,29,29,30,30,31,31,32,32,33,33,34,34,35,35,36,36],"right_children":[2,4,6,8,-1,10,12,-1,-1,14,16,18,20,22,24,26,28,30,32,34,36,-1,38,40,42,44,46,-1,-1,48,50,52,54,56,58,60,62,-1,-1,-1,-1,-1,-1,-1,-1,-1,-1,-1,-1,-1,-1,-1,-1,-1,-1,-1,-1,-1,-1,-1,-1,-1,-1],"split_conditions":[2E0,2E0,1.2E1,1E0,-3.6251743E-3,2E0,1E0,-1.7715096E-3,-2.5590262E-4,3E0,1.1E1,8.8E1,2E0,1E0,1E0,1E1,1E0,8.7E1,2E0,1E0,7.5E1,-1.6220212E-3,1E0,7E0,8E0,5E0,1E0,-2.04131E-3,-4.541874E-4,6.9E1,1E0,9.1E1,9.5E1,1.4E1,1.7E1,6.4E1,8.8E1,9.053449E-4,-1.045227E-3,-2.4661754E-4,3.7698104E-4,-2.2988766E-4,-6.4393214E-4,-1.1978298E-3,-4.962832E-4,1.2883842E-3,-3.3655763E-4,-1.4523434E-4,3.1878162E-4,-2.2536516E-4,-5.9004948E-3,1.6318075E-3,1.7843544E-4,-6.8552047E-4,3.2423437E-4,1.3589144E-3,-3.0410678E-5,-5.6953233E-4,5.6029484E-4,-1.6221174E-4,3.173839E-4,-6.03497E-4,-2.5242966E-4],"split_indices":[0,2,0,2,0,2,1,0,0,0,0,0,2,1,1,0,1,0,2,2,0,0,2,0,0,0,1,0,0,0,2,0,0,0,0,0,0,0,0,0,0,0,0,0,0,0,0,0,0,0,0,0,0,0,0,0,0,0,0,0,0,0,0],"split_type":[0,0,0,0,0,0,0,0,0,0,0,0,0,0,0,0,0,0,0,0,0,0,0,0,0,0,0,0,0,0,0,0,0,0,0,0,0,0,0,0,0,0,0,0,0,0,0,0,0,0,0,0,0,0,0,0,0,0,0,0,0,0,0],"sum_hessian":[6.19E2,6E0,6.13E2,4E0,2E0,6.4E1,5.49E2,2E0,2E0,4.5E1,1.9E1,2.74E2,2.75E2,6E0,3.9E1,1.7E1,2E0,2.34E2,4E1,1.87E2,8.8E1,3E0,3E0,2E1,1.9E1,1.4E1,3E0,1E0,1E0,2.3E2,4E0,2.6E1,1.4E1,9.5E1,9.2E1,6.1E1,2.7E1,2E0,1E0,8E0,1.2E1,1.1E1,8E0,5E0,9E0,2E0,1E0,1.75E2,5.5E1,1E0,3E0,7E0,1.9E1,7E0,7E0,4E0,9.1E1,5E0,8.7E1,5.1E1,1E1,1.3E1,1.4E1],"tree_param":{"num_deleted":"0","num_feature":"3","num_nodes":"63","size_leaf_vector":"1"}},{"base_weights":[-6.974734E-5,-3.230061E-3,-3.360411E-5,-1.6219377E-3,-2.4167895E-3,-4.2549646E-4,3.8949394E-5,-1.1810064E-3,-1.7060836E-4,-7.0049864E-4,-2.5622474E-4,1.9289181E-3,-2.112689E-5,-1.4304939E-3,-4.4977663E-5,1.1933753E-4,-6.7475333E-4,3.1553626E-3,-9.870529E-5,-1.0854602E-3,1.14978575E-5,-6.1868626E-4,-1.4078468E-3,1.7651584E-4,-6.794731E-4,6.7046285E-4,-5.0813705E-4,-1.3974806E-3,-4.6595684E-4,3.9788685E-3,1.5360832E-3,8.376986E-4,-5.052164E-4,-1.4291585E-3,-1.8093803E-4,5.732448E-4,-4.1074236E-5,-1.0131449E-3,3.3810735E-4,-1.6971031E-4,1.0335743E-3,8.175694E-5,8.285542E-4,-3.2226246E-5,-4.7188252E-4,-2.0660956E-4,-8.9315325E-4,3.7608543E-4,-3.0544263E-4,3.644824E-4,2.7107894E-3,1.2428388E-3,-5.655736E-4,8.1593794E-4,-3.862083E-4,5.2036345E-4,-6.862233E-4,-2.952715E-4,5.881148E-4,-1.15702285E-4,7.4719326E-5],"categories":[],"categories_nodes":[],"categories_segments":[],"categories_sizes":[],"default_left":[0,0,0,0,0,0,0,0,0,0,0,0,0,0,0,0,0,0,0,0,0,0,0,0,0,0,0,0,0,0,0,0,0,0,0,0,0,0,0,0,0,0,0,0,0,0,0,0,0,0,0,0,0,0,0,0,0,0,0,0,0],"id":7,"left_children":[1,3,5,7,-1,9,11,-1,-1,13,15,17,19,21,23,25,27,29,31,33,35,37,-1,39,-1,41,43,45,47,49,51,53,-1,-1,55,57,59,-1,-1,-1,-1,-1,-1,-1,-1,-1,-1,-1,-1,-1,-1,-1,-1,-1,-1,-1,-1,-1,-1,-1,-1],"loss_changes":[7.071029E-5,1.0210817E-5,1.7474533E-5,3.93319E-6,0E0,4.2893244E-6,5.8969203E-5,0E0,0E0,1.716264E-5,9.66872E-6,4.0099734E-5,1.7513177E-5,1.737474E-5,6.0605853E-6,1.1752652E-5,3.7250202E-6,7.2229814E-6,6.8226545E-6,2.3536644E-5,1.4494331E-5,2.3242692E-5,0E0,1.8259669E-5,0E0,8.732261E-6,3.0316742E-6,1.5581027E-6,4.6964838E-6,2.4179884E-5,1.5475602E-5,6.375356E-6,0E0,0E0,1.744021E-5,3.0167957E-5,1.6315491E-5,0E0,0E0,0E0,0E0,0E0,0E0,0E0,0E0,0E0,0E0,0E0,0E0,0E0,0E0,0E0,0E0,0E0,0E0,0E0,0E0,0E0,0E0,0E0,0E0],"parents":[2147483647,0,0,1,1,2,2,3,3,5,5,6,6,9,9,10,10,11,11,12,12,13,13,14,14,15,15,16,16,17,17,18,18,19,19,20,20,21,21,23,23,25,25,26,26,27,27,28,28,29,29,30,30,31,31,34,34,35,35,36,36],"right_children":[2,4,6,8,-1,10,12,-1,-1,14,16,18,20,22,24,26,28,30,32,34,36,38,-1,40,-1,42,44,46,48,50,52,54,-1,-1,56,58,60,-1,-1,-1,-1,-1,-1,-1,-1,-1,-1,-1,-1,-1,-1,-1,-1,-1,-1,-1,-1,-1,-1,-1,-1],"split_conditions":[2E0,2E0,1.7E1,1E0,-2.4167895E-3,1E0,1.9E1,-1.1810064E-3,-1.7060836E-4,1E0,2E0,1E0,2.1E1,1.2E1,1.5E1,1E0,5E0,2E0,1.8E1,1E0,2.8E1,6E0,-1.4078468E-3,1.3E1,-6.794731E-4,1.2E1,1E1,3E0,6E0,1.8E1,1.8E1,1E0,-5.052164E-4,-1.4291585E-3,2E1,1E0,1E0,-1.0131449E-3,3.3810735E-4,-1.6971031E-4,1.0335743E-3,8.175694E-5,8.285542E-4,-3.2226246E-5,-4.7188252E-4,-2.0660956E-4,-8.9315325E-4,3.7608543E-4,-3.0544263E-4,3.644824E-4,2.7107894E-3,1.2428388E-3,-5.655736E-4,8.1593794E-4,-3.862083E-4,5.2036345E-4,-6.862233E-4,-2.952715E-4,5.881148E-4,-1.15702285E-4,7.4719326E-5],"split_indices":[0,2,0,2,0,2,0,0,0,1,2,1,0,0,0,1,0,2,0,2,0,0,0,0,0,0,0,0,0,0,0,2,0,0,0,2,1,0,0,0,0,0,0,0,0,0,0,0,0,0,0,0,0,0,0,0,0,0,0,0,0],"split_type":[0,0,0,0,0,0,0,0,0,0,0,0,0,0,0,0,0,0,0,0,0,0,0,0,0,0,0,0,0,0,0,0,0,0,0,0,0,0,0,0,0,0,0,0,0,0,0,0,0,0,0,0,0,0,0,0,0,0,0,0,0],"sum_hessian":[6.19E2,6E0,6.13E2,4E0,2E0,9.5E1,5.18E2,2E0,2E0,3.5E1,6E1,1.5E1,5.03E2,1.6E1,1.9E1,3.2E1,2.8E1,9E0,6E0,1.4E1,4.89E2,1.1E1,5E0,1.7E1,2E0,1.7E1,1.5E1,5E0,2.3E1,5E0,4E0,3E0,3E0,4E0,1E1,4.1E1,4.48E2,5E0,6E0,1.4E1,3E0,1.2E1,5E0,8E0,7E0,2E0,3E0,2E0,2.1E1,2E0,3E0,3E0,1E0,2E0,1E0,5E0,5E0,1.4E1,2.7E1,2.24E2,2.24E2],"tree_param":{"num_deleted":"0","num_feature":"3","num_nodes":"61","size_leaf_vector":"1"}},{"base_weights":[-4.126776E-5,-2.1533796E-3,-1.7121094E-5,-1.0812997E-3,-1.6111931E-3,-4.2844506E-5,5.6627166E-4,-7.873376E-4,-1.1374553E-4,-9.34826E-6,-3.0813523E-4,7.3605776E-4,2.2100806E-4,-7.156921E-5,4.2351178E-4,-2.4584383E-3,-1.1346097E-5,1.8618505E-4,5.089806E-4,5.896489E-4,-1.3278126E-4,-4.349968E-5,-1.8778443E-3,-2.4620158E-4,8.378785E-4,-5.9431554E-3,2.5120676E-3,1.492098E-3,-2.4242699E-4,-1.0271867E-5,4.4994056E-4,-4.0996172E-5,3.3985532E-4,-2.4075508E-3,1.3003945E-4,8.672263E-4,-4.6356022E-4,6.621465E-4,1.7879903E-4,-4.293926E-3,1.158908E-3,-4.1495264E-4,1.9513468E-3,-3.0144057E-4,1.1454523E-3,1.5727997E-4,-3.655393E-4],"categories":[],"categories_nodes":[],"categories_segments":[],"categories_sizes":[],"default_left":[0,0,0,0,0,0,0,0,0,0,0,0,0,0,0,0,0,0,0,0,0,0,0,0,0,0,0,0,0,0,0,0,0,0,0,0,0,0,0,0,0,0,0,0,0,0,0],"id":8,"left_children":[1,3,5,7,-1,9,11,-1,-1,13,15,17,19,21,23,25,27,-1,-1,29,-1,31,33,35,37,39,41,43,45,-1,-1,-1,-1,-1,-1,-1,-1,-1,-1,-1,-1,-1,-1,-1,-1,-1,-1],"loss_changes":[3.158341E-5,4.5380584E-6,9.238469E-6,1.748017E-6,0E0,5.231117E-6,1.3614717E-6,0E0,0E0,1.4143182E-5,4.2092423E-5,1.3638637E-6,1.9502863E-6,2.3190205E-5,1.8521743E-5,1.5349605E-4,2.085934E-5,0E0,0E0,1.1542957E-6,0E0,1.2666476E-5,4.520973E-5,3.6673333E-5,9.1046695E-6,1.2914388E-4,2.1828604E-5,1.4769006E-5,1.4382942E-5,0E0,0E0,0E0,0E0,0E0,0E0,0E0,0E0,0E0,0E0,0E0,0E0,0E0,0E0,0E0,0E0,0E0,0E0],"parents":[2147483647,0,0,1,1,2,2,3,3,5,5,6,6,9,9,10,10,11,11,12,12,13,13,14,14,15,15,16,16,19,19,21,21,22,22,23,23,24,24,25,25,26,26,27,27,28,28],"right_children":[2,4,6,8,-1,10,12,-1,-1,14,16,18,20,22,24,26,28,-1,-1,30,-1,32,34,36,38,40,42,44,46,-1,-1,-1,-1,-1,-1,-1,-1,-1,-1,-1,-1,-1,-1,-1,-1,-1,-1],"split_conditions":[2E0,2E0,9.7E1,1E0,-1.6111931E-3,8.7E1,2E0,-7.873376E-4,-1.1374553E-4,7.7E1,8.8E1,1E0,1E0,7.6E1,1E0,1E0,8.9E1,1.8618505E-4,5.089806E-4,9.9E1,-1.3278126E-4,7.2E1,1E0,7.9E1,2E0,2E0,1E0,1E0,1E0,-1.0271867E-5,4.4994056E-4,-4.0996172E-5,3.3985532E-4,-2.4075508E-3,1.3003945E-4,8.672263E-4,-4.6356022E-4,6.621465E-4,1.7879903E-4,-4.293926E-3,1.158908E-3,-4.1495264E-4,1.9513468E-3,-3.0144057E-4,1.1454523E-3,1.5727997E-4,-3.655393E-4],"split_indices":[0,2,0,2,0,0,2,0,0,0,0,2,1,0,2,1,0,0,0,0,0,0,2,0,2,2,2,2,1,0,0,0,0,0,0,0,0,0,0,0,0,0,0,0,0,0,0],"split_type":[0,0,0,0,0,0,0,0,0,0,0,0,0,0,0,0,0,0,0,0,0,0,0,0,0,0,0,0,0,0,0,0,0,0,0,0,0,0,0,0,0,0,0,0,0,0,0],"sum_hessian":[6.19E2,6E0,6.13E2,4E0,2E0,5.88E2,2.5E1,2E0,2E0,5.23E2,6.5E1,1.6E1,9E0,4.58E2,6.5E1,7E0,5.8E1,8E0,8E0,5E0,4E0,4.52E2,6E0,2.5E1,4E1,4E0,3E0,7E0,5.1E1,2E0,3E0,4.3E2,2.2E1,2E0,4E0,6E0,1.9E1,1.9E1,2.1E1,3E0,1E0,1E0,2E0,2E0,5E0,2.4E1,2.7E1],"tree_param":{"num_deleted":"0","num_feature":"3","num_nodes":"47","size_leaf_vector":"1"}},{"base_weights":[-2.5800351E-5,-1.0570566E-3,-2.3163192E-7,-4.1862897E-4,-1.4361606E-3,-2.4579518E-5,2.652126E-4,-6.74814E-4,6.170273E-4,-5.9360266E-4,-9.957433E-4,5.0918075E-6,-3.974045E-4,-6.214446E-5,4.3071894E-4,-3.9367378E-4,6.738007E-4,-1.1499723E-3,1.6063452E-4,-1.9014948E-5,8.708494E-4,-1.4290437E-3,-1.4297751E-4,-5.156219E-4,2.2431214E-4,4.3826594E-4,-7.1277223E-6,-5.6877732E-5,-8.056015E-4,-5.546808E-4,6.751567E-4,2.3011118E-5,-1.3259273E-4,1.8658995E-3,-6.467104E-4,-3.5985827E-3,1.640141E-3,5.172491E-4,-6.914327E-4,-1.0953645E-3,1.415968E-4,-2.8407929E-5,1.9124239E-4,-6.9664634E-4,5.989782E-6,1.2192776E-3,4.0276645E-4,9.3337893E-4,-2.7158037E-3,1.61618E-3,-7.841289E-4,6.905848E-4,-5.764067E-4,6.8255665E-4,-6.6542625E-4,2.6438633E-4,-1.0198131E-3],"categories":[],"categories_nodes":[],"categories_segments":[],"categories_sizes":[],"default_left":[0,0,0,0,0,0,0,0,0,0,0,0,0,0,0,0,0,0,0,0,0,0,0,0,0,0,0,0,0,0,0,0,0,0,0,0,0,0,0,0,0,0,0,0,0,0,0,0,0,0,0,0,0,0,0,0,0],"id":9,"left_children":[1,3,5,7,9,11,13,-1,15,17,-1,19,21,23,25,-1,-1,27,29,31,33,35,37,39,-1,-1,-1,-1,-1,-1,-1,41,43,45,-1,47,49,51,53,55,-1,-1,-1,-1,-1,-1,-1,-1,-1,-1,-1,-1,-1,-1,-1,-1,-1],"loss_changes":[1.6347853E-5,3.0292395E-6,3.923101E-6,7.5821213E-6,3.0288975E-6,6.1526134E-6,2.7899302E-6,0E0,5.16503E-6,2.2828983E-6,0E0,1.0785793E-5,1.0557231E-5,4.4005183E-6,6.7572573E-6,0E0,0E0,1.250522E-6,6.030649E-6,2.4039841E-6,3.25632E-5,5.917192E-5,1.2669203E-5,4.941274E-6,0E0,0E0,0E0,0E0,0E0,0E0,0E0,1.0581747E-5,2.480436E-5,4.1079074E-6,0E0,6.0230013E-5,2.5503065E-5,2.4677054E-5,2.6801692E-5,1.0280162E-5,0E0,0E0,0E0,0E0,0E0,0E0,0E0,0E0,0E0,0E0,0E0,0E0,0E0,0E0,0E0,0E0,0E0],"parents":[2147483647,0,0,1,1,2,2,3,3,4,4,5,5,6,6,8,8,9,9,11,11,12,12,13,13,14,14,17,17,18,18,19,19,20,20,21,21,22,22,23,23,31,31,32,32,33,33,35,35,36,36,37,37,38,38,39,39],"right_children":[2,4,6,8,10,12,14,-1,16,18,-1,20,22,24,26,-1,-1,28,30,32,34,36,38,40,-1,-1,-1,-1,-1,-1,-1,42,44,46,-1,48,50,52,54,56,-1,-1,-1,-1,-1,-1,-1,-1,-1,-1,-1,-1,-1,-1,-1,-1,-1],"split_conditions":[3E0,1E0,9.3E1,1E0,1E0,8.7E1,1E0,-6.74814E-4,2E0,2E0,-9.957433E-4,8.5E1,8.8E1,1E0,2E0,-3.9367378E-4,6.738007E-4,2E0,2E0,6.3E1,2E0,1E0,1E0,9.7E1,2.2431214E-4,4.3826594E-4,-7.1277223E-6,-5.6877732E-5,-8.056015E-4,-5.546808E-4,6.751567E-4,5.2E1,6.5E1,1E0,-6.467104E-4,1E0,2E0,2E0,8.9E1,9.5E1,1.415968E-4,-2.8407929E-5,1.9124239E-4,-6.9664634E-4,5.989782E-6,1.2192776E-3,4.0276645E-4,9.3337893E-4,-2.7158037E-3,1.61618E-3,-7.841289E-4,6.905848E-4,-5.764067E-4,6.8255665E-4,-6.6542625E-4,2.6438633E-4,-1.0198131E-3],"split_indices":[0,2,0,1,1,0,2,0,0,0,0,0,0,1,2,0,0,2,2,0,2,1,1,0,0,0,0,0,0,0,0,0,0,1,0,2,2,2,0,0,0,0,0,0,0,0,0,0,0,0,0,0,0,0,0,0,0],"split_type":[0,0,0,0,0,0,0,0,0,0,0,0,0,0,0,0,0,0,0,0,0,0,0,0,0,0,0,0,0,0,0,0,0,0,0,0,0,0,0,0,0,0,0,0,0,0,0,0,0,0,0,0,0,0,0,0,0],"sum_hessian":[6.19E2,1.4E1,6.05E2,6E0,8E0,5.55E2,5E1,3E0,3E0,4E0,4E0,5.15E2,4E1,1.7E1,3.3E1,1E0,2E0,2E0,2E0,5.02E2,1.3E1,7E0,3.3E1,9E0,8E0,1.6E1,1.7E1,1E0,1E0,1E0,1E0,3.67E2,1.35E2,9E0,4E0,4E0,3E0,1.5E1,1.8E1,5E0,4E0,3.01E2,6.6E1,1.3E1,1.22E2,5E0,4E0,1E0,3E0,2E0,1E0,1E1,5E0,4E0,1.4E1,2E0,3E0],"tree_param":{"num_deleted":"0","num_feature":"3","num_nodes":"57","size_leaf_vector":"1"}},{"base_weights":[-1.6855905E-5,-6.706834E-4,-6.442416E-7,-2.6569195E-4,-4.5557818E-4,9.666646E-5,-3.849819E-5,-4.2176247E-4,3.78564E-4,-2.6911794E-4,2.935169E-4,-1.0370215E-3,-2.9985504E-6,-2.952516E-4,4.492104E-4,-3.118264E-6,-6.968949E-4,7.578854E-4,-2.1068475E-4,5.2075984E-4,-1.8875382E-3,1.2173816E-3,-3.549536E-5,-2.978972E-4,2.576977E-3,-9.888344E-4,1.18029115E-4,1.5645998E-4,1.2416542E-3,-1.0643452E-3,-1.3959993E-4,-1.2502202E-3,-3.2598377E-4,7.8361563E-4,-1.189808E-4,-2.3484523E-4,2.9790477E-5,-3.3697672E-4,8.921325E-6,2.0415385E-3,-4.8533082E-4,3.7276745E-4,-3.5281267E-4,4.9253023E-4,-3.4165807E-4,9.151101E-4,4.4546614E-4,-9.0716284E-4,2.96399E-4,2.516061E-5,-1.7767896E-4,-2.5129004E-5,-1.1987314E-3,3.820032E-4,-1.0214161E-5],"categories":[],"categories_nodes":[],"categories_segments":[],"categories_sizes":[],"default_left":[0,0,0,0,0,0,0,0,0,0,0,0,0,0,0,0,0,0,0,0,0,0,0,0,0,0,0,0,0,0,0,0,0,0,0,0,0,0,0,0,0,0,0,0,0,0,0,0,0,0,0,0,0,0,0],"id":10,"left_children":[1,3,5,7,-1,9,11,-1,13,15,17,19,21,-1,-1,23,25,27,29,-1,31,33,35,37,39,-1,41,43,45,47,49,-1,-1,-1,-1,51,53,-1,-1,-1,-1,-1,-1,-1,-1,-1,-1,-1,-1,-1,-1,-1,-1,-1,-1],"loss_changes":[6.571339E-6,1.2187556E-6,2.2359798E-6,2.9252344E-6,0E0,1.231981E-5,1.5487325E-5,0E0,2.5456252E-6,6.8251384E-6,2.61487E-5,2.8483419E-5,1.681874E-5,0E0,0E0,2.9668869E-5,2.4239294E-5,1.6680879E-5,3.1282625E-6,0E0,6.699913E-6,5.973605E-6,5.382077E-6,4.167783E-6,2.533568E-5,0E0,8.278787E-6,1.9460758E-5,4.9749324E-6,6.0468287E-6,2.1077094E-6,0E0,0E0,0E0,0E0,4.0597042E-5,1.1519497E-5,0E0,0E0,0E0,0E0,0E0,0E0,0E0,0E0,0E0,0E0,0E0,0E0,0E0,0E0,0E0,0E0,0E0,0E0],"parents":[2147483647,0,0,1,1,2,2,3,3,5,5,6,6,8,8,9,9,10,10,11,11,12,12,15,15,16,16,17,17,18,18,20,20,21,21,22,22,23,23,24,24,26,26,27,27,28,28,29,29,30,30,35,35,36,36],"right_children":[2,4,6,8,-1,10,12,-1,14,16,18,20,22,-1,-1,24,26,28,30,-1,32,34,36,38,40,-1,42,44,46,48,50,-1,-1,-1,-1,52,54,-1,-1,-1,-1,-1,-1,-1,-1,-1,-1,-1,-1,-1,-1,-1,-1,-1,-1],"split_conditions":[3E0,1E0,3E1,1E0,-4.5557818E-4,1E0,3.2E1,-4.2176247E-4,2E0,1.9E1,2E0,1E0,3.4E1,-2.952516E-4,4.492104E-4,1.8E1,2.3E1,1.5E1,5E0,5.2075984E-4,2E0,2E0,5.1E1,1E0,1E0,-9.888344E-4,2.7E1,9E0,2E1,1E0,1.8E1,-1.2502202E-3,-3.2598377E-4,7.8361563E-4,-1.189808E-4,5E1,5.4E1,-3.3697672E-4,8.921325E-6,2.0415385E-3,-4.8533082E-4,3.7276745E-4,-3.5281267E-4,4.9253023E-4,-3.4165807E-4,9.151101E-4,4.4546614E-4,-9.0716284E-4,2.96399E-4,2.516061E-5,-1.7767896E-4,-2.5129004E-5,-1.1987314E-3,3.820032E-4,-1.0214161E-5],"split_indices":[0,2,0,1,0,2,0,0,0,0,2,2,0,0,0,0,0,0,0,0,2,2,0,1,1,0,0,0,0,1,0,0,0,0,0,0,0,0,0,0,0,0,0,0,0,0,0,0,0,0,0,0,0,0,0],"split_type":[0,0,0,0,0,0,0,0,0,0,0,0,0,0,0,0,0,0,0,0,0,0,0,0,0,0,0,0,0,0,0,0,0,0,0,0,0,0,0,0,0,0,0,0,0,0,0,0,0,0,0,0,0,0,0],"sum_hessian":[6.19E2,1.4E1,6.05E2,6E0,8E0,1.69E2,4.36E2,3E0,3E0,5.9E1,1.1E2,1.4E1,4.22E2,1E0,2E0,3.7E1,2.2E1,5.7E1,5.3E1,4E0,1E1,1E1,4.12E2,3.4E1,3E0,8E0,1.4E1,2.6E1,3.1E1,3E0,5E1,6E0,4E0,8E0,2E0,1.01E2,3.11E2,1.5E1,1.9E1,2E0,1E0,8E0,6E0,1.3E1,1.3E1,1E1,2.1E1,2E0,1E0,2.7E1,2.3E1,9.4E1,7E0,1.9E1,2.92E2],"tree_param":{"num_deleted":"0","num_feature":"3","num_nodes":"55","size_leaf_vector":"1"}},{"base_weights":[-9.981663E-6,-2.5922986E-4,1.57135E-5,-1.185949E-4,-1.2669137E-3,9.2318654E-4,2.6280718E-6,-1.250108E-4,6.355047E-4,-1.881528E-3,1.7974775E-4,8.234978E-4,-1.06185675E-4,-1.1586292E-3,1.740293E-5,1.4709949E-3,-5.6773424E-4,2.3119152E-4,-1.2915507E-3,-2.4305284E-4,3.7786365E-4,-1.3233423E-4,-2.262354E-3,2.872627E-4,-7.797092E-6,1.1710152E-3,-5.032867E-4,-4.4554472E-4,1.0058284E-4,-1.44355E-3,-2.5321543E-4,-2.748333E-5,8.988008E-4,-2.7264951E-4,8.672962E-6,2.0085573E-4,-1.918094E-4,7.3401333E-4,-2.1389553E-5,1.5392757E-4,-9.666108E-6],"categories":[],"categories_nodes":[],"categories_segments":[],"categories_sizes":[],"default_left":[0,0,0,0,0,0,0,0,0,0,0,0,0,0,0,0,0,0,0,0,0,0,0,0,0,0,0,0,0,0,0,0,0,0,0,0,0,0,0,0,0],"id":11,"left_children":[1,3,5,7,9,11,13,-1,15,17,19,-1,-1,21,23,25,27,-1,-1,-1,-1,-1,29,31,33,-1,-1,-1,-1,-1,-1,35,37,-1,39,-1,-1,-1,-1,-1,-1],"loss_changes":[3.974846E-6,8.069253E-6,6.683015E-6,5.312549E-6,6.5621707E-6,6.925191E-6,9.559684E-6,0E0,8.87749E-6,9.416512E-6,1.5179171E-6,0E0,0E0,6.3080315E-6,3.742499E-6,1.3147675E-5,1.1737678E-6,0E0,0E0,0E0,0E0,0E0,1.8289011E-6,9.071224E-6,4.466483E-6,0E0,0E0,0E0,0E0,0E0,0E0,5.045352E-6,8.638348E-6,0E0,4.1114904E-6,0E0,0E0,0E0,0E0,0E0,0E0],"parents":[2147483647,0,0,1,1,2,2,3,3,4,4,5,5,6,6,8,8,9,9,10,10,13,13,14,14,15,15,16,16,22,22,23,23,24,24,31,31,32,32,34,34],"right_children":[2,4,6,8,10,12,14,-1,16,18,20,-1,-1,22,24,26,28,-1,-1,-1,-1,-1,30,32,34,-1,-1,-1,-1,-1,-1,36,38,-1,40,-1,-1,-1,-1,-1,-1],"split_conditions":[1E1,9E0,1.1E1,8E0,1E0,1E0,1.2E1,-1.250108E-4,1E0,1E0,1E0,8.234978E-4,-1.06185675E-4,2E0,1.9E1,2E0,2E0,2.3119152E-4,-1.2915507E-3,-2.4305284E-4,3.7786365E-4,-1.3233423E-4,1E0,1.7E1,2.1E1,1.1710152E-3,-5.032867E-4,-4.4554472E-4,1.0058284E-4,-1.44355E-3,-2.5321543E-4,1.4E1,1E0,-2.7264951E-4,2.8E1,2.0085573E-4,-1.918094E-4,7.3401333E-4,-2.1389553E-5,1.5392757E-4,-9.666108E-6],"split_indices":[0,0,0,0,1,1,0,0,1,2,2,0,0,2,0,2,2,0,0,0,0,0,1,0,0,0,0,0,0,0,0,0,1,0,0,0,0,0,0,0,0],"split_type":[0,0,0,0,0,0,0,0,0,0,0,0,0,0,0,0,0,0,0,0,0,0,0,0,0,0,0,0,0,0,0,0,0,0,0,0,0,0,0,0,0],"sum_hessian":[6.19E2,5.7E1,5.62E2,5.1E1,6E0,7E0,5.55E2,4.4E1,7E0,4E0,2E0,4E0,3E0,6E0,5.49E2,4E0,3E0,1E0,3E0,1E0,1E0,4E0,2E0,4.6E1,5.03E2,3E0,1E0,2E0,1E0,1E0,1E0,3.1E1,1.5E1,1.4E1,4.89E2,1.4E1,1.7E1,9E0,6E0,4.1E1,4.48E2],"tree_param":{"num_deleted":"0","num_feature":"3","num_nodes":"41","size_leaf_vector":"1"}},{"base_weights":[-7.008641E-6,-2.953938E-5,1.9624445E-4,-1.169266E-5,-1.2572706E-3,-1.726612E-5,3.9695017E-4,-6.285235E-5,4.0443276E-5,2.8531253E-4,-2.239883E-3,-2.4267369E-4,1.3688846E-4,6.701648E-4,-9.278276E-5,-2.1826499E-4,2.6593936E-4,1.6472123E-4,-2.2857627E-4,-3.6767125E-4,8.7064505E-4,2.7401745E-4,-3.0738711E-3,-5.981097E-6,-7.0210296E-4,4.976285E-4,4.5001507E-5,-8.28874E-5,-1.3648302E-3,3.9328293E-5,2.5837868E-3,6.138763E-5,7.786221E-4,-1.7722448E-5,-7.507849E-4,7.3699653E-4,-8.401275E-5,-1.9854307E-3,-9.572506E-5,-6.299317E-4,1.3780594E-4,-1.3812071E-4,3.3816183E-4,-1.9080171E-3,-2.087014E-5,8.704513E-5,-1.9693821E-4,3.1983953E-3,1.2332697E-4,6.0385046E-5,-6.3538126E-4,1.8077791E-3,2.0352245E-4,-1.0096196E-4,1.8668076E-3,-4.2965738E-4,1.6912818E-5],"categories":[],"categories_nodes":[],"categories_segments":[],"categories_sizes":[],"default_left":[0,0,0,0,0,0,0,0,0,0,0,0,0,0,0,0,0,0,0,0,0,0,0,0,0,0,0,0,0,0,0,0,0,0,0,0,0,0,0,0,0,0,0,0,0,0,0,0,0,0,0,0,0,0,0,0,0],"id":12,"left_children":[1,3,5,7,9,11,13,15,17,19,21,23,-1,25,-1,27,29,31,33,-1,35,-1,37,-1,39,-1,-1,41,43,45,47,49,51,53,55,-1,-1,-1,-1,-1,-1,-1,-1,-1,-1,-1,-1,-1,-1,-1,-1,-1,-1,-1,-1,-1,-1],"loss_changes":[2.8450509E-6,1.2233533E-5,2.663727E-6,1.4748686E-6,1.27651565E-5,2.1001408E-6,5.2172177E-6,1.4314496E-5,9.198348E-6,3.0299127E-6,1.3310044E-5,1.8995224E-6,0E0,4.059758E-6,0E0,2.9378523E-5,4.7170877E-5,1.187828E-5,9.566235E-6,0E0,2.1277076E-6,0E0,9.581792E-6,0E0,3.619217E-6,0E0,0E0,2.5289033E-5,6.470398E-5,4.9140704E-6,6.971418E-5,1.2968699E-5,2.6990107E-5,4.4287026E-5,2.157909E-6,0E0,0E0,0E0,0E0,0E0,0E0,0E0,0E0,0E0,0E0,0E0,0E0,0E0,0E0,0E0,0E0,0E0,0E0,0E0,0E0,0E0,0E0],"parents":[2147483647,0,0,1,1,2,2,3,3,4,4,5,5,6,6,7,7,8,8,9,9,10,10,11,11,13,13,15,15,16,16,17,17,18,18,20,20,22,22,24,24,27,27,28,28,29,29,30,30,31,31,32,32,33,33,34,34],"right_children":[2,4,6,8,10,12,14,16,18,20,22,24,-1,26,-1,28,30,32,34,-1,36,-1,38,-1,40,-1,-1,42,44,46,48,50,52,54,56,-1,-1,-1,-1,-1,-1,-1,-1,-1,-1,-1,-1,-1,-1,-1,-1,-1,-1,-1,-1,-1,-1],"split_conditions":[9.1E1,9E1,1E0,1E0,1E0,9.7E1,2E0,2E0,2E0,1E0,1E0,9.6E1,1.3688846E-4,9.7E1,-9.278276E-5,8.3E1,8.4E1,7.8E1,6.5E1,-3.6767125E-4,2E0,2.7401745E-4,2E0,-5.981097E-6,1E0,4.976285E-4,4.5001507E-5,6.5E1,8.5E1,6.5E1,8.5E1,7.6E1,7.9E1,6.4E1,8.8E1,7.3699653E-4,-8.401275E-5,-1.9854307E-3,-9.572506E-5,-6.299317E-4,1.3780594E-4,-1.3812071E-4,3.3816183E-4,-1.9080171E-3,-2.087014E-5,8.704513E-5,-1.9693821E-4,3.1983953E-3,1.2332697E-4,6.0385046E-5,-6.3538126E-4,1.8077791E-3,2.0352245E-4,-1.0096196E-4,1.8668076E-3,-4.2965738E-4,1.6912818E-5],"split_indices":[0,0,1,1,1,0,2,2,2,2,2,0,0,0,0,0,0,0,0,0,2,0,2,0,2,0,0,0,0,0,0,0,0,0,0,0,0,0,0,0,0,0,0,0,0,0,0,0,0,0,0,0,0,0,0,0,0],"split_type":[0,0,0,0,0,0,0,0,0,0,0,0,0,0,0,0,0,0,0,0,0,0,0,0,0,0,0,0,0,0,0,0,0,0,0,0,0,0,0,0,0,0,0,0,0,0,0,0,0,0,0,0,0,0,0,0,0],"sum_hessian":[6.19E2,5.58E2,6.1E1,5.51E2,7E0,3E1,3.1E1,2.78E2,2.73E2,3E0,4E0,1.7E1,1.3E1,2.1E1,1E1,1.89E2,8.9E1,1.87E2,8.6E1,1E0,2E0,1E0,3E0,1.2E1,5E0,1.3E1,8E0,1.7E2,1.9E1,8.2E1,7E0,1.61E2,2.6E1,6.2E1,2.4E1,1E0,1E0,2E0,1E0,3E0,2E0,1.36E2,3.4E1,6E0,1.3E1,6.3E1,1.9E1,2E0,5E0,1.55E2,6E0,2E0,2.4E1,6E1,2E0,2.1E1,3E0],"tree_param":{"num_deleted":"0","num_feature":"3","num_nodes":"57","size_leaf_vector":"1"}},{"base_weights":[1.0742295E-6,-1.1018711E-4,1.7289305E-5,5.1931256E-5,-2.864709E-4,6.119694E-4,9.490705E-6,-6.329072E-6,4.843235E-4,-9.226607E-5,-6.4567477E-4,-6.7555904E-4,1.2620926E-3,9.685755E-5,-2.0750185E-5,1.0236842E-4,-9.558499E-4,-6.6262484E-4,6.340146E-4,-2.117455E-5,-4.996002E-4,-8.159131E-4,3.092438E-4,9.962221E-4,5.5521727E-5,4.3318472E-5,9.614527E-4,-5.3272647E-4,2.0817486E-5,-4.7104975E-5,5.043149E-4,9.904305E-5,-1.1044145E-3,7.9428E-5,-5.2179396E-4,-1.9274652E-4,1.6925216E-3,-1.2342117E-3,-1.2027323E-4,2.6266277E-4,-1.8670828E-5,7.364043E-5,-5.4368377E-4,9.892541E-6,3.4516238E-4,4.7715506E-4,-5.8644015E-4,2.6743612E-4,-5.939007E-4,1.853307E-4,1.225104E-3,-4.0719908E-5,-7.4066716E-4,-2.557814E-4,1.2318925E-4,-1.7535687E-5,4.1349896E-4,-6.6325814E-4,7.4617565E-6],"categories":[],"categories_nodes":[],"categories_segments":[],"categories_sizes":[],"default_left":[0,0,0,0,0,0,0,0,0,0,0,0,0,0,0,0,0,0,0,0,0,0,0,0,0,0,0,0,0,0,0,0,0,0,0,0,0,0,0,0,0,0,0,0,0,0,0,0,0,0,0,0,0,0,0,0,0,0,0],"id":13,"left_children":[1,3,5,7,9,11,13,15,17,-1,19,21,23,25,27,29,31,-1,-1,-1,-1,-1,-1,-1,-1,33,35,37,39,41,-1,-1,-1,43,45,47,49,51,53,55,57,-1,-1,-1,-1,-1,-1,-1,-1,-1,-1,-1,-1,-1,-1,-1,-1,-1,-1],"loss_changes":[1.1204539E-6,2.2726051E-6,2.5078107E-6,1.0611005E-6,1.2722908E-6,6.7119836E-6,1.4181492E-6,4.0198493E-6,8.77132E-6,0E0,1.6640126E-6,4.7216267E-6,3.982105E-6,6.3463194E-6,8.502472E-6,4.78868E-6,6.2209683E-6,0E0,0E0,0E0,0E0,0E0,0E0,0E0,0E0,2.7146234E-6,7.076621E-6,8.531453E-6,3.538427E-6,6.42873E-6,0E0,0E0,0E0,4.5043644E-6,8.8078605E-6,3.5314042E-6,4.09958E-6,3.0129995E-6,2.9953783E-6,8.766139E-6,1.4035447E-5,0E0,0E0,0E0,0E0,0E0,0E0,0E0,0E0,0E0,0E0,0E0,0E0,0E0,0E0,0E0,0E0,0E0,0E0],"parents":[2147483647,0,0,1,1,2,2,3,3,4,4,5,5,6,6,7,7,8,8,10,10,11,11,12,12,13,13,14,14,15,15,16,16,25,25,26,26,27,27,28,28,29,29,33,33,34,34,35,35,36,36,37,37,38,38,39,39,40,40],"right_children":[2,4,6,8,10,12,14,16,18,-1,20,22,24,26,28,30,32,-1,-1,-1,-1,-1,-1,-1,-1,34,36,38,40,42,-1,-1,-1,44,46,48,50,52,54,56,58,-1,-1,-1,-1,-1,-1,-1,-1,-1,-1,-1,-1,-1,-1,-1,-1,-1,-1],"split_conditions":[1.3E1,1E0,1.4E1,1.2E1,1.1E1,1E0,3.6E1,1.1E1,1E0,-9.226607E-5,1E0,1E0,1E0,3.5E1,4.1E1,1E1,2E0,-6.6262484E-4,6.340146E-4,-2.117455E-5,-4.996002E-4,-8.159131E-4,3.092438E-4,9.962221E-4,5.5521727E-5,3.4E1,1E0,1E0,5E1,9E0,5.043149E-4,9.904305E-5,-1.1044145E-3,3.2E1,1E0,2E0,2E0,3.7E1,1E0,4.7E1,5.1E1,7.364043E-5,-5.4368377E-4,9.892541E-6,3.4516238E-4,4.7715506E-4,-5.8644015E-4,2.6743612E-4,-5.939007E-4,1.853307E-4,1.225104E-3,-4.0719908E-5,-7.4066716E-4,-2.557814E-4,1.2318925E-4,-1.7535687E-5,4.1349896E-4,-6.6325814E-4,7.4617565E-6],"split_indices":[0,1,0,0,0,1,0,0,2,0,2,2,2,0,0,0,2,0,0,0,0,0,0,0,0,0,1,2,0,0,0,0,0,0,2,2,2,0,1,0,0,0,0,0,0,0,0,0,0,0,0,0,0,0,0,0,0,0,0],"split_type":[0,0,0,0,0,0,0,0,0,0,0,0,0,0,0,0,0,0,0,0,0,0,0,0,0,0,0,0,0,0,0,0,0,0,0,0,0,0,0,0,0,0,0,0,0,0,0,0,0,0,0,0,0,0,0,0,0,0,0],"sum_hessian":[6.19E2,7.8E1,5.41E2,4.1E1,3.7E1,6E0,5.35E2,3.7E1,4E0,3E1,7E0,2E0,4E0,1.37E2,3.98E2,3.4E1,3E0,1E0,3E0,3E0,4E0,1E0,1E0,2E0,2E0,1.3E2,7E0,2.9E1,3.69E2,3E1,4E0,2E0,1E0,1.23E2,7E0,3E0,4E0,1E1,1.9E1,5.1E1,3.18E2,2.6E1,4E0,1.13E2,1E1,2E0,5E0,2E0,1E0,2E0,2E0,2E0,8E0,9E0,1E1,3.4E1,1.7E1,7E0,3.11E2],"tree_param":{"num_deleted":"0","num_feature":"3","num_nodes":"59","size_leaf_vector":"1"}},{"base_weights":[-9.275252E-7],"categories":[],"categories_nodes":[],"categories_segments":[],"categories_sizes":[],"default_left":[0],"id":14,"left_children":[-1],"loss_changes":[0E0],"parents":[2147483647],"right_children":[-1],"split_conditions":[-4.637626E-7],"split_indices":[0],"split_type":[0],"sum_hessian":[6.19E2],"tree_param":{"num_deleted":"0","num_feature":"3","num_nodes":"1","size_leaf_vector":"1"}},{"base_weights":[-4.514571E-7],"categories":[],"categories_nodes":[],"categories_segments":[],"categories_sizes":[],"default_left":[0],"id":15,"left_children":[-1],"loss_changes":[0E0],"parents":[2147483647],"right_children":[-1],"split_conditions":[-2.2572856E-7],"split_indices":[0],"split_type":[0],"sum_hessian":[6.19E2],"tree_param":{"num_deleted":"0","num_feature":"3","num_nodes":"1","size_leaf_vector":"1"}},{"base_weights":[-2.1342308E-7],"categories":[],"categories_nodes":[],"categories_segments":[],"categories_sizes":[],"default_left":[0],"id":16,"left_children":[-1],"loss_changes":[0E0],"parents":[2147483647],"right_children":[-1],"split_conditions":[-1.0671154E-7],"split_indices":[0],"split_type":[0],"sum_hessian":[6.19E2],"tree_param":{"num_deleted":"0","num_feature":"3","num_nodes":"1","size_leaf_vector":"1"}},{"base_weights":[-9.440607E-8],"categories":[],"categories_nodes":[],"categories_segments":[],"categories_sizes":[],"default_left":[0],"id":17,"left_children":[-1],"loss_changes":[0E0],"parents":[2147483647],"right_children":[-1],"split_conditions":[-4.7203034E-8],"split_indices":[0],"split_type":[0],"sum_hessian":[6.19E2],"tree_param":{"num_deleted":"0","num_feature":"3","num_nodes":"1","size_leaf_vector":"1"}},{"base_weights":[-3.4897557E-8],"categories":[],"categories_nodes":[],"categories_segments":[],"categories_sizes":[],"default_left":[0],"id":18,"left_children":[-1],"loss_changes":[0E0],"parents":[2147483647],"right_children":[-1],"split_conditions":[-1.7448778E-8],"split_indices":[0],"split_type":[0],"sum_hessian":[6.19E2],"tree_param":{"num_deleted":"0","num_feature":"3","num_nodes":"1","size_leaf_vector":"1"}},{"base_weights":[-3.4897557E-8],"categories":[],"categories_nodes":[],"categories_segments":[],"categories_sizes":[],"default_left":[0],"id":19,"left_children":[-1],"loss_changes":[0E0],"parents":[2147483647],"right_children":[-1],"split_conditions":[-1.7448778E-8],"split_indices":[0],"split_type":[0],"sum_hessian":[6.19E2],"tree_param":{"num_deleted":"0","num_feature":"3","num_nodes":"1","size_leaf_vector":"1"}}]},"name":"gbtree"},"learner_model_param":{"base_score":"7.376722E-1","boost_from_average":"1","num_class":"0","num_feature":"3","num_target":"1"},"objective":{"name":"reg:squarederror","reg_loss_param":{"scale_pos_weight":"1"}}},"version":[2,1,1]}