{"learner":{"attributes":{},"feature_names":[],"feature_types":[],"gradient_booster":{"model":{"gbtree_model_param":{"num_parallel_tree":"1","num_trees":"20"},"iteration_indptr":[0,1,2,3,4,5,6,7,8,9,10,11,12,13,14,15,16,17,18,19,20],"tree_info":[0,0,0,0,0,0,0,0,0,0,0,0,0,0,0,0,0,0,0,0],"trees":[{"base_weights":[-7.62306E-9,1.0717138E-2,-3.8158976E-2,1.2581222E-2,-4.601223E-3,-2.907227E-2,-5.22858E-2,1.3673473E-2,-1.3858832E-3,1.0828266E-3,-9.902604E-3,-2.5558883E-2,-3.571038E-2,-3.931382E-2,-7.98685E-2,1.1610411E-2,1.5781712E-2,-4.0925364E-3,3.8810307E-3,-3.1886946E-3,3.1462312E-3,-1.58761E-2,-7.336322E-3,-2.3524338E-2,-3.08565E-2,-3.29102E-2,-3.539956E-2,-1.768231E-2,-2.19232E-2,-3.408453E-2,-6.341112E-2,1.4467781E-2,6.1626458E-3,1.6686872E-2,7.105179E-3,-7.5487955E-4,-7.3392484E-3,8.330508E-3,7.231342E-4,-2.214333E-3,-8.513431E-4,3.6814525E-3,5.894644E-4,-9.175329E-3,-6.161045E-3,-4.409384E-3,-1.0227103E-2,-1.0282928E-2,-1.3090939E-2,-1.59959E-2,-2.0616194E-2,-1.4966021E-2,-1.9224351E-2,9.19911E-3,6.270877E-3,3.5002849E-3,9.2488644E-4,7.6081683E-3,9.595389E-3,2.9722634E-3,5.0691282E-3,3.0294977E-4,-6.3403446E-4,-4.090423E-3,-8.0094166E-4,4.8891804E-3,1.1604249E-3,1.3335664E-3,-8.6255255E-4,3.2386725E-4,2.1317992E-3,-4.0458143E-4,7.2819326E-4,-3.6935508E-3,-8.7211403E-4,-5.849865E-3,1.5658636E-4,-5.1745027E-3,-1.5431464E-2],"categories":[],"categories_nodes":[],"categories_segments":[],"categories_sizes":[],"default_left":[0,0,0,0,0,0,0,0,0,0,0,0,0,0,0,0,0,0,0,0,0,0,0,0,0,0,0,0,0,0,0,0,0,0,0,0,0,0,0,0,0,0,0,0,0,0,0,0,0,0,0,0,0,0,0,0,0,0,0,0,0,0,0,0,0,0,0,0,0,0,0,0,0,0,0,0,0,0,0],"id":0,"left_children":[1,3,5,7,9,11,13,15,17,19,21,23,25,27,29,31,33,35,37,39,41,43,45,47,49,51,-1,-1,-1,-1,-1,53,55,57,59,61,63,65,67,-1,-1,69,71,-1,-1,73,75,-1,-1,-1,77,-1,-1,-1,-1,-1,-1,-1,-1,-1,-1,-1,-1,-1,-1,-1,-1,-1,-1,-1,-1,-1,-1,-1,-1,-1,-1,-1,-1],"loss_changes":[1.0780059E0,5.882351E-2,7.2675645E-2,2.8012931E-2,6.7605847E-3,7.343352E-3,7.736564E-2,7.2194934E-3,1.9261485E-3,9.7074476E-4,1.66177E-3,1.8070042E-3,9.460568E-3,1.2239069E-3,3.0357242E-2,1.3360113E-2,6.4706504E-3,9.589003E-4,6.403216E-4,5.879329E-5,9.909418E-5,7.289834E-5,6.571789E-4,8.2959235E-4,6.125495E-5,7.1303546E-4,0E0,0E0,0E0,0E0,0E0,4.053943E-3,1.0675946E-3,2.5026947E-3,2.2488134E-4,3.2193508E-5,2.0418013E-4,1.4262658E-4,1.3786355E-4,0E0,0E0,1.0496838E-4,1.8153467E-5,0E0,0E0,3.2836676E-4,6.400617E-4,0E0,0E0,0E0,6.27446E-4,0E0,0E0,0E0,0E0,0E0,0E0,0E0,0E0,0E0,0E0,0E0,0E0,0E0,0E0,0E0,0E0,0E0,0E0,0E0,0E0,0E0,0E0,0E0,0E0,0E0,0E0,0E0,0E0],"parents":[2147483647,0,0,1,1,2,2,3,3,4,4,5,5,6,6,7,7,8,8,9,9,10,10,11,11,12,12,13,13,14,14,15,15,16,16,17,17,18,18,19,19,20,20,21,21,22,22,23,23,24,24,25,25,31,31,32,32,33,33,34,34,35,35,36,36,37,37,38,38,41,41,42,42,45,45,46,46,50,50],"right_children":[2,4,6,8,10,12,14,16,18,20,22,24,26,28,30,32,34,36,38,40,42,44,46,48,50,52,-1,-1,-1,-1,-1,54,56,58,60,62,64,66,68,-1,-1,70,72,-1,-1,74,76,-1,-1,-1,78,-1,-1,-1,-1,-1,-1,-1,-1,-1,-1,-1,-1,-1,-1,-1,-1,-1,-1,-1,-1,-1,-1,-1,-1,-1,-1,-1,-1],"split_conditions":[1.4677992E-1,5.6234132E-2,6.189658E-1,3.831187E-1,9.0851754E-2,3.831187E-1,2.1544347E-2,1.9573418E-3,8.254042E-3,4.641589E-4,4.641589E-4,5.6234132E-2,6.189658E-1,7.498942E-4,6.189658E-1,3.1622776E-3,2.3713738E-1,6.189658E-1,6.189658E-1,6.812921E-5,3.831187E-1,6.812921E-5,3.4807004E-2,2.3713738E-1,1E0,2.1544347E-2,-3.539956E-2,-1.768231E-2,-2.19232E-2,-3.408453E-2,-6.341112E-2,6.812921E-5,3.4807004E-2,3.4807004E-2,8.254042E-3,4.216965E-5,5.1089698E-3,3.4807004E-2,1E0,-2.214333E-3,-8.513431E-4,1.2115276E-3,6.189658E-1,-9.175329E-3,-6.161045E-3,3.1622776E-3,1E0,-1.0282928E-2,-1.3090939E-2,-1.59959E-2,2.3713738E-1,-1.4966021E-2,-1.9224351E-2,9.19911E-3,6.270877E-3,3.5002849E-3,9.2488644E-4,7.6081683E-3,9.595389E-3,2.9722634E-3,5.0691282E-3,3.0294977E-4,-6.3403446E-4,-4.090423E-3,-8.0094166E-4,4.8891804E-3,1.1604249E-3,1.3335664E-3,-8.6255255E-4,3.2386725E-4,2.1317992E-3,-4.0458143E-4,7.2819326E-4,-3.6935508E-3,-8.7211403E-4,-5.849865E-3,1.5658636E-4,-5.1745027E-3,-1.5431464E-2],"split_indices":[1,1,1,0,1,1,0,0,1,0,0,0,0,0,0,1,0,0,0,0,0,0,0,1,0,0,0,0,0,0,0,1,1,0,1,1,1,1,0,0,0,0,0,0,0,0,0,0,0,0,1,0,0,0,0,0,0,0,0,0,0,0,0,0,0,0,0,0,0,0,0,0,0,0,0,0,0,0,0],"split_type":[0,0,0,0,0,0,0,0,0,0,0,0,0,0,0,0,0,0,0,0,0,0,0,0,0,0,0,0,0,0,0,0,0,0,0,0,0,0,0,0,0,0,0,0,0,0,0,0,0,0,0,0,0,0,0,0,0,0,0,0,0,0,0,0,0,0,0,0,0,0,0,0,0,0,0,0,0,0,0],"sum_hessian":[2.634E3,2.057E3,5.77E2,1.834E3,2.23E2,3.53E2,2.24E2,1.701E3,1.33E2,1.08E2,1.15E2,2.34E2,1.19E2,1.54E2,7E1,8.63E2,8.38E2,8.8E1,4.5E1,3.5E1,7.3E1,3.3E1,8.2E1,1.73E2,6.1E1,1.12E2,7E0,8.7E1,6.7E1,5.8E1,1.2E1,5.65E2,2.98E2,7.58E2,8E1,4.4E1,4.4E1,1.8E1,2.7E1,1.8E1,1.7E1,6E1,1.3E1,1.7E1,1.6E1,4.2E1,4E1,8.6E1,8.7E1,5.3E1,8E0,7.7E1,3.5E1,1.83E2,3.82E2,2.49E2,4.9E1,4.82E2,2.76E2,6E1,2E1,1.2E1,3.2E1,3.8E1,6E0,1.4E1,4E0,1.5E1,1.2E1,1E1,5E1,5E0,8E0,1.9E1,2.3E1,3.5E1,5E0,5E0,3E0],"tree_param":{"num_deleted":"0","num_feature":"2","num_nodes":"79","size_leaf_vector":"1"}},{"base_weights":[-9.3404684E-5,5.368555E-3,-1.9540843E-2,6.5747434E-3,-8.327306E-4,-1.7183812E-2,-3.4883544E-2,7.138991E-3,-9.547048E-4,1.4486397E-3,-5.1719556E-3,-1.5019792E-2,-2.5754618E-2,-2.2005692E-2,-5.6173947E-2,5.9697167E-3,8.1372075E-3,1.0323727E-3,-2.8004646E-3,-1.16240844E-4,2.5246358E-3,-8.173227E-3,-3.6050128E-3,-1.2327762E-2,-1.7677275E-2,-9.972101E-3,-1.6070984E-2,-1.7133655E-2,-2.9444553E-2,-2.1409838E-2,-3.414445E-2,7.4377875E-3,3.4640685E-3,8.872351E-3,4.1476004E-3,-3.8481687E-4,2.6075582E-3,-2.1779637E-3,-7.0056744E-4,9.999702E-4,-1.229925E-3,3.7829997E-3,1.106354E-3,-4.8425477E-3,-3.2823668E-3,-1.7326631E-3,-5.252434E-3,-1.0458125E-2,-1.4059561E-2,-1.5499252E-2,-2.2780003E-2,-1.21976435E-2,-7.062293E-3,-1.0694324E-2,-2.6146531E-2,5.0053936E-3,3.2443448E-3,1.4535855E-3,2.8498503E-3,3.892187E-3,5.830738E-3,1.1336822E-3,4.3017417E-3,1.6311728E-4,-3.2663345E-4,8.2668476E-4,-1.7719155E-3,6.1383273E-4,-5.563319E-4,-1.0124434E-3,-4.761517E-5,1.2809221E-3,2.8520352E-3,8.8457234E-4,2.2510326E-4,-1.4705815E-3,-2.4897754E-4,-3.2328407E-3,-6.7789445E-4,-6.0412386E-3,-4.630394E-3,-6.6198353E-3,-8.845117E-3,-4.6527577E-3,-7.9460135E-3,-9.432296E-3,-1.3150674E-2],"categories":[],"categories_nodes":[],"categories_segments":[],"categories_sizes":[],"default_left":[0,0,0,0,0,0,0,0,0,0,0,0,0,0,0,0,0,0,0,0,0,0,0,0,0,0,0,0,0,0,0,0,0,0,0,0,0,0,0,0,0,0,0,0,0,0,0,0,0,0,0,0,0,0,0,0,0,0,0,0,0,0,0,0,0,0,0,0,0,0,0,0,0,0,0,0,0,0,0,0,0,0,0,0,0,0,0],"id":1,"left_children":[1,3,5,7,9,11,13,15,17,19,21,23,25,27,29,31,33,35,37,39,41,43,45,47,49,-1,-1,51,53,-1,-1,55,57,59,61,63,-1,-1,65,67,69,71,73,-1,-1,75,77,79,81,83,85,-1,-1,-1,-1,-1,-1,-1,-1,-1,-1,-1,-1,-1,-1,-1,-1,-1,-1,-1,-1,-1,-1,-1,-1,-1,-1,-1,-1,-1,-1,-1,-1,-1,-1,-1,-1],"loss_changes":[2.7999756E-1,1.5399151E-2,2.0302892E-2,7.3269308E-3,3.3336836E-3,8.94253E-3,1.9601129E-2,1.8224269E-3,4.466789E-4,3.7241445E-4,5.160626E-4,2.6723072E-3,3.070265E-3,1.2713857E-3,1.605913E-3,2.703661E-3,2.4913922E-3,3.5174357E-4,2.0272599E-4,1.14352595E-4,2.2961217E-4,3.1261006E-5,2.3149408E-4,5.13481E-4,1.8808097E-3,0E0,0E0,3.5465136E-4,2.194699E-3,0E0,0E0,1.0754708E-3,3.2705534E-4,2.1153092E-3,1.1199159E-3,8.802799E-6,0E0,0E0,1.9325943E-4,2.3493663E-5,4.1300955E-5,1.4725607E-4,2.6601498E-5,0E0,0E0,5.5236924E-5,1.8506544E-4,8.648634E-5,7.239357E-5,2.0243227E-4,3.035087E-4,0E0,0E0,0E0,0E0,0E0,0E0,0E0,0E0,0E0,0E0,0E0,0E0,0E0,0E0,0E0,0E0,0E0,0E0,0E0,0E0,0E0,0E0,0E0,0E0,0E0,0E0,0E0,0E0,0E0,0E0,0E0,0E0,0E0,0E0,0E0,0E0],"parents":[2147483647,0,0,1,1,2,2,3,3,4,4,5,5,6,6,7,7,8,8,9,9,10,10,11,11,12,12,13,13,14,14,15,15,16,16,17,17,18,18,19,19,20,20,21,21,22,22,23,23,24,24,27,27,28,28,31,31,32,32,33,33,34,34,35,35,38,38,39,39,40,40,41,41,42,42,45,45,46,46,47,47,48,48,49,49,50,50],"right_children":[2,4,6,8,10,12,14,16,18,20,22,24,26,28,30,32,34,36,38,40,42,44,46,48,50,-1,-1,52,54,-1,-1,56,58,60,62,64,-1,-1,66,68,70,72,74,-1,-1,76,78,80,82,84,86,-1,-1,-1,-1,-1,-1,-1,-1,-1,-1,-1,-1,-1,-1,-1,-1,-1,-1,-1,-1,-1,-1,-1,-1,-1,-1,-1,-1,-1,-1,-1,-1,-1,-1,-1,-1],"split_conditions":[1.4677992E-1,3.4807004E-2,2.3713738E-1,3.831187E-1,9.0851754E-2,1E0,6.189658E-1,1.2115276E-3,6.189658E-1,1.2115276E-3,7.498942E-4,3.831187E-1,1.9573418E-3,3.831187E-1,6.189658E-1,1.9573418E-3,1.4677992E-1,8.254042E-3,3.1622776E-3,5.6234132E-2,5.6234132E-2,6.812921E-5,3.4807004E-2,2.3713738E-1,1.3335214E-2,-9.972101E-3,-1.6070984E-2,3.831187E-1,1E0,-2.1409838E-2,-3.414445E-2,4.216965E-5,4.641589E-4,3.4807004E-2,5.1089698E-3,4.216965E-5,2.6075582E-3,-2.1779637E-3,1E0,7.498942E-4,1.7782794E-4,1.3335214E-2,5.6234132E-2,-4.8425477E-3,-3.2823668E-3,5.1089698E-3,6.189658E-1,4.641589E-4,5.6234132E-2,1.615598E-5,6.189658E-1,-1.21976435E-2,-7.062293E-3,-1.0694324E-2,-2.6146531E-2,5.0053936E-3,3.2443448E-3,1.4535855E-3,2.8498503E-3,3.892187E-3,5.830738E-3,1.1336822E-3,4.3017417E-3,1.6311728E-4,-3.2663345E-4,8.2668476E-4,-1.7719155E-3,6.1383273E-4,-5.563319E-4,-1.0124434E-3,-4.761517E-5,1.2809221E-3,2.8520352E-3,8.8457234E-4,2.2510326E-4,-1.4705815E-3,-2.4897754E-4,-3.2328407E-3,-6.7789445E-4,-6.0412386E-3,-4.630394E-3,-6.6198353E-3,-8.845117E-3,-4.6527577E-3,-7.9460135E-3,-9.432296E-3,-1.3150674E-2],"split_indices":[1,1,0,0,1,1,1,0,0,0,0,1,0,1,0,1,0,1,1,1,0,0,0,1,0,0,0,0,0,0,0,1,0,0,1,1,0,0,0,0,0,0,1,0,0,0,0,0,0,0,1,0,0,0,0,0,0,0,0,0,0,0,0,0,0,0,0,0,0,0,0,0,0,0,0,0,0,0,0,0,0,0,0,0,0,0,0],"split_type":[0,0,0,0,0,0,0,0,0,0,0,0,0,0,0,0,0,0,0,0,0,0,0,0,0,0,0,0,0,0,0,0,0,0,0,0,0,0,0,0,0,0,0,0,0,0,0,0,0,0,0,0,0,0,0,0,0,0,0,0,0,0,0,0,0,0,0,0,0,0,0,0,0,0,0,0,0,0,0,0,0,0,0,0,0,0,0],"sum_hessian":[2.634E3,2.057E3,5.77E2,1.722E3,3.35E2,5.02E2,7.5E1,1.602E3,1.2E2,2.2E2,1.15E2,4.03E2,9.9E1,4.8E1,2.7E1,7.41E2,8.61E2,5.8E1,6.2E1,9E1,1.3E2,3.8E1,7.7E1,2.03E2,2E2,5.4E1,4.5E1,3.1E1,1.7E1,1.5E1,1.2E1,4.66E2,2.75E2,7.26E2,1.35E2,4.4E1,1.4E1,3.5E1,2.7E1,4.5E1,4.5E1,6.8E1,6.2E1,1.7E1,2.1E1,3.7E1,4E1,1.01E2,1.02E2,1.43E2,5.7E1,7E0,2.4E1,1.4E1,3E0,1.23E2,3.43E2,2.22E2,5.3E1,5.25E2,2.01E2,9.6E1,3.9E1,1.2E1,3.2E1,1.5E1,1.2E1,4.1E1,4E0,2.6E1,1.9E1,4.3E1,2.5E1,3E1,3.2E1,1.8E1,1.9E1,3E1,1E1,3.9E1,6.2E1,8.7E1,1.5E1,1E1,1.33E2,3E1,2.7E1],"tree_param":{"num_deleted":"0","num_feature":"2","num_nodes":"87","size_leaf_vector":"1"}},{"base_weights":[-1.15585484E-4,2.692787E-3,-1.0114746E-2,3.179998E-3,-1.3104504E-3,-8.765594E-3,-1.8910913E-2,3.5377813E-3,4.5334207E-4,1.8521897E-4,-2.7045668E-3,-6.951527E-3,-1.1524882E-2,-1.41374E-2,-1.9520467E-2,3.115839E-3,5.0030258E-3,1.2539488E-3,-1.1430482E-3,-9.3640387E-4,7.283704E-4,-4.2486745E-3,-1.736823E-3,-6.2542344E-3,-9.053117E-3,-9.511408E-3,-1.6718006E-2,-9.168677E-3,-1.866433E-2,5.5628535E-3,2.4536122E-3,3.3140248E-3,7.7729607E-3,8.723639E-4,2.24914E-3,-2.2376853E-3,1.461839E-4,-1.3717382E-3,-2.1243095E-4,1.8937831E-3,2.3087129E-4,-2.5558025E-3,-1.7580147E-3,-8.87428E-5,-2.7022453E-3,-4.6193204E-3,-7.0316005E-3,-7.349193E-3,-4.862008E-3,-4.1779983E-3,-9.875528E-3,-9.010738E-3,-9.180593E-3,-6.8611614E-3,-7.3447633E-3,-1.3055561E-2,-1.8415283E-2,6.006304E-4,3.4486928E-3,-1.0852709E-3,1.4191925E-3,2.5580002E-3,-5.1888863E-5,4.664147E-3,2.2102185E-3,8.231177E-4,-9.802381E-5,1.4768819E-3,-4.4822693E-5,-8.3670137E-4,-1.5144885E-3,4.675012E-4,-3.9983727E-4,-2.6941963E-4,-9.642487E-4,2.7888682E-4,3.1623305E-3,-1.2147665E-3,2.4881473E-4,-2.1672508E-4,6.2371296E-4,-1.5705954E-3,3.7379563E-4,-3.0250621E-3,-1.2948732E-3,-3.8227534E-3,-1.360493E-3,-7.689065E-3,-2.54379E-3,-6.3815713E-4,-3.1916748E-3,-7.006839E-3,-4.53846E-3,-9.252454E-4,-8.070299E-3,-2.7908385E-3,-4.2714337E-3,-4.6530203E-3,-7.2465935E-3],"categories":[],"categories_nodes":[],"categories_segments":[],"categories_sizes":[],"default_left":[0,0,0,0,0,0,0,0,0,0,0,0,0,0,0,0,0,0,0,0,0,0,0,0,0,0,0,0,0,0,0,0,0,0,0,0,0,0,0,0,0,0,0,0,0,0,0,0,0,0,0,0,0,0,0,0,0,0,0,0,0,0,0,0,0,0,0,0,0,0,0,0,0,0,0,0,0,0,0,0,0,0,0,0,0,0,0,0,0,0,0,0,0,0,0,0,0,0,0],"id":2,"left_children":[1,3,5,7,9,11,13,15,17,19,21,23,25,27,-1,29,31,33,35,37,39,41,43,45,47,49,51,53,55,57,59,61,63,65,67,69,71,73,-1,75,77,-1,-1,79,81,83,85,87,-1,89,91,-1,93,-1,95,97,-1,-1,-1,-1,-1,-1,-1,-1,-1,-1,-1,-1,-1,-1,-1,-1,-1,-1,-1,-1,-1,-1,-1,-1,-1,-1,-1,-1,-1,-1,-1,-1,-1,-1,-1,-1,-1,-1,-1,-1,-1,-1,-1],"loss_changes":[7.402164E-2,4.0181344E-3,6.693568E-3,1.7885342E-3,4.6757175E-4,2.437666E-3,6.750971E-3,9.872112E-4,2.749426E-4,6.7086046E-5,1.6595976E-4,3.9179996E-4,1.9113179E-3,1.2459354E-3,0E0,2.0313943E-3,1.6631503E-3,5.2342177E-5,1.0193648E-4,7.4341006E-6,4.2467378E-5,9.845186E-6,1.15910036E-4,2.6364438E-4,1.3130251E-5,2.4032965E-4,3.6509056E-4,1.6498752E-4,2.779644E-3,1.5516579E-3,1.7765136E-3,1.392419E-3,6.679082E-4,8.713812E-5,6.453539E-5,1.2345277E-5,2.6115456E-5,7.771614E-6,0E0,1.2670555E-4,3.882229E-5,0E0,0E0,1.3437138E-5,7.20057E-5,2.108377E-4,3.9202208E-4,3.7572125E-4,0E0,6.2244406E-5,3.1894166E-4,0E0,4.803075E-4,0E0,5.125534E-6,5.276408E-6,0E0,0E0,0E0,0E0,0E0,0E0,0E0,0E0,0E0,0E0,0E0,0E0,0E0,0E0,0E0,0E0,0E0,0E0,0E0,0E0,0E0,0E0,0E0,0E0,0E0,0E0,0E0,0E0,0E0,0E0,0E0,0E0,0E0,0E0,0E0,0E0,0E0,0E0,0E0,0E0,0E0,0E0,0E0],"parents":[2147483647,0,0,1,1,2,2,3,3,4,4,5,5,6,6,7,7,8,8,9,9,10,10,11,11,12,12,13,13,15,15,16,16,17,17,18,18,19,19,20,20,21,21,22,22,23,23,24,24,25,25,26,26,27,27,28,28,29,29,30,30,31,31,32,32,33,33,34,34,35,35,36,36,37,37,39,39,40,40,43,43,44,44,45,45,46,46,47,47,49,49,50,50,52,52,54,54,55,55],"right_children":[2,4,6,8,10,12,14,16,18,20,22,24,26,28,-1,30,32,34,36,38,40,42,44,46,48,50,52,54,56,58,60,62,64,66,68,70,72,74,-1,76,78,-1,-1,80,82,84,86,88,-1,90,92,-1,94,-1,96,98,-1,-1,-1,-1,-1,-1,-1,-1,-1,-1,-1,-1,-1,-1,-1,-1,-1,-1,-1,-1,-1,-1,-1,-1,-1,-1,-1,-1,-1,-1,-1,-1,-1,-1,-1,-1,-1,-1,-1,-1,-1,-1,-1],"split_conditions":[1.4677992E-1,5.6234132E-2,2.3713738E-1,2.3713738E-1,9.0851754E-2,6.189658E-1,1E0,2.1544347E-2,6.189658E-1,4.641589E-4,1.2115276E-3,2.1544347E-2,1.3335214E-2,3.831187E-1,-1.9520467E-2,6.812921E-5,3.1622776E-3,8.254042E-3,5.1089698E-3,6.812921E-5,5.1089698E-3,6.812921E-5,2.1544347E-2,2.3713738E-1,2.3713738E-1,1.615598E-5,1.4677992E-1,3.831187E-1,1E0,1.615598E-5,1.1006941E-4,9.0851754E-2,2.1544347E-2,3.831187E-1,3.4807004E-2,1E0,1E0,2.6101572E-5,-2.1243095E-4,3.1622776E-3,8.254042E-3,-2.5558025E-3,-1.7580147E-3,1.3335214E-2,1E0,7.498942E-4,8.254042E-3,3.4807004E-2,-4.862008E-3,1E0,4.216965E-5,-9.010738E-3,1E0,-6.8611614E-3,2.3713738E-1,3.831187E-1,-1.8415283E-2,6.006304E-4,3.4486928E-3,-1.0852709E-3,1.4191925E-3,2.5580002E-3,-5.1888863E-5,4.664147E-3,2.2102185E-3,8.231177E-4,-9.802381E-5,1.4768819E-3,-4.4822693E-5,-8.3670137E-4,-1.5144885E-3,4.675012E-4,-3.9983727E-4,-2.6941963E-4,-9.642487E-4,2.7888682E-4,3.1623305E-3,-1.2147665E-3,2.4881473E-4,-2.1672508E-4,6.2371296E-4,-1.5705954E-3,3.7379563E-4,-3.0250621E-3,-1.2948732E-3,-3.8227534E-3,-1.360493E-3,-7.689065E-3,-2.54379E-3,-6.3815713E-4,-3.1916748E-3,-7.006839E-3,-4.53846E-3,-9.252454E-4,-8.070299E-3,-2.7908385E-3,-4.2714337E-3,-4.6530203E-3,-7.2465935E-3],"split_indices":[1,1,0,0,1,1,1,0,0,0,0,0,0,1,0,1,1,1,1,0,0,0,0,1,1,0,0,0,0,1,1,0,1,0,1,0,0,0,0,0,0,0,0,0,0,0,0,0,0,1,0,0,1,0,1,0,0,0,0,0,0,0,0,0,0,0,0,0,0,0,0,0,0,0,0,0,0,0,0,0,0,0,0,0,0,0,0,0,0,0,0,0,0,0,0,0,0,0,0],"split_type":[0,0,0,0,0,0,0,0,0,0,0,0,0,0,0,0,0,0,0,0,0,0,0,0,0,0,0,0,0,0,0,0,0,0,0,0,0,0,0,0,0,0,0,0,0,0,0,0,0,0,0,0,0,0,0,0,0,0,0,0,0,0,0,0,0,0,0,0,0,0,0,0,0,0,0,0,0,0,0,0,0,0,0,0,0,0,0,0,0,0,0,0,0,0,0,0,0,0,0],"sum_hessian":[2.634E3,2.057E3,5.77E2,1.834E3,2.23E2,5.02E2,7.5E1,1.621E3,2.13E2,1.08E2,1.15E2,3.05E2,1.97E2,6.2E1,1.3E1,1.261E3,3.6E2,1.42E2,7.1E1,3.5E1,7.3E1,4.3E1,7.2E1,2.32E2,7.3E1,1.44E2,5.3E1,3.1E1,3.1E1,2.67E2,9.94E2,2.25E2,1.35E2,1.04E2,3.8E1,3.8E1,3.3E1,1.8E1,1.7E1,2.1E1,5.2E1,1.7E1,2.6E1,2.7E1,4.5E1,7.7E1,1.55E2,2.4E1,4.9E1,1E1,1.34E2,4.4E1,9E0,7E0,2.4E1,2.5E1,6E0,6.3E1,2.04E2,7.6E1,9.18E2,1.47E2,7.8E1,9.1E1,4.4E1,6E1,4.4E1,2.9E1,9E0,2.4E1,1.4E1,1.8E1,1.5E1,8E0,1E1,1.7E1,4E0,4E0,4.8E1,2.2E1,5E0,4E1,5E0,4.4E1,3.3E1,1.35E2,2E1,4E0,2E1,5E0,5E0,1.9E1,1.15E2,5E0,4E0,1.2E1,1.2E1,9E0,1.6E1],"tree_param":{"num_deleted":"0","num_feature":"2","num_nodes":"99","size_leaf_vector":"1"}},{"base_weights":[-1.0035707E-4,1.3510494E-3,-5.267994E-3,1.7044315E-3,-4.6510657E-4,-4.7394643E-3,-1.3332343E-2,1.9440058E-3,3.2396452E-4,2.5759186E-5,-1.396281E-3,-3.9395858E-3,-7.96944E-3,-4.348211E-3,-1.9853031E-2,1.7200917E-3,3.3388338E-3,-6.956292E-5,1.5306369E-3,-6.1647076E-4,6.230883E-4,-2.2223701E-3,-8.792371E-4,-3.1969007E-3,-5.3586396E-3,-6.005474E-3,-1.4511262E-2,-2.841287E-4,-8.376777E-3,-1.4331761E-2,-1.1970563E-2,3.596762E-3,1.3480952E-3,-2.5640242E-3,4.423937E-3,1.18039425E-4,-1.9104547E-3,2.4600944E-3,-1.9277178E-4,-9.6290006E-4,-2.4533723E-4,1.7155578E-3,-1.03721446E-4,-1.3032592E-3,-1.6310662E-3,-3.197541E-4,-1.878312E-3,-3.9856904E-3,-1.001912E-3,-6.741174E-3,-4.8585297E-3,-2.6996296E-3,-7.360499E-3,-1.1200014E-2,-1.1813508E-2,-1.9501671E-3,1.0870149E-3,-2.3858189E-3,-5.3945035E-3,-4.7288407E-3,-1.024849E-2,2.3123929E-4,2.5361786E-3,7.7904995E-5,8.3387765E-4,-2.1643906E-3,1.7410975E-4,1.7454425E-3,2.6321525E-3,-8.3902676E-4,1.4129994E-4,-8.627772E-5,-1.0584537E-3,2.1409907E-3,8.671303E-4,5.5977143E-4,-1.3966523E-3,-2.6737942E-5,-6.67313E-4,-2.541898E-4,1.4718871E-4,3.7987105E-4,1.5169178E-3,-8.179303E-4,1.7193881E-4,2.537906E-4,-1.098726E-3,6.191671E-4,-2.4477122E-4,-2.0268885E-3,-1.3264269E-4,-1.7504292E-3,-4.3759127E-3,2.5947168E-4,-1.2680369E-3,-5.0505335E-3,-2.7329973E-3,-1.6075664E-3,-2.5886886E-3,-2.6624203E-3,3.4692734E-3,-4.6096295E-3,-8.944385E-4,-3.8398935E-3,-6.96467E-3],"categories":[],"categories_nodes":[],"categories_segments":[],"categories_sizes":[],"default_left":[0,0,0,0,0,0,0,0,0,0,0,0,0,0,0,0,0,0,0,0,0,0,0,0,0,0,0,0,0,0,0,0,0,0,0,0,0,0,0,0,0,0,0,0,0,0,0,0,0,0,0,0,0,0,0,0,0,0,0,0,0,0,0,0,0,0,0,0,0,0,0,0,0,0,0,0,0,0,0,0,0,0,0,0,0,0,0,0,0,0,0,0,0,0,0,0,0,0,0,0,0,0,0,0,0],"id":3,"left_children":[1,3,5,7,9,11,13,15,17,19,21,23,25,27,29,31,33,35,37,39,41,43,45,47,49,51,53,55,57,59,-1,61,63,65,67,69,71,73,75,77,79,81,83,-1,85,87,89,91,93,95,97,99,101,-1,103,-1,-1,-1,-1,-1,-1,-1,-1,-1,-1,-1,-1,-1,-1,-1,-1,-1,-1,-1,-1,-1,-1,-1,-1,-1,-1,-1,-1,-1,-1,-1,-1,-1,-1,-1,-1,-1,-1,-1,-1,-1,-1,-1,-1,-1,-1,-1,-1,-1,-1],"loss_changes":[1.9770518E-2,1.321611E-3,2.4003908E-3,5.692085E-4,1.536154E-4,1.3740752E-3,1.9640708E-3,4.527457E-4,1.2167031E-4,8.516472E-5,4.759243E-5,4.4448161E-4,1.28758E-3,2.595787E-4,1.0831095E-4,8.7966234E-4,1.3051953E-3,6.722449E-5,1.0138984E-4,1.3520919E-5,9.148994E-5,5.743117E-6,4.020388E-5,4.981081E-4,7.026922E-5,3.564076E-4,2.461439E-4,8.8482295E-5,1.8090126E-5,1.3669347E-4,0E0,9.642651E-4,4.0335243E-4,1.6596825E-4,1.1570542E-4,5.278938E-5,6.0930106E-6,4.67918E-5,8.161972E-5,1.8521743E-5,7.673951E-6,5.5656477E-5,4.8567425E-5,0E0,2.5341367E-5,1.3304389E-5,9.016076E-5,4.6155625E-4,1.8330864E-4,1.03312894E-4,4.25654E-5,6.948051E-4,5.9453025E-4,0E0,6.7950925E-5,0E0,0E0,0E0,0E0,0E0,0E0,0E0,0E0,0E0,0E0,0E0,0E0,0E0,0E0,0E0,0E0,0E0,0E0,0E0,0E0,0E0,0E0,0E0,0E0,0E0,0E0,0E0,0E0,0E0,0E0,0E0,0E0,0E0,0E0,0E0,0E0,0E0,0E0,0E0,0E0,0E0,0E0,0E0,0E0,0E0,0E0,0E0,0E0,0E0,0E0],"parents":[2147483647,0,0,1,1,2,2,3,3,4,4,5,5,6,6,7,7,8,8,9,9,10,10,11,11,12,12,13,13,14,14,15,15,16,16,17,17,18,18,19,19,20,20,21,21,22,22,23,23,24,24,25,25,26,26,27,27,28,28,29,29,31,31,32,32,33,33,34,34,35,35,36,36,37,37,38,38,39,39,40,40,41,41,42,42,44,44,45,45,46,46,47,47,48,48,49,49,50,50,51,51,52,52,54,54],"right_children":[2,4,6,8,10,12,14,16,18,20,22,24,26,28,30,32,34,36,38,40,42,44,46,48,50,52,54,56,58,60,-1,62,64,66,68,70,72,74,76,78,80,82,84,-1,86,88,90,92,94,96,98,100,102,-1,104,-1,-1,-1,-1,-1,-1,-1,-1,-1,-1,-1,-1,-1,-1,-1,-1,-1,-1,-1,-1,-1,-1,-1,-1,-1,-1,-1,-1,-1,-1,-1,-1,-1,-1,-1,-1,-1,-1,-1,-1,-1,-1,-1,-1,-1,-1,-1,-1,-1,-1],"split_conditions":[1.4677992E-1,3.4807004E-2,6.189658E-1,1.4677992E-1,9.0851754E-2,1E0,3.831187E-1,3.4807004E-2,8.254042E-3,3.1622776E-3,1.2115276E-3,1.3335214E-2,3.4807004E-2,2.3713738E-1,1E0,4.216965E-5,4.216965E-5,1E0,2.1544347E-2,5.6234132E-2,3.4807004E-2,1.7782794E-4,1.4677992E-1,1.9573418E-3,3.4807004E-2,1.1006941E-4,5.6234132E-2,1E0,1E0,1E0,-1.1970563E-2,1.615598E-5,1.7782794E-4,2.6101572E-5,1.2115276E-3,1.615598E-5,1.615598E-5,2.3713738E-1,6.189658E-1,6.812921E-5,4.641589E-4,1.3335214E-2,9.0851754E-2,-1.3032592E-3,2.872985E-4,1.9573418E-3,3.831187E-1,1.2115276E-3,5.1089698E-3,2.3713738E-1,5.6234132E-2,6.812921E-5,8.254042E-3,-1.1200014E-2,1.4677992E-1,-1.9501671E-3,1.0870149E-3,-2.3858189E-3,-5.3945035E-3,-4.7288407E-3,-1.024849E-2,2.3123929E-4,2.5361786E-3,7.7904995E-5,8.3387765E-4,-2.1643906E-3,1.7410975E-4,1.7454425E-3,2.6321525E-3,-8.3902676E-4,1.4129994E-4,-8.627772E-5,-1.0584537E-3,2.1409907E-3,8.671303E-4,5.5977143E-4,-1.3966523E-3,-2.6737942E-5,-6.67313E-4,-2.541898E-4,1.4718871E-4,3.7987105E-4,1.5169178E-3,-8.179303E-4,1.7193881E-4,2.537906E-4,-1.098726E-3,6.191671E-4,-2.4477122E-4,-2.0268885E-3,-1.3264269E-4,-1.7504292E-3,-4.3759127E-3,2.5947168E-4,-1.2680369E-3,-5.0505335E-3,-2.7329973E-3,-1.6075664E-3,-2.5886886E-3,-2.6624203E-3,3.4692734E-3,-4.6096295E-3,-8.944385E-4,-3.8398935E-3,-6.96467E-3],"split_indices":[1,1,0,0,1,1,1,0,1,0,0,0,0,1,0,1,1,0,1,1,0,0,0,0,0,0,0,0,0,1,0,1,1,1,1,1,1,0,0,0,0,0,0,0,0,0,0,0,0,1,0,0,0,0,0,0,0,0,0,0,0,0,0,0,0,0,0,0,0,0,0,0,0,0,0,0,0,0,0,0,0,0,0,0,0,0,0,0,0,0,0,0,0,0,0,0,0,0,0,0,0,0,0,0,0],"split_type":[0,0,0,0,0,0,0,0,0,0,0,0,0,0,0,0,0,0,0,0,0,0,0,0,0,0,0,0,0,0,0,0,0,0,0,0,0,0,0,0,0,0,0,0,0,0,0,0,0,0,0,0,0,0,0,0,0,0,0,0,0,0,0,0,0,0,0,0,0,0,0,0,0,0,0,0,0,0,0,0,0,0,0,0,0,0,0,0,0,0,0,0,0,0,0,0,0,0,0,0,0,0,0,0,0],"sum_hessian":[2.634E3,2.057E3,5.77E2,1.722E3,3.35E2,5.43E2,3.4E1,1.467E3,2.55E2,2.2E2,1.15E2,4.37E2,1.06E2,1.5E1,1.9E1,1.266E3,2.01E2,1.93E2,6.2E1,1.06E2,1.14E2,4.3E1,7.2E1,2.89E2,1.48E2,8.3E1,2.3E1,8E0,7E0,1E1,9E0,2.08E2,1.058E3,3.1E1,1.7E2,1.76E2,1.7E1,4E1,2.2E1,5.4E1,5.2E1,4.5E1,6.9E1,2.4E1,1.9E1,4.7E1,2.5E1,2.12E2,7.7E1,3.6E1,1.12E2,2.5E1,5.8E1,4E0,1.9E1,3E0,5E0,4E0,3E0,7E0,3E0,6.7E1,1.41E2,2.24E2,8.34E2,1.9E1,1.2E1,8.3E1,8.7E1,1.4E1,1.62E2,2E0,1.5E1,1E1,3E1,1.5E1,7E0,1.6E1,3.8E1,3.5E1,1.7E1,2.7E1,1.8E1,1.5E1,5.4E1,4E0,1.5E1,4E0,4.3E1,1E1,1.5E1,1.94E2,1.8E1,3.9E1,3.8E1,8E0,2.8E1,2E1,9.2E1,2E1,5E0,4.3E1,1.5E1,8E0,1.1E1],"tree_param":{"num_deleted":"0","num_feature":"2","num_nodes":"105","size_leaf_vector":"1"}},{"base_weights":[-7.996765E-5,5.8265147E-4,-3.206034E-3,9.130766E-4,-3.6505453E-4,-2.7844051E-3,-9.880203E-3,-3.9022716E-4,9.93075E-4,-1.4258748E-3,-4.9627237E-5,-2.3044075E-3,-4.234263E-3,-7.5878957E-3,-7.6728337E-3,3.8235728E-4,-1.9726523E-3,1.8917678E-3,8.632679E-4,-3.0207064E-3,-1.0697346E-3,3.7308357E-4,-6.562588E-4,-1.5422262E-3,-2.680196E-3,-1.8773616E-3,-6.1930707E-3,-2.36977E-3,-5.123566E-3,-1.7113076E-4,1.6043162E-3,-3.1588674E-3,-8.099535E-4,2.5722089E-3,-5.1003415E-4,2.706104E-4,1.0363674E-3,-2.254665E-3,-3.7910938E-3,-3.9879442E-4,-1.6968272E-3,8.0279354E-4,1.44579E-4,2.0363822E-4,-1.4187323E-3,-1.8051402E-3,1.6798129E-3,-2.007722E-3,-3.6968396E-3,-2.5912945E-3,1.2374998E-3,-4.6588182E-3,-8.172478E-3,9.6911617E-4,-2.7491152E-4,-8.5171463E-4,-1.7666302E-3,-5.831599E-4,-1.3162568E-4,6.6237233E-4,2.2812095E-3,-8.244912E-4,4.8332175E-5,-1.3082814E-4,6.3586805E-4,7.274476E-4,2.3303098E-4,-1.9656164E-3,-2.529174E-4,-2.7324439E-3,-8.8220835E-4,-2.6499523E-5,-2.7344757E-4,-6.776965E-4,-9.587205E-4,5.1230774E-4,-7.856153E-4,-1.1494268E-4,1.6120673E-4,-2.4317915E-4,4.2882154E-4,-8.5687323E-4,4.949488E-4,-6.564935E-4,-3.4817855E-3,-1.3218514E-3,8.7477715E-4,-2.3847772E-3,-1.1081581E-3,-6.5939245E-4,-2.2485834E-3,2.4134219E-3,-9.799352E-4,-4.247034E-3,-6.788388E-4,-6.7200093E-3,-3.223484E-3],"categories":[],"categories_nodes":[],"categories_segments":[],"categories_sizes":[],"default_left":[0,0,0,0,0,0,0,0,0,0,0,0,0,0,0,0,0,0,0,0,0,0,0,0,0,0,0,0,0,0,0,0,0,0,0,0,0,0,0,0,0,0,0,0,0,0,0,0,0,0,0,0,0,0,0,0,0,0,0,0,0,0,0,0,0,0,0,0,0,0,0,0,0,0,0,0,0,0,0,0,0,0,0,0,0,0,0,0,0,0,0,0,0,0,0,0,0],"id":4,"left_children":[1,3,5,7,9,11,13,15,17,19,21,23,25,27,-1,29,31,33,35,37,39,41,43,45,47,49,51,-1,-1,-1,53,55,57,59,61,63,65,67,69,71,73,75,77,79,81,83,-1,85,87,89,91,93,95,-1,-1,-1,-1,-1,-1,-1,-1,-1,-1,-1,-1,-1,-1,-1,-1,-1,-1,-1,-1,-1,-1,-1,-1,-1,-1,-1,-1,-1,-1,-1,-1,-1,-1,-1,-1,-1,-1,-1,-1,-1,-1,-1,-1],"loss_changes":[5.4599843E-3,6.814256E-4,1.2697536E-3,1.685624E-4,1.883156E-4,2.9297173E-4,2.2182893E-4,1.15674615E-4,1.7568516E-4,7.003851E-5,1.1179176E-4,9.009836E-5,4.823621E-4,1.1049665E-4,0E0,5.7218174E-5,4.019698E-5,3.1346024E-4,1.3616239E-4,5.025766E-6,4.434267E-5,2.5118941E-5,1.1765003E-4,1.4911758E-4,1.4230073E-4,1.1439681E-4,1.3806671E-4,0E0,0E0,0E0,1.832893E-5,2.1549495E-6,3.0050096E-6,3.6388065E-4,2.987232E-5,1.6125823E-4,2.449326E-4,3.90599E-5,2.4280045E-5,2.6852795E-6,1.5440164E-6,4.8478254E-5,1.1328278E-5,3.8774317E-5,6.92015E-5,2.5996318E-4,0E0,3.2482576E-4,1.260126E-4,9.350409E-5,1.2422459E-4,4.3159229E-4,1.314932E-4,0E0,0E0,0E0,0E0,0E0,0E0,0E0,0E0,0E0,0E0,0E0,0E0,0E0,0E0,0E0,0E0,0E0,0E0,0E0,0E0,0E0,0E0,0E0,0E0,0E0,0E0,0E0,0E0,0E0,0E0,0E0,0E0,0E0,0E0,0E0,0E0,0E0,0E0,0E0,0E0,0E0,0E0,0E0,0E0],"parents":[2147483647,0,0,1,1,2,2,3,3,4,4,5,5,6,6,7,7,8,8,9,9,10,10,11,11,12,12,13,13,15,15,16,16,17,17,18,18,19,19,20,20,21,21,22,22,23,23,24,24,25,25,26,26,30,30,31,31,32,32,33,33,34,34,35,35,36,36,37,37,38,38,39,39,40,40,41,41,42,42,43,43,44,44,45,45,47,47,48,48,49,49,50,50,51,51,52,52],"right_children":[2,4,6,8,10,12,14,16,18,20,22,24,26,28,-1,30,32,34,36,38,40,42,44,46,48,50,52,-1,-1,-1,54,56,58,60,62,64,66,68,70,72,74,76,78,80,82,84,-1,86,88,90,92,94,96,-1,-1,-1,-1,-1,-1,-1,-1,-1,-1,-1,-1,-1,-1,-1,-1,-1,-1,-1,-1,-1,-1,-1,-1,-1,-1,-1,-1,-1,-1,-1,-1,-1,-1,-1,-1,-1,-1,-1,-1,-1,-1,-1,-1],"split_conditions":[2.3713738E-1,2.1544347E-2,6.189658E-1,1.615598E-5,1.7782794E-4,1E0,1E0,2.1544347E-2,4.216965E-5,3.4807004E-2,9.0851754E-2,3.831187E-1,1.2115276E-3,1E0,-7.6728337E-3,1.2115276E-3,1.4677992E-1,5.6234132E-2,1.7782794E-4,6.812921E-5,9.0851754E-2,3.4807004E-2,1.3335214E-2,3.831187E-1,8.254042E-3,4.641589E-4,3.4807004E-2,-2.36977E-3,-5.123566E-3,-1.7113076E-4,1.3335214E-2,3.4807004E-2,3.831187E-1,1.9573418E-3,1.4677992E-1,1.3335214E-2,3.1622776E-3,2.6101572E-5,1.1006941E-4,2.6101572E-5,1.4677992E-1,6.189658E-1,3.1622776E-3,1.4677992E-1,1E0,1.4677992E-1,1.6798129E-3,3.1622776E-3,9.0851754E-2,1.1006941E-4,7.498942E-4,5.1089698E-3,5.6234132E-2,9.6911617E-4,-2.7491152E-4,-8.5171463E-4,-1.7666302E-3,-5.831599E-4,-1.3162568E-4,6.6237233E-4,2.2812095E-3,-8.244912E-4,4.8332175E-5,-1.3082814E-4,6.3586805E-4,7.274476E-4,2.3303098E-4,-1.9656164E-3,-2.529174E-4,-2.7324439E-3,-8.8220835E-4,-2.6499523E-5,-2.7344757E-4,-6.776965E-4,-9.587205E-4,5.1230774E-4,-7.856153E-4,-1.1494268E-4,1.6120673E-4,-2.4317915E-4,4.2882154E-4,-8.5687323E-4,4.949488E-4,-6.564935E-4,-3.4817855E-3,-1.3218514E-3,8.7477715E-4,-2.3847772E-3,-1.1081581E-3,-6.5939245E-4,-2.2485834E-3,2.4134219E-3,-9.799352E-4,-4.247034E-3,-6.788388E-4,-6.7200093E-3,-3.223484E-3],"split_indices":[1,1,0,1,0,1,1,0,1,1,1,1,0,0,0,0,0,0,1,0,1,1,0,0,0,0,0,0,0,0,0,0,0,0,0,0,1,0,0,0,1,0,0,1,0,0,0,0,0,0,0,0,0,0,0,0,0,0,0,0,0,0,0,0,0,0,0,0,0,0,0,0,0,0,0,0,0,0,0,0,0,0,0,0,0,0,0,0,0,0,0,0,0,0,0,0,0],"split_type":[0,0,0,0,0,0,0,0,0,0,0,0,0,0,0,0,0,0,0,0,0,0,0,0,0,0,0,0,0,0,0,0,0,0,0,0,0,0,0,0,0,0,0,0,0,0,0,0,0,0,0,0,0,0,0,0,0,0,0,0,0,0,0,0,0,0,0,0,0,0,0,0,0,0,0,0,0,0,0,0,0,0,0,0,0,0,0,0,0,0,0,0,0,0,0,0,0],"sum_hessian":[2.634E3,2.174E3,4.6E2,1.612E3,5.62E2,4.34E2,2.6E1,9.3E1,1.519E3,1.28E2,4.34E2,3.28E2,1.06E2,2E1,6E0,6.3E1,3E1,1.9E2,1.329E3,2.2E1,1.06E2,2.56E2,1.78E2,1.1E2,2.18E2,4.9E1,5.7E1,1.1E1,9E0,4E1,2.3E1,1.4E1,1.6E1,1.48E2,4.2E1,3.01E2,1.028E3,1.3E1,9E0,5.2E1,5.4E1,8.8E1,1.68E2,8.4E1,9.4E1,1.05E2,5E0,1.33E2,8.5E1,4E1,9E0,3.4E1,2.3E1,2E1,3E0,4E0,1E1,9E0,7E0,9.2E1,5.6E1,1.4E1,2.8E1,1.97E2,1.04E2,5.92E2,4.36E2,6E0,7E0,4E0,5E0,1.6E1,3.6E1,2.4E1,3E1,8.1E1,7E0,5.4E1,1.14E2,4.1E1,4.3E1,8.4E1,1E1,9.7E1,8E0,1.14E2,1.9E1,4.8E1,3.7E1,2.5E1,1.5E1,4E0,5E0,1.5E1,1.9E1,4E0,1.9E1],"tree_param":{"num_deleted":"0","num_feature":"2","num_nodes":"97","size_leaf_vector":"1"}},{"base_weights":[-5.7169225E-5,3.4541794E-4,-1.4905035E-3,5.355519E-4,2.9963216E-5,-1.1597534E-3,-3.659935E-3,7.8049314E-4,-6.33341E-4,-7.435709E-4,8.6563156E-4,-6.3670793E-4,-1.5115585E-3,-1.0273472E-3,-6.3383942E-3,6.5125496E-4,2.003727E-3,-4.6675172E-4,-1.407333E-3,-1.1766342E-3,-1.551159E-4,1.5186821E-3,3.3187865E-5,-5.2658765E-4,-1.2604729E-3,-7.8532397E-4,-2.0622949E-3,-2.289311E-3,-3.885561E-3,8.899746E-4,-4.5036402E-4,-1.7446493E-3,2.57729E-3,-1.0099236E-3,3.6434416E-5,-2.1642447E-4,-1.4765164E-3,-1.9258156E-4,-1.4886477E-3,-3.0557052E-4,1.5646985E-3,2.1272125E-3,4.156655E-5,4.6278536E-4,-1.8581802E-4,-8.649578E-4,2.81745E-4,-2.15936E-3,3.7061342E-4,-3.786905E-3,-1.6955626E-3,1.4956117E-4,6.888972E-4,1.1071832E-3,-9.6735737E-4,-1.1437722E-3,-4.3748107E-4,1.0870685E-3,3.168527E-3,-1.273565E-4,-5.797824E-4,2.625803E-4,-3.0803395E-4,-7.9798896E-4,-3.7680354E-4,-5.1993027E-4,3.0231575E-4,-8.5217546E-4,-4.9799576E-4,-8.086484E-5,-2.9510036E-4,1.2523979E-3,-3.1421782E-4,5.67992E-4,1.2178394E-3,1.5294903E-4,-5.426531E-4,-2.1496628E-4,6.543809E-4,-1.6597236E-4,1.2698982E-4,-1.0377816E-4,-7.549118E-4,-3.9384488E-4,6.530702E-4,-2.668444E-4,-1.3446953E-3,6.6754024E-4,5.739619E-5,-2.4272283E-3,-7.993443E-4,-2.9433734E-4,-1.2264171E-3],"categories":[],"categories_nodes":[],"categories_segments":[],"categories_sizes":[],"default_left":[0,0,0,0,0,0,0,0,0,0,0,0,0,0,0,0,0,0,0,0,0,0,0,0,0,0,0,0,0,0,0,0,0,0,0,0,0,0,0,0,0,0,0,0,0,0,0,0,0,0,0,0,0,0,0,0,0,0,0,0,0,0,0,0,0,0,0,0,0,0,0,0,0,0,0,0,0,0,0,0,0,0,0,0,0,0,0,0,0,0,0,0,0],"id":5,"left_children":[1,3,5,7,9,11,13,15,17,19,21,23,25,-1,27,29,31,33,35,37,39,41,43,45,-1,47,49,-1,-1,51,53,55,57,59,61,-1,63,65,67,69,71,73,75,77,79,81,83,85,87,89,91,-1,-1,-1,-1,-1,-1,-1,-1,-1,-1,-1,-1,-1,-1,-1,-1,-1,-1,-1,-1,-1,-1,-1,-1,-1,-1,-1,-1,-1,-1,-1,-1,-1,-1,-1,-1,-1,-1,-1,-1,-1,-1],"loss_changes":[1.5210204E-3,1.2342003E-4,4.1049335E-4,3.6811648E-4,5.0161756E-4,9.1594644E-5,3.1374395E-4,1.6658503E-4,2.8096467E-5,1.0251731E-4,2.0272279E-4,4.100101E-5,1.1836953E-4,0E0,3.5014586E-5,2.533857E-4,2.2163935E-4,5.0600367E-5,1.9902E-6,7.094606E-5,4.4983823E-5,1.877753E-4,1.5609918E-5,5.3305725E-5,0E0,2.0886754E-4,1.0109908E-4,0E0,0E0,2.2757734E-4,6.84612E-4,4.6085697E-6,1.1960935E-4,9.762589E-6,3.1256346E-5,0E0,1.9062136E-6,3.9130056E-5,1.7005543E-5,6.414236E-6,3.0438732E-5,4.2485655E-5,1.8799807E-5,4.2854906E-5,7.153588E-6,5.776582E-5,6.4569234E-5,5.026406E-5,1.7611374E-5,5.9984217E-5,1.1758262E-4,0E0,0E0,0E0,0E0,0E0,0E0,0E0,0E0,0E0,0E0,0E0,0E0,0E0,0E0,0E0,0E0,0E0,0E0,0E0,0E0,0E0,0E0,0E0,0E0,0E0,0E0,0E0,0E0,0E0,0E0,0E0,0E0,0E0,0E0,0E0,0E0,0E0,0E0,0E0,0E0,0E0,0E0],"parents":[2147483647,0,0,1,1,2,2,3,3,4,4,5,5,6,6,7,7,8,8,9,9,10,10,11,11,12,12,14,14,15,15,16,16,17,17,18,18,19,19,20,20,21,21,22,22,23,23,25,25,26,26,29,29,30,30,31,31,32,32,33,33,34,34,36,36,37,37,38,38,39,39,40,40,41,41,42,42,43,43,44,44,45,45,46,46,47,47,48,48,49,49,50,50],"right_children":[2,4,6,8,10,12,14,16,18,20,22,24,26,-1,28,30,32,34,36,38,40,42,44,46,-1,48,50,-1,-1,52,54,56,58,60,62,-1,64,66,68,70,72,74,76,78,80,82,84,86,88,90,92,-1,-1,-1,-1,-1,-1,-1,-1,-1,-1,-1,-1,-1,-1,-1,-1,-1,-1,-1,-1,-1,-1,-1,-1,-1,-1,-1,-1,-1,-1,-1,-1,-1,-1,-1,-1,-1,-1,-1,-1,-1,-1],"split_conditions":[1.4677992E-1,5.1089698E-3,2.3713738E-1,9.0851754E-2,5.1089698E-3,3.831187E-1,6.189658E-1,3.4807004E-2,6.189658E-1,3.4807004E-2,3.4807004E-2,1.4677992E-1,7.498942E-4,-1.0273472E-3,1E0,8.254042E-3,2.6101572E-5,2.3713738E-1,1.615598E-5,8.254042E-3,3.1622776E-3,2.3713738E-1,3.4807004E-2,8.254042E-3,-1.2604729E-3,6.812921E-5,1.9573418E-3,-2.289311E-3,-3.885561E-3,1.7782794E-4,1.1006941E-4,1.615598E-5,3.1622776E-3,2.6101572E-5,3.831187E-1,-2.1642447E-4,1.9573418E-3,1.7782794E-4,2.1544347E-2,9.0851754E-2,9.0851754E-2,8.254042E-3,1E0,1.3335214E-2,6.189658E-1,2.3713738E-1,2.3713738E-1,1.615598E-5,1.1006941E-4,1E0,1.3335214E-2,1.4956117E-4,6.888972E-4,1.1071832E-3,-9.6735737E-4,-1.1437722E-3,-4.3748107E-4,1.0870685E-3,3.168527E-3,-1.273565E-4,-5.797824E-4,2.625803E-4,-3.0803395E-4,-7.9798896E-4,-3.7680354E-4,-5.1993027E-4,3.0231575E-4,-8.5217546E-4,-4.9799576E-4,-8.086484E-5,-2.9510036E-4,1.2523979E-3,-3.1421782E-4,5.67992E-4,1.2178394E-3,1.5294903E-4,-5.426531E-4,-2.1496628E-4,6.543809E-4,-1.6597236E-4,1.2698982E-4,-1.0377816E-4,-7.549118E-4,-3.9384488E-4,6.530702E-4,-2.668444E-4,-1.3446953E-3,6.6754024E-4,5.739619E-5,-2.4272283E-3,-7.993443E-4,-2.9433734E-4,-1.2264171E-3],"split_indices":[1,1,0,0,0,1,1,0,0,1,1,0,0,0,1,0,1,0,1,1,0,0,0,0,0,0,0,0,0,1,1,1,1,1,0,0,1,0,1,1,1,1,0,0,0,1,1,0,0,1,0,0,0,0,0,0,0,0,0,0,0,0,0,0,0,0,0,0,0,0,0,0,0,0,0,0,0,0,0,0,0,0,0,0,0,0,0,0,0,0,0,0,0],"split_type":[0,0,0,0,0,0,0,0,0,0,0,0,0,0,0,0,0,0,0,0,0,0,0,0,0,0,0,0,0,0,0,0,0,0,0,0,0,0,0,0,0,0,0,0,0,0,0,0,0,0,0,0,0,0,0,0,0,0,0,0,0,0,0,0,0,0,0,0,0,0,0,0,0,0,0,0,0,0,0,0,0,0,0,0,0,0,0,0,0,0,0,0,0],"sum_hessian":[2.634E3,2.057E3,5.77E2,1.283E3,7.74E2,5.02E2,7.5E1,1.061E3,2.22E2,4.02E2,3.72E2,2.03E2,2.99E2,4.8E1,2.7E1,9.61E2,1E2,1.84E2,3.8E1,2.31E2,1.71E2,2.08E2,1.64E2,1.93E2,1E1,1.3E2,1.69E2,1.4E1,1.3E1,7.9E2,1.71E2,1.3E1,8.7E1,8.8E1,9.6E1,3E0,3.5E1,5.6E1,1.75E2,1.58E2,1.3E1,1.47E2,6.1E1,5.5E1,1.09E2,1.36E2,5.7E1,5.9E1,7.1E1,2.8E1,1.41E2,3.58E2,4.32E2,6.1E1,1.1E2,7E0,6E0,8E1,7E0,1.5E1,7.3E1,5.5E1,4.1E1,2.9E1,6E0,2.7E1,2.9E1,1.2E2,5.5E1,1.06E2,5.2E1,9E0,4E0,3.6E1,1.11E2,5E1,1.1E1,2.7E1,2.8E1,8.2E1,2.7E1,6.8E1,6.8E1,2.8E1,2.9E1,1.5E1,4.4E1,1.4E1,5.7E1,1.8E1,1E1,5.8E1,8.3E1],"tree_param":{"num_deleted":"0","num_feature":"2","num_nodes":"93","size_leaf_vector":"1"}},{"base_weights":[-3.328699E-5,1.7383022E-4,-7.7068136E-4,3.139088E-4,2.0322213E-5,-6.5167213E-4,-2.598405E-3,4.5885984E-4,-3.821411E-4,-5.966547E-4,3.2737112E-4,-4.597739E-4,-1.4311092E-3,-1.920946E-4,-4.393533E-3,-1.9899844E-4,5.912316E-4,-2.578532E-4,-1.602541E-3,-7.643916E-4,-2.3473104E-4,5.5707956E-4,6.844882E-5,-4.1153296E-4,-1.0034757E-3,-5.5043993E-4,-2.502131E-3,6.8587065E-4,-1.1557937E-3,-2.8691916E-3,-2.8154776E-3,3.3155455E-5,-1.1287193E-3,1.8580718E-3,4.3533242E-4,-9.85421E-4,-5.5033324E-5,-3.069852E-4,-2.0859458E-3,-1.0134442E-3,-3.708059E-4,-1.5964905E-4,-6.423965E-4,9.244267E-5,1.0106313E-3,3.2186942E-4,-2.1842E-4,-4.9886893E-4,-4.5924626E-5,-3.0399163E-3,-2.8749637E-4,-3.1670006E-3,3.6212205E-5,-4.964024E-3,-1.4077674E-3,-5.1227957E-4,8.559227E-4,-7.265806E-5,-1.0649711E-3,-5.156219E-4,-1.8860634E-3,-1.616478E-4,4.967442E-4,-8.1763865E-4,-2.9163808E-4,6.1103207E-4,1.5091492E-3,-8.802038E-5,3.2514808E-4,-3.6544868E-4,-7.273853E-4,1.5032574E-4,-2.428088E-4,-1.2573265E-3,-3.535226E-4,-6.886543E-4,-4.060828E-4,1.2389164E-4,-4.8370427E-4,-1.116782E-4,1.01072445E-4,-1.0343844E-4,-6.668915E-4,3.6506652E-4,-3.4395955E-5,9.3060633E-4,6.944991E-5,1.3090024E-5,6.3825113E-4,-3.552156E-4,-3.1358162E-5,-1.8756102E-4,-7.2764704E-4,4.822101E-4,-2.0238025E-4,-8.736372E-4,-1.8622875E-3,-6.7101646E-4,3.228009E-4,-3.6653876E-4,-2.5365453E-3,1.1000205E-3,-4.7700063E-4,1.7003298E-3,-1.3903029E-3],"categories":[],"categories_nodes":[],"categories_segments":[],"categories_sizes":[],"default_left":[0,0,0,0,0,0,0,0,0,0,0,0,0,0,0,0,0,0,0,0,0,0,0,0,0,0,0,0,0,0,0,0,0,0,0,0,0,0,0,0,0,0,0,0,0,0,0,0,0,0,0,0,0,0,0,0,0,0,0,0,0,0,0,0,0,0,0,0,0,0,0,0,0,0,0,0,0,0,0,0,0,0,0,0,0,0,0,0,0,0,0,0,0,0,0,0,0,0,0,0,0,0,0,0,0],"id":6,"left_children":[1,3,5,7,9,11,13,15,17,19,21,23,25,27,29,31,33,35,37,39,41,43,45,47,49,51,53,55,57,59,-1,61,63,65,67,69,71,-1,73,75,77,79,81,83,85,87,89,91,93,95,97,99,101,-1,103,-1,-1,-1,-1,-1,-1,-1,-1,-1,-1,-1,-1,-1,-1,-1,-1,-1,-1,-1,-1,-1,-1,-1,-1,-1,-1,-1,-1,-1,-1,-1,-1,-1,-1,-1,-1,-1,-1,-1,-1,-1,-1,-1,-1,-1,-1,-1,-1,-1,-1],"loss_changes":[4.025698E-4,4.424718E-5,1.2403086E-4,1.0873638E-4,1.864169E-4,8.0709506E-5,1.5034323E-4,7.770762E-5,2.7799431E-5,1.967208E-5,3.903803E-5,1.1075201E-5,9.95468E-5,1.4330233E-5,2.156879E-5,3.2413165E-5,1.4573566E-4,2.5031855E-5,6.8432455E-6,2.1483458E-5,3.1113173E-6,7.3243005E-5,2.2606828E-5,1.2877121E-5,5.015776E-5,9.221534E-5,3.7610295E-4,1.7547607E-5,7.565326E-6,1.4365047E-5,0E0,4.1740906E-5,7.335144E-6,5.6082383E-5,8.7116554E-5,3.3567521E-6,2.0668405E-5,0E0,4.7246176E-6,8.841787E-6,3.2716285E-5,2.1195544E-6,4.541869E-6,1.7837698E-5,1.3024171E-4,4.6541914E-5,1.1140204E-5,3.8037702E-5,2.903165E-5,1.4573234E-6,2.7434045E-5,4.7313064E-5,1.0923147E-4,0E0,2.9330718E-4,0E0,0E0,0E0,0E0,0E0,0E0,0E0,0E0,0E0,0E0,0E0,0E0,0E0,0E0,0E0,0E0,0E0,0E0,0E0,0E0,0E0,0E0,0E0,0E0,0E0,0E0,0E0,0E0,0E0,0E0,0E0,0E0,0E0,0E0,0E0,0E0,0E0,0E0,0E0,0E0,0E0,0E0,0E0,0E0,0E0,0E0,0E0,0E0,0E0,0E0],"parents":[2147483647,0,0,1,1,2,2,3,3,4,4,5,5,6,6,7,7,8,8,9,9,10,10,11,11,12,12,13,13,14,14,15,15,16,16,17,17,18,18,19,19,20,20,21,21,22,22,23,23,24,24,25,25,26,26,27,27,28,28,29,29,31,31,32,32,33,33,34,34,35,35,36,36,38,38,39,39,40,40,41,41,42,42,43,43,44,44,45,45,46,46,47,47,48,48,49,49,50,50,51,51,52,52,54,54],"right_children":[2,4,6,8,10,12,14,16,18,20,22,24,26,28,30,32,34,36,38,40,42,44,46,48,50,52,54,56,58,60,-1,62,64,66,68,70,72,-1,74,76,78,80,82,84,86,88,90,92,94,96,98,100,102,-1,104,-1,-1,-1,-1,-1,-1,-1,-1,-1,-1,-1,-1,-1,-1,-1,-1,-1,-1,-1,-1,-1,-1,-1,-1,-1,-1,-1,-1,-1,-1,-1,-1,-1,-1,-1,-1,-1,-1,-1,-1,-1,-1,-1,-1,-1,-1,-1,-1,-1,-1],"split_conditions":[1.4677992E-1,1.9573418E-3,6.189658E-1,9.0851754E-2,4.641589E-4,1E0,3.831187E-1,2.6101572E-5,1.2115276E-3,3.4807004E-2,2.1544347E-2,2.3713738E-1,3.1622776E-3,2.3713738E-1,1E0,1.3335214E-2,4.216965E-5,1.4677992E-1,2.3713738E-1,1.1006941E-4,2.872985E-4,2.1544347E-2,3.4807004E-2,3.4807004E-2,2.3713738E-1,2.6101572E-5,5.1089698E-3,1E0,1E0,6.189658E-1,-2.8154776E-3,1.9573418E-3,1.615598E-5,3.1622776E-3,1.1006941E-4,2.872985E-4,3.831187E-1,-3.069852E-4,6.189658E-1,5.1089698E-3,8.254042E-3,1.7782794E-4,9.0851754E-2,3.1622776E-3,1.4677992E-1,1.3335214E-2,9.0851754E-2,1.3335214E-2,2.3713738E-1,3.831187E-1,3.831187E-1,1.615598E-5,1.1006941E-4,-4.964024E-3,1.3335214E-2,-5.1227957E-4,8.559227E-4,-7.265806E-5,-1.0649711E-3,-5.156219E-4,-1.8860634E-3,-1.616478E-4,4.967442E-4,-8.1763865E-4,-2.9163808E-4,6.1103207E-4,1.5091492E-3,-8.802038E-5,3.2514808E-4,-3.6544868E-4,-7.273853E-4,1.5032574E-4,-2.428088E-4,-1.2573265E-3,-3.535226E-4,-6.886543E-4,-4.060828E-4,1.2389164E-4,-4.8370427E-4,-1.116782E-4,1.01072445E-4,-1.0343844E-4,-6.668915E-4,3.6506652E-4,-3.4395955E-5,9.3060633E-4,6.944991E-5,1.3090024E-5,6.3825113E-4,-3.552156E-4,-3.1358162E-5,-1.8756102E-4,-7.2764704E-4,4.822101E-4,-2.0238025E-4,-8.736372E-4,-1.8622875E-3,-6.7101646E-4,3.228009E-4,-3.6653876E-4,-2.5365453E-3,1.1000205E-3,-4.7700063E-4,1.7003298E-3,-1.3903029E-3],"split_indices":[1,1,0,0,0,1,1,1,1,1,1,0,0,1,0,0,1,0,0,0,0,0,0,0,1,0,0,0,0,1,0,0,1,0,1,1,0,0,0,1,1,0,1,1,0,0,0,0,1,0,0,0,0,0,0,0,0,0,0,0,0,0,0,0,0,0,0,0,0,0,0,0,0,0,0,0,0,0,0,0,0,0,0,0,0,0,0,0,0,0,0,0,0,0,0,0,0,0,0,0,0,0,0,0,0],"split_type":[0,0,0,0,0,0,0,0,0,0,0,0,0,0,0,0,0,0,0,0,0,0,0,0,0,0,0,0,0,0,0,0,0,0,0,0,0,0,0,0,0,0,0,0,0,0,0,0,0,0,0,0,0,0,0,0,0,0,0,0,0,0,0,0,0,0,0,0,0,0,0,0,0,0,0,0,0,0,0,0,0,0,0,0,0,0,0,0,0,0,0,0,0,0,0,0,0,0,0,0,0,0,0,0,0],"sum_hessian":[2.634E3,2.057E3,5.77E2,1.075E3,9.82E2,5.43E2,3.4E1,8.9E2,1.85E2,3.26E2,6.56E2,4.37E2,1.06E2,1.5E1,1.9E1,1.49E2,7.41E2,1.69E2,1.6E1,2.22E2,1.04E2,3.47E2,3.09E2,4.03E2,3.4E1,5.9E1,4.7E1,8E0,7E0,1E1,9E0,1.2E2,2.9E1,8E1,6.61E2,3.6E1,1.33E2,6E0,1E1,1.35E2,8.7E1,8.9E1,1.5E1,1.72E2,1.75E2,1.64E2,1.45E2,3.25E2,7.8E1,8E0,2.6E1,1E1,4.9E1,5E0,4.2E1,3E0,5E0,4E0,3E0,4E0,6E0,8.8E1,3.2E1,1.4E1,1.5E1,5.3E1,2.7E1,1.72E2,4.89E2,2.5E1,1.1E1,7.3E1,6E1,7E0,3E0,4.6E1,8.9E1,4.3E1,4.4E1,7.6E1,1.3E1,1E1,5E0,3.4E1,1.38E2,8.8E1,8.7E1,1.26E2,3.8E1,3.4E1,1.11E2,2.89E2,3.6E1,2E1,5.8E1,4E0,4E0,1.2E1,1.4E1,5E0,5E0,1.5E1,3.4E1,9E0,3.3E1],"tree_param":{"num_deleted":"0","num_feature":"2","num_nodes":"105","size_leaf_vector":"1"}},{"base_weights":[-2.3784198E-5,4.2203486E-5,-7.307732E-4,3.2973892E-4,-1.2599513E-5,-5.497251E-4,-1.9849432E-3,-1.2190688E-4,7.460393E-4,-8.527162E-4,3.468824E-5,-7.522345E-4,1.5171601E-3,-3.4672618E-3,-1.3257293E-3,1.934688E-5,-3.7902503E-4,9.751916E-4,8.7742534E-5,-1.5467773E-3,5.7837204E-4,4.1362047E-4,-3.5505807E-5,-3.769073E-4,-2.2027807E-3,2.3716926E-3,1.9955303E-4,-7.372707E-4,-2.5456734E-3,6.158219E-4,-2.567901E-3,-1.0602268E-4,4.760158E-4,-5.1372795E-4,1.5799489E-4,6.863842E-4,1.5886602E-3,-3.4204015E-4,5.142755E-4,-1.4376226E-3,-1.3718784E-3,1.440545E-3,-1.8244343E-4,1.5221845E-3,-2.9352956E-4,-7.3550624E-4,4.2174947E-6,-8.532191E-4,8.9474174E-4,-2.4747273E-3,-1.0817548E-3,4.5654475E-4,1.5959566E-3,-4.3407976E-4,9.883195E-4,-6.727278E-4,-1.7117517E-3,3.0603373E-4,-3.7865506E-5,-4.2006926E-4,-8.41452E-5,2.3477276E-4,-1.6783178E-4,2.6450097E-4,6.288375E-4,-6.569165E-4,2.6149154E-4,4.4808927E-4,-3.524508E-4,-8.306205E-4,2.3925304E-5,2.1153026E-4,-2.2289902E-4,8.518121E-4,6.0255046E-4,6.663927E-5,-2.7538667E-4,-1.4641983E-3,1.774107E-4,2.9384115E-4,-1.9094801E-5,-2.3896885E-4,-2.2040636E-3,1.1526502E-3,-3.1554102E-4,-7.4891944E-4,-1.6433169E-3,-1.7264128E-3,7.528335E-4],"categories":[],"categories_nodes":[],"categories_segments":[],"categories_sizes":[],"default_left":[0,0,0,0,0,0,0,0,0,0,0,0,0,0,0,0,0,0,0,0,0,0,0,0,0,0,0,0,0,0,0,0,0,0,0,0,0,0,0,0,0,0,0,0,0,0,0,0,0,0,0,0,0,0,0,0,0,0,0,0,0,0,0,0,0,0,0,0,0,0,0,0,0,0,0,0,0,0,0,0,0,0,0,0,0,0,0,0,0],"id":7,"left_children":[1,3,5,7,9,11,13,15,17,19,21,23,25,27,29,31,33,35,37,39,41,43,45,47,49,51,-1,-1,-1,53,55,-1,57,59,61,63,-1,65,67,69,-1,-1,71,73,75,77,79,81,83,85,87,-1,-1,-1,-1,-1,-1,-1,-1,-1,-1,-1,-1,-1,-1,-1,-1,-1,-1,-1,-1,-1,-1,-1,-1,-1,-1,-1,-1,-1,-1,-1,-1,-1,-1,-1,-1,-1,-1],"loss_changes":[1.2296037E-4,3.7996222E-5,4.999849E-5,7.266679E-5,8.051695E-5,8.401688E-5,2.2763968E-5,6.7626493E-6,3.0235322E-5,1.0816698E-4,5.105776E-5,9.7711476E-5,1.6250884E-5,1.8383376E-5,5.222791E-5,1.2886964E-5,4.855484E-6,9.25818E-5,9.891676E-6,5.5933924E-6,6.35956E-5,2.3562313E-4,4.5049354E-5,8.859012E-5,8.602758E-6,9.049269E-6,0E0,0E0,0E0,1.9890884E-5,8.990886E-6,0E0,3.1240615E-6,5.8345986E-6,2.3108037E-6,1.1292861E-5,0E0,2.3383946E-5,1.3203118E-5,2.2999855E-5,0E0,0E0,4.653543E-6,4.6781497E-6,2.0275453E-5,2.0905338E-4,3.7978283E-5,1.3930682E-4,8.754539E-5,1.8078266E-5,6.0413444E-5,0E0,0E0,0E0,0E0,0E0,0E0,0E0,0E0,0E0,0E0,0E0,0E0,0E0,0E0,0E0,0E0,0E0,0E0,0E0,0E0,0E0,0E0,0E0,0E0,0E0,0E0,0E0,0E0,0E0,0E0,0E0,0E0,0E0,0E0,0E0,0E0,0E0,0E0],"parents":[2147483647,0,0,1,1,2,2,3,3,4,4,5,5,6,6,7,7,8,8,9,9,10,10,11,11,12,12,13,13,14,14,15,15,16,16,17,17,18,18,19,19,20,20,21,21,22,22,23,23,24,24,25,25,29,29,30,30,32,32,33,33,34,34,35,35,37,37,38,38,39,39,42,42,43,43,44,44,45,45,46,46,47,47,48,48,49,49,50,50],"right_children":[2,4,6,8,10,12,14,16,18,20,22,24,26,28,30,32,34,36,38,40,42,44,46,48,50,52,-1,-1,-1,54,56,-1,58,60,62,64,-1,66,68,70,-1,-1,72,74,76,78,80,82,84,86,88,-1,-1,-1,-1,-1,-1,-1,-1,-1,-1,-1,-1,-1,-1,-1,-1,-1,-1,-1,-1,-1,-1,-1,-1,-1,-1,-1,-1,-1,-1,-1,-1,-1,-1,-1,-1,-1,-1],"split_conditions":[6.189658E-1,6.812921E-5,2.3713738E-1,2.6101572E-5,1.1006941E-4,9.0851754E-2,3.831187E-1,1.3335214E-2,3.4807004E-2,1.3335214E-2,4.641589E-4,1.3335214E-2,1E0,1E0,6.189658E-1,1.2115276E-3,3.831187E-1,1.3335214E-2,4.216965E-5,8.254042E-3,3.4807004E-2,7.498942E-4,7.498942E-4,1.9573418E-3,5.6234132E-2,1.4677992E-1,1.9955303E-4,-7.372707E-4,-2.5456734E-3,1E0,1E0,-1.0602268E-4,8.254042E-3,1.615598E-5,6.189658E-1,3.1622776E-3,1.5886602E-3,1.4677992E-1,3.831187E-1,3.1622776E-3,-1.3718784E-3,1.440545E-3,9.0851754E-2,2.872985E-4,8.254042E-3,4.641589E-4,1.2115276E-3,1.2115276E-3,1E0,1E0,1E0,4.5654475E-4,1.5959566E-3,-4.3407976E-4,9.883195E-4,-6.727278E-4,-1.7117517E-3,3.0603373E-4,-3.7865506E-5,-4.2006926E-4,-8.41452E-5,2.3477276E-4,-1.6783178E-4,2.6450097E-4,6.288375E-4,-6.569165E-4,2.6149154E-4,4.4808927E-4,-3.524508E-4,-8.306205E-4,2.3925304E-5,2.1153026E-4,-2.2289902E-4,8.518121E-4,6.0255046E-4,6.663927E-5,-2.7538667E-4,-1.4641983E-3,1.774107E-4,2.9384115E-4,-1.9094801E-5,-2.3896885E-4,-2.2040636E-3,1.1526502E-3,-3.1554102E-4,-7.4891944E-4,-1.6433169E-3,-1.7264128E-3,7.528335E-4],"split_indices":[1,1,0,1,1,0,0,0,0,0,1,0,1,1,0,0,0,0,1,0,0,0,1,0,0,0,0,0,0,1,1,0,0,1,0,0,0,0,0,0,0,0,0,1,0,0,1,0,1,1,1,0,0,0,0,0,0,0,0,0,0,0,0,0,0,0,0,0,0,0,0,0,0,0,0,0,0,0,0,0,0,0,0,0,0,0,0,0,0],"split_type":[0,0,0,0,0,0,0,0,0,0,0,0,0,0,0,0,0,0,0,0,0,0,0,0,0,0,0,0,0,0,0,0,0,0,0,0,0,0,0,0,0,0,0,0,0,0,0,0,0,0,0,0,0,0,0,0,0,0,0,0,0,0,0,0,0,0,0,0,0,0,0,0,0,0,0,0,0,0,0,0,0,0,0,0,0,0,0,0,0],"sum_hessian":[2.634E3,2.41E3,2.24E2,3.85E2,2.025E3,1.97E2,2.7E1,1.85E2,2E2,1.07E2,1.918E3,1.8E2,1.7E1,7E0,2E1,1.2E2,6.5E1,1.48E2,5.2E1,7.2E1,3.5E1,2.99E2,1.619E3,1.44E2,3.6E1,9E0,8E0,4E0,3E0,8E0,1.2E1,8E1,4E1,5.2E1,1.3E1,1.32E2,1.6E1,2.6E1,2.6E1,6.8E1,4E0,8E0,2.7E1,1.16E2,1.83E2,8.6E1,1.533E3,1.05E2,3.9E1,2.8E1,8E0,4E0,5E0,4E0,4E0,6E0,6E0,3.2E1,8E0,2.6E1,2.6E1,8E0,5E0,1.05E2,2.7E1,1.2E1,1.4E1,2E1,6E0,5.9E1,9E0,8E0,1.9E1,7.1E1,4.5E1,6.9E1,1.14E2,2.8E1,5.8E1,1.03E2,1.43E3,9.6E1,9E0,2E1,1.9E1,1.4E1,1.4E1,4E0,4E0],"tree_param":{"num_deleted":"0","num_feature":"2","num_nodes":"89","size_leaf_vector":"1"}},{"base_weights":[-1.4349179E-5,5.853625E-5,-2.7383683E-4,-9.911328E-6,1.288818E-4,-2.2338418E-4,-1.0501912E-3,5.7383502E-5,-7.698304E-4,4.996541E-4,4.9434824E-5,-7.248366E-4,-1.7228114E-4,3.9807954E-4,-1.4940522E-3,1.6474866E-4,-1.8520153E-4,1.7397341E-4,-1.0259863E-3,9.976625E-4,-2.5429824E-4,-1.3178775E-4,3.7765884E-4,-2.9096236E-5,-1.4194131E-3,7.477479E-5,-3.3176164E-4,-3.130138E-4,5.072355E-4,-7.5413584E-4,-1.1164374E-3,-1.1785698E-4,3.713202E-4,-9.6560695E-4,-2.199387E-5,3.4293957E-6,2.6745597E-4,-2.4063587E-3,-7.9803145E-4,4.3559266E-4,1.7178896E-3,1.0409569E-4,-6.579178E-4,-6.38351E-4,1.339941E-4,1.1221139E-3,2.3740853E-5,-8.591451E-4,1.1808927E-3,2.9639155E-4,-2.0113797E-3,-9.664007E-5,6.0174614E-4,-7.5658434E-4,-1.3519198E-4,-3.5965444E-5,-4.9783563E-4,7.309462E-5,-3.874438E-4,7.627898E-4,1.0509741E-4,-8.995583E-5,-1.3365354E-3,-1.4689767E-4,3.3777737E-4,-3.198743E-4,-1.8458485E-3,2.3041092E-4,-5.6462275E-4,5.511379E-4,-7.238827E-6,4.8543015E-4,1.19667E-3,5.6778267E-4,-2.9394403E-4,-1.44128E-3,6.87276E-5,2.153511E-4,-5.8174727E-4,3.9599917E-4,-8.039007E-5,1.6003877E-3,4.3514473E-4,1.3711887E-4,-5.9516155E-5,-1.0970235E-4,-9.444058E-4,1.1967471E-3,-1.14262104E-4,-3.435115E-4,4.029274E-4,6.8112727E-6,-3.1983852E-4,6.11078E-4,-8.958578E-6,8.0834626E-4,-6.8558793E-4,6.538469E-4,-1.7028785E-4],"categories":[],"categories_nodes":[],"categories_segments":[],"categories_sizes":[],"default_left":[0,0,0,0,0,0,0,0,0,0,0,0,0,0,0,0,0,0,0,0,0,0,0,0,0,0,0,0,0,0,0,0,0,0,0,0,0,0,0,0,0,0,0,0,0,0,0,0,0,0,0,0,0,0,0,0,0,0,0,0,0,0,0,0,0,0,0,0,0,0,0,0,0,0,0,0,0,0,0,0,0,0,0,0,0,0,0,0,0,0,0,0,0,0,0,0,0,0,0],"id":8,"left_children":[1,3,5,7,9,11,13,15,17,19,21,23,25,27,29,31,33,35,37,39,41,43,45,47,49,51,53,-1,-1,55,-1,57,59,61,63,-1,-1,65,67,69,71,73,75,77,79,81,83,85,87,89,-1,91,93,95,97,-1,-1,-1,-1,-1,-1,-1,-1,-1,-1,-1,-1,-1,-1,-1,-1,-1,-1,-1,-1,-1,-1,-1,-1,-1,-1,-1,-1,-1,-1,-1,-1,-1,-1,-1,-1,-1,-1,-1,-1,-1,-1,-1,-1],"loss_changes":[4.985144E-5,9.910511E-6,2.2405162E-5,5.34329E-5,2.9873887E-5,1.3815528E-5,2.3093835E-5,2.5033885E-5,2.0728177E-5,6.746367E-5,4.983587E-5,2.4120944E-5,1.9528106E-5,6.316345E-6,1.3076118E-5,3.8923703E-5,3.7552367E-5,1.1423751E-6,1.9162042E-5,4.297203E-5,1.0483634E-5,7.278861E-5,7.848922E-5,2.7127653E-5,1.1286314E-4,1.7672644E-5,2.5033398E-5,0E0,0E0,2.40003E-6,0E0,4.9036462E-5,7.128183E-5,6.7937945E-5,4.664918E-5,0E0,0E0,1.8074472E-5,2.512043E-5,1.8619328E-5,2.1391737E-5,2.8504235E-5,6.0556522E-5,1.0492272E-4,6.8984096E-5,4.7466347E-5,7.292783E-6,1.0125094E-5,1.934664E-5,8.5698575E-6,0E0,8.870462E-6,1.8475268E-5,1.4078339E-4,6.1788836E-5,0E0,0E0,0E0,0E0,0E0,0E0,0E0,0E0,0E0,0E0,0E0,0E0,0E0,0E0,0E0,0E0,0E0,0E0,0E0,0E0,0E0,0E0,0E0,0E0,0E0,0E0,0E0,0E0,0E0,0E0,0E0,0E0,0E0,0E0,0E0,0E0,0E0,0E0,0E0,0E0,0E0,0E0,0E0,0E0],"parents":[2147483647,0,0,1,1,2,2,3,3,4,4,5,5,6,6,7,7,8,8,9,9,10,10,11,11,12,12,13,13,14,14,15,15,16,16,17,17,18,18,19,19,20,20,21,21,22,22,23,23,24,24,25,25,26,26,29,29,31,31,32,32,33,33,34,34,37,37,38,38,39,39,40,40,41,41,42,42,43,43,44,44,45,45,46,46,47,47,48,48,49,49,51,51,52,52,53,53,54,54],"right_children":[2,4,6,8,10,12,14,16,18,20,22,24,26,28,30,32,34,36,38,40,42,44,46,48,50,52,54,-1,-1,56,-1,58,60,62,64,-1,-1,66,68,70,72,74,76,78,80,82,84,86,88,90,-1,92,94,96,98,-1,-1,-1,-1,-1,-1,-1,-1,-1,-1,-1,-1,-1,-1,-1,-1,-1,-1,-1,-1,-1,-1,-1,-1,-1,-1,-1,-1,-1,-1,-1,-1,-1,-1,-1,-1,-1,-1,-1,-1,-1,-1,-1,-1],"split_conditions":[1.4677992E-1,3.1622776E-3,6.189658E-1,1.9573418E-3,8.254042E-3,2.6101572E-5,2.3713738E-1,8.254042E-3,6.812921E-5,3.1622776E-3,8.254042E-3,1.615598E-5,1.2115276E-3,1E0,1E0,1.7782794E-4,1.3335214E-2,4.216965E-5,1.7782794E-4,2.872985E-4,5.1089698E-3,3.4807004E-2,2.1544347E-2,6.189658E-1,6.189658E-1,4.641589E-4,8.254042E-3,-3.130138E-4,5.072355E-4,3.831187E-1,-1.1164374E-3,4.641589E-4,2.872985E-4,2.872985E-4,4.641589E-4,3.4293957E-6,2.6745597E-4,1.1006941E-4,7.498942E-4,4.216965E-5,5.1089698E-3,1.3335214E-2,8.254042E-3,1.1006941E-4,9.0851754E-2,1.3335214E-2,5.6234132E-2,3.831187E-1,1E0,2.3713738E-1,-2.0113797E-3,2.872985E-4,7.498942E-4,2.3713738E-1,1.3335214E-2,-3.5965444E-5,-4.9783563E-4,7.309462E-5,-3.874438E-4,7.627898E-4,1.0509741E-4,-8.995583E-5,-1.3365354E-3,-1.4689767E-4,3.3777737E-4,-3.198743E-4,-1.8458485E-3,2.3041092E-4,-5.6462275E-4,5.511379E-4,-7.238827E-6,4.8543015E-4,1.19667E-3,5.6778267E-4,-2.9394403E-4,-1.44128E-3,6.87276E-5,2.153511E-4,-5.8174727E-4,3.9599917E-4,-8.039007E-5,1.6003877E-3,4.3514473E-4,1.3711887E-4,-5.9516155E-5,-1.0970235E-4,-9.444058E-4,1.1967471E-3,-1.14262104E-4,-3.435115E-4,4.029274E-4,6.8112727E-6,-3.1983852E-4,6.11078E-4,-8.958578E-6,8.0834626E-4,-6.8558793E-4,6.538469E-4,-1.7028785E-4],"split_indices":[1,0,0,0,0,0,1,1,1,1,1,0,0,0,0,1,1,1,1,1,0,0,1,1,1,0,0,0,0,1,0,0,1,0,0,0,0,1,1,1,0,1,1,1,0,0,0,1,1,1,0,0,0,1,0,0,0,0,0,0,0,0,0,0,0,0,0,0,0,0,0,0,0,0,0,0,0,0,0,0,0,0,0,0,0,0,0,0,0,0,0,0,0,0,0,0,0,0,0],"split_type":[0,0,0,0,0,0,0,0,0,0,0,0,0,0,0,0,0,0,0,0,0,0,0,0,0,0,0,0,0,0,0,0,0,0,0,0,0,0,0,0,0,0,0,0,0,0,0,0,0,0,0,0,0,0,0,0,0,0,0,0,0,0,0,0,0,0,0,0,0,0,0,0,0,0,0,0,0,0,0,0,0,0,0,0,0,0,0,0,0,0,0,0,0,0,0,0,0,0,0],"sum_hessian":[2.634E3,2.057E3,5.77E2,1.043E3,1.014E3,5.43E2,3.4E1,9.59E2,8.4E1,1.78E2,8.36E2,4.9E1,4.94E2,8E0,2.6E1,6.65E2,2.94E2,1.8E1,6.6E1,1.07E2,7.1E1,5.39E2,2.97E2,2.5E1,2.4E1,1.94E2,3E2,3E0,5E0,1.4E1,1.2E1,2.81E2,3.84E2,5E1,2.44E2,1.3E1,5E0,8E0,5.8E1,6.1E1,4.6E1,3.8E1,3.3E1,1.85E2,3.54E2,9.5E1,2.02E2,1.5E1,1E1,1.5E1,9E0,1.47E2,4.7E1,9.4E1,2.06E2,4E0,1E1,2.01E2,8E1,4.6E1,3.38E2,3.5E1,1.5E1,1.76E2,6.8E1,4E0,4E0,1.2E1,4.6E1,2.4E1,3.7E1,2.3E1,2.3E1,1.5E1,2.3E1,8E0,2.5E1,6.1E1,1.24E2,1.09E2,2.45E2,9E0,8.6E1,7.3E1,1.29E2,1E1,5E0,5E0,5E0,5E0,1E1,1.23E2,2.4E1,2.3E1,2.4E1,1.9E1,7.5E1,2.5E1,1.81E2],"tree_param":{"num_deleted":"0","num_feature":"2","num_nodes":"99","size_leaf_vector":"1"}},{"base_weights":[-8.005141E-6,2.9411793E-5,-1.412163E-4,-1.879078E-4,4.9204882E-5,-9.246156E-5,-4.6203757E-4,2.2755464E-4,-5.039463E-4,-2.1524542E-5,1.0161932E-4,-3.6291123E-4,-2.5289704E-5,-1.0475486E-3,-2.4848914E-4,3.8426977E-5,2.3354906E-4,-6.629277E-4,-1.3203621E-5,3.454402E-5,-5.2241486E-4,3.7499756E-4,7.558585E-5,6.8310833E-6,-9.1769546E-4,1.9885194E-4,-1.2069762E-4,-5.137307E-4,-1.5271939E-3,2.2652149E-4,-6.0081575E-4,2.2315979E-4,-2.5963242E-4,-5.8459357E-4,-6.645918E-4,1.5472664E-4,-3.105998E-4,1.9944202E-4,-1.6416454E-5,-1.9557928E-3,2.717432E-4,1.365472E-3,-1.5823879E-4,-1.1885705E-4,1.1772181E-4,-3.4025311E-4,3.587153E-4,6.888563E-4,-1.4761746E-3,-2.1057844E-4,4.8041675E-4,-4.698957E-4,-4.946469E-5,-1.9665286E-3,6.998807E-4,-6.4852147E-4,1.0841397E-3,-2.5480488E-4,-1.3711601E-3,-8.5522144E-5,3.0211842E-4,-3.9057867E-4,-5.3733587E-5,3.6032695E-6,2.52581E-4,3.7374397E-5,-5.262613E-5,2.44626E-4,-1.3074512E-3,9.3355327E-4,-3.3734913E-4,-2.9509718E-5,9.93691E-4,-5.819718E-4,7.96703E-5,2.2146851E-4,-8.68046E-5,9.382828E-5,-5.4318054E-5,4.1031068E-5,5.5288186E-4,6.981045E-4,-6.6652894E-5,-1.335295E-3,-1.3207458E-4,-1.8686205E-4,2.00911E-4,9.455681E-5,3.362395E-4,-4.3974738E-4,4.939003E-4,2.050513E-4,-8.571346E-5,-4.484415E-4,-1.4059767E-3,8.9511275E-4,-3.742546E-4,-1.0416269E-3,1.10305016E-4,1.352335E-3,-1.3338774E-4,-2.4841377E-4,1.4567189E-4,-1.1586696E-3,-3.173032E-4],"categories":[],"categories_nodes":[],"categories_segments":[],"categories_sizes":[],"default_left":[0,0,0,0,0,0,0,0,0,0,0,0,0,0,0,0,0,0,0,0,0,0,0,0,0,0,0,0,0,0,0,0,0,0,0,0,0,0,0,0,0,0,0,0,0,0,0,0,0,0,0,0,0,0,0,0,0,0,0,0,0,0,0,0,0,0,0,0,0,0,0,0,0,0,0,0,0,0,0,0,0,0,0,0,0,0,0,0,0,0,0,0,0,0,0,0,0,0,0,0,0,0,0,0,0],"id":9,"left_children":[1,3,5,7,9,11,13,15,17,19,21,23,25,27,29,31,-1,33,35,37,39,41,43,45,47,49,51,53,-1,55,57,59,-1,61,-1,-1,-1,63,65,67,69,71,73,75,77,-1,79,81,83,85,87,89,91,93,95,97,99,101,103,-1,-1,-1,-1,-1,-1,-1,-1,-1,-1,-1,-1,-1,-1,-1,-1,-1,-1,-1,-1,-1,-1,-1,-1,-1,-1,-1,-1,-1,-1,-1,-1,-1,-1,-1,-1,-1,-1,-1,-1,-1,-1,-1,-1,-1,-1],"loss_changes":[1.3137924E-5,8.861581E-6,8.9980995E-6,2.2698643E-5,6.997756E-6,9.128624E-6,9.242354E-6,3.3798729E-6,7.637102E-6,2.2597742E-5,7.686467E-6,2.051899E-5,8.6634955E-6,1.9856603E-5,9.675554E-6,4.54591E-6,0E0,3.0850715E-6,5.096585E-6,6.087249E-6,9.2736096E-5,4.9862825E-5,8.133293E-6,1.4997759E-5,3.6905898E-5,1.4050189E-5,7.0410874E-6,3.1349584E-5,0E0,1.9464407E-5,8.446688E-6,5.0606814E-6,0E0,6.2934832E-6,0E0,0E0,0E0,1.0046069E-5,4.4945677E-6,4.8014357E-5,8.128538E-5,2.9352173E-5,1.9987712E-5,5.5213177E-6,1.2922069E-5,0E0,8.382864E-6,6.583267E-6,4.2724416E-5,5.1456946E-6,3.9011047E-6,2.9528175E-5,1.3354118E-5,4.7124486E-6,1.7132443E-5,1.6670212E-5,2.9181128E-5,3.3170754E-6,5.4985194E-6,0E0,0E0,0E0,0E0,0E0,0E0,0E0,0E0,0E0,0E0,0E0,0E0,0E0,0E0,0E0,0E0,0E0,0E0,0E0,0E0,0E0,0E0,0E0,0E0,0E0,0E0,0E0,0E0,0E0,0E0,0E0,0E0,0E0,0E0,0E0,0E0,0E0,0E0,0E0,0E0,0E0,0E0,0E0,0E0,0E0,0E0],"parents":[2147483647,0,0,1,1,2,2,3,3,4,4,5,5,6,6,7,7,8,8,9,9,10,10,11,11,12,12,13,13,14,14,15,15,17,17,18,18,19,19,20,20,21,21,22,22,23,23,24,24,25,25,26,26,27,27,29,29,30,30,31,31,33,33,37,37,38,38,39,39,40,40,41,41,42,42,43,43,44,44,46,46,47,47,48,48,49,49,50,50,51,51,52,52,53,53,54,54,55,55,56,56,57,57,58,58],"right_children":[2,4,6,8,10,12,14,16,18,20,22,24,26,28,30,32,-1,34,36,38,40,42,44,46,48,50,52,54,-1,56,58,60,-1,62,-1,-1,-1,64,66,68,70,72,74,76,78,-1,80,82,84,86,88,90,92,94,96,98,100,102,104,-1,-1,-1,-1,-1,-1,-1,-1,-1,-1,-1,-1,-1,-1,-1,-1,-1,-1,-1,-1,-1,-1,-1,-1,-1,-1,-1,-1,-1,-1,-1,-1,-1,-1,-1,-1,-1,-1,-1,-1,-1,-1,-1,-1,-1,-1],"split_conditions":[1.4677992E-1,2.6101572E-5,2.3713738E-1,7.498942E-4,7.498942E-4,6.812921E-5,3.831187E-1,1.1006941E-4,3.4807004E-2,4.641589E-4,1.2115276E-3,6.189658E-1,7.498942E-4,1E0,3.831187E-1,6.812921E-5,2.3354906E-4,2.1544347E-2,9.0851754E-2,2.872985E-4,1.2115276E-3,7.498942E-4,1.7782794E-4,2.3713738E-1,1.615598E-5,3.831187E-1,1.9573418E-3,3.831187E-1,-1.5271939E-3,2.3713738E-1,1E0,2.6101572E-5,-2.5963242E-4,8.254042E-3,-6.645918E-4,1.5472664E-4,-3.105998E-4,1.1006941E-4,6.812921E-5,6.812921E-5,1.3335214E-2,6.812921E-5,3.1622776E-3,1.9573418E-3,1.4677992E-1,-3.4025311E-4,4.216965E-5,1E0,1E0,4.641589E-4,1.7782794E-4,1E0,5.1089698E-3,2.3713738E-1,6.189658E-1,6.189658E-1,6.189658E-1,1E0,6.189658E-1,-8.5522144E-5,3.0211842E-4,-3.9057867E-4,-5.3733587E-5,3.6032695E-6,2.52581E-4,3.7374397E-5,-5.262613E-5,2.44626E-4,-1.3074512E-3,9.3355327E-4,-3.3734913E-4,-2.9509718E-5,9.93691E-4,-5.819718E-4,7.96703E-5,2.2146851E-4,-8.68046E-5,9.382828E-5,-5.4318054E-5,4.1031068E-5,5.5288186E-4,6.981045E-4,-6.6652894E-5,-1.335295E-3,-1.3207458E-4,-1.8686205E-4,2.00911E-4,9.455681E-5,3.362395E-4,-4.3974738E-4,4.939003E-4,2.050513E-4,-8.571346E-5,-4.484415E-4,-1.4059767E-3,8.9511275E-4,-3.742546E-4,-1.0416269E-3,1.10305016E-4,1.352335E-3,-1.3338774E-4,-2.4841377E-4,1.4567189E-4,-1.1586696E-3,-3.173032E-4],"split_indices":[1,0,0,1,1,0,0,1,1,1,1,1,0,1,1,1,0,1,1,0,0,0,0,1,0,1,0,1,0,1,0,1,0,1,0,0,0,1,1,0,0,0,0,1,0,0,0,1,1,0,0,1,0,1,1,0,0,1,1,0,0,0,0,0,0,0,0,0,0,0,0,0,0,0,0,0,0,0,0,0,0,0,0,0,0,0,0,0,0,0,0,0,0,0,0,0,0,0,0,0,0,0,0,0,0],"split_type":[0,0,0,0,0,0,0,0,0,0,0,0,0,0,0,0,0,0,0,0,0,0,0,0,0,0,0,0,0,0,0,0,0,0,0,0,0,0,0,0,0,0,0,0,0,0,0,0,0,0,0,0,0,0,0,0,0,0,0,0,0,0,0,0,0,0,0,0,0,0,0,0,0,0,0,0,0,0,0,0,0,0,0,0,0,0,0,0,0,0,0,0,0,0,0,0,0,0,0,0,0,0,0,0,0],"sum_hessian":[2.634E3,2.057E3,5.77E2,1.71E2,1.886E3,5.02E2,7.5E1,7.4E1,9.7E1,8.03E2,1.083E3,9.9E1,4.03E2,1.9E1,5.6E1,4.2E1,3.2E1,7.3E1,2.4E1,7.23E2,8E1,9.3E1,9.9E2,6E1,3.9E1,1.2E2,2.83E2,1.6E1,3E0,2.4E1,3.2E1,3.2E1,1E1,6.7E1,6E0,1.6E1,8E0,1.7E2,5.53E2,2.8E1,5.2E1,3.2E1,6.1E1,1.76E2,8.14E2,2E1,4E1,1E1,2.9E1,4.9E1,7.1E1,4.7E1,2.36E2,7E0,9E0,1.2E1,1.2E1,2.3E1,9E0,1.6E1,1.6E1,4.7E1,2E1,1.05E2,6.5E1,2.73E2,2.8E2,6E0,2.2E1,1.9E1,3.3E1,1E1,2.2E1,1.4E1,4.7E1,1.5E1,1.61E2,6.22E2,1.92E2,3E1,1E1,5E0,5E0,1.4E1,1.5E1,3.9E1,1E1,2.9E1,4.2E1,3.7E1,1E1,4.9E1,1.87E2,4E0,3E0,5E0,4E0,4E0,8E0,5E0,7E0,1.6E1,7E0,3E0,6E0],"tree_param":{"num_deleted":"0","num_feature":"2","num_nodes":"105","size_leaf_vector":"1"}},{"base_weights":[-5.8142014E-6,-2.9863832E-5,7.029516E-5,1.2020871E-4,-5.6371155E-5,2.740546E-4,-3.0071946E-5,-1.3301315E-4,3.5023235E-4,-4.968111E-4,-3.349873E-5,5.824278E-4,-1.244464E-4,4.1947413E-5,-2.0325398E-4,-2.9902543E-5,-4.929658E-4,4.195555E-4,-7.1770546E-4,-6.960434E-4,7.565866E-4,2.5085712E-5,-1.2488567E-4,4.003991E-5,2.3243874E-3,-1.2113055E-3,3.220633E-4,-1.6962877E-5,3.6888407E-4,-4.024461E-4,2.639223E-5,-8.234244E-5,7.475031E-5,-3.8200058E-4,-2.0887572E-4,2.8542243E-4,1.4442697E-3,-5.5701734E-4,-1.339068E-4,-5.5688247E-4,-7.5853465E-4,1.4559826E-3,-5.0310045E-4,1.6150156E-4,-7.9033845E-5,-2.9631305E-4,1.0193569E-5,-6.976695E-4,2.5767172E-4,1.2467742E-3,2.7692162E-3,-2.365521E-3,2.9431922E-5,6.695906E-4,3.157999E-5,1.2372412E-4,-1.7009373E-4,5.6900666E-4,1.6172975E-4,-1.2837754E-3,2.245456E-4,1.1109869E-3,-3.357258E-4,-1.9240167E-4,2.2954494E-4,2.7170934E-4,4.5365716E-5,9.4226375E-4,4.738182E-4,-3.5609107E-4,7.090449E-4,1.0471463E-3,2.6323795E-4,4.329628E-5,4.532253E-4,-2.5150823E-4,-1.8281946E-5,-4.6112674E-4,-9.689514E-5,4.333003E-5,-3.5714445E-4,-1.1065177E-4,-4.3673118E-4,3.7486234E-4,-2.0070998E-4,1.598084E-3,-2.9275814E-4,5.651981E-4,2.0655573E-3,-1.4457464E-3,-4.2023658E-4,3.251344E-4,-6.090641E-4,6.574055E-4,1.1423603E-5,-9.297862E-5,3.645122E-4,1.2551347E-4,-1.6297997E-4,-2.1535745E-4,4.2476826E-5,1.1901479E-4,8.5645914E-4,-6.497701E-4,3.0733566E-4,-4.92464E-4,-9.026196E-4,1.2782003E-5,3.179243E-4,9.914736E-5,7.7375176E-4,-4.0451494E-5,-3.251046E-4],"categories":[],"categories_nodes":[],"categories_segments":[],"categories_sizes":[],"default_left":[0,0,0,0,0,0,0,0,0,0,0,0,0,0,0,0,0,0,0,0,0,0,0,0,0,0,0,0,0,0,0,0,0,0,0,0,0,0,0,0,0,0,0,0,0,0,0,0,0,0,0,0,0,0,0,0,0,0,0,0,0,0,0,0,0,0,0,0,0,0,0,0,0,0,0,0,0,0,0,0,0,0,0,0,0,0,0,0,0,0,0,0,0,0,0,0,0,0,0,0,0,0,0,0,0,0,0,0,0,0,0,0,0],"id":10,"left_children":[1,3,5,7,9,11,13,15,17,19,21,23,25,27,29,31,33,35,37,39,41,43,45,47,49,51,53,55,57,59,61,-1,-1,-1,63,65,67,-1,-1,69,-1,71,-1,73,75,77,79,81,83,85,87,89,91,93,95,97,99,101,103,105,107,109,111,-1,-1,-1,-1,-1,-1,-1,-1,-1,-1,-1,-1,-1,-1,-1,-1,-1,-1,-1,-1,-1,-1,-1,-1,-1,-1,-1,-1,-1,-1,-1,-1,-1,-1,-1,-1,-1,-1,-1,-1,-1,-1,-1,-1,-1,-1,-1,-1,-1,-1],"loss_changes":[4.825208E-6,7.974752E-6,1.2953562E-5,1.757894E-5,1.7139258E-5,2.575587E-5,5.309321E-6,5.32981E-6,1.1998296E-5,2.1502874E-5,8.676375E-6,1.11395435E-4,4.5037083E-5,5.8034975E-6,5.728586E-6,2.7570031E-6,2.3043694E-6,2.0067531E-5,1.4846992E-6,7.495768E-6,1.6259648E-5,1.404588E-5,1.4660946E-5,1.4789732E-5,9.969299E-6,3.873574E-5,6.6416137E-6,5.536185E-6,1.8149626E-6,3.7311544E-5,2.3545312E-5,0E0,0E0,0E0,2.1743904E-6,6.631226E-6,1.9311483E-6,0E0,0E0,2.0639542E-5,0E0,4.2372267E-6,0E0,2.3805364E-5,1.0083266E-5,1.7725586E-5,1.9728417E-5,1.5652759E-6,2.3326822E-5,3.758996E-5,3.773642E-5,8.79963E-6,1.16355495E-5,1.2488718E-5,5.7492116E-6,7.752796E-6,8.2124925E-6,8.300272E-6,1.6683667E-5,2.5854388E-6,3.2574144E-6,5.669217E-6,3.553585E-6,0E0,0E0,0E0,0E0,0E0,0E0,0E0,0E0,0E0,0E0,0E0,0E0,0E0,0E0,0E0,0E0,0E0,0E0,0E0,0E0,0E0,0E0,0E0,0E0,0E0,0E0,0E0,0E0,0E0,0E0,0E0,0E0,0E0,0E0,0E0,0E0,0E0,0E0,0E0,0E0,0E0,0E0,0E0,0E0,0E0,0E0,0E0,0E0,0E0,0E0],"parents":[2147483647,0,0,1,1,2,2,3,3,4,4,5,5,6,6,7,7,8,8,9,9,10,10,11,11,12,12,13,13,14,14,15,15,16,16,17,17,18,18,19,19,20,20,21,21,22,22,23,23,24,24,25,25,26,26,27,27,28,28,29,29,30,30,34,34,35,35,36,36,39,39,41,41,43,43,44,44,45,45,46,46,47,47,48,48,49,49,50,50,51,51,52,52,53,53,54,54,55,55,56,56,57,57,58,58,59,59,60,60,61,61,62,62],"right_children":[2,4,6,8,10,12,14,16,18,20,22,24,26,28,30,32,34,36,38,40,42,44,46,48,50,52,54,56,58,60,62,-1,-1,-1,64,66,68,-1,-1,70,-1,72,-1,74,76,78,80,82,84,86,88,90,92,94,96,98,100,102,104,106,108,110,112,-1,-1,-1,-1,-1,-1,-1,-1,-1,-1,-1,-1,-1,-1,-1,-1,-1,-1,-1,-1,-1,-1,-1,-1,-1,-1,-1,-1,-1,-1,-1,-1,-1,-1,-1,-1,-1,-1,-1,-1,-1,-1,-1,-1,-1,-1,-1,-1,-1,-1],"split_conditions":[5.6234132E-2,6.812921E-5,1.4677992E-1,2.6101572E-5,1.1006941E-4,1.3335214E-2,9.0851754E-2,8.254042E-3,3.4807004E-2,1.3335214E-2,1.9573418E-3,3.1622776E-3,5.6234132E-2,3.4807004E-2,3.831187E-1,4.641589E-4,1.615598E-5,1.3335214E-2,4.216965E-5,5.1089698E-3,3.4807004E-2,8.254042E-3,8.254042E-3,4.216965E-5,5.1089698E-3,9.0851754E-2,2.3713738E-1,1.2115276E-3,5.6234132E-2,3.831187E-1,2.3713738E-1,-8.234244E-5,7.475031E-5,-3.8200058E-4,3.4807004E-2,2.872985E-4,4.216965E-5,-5.5701734E-4,-1.339068E-4,3.1622776E-3,-7.5853465E-4,2.1544347E-2,-5.0310045E-4,1.2115276E-3,1.3335214E-2,3.1622776E-3,1E0,1.615598E-5,4.641589E-4,9.0851754E-2,9.0851754E-2,3.4807004E-2,3.4807004E-2,9.0851754E-2,1E0,6.189658E-1,8.254042E-3,1E0,2.3713738E-1,2.3713738E-1,2.3713738E-1,6.189658E-1,6.189658E-1,-1.9240167E-4,2.2954494E-4,2.7170934E-4,4.5365716E-5,9.4226375E-4,4.738182E-4,-3.5609107E-4,7.090449E-4,1.0471463E-3,2.6323795E-4,4.329628E-5,4.532253E-4,-2.5150823E-4,-1.8281946E-5,-4.6112674E-4,-9.689514E-5,4.333003E-5,-3.5714445E-4,-1.1065177E-4,-4.3673118E-4,3.7486234E-4,-2.0070998E-4,1.598084E-3,-2.9275814E-4,5.651981E-4,2.0655573E-3,-1.4457464E-3,-4.2023658E-4,3.251344E-4,-6.090641E-4,6.574055E-4,1.1423603E-5,-9.297862E-5,3.645122E-4,1.2551347E-4,-1.6297997E-4,-2.1535745E-4,4.2476826E-5,1.1901479E-4,8.5645914E-4,-6.497701E-4,3.0733566E-4,-4.92464E-4,-9.026196E-4,1.2782003E-5,3.179243E-4,9.914736E-5,7.7375176E-4,-4.0451494E-5,-3.251046E-4],"split_indices":[0,1,0,1,1,1,1,0,0,0,0,1,1,1,1,0,1,0,1,0,0,1,1,1,1,0,1,1,1,0,0,0,0,0,0,0,1,0,0,0,0,0,0,0,1,0,1,1,1,0,0,1,1,0,1,0,1,0,0,1,1,1,0,0,0,0,0,0,0,0,0,0,0,0,0,0,0,0,0,0,0,0,0,0,0,0,0,0,0,0,0,0,0,0,0,0,0,0,0,0,0,0,0,0,0,0,0,0,0,0,0,0,0],"split_type":[0,0,0,0,0,0,0,0,0,0,0,0,0,0,0,0,0,0,0,0,0,0,0,0,0,0,0,0,0,0,0,0,0,0,0,0,0,0,0,0,0,0,0,0,0,0,0,0,0,0,0,0,0,0,0,0,0,0,0,0,0,0,0,0,0,0,0,0,0,0,0,0,0,0,0,0,0,0,0,0,0,0,0,0,0,0,0,0,0,0,0,0,0,0,0,0,0,0,0,0,0,0,0,0,0,0,0,0,0,0,0,0,0],"sum_hessian":[2.634E3,2.002E3,6.32E2,3E2,1.702E3,2.08E2,4.24E2,1.43E2,1.57E2,8.3E1,1.619E3,1.17E2,9.1E1,3E2,1.24E2,1.12E2,3.1E1,1.48E2,9E0,7.2E1,1.1E1,9.87E2,6.32E2,9E1,2.7E1,2.6E1,6.5E1,2.55E2,4.5E1,6.6E1,5.8E1,6.4E1,4.8E1,1.5E1,1.6E1,1.32E2,1.6E1,4E0,5E0,6.3E1,9E0,8E0,3E0,4.27E2,5.6E2,2.78E2,3.54E2,2E1,7E1,9E0,1.8E1,1.3E1,1.3E1,2.9E1,3.6E1,1.33E2,1.22E2,2.2E1,2.3E1,2.7E1,3.9E1,1.4E1,4.4E1,1.3E1,3E0,5.6E1,7.6E1,7E0,9E0,5.9E1,4E0,4E0,4E0,3.89E2,3.8E1,5E1,5.1E2,3.8E1,2.4E2,3.21E2,3.3E1,6E0,1.4E1,4E1,3E1,4E0,5E0,9E0,9E0,9E0,4E0,9E0,4E0,1.4E1,1.5E1,2.8E1,8E0,1.04E2,2.9E1,6E1,6.2E1,1.8E1,4E0,5E0,1.8E1,1.9E1,8E0,2.7E1,1.2E1,5E0,9E0,2.5E1,1.9E1],"tree_param":{"num_deleted":"0","num_feature":"2","num_nodes":"113","size_leaf_vector":"1"}},{"base_weights":[-1.889388E-6,-1.3844676E-4,1.0607949E-5,9.378567E-5,-3.047969E-4,1.5617263E-5,-1.9689348E-4,4.6582783E-5,2.6458502E-4,-3.6706924E-4,-1.7294646E-4,-1.1085393E-4,2.52411E-5,-7.4328316E-5,-6.060119E-4,5.246401E-5,-1.7773021E-4,-7.3318864E-5,-5.677909E-4,-9.183335E-6,-2.988577E-4,2.7021632E-4,1.4750124E-5,-3.2943947E-4,2.6103258E-4,-5.207189E-4,-8.401275E-5,-2.3980548E-4,9.495601E-5,4.1846794E-4,-7.979482E-4,-2.997802E-4,-9.549541E-5,4.1804143E-4,9.659614E-5,-1.0141981E-4,3.2053424E-5,-8.5251675E-5,-1.1291901E-3,5.138755E-4,5.118549E-6,2.5697425E-4,-3.304854E-4,-4.3163698E-5,-5.603532E-4,-1.5754667E-5,4.1896105E-4,4.1485825E-4,-3.1262636E-5,1.1820719E-4,-1.8498616E-4,-2.1898058E-4,2.0165245E-4,-1.6372521E-4,5.6252833E-5,1.7204684E-4,7.867206E-6,-1.544373E-4,4.7118217E-4,-8.9056295E-4,-1.789704E-4,-3.1506518E-4,1.7557632E-4],"categories":[],"categories_nodes":[],"categories_segments":[],"categories_sizes":[],"default_left":[0,0,0,0,0,0,0,0,0,0,0,0,0,0,0,0,0,0,0,0,0,0,0,0,0,0,0,0,0,0,0,0,0,0,0,0,0,0,0,0,0,0,0,0,0,0,0,0,0,0,0,0,0,0,0,0,0,0,0,0,0,0,0],"id":11,"left_children":[1,3,5,7,9,11,13,15,-1,-1,17,19,21,23,25,-1,-1,27,29,-1,31,33,35,37,39,-1,41,43,45,47,-1,-1,49,-1,51,53,55,57,59,-1,61,-1,-1,-1,-1,-1,-1,-1,-1,-1,-1,-1,-1,-1,-1,-1,-1,-1,-1,-1,-1,-1,-1],"loss_changes":[4.4983685E-6,8.566234E-6,2.5133224E-6,1.8866298E-6,7.1755803E-6,2.8740267E-6,2.8131449E-6,2.0311688E-6,0E0,0E0,3.8921103E-6,2.8982995E-6,5.6320882E-6,3.9359384E-6,2.867302E-6,0E0,0E0,2.2920278E-6,2.0947395E-5,0E0,3.306082E-6,8.761364E-6,4.23255E-6,4.981258E-6,3.919019E-6,0E0,2.7546948E-6,5.446411E-6,3.8787407E-6,2.2277636E-6,0E0,0E0,3.18492E-6,0E0,1.165337E-5,1.32374025E-5,9.323476E-6,5.1168404E-6,2.3792927E-6,0E0,3.7383563E-6,0E0,0E0,0E0,0E0,0E0,0E0,0E0,0E0,0E0,0E0,0E0,0E0,0E0,0E0,0E0,0E0,0E0,0E0,0E0,0E0,0E0,0E0],"parents":[2147483647,0,0,1,1,2,2,3,3,4,4,5,5,6,6,7,7,10,10,11,11,12,12,13,13,14,14,17,17,18,18,20,20,21,21,22,22,23,23,24,24,26,26,27,27,28,28,29,29,32,32,34,34,35,35,36,36,37,37,38,38,40,40],"right_children":[2,4,6,8,10,12,14,16,-1,-1,18,20,22,24,26,-1,-1,28,30,-1,32,34,36,38,40,-1,42,44,46,48,-1,-1,50,-1,52,54,56,58,60,-1,62,-1,-1,-1,-1,-1,-1,-1,-1,-1,-1,-1,-1,-1,-1,-1,-1,-1,-1,-1,-1,-1,-1],"split_conditions":[2.6101572E-5,1.9573418E-3,1E0,1.2115276E-3,8.254042E-3,2.6101572E-5,2.3713738E-1,7.498942E-4,2.6458502E-4,-3.6706924E-4,6.189658E-1,2.1544347E-2,4.216965E-5,3.4807004E-2,6.189658E-1,5.246401E-5,-1.7773021E-4,1.615598E-5,1.615598E-5,-9.183335E-6,9.0851754E-2,2.872985E-4,1.7782794E-4,1.3335214E-2,5.6234132E-2,-5.207189E-4,1E0,3.831187E-1,3.831187E-1,1E0,-7.979482E-4,-2.997802E-4,2.3713738E-1,4.1804143E-4,3.1622776E-3,3.1622776E-3,2.872985E-4,8.254042E-3,2.1544347E-2,5.138755E-4,9.0851754E-2,2.5697425E-4,-3.304854E-4,-4.3163698E-5,-5.603532E-4,-1.5754667E-5,4.1896105E-4,4.1485825E-4,-3.1262636E-5,1.1820719E-4,-1.8498616E-4,-2.1898058E-4,2.0165245E-4,-1.6372521E-4,5.6252833E-5,1.7204684E-4,7.867206E-6,-1.544373E-4,4.7118217E-4,-8.9056295E-4,-1.789704E-4,-3.1506518E-4,1.7557632E-4],"split_indices":[0,1,0,1,1,1,1,1,0,0,1,0,1,1,1,0,0,0,0,0,0,0,1,1,1,0,1,1,1,1,0,0,0,0,0,0,1,1,1,0,1,0,0,0,0,0,0,0,0,0,0,0,0,0,0,0,0,0,0,0,0,0,0],"split_type":[0,0,0,0,0,0,0,0,0,0,0,0,0,0,0,0,0,0,0,0,0,0,0,0,0,0,0,0,0,0,0,0,0,0,0,0,0,0,0,0,0,0,0,0,0,0,0,0,0,0,0,0,0,0,0,0,0,0,0,0,0,0,0],"sum_hessian":[2.634E3,2.2E2,2.414E3,9.2E1,1.28E2,2.358E3,5.6E1,8.4E1,8E0,2.9E1,9.9E1,1.66E2,2.192E3,4.4E1,1.2E1,7.4E1,1E1,8E1,1.9E1,1.12E2,5.4E1,8.9E1,2.103E3,2.5E1,1.9E1,6E0,6E0,4E1,4E1,1E1,9E0,2.1E1,3.3E1,2E1,6.9E1,2.72E2,1.831E3,2E1,5E0,4E0,1.5E1,3E0,3E0,3.5E1,5E0,3.5E1,5E0,5E0,5E0,1.5E1,1.8E1,2.5E1,4.4E1,1.32E2,1.4E2,9E1,1.741E3,1.7E1,3E0,2E0,3E0,5E0,1E1],"tree_param":{"num_deleted":"0","num_feature":"2","num_nodes":"63","size_leaf_vector":"1"}},{"base_weights":[-1.5967032E-6,2.0435562E-5,-3.6334186E-5,-1.8098157E-5,6.637601E-5,3.5087003E-5,-7.772004E-5,1.6386659E-5,-1.3896746E-4,-1.4755943E-4,1.1294312E-4,-1.3169047E-5,3.9950013E-4,-2.1308227E-4,-1.459964E-5,-9.174327E-6,1.6575455E-4,-2.6275808E-4,2.5643187E-4,-2.703554E-4,4.47843E-6,1.2846851E-4,-6.039418E-4,3.48201E-5,-1.6790401E-4,1.05263294E-4,1.3367474E-3,-4.253901E-4,4.9462664E-4,6.566431E-5,-3.2579276E-4,4.043156E-5,-1.0486782E-4,5.2328786E-4,-2.0224453E-4,7.5665557E-6,-9.554057E-4,5.753475E-4,-8.3959644E-4,-7.4248055E-6,-2.5601135E-4,1.1454895E-4,5.667574E-4,-3.899065E-4,-5.937119E-4,-5.236848E-5,5.843588E-4,1.9933608E-4,-1.2281184E-3,3.0548574E-4,-5.401224E-4,5.4293978E-5,-1.5357906E-3,1.9456049E-3,-9.180975E-4,-1.2224606E-4,5.292697E-4,-9.053914E-4,2.8680562E-4,-2.1946045E-5,5.9130623E-5,1.0343465E-4,-1.1079238E-4,3.80386E-6,6.957007E-4,-6.207824E-4,1.3932586E-4,-1.0364392E-4,3.7779583E-4,1.00572564E-4,8.5859164E-4,-8.2377193E-4,-7.1274386E-5,1.0481164E-4,2.8034496E-5,-4.6912828E-5,1.4511272E-3,-4.1530654E-4,2.9449165E-4,-2.7270507E-4,9.531059E-6,-5.175606E-5,2.3661435E-3,-1.67118E-4,4.520605E-4,3.3297203E-4,9.223819E-7,-7.6580116E-5,3.911805E-4,-4.5066475E-4,-2.0924872E-3,-1.108461E-3,2.082713E-3,4.7440454E-4,-1.9066691E-3,-2.9508583E-4,-6.0433294E-6,1.0736595E-3,-7.146617E-5,-2.0308772E-3,2.783776E-4,2.8369625E-3,-2.642162E-4],"categories":[],"categories_nodes":[],"categories_segments":[],"categories_sizes":[],"default_left":[0,0,0,0,0,0,0,0,0,0,0,0,0,0,0,0,0,0,0,0,0,0,0,0,0,0,0,0,0,0,0,0,0,0,0,0,0,0,0,0,0,0,0,0,0,0,0,0,0,0,0,0,0,0,0,0,0,0,0,0,0,0,0,0,0,0,0,0,0,0,0,0,0,0,0,0,0,0,0,0,0,0,0,0,0,0,0,0,0,0,0,0,0,0,0,0,0,0,0,0,0,0,0],"id":12,"left_children":[1,3,5,7,9,11,13,15,17,19,21,23,25,27,29,31,33,35,37,39,-1,41,43,45,47,49,-1,51,53,55,57,59,61,63,65,67,-1,69,71,-1,-1,73,75,77,-1,79,81,83,-1,85,-1,87,89,91,93,95,97,99,101,-1,-1,-1,-1,-1,-1,-1,-1,-1,-1,-1,-1,-1,-1,-1,-1,-1,-1,-1,-1,-1,-1,-1,-1,-1,-1,-1,-1,-1,-1,-1,-1,-1,-1,-1,-1,-1,-1,-1,-1,-1,-1,-1,-1],"loss_changes":[2.0174277E-6,2.8566246E-6,3.026538E-6,3.6619178E-6,7.3489587E-6,6.617273E-6,5.5334776E-6,2.613026E-6,9.611991E-6,2.539405E-6,6.8111913E-6,2.4785709E-6,2.9158673E-5,3.116235E-5,1.1086465E-5,2.7812118E-6,1.3263026E-5,6.6395354E-5,1.6911468E-5,4.561704E-6,0E0,3.5528465E-6,1.1605307E-6,1.2248544E-5,6.687865E-5,9.824612E-6,0E0,8.477339E-5,1.0017819E-4,3.081674E-5,3.2570235E-5,2.5384638E-6,7.3228393E-6,2.282053E-5,2.5336223E-5,2.0889052E-5,0E0,1.546387E-5,5.9601025E-6,0E0,0E0,3.1907734E-6,2.804252E-5,5.234652E-6,0E0,7.793634E-6,1.0035322E-4,2.6249885E-5,0E0,3.8295184E-6,0E0,1.7036371E-5,7.690656E-5,2.3099597E-4,1.3874673E-4,1.2982559E-5,1.11247835E-4,2.1916948E-4,2.006286E-4,0E0,0E0,0E0,0E0,0E0,0E0,0E0,0E0,0E0,0E0,0E0,0E0,0E0,0E0,0E0,0E0,0E0,0E0,0E0,0E0,0E0,0E0,0E0,0E0,0E0,0E0,0E0,0E0,0E0,0E0,0E0,0E0,0E0,0E0,0E0,0E0,0E0,0E0,0E0,0E0,0E0,0E0,0E0,0E0],"parents":[2147483647,0,0,1,1,2,2,3,3,4,4,5,5,6,6,7,7,8,8,9,9,10,10,11,11,12,12,13,13,14,14,15,15,16,16,17,17,18,18,19,19,21,21,22,22,23,23,24,24,25,25,27,27,28,28,29,29,30,30,31,31,32,32,33,33,34,34,35,35,37,37,38,38,41,41,42,42,43,43,45,45,46,46,47,47,49,49,51,51,52,52,53,53,54,54,55,55,56,56,57,57,58,58],"right_children":[2,4,6,8,10,12,14,16,18,20,22,24,26,28,30,32,34,36,38,40,-1,42,44,46,48,50,-1,52,54,56,58,60,62,64,66,68,-1,70,72,-1,-1,74,76,78,-1,80,82,84,-1,86,-1,88,90,92,94,96,98,100,102,-1,-1,-1,-1,-1,-1,-1,-1,-1,-1,-1,-1,-1,-1,-1,-1,-1,-1,-1,-1,-1,-1,-1,-1,-1,-1,-1,-1,-1,-1,-1,-1,-1,-1,-1,-1,-1,-1,-1,-1,-1,-1,-1,-1],"split_conditions":[2.1544347E-2,7.498942E-4,7.498942E-4,2.872985E-4,6.812921E-5,4.641589E-4,8.254042E-3,1.7782794E-4,3.4807004E-2,5.1089698E-3,1E0,6.189658E-1,1E0,6.189658E-1,6.189658E-1,6.812921E-5,3.1622776E-3,1.3335214E-2,3.831187E-1,1.9573418E-3,4.47843E-6,6.189658E-1,1.3335214E-2,2.872985E-4,2.872985E-4,6.189658E-1,1.3367474E-3,2.3713738E-1,1E0,2.3713738E-1,1E0,2.6101572E-5,1.7782794E-4,4.641589E-4,1.3335214E-2,3.1622776E-3,-9.554057E-4,2.3713738E-1,6.189658E-1,-7.4248055E-6,-2.5601135E-4,1.9573418E-3,1.3335214E-2,8.254042E-3,-5.937119E-4,3.4807004E-2,3.831187E-1,6.812921E-5,-1.2281184E-3,9.0851754E-2,-5.401224E-4,1.4677992E-1,5.1089698E-3,1.9573418E-3,3.1622776E-3,2.1544347E-2,3.4807004E-2,3.4807004E-2,1.3335214E-2,-2.1946045E-5,5.9130623E-5,1.0343465E-4,-1.1079238E-4,3.80386E-6,6.957007E-4,-6.207824E-4,1.3932586E-4,-1.0364392E-4,3.7779583E-4,1.00572564E-4,8.5859164E-4,-8.2377193E-4,-7.1274386E-5,1.0481164E-4,2.8034496E-5,-4.6912828E-5,1.4511272E-3,-4.1530654E-4,2.9449165E-4,-2.7270507E-4,9.531059E-6,-5.175606E-5,2.3661435E-3,-1.67118E-4,4.520605E-4,3.3297203E-4,9.223819E-7,-7.6580116E-5,3.911805E-4,-4.5066475E-4,-2.0924872E-3,-1.108461E-3,2.082713E-3,4.7440454E-4,-1.9066691E-3,-2.9508583E-4,-6.0433294E-6,1.0736595E-3,-7.146617E-5,-2.0308772E-3,2.783776E-4,2.8369625E-3,-2.642162E-4],"split_indices":[1,1,0,1,0,0,0,1,0,1,0,1,1,1,1,1,0,0,0,1,0,0,1,0,0,1,0,1,1,1,1,1,0,0,0,0,0,0,0,0,0,0,1,1,0,1,1,0,0,1,0,1,0,0,0,0,0,0,0,0,0,0,0,0,0,0,0,0,0,0,0,0,0,0,0,0,0,0,0,0,0,0,0,0,0,0,0,0,0,0,0,0,0,0,0,0,0,0,0,0,0,0,0],"split_type":[0,0,0,0,0,0,0,0,0,0,0,0,0,0,0,0,0,0,0,0,0,0,0,0,0,0,0,0,0,0,0,0,0,0,0,0,0,0,0,0,0,0,0,0,0,0,0,0,0,0,0,0,0,0,0,0,0,0,0,0,0,0,0,0,0,0,0,0,0,0,0,0,0,0,0,0,0,0,0,0,0,0,0,0,0,0,0,0,0,0,0,0,0,0,0,0,0,0,0,0,0,0,0],"sum_hessian":[2.634E3,1.612E3,1.022E3,8.77E2,7.35E2,3.75E2,6.47E2,6.83E2,1.94E2,1.31E2,6.04E2,3.32E2,4.3E1,2.05E2,4.42E2,5.84E2,9.9E1,1.48E2,4.6E1,7.3E1,5.8E1,5.92E2,1.2E1,2.54E2,7.8E1,3.9E1,4E0,1.58E2,4.7E1,3.52E2,9E1,3.85E2,1.99E2,5E1,4.9E1,1.28E2,2E1,3.6E1,1E1,3.6E1,3.7E1,5.75E2,1.7E1,1E1,2E0,2.2E2,3.4E1,6.8E1,1E1,3.4E1,5E0,1.11E2,4.7E1,2.3E1,2.4E1,2.51E2,1.01E2,4.6E1,4.4E1,1.85E2,2E2,5.4E1,1.45E2,3.2E1,1.8E1,1.5E1,3.4E1,1E2,2.8E1,2.8E1,8E0,4E0,6E0,2.18E2,3.57E2,1.4E1,3E0,7E0,3E0,2.7E1,1.93E2,3E1,4E0,3.9E1,2.9E1,1.5E1,1.9E1,8.7E1,2.4E1,3.9E1,8E0,8E0,1.5E1,1.5E1,9E0,4.7E1,2.04E2,2.9E1,7.2E1,1.4E1,3.2E1,5E0,3.9E1],"tree_param":{"num_deleted":"0","num_feature":"2","num_nodes":"103","size_leaf_vector":"1"}},{"base_weights":[-3.1130136E-7,1.2735004E-5,-4.6762834E-5,-2.81798E-6,4.5756922E-5,-2.0391557E-4,-6.43575E-6,1.827687E-5,-1.468129E-4,3.098002E-4,1.8243655E-6,-3.9204955E-4,2.1854123E-4,1.07866676E-4,-8.989095E-5,-4.090139E-6,3.0655277E-4,-3.211391E-4,2.2240446E-4,-1.7078604E-4,1.6430498E-3,5.04412E-5,-1.0356757E-4,-6.2899007E-6,-1.7601451E-3,1.1834231E-3,-6.6478824E-4,5.639324E-4,-5.3286552E-5,-4.999136E-4,7.2877854E-5,-2.1496826E-5,1.5353049E-4,9.349918E-4,-5.069986E-4,-1.1413399E-4,-8.1248087E-4,8.548349E-4,-1.07621534E-4,-4.756956E-4,3.9707898E-4,1.9842386E-3,-1.7180045E-4,-1.14637754E-4,1.3215175E-4,-6.982779E-4,8.9600246E-5,-2.8895377E-4,5.592895E-4,-9.1075624E-4,1.7394622E-4,3.0180303E-5,2.5021054E-3,1.5222389E-5,-6.4804556E-4,-2.0834114E-3,2.7437662E-5,5.6786655E-4,-6.111829E-5,1.1832089E-5,-8.651551E-5,2.6581685E-5,6.537106E-4,2.2451539E-4,1.0762662E-3,-6.8147056E-4,-1.3303298E-5,-1.3514388E-4,2.112478E-4,-5.236213E-4,-4.8688053E-5,8.0235006E-4,4.7713518E-5,-2.2780278E-4,4.0978735E-4,1.4104093E-4,-9.5707923E-4,3.4042E-4,-3.0748546E-4,2.2637247E-4,-5.9203804E-4,-1.4115588E-4,5.448929E-5,1.8379465E-4,-3.4578938E-5,-8.2558097E-4,-2.0303726E-4,1.8509105E-4,1.4607358E-5,-6.8836554E-5,-3.0091032E-4,1.4193058E-4,4.420145E-4,-7.4636936E-4,-3.258884E-4,1.7590197E-4,-4.3947858E-4,6.49785E-4,1.6438117E-3,-4.964799E-5,1.259474E-4,-1.3793856E-3,3.415972E-4,-1.8822253E-3,-6.920854E-4,1.9022822E-4,-5.546127E-4,1.111231E-3,-1.8783154E-5,2.5281714E-5,-2.1794949E-4],"categories":[],"categories_nodes":[],"categories_segments":[],"categories_sizes":[],"default_left":[0,0,0,0,0,0,0,0,0,0,0,0,0,0,0,0,0,0,0,0,0,0,0,0,0,0,0,0,0,0,0,0,0,0,0,0,0,0,0,0,0,0,0,0,0,0,0,0,0,0,0,0,0,0,0,0,0,0,0,0,0,0,0,0,0,0,0,0,0,0,0,0,0,0,0,0,0,0,0,0,0,0,0,0,0,0,0,0,0,0,0,0,0,0,0,0,0,0,0,0,0,0,0,0,0,0,0,0,0,0,0],"id":13,"left_children":[1,3,5,7,9,11,13,15,17,19,21,23,25,27,29,31,33,35,37,39,41,43,45,47,-1,-1,49,51,53,55,57,59,61,63,65,67,69,71,73,75,77,-1,79,81,83,85,87,89,91,93,-1,95,97,99,101,103,105,107,109,-1,-1,-1,-1,-1,-1,-1,-1,-1,-1,-1,-1,-1,-1,-1,-1,-1,-1,-1,-1,-1,-1,-1,-1,-1,-1,-1,-1,-1,-1,-1,-1,-1,-1,-1,-1,-1,-1,-1,-1,-1,-1,-1,-1,-1,-1,-1,-1,-1,-1,-1,-1],"loss_changes":[1.5974607E-6,1.0570958E-6,3.6617694E-6,4.2552556E-6,7.643898E-6,9.46414E-6,4.4072362E-6,7.880551E-6,1.1592623E-5,6.0510305E-5,2.9053074E-6,9.8931276E-5,7.1786904E-5,1.4361861E-5,1.7855718E-5,3.1173465E-6,4.5465582E-5,1.231592E-5,1.2197671E-5,1.2309211E-5,1.0618934E-4,5.248762E-6,2.0625886E-5,1.1991904E-5,0E0,0E0,7.0421956E-6,5.2684187E-5,5.9180793E-6,6.3521686E-5,1.2769409E-5,7.0049296E-6,1.30173285E-5,2.8617302E-5,1.6000067E-5,7.404512E-6,5.9416725E-6,1.12359385E-5,1.29567325E-5,5.0681545E-5,7.598205E-6,0E0,1.0019266E-5,4.867575E-6,1.234834E-5,1.1580687E-5,2.2934446E-6,2.2836812E-6,1.9851195E-6,2.3429402E-6,0E0,1.2297624E-5,6.118251E-6,3.575549E-6,4.403301E-5,1.7122926E-5,2.369529E-5,4.1155097E-5,6.3841753E-6,0E0,0E0,0E0,0E0,0E0,0E0,0E0,0E0,0E0,0E0,0E0,0E0,0E0,0E0,0E0,0E0,0E0,0E0,0E0,0E0,0E0,0E0,0E0,0E0,0E0,0E0,0E0,0E0,0E0,0E0,0E0,0E0,0E0,0E0,0E0,0E0,0E0,0E0,0E0,0E0,0E0,0E0,0E0,0E0,0E0,0E0,0E0,0E0,0E0,0E0,0E0,0E0],"parents":[2147483647,0,0,1,1,2,2,3,3,4,4,5,5,6,6,7,7,8,8,9,9,10,10,11,11,12,12,13,13,14,14,15,15,16,16,17,17,18,18,19,19,20,20,21,21,22,22,23,23,26,26,27,27,28,28,29,29,30,30,31,31,32,32,33,33,34,34,35,35,36,36,37,37,38,38,39,39,40,40,42,42,43,43,44,44,45,45,46,46,47,47,48,48,49,49,51,51,52,52,53,53,54,54,55,55,56,56,57,57,58,58],"right_children":[2,4,6,8,10,12,14,16,18,20,22,24,26,28,30,32,34,36,38,40,42,44,46,48,-1,-1,50,52,54,56,58,60,62,64,66,68,70,72,74,76,78,-1,80,82,84,86,88,90,92,94,-1,96,98,100,102,104,106,108,110,-1,-1,-1,-1,-1,-1,-1,-1,-1,-1,-1,-1,-1,-1,-1,-1,-1,-1,-1,-1,-1,-1,-1,-1,-1,-1,-1,-1,-1,-1,-1,-1,-1,-1,-1,-1,-1,-1,-1,-1,-1,-1,-1,-1,-1,-1,-1,-1,-1,-1,-1,-1],"split_conditions":[1.4677992E-1,2.1544347E-2,2.3713738E-1,8.254042E-3,3.4807004E-2,3.4807004E-2,1.2115276E-3,5.1089698E-3,8.254042E-3,1.3335214E-2,1.3335214E-2,1.3335214E-2,9.0851754E-2,3.831187E-1,8.254042E-3,5.6234132E-2,1.9573418E-3,1.2115276E-3,2.1544347E-2,1.2115276E-3,3.4807004E-2,1.1006941E-4,9.0851754E-2,1.2115276E-3,-1.7601451E-3,1.1834231E-3,1E0,4.641589E-4,7.498942E-4,3.831187E-1,2.1544347E-2,8.254042E-3,3.1622776E-3,4.641589E-4,8.254042E-3,4.641589E-4,5.1089698E-3,1.3335214E-2,9.0851754E-2,2.872985E-4,8.254042E-3,1.9842386E-3,9.0851754E-2,2.3713738E-1,1.4677992E-1,2.1544347E-2,1.4677992E-1,2.872985E-4,5.1089698E-3,1.4677992E-1,1.7394622E-4,1.7782794E-4,7.498942E-4,1.7782794E-4,6.189658E-1,1.9573418E-3,5.1089698E-3,3.831187E-1,1E0,1.1832089E-5,-8.651551E-5,2.6581685E-5,6.537106E-4,2.2451539E-4,1.0762662E-3,-6.8147056E-4,-1.3303298E-5,-1.3514388E-4,2.112478E-4,-5.236213E-4,-4.8688053E-5,8.0235006E-4,4.7713518E-5,-2.2780278E-4,4.0978735E-4,1.4104093E-4,-9.5707923E-4,3.4042E-4,-3.0748546E-4,2.2637247E-4,-5.9203804E-4,-1.4115588E-4,5.448929E-5,1.8379465E-4,-3.4578938E-5,-8.2558097E-4,-2.0303726E-4,1.8509105E-4,1.4607358E-5,-6.8836554E-5,-3.0091032E-4,1.4193058E-4,4.420145E-4,-7.4636936E-4,-3.258884E-4,1.7590197E-4,-4.3947858E-4,6.49785E-4,1.6438117E-3,-4.964799E-5,1.259474E-4,-1.3793856E-3,3.415972E-4,-1.8822253E-3,-6.920854E-4,1.9022822E-4,-5.546127E-4,1.111231E-3,-1.8783154E-5,2.5281714E-5,-2.1794949E-4],"split_indices":[1,0,1,0,0,0,0,0,1,1,1,0,0,1,0,1,1,1,1,1,1,1,0,0,0,0,0,0,0,1,0,1,0,1,1,1,1,0,1,1,1,0,1,0,0,1,0,0,0,0,0,0,0,0,1,0,0,1,1,0,0,0,0,0,0,0,0,0,0,0,0,0,0,0,0,0,0,0,0,0,0,0,0,0,0,0,0,0,0,0,0,0,0,0,0,0,0,0,0,0,0,0,0,0,0,0,0,0,0,0,0],"split_type":[0,0,0,0,0,0,0,0,0,0,0,0,0,0,0,0,0,0,0,0,0,0,0,0,0,0,0,0,0,0,0,0,0,0,0,0,0,0,0,0,0,0,0,0,0,0,0,0,0,0,0,0,0,0,0,0,0,0,0,0,0,0,0,0,0,0,0,0,0,0,0,0,0,0,0,0,0,0,0,0,0,0,0,0,0,0,0,0,0,0,0,0,0,0,0,0,0,0,0,0,0,0,0,0,0,0,0,0,0,0,0],"sum_hessian":[2.634E3,2.057E3,5.77E2,1.399E3,6.58E2,1.17E2,4.6E2,1.221E3,1.78E2,9.3E1,5.65E2,8.1E1,3.6E1,1.94E2,2.66E2,1.134E3,8.7E1,1.21E2,5.7E1,6.9E1,2.4E1,3.87E2,1.78E2,7.3E1,8E0,1E1,2.6E1,5E1,1.44E2,7.5E1,1.91E2,1.022E3,1.12E2,4.9E1,3.8E1,8.6E1,3.5E1,1.9E1,3.8E1,4.5E1,2.4E1,1E1,1.4E1,1.28E2,2.59E2,4.3E1,1.35E2,4.9E1,2.4E1,2.1E1,5E0,4E1,1E1,1.3E2,1.4E1,1.8E1,5.7E1,4E1,1.51E2,7.88E2,2.34E2,1.04E2,8E0,3.6E1,1.3E1,1.3E1,2.5E1,6.7E1,1.9E1,2.6E1,9E0,9E0,1E1,2.8E1,1E1,3E1,1.5E1,1.9E1,5E0,9E0,5E0,7.3E1,5.5E1,1.19E2,1.4E2,9E0,3.4E1,2.3E1,1.12E2,3.4E1,1.5E1,1.4E1,1E1,5E0,1.6E1,3E1,1E1,5E0,5E0,8.8E1,4.2E1,5E0,9E0,4E0,1.4E1,4.4E1,1.3E1,1E1,3E1,1.17E2,3.4E1],"tree_param":{"num_deleted":"0","num_feature":"2","num_nodes":"111","size_leaf_vector":"1"}},{"base_weights":[-3.2562005E-7],"categories":[],"categories_nodes":[],"categories_segments":[],"categories_sizes":[],"default_left":[0],"id":14,"left_children":[-1],"loss_changes":[0E0],"parents":[2147483647],"right_children":[-1],"split_conditions":[-1.6281003E-7],"split_indices":[0],"split_type":[0],"sum_hessian":[2.634E3],"tree_param":{"num_deleted":"0","num_feature":"2","num_nodes":"1","size_leaf_vector":"1"}},{"base_weights":[-1.4687399E-7],"categories":[],"categories_nodes":[],"categories_segments":[],"categories_sizes":[],"default_left":[0],"id":15,"left_children":[-1],"loss_changes":[0E0],"parents":[2147483647],"right_children":[-1],"split_conditions":[-7.343699E-8],"split_indices":[0],"split_type":[0],"sum_hessian":[2.634E3],"tree_param":{"num_deleted":"0","num_feature":"2","num_nodes":"1","size_leaf_vector":"1"}},{"base_weights":[-8.7291966E-8],"categories":[],"categories_nodes":[],"categories_segments":[],"categories_sizes":[],"default_left":[0],"id":16,"left_children":[-1],"loss_changes":[0E0],"parents":[2147483647],"right_children":[-1],"split_conditions":[-4.3645983E-8],"split_indices":[0],"split_type":[0],"sum_hessian":[2.634E3],"tree_param":{"num_deleted":"0","num_feature":"2","num_nodes":"1","size_leaf_vector":"1"}},{"base_weights":[-2.770994E-8],"categories":[],"categories_nodes":[],"categories_segments":[],"categories_sizes":[],"default_left":[0],"id":17,"left_children":[-1],"loss_changes":[0E0],"parents":[2147483647],"right_children":[-1],"split_conditions":[-1.385497E-8],"split_indices":[0],"split_type":[0],"sum_hessian":[2.634E3],"tree_param":{"num_deleted":"0","num_feature":"2","num_nodes":"1","size_leaf_vector":"1"}},{"base_weights":[-2.770994E-8],"categories":[],"categories_nodes":[],"categories_segments":[],"categories_sizes":[],"default_left":[0],"id":18,"left_children":[-1],"loss_changes":[0E0],"parents":[2147483647],"right_children":[-1],"split_conditions":[-1.385497E-8],"split_indices":[0],"split_type":[0],"sum_hessian":[2.634E3],"tree_param":{"num_deleted":"0","num_feature":"2","num_nodes":"1","size_leaf_vector":"1"}},{"base_weights":[-2.770994E-8],"categories":[],"categories_nodes":[],"categories_segments":[],"categories_sizes":[],"default_left":[0],"id":19,"left_children":[-1],"loss_changes":[0E0],"parents":[2147483647],"right_children":[-1],"split_conditions":[-1.385497E-8],"split_indices":[0],"split_type":[0],"sum_hessian":[2.634E3],"tree_param":{"num_deleted":"0","num_feature":"2","num_nodes":"1","size_leaf_vector":"1"}}]},"name":"gbtree"},"learner_model_param":{"base_score":"7.100619E-1","boost_from_average":"1","num_class":"0","num_feature":"2","num_target":"1"},"objective":{"name":"reg:squarederror","reg_loss_param":{"scale_pos_weight":"1"}}},"version":[2,1,1]}