{"learner":{"attributes":{},"feature_names":[],"feature_types":[],"gradient_booster":{"model":{"gbtree_model_param":{"num_parallel_tree":"1","num_trees":"20"},"iteration_indptr":[0,1,2,3,4,5,6,7,8,9,10,11,12,13,14,15,16,17,18,19,20],"tree_info":[0,0,0,0,0,0,0,0,0,0,0,0,0,0,0,0,0,0,0,0],"trees":[{"base_weights":[-1.8775463E-8,5.0284425E-3,-3.6113027E-3,6.902008E-3,3.229791E-3,3.3720062E-4,-7.733972E-3,1.286759E-3,7.563643E-3,5.486033E-3,1.0005641E-3,2.6152255E-3,-1.9811124E-3,-1.2211244E-2,3.8266182E-5,8.006704E-3,6.3077766E-3,1.3761877E-3,6.4852335E-3,2.3345312E-3,-7.7220955E-4,2.7820794E-3,2.0491323E-3,-3.3651243E-3,2.5399527E-4,-8.674859E-3,-1.47446245E-2,-7.240014E-4,1.2113929E-3,4.987078E-3,4.2649177E-3,8.45245E-3,1.595807E-3,3.8216484E-3,2.6201569E-3,2.6990771E-3,1.1970758E-3,-3.9206582E-4,-1.9117892E-3,1.2874389E-3,1.5680012E-3,1.2640471E-3,1.3133192E-3,2.1041168E-3,-4.387503E-3,-2.1445076E-4,8.497519E-4,-1.5700246E-3,-9.80977E-3,-1.795255E-2,-9.737974E-3,-5.4516393E-4,-2.8816858E-4,2.2748654E-4,8.7172823E-4,1.892143E-3,2.9873725E-3,4.433064E-3,2.2808213E-3,9.6576865E-4,5.3346157E-4,1.6253398E-3,1.0367119E-3,-7.949273E-6,2.0149995E-3,-7.088681E-5,-4.3325624E-4,-5.0322415E-4,-1.6700566E-3,1.4227794E-3,3.595994E-5,2.3974346E-3,-2.63986E-4,-1.6640628E-3,-2.6160025E-3,1.963079E-4,-1.9139619E-4,-1.7212497E-4,-1.573508E-3,-3.2509048E-3,-5.206473E-3,-4.8845015E-3,-1.0091373E-2,-6.2135807E-3,-4.013938E-3],"categories":[],"categories_nodes":[],"categories_segments":[],"categories_sizes":[],"default_left":[0,0,0,0,0,0,0,0,0,0,0,0,0,0,0,0,0,0,0,0,0,0,0,0,0,0,0,0,0,0,0,0,0,0,0,0,0,0,0,0,0,0,0,0,0,0,0,0,0,0,0,0,0,0,0,0,0,0,0,0,0,0,0,0,0,0,0,0,0,0,0,0,0,0,0,0,0,0,0,0,0,0,0,0,0],"id":0,"left_children":[1,3,5,7,9,11,13,-1,15,17,19,21,23,25,27,29,31,-1,33,35,37,39,41,43,45,47,49,51,53,55,-1,57,59,-1,-1,61,63,65,67,-1,-1,69,-1,71,73,75,-1,77,79,81,83,-1,-1,-1,-1,-1,-1,-1,-1,-1,-1,-1,-1,-1,-1,-1,-1,-1,-1,-1,-1,-1,-1,-1,-1,-1,-1,-1,-1,-1,-1,-1,-1,-1,-1],"loss_changes":[2.18092E-2,1.6693929E-3,1.1381191E-2,6.8218634E-4,1.2921668E-3,1.8958417E-3,1.19015295E-2,0E0,6.7456625E-5,3.3177878E-4,3.1159437E-4,1.1395547E-5,5.514828E-4,1.8161982E-3,1.13550836E-4,1.9914843E-4,5.928499E-4,0E0,9.4024464E-5,2.7868111E-5,2.3943081E-5,1.9718427E-6,1.7082435E-5,6.243116E-4,4.7087306E-5,7.344899E-4,1.8327981E-3,3.536792E-6,1.932995E-5,7.08882E-6,0E0,2.5546877E-5,1.4904435E-6,0E0,0E0,1.25862425E-5,6.878933E-5,5.102165E-6,1.4742032E-5,0E0,0E0,3.9387978E-5,0E0,1.3001295E-4,6.578944E-5,5.5666023E-6,0E0,2.5979141E-5,9.192014E-5,1.1716541E-3,1.3477402E-4,0E0,0E0,0E0,0E0,0E0,0E0,0E0,0E0,0E0,0E0,0E0,0E0,0E0,0E0,0E0,0E0,0E0,0E0,0E0,0E0,0E0,0E0,0E0,0E0,0E0,0E0,0E0,0E0,0E0,0E0,0E0,0E0,0E0,0E0],"parents":[2147483647,0,0,1,1,2,2,3,3,4,4,5,5,6,6,8,8,9,9,10,10,11,11,12,12,13,13,14,14,15,15,16,16,18,18,19,19,20,20,21,21,22,22,23,23,24,24,25,25,26,26,27,27,28,28,29,29,31,31,32,32,35,35,36,36,37,37,38,38,41,41,43,43,44,44,45,45,47,47,48,48,49,49,50,50],"right_children":[2,4,6,8,10,12,14,-1,16,18,20,22,24,26,28,30,32,-1,34,36,38,40,42,44,46,48,50,52,54,56,-1,58,60,-1,-1,62,64,66,68,-1,-1,70,-1,72,74,76,-1,78,80,82,84,-1,-1,-1,-1,-1,-1,-1,-1,-1,-1,-1,-1,-1,-1,-1,-1,-1,-1,-1,-1,-1,-1,-1,-1,-1,-1,-1,-1,-1,-1,-1,-1,-1,-1],"split_conditions":[2.5E-1,1.5625E-2,1.6E1,2.5E-1,1.6E1,1E0,3.2E1,1.286759E-3,7.8125E-3,2.5E-1,2.56E2,5E-1,3.2E1,1.28E2,2.56E2,2E0,1.28E2,1.3761877E-3,6.25E-2,1.25E-1,1.25E-1,1.25E-1,8E0,5E-1,5.12E2,5E-1,4E0,6.4E1,5.12E2,3.90625E-3,4.2649177E-3,6.4E1,5.12E2,3.8216484E-3,2.6201569E-3,6.4E1,1.28E2,1.024E3,1.024E3,1.2874389E-3,1.5680012E-3,1E0,1.3133192E-3,4E0,4E0,2E0,8.497519E-4,6.4E1,1E0,5E-1,8E0,-5.4516393E-4,-2.8816858E-4,2.2748654E-4,8.7172823E-4,1.892143E-3,2.9873725E-3,4.433064E-3,2.2808213E-3,9.6576865E-4,5.3346157E-4,1.6253398E-3,1.0367119E-3,-7.949273E-6,2.0149995E-3,-7.088681E-5,-4.3325624E-4,-5.0322415E-4,-1.6700566E-3,1.4227794E-3,3.595994E-5,2.3974346E-3,-2.63986E-4,-1.6640628E-3,-2.6160025E-3,1.963079E-4,-1.9139619E-4,-1.7212497E-4,-1.573508E-3,-3.2509048E-3,-5.206473E-3,-4.8845015E-3,-1.0091373E-2,-6.2135807E-3,-4.013938E-3],"split_indices":[1,1,0,0,0,0,1,0,1,0,0,0,1,0,1,0,0,0,1,1,1,0,1,1,1,1,1,1,1,1,0,0,0,0,0,0,0,0,0,0,0,1,0,0,0,0,0,0,1,1,1,0,0,0,0,0,0,0,0,0,0,0,0,0,0,0,0,0,0,0,0,0,0,0,0,0,0,0,0,0,0,0,0,0,0],"split_type":[0,0,0,0,0,0,0,0,0,0,0,0,0,0,0,0,0,0,0,0,0,0,0,0,0,0,0,0,0,0,0,0,0,0,0,0,0,0,0,0,0,0,0,0,0,0,0,0,0,0,0,0,0,0,0,0,0,0,0,0,0,0,0,0,0,0,0,0,0,0,0,0,0,0,0,0,0,0,0,0,0,0,0,0,0],"sum_hessian":[1.199E3,5.01E2,6.98E2,2.44E2,2.57E2,3.57E2,3.41E2,3.3E1,2.11E2,1.27E2,1.3E2,1.8E2,1.77E2,2.16E2,1.25E2,1.52E2,5.9E1,3.5E1,9.2E1,7.4E1,5.6E1,1.36E2,4.4E1,1.09E2,6.8E1,9.2E1,1.24E2,7.6E1,4.9E1,2.4E1,1.28E2,4E1,1.9E1,4.5E1,4.7E1,5.5E1,1.9E1,4.3E1,1.3E1,9.1E1,4.5E1,2E1,2.4E1,1.7E1,9.2E1,5.2E1,1.6E1,1.3E1,7.9E1,7.4E1,5E1,2E1,5.6E1,2.1E1,2.8E1,1.3E1,1.1E1,3.5E1,5E0,1E1,9E0,2.7E1,2.8E1,1.4E1,5E0,2.9E1,1.4E1,9E0,4E0,8E0,1.2E1,8E0,9E0,4.3E1,4.9E1,1.1E1,4.1E1,8E0,5E0,1.4E1,6.5E1,1.7E1,5.7E1,1.7E1,3.3E1],"tree_param":{"num_deleted":"0","num_feature":"2","num_nodes":"85","size_leaf_vector":"1"}},{"base_weights":[-1.9704303E-6,2.570906E-3,-1.8497271E-3,3.5271216E-3,1.6529068E-3,-5.4379452E-5,-4.3082563E-3,6.623093E-4,3.8637158E-3,2.8040786E-3,5.1548006E-4,1.3386894E-3,-1.1747843E-3,-7.228935E-3,-5.456333E-4,4.41173E-3,3.372155E-3,5.923263E-4,3.2456713E-3,1.2295127E-3,-4.3308001E-4,1.1421627E-3,7.261677E-4,-1.9597274E-3,1.16690644E-4,-5.9184204E-3,-9.631176E-3,-1.6634424E-3,2.0726011E-5,2.7122607E-3,6.021164E-3,2.1434438E-3,1.3032153E-3,4.4498295E-3,2.8281978E-3,1.3970701E-3,6.988764E-4,2.7738014E-4,-6.7084335E-4,6.506075E-4,7.015041E-4,1.375897E-4,-2.8599817E-3,-3.0356186E-4,7.377318E-4,-1.5406476E-3,-6.7020925E-3,-1.1529167E-2,-2.614197E-3,-1.8389011E-4,6.2559097E-4,7.097982E-4,1.4469525E-3,1.964379E-3,3.1381783E-3,1.0721401E-3,1.48149E-4,3.067404E-4,2.294977E-3,1.5654514E-3,1.1982404E-3,1.0411025E-3,5.5955775E-4,-4.2498114E-6,1.1754185E-3,1.0696172E-3,-2.9706684E-4,-2.1101435E-4,-5.780501E-4,1.2696087E-3,5.9867605E-5,4.7744403E-4,-3.429814E-4,-9.740575E-4,-1.9674078E-3,3.2497304E-5,-2.6797038E-4,2.2628704E-4,4.531429E-4,-1.6580224E-4,-9.312012E-4,-3.6732375E-3,-1.9028673E-3,-4.352176E-3,-6.888762E-3,1.1800779E-4,4.483223E-4],"categories":[],"categories_nodes":[],"categories_segments":[],"categories_sizes":[],"default_left":[0,0,0,0,0,0,0,0,0,0,0,0,0,0,0,0,0,0,0,0,0,0,0,0,0,0,0,0,0,0,0,0,0,0,0,0,0,0,0,0,0,0,0,0,0,0,0,0,0,0,0,0,0,0,0,0,0,0,0,0,0,0,0,0,0,0,0,0,0,0,0,0,0,0,0,0,0,0,0,0,0,0,0,0,0,0,0],"id":1,"left_children":[1,3,5,7,9,11,13,-1,15,17,19,21,23,25,27,29,31,-1,33,35,37,39,-1,41,43,45,47,-1,49,51,53,-1,55,57,59,61,63,65,67,-1,69,71,73,75,77,79,81,83,-1,-1,85,-1,-1,-1,-1,-1,-1,-1,-1,-1,-1,-1,-1,-1,-1,-1,-1,-1,-1,-1,-1,-1,-1,-1,-1,-1,-1,-1,-1,-1,-1,-1,-1,-1,-1,-1,-1],"loss_changes":[5.7096146E-3,4.34828E-4,3.0850924E-3,1.7651264E-4,3.3637293E-4,6.336971E-4,3.237932E-3,0E0,4.2231986E-5,8.769124E-5,8.925915E-5,2.3837492E-6,2.2831894E-4,4.655961E-4,2.0484334E-4,2.4898176E-4,2.1394633E-4,0E0,3.7685386E-5,5.692018E-6,9.8145965E-6,4.063426E-6,0E0,2.6473013E-4,2.266944E-5,3.6705565E-4,4.160381E-4,0E0,2.5844403E-5,7.3972624E-6,1.506065E-6,0E0,3.069931E-5,1.0085758E-5,2.559449E-6,8.334202E-6,2.3391129E-5,2.561047E-5,4.70387E-6,0E0,2.2147578E-5,2.9597804E-5,8.838484E-5,4.48836E-6,1.2720957E-6,6.3846965E-6,1.4561275E-4,1.2777233E-4,0E0,0E0,4.329E-6,0E0,0E0,0E0,0E0,0E0,0E0,0E0,0E0,0E0,0E0,0E0,0E0,0E0,0E0,0E0,0E0,0E0,0E0,0E0,0E0,0E0,0E0,0E0,0E0,0E0,0E0,0E0,0E0,0E0,0E0,0E0,0E0,0E0,0E0,0E0,0E0],"parents":[2147483647,0,0,1,1,2,2,3,3,4,4,5,5,6,6,8,8,9,9,10,10,11,11,12,12,13,13,14,14,15,15,16,16,18,18,19,19,20,20,21,21,23,23,24,24,25,25,26,26,28,28,29,29,30,30,32,32,33,33,34,34,35,35,36,36,37,37,38,38,40,40,41,41,42,42,43,43,44,44,45,45,46,46,47,47,50,50],"right_children":[2,4,6,8,10,12,14,-1,16,18,20,22,24,26,28,30,32,-1,34,36,38,40,-1,42,44,46,48,-1,50,52,54,-1,56,58,60,62,64,66,68,-1,70,72,74,76,78,80,82,84,-1,-1,86,-1,-1,-1,-1,-1,-1,-1,-1,-1,-1,-1,-1,-1,-1,-1,-1,-1,-1,-1,-1,-1,-1,-1,-1,-1,-1,-1,-1,-1,-1,-1,-1,-1,-1,-1,-1],"split_conditions":[2.5E-1,1.5625E-2,3.2E1,2.5E-1,1.6E1,1E0,1.6E1,6.623093E-4,3.90625E-3,1.25E-1,2.56E2,8E0,3.2E1,5.12E2,3.2E1,3.2E1,1.28E2,5.923263E-4,3.125E-2,1.25E-1,3.125E-2,5E-1,7.261677E-4,1E0,2.56E2,5E-1,4E0,-1.6634424E-3,2.56E2,1E0,6.4E1,2.1434438E-3,5.12E2,2.5E-1,2E0,3.2E1,1.28E2,5.12E2,1.024E3,6.506075E-4,5E-1,5E-1,8E0,4E0,5.12E2,6.4E1,8E0,1E0,-2.614197E-3,-1.8389011E-4,5.12E2,7.097982E-4,1.4469525E-3,1.964379E-3,3.1381783E-3,1.0721401E-3,1.48149E-4,3.067404E-4,2.294977E-3,1.5654514E-3,1.1982404E-3,1.0411025E-3,5.5955775E-4,-4.2498114E-6,1.1754185E-3,1.0696172E-3,-2.9706684E-4,-2.1101435E-4,-5.780501E-4,1.2696087E-3,5.9867605E-5,4.7744403E-4,-3.429814E-4,-9.740575E-4,-1.9674078E-3,3.2497304E-5,-2.6797038E-4,2.2628704E-4,4.531429E-4,-1.6580224E-4,-9.312012E-4,-3.6732375E-3,-1.9028673E-3,-4.352176E-3,-6.888762E-3,1.1800779E-4,4.483223E-4],"split_indices":[1,1,0,0,0,0,1,0,1,0,0,1,1,0,1,0,0,0,1,1,1,0,0,1,1,1,1,0,1,0,0,0,0,0,0,0,0,0,0,0,1,1,0,0,1,0,1,1,0,0,1,0,0,0,0,0,0,0,0,0,0,0,0,0,0,0,0,0,0,0,0,0,0,0,0,0,0,0,0,0,0,0,0,0,0,0,0],"split_type":[0,0,0,0,0,0,0,0,0,0,0,0,0,0,0,0,0,0,0,0,0,0,0,0,0,0,0,0,0,0,0,0,0,0,0,0,0,0,0,0,0,0,0,0,0,0,0,0,0,0,0,0,0,0,0,0,0,0,0,0,0,0,0,0,0,0,0,0,0,0,0,0,0,0,0,0,0,0,0,0,0,0,0,0,0,0,0],"sum_hessian":[1.199E3,5.01E2,6.98E2,2.44E2,2.57E2,4.04E2,2.94E2,3.3E1,2.11E2,1.27E2,1.3E2,1.8E2,2.24E2,1.65E2,1.29E2,9.6E1,1.15E2,2.8E1,9.9E1,7.4E1,5.6E1,7E1,1.1E2,1.39E2,8.5E1,1.09E2,5.6E1,2.1E1,1.08E2,4.8E1,4.8E1,7.9E1,3.6E1,2.3E1,7.6E1,5.5E1,1.9E1,1.4E1,4.2E1,5E1,2E1,4.2E1,9.7E1,5.1E1,3.4E1,1.7E1,9.2E1,3.8E1,1.8E1,6.6E1,4.2E1,7E0,4.1E1,7E0,4.1E1,1.9E1,1.7E1,1E0,2.2E1,4.1E1,3.5E1,1.4E1,4.1E1,1.4E1,5E0,4E0,1E1,2.9E1,1.3E1,4E0,1.6E1,2.1E1,2.1E1,5.4E1,4.3E1,2E1,3.1E1,1.4E1,2E1,4E0,1.3E1,7.4E1,1.8E1,1.9E1,1.9E1,1.8E1,2.4E1],"tree_param":{"num_deleted":"0","num_feature":"2","num_nodes":"87","size_leaf_vector":"1"}},{"base_weights":[-2.2075076E-6,1.3252837E-3,-9.5556705E-4,1.8096151E-3,8.6021976E-4,-1.2875287E-4,-2.4680824E-3,7.5455825E-4,2.0304709E-3,1.4485829E-3,2.7876408E-4,3.4215403E-4,-6.673437E-4,-4.495015E-3,-6.68141E-4,2.8529955E-4,1.1079992E-3,2.3364786E-3,1.7479461E-3,3.421224E-4,1.7288795E-3,6.517037E-4,-2.1683647E-4,-1.105293E-3,5.4952045E-5,-2.9126152E-3,-5.493269E-3,-1.0649221E-3,1.3833517E-5,2.8616935E-4,7.8094855E-4,1.6981305E-3,1.7324984E-3,1.1314888E-3,6.84561E-4,1.1973886E-3,1.4888158E-3,7.2710746E-4,4.0798783E-4,-2.3073771E-5,-8.1031665E-4,-2.784133E-4,-1.7397795E-3,-1.6208962E-4,1.8960309E-4,-1.6248843E-3,-2.2849038E-3,-6.2076463E-3,-1.8262308E-3,-9.3044444E-5,1.6221983E-4,5.4394454E-4,1.0689029E-3,5.6286005E-4,7.817646E-5,5.250949E-4,8.3215866E-4,5.5524905E-4,2.864351E-4,-1.7877221E-4,5.334182E-4,-1.0076364E-4,1.6768575E-4,5.3167343E-5,-6.6569116E-4,1.920519E-4,-3.0867697E-4,-3.3753912E-4,-1.0952723E-3,1.1151731E-4,-1.15203635E-4,-4.988568E-4,-1.050959E-3,-2.2927155E-3,-3.5841486E-3],"categories":[],"categories_nodes":[],"categories_segments":[],"categories_sizes":[],"default_left":[0,0,0,0,0,0,0,0,0,0,0,0,0,0,0,0,0,0,0,0,0,0,0,0,0,0,0,0,0,0,0,0,0,0,0,0,0,0,0,0,0,0,0,0,0,0,0,0,0,0,0,0,0,0,0,0,0,0,0,0,0,0,0,0,0,0,0,0,0,0,0,0,0,0,0],"id":2,"left_children":[1,3,5,7,9,11,13,15,17,19,21,-1,23,25,27,-1,29,31,33,-1,35,37,39,41,43,45,47,-1,49,-1,-1,51,-1,-1,53,-1,55,57,59,61,63,65,67,69,-1,71,-1,73,-1,-1,-1,-1,-1,-1,-1,-1,-1,-1,-1,-1,-1,-1,-1,-1,-1,-1,-1,-1,-1,-1,-1,-1,-1,-1,-1],"loss_changes":[1.5199581E-3,1.1151633E-4,8.7382994E-4,5.555671E-5,8.785981E-5,1.9882861E-4,8.9814165E-4,2.2285985E-6,1.3379788E-5,2.6239926E-5,2.4353922E-5,0E0,8.641854E-5,1.6723806E-4,1.3161293E-4,0E0,2.5099598E-6,6.183237E-5,5.814762E-5,0E0,1.1301396E-5,1.081633E-6,6.53598E-6,8.87051E-5,7.380638E-6,9.287344E-5,6.9378875E-5,0E0,5.7112134E-6,0E0,0E0,1.4309408E-5,0E0,0E0,8.44587E-6,0E0,3.7176942E-6,2.6752823E-6,1.0468839E-5,2.8820823E-6,6.82847E-6,1.7078675E-5,4.459452E-5,1.7089681E-6,0E0,6.279981E-6,0E0,4.3491018E-5,0E0,0E0,0E0,0E0,0E0,0E0,0E0,0E0,0E0,0E0,0E0,0E0,0E0,0E0,0E0,0E0,0E0,0E0,0E0,0E0,0E0,0E0,0E0,0E0,0E0,0E0,0E0],"parents":[2147483647,0,0,1,1,2,2,3,3,4,4,5,5,6,6,7,7,8,8,9,9,10,10,12,12,13,13,14,14,16,16,17,17,18,18,20,20,21,21,22,22,23,23,24,24,25,25,26,26,28,28,31,31,34,34,36,36,37,37,38,38,39,39,40,40,41,41,42,42,43,43,45,45,47,47],"right_children":[2,4,6,8,10,12,14,16,18,20,22,-1,24,26,28,-1,30,32,34,-1,36,38,40,42,44,46,48,-1,50,-1,-1,52,-1,-1,54,-1,56,58,60,62,64,66,68,70,-1,72,-1,74,-1,-1,-1,-1,-1,-1,-1,-1,-1,-1,-1,-1,-1,-1,-1,-1,-1,-1,-1,-1,-1,-1,-1,-1,-1,-1,-1],"split_conditions":[2.5E-1,1.5625E-2,6.4E1,5E-1,1.6E1,1E0,8E0,7.8125E-3,3.90625E-3,2.5E-1,2.56E2,3.4215403E-4,3.2E1,1E0,3.2E1,2.8529955E-4,1.25E-1,1.28E2,1.28E2,3.421224E-4,3.125E-2,1.25E-1,1.25E-1,2E0,2.56E2,5.12E2,4E0,-1.0649221E-3,2.56E2,2.8616935E-4,7.8094855E-4,8E0,1.7324984E-3,1.1314888E-3,5.12E2,1.1973886E-3,1E0,3.2E1,6.4E1,6.25E-2,5.12E2,5E-1,4E0,2E0,1.8960309E-4,5E-1,-2.2849038E-3,2.56E2,-1.8262308E-3,-9.3044444E-5,1.6221983E-4,5.4394454E-4,1.0689029E-3,5.6286005E-4,7.817646E-5,5.250949E-4,8.3215866E-4,5.5524905E-4,2.864351E-4,-1.7877221E-4,5.334182E-4,-1.0076364E-4,1.6768575E-4,5.3167343E-5,-6.6569116E-4,1.920519E-4,-3.0867697E-4,-3.3753912E-4,-1.0952723E-3,1.1151731E-4,-1.15203635E-4,-4.988568E-4,-1.050959E-3,-2.2927155E-3,-3.5841486E-3],"split_indices":[1,1,0,0,0,0,1,1,1,0,0,0,1,1,1,0,0,0,0,0,1,1,1,1,1,0,1,0,1,0,0,0,0,0,0,0,0,0,0,1,0,1,0,0,0,1,0,0,0,0,0,0,0,0,0,0,0,0,0,0,0,0,0,0,0,0,0,0,0,0,0,0,0,0,0],"split_type":[0,0,0,0,0,0,0,0,0,0,0,0,0,0,0,0,0,0,0,0,0,0,0,0,0,0,0,0,0,0,0,0,0,0,0,0,0,0,0,0,0,0,0,0,0,0,0,0,0,0,0,0,0,0,0,0,0,0,0,0,0,0,0,0,0,0,0,0,0,0,0,0,0,0,0],"sum_hessian":[1.199E3,5.01E2,6.98E2,2.44E2,2.57E2,4.52E2,2.46E2,4.3E1,2.01E2,1.27E2,1.3E2,1.8E2,2.72E2,1.15E2,1.31E2,3E1,1.3E1,9.3E1,1.08E2,3.5E1,9.2E1,7.4E1,5.6E1,1.69E2,1.03E2,4.6E1,6.9E1,4.1E1,9E1,7E0,6E0,6.1E1,3.2E1,7.2E1,3.6E1,2.2E1,7E1,5.5E1,1.9E1,4.3E1,1.3E1,7.4E1,9.5E1,6.2E1,4.1E1,2.7E1,1.9E1,4.8E1,2.1E1,5.5E1,3.5E1,2.7E1,3.4E1,1.9E1,1.7E1,2.2E1,4.8E1,1.4E1,4.1E1,9E0,1E1,2.9E1,1.4E1,5E0,8E0,2.5E1,4.9E1,2.9E1,6.6E1,9E0,5.3E1,1.3E1,1.4E1,2E1,2.8E1],"tree_param":{"num_deleted":"0","num_feature":"2","num_nodes":"75","size_leaf_vector":"1"}},{"base_weights":[-4.049192E-6,6.82595E-4,-4.9716985E-4,8.7991473E-4,3.6743053E-4,-6.6614964E-5,-1.2847981E-3,2.1484334E-4,9.76092E-4,5.401151E-4,-2.5555005E-4,2.279104E-4,-4.7922134E-4,-2.3469836E-3,-3.41629E-4,1.0711942E-3,5.000112E-4,7.7830325E-4,3.6928026E-4,-4.6168268E-4,-1.2863321E-4,1.1374429E-3,1.3676705E-4,-7.5005007E-4,5.0685445E-5,-1.5379152E-3,-2.8566872E-3,-1.0903024E-3,7.666729E-6,9.7467576E-4,1.8135542E-3,1.5280135E-3,-6.615471E-5,4.526913E-4,9.4280497E-4,1.3491511E-4,4.767266E-4,4.791717E-5,-3.6190587E-4,-6.1587855E-4,1.7627412E-4,1.0128071E-4,9.564574E-4,3.2286902E-4,-2.6621603E-4,-2.962452E-4,-1.0526683E-3,-8.678096E-4,-1.1995838E-3,-3.2237696E-3,-9.546226E-4,-6.265113E-4,-3.8865034E-4,-4.0638195E-5,1.5400705E-4,2.6395172E-4,5.367141E-4,1.3026382E-3,2.6189387E-4,7.396042E-5,-1.5017058E-4,5.626208E-4,1.9608997E-5,7.7528507E-4,-3.9904207E-5,-2.0109945E-4,3.0719297E-4,-5.955696E-4,3.1014282E-5,4.9150287E-4,-3.6984019E-4,4.3270844E-5,1.9984604E-4,-4.247616E-4,5.194855E-5,-4.282817E-5,-4.3838363E-4,-1.0024044E-3,-3.7474086E-4,-2.6725658E-4,-5.6051614E-4,-1.200957E-3,-1.8538709E-3],"categories":[],"categories_nodes":[],"categories_segments":[],"categories_sizes":[],"default_left":[0,0,0,0,0,0,0,0,0,0,0,0,0,0,0,0,0,0,0,0,0,0,0,0,0,0,0,0,0,0,0,0,0,0,0,0,0,0,0,0,0,0,0,0,0,0,0,0,0,0,0,0,0,0,0,0,0,0,0,0,0,0,0,0,0,0,0,0,0,0,0,0,0,0,0,0,0,0,0,0,0,0,0],"id":3,"left_children":[1,3,5,7,9,11,13,-1,15,17,19,21,23,25,27,29,31,33,35,37,39,41,43,45,-1,47,49,51,53,55,57,-1,59,61,-1,63,65,-1,-1,67,69,-1,-1,71,73,75,77,79,-1,81,-1,-1,-1,-1,-1,-1,-1,-1,-1,-1,-1,-1,-1,-1,-1,-1,-1,-1,-1,-1,-1,-1,-1,-1,-1,-1,-1,-1,-1,-1,-1,-1,-1],"loss_changes":[4.066575E-4,3.0895128E-5,2.3695735E-4,1.2917517E-5,2.1115957E-5,5.515916E-5,2.4664792E-4,0E0,1.09192915E-5,5.9382837E-6,1.0655654E-6,2.1812364E-5,2.9794584E-5,4.344323E-5,3.4527468E-5,1.3279205E-5,6.387584E-5,2.18612E-5,2.2272143E-6,2.4076282E-6,4.268374E-6,1.7011898E-5,1.823497E-5,1.7403683E-5,0E0,2.5043082E-5,1.819036E-5,1.1651573E-6,2.455993E-6,7.727867E-6,2.2121538E-5,0E0,1.8993699E-6,1.3859949E-5,0E0,9.242982E-6,7.748627E-6,0E0,0E0,4.3635914E-6,1.4027841E-5,0E0,0E0,2.9792045E-6,1.6711763E-5,6.4042283E-6,2.07255E-5,1.7639431E-6,0E0,1.0584306E-5,0E0,0E0,0E0,0E0,0E0,0E0,0E0,0E0,0E0,0E0,0E0,0E0,0E0,0E0,0E0,0E0,0E0,0E0,0E0,0E0,0E0,0E0,0E0,0E0,0E0,0E0,0E0,0E0,0E0,0E0,0E0,0E0,0E0],"parents":[2147483647,0,0,1,1,2,2,3,3,4,4,5,5,6,6,8,8,9,9,10,10,11,11,12,12,13,13,14,14,15,15,16,16,17,17,18,18,19,19,20,20,21,21,22,22,23,23,25,25,26,26,27,27,28,28,29,29,30,30,32,32,33,33,35,35,36,36,39,39,40,40,43,43,44,44,45,45,46,46,47,47,49,49],"right_children":[2,4,6,8,10,12,14,-1,16,18,20,22,24,26,28,30,32,34,36,38,40,42,44,46,-1,48,50,52,54,56,58,-1,60,62,-1,64,66,-1,-1,68,70,-1,-1,72,74,76,78,80,-1,82,-1,-1,-1,-1,-1,-1,-1,-1,-1,-1,-1,-1,-1,-1,-1,-1,-1,-1,-1,-1,-1,-1,-1,-1,-1,-1,-1,-1,-1,-1,-1,-1,-1],"split_conditions":[2.5E-1,3.125E-2,6.4E1,5E-1,2.56E2,4E0,8E0,2.1484334E-4,5.12E2,2E0,6.25E-2,5E-1,6.4E1,1E0,3.2E1,2.56E2,1.953125E-3,1E0,6.25E-2,5.12E2,5.12E2,5E-1,1E0,2E0,5.0685445E-5,5.12E2,4E0,5.12E2,5.12E2,1.953125E-3,7.8125E-3,1.5280135E-3,1.024E3,6.25E-2,9.4280497E-4,4E0,4E0,4.791717E-5,-3.6190587E-4,1.25E-1,1.25E-1,1.0128071E-4,9.564574E-4,4E0,8E0,3.2E1,4E0,5E-1,-1.1995838E-3,2.56E2,-9.546226E-4,-6.265113E-4,-3.8865034E-4,-4.0638195E-5,1.5400705E-4,2.6395172E-4,5.367141E-4,1.3026382E-3,2.6189387E-4,7.396042E-5,-1.5017058E-4,5.626208E-4,1.9608997E-5,7.7528507E-4,-3.9904207E-5,-2.0109945E-4,3.0719297E-4,-5.955696E-4,3.1014282E-5,4.9150287E-4,-3.6984019E-4,4.3270844E-5,1.9984604E-4,-4.247616E-4,5.194855E-5,-4.282817E-5,-4.3838363E-4,-1.0024044E-3,-3.7474086E-4,-2.6725658E-4,-5.6051614E-4,-1.200957E-3,-1.8538709E-3],"split_indices":[1,1,0,0,0,0,1,0,0,0,1,1,1,1,1,0,1,0,1,0,0,0,0,1,0,0,1,0,1,1,1,0,0,1,0,0,0,0,0,1,1,0,0,1,1,0,1,1,0,0,0,0,0,0,0,0,0,0,0,0,0,0,0,0,0,0,0,0,0,0,0,0,0,0,0,0,0,0,0,0,0,0,0],"split_type":[0,0,0,0,0,0,0,0,0,0,0,0,0,0,0,0,0,0,0,0,0,0,0,0,0,0,0,0,0,0,0,0,0,0,0,0,0,0,0,0,0,0,0,0,0,0,0,0,0,0,0,0,0,0,0,0,0,0,0,0,0,0,0,0,0,0,0,0,0,0,0,0,0,0,0,0,0,0,0,0,0,0,0],"sum_hessian":[1.199E3,5.01E2,6.98E2,3.07E2,1.94E2,4.52E2,2.46E2,5.5E1,2.52E2,1.52E2,4.2E1,2.64E2,1.88E2,1.15E2,1.31E2,2.09E2,4.3E1,6.2E1,9E1,1.5E1,2.7E1,2.3E1,2.41E2,1.28E2,6E1,4.6E1,6.9E1,4.1E1,9E1,1.87E2,2.2E1,7E0,3.6E1,4.9E1,1.3E1,2.9E1,6.1E1,5E0,1E1,1E1,1.7E1,1.1E1,1.2E1,1.65E2,7.6E1,5.2E1,7.6E1,2.7E1,1.9E1,4.8E1,2.1E1,2.5E1,1.6E1,7E1,2E1,3.5E1,1.52E2,1.3E1,9E0,1.9E1,1.7E1,1.8E1,3.1E1,3E0,2.6E1,8E0,5.3E1,5E0,5E0,9E0,8E0,4.1E1,1.24E2,2.9E1,4.7E1,3.9E1,1.3E1,1.7E1,5.9E1,1.3E1,1.4E1,2E1,2.8E1],"tree_param":{"num_deleted":"0","num_feature":"2","num_nodes":"83","size_leaf_vector":"1"}},{"base_weights":[-3.8407743E-6,4.024496E-4,-2.3622959E-4,5.8921566E-4,3.3627418E-4,3.9461018E-5,-5.2381994E-4,2.6910214E-4,1.0018313E-3,5.299376E-4,7.0006085E-5,1.1893828E-4,-1.8392141E-4,-9.5779763E-4,-7.048541E-5,-7.197447E-5,5.8220065E-4,1.3396811E-3,6.2390807E-4,3.767262E-5,6.334369E-4,4.0313601E-4,-7.2627995E-6,3.7410358E-4,6.7835506E-5,1.3498962E-4,-3.5005194E-4,-4.4816858E-4,-1.4574496E-3,1.977356E-4,-1.7764623E-4,-2.0792308E-4,2.75895E-4,7.0360897E-4,-1.313448E-4,5.3980376E-4,1.082027E-3,9.711073E-4,-4.7955514E-4,7.7677914E-4,5.127309E-4,6.8241096E-4,-6.5173954E-4,3.1649735E-4,-6.789217E-5,3.5728328E-5,9.2178583E-4,2.3051102E-4,-1.07933316E-4,-3.058534E-4,5.928245E-4,-6.8711134E-4,3.7204834E-5,-2.601549E-4,-1.5308091E-3,-1.3080792E-3,-2.176845E-3,2.639658E-4,1.3572474E-5,-4.8675976E-4,2.826319E-5,6.842613E-5,-1.801472E-4,2.4716096E-4,8.255899E-4,1.3536215E-4,6.509806E-4,2.1755695E-5,4.6656546E-4,6.4645705E-5,3.097689E-4,-1.1599064E-4,4.4356208E-4,-1.7020106E-4,1.0462583E-3,-8.0439175E-5,1.4674962E-4,2.6130676E-4,6.092687E-4,5.5293127E-5,2.3386379E-4,-2.7610746E-4,4.0357372E-5,1.3661086E-4,-4.271716E-4,1.1037456E-4,4.3420494E-4,-1.705885E-4,-4.9069675E-4,-2.271348E-5,-1.8432249E-4,1.748734E-5,-1.8121749E-3,-3.0712286E-4,-8.3806715E-4,-2.333631E-3,-2.3245513E-4,-3.3109306E-4,-1.6955535E-4],"categories":[],"categories_nodes":[],"categories_segments":[],"categories_sizes":[],"default_left":[0,0,0,0,0,0,0,0,0,0,0,0,0,0,0,0,0,0,0,0,0,0,0,0,0,0,0,0,0,0,0,0,0,0,0,0,0,0,0,0,0,0,0,0,0,0,0,0,0,0,0,0,0,0,0,0,0,0,0,0,0,0,0,0,0,0,0,0,0,0,0,0,0,0,0,0,0,0,0,0,0,0,0,0,0,0,0,0,0,0,0,0,0,0,0,0,0,0,0],"id":4,"left_children":[1,3,5,7,9,11,13,15,17,19,21,23,25,27,29,31,33,35,37,-1,39,41,43,45,47,49,51,53,55,57,59,61,-1,63,-1,-1,-1,65,-1,67,69,71,-1,73,75,-1,77,79,81,83,85,87,-1,89,91,93,95,-1,-1,97,-1,-1,-1,-1,-1,-1,-1,-1,-1,-1,-1,-1,-1,-1,-1,-1,-1,-1,-1,-1,-1,-1,-1,-1,-1,-1,-1,-1,-1,-1,-1,-1,-1,-1,-1,-1,-1,-1,-1],"loss_changes":[1.1339588E-4,5.2028845E-6,6.0595146E-5,1.4655874E-5,1.672198E-5,6.963621E-6,7.351215E-5,6.9832904E-6,5.4205484E-6,8.79767E-6,3.5551275E-6,3.7430823E-6,5.504283E-6,4.798254E-5,5.323799E-6,2.828327E-6,3.6724387E-6,3.0236115E-6,1.4671967E-5,0E0,2.2489621E-6,1.3281495E-5,2.239607E-6,7.890341E-6,6.944455E-6,7.447317E-6,9.779805E-6,1.9142672E-5,7.468334E-6,2.9710714E-6,9.582456E-6,1.4677216E-6,0E0,5.1332145E-6,0E0,0E0,0E0,4.5137404E-6,0E0,7.755447E-6,3.441939E-6,4.511123E-6,0E0,2.1712287E-5,3.2732407E-6,0E0,1.3769104E-6,3.5327425E-6,9.850675E-6,6.2681443E-6,1.6539925E-6,3.5336598E-6,0E0,1.9168097E-6,4.601921E-5,1.9910687E-5,6.178161E-5,0E0,0E0,1.251834E-6,0E0,0E0,0E0,0E0,0E0,0E0,0E0,0E0,0E0,0E0,0E0,0E0,0E0,0E0,0E0,0E0,0E0,0E0,0E0,0E0,0E0,0E0,0E0,0E0,0E0,0E0,0E0,0E0,0E0,0E0,0E0,0E0,0E0,0E0,0E0,0E0,0E0,0E0,0E0],"parents":[2147483647,0,0,1,1,2,2,3,3,4,4,5,5,6,6,7,7,8,8,9,9,10,10,11,11,12,12,13,13,14,14,15,15,16,16,17,17,18,18,20,20,21,21,22,22,23,23,24,24,25,25,26,26,27,27,28,28,29,29,30,30,31,31,33,33,37,37,39,39,40,40,41,41,43,43,44,44,46,46,47,47,48,48,49,49,50,50,51,51,53,53,54,54,55,55,56,56,59,59],"right_children":[2,4,6,8,10,12,14,16,18,20,22,24,26,28,30,32,34,36,38,-1,40,42,44,46,48,50,52,54,56,58,60,62,-1,64,-1,-1,-1,66,-1,68,70,72,-1,74,76,-1,78,80,82,84,86,88,-1,90,92,94,96,-1,-1,98,-1,-1,-1,-1,-1,-1,-1,-1,-1,-1,-1,-1,-1,-1,-1,-1,-1,-1,-1,-1,-1,-1,-1,-1,-1,-1,-1,-1,-1,-1,-1,-1,-1,-1,-1,-1,-1,-1,-1],"split_conditions":[1.25E-1,3.90625E-3,1.6E1,3.2E1,3.2E1,4E0,8E0,1.953125E-3,1.953125E-3,1.25E-1,7.8125E-3,5E-1,2E0,1E0,6.4E1,1.6E1,1.6E1,1.024E3,1.024E3,3.767262E-5,2E0,1.024E3,6.4E1,1E0,5E-1,5E-1,6.4E1,1.024E3,1.024E3,3.2E1,6.4E1,2.5E-1,2.75895E-4,8E0,-1.313448E-4,5.3980376E-4,1.082027E-3,1.28E2,-4.7955514E-4,7.8125E-3,4E0,6.4E1,-6.5173954E-4,6.25E-2,1.024E3,3.5728328E-5,2.5E-1,1.25E-1,4E0,2.5E-1,8E0,8E0,3.7204834E-5,2.5E-1,5E-1,2E0,2E0,2.639658E-4,1.3572474E-5,1.6E1,2.826319E-5,6.842613E-5,-1.801472E-4,2.4716096E-4,8.255899E-4,1.3536215E-4,6.509806E-4,2.1755695E-5,4.6656546E-4,6.4645705E-5,3.097689E-4,-1.1599064E-4,4.4356208E-4,-1.7020106E-4,1.0462583E-3,-8.0439175E-5,1.4674962E-4,2.6130676E-4,6.092687E-4,5.5293127E-5,2.3386379E-4,-2.7610746E-4,4.0357372E-5,1.3661086E-4,-4.271716E-4,1.1037456E-4,4.3420494E-4,-1.705885E-4,-4.9069675E-4,-2.271348E-5,-1.8432249E-4,1.748734E-5,-1.8121749E-3,-3.0712286E-4,-8.3806715E-4,-2.333631E-3,-2.3245513E-4,-3.3109306E-4,-1.6955535E-4],"split_indices":[1,1,0,0,0,0,1,1,1,0,1,1,1,1,0,0,0,0,0,0,0,0,0,0,0,1,1,0,0,1,1,0,0,0,0,0,0,0,0,1,0,0,0,1,0,0,1,0,1,1,0,0,0,1,1,1,1,0,0,1,0,0,0,0,0,0,0,0,0,0,0,0,0,0,0,0,0,0,0,0,0,0,0,0,0,0,0,0,0,0,0,0,0,0,0,0,0,0,0],"split_type":[0,0,0,0,0,0,0,0,0,0,0,0,0,0,0,0,0,0,0,0,0,0,0,0,0,0,0,0,0,0,0,0,0,0,0,0,0,0,0,0,0,0,0,0,0,0,0,0,0,0,0,0,0,0,0,0,0,0,0,0,0,0,0,0,0,0,0,0,0,0,0,0,0,0,0,0,0,0,0,0,0,0,0,0,0,0,0,0,0,0,0,0,0,0,0,0,0,0,0],"sum_hessian":[1.199E3,4.36E2,7.63E2,1.12E2,3.24E2,3.9E2,3.73E2,6.4E1,4.8E1,1.87E2,1.37E2,2.88E2,1.02E2,1.9E2,1.83E2,3.1E1,3.3E1,2.4E1,2.4E1,3.5E1,1.52E2,2.5E1,1.12E2,4.7E1,2.41E2,3.5E1,6.7E1,9.5E1,9.5E1,5.2E1,1.31E2,2.6E1,5E0,2.9E1,4E0,2E1,4E0,2E1,4E0,6.7E1,8.5E1,2.2E1,3E0,1.7E1,9.5E1,3.1E1,1.6E1,1.25E2,1.16E2,1.8E1,1.7E1,3.7E1,3E1,8.2E1,1.3E1,8.1E1,1.4E1,1.7E1,3.5E1,5.6E1,7.5E1,8E0,1.8E1,2.5E1,4E0,7E0,1.3E1,1.2E1,5.5E1,1.9E1,6.6E1,4E0,1.8E1,1.3E1,4E0,7.6E1,1.9E1,8E0,8E0,8.4E1,4.1E1,3.4E1,8.2E1,9E0,9E0,8E0,9E0,1.8E1,1.9E1,2.8E1,5.4E1,8E0,5E0,2.9E1,5.2E1,5E0,9E0,2.4E1,3.2E1],"tree_param":{"num_deleted":"0","num_feature":"2","num_nodes":"99","size_leaf_vector":"1"}},{"base_weights":[-2.5603176E-6,2.1164381E-4,-1.2507949E-4,2.7785666E-4,1.2649465E-4,-1.30487215E-5,-3.3000598E-4,1.516331E-4,3.7144125E-4,2.4158473E-4,1.8728862E-5,6.278225E-5,-1.1885598E-4,-4.999396E-4,4.876446E-6,-1.7912009E-4,2.3545588E-4,5.8363326E-4,2.3546643E-4,3.2112002E-6,1.7643237E-4,2.0594771E-4,3.412637E-5,-7.393176E-5,1.0702189E-4,-3.9484625E-4,-9.09345E-4,1.5450376E-5,-2.4295847E-4,2.994878E-5,3.5132028E-4,1.953259E-4,1.0593415E-3,4.32567E-4,-2.7064563E-4,1.8434599E-5,2.5604927E-4,1.1752901E-4,-5.5983535E-5,-1.4853865E-4,-6.639888E-4,-1.5181899E-3,-2.1615624E-4,3.3222884E-4,3.5184836E-5,4.5542914E-5,7.6718035E-4,3.1354718E-4,5.590081E-5,-2.8037577E-4,3.707409E-4,3.248106E-5,1.6911577E-4,-5.4442316E-5,1.8780048E-4,1.2204051E-5,-3.2132864E-4,-8.344838E-4,-1.3828278E-4,9.7254915E-6,-1.3191212E-3,1.5557309E-4,-2.2144959E-4],"categories":[],"categories_nodes":[],"categories_segments":[],"categories_sizes":[],"default_left":[0,0,0,0,0,0,0,0,0,0,0,0,0,0,0,0,0,0,0,0,0,0,0,0,0,0,0,0,0,0,0,0,0,0,0,0,0,0,0,0,0,0,0,0,0,0,0,0,0,0,0,0,0,0,0,0,0,0,0,0,0,0,0],"id":5,"left_children":[1,3,5,7,9,11,13,15,17,19,-1,21,23,25,-1,27,29,31,33,-1,-1,35,37,-1,-1,39,41,-1,-1,-1,43,-1,45,47,49,-1,-1,51,53,55,57,59,61,-1,-1,-1,-1,-1,-1,-1,-1,-1,-1,-1,-1,-1,-1,-1,-1,-1,-1,-1,-1],"loss_changes":[3.151941E-5,2.4286455E-6,1.7535662E-5,2.837758E-6,1.9686734E-6,3.9790784E-6,1.5593716E-5,2.980988E-6,3.9019633E-6,2.1959181E-6,0E0,1.1786038E-6,2.0305665E-6,7.385588E-6,0E0,1.4325572E-6,1.7079392E-6,4.543519E-6,8.795754E-6,0E0,0E0,2.465769E-6,1.8253074E-6,0E0,0E0,9.513697E-6,1.4865436E-5,0E0,0E0,0E0,4.440026E-6,0E0,6.759341E-6,3.8609396E-6,7.756391E-6,0E0,0E0,1.439835E-6,2.7121584E-6,6.595814E-6,2.6403724E-5,3.277385E-5,2.2899244E-6,0E0,0E0,0E0,0E0,0E0,0E0,0E0,0E0,0E0,0E0,0E0,0E0,0E0,0E0,0E0,0E0,0E0,0E0,0E0,0E0],"parents":[2147483647,0,0,1,1,2,2,3,3,4,4,5,5,6,6,7,7,8,8,9,9,11,11,12,12,13,13,15,15,16,16,17,17,18,18,21,21,22,22,25,25,26,26,30,30,32,32,33,33,34,34,37,37,38,38,39,39,40,40,41,41,42,42],"right_children":[2,4,6,8,10,12,14,16,18,20,-1,22,24,26,-1,28,30,32,34,-1,-1,36,38,-1,-1,40,42,-1,-1,-1,44,-1,46,48,50,-1,-1,52,54,56,58,60,62,-1,-1,-1,-1,-1,-1,-1,-1,-1,-1,-1,-1,-1,-1,-1,-1,-1,-1,-1,-1],"split_conditions":[1.25E-1,1.5625E-2,6.4E1,8E0,8E0,4E0,3.2E1,1.953125E-3,6.4E1,2.5E-1,1.8728862E-5,5E-1,5.12E2,1.024E3,4.876446E-6,2E0,5E-1,7.8125E-3,7.8125E-3,3.2112002E-6,1.7643237E-4,1E0,5E-1,-7.393176E-5,1.0702189E-4,2E0,2E0,1.5450376E-5,-2.4295847E-4,2.994878E-5,2E0,1.953259E-4,1.6E1,5.12E2,1.024E3,1.8434599E-5,2.5604927E-4,2.5E-1,5.12E2,5.12E2,4E0,5E-1,4E0,3.3222884E-4,3.5184836E-5,4.5542914E-5,7.6718035E-4,3.1354718E-4,5.590081E-5,-2.8037577E-4,3.707409E-4,3.248106E-5,1.6911577E-4,-5.4442316E-5,1.8780048E-4,1.2204051E-5,-3.2132864E-4,-8.344838E-4,-1.3828278E-4,9.7254915E-6,-1.3191212E-3,1.5557309E-4,-2.2144959E-4],"split_indices":[1,1,0,0,0,0,1,1,0,0,0,1,1,0,0,0,0,1,1,0,0,0,0,0,0,1,1,0,0,0,0,0,0,0,0,0,0,0,1,0,1,1,1,0,0,0,0,0,0,0,0,0,0,0,0,0,0,0,0,0,0,0,0],"split_type":[0,0,0,0,0,0,0,0,0,0,0,0,0,0,0,0,0,0,0,0,0,0,0,0,0,0,0,0,0,0,0,0,0,0,0,0,0,0,0,0,0,0,0,0,0,0,0,0,0,0,0,0,0,0,0,0,0,0,0,0,0,0,0],"sum_hessian":[1.199E3,4.36E2,7.63E2,2.44E2,1.92E2,4.94E2,2.69E2,1.05E2,1.39E2,8.3E1,1.09E2,2.88E2,2.06E2,1.79E2,9E1,2.1E1,8.4E1,5.3E1,8.6E1,2.7E1,5.6E1,4.7E1,2.41E2,1.9E2,1.6E1,1.44E2,3.5E1,1.3E1,8E0,3.4E1,5E1,3.9E1,1.4E1,6.2E1,2.4E1,3.1E1,1.6E1,1.25E2,1.16E2,7.6E1,6.8E1,1.8E1,1.7E1,2.3E1,2.7E1,5E0,9E0,3.8E1,2.4E1,1.9E1,5E0,1.02E2,2.3E1,1.04E2,1.2E1,5.7E1,1.9E1,1.8E1,5E1,8E0,1E1,5E0,1.2E1],"tree_param":{"num_deleted":"0","num_feature":"2","num_nodes":"63","size_leaf_vector":"1"}},{"base_weights":[-1.4294684E-6,1.1003208E-4,-6.518244E-5,1.9329682E-4,8.074302E-5,1.5163971E-5,-1.4900666E-4,9.598515E-5,5.152248E-4,7.250667E-5,-3.6993752E-6,9.8358156E-5,-2.3841412E-5,-3.002105E-4,8.759292E-6,-1.851449E-5,1.8878396E-4,4.5571476E-4,1.6391277E-4,2.6304031E-5,4.989599E-4,6.015215E-5,-1.624858E-4,-1.1552373E-4,-4.8177005E-4,1.1240606E-4,-6.856952E-5,1.3205674E-4,-2.585426E-4,4.5363605E-4,-2.984941E-4,7.8046985E-5,-2.3387207E-4,4.684925E-4,3.1968753E-4,-4.7250258E-4,1.236697E-4,-3.488388E-4,3.858606E-5,-6.1420076E-5,-4.2802948E-4,-7.9199165E-4,-2.4604052E-4,1.3749645E-4,1.6020957E-5,-2.2430805E-4,2.452772E-6,-3.485501E-4,1.77145E-4,9.660919E-6,-3.100872E-4,4.382552E-6,1.8751796E-4,-2.826516E-4,3.704548E-4,-5.383293E-5,2.720654E-4,8.470633E-5,-6.480366E-4,1.3723288E-4,-4.0873333E-6,4.751594E-5,-3.620915E-4,-8.880984E-5,8.053821E-5,5.407466E-6,-5.074789E-4,-4.633367E-4,-2.1531261E-4,2.30968E-4,-2.5816154E-4,-2.977699E-4,-3.3421515E-5],"categories":[],"categories_nodes":[],"categories_segments":[],"categories_sizes":[],"default_left":[0,0,0,0,0,0,0,0,0,0,0,0,0,0,0,0,0,0,0,0,0,0,0,0,0,0,0,0,0,0,0,0,0,0,0,0,0,0,0,0,0,0,0,0,0,0,0,0,0,0,0,0,0,0,0,0,0,0,0,0,0,0,0,0,0,0,0,0,0,0,0,0,0],"id":6,"left_children":[1,3,5,7,9,11,13,15,17,-1,-1,19,21,23,25,-1,27,-1,29,31,33,35,37,39,41,43,45,-1,47,-1,49,51,53,-1,55,57,59,61,-1,63,65,67,69,-1,-1,71,-1,-1,-1,-1,-1,-1,-1,-1,-1,-1,-1,-1,-1,-1,-1,-1,-1,-1,-1,-1,-1,-1,-1,-1,-1,-1,-1],"loss_changes":[8.534378E-6,1.0501249E-6,5.1477814E-6,3.4905365E-6,1.8421654E-6,1.2711481E-6,8.924331E-6,1.0932231E-6,3.4695831E-6,0E0,0E0,3.5950013E-6,3.119052E-6,6.348888E-6,1.4824459E-6,0E0,1.8205233E-6,0E0,5.4268326E-6,1.458717E-6,1.1924471E-6,5.708533E-6,4.5376787E-6,1.59685E-6,6.825463E-6,1.0234148E-6,1.2140476E-6,0E0,2.3970745E-6,0E0,1.0343343E-6,1.8485487E-6,6.234153E-6,0E0,1.497333E-6,9.735497E-6,2.9844855E-6,9.565265E-6,0E0,2.1744927E-6,3.61696E-6,1.5963997E-6,1.0954314E-5,0E0,0E0,1.9476968E-6,0E0,0E0,0E0,0E0,0E0,0E0,0E0,0E0,0E0,0E0,0E0,0E0,0E0,0E0,0E0,0E0,0E0,0E0,0E0,0E0,0E0,0E0,0E0,0E0,0E0,0E0,0E0],"parents":[2147483647,0,0,1,1,2,2,3,3,4,4,5,5,6,6,7,7,8,8,11,11,12,12,13,13,14,14,16,16,18,18,19,19,20,20,21,21,22,22,23,23,24,24,25,25,26,26,28,28,30,30,31,31,32,32,34,34,35,35,36,36,37,37,39,39,40,40,41,41,42,42,45,45],"right_children":[2,4,6,8,10,12,14,16,18,-1,-1,20,22,24,26,-1,28,-1,30,32,34,36,38,40,42,44,46,-1,48,-1,50,52,54,-1,56,58,60,62,-1,64,66,68,70,-1,-1,72,-1,-1,-1,-1,-1,-1,-1,-1,-1,-1,-1,-1,-1,-1,-1,-1,-1,-1,-1,-1,-1,-1,-1,-1,-1,-1,-1],"split_conditions":[1.25E-1,3.90625E-3,1.6E1,2.56E2,3.2E1,2E0,8E0,4E0,1.953125E-3,7.250667E-5,-3.6993752E-6,8E0,2E0,1E0,1.28E2,-1.851449E-5,1.28E2,4.5571476E-4,5.12E2,4E0,2.5E-1,4E0,6.4E1,1.024E3,1.28E2,3.2E1,3.2E1,1.3205674E-4,1.953125E-3,4.5363605E-4,1.024E3,2E0,1E0,4.684925E-4,5E-1,5E-1,6.4E1,8E0,3.858606E-5,5E-1,5E-1,4E0,2.56E2,1.3749645E-4,1.6020957E-5,2.56E2,2.452772E-6,-3.485501E-4,1.77145E-4,9.660919E-6,-3.100872E-4,4.382552E-6,1.8751796E-4,-2.826516E-4,3.704548E-4,-5.383293E-5,2.720654E-4,8.470633E-5,-6.480366E-4,1.3723288E-4,-4.0873333E-6,4.751594E-5,-3.620915E-4,-8.880984E-5,8.053821E-5,5.407466E-6,-5.074789E-4,-4.633367E-4,-2.1531261E-4,2.30968E-4,-2.5816154E-4,-2.977699E-4,-3.3421515E-5],"split_indices":[1,1,0,0,0,1,1,0,1,0,0,0,0,1,0,0,0,0,0,0,1,1,1,0,0,1,1,0,1,0,0,0,1,0,1,0,1,1,0,1,1,1,0,0,0,0,0,0,0,0,0,0,0,0,0,0,0,0,0,0,0,0,0,0,0,0,0,0,0,0,0,0,0],"split_type":[0,0,0,0,0,0,0,0,0,0,0,0,0,0,0,0,0,0,0,0,0,0,0,0,0,0,0,0,0,0,0,0,0,0,0,0,0,0,0,0,0,0,0,0,0,0,0,0,0,0,0,0,0,0,0,0,0,0,0,0,0,0,0,0,0,0,0,0,0,0,0,0,0],"sum_hessian":[1.199E3,4.36E2,7.63E2,1.12E2,3.24E2,3.9E2,3.73E2,8.7E1,2.5E1,1.87E2,1.37E2,1.24E2,2.66E2,1.9E2,1.83E2,3.6E1,5.1E1,1.1E1,1.4E1,1.06E2,1.8E1,1.66E2,1E2,9.5E1,9.5E1,7.8E1,1.05E2,4.4E1,7E0,5E0,9E0,8.9E1,1.7E1,4E0,1.4E1,1.7E1,1.49E2,5.6E1,4.4E1,8.2E1,1.3E1,4E1,5.5E1,2.5E1,5.3E1,3.3E1,7.2E1,4E0,3E0,5E0,4E0,7.3E1,1.6E1,1.3E1,4E0,5E0,9E0,1E1,7E0,6.9E1,8E1,2.6E1,3E1,5.4E1,2.8E1,8E0,5E0,2.8E1,1.2E1,1.5E1,4E1,9E0,2.4E1],"tree_param":{"num_deleted":"0","num_feature":"2","num_nodes":"73","size_leaf_vector":"1"}},{"base_weights":[-1.1354684E-6,4.0087412E-5,-2.9178509E-5,-1.4430922E-5,-2.2324304E-4,-2.5413083E-5,5.5588895E-5,-5.2461453E-4,1.7358198E-5,1.0885215E-5,-6.63202E-5,-2.7130998E-4,-7.040898E-4,1.9831459E-4,-5.660903E-5,-3.3249875E-4,-1.1636796E-5,-2.2993555E-4,1.9806623E-5,-2.505541E-4,1.3901128E-5,5.4637192E-5,-3.2854982E-4,3.7504436E-4,-2.9603145E-4],"categories":[],"categories_nodes":[],"categories_segments":[],"categories_sizes":[],"default_left":[0,0,0,0,0,0,0,0,0,0,0,0,0,0,0,0,0,0,0,0,0,0,0,0,0],"id":7,"left_children":[1,-1,3,5,7,9,-1,11,13,-1,15,17,-1,-1,19,21,-1,-1,23,-1,-1,-1,-1,-1,-1],"loss_changes":[2.738565E-6,0E0,2.5525298E-6,1.1491525E-6,4.577258E-6,1.4780019E-6,0E0,5.884657E-6,1.0323831E-6,0E0,4.6900764E-6,1.2716539E-6,0E0,0E0,1.177075E-6,8.245602E-6,0E0,0E0,4.9124724E-6,0E0,0E0,0E0,0E0,0E0,0E0],"parents":[2147483647,0,0,2,2,3,3,4,4,5,5,7,7,8,8,10,10,11,11,14,14,15,15,18,18],"right_children":[2,-1,4,6,8,10,-1,12,14,-1,16,18,-1,-1,20,22,-1,-1,24,-1,-1,-1,-1,-1,-1],"split_conditions":[3.125E-2,4.0087412E-5,1.024E3,5.12E2,2E0,2E0,5.5588895E-5,1E0,4E0,1.0885215E-5,4E0,2.5E-1,-7.040898E-4,1.9831459E-4,8E0,8E0,-1.1636796E-5,-2.2993555E-4,5E-1,-2.505541E-4,1.3901128E-5,5.4637192E-5,-3.2854982E-4,3.7504436E-4,-2.9603145E-4],"split_indices":[1,0,0,1,1,1,0,1,1,0,1,1,0,0,1,0,0,0,1,0,0,0,0,0,0],"split_type":[0,0,0,0,0,0,0,0,0,0,0,0,0,0,0,0,0,0,0,0,0,0,0,0,0],"sum_hessian":[1.199E3,3.07E2,8.92E2,8.3E2,6.2E1,7.64E2,6.6E1,2.7E1,3.5E1,3.55E2,4.09E2,2.2E1,5E0,5E0,3E1,5.6E1,3.53E2,1.3E1,9E0,4E0,2.6E1,2.4E1,3.2E1,4E0,5E0],"tree_param":{"num_deleted":"0","num_feature":"2","num_nodes":"25","size_leaf_vector":"1"}},{"base_weights":[-1.479884E-6],"categories":[],"categories_nodes":[],"categories_segments":[],"categories_sizes":[],"default_left":[0],"id":8,"left_children":[-1],"loss_changes":[0E0],"parents":[2147483647],"right_children":[-1],"split_conditions":[-7.39942E-7],"split_indices":[0],"split_type":[0],"sum_hessian":[1.199E3],"tree_param":{"num_deleted":"0","num_feature":"2","num_nodes":"1","size_leaf_vector":"1"}},{"base_weights":[-7.652243E-7],"categories":[],"categories_nodes":[],"categories_segments":[],"categories_sizes":[],"default_left":[0],"id":9,"left_children":[-1],"loss_changes":[0E0],"parents":[2147483647],"right_children":[-1],"split_conditions":[-3.8261214E-7],"split_indices":[0],"split_type":[0],"sum_hessian":[1.199E3],"tree_param":{"num_deleted":"0","num_feature":"2","num_nodes":"1","size_leaf_vector":"1"}},{"base_weights":[-4.0789445E-7],"categories":[],"categories_nodes":[],"categories_segments":[],"categories_sizes":[],"default_left":[0],"id":10,"left_children":[-1],"loss_changes":[0E0],"parents":[2147483647],"right_children":[-1],"split_conditions":[-2.0394722E-7],"split_indices":[0],"split_type":[0],"sum_hessian":[1.199E3],"tree_param":{"num_deleted":"0","num_feature":"2","num_nodes":"1","size_leaf_vector":"1"}},{"base_weights":[-2.2922953E-7],"categories":[],"categories_nodes":[],"categories_segments":[],"categories_sizes":[],"default_left":[0],"id":11,"left_children":[-1],"loss_changes":[0E0],"parents":[2147483647],"right_children":[-1],"split_conditions":[-1.14614764E-7],"split_indices":[0],"split_type":[0],"sum_hessian":[1.199E3],"tree_param":{"num_deleted":"0","num_feature":"2","num_nodes":"1","size_leaf_vector":"1"}},{"base_weights":[-1.1011958E-7],"categories":[],"categories_nodes":[],"categories_segments":[],"categories_sizes":[],"default_left":[0],"id":12,"left_children":[-1],"loss_changes":[0E0],"parents":[2147483647],"right_children":[-1],"split_conditions":[-5.505979E-8],"split_indices":[0],"split_type":[0],"sum_hessian":[1.199E3],"tree_param":{"num_deleted":"0","num_feature":"2","num_nodes":"1","size_leaf_vector":"1"}},{"base_weights":[-5.056461E-8],"categories":[],"categories_nodes":[],"categories_segments":[],"categories_sizes":[],"default_left":[0],"id":13,"left_children":[-1],"loss_changes":[0E0],"parents":[2147483647],"right_children":[-1],"split_conditions":[-2.5282304E-8],"split_indices":[0],"split_type":[0],"sum_hessian":[1.199E3],"tree_param":{"num_deleted":"0","num_feature":"2","num_nodes":"1","size_leaf_vector":"1"}},{"base_weights":[-5.056461E-8],"categories":[],"categories_nodes":[],"categories_segments":[],"categories_sizes":[],"default_left":[0],"id":14,"left_children":[-1],"loss_changes":[0E0],"parents":[2147483647],"right_children":[-1],"split_conditions":[-2.5282304E-8],"split_indices":[0],"split_type":[0],"sum_hessian":[1.199E3],"tree_param":{"num_deleted":"0","num_feature":"2","num_nodes":"1","size_leaf_vector":"1"}},{"base_weights":[-5.056461E-8],"categories":[],"categories_nodes":[],"categories_segments":[],"categories_sizes":[],"default_left":[0],"id":15,"left_children":[-1],"loss_changes":[0E0],"parents":[2147483647],"right_children":[-1],"split_conditions":[-2.5282304E-8],"split_indices":[0],"split_type":[0],"sum_hessian":[1.199E3],"tree_param":{"num_deleted":"0","num_feature":"2","num_nodes":"1","size_leaf_vector":"1"}},{"base_weights":[-5.056461E-8],"categories":[],"categories_nodes":[],"categories_segments":[],"categories_sizes":[],"default_left":[0],"id":16,"left_children":[-1],"loss_changes":[0E0],"parents":[2147483647],"right_children":[-1],"split_conditions":[-2.5282304E-8],"split_indices":[0],"split_type":[0],"sum_hessian":[1.199E3],"tree_param":{"num_deleted":"0","num_feature":"2","num_nodes":"1","size_leaf_vector":"1"}},{"base_weights":[-5.056461E-8],"categories":[],"categories_nodes":[],"categories_segments":[],"categories_sizes":[],"default_left":[0],"id":17,"left_children":[-1],"loss_changes":[0E0],"parents":[2147483647],"right_children":[-1],"split_conditions":[-2.5282304E-8],"split_indices":[0],"split_type":[0],"sum_hessian":[1.199E3],"tree_param":{"num_deleted":"0","num_feature":"2","num_nodes":"1","size_leaf_vector":"1"}},{"base_weights":[-5.056461E-8],"categories":[],"categories_nodes":[],"categories_segments":[],"categories_sizes":[],"default_left":[0],"id":18,"left_children":[-1],"loss_changes":[0E0],"parents":[2147483647],"right_children":[-1],"split_conditions":[-2.5282304E-8],"split_indices":[0],"split_type":[0],"sum_hessian":[1.199E3],"tree_param":{"num_deleted":"0","num_feature":"2","num_nodes":"1","size_leaf_vector":"1"}},{"base_weights":[-5.056461E-8],"categories":[],"categories_nodes":[],"categories_segments":[],"categories_sizes":[],"default_left":[0],"id":19,"left_children":[-1],"loss_changes":[0E0],"parents":[2147483647],"right_children":[-1],"split_conditions":[-2.5282304E-8],"split_indices":[0],"split_type":[0],"sum_hessian":[1.199E3],"tree_param":{"num_deleted":"0","num_feature":"2","num_nodes":"1","size_leaf_vector":"1"}}]},"name":"gbtree"},"learner_model_param":{"base_score":"8.426919E-1","boost_from_average":"1","num_class":"0","num_feature":"2","num_target":"1"},"objective":{"name":"reg:squarederror","reg_loss_param":{"scale_pos_weight":"1"}}},"version":[2,1,1]}