{"learner":{"attributes":{},"feature_names":[],"feature_types":[],"gradient_booster":{"model":{"gbtree_model_param":{"num_parallel_tree":"1","num_trees":"50"},"iteration_indptr":[0,1,2,3,4,5,6,7,8,9,10,11,12,13,14,15,16,17,18,19,20,21,22,23,24,25,26,27,28,29,30,31,32,33,34,35,36,37,38,39,40,41,42,43,44,45,46,47,48,49,50],"tree_info":[0,0,0,0,0,0,0,0,0,0,0,0,0,0,0,0,0,0,0,0,0,0,0,0,0,0,0,0,0,0,0,0,0,0,0,0,0,0,0,0,0,0,0,0,0,0,0,0,0,0],"trees":[{"base_weights":[-2.2739162E-8,4.606181E-2,-1.3561583E-1,6.0125478E-2,-4.126206E-3,-9.943088E-2,-2.7524835E-1,-2.0527463E-2,7.184561E-2,1.742819E-2,-1.4919037E-1,-5.4279026E-2,-1.4330128E-1,-2.1299462E-1,-3.0328053E-1,-3.4856427E-2,5.7294234E-3,7.795161E-2,3.5098493E-2,2.6123155E-2,-3.5962626E-2,-1.1109972E-1,-1.8357769E-1,-4.43176E-2,-1.0597908E-1,-1.2809129E-1,-1.8736346E-1,-1.4329569E-2,-2.5236076E-2,-2.5848059E-2,-3.280925E-2,-4.264711E-3,-2.4578588E-3,5.954667E-4,1.3850808E-4,4.5637652E-2,8.1780836E-2,5.3441174E-2,-3.4067377E-2,-2.879192E-2,3.6753416E-2,-6.3378513E-3,-6.2413663E-2,-6.949387E-3,-1.2760281E-2,-1.2760845E-2,-2.014879E-2,-1.8361056E-2,-5.654163E-2,-6.943339E-3,-1.2193748E-2,-9.067269E-3,-1.4669062E-1,-1.5309981E-2,-2.0130573E-2,3.5011612E-3,5.65468E-3,8.439939E-3,6.5237843E-3,6.4701783E-3,4.0196124E-3,2.2431799E-4,-5.292605E-3,-3.921658E-3,-5.878571E-4,5.489401E-3,1.8732203E-3,1.0252808E-3,-2.1399944E-3,-4.8237713E-3,-8.5941795E-3,-4.279834E-3,-1.413795E-3,-4.370691E-3,-6.8836757E-3,-1.3071911E-2,-1.612709E-2],"categories":[],"categories_nodes":[],"categories_segments":[],"categories_sizes":[],"default_left":[0,0,0,0,0,0,0,0,0,0,0,0,0,0,0,0,0,0,0,0,0,0,0,0,0,0,0,0,0,0,0,0,0,0,0,0,0,0,0,0,0,0,0,0,0,0,0,0,0,0,0,0,0,0,0,0,0,0,0,0,0,0,0,0,0,0,0,0,0,0,0,0,0,0,0,0,0],"id":0,"left_children":[1,3,5,7,9,11,13,15,17,19,21,23,25,27,29,31,33,35,37,39,41,43,45,47,49,51,53,-1,-1,-1,-1,-1,-1,-1,-1,55,57,59,61,63,65,67,69,-1,-1,-1,-1,71,73,-1,-1,-1,75,-1,-1,-1,-1,-1,-1,-1,-1,-1,-1,-1,-1,-1,-1,-1,-1,-1,-1,-1,-1,-1,-1,-1,-1],"loss_changes":[1.76657E1,1.4902506E0,3.5953426E0,1.5602136E0,1.4502947E0,1.1232758E0,1.9193363E-1,7.920884E-2,3.2036877E-1,1.884889E-1,5.8194757E-2,1.410501E-1,1.6968393E-1,9.8282576E-2,2.5239944E-2,9.841502E-3,6.514229E-5,1.4895964E-1,2.644389E-1,2.0420724E-1,4.426998E-2,1.2417734E-2,4.3610334E-3,7.479495E-2,1.777792E-2,1.3841844E-1,3.5755634E-3,0E0,0E0,0E0,0E0,0E0,0E0,0E0,0E0,1.3437718E-2,4.2231083E-2,2.1859378E-2,3.0248556E-2,1.3384704E-2,9.443104E-2,7.21633E-3,5.8603734E-3,0E0,0E0,0E0,0E0,7.4446183E-3,2.2555709E-2,0E0,0E0,0E0,1.2452364E-2,0E0,0E0,0E0,0E0,0E0,0E0,0E0,0E0,0E0,0E0,0E0,0E0,0E0,0E0,0E0,0E0,0E0,0E0,0E0,0E0,0E0,0E0,0E0,0E0],"parents":[2147483647,0,0,1,1,2,2,3,3,4,4,5,5,6,6,7,7,8,8,9,9,10,10,11,11,12,12,13,13,14,14,15,15,16,16,17,17,18,18,19,19,20,20,21,21,22,22,23,23,24,24,25,25,26,26,35,35,36,36,37,37,38,38,39,39,40,40,41,41,42,42,47,47,48,48,52,52],"right_children":[2,4,6,8,10,12,14,16,18,20,22,24,26,28,30,32,34,36,38,40,42,44,46,48,50,52,54,-1,-1,-1,-1,-1,-1,-1,-1,56,58,60,62,64,66,68,70,-1,-1,-1,-1,72,74,-1,-1,-1,76,-1,-1,-1,-1,-1,-1,-1,-1,-1,-1,-1,-1,-1,-1,-1,-1,-1,-1,-1,-1,-1,-1,-1,-1],"split_conditions":[9.0851754E-2,1.3335214E-2,1.4677992E-1,4.216965E-5,3.831187E-1,3.831187E-1,2.3713738E-1,2.6101572E-5,3.831187E-1,9.0851754E-2,3.4807004E-2,3.4807004E-2,1.3335214E-2,3.831187E-1,3.831187E-1,1.615598E-5,8.254042E-3,1.1006941E-4,3.1622776E-3,4.216965E-5,3.4807004E-2,6.189658E-1,6.189658E-1,1.4677992E-1,1.4677992E-1,6.189658E-1,6.189658E-1,-1.4329569E-2,-2.5236076E-2,-2.5848059E-2,-3.280925E-2,-4.264711E-3,-2.4578588E-3,5.954667E-4,1.3850808E-4,6.812921E-5,5.1089698E-3,1.7782794E-4,6.189658E-1,2.6101572E-5,3.4807004E-2,2.1544347E-2,2.3713738E-1,-6.949387E-3,-1.2760281E-2,-1.2760845E-2,-2.014879E-2,2.6101572E-5,2.3713738E-1,-6.943339E-3,-1.2193748E-2,-9.067269E-3,1E0,-1.5309981E-2,-2.0130573E-2,3.5011612E-3,5.65468E-3,8.439939E-3,6.5237843E-3,6.4701783E-3,4.0196124E-3,2.2431799E-4,-5.292605E-3,-3.921658E-3,-5.878571E-4,5.489401E-3,1.8732203E-3,1.0252808E-3,-2.1399944E-3,-4.8237713E-3,-8.5941795E-3,-4.279834E-3,-1.413795E-3,-4.370691E-3,-6.8836757E-3,-1.3071911E-2,-1.612709E-2],"split_indices":[0,0,1,1,1,0,0,1,1,1,0,1,1,1,1,1,0,1,0,1,0,1,1,0,0,0,0,0,0,0,0,0,0,0,0,1,0,0,1,1,0,0,1,0,0,0,0,1,0,0,0,0,0,0,0,0,0,0,0,0,0,0,0,0,0,0,0,0,0,0,0,0,0,0,0,0,0],"split_type":[0,0,0,0,0,0,0,0,0,0,0,0,0,0,0,0,0,0,0,0,0,0,0,0,0,0,0,0,0,0,0,0,0,0,0,0,0,0,0,0,0,0,0,0,0,0,0,0,0,0,0,0,0,0,0,0,0,0,0,0,0,0,0,0,0,0,0,0,0,0,0,0,0,0,0,0,0],"sum_hessian":[2.826E3,2.11E3,7.16E2,1.648E3,4.62E2,5.7E2,1.46E2,2.09E2,1.439E3,4.03E2,5.9E1,2.82E2,2.88E2,4.8E1,9.8E1,1.35E2,7.4E1,1.233E3,2.06E2,3.47E2,5.6E1,3E1,2.9E1,2.38E2,4.4E1,2.17E2,7.1E1,1.9E1,2.9E1,3.9E1,5.9E1,7.5E1,6E1,7E1,4E0,1.32E2,1.101E3,1.63E2,4.3E1,5.6E1,2.91E2,2.7E1,2.9E1,1E1,2E1,9E0,2E1,7.7E1,1.61E2,1.5E1,2.9E1,7.4E1,1.43E2,2.4E1,4.7E1,6.9E1,6.3E1,9.47E2,1.54E2,8.6E1,7.7E1,1.5E1,2.8E1,3.8E1,1.8E1,1.44E2,1.47E2,1.3E1,1.4E1,2E1,9E0,1E1,6.7E1,8.1E1,8E1,7.3E1,7E1],"tree_param":{"num_deleted":"0","num_feature":"2","num_nodes":"77","size_leaf_vector":"1"}},{"base_weights":[-8.8021385E-5,4.1436315E-2,-1.2234435E-1,5.4127198E-2,-3.852457E-3,-8.968007E-2,-2.483917E-1,-1.850323E-2,6.4681545E-2,1.5656464E-2,-1.3514832E-1,-4.8978627E-2,-1.2922618E-1,-1.9250263E-1,-2.7354497E-1,-3.1420216E-2,5.166282E-3,7.017598E-2,3.161482E-2,2.5062801E-2,-2.5269087E-2,-1.00625545E-1,-1.663169E-1,-3.6417894E-2,-8.396207E-2,-1.13701366E-1,-1.6514808E-1,-1.2968262E-2,-2.2796588E-2,-2.3327876E-2,-2.9583005E-2,-3.8438512E-3,-2.2161023E-3,5.367603E-4,1.2742639E-4,4.1142713E-2,7.361632E-2,4.4972584E-2,-4.5673516E-2,-2.5991855E-2,3.563076E-2,1.6567949E-3,-4.95438E-2,-7.929057E-3,-1.3220819E-2,-1.16123725E-2,-1.8229855E-2,-2.5345925E-2,-5.773702E-3,-5.25518E-2,-9.7987965E-2,-7.952002E-3,-1.3045867E-1,-1.3410419E-2,-1.7882967E-2,3.1560452E-3,5.0980463E-3,7.6675885E-3,6.2002186E-3,5.122975E-3,8.313168E-4,-2.4660218E-3,-8.163768E-3,-3.5395508E-3,-5.3216313E-4,5.1081083E-3,2.0146165E-3,1.082898E-3,-2.100737E-3,-3.13376E-3,-6.618312E-3,-1.4313435E-3,-3.5566704E-3,-3.7020266E-3,-6.895372E-3,-7.972628E-3,-1.2139418E-2,-1.1553861E-2,-1.4409962E-2],"categories":[],"categories_nodes":[],"categories_segments":[],"categories_sizes":[],"default_left":[0,0,0,0,0,0,0,0,0,0,0,0,0,0,0,0,0,0,0,0,0,0,0,0,0,0,0,0,0,0,0,0,0,0,0,0,0,0,0,0,0,0,0,0,0,0,0,0,0,0,0,0,0,0,0,0,0,0,0,0,0,0,0,0,0,0,0,0,0,0,0,0,0,0,0,0,0,0,0],"id":1,"left_children":[1,3,5,7,9,11,13,15,17,19,21,23,25,27,29,31,33,35,37,39,41,43,45,47,49,51,53,-1,-1,-1,-1,-1,-1,-1,-1,55,57,59,61,63,65,67,69,-1,-1,-1,-1,71,-1,73,75,-1,77,-1,-1,-1,-1,-1,-1,-1,-1,-1,-1,-1,-1,-1,-1,-1,-1,-1,-1,-1,-1,-1,-1,-1,-1,-1,-1],"loss_changes":[1.4356655E1,1.2135155E0,2.9297895E0,1.265265E0,1.1880628E0,9.127431E-1,1.539936E-1,6.436747E-2,2.5940514E-1,1.5615699E-1,4.7825933E-2,1.2129748E-1,1.4239216E-1,7.959902E-2,1.9825459E-2,7.9859495E-3,5.1926356E-5,1.2022781E-1,2.1576068E-1,1.7843592E-1,4.975706E-2,1.0405421E-2,2.8958917E-3,4.8105985E-2,2.7451754E-2,1.0704732E-1,1.2120247E-2,0E0,0E0,0E0,0E0,0E0,0E0,0E0,0E0,1.0928661E-2,3.4404755E-2,4.017508E-2,2.1414287E-2,1.0891043E-2,6.428394E-2,7.919046E-3,1.0043532E-2,0E0,0E0,0E0,0E0,1.52774155E-2,0E0,3.8159862E-3,1.1693537E-2,0E0,1.1029959E-2,0E0,0E0,0E0,0E0,0E0,0E0,0E0,0E0,0E0,0E0,0E0,0E0,0E0,0E0,0E0,0E0,0E0,0E0,0E0,0E0,0E0,0E0,0E0,0E0,0E0,0E0],"parents":[2147483647,0,0,1,1,2,2,3,3,4,4,5,5,6,6,7,7,8,8,9,9,10,10,11,11,12,12,13,13,14,14,15,15,16,16,17,17,18,18,19,19,20,20,21,21,22,22,23,23,24,24,25,25,26,26,35,35,36,36,37,37,38,38,39,39,40,40,41,41,42,42,47,47,49,49,50,50,52,52],"right_children":[2,4,6,8,10,12,14,16,18,20,22,24,26,28,30,32,34,36,38,40,42,44,46,48,50,52,54,-1,-1,-1,-1,-1,-1,-1,-1,56,58,60,62,64,66,68,70,-1,-1,-1,-1,72,-1,74,76,-1,78,-1,-1,-1,-1,-1,-1,-1,-1,-1,-1,-1,-1,-1,-1,-1,-1,-1,-1,-1,-1,-1,-1,-1,-1,-1,-1],"split_conditions":[9.0851754E-2,1.3335214E-2,1.4677992E-1,4.216965E-5,3.831187E-1,3.831187E-1,2.3713738E-1,2.6101572E-5,3.831187E-1,5.6234132E-2,3.4807004E-2,1.3335214E-2,8.254042E-3,3.831187E-1,3.831187E-1,1.615598E-5,8.254042E-3,1.1006941E-4,5.1089698E-3,4.216965E-5,3.4807004E-2,1E0,6.189658E-1,2.3713738E-1,1.4677992E-1,6.189658E-1,6.189658E-1,-1.2968262E-2,-2.2796588E-2,-2.3327876E-2,-2.9583005E-2,-3.8438512E-3,-2.2161023E-3,5.367603E-4,1.2742639E-4,6.812921E-5,3.1622776E-3,1.9573418E-3,1E0,2.6101572E-5,3.4807004E-2,2.3713738E-1,1.4677992E-1,-7.929057E-3,-1.3220819E-2,-1.16123725E-2,-1.8229855E-2,1.4677992E-1,-5.773702E-3,5.6234132E-2,5.6234132E-2,-7.952002E-3,1E0,-1.3410419E-2,-1.7882967E-2,3.1560452E-3,5.0980463E-3,7.6675885E-3,6.2002186E-3,5.122975E-3,8.313168E-4,-2.4660218E-3,-8.163768E-3,-3.5395508E-3,-5.3216313E-4,5.1081083E-3,2.0146165E-3,1.082898E-3,-2.100737E-3,-3.13376E-3,-6.618312E-3,-1.4313435E-3,-3.5566704E-3,-3.7020266E-3,-6.895372E-3,-7.972628E-3,-1.2139418E-2,-1.1553861E-2,-1.4409962E-2],"split_indices":[0,0,1,1,1,0,0,1,1,1,0,1,1,1,1,1,0,1,0,1,0,1,1,0,0,0,0,0,0,0,0,0,0,0,0,1,0,0,1,1,0,1,1,0,0,0,0,0,0,1,1,0,0,0,0,0,0,0,0,0,0,0,0,0,0,0,0,0,0,0,0,0,0,0,0,0,0,0,0],"split_type":[0,0,0,0,0,0,0,0,0,0,0,0,0,0,0,0,0,0,0,0,0,0,0,0,0,0,0,0,0,0,0,0,0,0,0,0,0,0,0,0,0,0,0,0,0,0,0,0,0,0,0,0,0,0,0,0,0,0,0,0,0,0,0,0,0,0,0,0,0,0,0,0,0,0,0,0,0,0,0],"sum_hessian":[2.826E3,2.11E3,7.16E2,1.648E3,4.62E2,5.7E2,1.46E2,2.09E2,1.439E3,4.03E2,5.9E1,2.82E2,2.88E2,4.8E1,9.8E1,1.35E2,7.4E1,1.233E3,2.06E2,3.28E2,7.5E1,3E1,2.9E1,2.09E2,7.3E1,2.04E2,8.4E1,1.9E1,2.9E1,3.9E1,5.9E1,7.5E1,6E1,7E1,4E0,1.32E2,1.101E3,1.76E2,3E1,5.6E1,2.72E2,3.6E1,3.9E1,2E1,1E1,9E0,2E1,1.39E2,7E1,2.4E1,4.9E1,6.9E1,1.35E2,2.9E1,5.5E1,6.9E1,6.3E1,8.67E2,2.34E2,1.5E2,2.6E1,2E1,1E1,3.8E1,1.8E1,1.35E2,1.37E2,2.6E1,1E1,2E1,1.9E1,6.8E1,7.1E1,1.4E1,1E1,3E1,1.9E1,6.9E1,6.6E1],"tree_param":{"num_deleted":"0","num_feature":"2","num_nodes":"79","size_leaf_vector":"1"}},{"base_weights":[-1.648314E-4,3.7270576E-2,-1.1038238E-1,4.8721783E-2,-3.5940243E-3,-8.089889E-2,-2.2415578E-1,-1.6678598E-2,5.8225505E-2,1.7188434E-2,-1.0483013E-1,-4.4227295E-2,-1.1652921E-1,-1.873745E-1,-2.5790796E-2,-2.8322758E-2,4.658528E-3,6.3176304E-2,2.8430765E-2,-2.3464099E-2,2.4179334E-2,-6.679368E-2,-1.384543E-1,-3.2827344E-2,-7.598084E-2,-1.03957325E-1,-1.5297562E-1,-1.3243678E-1,-2.1983577E-2,-3.4645244E-3,-1.9981253E-3,4.838423E-4,1.17231604E-4,4.5363393E-2,6.7954294E-2,4.050898E-2,-4.1449066E-2,-3.19467E-2,-4.817489E-3,3.39195E-2,-1.04426015E-2,-3.9320096E-2,-9.364377E-3,-1.0537875E-2,-1.6493682E-2,-2.2846961E-2,-5.2044615E-3,-4.7720507E-2,-8.85914E-2,-7.3516443E-3,-1.1909003E-1,-1.286327E-2,-1.6640149E-2,-8.99452E-3,-1.46364365E-2,2.8449472E-3,5.1202425E-3,7.1392143E-3,5.5078566E-3,4.7777942E-3,1.4418344E-3,-2.2311625E-3,-7.421609E-3,-3.773046E-3,-2.3872724E-3,3.2998458E-5,-8.5911044E-4,4.1918657E-3,1.0609657E-3,1.3128861E-3,-2.9160057E-3,-1.9097583E-3,-5.596806E-3,-1.2902833E-3,-3.2059432E-3,-2.7369242E-3,-5.745752E-3,-7.2010825E-3,-1.0986172E-2,-1.06084E-2,-1.3096827E-2],"categories":[],"categories_nodes":[],"categories_segments":[],"categories_sizes":[],"default_left":[0,0,0,0,0,0,0,0,0,0,0,0,0,0,0,0,0,0,0,0,0,0,0,0,0,0,0,0,0,0,0,0,0,0,0,0,0,0,0,0,0,0,0,0,0,0,0,0,0,0,0,0,0,0,0,0,0,0,0,0,0,0,0,0,0,0,0,0,0,0,0,0,0,0,0,0,0,0,0,0,0],"id":2,"left_children":[1,3,5,7,9,11,13,15,17,19,21,23,25,27,-1,29,31,33,35,37,39,41,43,45,47,49,51,53,-1,-1,-1,-1,-1,55,57,59,61,63,65,67,69,71,-1,-1,-1,73,-1,75,77,-1,79,-1,-1,-1,-1,-1,-1,-1,-1,-1,-1,-1,-1,-1,-1,-1,-1,-1,-1,-1,-1,-1,-1,-1,-1,-1,-1,-1,-1,-1,-1],"loss_changes":[1.16684265E1,9.880154E-1,2.3869972E0,1.0259023E0,9.7592384E-1,7.409265E-1,1.341672E-1,5.230705E-2,2.1061468E-1,1.099835E-1,9.178871E-2,9.9948645E-2,1.16517305E-1,1.0285306E-1,0E0,6.4802542E-3,4.1364343E-5,1.01943016E-1,1.7639194E-1,8.861888E-3,1.1130066E-1,2.508697E-2,1.8532038E-2,3.908804E-2,2.2144347E-2,9.1667175E-2,2.126813E-3,4.589379E-3,0E0,0E0,0E0,0E0,0E0,2.4616182E-2,3.904915E-2,3.287947E-2,1.7783504E-2,9.2048943E-4,3.7190202E-4,4.747528E-2,3.2590274E-2,6.0010813E-3,0E0,0E0,0E0,1.2411743E-2,0E0,3.381446E-3,9.722501E-3,0E0,8.352518E-3,0E0,0E0,0E0,0E0,0E0,0E0,0E0,0E0,0E0,0E0,0E0,0E0,0E0,0E0,0E0,0E0,0E0,0E0,0E0,0E0,0E0,0E0,0E0,0E0,0E0,0E0,0E0,0E0,0E0,0E0],"parents":[2147483647,0,0,1,1,2,2,3,3,4,4,5,5,6,6,7,7,8,8,9,9,10,10,11,11,12,12,13,13,15,15,16,16,17,17,18,18,19,19,20,20,21,21,22,22,23,23,24,24,25,25,26,26,27,27,33,33,34,34,35,35,36,36,37,37,38,38,39,39,40,40,41,41,45,45,47,47,48,48,50,50],"right_children":[2,4,6,8,10,12,14,16,18,20,22,24,26,28,-1,30,32,34,36,38,40,42,44,46,48,50,52,54,-1,-1,-1,-1,-1,56,58,60,62,64,66,68,70,72,-1,-1,-1,74,-1,76,78,-1,80,-1,-1,-1,-1,-1,-1,-1,-1,-1,-1,-1,-1,-1,-1,-1,-1,-1,-1,-1,-1,-1,-1,-1,-1,-1,-1,-1,-1,-1,-1],"split_conditions":[9.0851754E-2,1.3335214E-2,1.4677992E-1,4.216965E-5,2.3713738E-1,3.831187E-1,3.831187E-1,2.6101572E-5,3.831187E-1,4.216965E-5,6.189658E-1,1.3335214E-2,1.3335214E-2,3.831187E-1,-2.5790796E-2,1.615598E-5,8.254042E-3,2.872985E-4,5.1089698E-3,2.6101572E-5,3.4807004E-2,3.4807004E-2,3.4807004E-2,2.3713738E-1,1.4677992E-1,6.189658E-1,3.4807004E-2,1.4677992E-1,-2.1983577E-2,-3.4645244E-3,-1.9981253E-3,4.838423E-4,1.17231604E-4,6.812921E-5,9.0851754E-2,1.2115276E-3,1E0,1.615598E-5,3.4807004E-2,5.6234132E-2,3.4807004E-2,3.831187E-1,-9.364377E-3,-1.0537875E-2,-1.6493682E-2,1.4677992E-1,-5.2044615E-3,3.4807004E-2,5.6234132E-2,-7.3516443E-3,1E0,-1.286327E-2,-1.6640149E-2,-8.99452E-3,-1.46364365E-2,2.8449472E-3,5.1202425E-3,7.1392143E-3,5.5078566E-3,4.7777942E-3,1.4418344E-3,-2.2311625E-3,-7.421609E-3,-3.773046E-3,-2.3872724E-3,3.2998458E-5,-8.5911044E-4,4.1918657E-3,1.0609657E-3,1.3128861E-3,-2.9160057E-3,-1.9097583E-3,-5.596806E-3,-1.2902833E-3,-3.2059432E-3,-2.7369242E-3,-5.745752E-3,-7.2010825E-3,-1.0986172E-2,-1.06084E-2,-1.3096827E-2],"split_indices":[0,0,1,1,1,0,0,1,1,1,1,1,1,1,0,1,0,1,0,1,1,0,0,0,0,0,1,0,0,0,0,0,0,1,1,0,1,1,0,0,0,1,0,0,0,0,0,1,1,0,0,0,0,0,0,0,0,0,0,0,0,0,0,0,0,0,0,0,0,0,0,0,0,0,0,0,0,0,0,0,0],"split_type":[0,0,0,0,0,0,0,0,0,0,0,0,0,0,0,0,0,0,0,0,0,0,0,0,0,0,0,0,0,0,0,0,0,0,0,0,0,0,0,0,0,0,0,0,0,0,0,0,0,0,0,0,0,0,0,0,0,0,0,0,0,0,0,0,0,0,0,0,0,0,0,0,0,0,0,0,0,0,0,0,0],"sum_hessian":[2.826E3,2.11E3,7.16E2,1.648E3,4.62E2,5.7E2,1.46E2,2.09E2,1.439E3,3.84E2,7.8E1,2.82E2,2.88E2,7.3E1,7.3E1,1.35E2,7.4E1,1.233E3,2.06E2,5.6E1,3.28E2,3.8E1,4E1,2.09E2,7.3E1,2.17E2,7.1E1,2.9E1,4.4E1,7.5E1,6E1,7E1,4E0,2.63E2,9.7E2,1.76E2,3E1,3.8E1,1.8E1,2.56E2,7.2E1,2E1,1.8E1,2E1,2E1,1.39E2,7E1,2.4E1,4.9E1,7.4E1,1.43E2,2.9E1,4.2E1,9E0,2E1,6.9E1,1.94E2,7.62E2,2.08E2,1.37E2,3.9E1,2E1,1E1,2E1,1.8E1,8E0,1E1,1.9E2,6.6E1,3.2E1,4E1,1E1,1E1,6.8E1,7.1E1,9E0,1.5E1,3E1,1.9E1,7.3E1,7E1],"tree_param":{"num_deleted":"0","num_feature":"2","num_nodes":"81","size_leaf_vector":"1"}},{"base_weights":[-2.2024564E-4,3.3526983E-2,-9.957893E-2,4.5545742E-2,1.4952224E-3,-7.297877E-2,-2.0222595E-1,-1.4718538E-2,5.4378092E-2,1.66241E-2,-9.998906E-2,-3.9933093E-2,-1.0508586E-1,-1.7426604E-1,-2.3878803E-2,-2.5269363E-2,4.361368E-4,5.887456E-2,3.5310052E-2,-2.097517E-2,2.2650195E-2,-6.032037E-2,-1.250944E-1,-3.08869E-2,-7.303999E-2,-9.223506E-2,-1.3484263E-1,-1.3490587E-1,-2.0966563E-2,-3.1148551E-3,-1.7502841E-3,4.0942736E-2,6.4046904E-2,4.3945957E-2,4.0861415E-3,-2.8967686E-2,-3.3831752E-3,3.2477852E-2,-1.3242163E-2,-2.6768534E-2,-7.502274E-3,-8.8512255E-3,-1.3876013E-2,-1.2099571E-2,-3.9706558E-2,-5.8766946E-2,-9.674867E-3,-6.443503E-3,-1.058657E-1,-1.0786238E-2,-1.4688845E-2,-9.201051E-2,-1.5392035E-2,2.574312E-3,4.617496E-3,5.5062314E-3,6.5559535E-3,5.1809936E-3,3.6335092E-3,1.6280188E-3,-3.452987E-3,-3.3789668E-3,-2.2257285E-3,6.2294646E-5,-7.810122E-4,4.346741E-3,1.5997082E-3,1.6967759E-3,-3.1450891E-3,-1.5001744E-3,-3.40739E-3,-3.6433376E-3,-7.658754E-4,-3.025242E-3,-4.8762644E-3,-4.9548885E-3,-8.146626E-3,-9.369296E-3,-1.1700341E-2,-5.726863E-3,-1.0259605E-2],"categories":[],"categories_nodes":[],"categories_segments":[],"categories_sizes":[],"default_left":[0,0,0,0,0,0,0,0,0,0,0,0,0,0,0,0,0,0,0,0,0,0,0,0,0,0,0,0,0,0,0,0,0,0,0,0,0,0,0,0,0,0,0,0,0,0,0,0,0,0,0,0,0,0,0,0,0,0,0,0,0,0,0,0,0,0,0,0,0,0,0,0,0,0,0,0,0,0,0,0,0],"id":3,"left_children":[1,3,5,7,9,11,13,15,17,19,21,23,25,27,-1,29,-1,31,33,35,37,39,41,43,45,47,49,51,-1,-1,-1,53,55,57,59,61,63,65,67,69,-1,-1,-1,71,73,75,-1,-1,77,-1,-1,79,-1,-1,-1,-1,-1,-1,-1,-1,-1,-1,-1,-1,-1,-1,-1,-1,-1,-1,-1,-1,-1,-1,-1,-1,-1,-1,-1,-1,-1],"loss_changes":[9.482496E0,8.12629E-1,1.9429584E0,8.1784296E-1,8.8755536E-1,6.01635E-1,1.08661175E-1,3.976803E-2,1.12725735E-1,1.1444318E-1,6.714642E-2,8.25001E-2,9.807587E-2,9.293485E-2,0E0,5.2537397E-3,0E0,9.7732306E-2,6.938931E-2,9.744298E-3,1.5351832E-1,1.3283797E-2,1.0214508E-2,3.663589E-2,1.4618069E-2,7.085967E-2,1.1781216E-2,2.1725535E-2,0E0,0E0,0E0,1.8295616E-2,7.7791214E-3,1.0207504E-2,2.7402617E-2,8.0109015E-4,4.127676E-4,6.1065286E-2,5.224157E-2,4.3439958E-4,0E0,0E0,0E0,7.6094912E-3,1.1538655E-2,4.333183E-3,0E0,0E0,7.475972E-3,0E0,0E0,8.6426735E-6,0E0,0E0,0E0,0E0,0E0,0E0,0E0,0E0,0E0,0E0,0E0,0E0,0E0,0E0,0E0,0E0,0E0,0E0,0E0,0E0,0E0,0E0,0E0,0E0,0E0,0E0,0E0,0E0,0E0],"parents":[2147483647,0,0,1,1,2,2,3,3,4,4,5,5,6,6,7,7,8,8,9,9,10,10,11,11,12,12,13,13,15,15,17,17,18,18,19,19,20,20,21,21,22,22,23,23,24,24,25,25,26,26,27,27,31,31,32,32,33,33,34,34,35,35,36,36,37,37,38,38,39,39,43,43,44,44,45,45,48,48,51,51],"right_children":[2,4,6,8,10,12,14,16,18,20,22,24,26,28,-1,30,-1,32,34,36,38,40,42,44,46,48,50,52,-1,-1,-1,54,56,58,60,62,64,66,68,70,-1,-1,-1,72,74,76,-1,-1,78,-1,-1,80,-1,-1,-1,-1,-1,-1,-1,-1,-1,-1,-1,-1,-1,-1,-1,-1,-1,-1,-1,-1,-1,-1,-1,-1,-1,-1,-1,-1,-1],"split_conditions":[9.0851754E-2,8.254042E-3,1.4677992E-1,4.216965E-5,3.831187E-1,3.831187E-1,6.189658E-1,2.6101572E-5,2.3713738E-1,4.216965E-5,2.1544347E-2,2.1544347E-2,8.254042E-3,3.831187E-1,-2.3878803E-2,1.615598E-5,4.361368E-4,2.872985E-4,1.9573418E-3,2.6101572E-5,5.6234132E-2,6.189658E-1,6.189658E-1,1.4677992E-1,2.3713738E-1,6.189658E-1,6.189658E-1,2.3713738E-1,-2.0966563E-2,-3.1148551E-3,-1.7502841E-3,6.812921E-5,7.498942E-4,1.1006941E-4,1E0,1.615598E-5,3.4807004E-2,3.4807004E-2,2.1544347E-2,1.3335214E-2,-7.502274E-3,-8.8512255E-3,-1.3876013E-2,2.6101572E-5,2.3713738E-1,9.0851754E-2,-9.674867E-3,-6.443503E-3,1E0,-1.0786238E-2,-1.4688845E-2,1.4677992E-1,-1.5392035E-2,2.574312E-3,4.617496E-3,5.5062314E-3,6.5559535E-3,5.1809936E-3,3.6335092E-3,1.6280188E-3,-3.452987E-3,-3.3789668E-3,-2.2257285E-3,6.2294646E-5,-7.810122E-4,4.346741E-3,1.5997082E-3,1.6967759E-3,-3.1450891E-3,-1.5001744E-3,-3.40739E-3,-3.6433376E-3,-7.658754E-4,-3.025242E-3,-4.8762644E-3,-4.9548885E-3,-8.146626E-3,-9.369296E-3,-1.1700341E-2,-5.726863E-3,-1.0259605E-2],"split_indices":[0,0,1,1,1,0,1,1,1,1,0,1,1,0,0,1,0,1,0,1,1,1,1,0,0,0,0,1,0,0,0,1,1,0,1,1,0,0,0,0,0,0,0,1,0,1,0,0,0,0,0,0,0,0,0,0,0,0,0,0,0,0,0,0,0,0,0,0,0,0,0,0,0,0,0,0,0,0,0,0,0],"split_type":[0,0,0,0,0,0,0,0,0,0,0,0,0,0,0,0,0,0,0,0,0,0,0,0,0,0,0,0,0,0,0,0,0,0,0,0,0,0,0,0,0,0,0,0,0,0,0,0,0,0,0,0,0,0,0,0,0,0,0,0,0,0,0,0,0,0,0,0,0,0,0,0,0,0,0,0,0,0,0,0,0],"sum_hessian":[2.826E3,2.11E3,7.16E2,1.534E3,5.76E2,5.7E2,1.46E2,1.96E2,1.338E3,5.02E2,7.4E1,2.82E2,2.88E2,8.6E1,6E1,1.26E2,7E1,1.081E3,2.57E2,6.9E1,4.33E2,3E1,4.4E1,2.23E2,5.9E1,2.04E2,8.4E1,4.3E1,4.3E1,7E1,5.6E1,2.44E2,8.37E2,2.01E2,5.6E1,4.7E1,2.2E1,3.4E2,9.3E1,1E1,2E1,1.4E1,3E1,7.2E1,1.51E2,3.9E1,2E1,6.9E1,1.35E2,2.9E1,5.5E1,1.5E1,2.8E1,6.4E1,1.8E2,1.26E2,7.11E2,9.6E1,1.05E2,4.3E1,1.3E1,2.5E1,2.2E1,1.2E1,1E1,2.03E2,1.37E2,3.5E1,5.8E1,5E0,5E0,1E1,6.2E1,7.6E1,7.5E1,3E1,9E0,6.9E1,6.6E1,5E0,1E1],"tree_param":{"num_deleted":"0","num_feature":"2","num_nodes":"81","size_leaf_vector":"1"}},{"base_weights":[-2.6170214E-4,3.0167101E-2,-8.985019E-2,3.804558E-2,-9.581621E-3,-6.289155E-2,-1.7298554E-1,-1.3745001E-2,4.5520425E-2,8.5840365E-3,-9.9323824E-2,-3.3021774E-2,-9.1880925E-2,-1.2415693E-1,-1.9552007E-1,-2.3093285E-2,3.5872308E-3,5.0289016E-2,1.6983055E-2,1.4717726E-2,-1.6415982E-2,-6.8097316E-2,-1.2533173E-2,-2.3945473E-2,-5.0512284E-2,-6.714938E-2,-1.0414952E-1,-8.88043E-2,-1.5644735E-2,-1.5508291E-1,-2.127892E-2,-2.8255347E-3,-1.6305279E-3,3.9313833E-4,4.7367148E-4,2.8767962E-2,5.2840546E-2,3.2766253E-2,-4.411714E-2,-1.9923775E-2,2.2579748E-2,-4.2151697E-3,-3.7711926E-2,-4.2919647E-2,-7.908979E-3,-1.8482637E-2,-4.2466763E-2,-4.0866425E-3,-7.3055155E-3,-5.808358E-3,-8.984765E-3,-9.0700775E-2,-1.2212705E-2,-5.979494E-3,-1.0031923E-2,-1.2512776E-2,-1.7480029E-2,1.0286927E-4,-1.7608405E-5,2.2166956E-3,3.5625428E-3,5.5830437E-3,4.034161E-3,4.0031774E-3,1.5012361E-3,-2.6924384E-3,-7.4670794E-3,-2.6721086E-3,-5.0009013E-4,3.015929E-3,7.9886767E-4,6.3858664E-4,-1.4075396E-3,-2.6209203E-3,-4.5786295E-3,-2.6855867E-3,-5.1830155E-3,-1.0459485E-3,-2.5914786E-3,-3.1065356E-3,-5.130302E-3,-8.108698E-3,-9.914742E-3],"categories":[],"categories_nodes":[],"categories_segments":[],"categories_sizes":[],"default_left":[0,0,0,0,0,0,0,0,0,0,0,0,0,0,0,0,0,0,0,0,0,0,0,0,0,0,0,0,0,0,0,0,0,0,0,0,0,0,0,0,0,0,0,0,0,0,0,0,0,0,0,0,0,0,0,0,0,0,0,0,0,0,0,0,0,0,0,0,0,0,0,0,0,0,0,0,0,0,0,0,0,0,0],"id":4,"left_children":[1,3,5,7,9,11,13,15,17,19,21,23,25,27,29,31,33,35,37,39,41,43,-1,45,47,49,51,53,-1,55,-1,-1,-1,-1,57,59,61,63,65,67,69,71,73,75,-1,77,79,-1,-1,-1,-1,81,-1,-1,-1,-1,-1,-1,-1,-1,-1,-1,-1,-1,-1,-1,-1,-1,-1,-1,-1,-1,-1,-1,-1,-1,-1,-1,-1,-1,-1,-1,-1],"loss_changes":[7.709311E0,6.614444E-1,1.5960732E0,6.8274236E-1,5.714317E-1,4.6715307E-1,1.6828203E-1,3.621478E-2,2.0871401E-1,4.501757E-2,3.9381266E-2,4.1493982E-2,7.644725E-2,5.2316785E-2,4.940176E-2,4.620105E-3,8.2789455E-5,7.090831E-2,2.1553269E-1,6.445266E-2,1.491105E-2,4.6316683E-3,0E0,1.7326102E-2,1.6802028E-2,1.4124483E-2,3.29262E-2,4.022628E-3,0E0,1.1625886E-3,0E0,0E0,0E0,0E0,3.4267894E-6,5.6380928E-3,4.177022E-2,2.2230476E-2,2.21534E-2,4.329527E-3,2.0993032E-2,4.0619704E-3,7.504001E-4,1.8255785E-4,0E0,8.07704E-3,2.4360865E-3,0E0,0E0,0E0,0E0,7.305145E-4,0E0,0E0,0E0,0E0,0E0,0E0,0E0,0E0,0E0,0E0,0E0,0E0,0E0,0E0,0E0,0E0,0E0,0E0,0E0,0E0,0E0,0E0,0E0,0E0,0E0,0E0,0E0,0E0,0E0,0E0,0E0],"parents":[2147483647,0,0,1,1,2,2,3,3,4,4,5,5,6,6,7,7,8,8,9,9,10,10,11,11,12,12,13,13,14,14,15,15,16,16,17,17,18,18,19,19,20,20,21,21,23,23,24,24,25,25,26,26,27,27,29,29,34,34,35,35,36,36,37,37,38,38,39,39,40,40,41,41,42,42,43,43,45,45,46,46,51,51],"right_children":[2,4,6,8,10,12,14,16,18,20,22,24,26,28,30,32,34,36,38,40,42,44,-1,46,48,50,52,54,-1,56,-1,-1,-1,-1,58,60,62,64,66,68,70,72,74,76,-1,78,80,-1,-1,-1,-1,82,-1,-1,-1,-1,-1,-1,-1,-1,-1,-1,-1,-1,-1,-1,-1,-1,-1,-1,-1,-1,-1,-1,-1,-1,-1,-1,-1,-1,-1,-1,-1],"split_conditions":[9.0851754E-2,2.1544347E-2,9.0851754E-2,4.216965E-5,2.3713738E-1,3.831187E-1,2.3713738E-1,2.6101572E-5,3.831187E-1,3.4807004E-2,6.189658E-1,2.3713738E-1,6.189658E-1,3.831187E-1,2.3713738E-1,1.615598E-5,8.254042E-3,1.1006941E-4,5.1089698E-3,4.216965E-5,5.6234132E-2,3.4807004E-2,-1.2533173E-2,1.3335214E-2,8.254042E-3,8.254042E-3,1.9573418E-3,1.4677992E-1,-1.5644735E-2,6.189658E-1,-2.127892E-2,-2.8255347E-3,-1.6305279E-3,3.9313833E-4,1.3335214E-2,6.812921E-5,5.1089698E-3,7.498942E-4,1E0,2.6101572E-5,5.6234132E-2,9.0851754E-2,9.0851754E-2,3.831187E-1,-7.908979E-3,1.4677992E-1,1.4677992E-1,-4.0866425E-3,-7.3055155E-3,-5.808358E-3,-8.984765E-3,1E0,-1.2212705E-2,-5.979494E-3,-1.0031923E-2,-1.2512776E-2,-1.7480029E-2,1.0286927E-4,-1.7608405E-5,2.2166956E-3,3.5625428E-3,5.5830437E-3,4.034161E-3,4.0031774E-3,1.5012361E-3,-2.6924384E-3,-7.4670794E-3,-2.6721086E-3,-5.0009013E-4,3.015929E-3,7.9886767E-4,6.3858664E-4,-1.4075396E-3,-2.6209203E-3,-4.5786295E-3,-2.6855867E-3,-5.1830155E-3,-1.0459485E-3,-2.5914786E-3,-3.1065356E-3,-5.130302E-3,-8.108698E-3,-9.914742E-3],"split_indices":[0,0,1,1,1,0,1,1,1,1,1,0,0,0,0,1,0,1,0,1,0,0,0,1,1,1,1,0,0,1,0,0,0,0,0,1,0,0,1,1,0,1,1,1,0,0,0,0,0,0,0,0,0,0,0,0,0,0,0,0,0,0,0,0,0,0,0,0,0,0,0,0,0,0,0,0,0,0,0,0,0,0,0],"split_type":[0,0,0,0,0,0,0,0,0,0,0,0,0,0,0,0,0,0,0,0,0,0,0,0,0,0,0,0,0,0,0,0,0,0,0,0,0,0,0,0,0,0,0,0,0,0,0,0,0,0,0,0,0,0,0,0,0,0,0,0,0,0,0,0,0,0,0,0,0,0,0,0,0,0,0,0,0,0,0,0,0,0,0],"sum_hessian":[2.826E3,2.11E3,7.16E2,1.761E3,3.49E2,5.42E2,1.74E2,2.22E2,1.539E3,2.91E2,5.8E1,2.68E2,2.74E2,5.7E1,1.17E2,1.44E2,7.8E1,1.318E3,2.21E2,2.34E2,5.7E1,2.8E1,3E1,1.78E2,9E1,9.3E1,1.81E2,2.9E1,2.8E1,3.8E1,7.9E1,8E1,6.4E1,7E1,8E0,1.41E2,1.177E3,1.76E2,4.5E1,4.3E1,1.91E2,3.7E1,2E1,1E1,1.8E1,1.39E2,3.9E1,6.5E1,2.5E1,6.9E1,2.4E1,1.07E2,7.4E1,1E1,1.9E1,1.8E1,2E1,4E0,4E0,7.4E1,6.7E1,9.47E2,2.3E2,1.24E2,5.2E1,3E1,1.5E1,2.9E1,1.4E1,1.25E2,6.6E1,1.8E1,1.9E1,1E1,1E1,5E0,5E0,6.8E1,7.1E1,1.9E1,2E1,5.5E1,5.2E1],"tree_param":{"num_deleted":"0","num_feature":"2","num_nodes":"83","size_leaf_vector":"1"}},{"base_weights":[-2.9924032E-4,2.7136711E-2,-8.1076086E-2,3.696698E-2,9.381027E-4,-5.6728177E-2,-1.5616086E-1,-1.1941341E-2,4.4134997E-2,1.5572624E-2,-6.98788E-2,-2.9806098E-2,-8.285658E-2,-1.1228703E-1,-1.7640257E-1,-2.0504344E-2,3.5437683E-4,4.6582878E-2,2.0407297E-2,-1.7175803E-2,2.1125836E-2,-4.2548504E-2,-9.476715E-2,-2.1617262E-2,-4.558627E-2,-6.0591824E-2,-9.390071E-2,-8.0457576E-2,-1.4134209E-2,-1.4034367E-1,-1.9177627E-2,-2.5291783E-3,-1.4181319E-3,3.273845E-2,5.00352E-2,2.9928902E-2,-1.5966382E-2,-2.3712827E-2,-2.786543E-3,3.1766098E-2,5.6097093E-3,-1.3893323E-2,-6.1831616E-2,-7.185516E-2,-1.2407691E-2,-1.6660351E-2,-3.8426016E-2,-3.7850165E-3,-6.957089E-3,-5.2358205E-3,-8.122229E-3,-8.1797585E-2,-1.100772E-2,-5.4359054E-3,-9.078889E-3,-1.1327353E-2,-1.5815265E-2,2.1025806E-3,3.6763777E-3,5.3104814E-3,3.781411E-3,4.312496E-3,2.3745706E-3,-1.2777661E-4,-2.9514541E-3,-2.7912273E-3,-1.7934636E-3,6.9307825E-5,-6.6455005E-4,3.4819343E-3,4.944038E-4,1.6279275E-3,-1.989605E-3,-4.4335073E-4,-2.209011E-3,-3.934299E-3,-7.1597057E-3,-5.4987455E-3,-8.423191E-3,-3.35607E-3,-1.3563954E-3,-2.811415E-3,-4.641703E-3,-7.31231E-3,-8.941974E-3],"categories":[],"categories_nodes":[],"categories_segments":[],"categories_sizes":[],"default_left":[0,0,0,0,0,0,0,0,0,0,0,0,0,0,0,0,0,0,0,0,0,0,0,0,0,0,0,0,0,0,0,0,0,0,0,0,0,0,0,0,0,0,0,0,0,0,0,0,0,0,0,0,0,0,0,0,0,0,0,0,0,0,0,0,0,0,0,0,0,0,0,0,0,0,0,0,0,0,0,0,0,0,0,0,0],"id":5,"left_children":[1,3,5,7,9,11,13,15,17,19,21,23,25,27,29,31,-1,33,35,37,39,41,43,45,47,49,51,53,-1,55,-1,-1,-1,57,59,61,63,65,67,69,71,73,75,77,-1,79,81,-1,-1,-1,-1,83,-1,-1,-1,-1,-1,-1,-1,-1,-1,-1,-1,-1,-1,-1,-1,-1,-1,-1,-1,-1,-1,-1,-1,-1,-1,-1,-1,-1,-1,-1,-1,-1,-1],"loss_changes":[6.267368E0,5.436311E-1,1.30193E0,5.386605E-1,5.990746E-1,3.7949347E-1,1.3560677E-1,2.6194671E-2,7.682204E-2,8.747331E-2,6.330818E-2,3.3775046E-2,6.193137E-2,4.2266786E-2,3.8499832E-2,3.4857579E-3,0E0,5.6337833E-2,4.446249E-2,6.5183267E-3,6.751102E-2,2.6216447E-2,2.5333256E-2,1.4273994E-2,1.425156E-2,1.1714518E-2,2.6628971E-2,3.1537712E-3,0E0,8.870959E-4,0E0,0E0,0E0,1.07780695E-2,3.4342766E-2,7.2169453E-3,5.3353873E-3,6.6413544E-4,3.1344325E-4,1.9728199E-2,4.6042632E-2,1.5304051E-3,3.551893E-3,1.8400848E-3,0E0,6.871011E-3,1.9911192E-3,0E0,0E0,0E0,0E0,6.021261E-4,0E0,0E0,0E0,0E0,0E0,0E0,0E0,0E0,0E0,0E0,0E0,0E0,0E0,0E0,0E0,0E0,0E0,0E0,0E0,0E0,0E0,0E0,0E0,0E0,0E0,0E0,0E0,0E0,0E0,0E0,0E0,0E0,0E0],"parents":[2147483647,0,0,1,1,2,2,3,3,4,4,5,5,6,6,7,7,8,8,9,9,10,10,11,11,12,12,13,13,14,14,15,15,17,17,18,18,19,19,20,20,21,21,22,22,23,23,24,24,25,25,26,26,27,27,29,29,33,33,34,34,35,35,36,36,37,37,38,38,39,39,40,40,41,41,42,42,43,43,45,45,46,46,51,51],"right_children":[2,4,6,8,10,12,14,16,18,20,22,24,26,28,30,32,-1,34,36,38,40,42,44,46,48,50,52,54,-1,56,-1,-1,-1,58,60,62,64,66,68,70,72,74,76,78,-1,80,82,-1,-1,-1,-1,84,-1,-1,-1,-1,-1,-1,-1,-1,-1,-1,-1,-1,-1,-1,-1,-1,-1,-1,-1,-1,-1,-1,-1,-1,-1,-1,-1,-1,-1,-1,-1,-1,-1],"split_conditions":[9.0851754E-2,8.254042E-3,9.0851754E-2,4.216965E-5,2.3713738E-1,3.831187E-1,2.3713738E-1,2.6101572E-5,6.189658E-1,4.216965E-5,6.189658E-1,2.3713738E-1,6.189658E-1,3.831187E-1,2.3713738E-1,1.615598E-5,3.5437683E-4,2.872985E-4,1.9573418E-3,2.6101572E-5,3.4807004E-2,2.1544347E-2,3.4807004E-2,1.3335214E-2,1.3335214E-2,8.254042E-3,1.9573418E-3,1.4677992E-1,-1.4134209E-2,6.189658E-1,-1.9177627E-2,-2.5291783E-3,-1.4181319E-3,6.812921E-5,1.4677992E-1,4.216965E-5,1E0,1.615598E-5,3.4807004E-2,9.0851754E-2,2.1544347E-2,3.831187E-1,3.4807004E-2,1E0,-1.2407691E-2,2.6101572E-5,1.4677992E-1,-3.7850165E-3,-6.957089E-3,-5.2358205E-3,-8.122229E-3,1E0,-1.100772E-2,-5.4359054E-3,-9.078889E-3,-1.1327353E-2,-1.5815265E-2,2.1025806E-3,3.6763777E-3,5.3104814E-3,3.781411E-3,4.312496E-3,2.3745706E-3,-1.2777661E-4,-2.9514541E-3,-2.7912273E-3,-1.7934636E-3,6.9307825E-5,-6.6455005E-4,3.4819343E-3,4.944038E-4,1.6279275E-3,-1.989605E-3,-4.4335073E-4,-2.209011E-3,-3.934299E-3,-7.1597057E-3,-5.4987455E-3,-8.423191E-3,-3.35607E-3,-1.3563954E-3,-2.811415E-3,-4.641703E-3,-7.31231E-3,-8.941974E-3],"split_indices":[0,0,1,1,1,0,1,1,1,1,1,0,0,0,0,1,0,1,0,1,0,0,0,1,1,1,1,0,0,1,0,0,0,1,1,0,1,1,0,1,1,1,0,1,0,1,0,0,0,0,0,0,0,0,0,0,0,0,0,0,0,0,0,0,0,0,0,0,0,0,0,0,0,0,0,0,0,0,0,0,0,0,0,0,0],"split_type":[0,0,0,0,0,0,0,0,0,0,0,0,0,0,0,0,0,0,0,0,0,0,0,0,0,0,0,0,0,0,0,0,0,0,0,0,0,0,0,0,0,0,0,0,0,0,0,0,0,0,0,0,0,0,0,0,0,0,0,0,0,0,0,0,0,0,0,0,0,0,0,0,0,0,0,0,0,0,0,0,0,0,0,0,0],"sum_hessian":[2.826E3,2.11E3,7.16E2,1.534E3,5.76E2,5.42E2,1.74E2,1.96E2,1.338E3,4.78E2,9.8E1,2.68E2,2.74E2,5.7E1,1.17E2,1.26E2,7E1,1.212E3,1.26E2,6.9E1,4.09E2,4.8E1,5E1,1.78E2,9E1,9.3E1,1.81E2,2.9E1,2.8E1,3.8E1,7.9E1,7E1,5.6E1,2.44E2,9.68E2,1E2,2.6E1,4.7E1,2.2E1,2.42E2,1.67E2,2E1,2.8E1,3E1,2E1,1.39E2,3.9E1,7E1,2E1,6.9E1,2.4E1,1.07E2,7.4E1,1E1,1.9E1,1.8E1,2E1,6.4E1,1.8E2,7.71E2,1.97E2,3E1,7E1,1.3E1,1.3E1,2.5E1,2.2E1,1.2E1,1E1,2.17E2,2.5E1,1.18E2,4.9E1,1E1,1E1,1E1,1.8E1,1.5E1,1.5E1,2E1,1.19E2,1.9E1,2E1,5.5E1,5.2E1],"tree_param":{"num_deleted":"0","num_feature":"2","num_nodes":"85","size_leaf_vector":"1"}},{"base_weights":[-3.2776868E-4,2.441037E-2,-7.316164E-2,3.0859571E-2,-8.126492E-3,-5.1172353E-2,-1.4097318E-1,-1.1162502E-2,3.692455E-2,6.7539397E-3,-8.163428E-2,-2.691063E-2,-7.471865E-2,-1.20183766E-1,-1.778553E-1,-1.875454E-2,2.913549E-3,4.161669E-2,1.7229056E-2,1.1871292E-2,-1.4096608E-2,-5.6030996E-2,-1.0295237E-2,-1.1900143E-2,-3.4020584E-2,-5.4674774E-2,-8.466044E-2,-9.2860274E-2,-1.4543514E-2,-1.22336745E-2,-1.8634254E-2,-2.2934347E-3,-1.3257329E-3,3.1944094E-4,3.74145E-4,3.074947E-2,4.5790993E-2,2.871574E-2,-2.787029E-2,-1.2426035E-2,1.9903332E-2,-3.6168615E-3,-3.2388695E-2,-4.015584E-2,-6.817076E-3,-8.114007E-3,-2.843063E-3,-2.8084343E-2,-5.3750485E-2,-4.7197207E-3,-7.3424974E-3,-7.2528096E-3,-9.7652316E-2,-7.289567E-2,-1.1031123E-2,8.909345E-5,-2.1747352E-5,1.7721377E-3,3.420333E-3,4.9049403E-3,3.6363148E-3,3.763755E-3,2.0209902E-3,-1.5572842E-3,-6.148356E-3,-2.1905468E-3,-2.5324008E-4,2.6753712E-3,6.7654706E-4,5.361959E-4,-1.1965898E-3,-2.2017804E-3,-3.9815153E-3,-2.8018486E-3,-5.8826846E-3,-2.58232E-3,-3.4741446E-4,-2.1743972E-3,-3.411846E-3,-4.1996352E-3,-6.294507E-3,-8.466071E-3,-1.0893751E-2,-4.941734E-3,-8.216398E-3],"categories":[],"categories_nodes":[],"categories_segments":[],"categories_sizes":[],"default_left":[0,0,0,0,0,0,0,0,0,0,0,0,0,0,0,0,0,0,0,0,0,0,0,0,0,0,0,0,0,0,0,0,0,0,0,0,0,0,0,0,0,0,0,0,0,0,0,0,0,0,0,0,0,0,0,0,0,0,0,0,0,0,0,0,0,0,0,0,0,0,0,0,0,0,0,0,0,0,0,0,0,0,0,0,0],"id":6,"left_children":[1,3,5,7,9,11,13,15,17,19,21,23,25,27,29,31,33,35,37,39,41,43,-1,45,47,49,51,53,-1,-1,-1,-1,-1,-1,55,57,59,61,63,65,67,69,71,73,-1,75,-1,77,79,-1,-1,-1,81,83,-1,-1,-1,-1,-1,-1,-1,-1,-1,-1,-1,-1,-1,-1,-1,-1,-1,-1,-1,-1,-1,-1,-1,-1,-1,-1,-1,-1,-1,-1,-1],"loss_changes":[5.0954022E0,4.432162E-1,1.061924E0,4.494804E-1,3.83391E-1,3.0819094E-1,1.1280751E-1,2.3885742E-2,1.4160085E-1,3.1323627E-2,2.6434511E-2,2.8303877E-2,5.0171018E-2,6.583965E-2,5.946517E-3,3.0276515E-3,5.5149023E-5,5.4978132E-2,1.5517682E-1,4.6109237E-2,1.1001246E-2,2.8514415E-3,0E0,5.2769408E-3,1.9806549E-2,9.713888E-3,2.1604657E-2,1.2166083E-2,0E0,0E0,0E0,0E0,0E0,0E0,2.9454345E-6,1.5052885E-2,2.5741458E-2,1.7300546E-2,2.4257328E-2,5.4779034E-3,1.574888E-2,2.9128115E-3,7.407591E-4,1.7510094E-3,0E0,5.908567E-3,0E0,4.690841E-3,1.7875805E-3,0E0,0E0,0E0,3.2393336E-3,2.4677962E-3,0E0,0E0,0E0,0E0,0E0,0E0,0E0,0E0,0E0,0E0,0E0,0E0,0E0,0E0,0E0,0E0,0E0,0E0,0E0,0E0,0E0,0E0,0E0,0E0,0E0,0E0,0E0,0E0,0E0,0E0,0E0],"parents":[2147483647,0,0,1,1,2,2,3,3,4,4,5,5,6,6,7,7,8,8,9,9,10,10,11,11,12,12,13,13,14,14,15,15,16,16,17,17,18,18,19,19,20,20,21,21,23,23,24,24,25,25,26,26,27,27,34,34,35,35,36,36,37,37,38,38,39,39,40,40,41,41,42,42,43,43,45,45,47,47,48,48,52,52,53,53],"right_children":[2,4,6,8,10,12,14,16,18,20,22,24,26,28,30,32,34,36,38,40,42,44,-1,46,48,50,52,54,-1,-1,-1,-1,-1,-1,56,58,60,62,64,66,68,70,72,74,-1,76,-1,78,80,-1,-1,-1,82,84,-1,-1,-1,-1,-1,-1,-1,-1,-1,-1,-1,-1,-1,-1,-1,-1,-1,-1,-1,-1,-1,-1,-1,-1,-1,-1,-1,-1,-1,-1,-1],"split_conditions":[9.0851754E-2,2.1544347E-2,9.0851754E-2,4.216965E-5,2.3713738E-1,3.831187E-1,6.189658E-1,2.6101572E-5,2.3713738E-1,3.4807004E-2,6.189658E-1,1.4677992E-1,6.189658E-1,3.831187E-1,1.4677992E-1,1.615598E-5,8.254042E-3,4.641589E-4,5.1089698E-3,6.812921E-5,5.6234132E-2,3.831187E-1,-1.0295237E-2,2.1544347E-2,1.3335214E-2,8.254042E-3,1.2115276E-3,2.3713738E-1,-1.4543514E-2,-1.22336745E-2,-1.8634254E-2,-2.2934347E-3,-1.3257329E-3,3.1944094E-4,1.3335214E-2,6.812921E-5,3.1622776E-3,1.7782794E-4,1E0,2.6101572E-5,5.6234132E-2,9.0851754E-2,9.0851754E-2,5.6234132E-2,-6.817076E-3,4.216965E-5,-2.843063E-3,2.3713738E-1,2.3713738E-1,-4.7197207E-3,-7.3424974E-3,-7.2528096E-3,1E0,1.4677992E-1,-1.1031123E-2,8.909345E-5,-2.1747352E-5,1.7721377E-3,3.420333E-3,4.9049403E-3,3.6363148E-3,3.763755E-3,2.0209902E-3,-1.5572842E-3,-6.148356E-3,-2.1905468E-3,-2.5324008E-4,2.6753712E-3,6.7654706E-4,5.361959E-4,-1.1965898E-3,-2.2017804E-3,-3.9815153E-3,-2.8018486E-3,-5.8826846E-3,-2.58232E-3,-3.4741446E-4,-2.1743972E-3,-3.411846E-3,-4.1996352E-3,-6.294507E-3,-8.466071E-3,-1.0893751E-2,-4.941734E-3,-8.216398E-3],"split_indices":[0,0,1,1,1,0,1,1,1,1,1,0,0,0,0,1,0,1,0,1,0,1,0,1,1,1,1,1,0,0,0,0,0,0,0,1,0,0,1,1,0,1,1,0,0,1,0,0,0,0,0,0,0,0,0,0,0,0,0,0,0,0,0,0,0,0,0,0,0,0,0,0,0,0,0,0,0,0,0,0,0,0,0,0,0],"split_type":[0,0,0,0,0,0,0,0,0,0,0,0,0,0,0,0,0,0,0,0,0,0,0,0,0,0,0,0,0,0,0,0,0,0,0,0,0,0,0,0,0,0,0,0,0,0,0,0,0,0,0,0,0,0,0,0,0,0,0,0,0,0,0,0,0,0,0,0,0,0,0,0,0,0,0,0,0,0,0,0,0,0,0,0,0],"sum_hessian":[2.826E3,2.11E3,7.16E2,1.761E3,3.49E2,5.42E2,1.74E2,2.22E2,1.539E3,2.91E2,5.8E1,2.68E2,2.74E2,1.14E2,6E1,1.44E2,7.8E1,1.242E3,2.97E2,2.34E2,5.7E1,2.8E1,3E1,8.7E1,1.81E2,9.3E1,1.81E2,5.7E1,5.7E1,1E1,5E1,8E1,6.4E1,7E1,8E0,3.47E2,8.95E2,2.37E2,6E1,5.8E1,1.76E2,3.7E1,2E1,1.4E1,1.4E1,7.2E1,1.5E1,1.41E2,4E1,6.9E1,2.4E1,9.7E1,8.4E1,2.9E1,2.8E1,4E0,4E0,7.4E1,2.73E2,6.62E2,2.33E2,1.14E2,1.23E2,4.5E1,1.5E1,2.9E1,2.9E1,1.15E2,6.1E1,1.8E1,1.9E1,1E1,1E1,1E1,4E0,1.4E1,5.8E1,7.1E1,7E1,2E1,2E1,4.3E1,4.1E1,1E1,1.9E1],"tree_param":{"num_deleted":"0","num_feature":"2","num_nodes":"85","size_leaf_vector":"1"}},{"base_weights":[-3.4921058E-4,2.445725E-2,-5.9457008E-2,-1.0491011E-2,2.9478809E-2,-4.174402E-2,-1.2860468E-1,-1.7235076E-2,2.1966912E-3,3.5833914E-2,8.342751E-3,-2.0616556E-2,-6.930653E-2,-1.0584026E-1,-1.5670663E-1,-2.108079E-3,-1.2272983E-2,2.570667E-3,-3.3427577E-4,3.7875053E-2,1.6056478E-2,2.0134427E-2,-5.8291335E-2,-7.886453E-3,-3.3105418E-2,-6.315772E-2,-1.0301467E-2,-7.2894625E-2,-1.2582397E-1,-1.38822915E-2,-1.7703494E-2,-1.1052989E-3,-1.4654198E-3,2.879487E-4,6.862925E-4,2.7888097E-2,4.112609E-2,2.5752781E-2,-9.168975E-3,2.5310054E-2,-6.935046E-3,-4.6112932E-2,-7.929244E-2,-2.3754728E-3,-2.7721807E-2,-2.7334834E-2,-6.316308E-2,-4.5279212E-2,-7.20934E-2,-5.387112E-3,-8.663519E-3,-1.1047676E-2,-1.4833433E-2,3.442102E-5,1.1647821E-4,1.7210698E-3,3.0698827E-3,4.465697E-3,3.2134564E-3,3.5309237E-3,2.0559186E-3,2.4841295E-4,-1.9726183E-3,9.2622667E-4,2.77027E-3,4.0150245E-4,-1.6558942E-3,-3.0985314E-3,-5.904469E-3,-4.4173766E-3,-8.750617E-3,-2.0441234E-3,2.1607631E-4,-1.9732134E-3,-3.4391396E-3,-2.1328903E-3,-3.3077446E-3,-4.355387E-3,-7.0789987E-3,-4.1215084E-3,-5.338451E-3,-6.3181566E-3,-8.054966E-3],"categories":[],"categories_nodes":[],"categories_segments":[],"categories_sizes":[],"default_left":[0,0,0,0,0,0,0,0,0,0,0,0,0,0,0,0,0,0,0,0,0,0,0,0,0,0,0,0,0,0,0,0,0,0,0,0,0,0,0,0,0,0,0,0,0,0,0,0,0,0,0,0,0,0,0,0,0,0,0,0,0,0,0,0,0,0,0,0,0,0,0,0,0,0,0,0,0,0,0,0,0,0,0],"id":7,"left_children":[1,3,5,7,9,11,13,15,17,19,21,23,25,27,29,-1,31,33,-1,35,37,39,41,43,45,47,-1,49,51,-1,-1,-1,-1,-1,53,55,57,59,61,63,65,67,69,71,73,75,77,79,81,-1,-1,-1,-1,-1,-1,-1,-1,-1,-1,-1,-1,-1,-1,-1,-1,-1,-1,-1,-1,-1,-1,-1,-1,-1,-1,-1,-1,-1,-1,-1,-1,-1,-1],"loss_changes":[4.1465573E0,3.4989476E-1,1.0185742E0,2.15151E-2,2.336899E-1,3.8698268E-1,9.216738E-2,2.870854E-3,1.9089572E-4,5.344522E-2,3.186076E-1,5.9994057E-2,5.3393364E-2,5.46906E-2,2.3258924E-3,0E0,5.30025E-5,4.6324218E-5,0E0,3.8236618E-2,3.1299517E-2,4.8370436E-2,1.19449645E-2,2.0594161E-2,3.140244E-2,3.6195576E-2,0E0,5.527228E-3,3.995359E-3,0E0,0E0,0E0,0E0,0E0,1.7269467E-6,8.505061E-3,2.7550936E-2,3.8402453E-3,4.477874E-3,1.0840014E-2,5.9678955E-3,6.1911717E-3,2.19208E-3,1.2254802E-2,1.5061907E-3,4.881844E-3,1.4035627E-3,5.9974194E-4,7.194519E-3,0E0,0E0,0E0,0E0,0E0,0E0,0E0,0E0,0E0,0E0,0E0,0E0,0E0,0E0,0E0,0E0,0E0,0E0,0E0,0E0,0E0,0E0,0E0,0E0,0E0,0E0,0E0,0E0,0E0,0E0,0E0,0E0,0E0,0E0],"parents":[2147483647,0,0,1,1,2,2,3,3,4,4,5,5,6,6,7,7,8,8,9,9,10,10,11,11,12,12,13,13,14,14,16,16,17,17,19,19,20,20,21,21,22,22,23,23,24,24,25,25,27,27,28,28,34,34,35,35,36,36,37,37,38,38,39,39,40,40,41,41,42,42,43,43,44,44,45,45,46,46,47,47,48,48],"right_children":[2,4,6,8,10,12,14,16,18,20,22,24,26,28,30,-1,32,34,-1,36,38,40,42,44,46,48,-1,50,52,-1,-1,-1,-1,-1,54,56,58,60,62,64,66,68,70,72,74,76,78,80,82,-1,-1,-1,-1,-1,-1,-1,-1,-1,-1,-1,-1,-1,-1,-1,-1,-1,-1,-1,-1,-1,-1,-1,-1,-1,-1,-1,-1,-1,-1,-1,-1,-1,-1],"split_conditions":[5.6234132E-2,4.216965E-5,1.4677992E-1,2.6101572E-5,8.254042E-3,3.831187E-1,3.831187E-1,1.615598E-5,3.4807004E-2,6.189658E-1,3.831187E-1,1.4677992E-1,3.4807004E-2,3.831187E-1,6.189658E-1,-2.108079E-3,5.1089698E-3,8.254042E-3,-3.3427577E-4,4.641589E-4,1.2115276E-3,9.0851754E-2,1E0,2.1544347E-2,3.4807004E-2,6.189658E-1,-1.0301467E-2,1.4677992E-1,1E0,-1.38822915E-2,-1.7703494E-2,-1.1052989E-3,-1.4654198E-3,2.879487E-4,2.1544347E-2,6.812921E-5,9.0851754E-2,4.216965E-5,1E0,1.1006941E-4,2.1544347E-2,2.1544347E-2,1.3335214E-2,4.216965E-5,5.6234132E-2,2.3713738E-1,5.6234132E-2,3.1622776E-3,1E0,-5.387112E-3,-8.663519E-3,-1.1047676E-2,-1.4833433E-2,3.442102E-5,1.1647821E-4,1.7210698E-3,3.0698827E-3,4.465697E-3,3.2134564E-3,3.5309237E-3,2.0559186E-3,2.4841295E-4,-1.9726183E-3,9.2622667E-4,2.77027E-3,4.0150245E-4,-1.6558942E-3,-3.0985314E-3,-5.904469E-3,-4.4173766E-3,-8.750617E-3,-2.0441234E-3,2.1607631E-4,-1.9732134E-3,-3.4391396E-3,-2.1328903E-3,-3.3077446E-3,-4.355387E-3,-7.0789987E-3,-4.1215084E-3,-5.338451E-3,-6.3181566E-3,-8.054966E-3],"split_indices":[0,1,1,1,0,0,0,1,0,1,1,0,1,1,1,0,0,0,0,1,0,1,1,1,1,0,0,0,1,0,0,0,0,0,0,1,1,0,1,1,0,0,0,1,1,0,1,1,0,0,0,0,0,0,0,0,0,0,0,0,0,0,0,0,0,0,0,0,0,0,0,0,0,0,0,0,0,0,0,0,0,0,0],"split_type":[0,0,0,0,0,0,0,0,0,0,0,0,0,0,0,0,0,0,0,0,0,0,0,0,0,0,0,0,0,0,0,0,0,0,0,0,0,0,0,0,0,0,0,0,0,0,0,0,0,0,0,0,0,0,0,0,0,0,0,0,0,0,0,0,0,0,0,0,0,0,0,0,0,0,0,0,0,0,0,0,0,0,0],"sum_hessian":[2.826E3,1.991E3,8.35E2,2.5E2,1.741E3,6.66E2,1.69E2,1.63E2,8.7E1,1.338E3,4.03E2,3.78E2,2.88E2,9.6E1,7.3E1,9E1,7.3E1,8.2E1,5E0,1.212E3,1.26E2,3.43E2,6E1,1.88E2,1.9E2,2.46E2,4.2E1,3.8E1,5.8E1,4.3E1,3E1,5.2E1,2.1E1,7E1,1.2E1,3E2,9.12E2,9.1E1,3.5E1,2.88E2,5.5E1,4E1,2E1,1.48E2,4E1,1.61E2,2.9E1,8.4E1,1.62E2,1.8E1,2E1,3.8E1,2E1,8E0,4E0,6.4E1,2.36E2,6.52E2,2.6E2,3E1,6.1E1,1.7E1,1.8E1,3.8E1,2.5E2,2.6E1,2.9E1,2E1,2E1,5E0,1.5E1,2.9E1,1.19E2,2E1,2E1,8.1E1,8E1,1E1,1.9E1,6E1,2.4E1,8.3E1,7.9E1],"tree_param":{"num_deleted":"0","num_feature":"2","num_nodes":"83","size_leaf_vector":"1"}},{"base_weights":[-3.6301045E-4,1.9785859E-2,-5.9685048E-2,2.5049863E-2,-6.7711696E-3,-3.961573E-2,-1.0961614E-1,-9.059508E-3,2.997281E-2,5.388249E-3,-6.6835225E-2,-2.5978547E-2,-6.650121E-2,-8.023269E-2,-1.3060027E-1,-1.5223311E-2,2.3684788E-3,3.2517754E-2,5.6352434E-3,1.0312041E-2,-1.0083161E-2,-4.6088535E-2,-8.408744E-2,-1.47055555E-2,-3.6778297E-2,-5.7121024E-2,-7.543009E-2,-4.6091536E-3,-9.623272E-2,-8.5658304E-2,-1.3783325E-1,-1.858718E-3,-1.0797208E-2,2.5955925E-4,3.1363964E-4,3.5845358E-2,2.5683345E-2,1.999348E-2,-3.463868E-2,-1.0279179E-2,1.765698E-2,-1.9059712E-3,-2.4162684E-2,-2.7957553E-2,-5.4159705E-3,-5.9803203E-3,-9.280359E-3,-8.824634E-3,-2.014706E-2,-3.2252353E-2,-4.7986987E-3,-3.9371727E-3,-5.8891806E-3,-6.4847074E-3,-8.47211E-3,-7.911856E-3,-1.1013913E-2,-5.9282854E-3,-9.9451095E-3,-1.2002969E-1,-1.5258511E-2,-9.968536E-4,-1.3345091E-3,7.921338E-5,-2.2758246E-5,2.6813685E-3,3.9744256E-3,2.9292179E-3,6.150323E-4,2.4645021E-3,4.1964423E-4,-1.7903841E-3,-4.8130266E-3,-1.7964244E-3,-2.2514739E-4,2.2580526E-3,8.0183864E-4,3.609145E-4,-9.25608E-4,-1.7138105E-3,-3.2183647E-3,-1.7624497E-3,-3.3631015E-3,-2.4913533E-3,-6.279394E-4,-1.6724697E-3,-3.0106648E-3,-2.5925457E-3,-3.7707125E-3,-1.0346591E-2,-1.39702065E-2],"categories":[],"categories_nodes":[],"categories_segments":[],"categories_sizes":[],"default_left":[0,0,0,0,0,0,0,0,0,0,0,0,0,0,0,0,0,0,0,0,0,0,0,0,0,0,0,0,0,0,0,0,0,0,0,0,0,0,0,0,0,0,0,0,0,0,0,0,0,0,0,0,0,0,0,0,0,0,0,0,0,0,0,0,0,0,0,0,0,0,0,0,0,0,0,0,0,0,0,0,0,0,0,0,0,0,0,0,0,0,0],"id":8,"left_children":[1,3,5,7,9,11,13,15,17,19,21,23,25,27,29,31,33,35,37,39,41,43,45,47,49,51,53,-1,55,57,59,-1,61,-1,63,65,67,69,71,73,75,77,79,81,-1,-1,-1,83,85,87,-1,-1,-1,-1,-1,-1,-1,-1,-1,89,-1,-1,-1,-1,-1,-1,-1,-1,-1,-1,-1,-1,-1,-1,-1,-1,-1,-1,-1,-1,-1,-1,-1,-1,-1,-1,-1,-1,-1,-1,-1],"loss_changes":[3.380215E0,2.9527956E-1,7.1415067E-1,2.9614413E-1,2.5598052E-1,1.8635994E-1,1.15921974E-1,1.5744144E-2,9.520078E-2,2.234796E-2,1.7242193E-2,4.1096106E-2,1.0097086E-2,4.363531E-2,2.6551008E-2,1.9581914E-3,3.6053796E-5,3.0782104E-2,8.5697144E-2,3.3757053E-2,8.1282435E-3,2.729632E-3,1.0116696E-3,5.2303895E-3,7.2793216E-3,4.4718385E-4,2.8638542E-3,0E0,5.3277016E-3,1.0162741E-3,7.948756E-3,0E0,4.2077154E-6,0E0,2.5110203E-6,3.18588E-2,3.2245874E-2,7.9059675E-3,7.943682E-3,3.5994658E-3,7.6017343E-3,1.8980947E-3,9.133732E-4,5.21373E-5,0E0,0E0,0E0,3.2424172E-3,2.461899E-3,3.405422E-3,0E0,0E0,0E0,0E0,0E0,0E0,0E0,0E0,0E0,1.8380284E-3,0E0,0E0,0E0,0E0,0E0,0E0,0E0,0E0,0E0,0E0,0E0,0E0,0E0,0E0,0E0,0E0,0E0,0E0,0E0,0E0,0E0,0E0,0E0,0E0,0E0,0E0,0E0,0E0,0E0,0E0,0E0],"parents":[2147483647,0,0,1,1,2,2,3,3,4,4,5,5,6,6,7,7,8,8,9,9,10,10,11,11,12,12,13,13,14,14,15,15,16,16,17,17,18,18,19,19,20,20,21,21,22,22,23,23,24,24,25,25,26,26,28,28,29,29,30,30,32,32,34,34,35,35,36,36,37,37,38,38,39,39,40,40,41,41,42,42,43,43,47,47,48,48,49,49,59,59],"right_children":[2,4,6,8,10,12,14,16,18,20,22,24,26,28,30,32,34,36,38,40,42,44,46,48,50,52,54,-1,56,58,60,-1,62,-1,64,66,68,70,72,74,76,78,80,82,-1,-1,-1,84,86,88,-1,-1,-1,-1,-1,-1,-1,-1,-1,90,-1,-1,-1,-1,-1,-1,-1,-1,-1,-1,-1,-1,-1,-1,-1,-1,-1,-1,-1,-1,-1,-1,-1,-1,-1,-1,-1,-1,-1,-1,-1],"split_conditions":[9.0851754E-2,2.1544347E-2,5.6234132E-2,4.216965E-5,2.3713738E-1,6.189658E-1,2.3713738E-1,2.6101572E-5,6.189658E-1,2.1544347E-2,6.189658E-1,2.3713738E-1,7.498942E-4,2.3713738E-1,1.4677992E-1,1.615598E-5,8.254042E-3,1.9573418E-3,3.1622776E-3,6.812921E-5,5.6234132E-2,3.4807004E-2,3.4807004E-2,1.4677992E-1,5.1089698E-3,1.615598E-5,1E0,-4.6091536E-3,6.189658E-1,6.189658E-1,6.189658E-1,-1.858718E-3,5.1089698E-3,2.5955925E-4,1.3335214E-2,7.498942E-4,1.4677992E-1,7.498942E-4,8.254042E-3,2.6101572E-5,5.6234132E-2,9.0851754E-2,9.0851754E-2,3.831187E-1,-5.4159705E-3,-5.9803203E-3,-9.280359E-3,2.6101572E-5,8.254042E-3,3.831187E-1,-4.7986987E-3,-3.9371727E-3,-5.8891806E-3,-6.4847074E-3,-8.47211E-3,-7.911856E-3,-1.1013913E-2,-5.9282854E-3,-9.9451095E-3,6.189658E-1,-1.5258511E-2,-9.968536E-4,-1.3345091E-3,7.921338E-5,-2.2758246E-5,2.6813685E-3,3.9744256E-3,2.9292179E-3,6.150323E-4,2.4645021E-3,4.1964423E-4,-1.7903841E-3,-4.8130266E-3,-1.7964244E-3,-2.2514739E-4,2.2580526E-3,8.0183864E-4,3.609145E-4,-9.25608E-4,-1.7138105E-3,-3.2183647E-3,-1.7624497E-3,-3.3631015E-3,-2.4913533E-3,-6.279394E-4,-1.6724697E-3,-3.0106648E-3,-2.5925457E-3,-3.7707125E-3,-1.0346591E-2,-1.39702065E-2],"split_indices":[0,0,1,1,1,0,1,1,1,1,1,0,1,0,0,1,0,0,0,1,0,0,0,0,1,1,0,0,0,1,1,0,0,0,0,1,1,0,0,1,0,1,1,1,0,0,0,1,1,0,0,0,0,0,0,0,0,0,0,0,0,0,0,0,0,0,0,0,0,0,0,0,0,0,0,0,0,0,0,0,0,0,0,0,0,0,0,0,0,0,0],"split_type":[0,0,0,0,0,0,0,0,0,0,0,0,0,0,0,0,0,0,0,0,0,0,0,0,0,0,0,0,0,0,0,0,0,0,0,0,0,0,0,0,0,0,0,0,0,0,0,0,0,0,0,0,0,0,0,0,0,0,0,0,0,0,0,0,0,0,0,0,0,0,0,0,0,0,0,0,0,0,0,0,0,0,0,0,0,0,0,0,0,0,0],"sum_hessian":[2.826E3,2.11E3,7.16E2,1.761E3,3.49E2,5.12E2,2.04E2,2.22E2,1.539E3,2.91E2,5.8E1,3.41E2,1.71E2,8.7E1,1.17E2,1.44E2,7.8E1,1.393E3,1.46E2,2.21E2,7E1,2.8E1,3E1,1.68E2,1.73E2,8.7E1,8.4E1,2.9E1,5.8E1,1.8E1,9.9E1,8E1,6.4E1,7E1,8E0,9.34E2,4.59E2,1.08E2,3.8E1,5.8E1,1.63E2,4.5E1,2.5E1,1E1,1.8E1,1E1,2E1,8.2E1,8.6E1,1.26E2,4.7E1,1E1,7.7E1,4.3E1,4.1E1,2.9E1,2.9E1,8E0,1E1,4.9E1,5E1,5.2E1,1.2E1,4E0,4E0,2.84E2,6.5E2,3.87E2,7.2E1,8.3E1,2.5E1,1.8E1,2E1,2.9E1,2.9E1,1.07E2,5.6E1,2.6E1,1.9E1,1.5E1,1E1,5E0,5E0,1E1,7.2E1,6.6E1,2E1,6.1E1,6.5E1,3E1,1.9E1],"tree_param":{"num_deleted":"0","num_feature":"2","num_nodes":"91","size_leaf_vector":"1"}},{"base_weights":[-3.7990988E-4,1.7794168E-2,-5.3887717E-2,2.4372026E-2,2.6417078E-4,-3.573944E-2,-9.903981E-2,-7.860456E-3,2.909602E-2,8.681953E-3,-5.6194607E-2,-2.3436142E-2,-5.9995186E-2,-7.247685E-2,-1.1801015E-1,-1.3500996E-2,2.3396705E-4,3.1629127E-2,1.8359914E-2,1.2092298E-2,-1.2586215E-2,-4.0825468E-2,-7.788747E-3,-1.3281176E-2,-3.316461E-2,-5.1520586E-2,-6.8063065E-2,-4.1636005E-3,-8.6930215E-2,-9.9782154E-2,-1.339675E-2,-1.6626157E-3,-9.3713915E-4,2.3593416E-2,3.5771847E-2,2.344296E-2,2.4208373E-5,-8.218361E-3,1.7731769E-2,-5.9251306E-3,-3.6615178E-2,-3.08772E-2,-5.7548643E-3,-7.979756E-3,-1.8186195E-2,-2.9077213E-2,-4.3288246E-3,-4.034664E-3,-5.4213707E-3,-5.8509763E-3,-7.645074E-3,-7.7244374E-3,-1.1019239E-2,-8.8106655E-2,-1.256534E-2,1.2818776E-3,2.579784E-3,3.8263337E-3,2.877537E-3,3.1699047E-3,1.997885E-3,7.3082256E-4,-2.2870149E-3,-1.5896643E-3,-3.6886337E-5,2.4807234E-3,7.1951683E-4,2.3504431E-4,-1.3175643E-3,-1.9824018E-3,-4.302836E-3,-2.2841506E-3,-3.6983073E-3,-2.2648664E-3,-5.660061E-4,-1.5077211E-3,-2.7239323E-3,-2.337471E-3,-3.3993546E-3,-6.4822994E-3,-9.577971E-3],"categories":[],"categories_nodes":[],"categories_segments":[],"categories_sizes":[],"default_left":[0,0,0,0,0,0,0,0,0,0,0,0,0,0,0,0,0,0,0,0,0,0,0,0,0,0,0,0,0,0,0,0,0,0,0,0,0,0,0,0,0,0,0,0,0,0,0,0,0,0,0,0,0,0,0,0,0,0,0,0,0,0,0,0,0,0,0,0,0,0,0,0,0,0,0,0,0,0,0,0,0],"id":9,"left_children":[1,3,5,7,9,11,13,15,17,19,21,23,25,27,29,31,-1,33,35,37,39,41,-1,43,45,47,49,-1,51,53,-1,-1,-1,55,57,59,61,63,65,67,69,71,-1,73,75,77,-1,-1,-1,-1,-1,-1,-1,79,-1,-1,-1,-1,-1,-1,-1,-1,-1,-1,-1,-1,-1,-1,-1,-1,-1,-1,-1,-1,-1,-1,-1,-1,-1,-1,-1],"loss_changes":[2.7500894E0,2.4341267E-1,5.839937E-1,2.33957E-1,2.7471155E-1,1.5168631E-1,9.474826E-2,1.1365829E-2,3.5834312E-2,3.663568E-2,2.1825254E-2,3.334649E-2,8.253336E-3,3.560695E-2,2.0955205E-2,1.4832094E-3,0E0,3.5175562E-2,2.4045348E-2,4.9856693E-2,1.09871775E-2,5.8759227E-3,0E0,4.2494796E-3,5.9413016E-3,4.608184E-4,2.3379326E-3,0E0,4.781723E-3,6.7506433E-3,0E0,0E0,0E0,8.481249E-3,1.131022E-2,5.1438883E-3,9.672624E-3,5.7198484E-3,2.5168955E-2,3.3910887E-3,7.6227635E-4,6.762631E-4,0E0,2.696081E-3,2.0380132E-3,2.7659088E-3,0E0,0E0,0E0,0E0,0E0,0E0,0E0,1.6521811E-3,0E0,0E0,0E0,0E0,0E0,0E0,0E0,0E0,0E0,0E0,0E0,0E0,0E0,0E0,0E0,0E0,0E0,0E0,0E0,0E0,0E0,0E0,0E0,0E0,0E0,0E0,0E0],"parents":[2147483647,0,0,1,1,2,2,3,3,4,4,5,5,6,6,7,7,8,8,9,9,10,10,11,11,12,12,13,13,14,14,15,15,17,17,18,18,19,19,20,20,21,21,23,23,24,24,25,25,26,26,28,28,29,29,33,33,34,34,35,35,36,36,37,37,38,38,39,39,40,40,41,41,43,43,44,44,45,45,53,53],"right_children":[2,4,6,8,10,12,14,16,18,20,22,24,26,28,30,32,-1,34,36,38,40,42,-1,44,46,48,50,-1,52,54,-1,-1,-1,56,58,60,62,64,66,68,70,72,-1,74,76,78,-1,-1,-1,-1,-1,-1,-1,80,-1,-1,-1,-1,-1,-1,-1,-1,-1,-1,-1,-1,-1,-1,-1,-1,-1,-1,-1,-1,-1,-1,-1,-1,-1,-1,-1],"split_conditions":[9.0851754E-2,8.254042E-3,5.6234132E-2,4.216965E-5,3.831187E-1,6.189658E-1,2.3713738E-1,2.6101572E-5,2.3713738E-1,9.0851754E-2,3.4807004E-2,2.3713738E-1,7.498942E-4,2.3713738E-1,3.831187E-1,1.615598E-5,2.3396705E-4,7.498942E-4,1.9573418E-3,6.812921E-5,5.6234132E-2,1E0,-7.788747E-3,1.4677992E-1,5.1089698E-3,2.6101572E-5,1E0,-4.1636005E-3,1E0,1E0,-1.339675E-2,-1.6626157E-3,-9.3713915E-4,6.812921E-5,5.6234132E-2,4.216965E-5,1E0,2.6101572E-5,3.4807004E-2,2.1544347E-2,1.4677992E-1,6.189658E-1,-5.7548643E-3,2.6101572E-5,8.254042E-3,3.831187E-1,-4.3288246E-3,-4.034664E-3,-5.4213707E-3,-5.8509763E-3,-7.645074E-3,-7.7244374E-3,-1.1019239E-2,1.4677992E-1,-1.256534E-2,1.2818776E-3,2.579784E-3,3.8263337E-3,2.877537E-3,3.1699047E-3,1.997885E-3,7.3082256E-4,-2.2870149E-3,-1.5896643E-3,-3.6886337E-5,2.4807234E-3,7.1951683E-4,2.3504431E-4,-1.3175643E-3,-1.9824018E-3,-4.302836E-3,-2.2841506E-3,-3.6983073E-3,-2.2648664E-3,-5.660061E-4,-1.5077211E-3,-2.7239323E-3,-2.337471E-3,-3.3993546E-3,-6.4822994E-3,-9.577971E-3],"split_indices":[0,0,1,1,1,0,1,1,1,1,0,0,1,0,0,1,0,1,0,1,0,1,0,0,1,1,0,0,0,1,0,0,0,1,1,0,1,1,0,0,1,1,0,1,1,0,0,0,0,0,0,0,0,0,0,0,0,0,0,0,0,0,0,0,0,0,0,0,0,0,0,0,0,0,0,0,0,0,0,0,0],"split_type":[0,0,0,0,0,0,0,0,0,0,0,0,0,0,0,0,0,0,0,0,0,0,0,0,0,0,0,0,0,0,0,0,0,0,0,0,0,0,0,0,0,0,0,0,0,0,0,0,0,0,0,0,0,0,0,0,0,0,0,0,0,0,0,0,0,0,0,0,0,0,0,0,0,0,0,0,0,0,0,0,0],"sum_hessian":[2.826E3,2.11E3,7.16E2,1.534E3,5.76E2,5.12E2,2.04E2,1.96E2,1.338E3,5.02E2,7.4E1,3.41E2,1.71E2,8.7E1,1.17E2,1.26E2,7E1,1.081E3,2.57E2,4.33E2,6.9E1,4.5E1,2.9E1,1.68E2,1.73E2,8.7E1,8.4E1,2.9E1,5.8E1,5.8E1,5.9E1,7E1,5.6E1,3.7E2,7.11E2,2.01E2,5.6E1,9.4E1,3.39E2,5.5E1,1.4E1,3E1,1.5E1,8.2E1,8.6E1,1.26E2,4.7E1,2E1,6.7E1,4.3E1,4.1E1,4.4E1,1.4E1,4.3E1,1.5E1,6.4E1,3.06E2,5.21E2,1.9E2,5.7E1,1.44E2,4.3E1,1.3E1,4.7E1,4.7E1,2.02E2,1.37E2,2.6E1,2.9E1,5E0,9E0,1.5E1,1.5E1,1E1,7.2E1,6.6E1,2E1,6.1E1,6.5E1,1.3E1,3E1],"tree_param":{"num_deleted":"0","num_feature":"2","num_nodes":"81","size_leaf_vector":"1"}},{"base_weights":[-3.8384064E-4,1.785767E-2,-4.38488E-2,-7.6822746E-3,2.15274E-2,-3.0701647E-2,-9.517411E-2,-1.2623258E-2,1.6132201E-3,2.7024042E-2,8.084839E-3,-1.5206515E-2,-5.0916016E-2,-7.262206E-2,-1.1061425E-1,-1.5536109E-3,-8.870654E-3,1.9161263E-3,-2.8458537E-4,2.83466E-2,1.4132688E-2,1.7703027E-2,-3.075365E-2,-6.0067023E-3,-2.4230378E-2,-4.5378987E-2,-7.265658E-2,-4.788488E-2,-8.727561E-3,-9.551488E-2,-1.2964469E-2,-8.0710335E-4,-1.0393801E-3,2.1625648E-4,9.060668E-5,1.8794503E-2,3.0713648E-2,1.981721E-2,-3.2709277E-4,2.175812E-2,6.693426E-3,-2.1644209E-2,-5.619841E-2,-1.6611099E-3,-2.1652717E-2,-1.8241882E-2,-4.07531E-2,-3.8738076E-2,-5.8588E-2,-6.404543E-3,-8.775599E-3,-3.640435E-3,-5.758514E-3,-7.701227E-3,-1.1083365E-2,1.1705181E-3,2.124369E-3,3.2946318E-3,2.4508894E-3,2.6439605E-3,1.5648481E-3,7.9021836E-4,-8.0810155E-4,7.019112E-4,2.4571186E-3,1.268561E-3,-2.0495639E-4,-1.166415E-3,-3.575513E-3,-3.5380032E-3,-6.6998648E-3,-1.5548271E-3,1.824523E-4,-1.6810851E-3,-2.5463502E-3,-1.4183153E-3,-2.210085E-3,-3.1989508E-3,-5.2299015E-3,-3.2481619E-3,-4.458337E-3,-3.2741826E-3,-5.9947E-3],"categories":[],"categories_nodes":[],"categories_segments":[],"categories_sizes":[],"default_left":[0,0,0,0,0,0,0,0,0,0,0,0,0,0,0,0,0,0,0,0,0,0,0,0,0,0,0,0,0,0,0,0,0,0,0,0,0,0,0,0,0,0,0,0,0,0,0,0,0,0,0,0,0,0,0,0,0,0,0,0,0,0,0,0,0,0,0,0,0,0,0,0,0,0,0,0,0,0,0,0,0,0,0],"id":10,"left_children":[1,3,5,7,9,11,13,15,17,19,21,23,25,27,29,-1,31,33,-1,35,37,39,41,43,45,47,49,51,-1,53,-1,-1,-1,-1,-1,55,57,59,61,63,65,67,69,71,73,75,77,79,81,-1,-1,-1,-1,-1,-1,-1,-1,-1,-1,-1,-1,-1,-1,-1,-1,-1,-1,-1,-1,-1,-1,-1,-1,-1,-1,-1,-1,-1,-1,-1,-1,-1,-1],"loss_changes":[2.2422166E0,1.8686503E-1,5.611956E-1,1.1548515E-2,1.2849605E-1,2.0814633E-1,5.1162124E-2,1.6548298E-3,1.2431298E-4,2.0672679E-2,1.8993726E-1,3.1318225E-2,3.1492174E-2,2.1919906E-2,1.6064405E-2,0E0,6.23893E-6,1.8700724E-5,0E0,2.474624E-2,9.623524E-3,1.8024862E-2,2.2194177E-2,1.2814373E-2,1.8155314E-2,1.8169165E-2,1.7910004E-3,1.133211E-3,0E0,8.187234E-3,0E0,0E0,0E0,0E0,0E0,3.6580265E-3,1.1604965E-2,1.9052438E-3,2.2333695E-3,1.214169E-2,5.841245E-3,1.0285858E-2,3.4755096E-3,7.240794E-3,3.2844022E-4,1.9106157E-3,3.3861622E-3,4.330039E-3,7.067323E-4,0E0,0E0,0E0,0E0,0E0,0E0,0E0,0E0,0E0,0E0,0E0,0E0,0E0,0E0,0E0,0E0,0E0,0E0,0E0,0E0,0E0,0E0,0E0,0E0,0E0,0E0,0E0,0E0,0E0,0E0,0E0,0E0,0E0,0E0],"parents":[2147483647,0,0,1,1,2,2,3,3,4,4,5,5,6,6,7,7,8,8,9,9,10,10,11,11,12,12,13,13,14,14,16,16,17,17,19,19,20,20,21,21,22,22,23,23,24,24,25,25,26,26,27,27,29,29,35,35,36,36,37,37,38,38,39,39,40,40,41,41,42,42,43,43,44,44,45,45,46,46,47,47,48,48],"right_children":[2,4,6,8,10,12,14,16,18,20,22,24,26,28,30,-1,32,34,-1,36,38,40,42,44,46,48,50,52,-1,54,-1,-1,-1,-1,-1,56,58,60,62,64,66,68,70,72,74,76,78,80,82,-1,-1,-1,-1,-1,-1,-1,-1,-1,-1,-1,-1,-1,-1,-1,-1,-1,-1,-1,-1,-1,-1,-1,-1,-1,-1,-1,-1,-1,-1,-1,-1,-1,-1],"split_conditions":[5.6234132E-2,4.216965E-5,1.4677992E-1,2.6101572E-5,5.1089698E-3,3.831187E-1,2.3713738E-1,1.615598E-5,3.4807004E-2,6.189658E-1,2.3713738E-1,1.4677992E-1,2.1544347E-2,3.831187E-1,6.189658E-1,-1.5536109E-3,5.1089698E-3,5.1089698E-3,-2.8458537E-4,2.872985E-4,7.498942E-4,2.1544347E-2,1E0,2.1544347E-2,1.3335214E-2,1E0,1E0,2.3713738E-1,-8.727561E-3,6.189658E-1,-1.2964469E-2,-8.0710335E-4,-1.0393801E-3,2.1625648E-4,9.060668E-5,6.812921E-5,9.0851754E-2,4.216965E-5,1E0,1.1006941E-4,2.1544347E-2,2.1544347E-2,1.3335214E-2,4.216965E-5,5.6234132E-2,2.3713738E-1,5.6234132E-2,6.189658E-1,1.615598E-5,-6.404543E-3,-8.775599E-3,-3.640435E-3,-5.758514E-3,-7.701227E-3,-1.1083365E-2,1.1705181E-3,2.124369E-3,3.2946318E-3,2.4508894E-3,2.6439605E-3,1.5648481E-3,7.9021836E-4,-8.0810155E-4,7.019112E-4,2.4571186E-3,1.268561E-3,-2.0495639E-4,-1.166415E-3,-3.575513E-3,-3.5380032E-3,-6.6998648E-3,-1.5548271E-3,1.824523E-4,-1.6810851E-3,-2.5463502E-3,-1.4183153E-3,-2.210085E-3,-3.1989508E-3,-5.2299015E-3,-3.2481619E-3,-4.458337E-3,-3.2741826E-3,-5.9947E-3],"split_indices":[0,1,1,1,0,0,0,1,0,1,1,0,1,1,1,0,0,0,0,1,0,1,1,1,1,0,0,1,0,0,0,0,0,0,0,1,1,0,1,1,0,0,0,1,1,0,1,0,1,0,0,0,0,0,0,0,0,0,0,0,0,0,0,0,0,0,0,0,0,0,0,0,0,0,0,0,0,0,0,0,0,0,0],"split_type":[0,0,0,0,0,0,0,0,0,0,0,0,0,0,0,0,0,0,0,0,0,0,0,0,0,0,0,0,0,0,0,0,0,0,0,0,0,0,0,0,0,0,0,0,0,0,0,0,0,0,0,0,0,0,0,0,0,0,0,0,0,0,0,0,0,0,0,0,0,0,0,0,0,0,0,0,0,0,0,0,0,0,0],"sum_hessian":[2.826E3,1.991E3,8.35E2,2.5E2,1.741E3,6.66E2,1.69E2,1.63E2,8.7E1,1.235E3,5.06E2,3.78E2,2.88E2,7.1E1,9.8E1,9E1,7.3E1,8.2E1,5E0,1.119E3,1.16E2,4.06E2,1E2,1.88E2,1.9E2,2.32E2,5.6E1,2.8E1,4.3E1,5.8E1,4E1,5.2E1,2.1E1,6.5E1,1.7E1,2.24E2,8.95E2,8.3E1,3.3E1,2.96E2,1.1E2,7.5E1,2.5E1,1.48E2,4E1,1.41E2,4.9E1,1.57E2,7.5E1,3.9E1,1.7E1,1.5E1,1.3E1,2.9E1,2.9E1,5.9E1,1.65E2,6.55E2,2.4E2,3E1,5.3E1,1.6E1,1.7E1,4.8E1,2.48E2,6.5E1,4.5E1,4.5E1,3E1,1E1,1.5E1,2.9E1,1.19E2,2E1,2E1,7.1E1,7E1,3E1,1.9E1,7.9E1,7.8E1,5E0,7E1],"tree_param":{"num_deleted":"0","num_feature":"2","num_nodes":"83","size_leaf_vector":"1"}},{"base_weights":[-3.8104694E-4,1.4426035E-2,-4.3975703E-2,1.9069914E-2,-2.144554E-3,-2.9102083E-2,-8.098151E-2,-6.540804E-3,2.2791566E-2,6.5260483E-3,-4.4372875E-2,-1.9114502E-2,-4.8791915E-2,-5.9257057E-2,-9.6496515E-2,-1.1119331E-2,1.8488034E-3,2.4437502E-2,6.958789E-3,-7.3909154E-3,9.972909E-3,-3.4870725E-2,-6.895639E-3,-1.0949418E-2,-2.6935102E-2,-4.292298E-2,-5.779273E-2,-3.397994E-2,-7.110547E-2,-6.254284E-2,-1.0198275E-1,-1.3486565E-3,-7.987709E-3,1.9495956E-4,9.986938E-5,1.3080498E-2,2.5705457E-2,1.5778553E-2,-1.7304856E-2,-1.6856501E-3,-3.7739298E-3,1.5911318E-2,-4.4280193E-3,-2.3075037E-2,-4.627747E-2,-8.520308E-3,-1.882798E-2,-2.3022257E-2,-3.4562834E-3,-3.7256E-2,-4.810087E-3,-5.0048246E-3,-6.4215222E-3,-2.3870978E-3,-3.7840873E-3,-6.2911185E-3,-9.094796E-3,-4.181297E-3,-7.381793E-3,-9.338593E-2,-1.2285886E-2,-7.2791555E-4,-1.1272775E-3,1.0268311E-3,1.5951945E-3,2.7260925E-3,1.8533247E-3,2.3880953E-3,1.2018653E-3,-5.957116E-4,-2.566708E-3,-7.826485E-4,-1.7028405E-4,2.1808483E-3,9.759975E-4,1.3072537E-4,-1.8816481E-3,-9.605652E-4,-2.903162E-3,-2.934796E-3,-5.2428357E-3,-2.6458073E-3,-6.819187E-4,-1.4306285E-3,-2.202247E-3,-1.8532574E-3,-2.6913723E-3,-2.539435E-3,-3.9282567E-3,-8.162162E-3,-1.0831166E-2],"categories":[],"categories_nodes":[],"categories_segments":[],"categories_sizes":[],"default_left":[0,0,0,0,0,0,0,0,0,0,0,0,0,0,0,0,0,0,0,0,0,0,0,0,0,0,0,0,0,0,0,0,0,0,0,0,0,0,0,0,0,0,0,0,0,0,0,0,0,0,0,0,0,0,0,0,0,0,0,0,0,0,0,0,0,0,0,0,0,0,0,0,0,0,0,0,0,0,0,0,0,0,0,0,0,0,0,0,0,0,0],"id":11,"left_children":[1,3,5,7,9,11,13,15,17,19,21,23,25,27,29,31,33,35,37,39,41,43,-1,45,47,49,51,53,55,57,59,-1,61,-1,-1,63,65,67,69,-1,71,73,75,77,79,81,83,85,-1,87,-1,-1,-1,-1,-1,-1,-1,-1,-1,89,-1,-1,-1,-1,-1,-1,-1,-1,-1,-1,-1,-1,-1,-1,-1,-1,-1,-1,-1,-1,-1,-1,-1,-1,-1,-1,-1,-1,-1,-1,-1],"loss_changes":[1.82549E0,1.6248617E-1,3.922875E-1,1.5732223E-1,1.6981469E-1,9.995079E-2,6.3378215E-2,8.087088E-3,3.73559E-2,1.8542098E-2,1.6049534E-2,2.1543764E-2,6.6052973E-3,2.3939282E-2,1.5602589E-2,9.0047903E-4,4.4792832E-6,1.8441617E-2,2.9590994E-2,2.572625E-3,2.6495706E-2,6.87062E-3,0E0,3.0738842E-3,4.3975115E-3,1.3770014E-3,1.9162893E-5,2.6759878E-4,3.8714707E-3,1.3543442E-3,6.4735413E-3,0E0,5.992991E-5,0E0,0E0,9.1018155E-4,1.25697255E-2,2.7898662E-3,3.3581154E-3,0E0,4.6508538E-4,7.7314787E-3,7.534077E-3,2.2083074E-3,1.4811493E-3,3.8169539E-3,2.482757E-4,1.5628487E-3,0E0,3.4859776E-4,0E0,0E0,0E0,0E0,0E0,0E0,0E0,0E0,0E0,4.3287277E-3,0E0,0E0,0E0,0E0,0E0,0E0,0E0,0E0,0E0,0E0,0E0,0E0,0E0,0E0,0E0,0E0,0E0,0E0,0E0,0E0,0E0,0E0,0E0,0E0,0E0,0E0,0E0,0E0,0E0,0E0,0E0],"parents":[2147483647,0,0,1,1,2,2,3,3,4,4,5,5,6,6,7,7,8,8,9,9,10,10,11,11,12,12,13,13,14,14,15,15,16,16,17,17,18,18,19,19,20,20,21,21,23,23,24,24,25,25,26,26,27,27,28,28,29,29,30,30,32,32,35,35,36,36,37,37,38,38,40,40,41,41,42,42,43,43,44,44,45,45,46,46,47,47,49,49,59,59],"right_children":[2,4,6,8,10,12,14,16,18,20,22,24,26,28,30,32,34,36,38,40,42,44,-1,46,48,50,52,54,56,58,60,-1,62,-1,-1,64,66,68,70,-1,72,74,76,78,80,82,84,86,-1,88,-1,-1,-1,-1,-1,-1,-1,-1,-1,90,-1,-1,-1,-1,-1,-1,-1,-1,-1,-1,-1,-1,-1,-1,-1,-1,-1,-1,-1,-1,-1,-1,-1,-1,-1,-1,-1,-1,-1,-1,-1],"split_conditions":[9.0851754E-2,1.3335214E-2,5.6234132E-2,4.216965E-5,2.3713738E-1,6.189658E-1,2.3713738E-1,2.6101572E-5,6.189658E-1,6.812921E-5,1E0,2.3713738E-1,1.9573418E-3,2.3713738E-1,1.4677992E-1,1.615598E-5,5.1089698E-3,1.1006941E-4,1.9573418E-3,1.615598E-5,2.1544347E-2,3.4807004E-2,-6.895639E-3,8.254042E-3,3.1622776E-3,1E0,1E0,9.0851754E-2,1E0,6.189658E-1,1E0,-1.3486565E-3,5.1089698E-3,1.9495956E-4,9.986938E-5,6.812921E-5,1.4677992E-1,4.216965E-5,5.1089698E-3,-1.6856501E-3,2.6101572E-5,3.4807004E-2,5.6234132E-2,3.831187E-1,3.831187E-1,1.615598E-5,1.4677992E-1,3.831187E-1,-3.4562834E-3,2.6101572E-5,-4.810087E-3,-5.0048246E-3,-6.4215222E-3,-2.3870978E-3,-3.7840873E-3,-6.2911185E-3,-9.094796E-3,-4.181297E-3,-7.381793E-3,6.189658E-1,-1.2285886E-2,-7.2791555E-4,-1.1272775E-3,1.0268311E-3,1.5951945E-3,2.7260925E-3,1.8533247E-3,2.3880953E-3,1.2018653E-3,-5.957116E-4,-2.566708E-3,-7.826485E-4,-1.7028405E-4,2.1808483E-3,9.759975E-4,1.3072537E-4,-1.8816481E-3,-9.605652E-4,-2.903162E-3,-2.934796E-3,-5.2428357E-3,-2.6458073E-3,-6.819187E-4,-1.4306285E-3,-2.202247E-3,-1.8532574E-3,-2.6913723E-3,-2.539435E-3,-3.9282567E-3,-8.162162E-3,-1.0831166E-2],"split_indices":[0,0,1,1,1,0,1,1,1,1,1,0,1,0,0,1,0,1,0,1,1,0,0,1,1,0,0,1,0,1,1,0,0,0,0,1,1,0,0,0,1,0,0,1,1,1,0,0,0,1,0,0,0,0,0,0,0,0,0,0,0,0,0,0,0,0,0,0,0,0,0,0,0,0,0,0,0,0,0,0,0,0,0,0,0,0,0,0,0,0,0],"split_type":[0,0,0,0,0,0,0,0,0,0,0,0,0,0,0,0,0,0,0,0,0,0,0,0,0,0,0,0,0,0,0,0,0,0,0,0,0,0,0,0,0,0,0,0,0,0,0,0,0,0,0,0,0,0,0,0,0,0,0,0,0,0,0,0,0,0,0,0,0,0,0,0,0,0,0,0,0,0,0,0,0,0,0,0,0,0,0,0,0,0,0],"sum_hessian":[2.826E3,2.11E3,7.16E2,1.648E3,4.62E2,5.12E2,2.04E2,2.09E2,1.439E3,3.84E2,7.8E1,3.41E2,1.71E2,8.7E1,1.17E2,1.35E2,7.4E1,1.303E3,1.36E2,7.6E1,3.08E2,5.8E1,2E1,1.68E2,1.73E2,1.07E2,6.4E1,2.9E1,5.8E1,1.8E1,9.9E1,7.5E1,6E1,6.5E1,9E0,1.32E2,1.171E3,1E2,3.6E1,2E1,5.6E1,2.18E2,9E1,3E1,2.8E1,1.3E2,3.8E1,1.17E2,5.6E1,5.5E1,5.2E1,3.3E1,3.1E1,1E1,1.9E1,4.4E1,1.4E1,8E0,1E1,7.4E1,2.5E1,5.2E1,8E0,6.9E1,6.3E1,9.6E2,2.11E2,3E1,7E1,1.6E1,2E1,1.8E1,3.8E1,1.1E2,1.08E2,6.5E1,2.5E1,1E1,2E1,9E0,1.9E1,1E1,1.2E2,1.8E1,2E1,5.7E1,6E1,1E1,4.5E1,4.5E1,2.9E1],"tree_param":{"num_deleted":"0","num_feature":"2","num_nodes":"91","size_leaf_vector":"1"}},{"base_weights":[-3.8450735E-4,1.448479E-2,-3.581424E-2,-6.241764E-3,1.7462907E-2,-2.6403103E-2,-8.4059775E-2,-1.0262895E-2,1.3230924E-3,2.2004105E-2,6.3576144E-3,-1.358948E-2,-4.3189347E-2,-6.006496E-2,-9.209726E-2,-1.2610183E-3,-7.2376793E-3,1.5811173E-3,-2.4667682E-4,2.2762652E-2,6.2052975E-3,1.4204728E-2,-2.5326872E-2,-8.561009E-3,-2.8538998E-2,-3.754139E-2,-6.690612E-2,-4.256317E-3,-7.1372837E-3,-7.9157844E-2,-1.0297714E-2,-6.564997E-4,-8.529246E-4,1.757583E-4,8.4623694E-4,1.6742615E-2,2.5192354E-2,1.2138507E-2,-7.653975E-4,1.7209213E-2,3.2762417E-3,-1.7918883E-2,-4.6006884E-2,-1.3411469E-3,-1.558205E-2,-1.9597149E-2,-3.708891E-2,-3.2187212E-2,-4.83159E-2,-5.109565E-3,-7.2893114E-3,-6.7748353E-3,-9.288467E-3,6.0766935E-5,1.3449788E-4,9.544478E-4,1.820956E-3,2.899603E-3,1.9986292E-3,1.7423589E-3,8.419285E-4,5.392903E-4,1.9282239E-3,6.436927E-4,-7.2648784E-4,-1.0035395E-3,-2.9038934E-3,-2.9830297E-3,-5.4252855E-3,-1.2959933E-3,1.574726E-4,-1.2364963E-3,-1.8636443E-3,-1.5008237E-3,-2.5438059E-3,-2.6709149E-3,-4.3118442E-3,-2.706802E-3,-3.6984165E-3,-4.122686E-3,-5.506624E-3],"categories":[],"categories_nodes":[],"categories_segments":[],"categories_sizes":[],"default_left":[0,0,0,0,0,0,0,0,0,0,0,0,0,0,0,0,0,0,0,0,0,0,0,0,0,0,0,0,0,0,0,0,0,0,0,0,0,0,0,0,0,0,0,0,0,0,0,0,0,0,0,0,0,0,0,0,0,0,0,0,0,0,0,0,0,0,0,0,0,0,0,0,0,0,0,0,0,0,0,0,0],"id":12,"left_children":[1,3,5,7,9,11,13,15,17,19,21,23,25,27,29,-1,31,33,-1,35,37,39,41,43,45,47,49,-1,-1,51,-1,-1,-1,-1,53,55,57,59,-1,61,63,65,67,69,71,73,75,77,79,-1,-1,-1,-1,-1,-1,-1,-1,-1,-1,-1,-1,-1,-1,-1,-1,-1,-1,-1,-1,-1,-1,-1,-1,-1,-1,-1,-1,-1,-1,-1,-1],"loss_changes":[1.4898254E0,1.2306741E-1,3.773625E-1,7.648818E-3,8.771145E-2,1.5019304E-1,2.0696878E-2,1.0733046E-3,8.995355E-5,1.4671147E-2,1.2641607E-1,2.9749796E-2,3.8075447E-2,4.2847395E-3,5.92649E-3,0E0,8.2976185E-6,9.276191E-6,0E0,1.6823292E-2,4.862246E-3,1.3307251E-2,1.4648542E-2,1.5186388E-2,6.918356E-3,1.2693971E-2,1.6709268E-3,0E0,0E0,1.5380085E-3,0E0,0E0,0E0,0E0,1.3244035E-6,3.4374744E-3,1.6014755E-2,6.592176E-4,0E0,7.710077E-3,3.0119908E-3,6.371105E-3,1.8498041E-3,5.0683655E-3,1.2631491E-3,9.85194E-4,1.9776002E-3,3.1244159E-3,1.5580654E-3,0E0,0E0,0E0,0E0,0E0,0E0,0E0,0E0,0E0,0E0,0E0,0E0,0E0,0E0,0E0,0E0,0E0,0E0,0E0,0E0,0E0,0E0,0E0,0E0,0E0,0E0,0E0,0E0,0E0,0E0,0E0,0E0],"parents":[2147483647,0,0,1,1,2,2,3,3,4,4,5,5,6,6,7,7,8,8,9,9,10,10,11,11,12,12,13,13,14,14,16,16,17,17,19,19,20,20,21,21,22,22,23,23,24,24,25,25,26,26,29,29,34,34,35,35,36,36,37,37,39,39,40,40,41,41,42,42,43,43,44,44,45,45,46,46,47,47,48,48],"right_children":[2,4,6,8,10,12,14,16,18,20,22,24,26,28,30,-1,32,34,-1,36,38,40,42,44,46,48,50,-1,-1,52,-1,-1,-1,-1,54,56,58,60,-1,62,64,66,68,70,72,74,76,78,80,-1,-1,-1,-1,-1,-1,-1,-1,-1,-1,-1,-1,-1,-1,-1,-1,-1,-1,-1,-1,-1,-1,-1,-1,-1,-1,-1,-1,-1,-1,-1,-1],"split_conditions":[5.6234132E-2,4.216965E-5,2.3713738E-1,2.6101572E-5,5.1089698E-3,3.831187E-1,1.4677992E-1,1.615598E-5,3.4807004E-2,1E0,2.3713738E-1,2.1544347E-2,3.4807004E-2,6.189658E-1,6.189658E-1,-1.2610183E-3,5.1089698E-3,5.1089698E-3,-2.4667682E-4,7.498942E-4,7.498942E-4,3.4807004E-2,1E0,1.4677992E-1,1.4677992E-1,1E0,6.189658E-1,-4.256317E-3,-7.1372837E-3,6.189658E-1,-1.0297714E-2,-6.564997E-4,-8.529246E-4,1.757583E-4,2.1544347E-2,6.812921E-5,5.6234132E-2,4.216965E-5,-7.653975E-4,1.1006941E-4,3.4807004E-2,2.1544347E-2,1.3335214E-2,4.216965E-5,2.3713738E-1,9.0851754E-2,5.6234132E-2,6.189658E-1,7.498942E-4,-5.109565E-3,-7.2893114E-3,-6.7748353E-3,-9.288467E-3,6.0766935E-5,1.3449788E-4,9.544478E-4,1.820956E-3,2.899603E-3,1.9986292E-3,1.7423589E-3,8.419285E-4,5.392903E-4,1.9282239E-3,6.436927E-4,-7.2648784E-4,-1.0035395E-3,-2.9038934E-3,-2.9830297E-3,-5.4252855E-3,-1.2959933E-3,1.574726E-4,-1.2364963E-3,-1.8636443E-3,-1.5008237E-3,-2.5438059E-3,-2.6709149E-3,-4.3118442E-3,-2.706802E-3,-3.6984165E-3,-4.122686E-3,-5.506624E-3],"split_indices":[0,1,1,1,0,0,0,1,0,1,1,1,1,1,1,0,0,0,0,1,0,1,1,0,0,0,0,0,0,0,0,0,0,0,0,1,1,0,0,1,0,0,0,1,0,1,1,0,1,0,0,0,0,0,0,0,0,0,0,0,0,0,0,0,0,0,0,0,0,0,0,0,0,0,0,0,0,0,0,0,0],"split_type":[0,0,0,0,0,0,0,0,0,0,0,0,0,0,0,0,0,0,0,0,0,0,0,0,0,0,0,0,0,0,0,0,0,0,0,0,0,0,0,0,0,0,0,0,0,0,0,0,0,0,0,0,0,0,0,0,0,0,0,0,0,0,0,0,0,0,0,0,0,0,0,0,0,0,0,0,0,0,0,0,0],"sum_hessian":[2.826E3,1.991E3,8.35E2,2.5E2,1.741E3,7E2,1.35E2,1.63E2,8.7E1,1.235E3,5.06E2,3.98E2,3.02E2,3.6E1,9.9E1,9E1,7.3E1,8.2E1,5E0,1.178E3,5.7E1,4.06E2,1E2,2.99E2,9.9E1,2.46E2,5.6E1,1.6E1,2E1,4.9E1,5E1,5.2E1,2.1E1,6.5E1,1.7E1,3.41E2,8.37E2,4E1,1.7E1,3.18E2,8.8E1,7.5E1,2.5E1,1.48E2,1.51E2,5E1,4.9E1,1.67E2,7.9E1,1.8E1,3.8E1,3E1,1.9E1,1.3E1,4E0,5.9E1,2.82E2,4.81E2,3.56E2,1.5E1,2.5E1,4.8E1,2.7E2,6.8E1,2E1,4.5E1,3E1,1E1,1.5E1,2.9E1,1.19E2,7.6E1,7.5E1,3E1,2E1,2E1,2.9E1,8.4E1,8.3E1,4.2E1,3.7E1],"tree_param":{"num_deleted":"0","num_feature":"2","num_nodes":"81","size_leaf_vector":"1"}},{"base_weights":[-3.7595548E-4,1.3034768E-2,-3.2330245E-2,-5.6281425E-3,1.5716372E-2,-2.2569615E-2,-7.043618E-2,-9.253513E-3,1.1921864E-3,1.9227333E-2,4.0408964E-3,-1.1208025E-2,-3.739132E-2,-5.7494313E-2,-8.6448684E-2,-1.1363043E-3,-6.534314E-3,1.4274637E-3,-2.2611817E-4,2.002607E-2,2.7319065E-3,1.0632523E-2,-3.31978E-2,-4.3965103E-3,-1.7889533E-2,-3.3191063E-2,-5.390481E-2,-3.8865317E-2,-6.883392E-2,-7.570815E-2,-9.890464E-3,-5.9208984E-4,-7.7150734E-3,1.5539426E-4,6.268896E-4,1.424299E-2,2.1787256E-2,1.0987694E-2,-1.2103712E-2,1.4736344E-2,-9.3893753E-4,-2.6676139E-2,-4.4349723E-2,-1.2146775E-3,-1.5852524E-2,-1.3382308E-2,-3.0332265E-2,-2.8288094E-2,-4.2947352E-2,-4.730411E-3,-6.557831E-3,-2.9360072E-3,-4.5614573E-3,-5.8546583E-3,-8.466115E-3,-6.5088333E-3,-9.022482E-3,-9.512557E-4,-6.008472E-4,2.1808677E-5,1.2373568E-4,8.5213355E-4,1.5752122E-3,2.4848466E-3,1.7035904E-3,1.5790124E-3,7.60975E-4,-6.9311133E-4,-2.5604225E-3,3.5165763E-4,1.6693913E-3,3.6188666E-4,-7.1088015E-4,-1.9567562E-3,-3.2514425E-3,-2.411293E-3,-4.9166665E-3,-1.4493471E-3,9.564027E-5,-1.2056547E-3,-1.889362E-3,-1.0650812E-3,-1.5963793E-3,-2.3932545E-3,-3.873522E-3,-2.3761664E-3,-3.2513745E-3,-3.3799212E-3,-4.6519586E-3],"categories":[],"categories_nodes":[],"categories_segments":[],"categories_sizes":[],"default_left":[0,0,0,0,0,0,0,0,0,0,0,0,0,0,0,0,0,0,0,0,0,0,0,0,0,0,0,0,0,0,0,0,0,0,0,0,0,0,0,0,0,0,0,0,0,0,0,0,0,0,0,0,0,0,0,0,0,0,0,0,0,0,0,0,0,0,0,0,0,0,0,0,0,0,0,0,0,0,0,0,0,0,0,0,0,0,0,0,0],"id":13,"left_children":[1,3,5,7,9,11,13,15,17,19,21,23,25,27,29,-1,31,33,-1,35,37,39,41,43,45,47,49,51,53,55,-1,-1,57,-1,59,61,63,65,67,69,71,73,75,77,79,81,83,85,87,-1,-1,-1,-1,-1,-1,-1,-1,-1,-1,-1,-1,-1,-1,-1,-1,-1,-1,-1,-1,-1,-1,-1,-1,-1,-1,-1,-1,-1,-1,-1,-1,-1,-1,-1,-1,-1,-1,-1,-1],"loss_changes":[1.211876E0,9.9781185E-2,3.0935043E-1,6.217313E-3,7.133061E-2,1.11902475E-1,3.0259132E-2,8.664932E-4,7.472771E-5,1.7587155E-2,9.952027E-2,1.717009E-2,1.8256158E-2,1.781556E-2,2.4120808E-3,0E0,7.917639E-6,7.430077E-6,0E0,1.2696087E-2,7.849215E-3,1.6349427E-2,3.2533929E-3,6.8700057E-3,1.0305785E-2,9.930611E-3,1.289919E-3,1.1627376E-3,4.649788E-3,9.1066957E-4,0E0,0E0,1.0331045E-5,0E0,2.9744374E-6,2.4648309E-3,1.3787061E-2,5.449569E-4,1.428687E-3,5.520016E-3,2.5847398E-3,1.0653511E-3,8.6151436E-4,4.3094316E-3,2.4550874E-4,8.312613E-4,1.7617904E-3,2.249524E-3,9.112954E-4,0E0,0E0,0E0,0E0,0E0,0E0,0E0,0E0,0E0,0E0,0E0,0E0,0E0,0E0,0E0,0E0,0E0,0E0,0E0,0E0,0E0,0E0,0E0,0E0,0E0,0E0,0E0,0E0,0E0,0E0,0E0,0E0,0E0,0E0,0E0,0E0,0E0,0E0,0E0,0E0],"parents":[2147483647,0,0,1,1,2,2,3,3,4,4,5,5,6,6,7,7,8,8,9,9,10,10,11,11,12,12,13,13,14,14,16,16,17,17,19,19,20,20,21,21,22,22,23,23,24,24,25,25,26,26,27,27,28,28,29,29,32,32,34,34,35,35,36,36,37,37,38,38,39,39,40,40,41,41,42,42,43,43,44,44,45,45,46,46,47,47,48,48],"right_children":[2,4,6,8,10,12,14,16,18,20,22,24,26,28,30,-1,32,34,-1,36,38,40,42,44,46,48,50,52,54,56,-1,-1,58,-1,60,62,64,66,68,70,72,74,76,78,80,82,84,86,88,-1,-1,-1,-1,-1,-1,-1,-1,-1,-1,-1,-1,-1,-1,-1,-1,-1,-1,-1,-1,-1,-1,-1,-1,-1,-1,-1,-1,-1,-1,-1,-1,-1,-1,-1,-1,-1,-1,-1,-1],"split_conditions":[5.6234132E-2,4.216965E-5,1.4677992E-1,2.6101572E-5,8.254042E-3,3.831187E-1,3.831187E-1,1.615598E-5,3.4807004E-2,1E0,3.831187E-1,1.4677992E-1,2.1544347E-2,3.831187E-1,6.189658E-1,-1.1363043E-3,5.1089698E-3,8.254042E-3,-2.2611817E-4,4.641589E-4,7.498942E-4,3.4807004E-2,1E0,2.1544347E-2,1.3335214E-2,1E0,1E0,1.4677992E-1,1E0,1E0,-9.890464E-3,-5.9208984E-4,1.3335214E-2,1.5539426E-4,2.1544347E-2,6.812921E-5,5.6234132E-2,4.216965E-5,5.1089698E-3,1.1006941E-4,1.4677992E-1,2.1544347E-2,1.3335214E-2,2.6101572E-5,9.0851754E-2,2.3713738E-1,5.6234132E-2,6.189658E-1,1.1006941E-4,-4.730411E-3,-6.557831E-3,-2.9360072E-3,-4.5614573E-3,-5.8546583E-3,-8.466115E-3,-6.5088333E-3,-9.022482E-3,-9.512557E-4,-6.008472E-4,2.1808677E-5,1.2373568E-4,8.5213355E-4,1.5752122E-3,2.4848466E-3,1.7035904E-3,1.5790124E-3,7.60975E-4,-6.9311133E-4,-2.5604225E-3,3.5165763E-4,1.6693913E-3,3.6188666E-4,-7.1088015E-4,-1.9567562E-3,-3.2514425E-3,-2.411293E-3,-4.9166665E-3,-1.4493471E-3,9.564027E-5,-1.2056547E-3,-1.889362E-3,-1.0650812E-3,-1.5963793E-3,-2.3932545E-3,-3.873522E-3,-2.3761664E-3,-3.2513745E-3,-3.3799212E-3,-4.6519586E-3],"split_indices":[0,1,1,1,0,0,0,1,0,1,1,0,1,1,1,0,0,0,0,1,0,1,1,1,1,0,0,0,1,0,0,0,0,0,0,1,1,0,0,1,1,0,0,1,0,0,1,0,1,0,0,0,0,0,0,0,0,0,0,0,0,0,0,0,0,0,0,0,0,0,0,0,0,0,0,0,0,0,0,0,0,0,0,0,0,0,0,0,0],"split_type":[0,0,0,0,0,0,0,0,0,0,0,0,0,0,0,0,0,0,0,0,0,0,0,0,0,0,0,0,0,0,0,0,0,0,0,0,0,0,0,0,0,0,0,0,0,0,0,0,0,0,0,0,0,0,0,0,0,0,0,0,0,0,0,0,0,0,0,0,0,0,0,0,0,0,0,0,0,0,0,0,0,0,0,0,0,0,0,0,0],"sum_hessian":[2.826E3,1.991E3,8.35E2,2.5E2,1.741E3,6.66E2,1.69E2,1.63E2,8.7E1,1.338E3,4.03E2,3.78E2,2.88E2,9.6E1,7.3E1,9E1,7.3E1,8.2E1,5E0,1.276E3,6.2E1,3.43E2,6E1,1.88E2,1.9E2,2.32E2,5.6E1,3.8E1,5.8E1,4.3E1,3E1,5.2E1,2.1E1,7E1,1.2E1,3E2,9.76E2,4E1,2.2E1,2.53E2,9E1,4E1,2E1,1.48E2,4E1,1.41E2,4.9E1,1.57E2,7.5E1,3.9E1,1.7E1,1.8E1,2E1,3.8E1,2E1,2.8E1,1.5E1,8E0,1.3E1,8E0,4E0,6.4E1,2.36E2,5.91E2,3.85E2,1.5E1,2.5E1,1.7E1,5E0,3.8E1,2.15E2,5.2E1,3.8E1,2E1,2E1,5E0,1.5E1,2E1,1.28E2,2E1,2E1,7.1E1,7E1,3E1,1.9E1,7.9E1,7.8E1,2.4E1,5.1E1],"tree_param":{"num_deleted":"0","num_feature":"2","num_nodes":"89","size_leaf_vector":"1"}},{"base_weights":[-3.7159567E-4,1.0524002E-2,-3.2450028E-2,1.3457107E-2,-4.2721583E-3,-2.139761E-2,-5.9949733E-2,-4.828913E-3,1.6096279E-2,2.4209146E-3,-3.7324786E-2,-1.4100855E-2,-3.5781864E-2,-4.766156E-2,-7.543025E-2,-8.124749E-3,1.2815308E-3,1.8281478E-2,6.92749E-3,5.3204633E-3,-6.679377E-3,-2.4560688E-2,-4.8061367E-2,-8.217088E-3,-1.973451E-2,-3.1605963E-2,-4.4090496E-3,-3.757137E-2,-6.6145896E-3,-4.8982594E-2,-7.971405E-2,-9.863393E-4,-5.833135E-3,1.4007419E-4,1.986954E-4,1.3517397E-2,2.074018E-2,1.3413509E-2,-1.1222532E-2,-6.042121E-3,9.375781E-3,-2.5824606E-3,-1.3670868E-2,-1.9084075E-2,-3.4610492E-3,-3.3446276E-3,-5.342826E-3,-2.1758764E-3,-7.2285626E-3,-1.6502585E-2,-2.607894E-3,-2.670414E-2,-3.6216397E-2,-2.2770658E-2,-4.1951756E-3,-2.7907293E-3,-5.4109315E-3,-7.163664E-3,-9.218162E-3,-5.339958E-4,-7.3950796E-4,5.3983928E-5,-1.8218756E-5,8.8479073E-4,1.5796522E-3,2.394552E-3,1.6870886E-3,1.8507099E-3,9.3208347E-4,-2.140586E-4,-2.0482463E-3,-1.348018E-3,-3.2000514E-4,1.3695006E-3,7.070713E-4,2.3449134E-4,-5.288557E-4,-1.0908277E-3,-2.106146E-3,-1.1198055E-3,-2.523518E-3,-4.934069E-4,-1.416203E-3,-1.3310848E-3,-1.9266818E-3,-1.6767768E-3,-2.8323669E-3,-1.9752732E-3,-3.7396883E-3,-1.2886991E-3,-2.5206083E-3],"categories":[],"categories_nodes":[],"categories_segments":[],"categories_sizes":[],"default_left":[0,0,0,0,0,0,0,0,0,0,0,0,0,0,0,0,0,0,0,0,0,0,0,0,0,0,0,0,0,0,0,0,0,0,0,0,0,0,0,0,0,0,0,0,0,0,0,0,0,0,0,0,0,0,0,0,0,0,0,0,0,0,0,0,0,0,0,0,0,0,0,0,0,0,0,0,0,0,0,0,0,0,0,0,0,0,0,0,0,0,0],"id":14,"left_children":[1,3,5,7,9,11,13,15,17,19,21,23,25,27,29,31,33,35,37,39,41,43,45,47,49,51,-1,53,-1,55,57,-1,59,-1,61,63,65,67,69,71,73,75,77,79,-1,-1,-1,-1,81,83,-1,85,87,89,-1,-1,-1,-1,-1,-1,-1,-1,-1,-1,-1,-1,-1,-1,-1,-1,-1,-1,-1,-1,-1,-1,-1,-1,-1,-1,-1,-1,-1,-1,-1,-1,-1,-1,-1,-1,-1],"loss_changes":[9.884167E-1,9.167214E-2,2.1664095E-1,8.51118E-2,7.751864E-2,5.3339094E-2,3.5401404E-2,4.501414E-3,3.072825E-2,7.740465E-3,6.9051012E-3,1.1174142E-2,4.5741796E-3,1.9336522E-2,6.1787963E-3,5.201893E-4,9.919473E-6,1.4279425E-2,3.523151E-2,1.028616E-2,1.998388E-3,9.356197E-4,6.4459443E-4,2.1049976E-3,3.1374544E-3,1.6996264E-3,0E0,4.101701E-3,0E0,1.1066347E-4,9.49353E-4,0E0,1.0580989E-5,0E0,1.2677749E-6,4.3938756E-3,9.741187E-3,4.413709E-3,6.5999106E-3,1.2040918E-3,1.5359689E-3,6.2576286E-4,3.0110218E-4,7.3607685E-4,0E0,0E0,0E0,0E0,2.459623E-3,7.8462437E-4,0E0,5.067028E-4,3.8854778E-4,1.5658792E-4,0E0,0E0,0E0,0E0,0E0,0E0,0E0,0E0,0E0,0E0,0E0,0E0,0E0,0E0,0E0,0E0,0E0,0E0,0E0,0E0,0E0,0E0,0E0,0E0,0E0,0E0,0E0,0E0,0E0,0E0,0E0,0E0,0E0,0E0,0E0,0E0,0E0],"parents":[2147483647,0,0,1,1,2,2,3,3,4,4,5,5,6,6,7,7,8,8,9,9,10,10,11,11,12,12,13,13,14,14,15,15,16,16,17,17,18,18,19,19,20,20,21,21,22,22,23,23,24,24,25,25,27,27,29,29,30,30,32,32,34,34,35,35,36,36,37,37,38,38,39,39,40,40,41,41,42,42,43,43,48,48,49,49,51,51,52,52,53,53],"right_children":[2,4,6,8,10,12,14,16,18,20,22,24,26,28,30,32,34,36,38,40,42,44,46,48,50,52,-1,54,-1,56,58,-1,60,-1,62,64,66,68,70,72,74,76,78,80,-1,-1,-1,-1,82,84,-1,86,88,90,-1,-1,-1,-1,-1,-1,-1,-1,-1,-1,-1,-1,-1,-1,-1,-1,-1,-1,-1,-1,-1,-1,-1,-1,-1,-1,-1,-1,-1,-1,-1,-1,-1,-1,-1,-1,-1],"split_conditions":[9.0851754E-2,2.1544347E-2,5.6234132E-2,4.216965E-5,2.3713738E-1,6.189658E-1,3.831187E-1,2.6101572E-5,2.3713738E-1,2.1544347E-2,6.189658E-1,2.3713738E-1,3.1622776E-3,6.189658E-1,1.4677992E-1,1.615598E-5,8.254042E-3,7.498942E-4,3.1622776E-3,6.812921E-5,5.6234132E-2,5.6234132E-2,3.4807004E-2,1.615598E-5,3.1622776E-3,1E0,-4.4090496E-3,1.4677992E-1,-6.6145896E-3,6.189658E-1,1E0,-9.863393E-4,5.1089698E-3,1.4007419E-4,1.3335214E-2,1.1006941E-4,7.498942E-4,1.1006941E-4,6.189658E-1,1.615598E-5,3.4807004E-2,5.6234132E-2,1.4677992E-1,3.831187E-1,-3.4610492E-3,-3.3446276E-3,-5.342826E-3,-2.1758764E-3,8.254042E-3,3.831187E-1,-2.607894E-3,2.6101572E-5,1.615598E-5,9.0851754E-2,-4.1951756E-3,-2.7907293E-3,-5.4109315E-3,-7.163664E-3,-9.218162E-3,-5.339958E-4,-7.3950796E-4,5.3983928E-5,-1.8218756E-5,8.8479073E-4,1.5796522E-3,2.394552E-3,1.6870886E-3,1.8507099E-3,9.3208347E-4,-2.140586E-4,-2.0482463E-3,-1.348018E-3,-3.2000514E-4,1.3695006E-3,7.070713E-4,2.3449134E-4,-5.288557E-4,-1.0908277E-3,-2.106146E-3,-1.1198055E-3,-2.523518E-3,-4.934069E-4,-1.416203E-3,-1.3310848E-3,-1.9266818E-3,-1.6767768E-3,-2.8323669E-3,-1.9752732E-3,-3.7396883E-3,-1.2886991E-3,-2.5206083E-3],"split_indices":[0,0,1,1,1,0,1,1,1,1,1,0,1,0,0,1,0,1,0,1,0,0,0,1,1,0,0,0,0,1,1,0,0,0,0,1,0,0,1,1,0,1,1,1,0,0,0,0,1,0,0,1,1,1,0,0,0,0,0,0,0,0,0,0,0,0,0,0,0,0,0,0,0,0,0,0,0,0,0,0,0,0,0,0,0,0,0,0,0,0,0],"split_type":[0,0,0,0,0,0,0,0,0,0,0,0,0,0,0,0,0,0,0,0,0,0,0,0,0,0,0,0,0,0,0,0,0,0,0,0,0,0,0,0,0,0,0,0,0,0,0,0,0,0,0,0,0,0,0,0,0,0,0,0,0,0,0,0,0,0,0,0,0,0,0,0,0,0,0,0,0,0,0,0,0,0,0,0,0,0,0,0,0,0,0],"sum_hessian":[2.826E3,2.11E3,7.16E2,1.761E3,3.49E2,5.12E2,2.04E2,2.22E2,1.539E3,2.91E2,5.8E1,3.41E2,1.71E2,1.16E2,8.8E1,1.44E2,7.8E1,1.242E3,2.97E2,2.21E2,7E1,2.8E1,3E1,1.68E2,1.73E2,1.17E2,5.4E1,7.7E1,3.9E1,1.4E1,7.4E1,8E1,6.4E1,7E1,8E0,4.25E2,8.17E2,2.19E2,7.8E1,5.8E1,1.63E2,4.5E1,2.5E1,2E1,8E0,1E1,2E1,1E1,1.58E2,1.17E2,5.6E1,6E1,5.7E1,1.9E1,5.8E1,4E0,1E1,4.9E1,2.5E1,5.2E1,1.2E1,4E0,4E0,1.41E2,2.84E2,4.44E2,3.73E2,9.6E1,1.23E2,4E1,3.8E1,1.5E1,4.3E1,5.5E1,1.08E2,1.6E1,2.9E1,2E1,5E0,1E1,1E1,1.2E2,3.8E1,5.7E1,6E1,1E1,5E1,5E0,5.2E1,5E0,1.4E1],"tree_param":{"num_deleted":"0","num_feature":"2","num_nodes":"91","size_leaf_vector":"1"}},{"base_weights":[-3.6191594E-4,1.0561958E-2,-2.6390618E-2,-4.580717E-3,1.2737761E-2,-1.9364355E-2,-6.2412817E-2,-7.543832E-3,9.935058E-4,1.6135486E-2,4.429429E-3,-9.943836E-3,-3.1705685E-2,-4.9082026E-2,-7.113085E-2,-9.2239835E-4,-5.375756E-3,1.1839134E-3,-1.8060506E-4,1.6719174E-2,3.992303E-3,9.382045E-3,-2.3780568E-2,-6.747813E-3,-2.2603633E-2,-2.7485562E-2,-4.9436644E-2,-4.2240977E-2,-6.397215E-3,-6.47616E-2,-8.594151E-3,-5.0673177E-3,-8.618737E-4,1.2934886E-4,7.1636506E-4,1.2110225E-2,1.8580202E-2,9.345816E-3,-5.1928028E-3,1.3069242E-2,1.2608719E-3,-1.3033899E-2,-3.050592E-2,-1.41287E-3,-1.1942307E-2,-1.8300448E-2,-3.3822085E-3,-2.3491075E-2,-3.553042E-2,-4.2642048E-3,-6.078152E-3,-3.627757E-3,-4.966417E-3,-5.4189456E-3,-7.352744E-3,-5.366179E-4,-2.737534E-4,4.2304822E-5,1.3943792E-4,6.8980054E-4,1.3172497E-3,2.1466536E-3,1.4631202E-3,1.257477E-3,6.5726775E-4,5.32043E-5,-6.494549E-4,3.7019205E-4,1.4860125E-3,3.571815E-4,-7.0235215E-4,-2.1210476E-4,-1.8129492E-3,-2.400111E-3,-4.1202377E-3,-1.2080448E-3,2.08943E-5,-1.047183E-3,-1.7818464E-3,-1.3684311E-3,-2.2460439E-3,-2.0911102E-3,-2.9505368E-3,-2.991867E-3,-4.094554E-3],"categories":[],"categories_nodes":[],"categories_segments":[],"categories_sizes":[],"default_left":[0,0,0,0,0,0,0,0,0,0,0,0,0,0,0,0,0,0,0,0,0,0,0,0,0,0,0,0,0,0,0,0,0,0,0,0,0,0,0,0,0,0,0,0,0,0,0,0,0,0,0,0,0,0,0,0,0,0,0,0,0,0,0,0,0,0,0,0,0,0,0,0,0,0,0,0,0,0,0,0,0,0,0,0,0],"id":15,"left_children":[1,3,5,7,9,11,13,15,17,19,21,23,25,27,29,-1,31,33,-1,35,37,39,41,43,45,47,49,51,-1,53,-1,55,-1,-1,57,59,61,63,65,67,69,71,73,75,77,79,-1,81,83,-1,-1,-1,-1,-1,-1,-1,-1,-1,-1,-1,-1,-1,-1,-1,-1,-1,-1,-1,-1,-1,-1,-1,-1,-1,-1,-1,-1,-1,-1,-1,-1,-1,-1,-1,-1],"loss_changes":[8.0409175E-1,6.568973E-2,2.1038425E-1,4.153278E-3,4.9104214E-2,8.118418E-2,1.2314439E-2,5.4781605E-4,4.9047216E-5,8.693814E-3,7.105775E-2,1.5991416E-2,2.1313727E-2,3.1040013E-3,1.980871E-3,0E0,3.0345283E-5,3.3256147E-6,0E0,9.887725E-3,2.900541E-3,1.2919486E-2,5.0952993E-3,8.851073E-3,3.2430515E-3,7.102728E-3,1.8019378E-3,5.7548285E-5,0E0,1.5760064E-3,0E0,3.404962E-5,0E0,0E0,2.9898238E-6,1.8027164E-3,9.237558E-3,2.4866057E-4,1.6740593E-4,4.927393E-3,2.6287744E-3,1.6853781E-3,2.2117086E-3,2.753354E-3,1.2132134E-3,8.448288E-4,0E0,1.989819E-3,1.2060255E-3,0E0,0E0,0E0,0E0,0E0,0E0,0E0,0E0,0E0,0E0,0E0,0E0,0E0,0E0,0E0,0E0,0E0,0E0,0E0,0E0,0E0,0E0,0E0,0E0,0E0,0E0,0E0,0E0,0E0,0E0,0E0,0E0,0E0,0E0,0E0,0E0],"parents":[2147483647,0,0,1,1,2,2,3,3,4,4,5,5,6,6,7,7,8,8,9,9,10,10,11,11,12,12,13,13,14,14,16,16,17,17,19,19,20,20,21,21,22,22,23,23,24,24,25,25,26,26,27,27,29,29,31,31,34,34,35,35,36,36,37,37,38,38,39,39,40,40,41,41,42,42,43,43,44,44,45,45,47,47,48,48],"right_children":[2,4,6,8,10,12,14,16,18,20,22,24,26,28,30,-1,32,34,-1,36,38,40,42,44,46,48,50,52,-1,54,-1,56,-1,-1,58,60,62,64,66,68,70,72,74,76,78,80,-1,82,84,-1,-1,-1,-1,-1,-1,-1,-1,-1,-1,-1,-1,-1,-1,-1,-1,-1,-1,-1,-1,-1,-1,-1,-1,-1,-1,-1,-1,-1,-1,-1,-1,-1,-1,-1,-1],"split_conditions":[5.6234132E-2,4.216965E-5,2.3713738E-1,2.6101572E-5,5.1089698E-3,3.831187E-1,2.3713738E-1,1.615598E-5,3.4807004E-2,1E0,3.831187E-1,3.4807004E-2,3.4807004E-2,1E0,1E0,-9.2239835E-4,3.4807004E-2,5.1089698E-3,-1.8060506E-4,7.498942E-4,4.641589E-4,2.1544347E-2,1.3335214E-2,1.4677992E-1,2.3713738E-1,1E0,1E0,1.4677992E-1,-6.397215E-3,6.189658E-1,-8.594151E-3,1.3335214E-2,-8.618737E-4,1.2934886E-4,2.1544347E-2,6.812921E-5,5.6234132E-2,4.216965E-5,7.498942E-4,1.1006941E-4,3.4807004E-2,6.189658E-1,1E0,2.6101572E-5,8.254042E-3,9.0851754E-2,-3.3822085E-3,3.1622776E-3,7.498942E-4,-4.2642048E-3,-6.078152E-3,-3.627757E-3,-4.966417E-3,-5.4189456E-3,-7.352744E-3,-5.366179E-4,-2.737534E-4,4.2304822E-5,1.3943792E-4,6.8980054E-4,1.3172497E-3,2.1466536E-3,1.4631202E-3,1.257477E-3,6.5726775E-4,5.32043E-5,-6.494549E-4,3.7019205E-4,1.4860125E-3,3.571815E-4,-7.0235215E-4,-2.1210476E-4,-1.8129492E-3,-2.400111E-3,-4.1202377E-3,-1.2080448E-3,2.08943E-5,-1.047183E-3,-1.7818464E-3,-1.3684311E-3,-2.2460439E-3,-2.0911102E-3,-2.9505368E-3,-2.991867E-3,-4.094554E-3],"split_indices":[0,1,1,1,0,0,0,1,0,1,1,1,1,1,1,0,0,0,0,1,0,1,0,0,0,0,0,0,0,0,0,0,0,0,0,1,1,0,0,1,0,1,1,1,1,1,0,1,1,0,0,0,0,0,0,0,0,0,0,0,0,0,0,0,0,0,0,0,0,0,0,0,0,0,0,0,0,0,0,0,0,0,0,0,0],"split_type":[0,0,0,0,0,0,0,0,0,0,0,0,0,0,0,0,0,0,0,0,0,0,0,0,0,0,0,0,0,0,0,0,0,0,0,0,0,0,0,0,0,0,0,0,0,0,0,0,0,0,0,0,0,0,0,0,0,0,0,0,0,0,0,0,0,0,0,0,0,0,0,0,0,0,0,0,0,0,0,0,0,0,0,0,0],"sum_hessian":[2.826E3,1.991E3,8.35E2,2.5E2,1.741E3,7E2,1.35E2,1.63E2,8.7E1,1.235E3,5.06E2,3.98E2,3.02E2,5.6E1,7.9E1,9E1,7.3E1,8.2E1,5E0,1.178E3,5.7E1,4.31E2,7.5E1,3.19E2,7.9E1,2.46E2,5.6E1,4.1E1,1.5E1,5.9E1,2E1,6.9E1,4E0,6.5E1,1.7E1,3.41E2,8.37E2,3.6E1,2.1E1,2.96E2,1.35E2,3E1,4.5E1,1.58E2,1.61E2,5.9E1,2E1,1.67E2,7.9E1,3.8E1,1.8E1,2.6E1,1.5E1,3E1,2.9E1,6E1,9E0,1.3E1,4E0,5.9E1,2.82E2,4.81E2,3.56E2,1.5E1,2.1E1,4E0,1.7E1,4.8E1,2.48E2,1.06E2,2.9E1,1E1,2E1,3E1,1.5E1,2E1,1.38E2,1.31E2,3E1,3E1,2.9E1,1.2E2,4.7E1,4.2E1,3.7E1],"tree_param":{"num_deleted":"0","num_feature":"2","num_nodes":"85","size_leaf_vector":"1"}},{"base_weights":[-3.5134013E-4,8.526777E-3,-2.6489908E-2,1.0940257E-2,-3.6477377E-3,-1.8338192E-2,-5.1632147E-2,-3.9153416E-3,1.3084321E-2,1.8868234E-3,-3.0977298E-2,-1.2222833E-2,-3.0400949E-2,-4.3596484E-2,-6.5934926E-2,-6.5893563E-3,1.0422219E-3,1.4280552E-2,1.651462E-3,3.6438543E-3,-7.838299E-3,-2.4428414E-2,-4.705065E-3,-7.1141217E-3,-1.7126292E-2,-2.5883336E-2,-3.8134445E-2,-3.82484E-2,-6.708745E-3,-5.0870976E-3,-7.2042434E-3,-7.978238E-4,-4.757222E-3,1.1112372E-3,-2.0145178E-5,1.7012188E-2,1.1743713E-2,9.2317425E-3,-1.4673214E-2,-5.083884E-3,6.3348687E-3,-1.0450522E-3,-1.0872505E-2,-1.5414856E-2,-2.8559053E-2,-5.1552323E-3,-1.2205967E-3,-1.3826501E-2,-2.5693202E-2,-1.7212715E-3,-2.747721E-2,-3.4355714E-3,-4.49188E-3,-2.2089148E-3,-4.1694265E-2,-4.2895396E-4,-6.2979874E-4,1.1661062E-4,6.379783E-5,1.2147211E-3,1.9533369E-3,1.3921103E-3,6.672439E-4,1.5063924E-3,6.555273E-4,-7.673808E-4,-2.2973728E-3,-1.1262402E-3,-2.7216077E-4,8.57643E-4,3.7882353E-5,3.1834442E-4,-3.477645E-4,-8.213753E-4,-1.4959894E-3,-7.629941E-4,-1.8259824E-3,-1.8275687E-3,-3.2272786E-3,-1.4582325E-3,-3.3252846E-4,-1.1285823E-3,-1.6024476E-3,-2.2616785E-3,-3.4544428E-3,-2.3496745E-3,-3.1134016E-3,-3.493132E-3,-4.724578E-3],"categories":[],"categories_nodes":[],"categories_segments":[],"categories_sizes":[],"default_left":[0,0,0,0,0,0,0,0,0,0,0,0,0,0,0,0,0,0,0,0,0,0,0,0,0,0,0,0,0,0,0,0,0,0,0,0,0,0,0,0,0,0,0,0,0,0,0,0,0,0,0,0,0,0,0,0,0,0,0,0,0,0,0,0,0,0,0,0,0,0,0,0,0,0,0,0,0,0,0,0,0,0,0,0,0,0,0,0,0],"id":16,"left_children":[1,3,5,7,9,11,13,15,17,19,21,23,25,27,29,31,33,35,37,39,41,43,-1,45,47,49,51,53,-1,-1,-1,-1,55,57,-1,59,61,63,65,67,69,71,73,75,77,79,-1,81,83,-1,85,-1,-1,-1,87,-1,-1,-1,-1,-1,-1,-1,-1,-1,-1,-1,-1,-1,-1,-1,-1,-1,-1,-1,-1,-1,-1,-1,-1,-1,-1,-1,-1,-1,-1,-1,-1,-1,-1],"loss_changes":[6.5626305E-1,6.20673E-2,1.4600396E-1,5.6173325E-2,5.299844E-2,3.968449E-2,1.7238647E-2,2.9630892E-3,2.1037996E-2,5.0180648E-3,5.061116E-3,8.946393E-3,5.371481E-3,1.18816495E-2,1.9473135E-3,3.3101533E-4,7.00463E-6,9.460241E-3,1.8326066E-2,5.85685E-3,9.1618253E-4,1.1979621E-3,0E0,1.7224867E-3,4.846249E-3,1.1577904E-3,1.2313575E-4,4.424542E-3,0E0,0E0,0E0,0E0,1.9822852E-5,1.2035889E-6,0E0,7.968336E-3,7.923715E-3,1.4778273E-3,2.5543412E-3,8.304748E-4,2.5334111E-3,1.6536404E-4,2.1401118E-4,2.1504355E-4,5.176924E-4,2.2114015E-3,0E0,5.7303533E-4,5.802214E-4,0E0,6.9491565E-4,0E0,0E0,0E0,1.2781173E-3,0E0,0E0,0E0,0E0,0E0,0E0,0E0,0E0,0E0,0E0,0E0,0E0,0E0,0E0,0E0,0E0,0E0,0E0,0E0,0E0,0E0,0E0,0E0,0E0,0E0,0E0,0E0,0E0,0E0,0E0,0E0,0E0,0E0,0E0],"parents":[2147483647,0,0,1,1,2,2,3,3,4,4,5,5,6,6,7,7,8,8,9,9,10,10,11,11,12,12,13,13,14,14,15,15,16,16,17,17,18,18,19,19,20,20,21,21,23,23,24,24,25,25,26,26,27,27,32,32,33,33,35,35,36,36,37,37,38,38,39,39,40,40,41,41,42,42,43,43,44,44,45,45,47,47,48,48,50,50,54,54],"right_children":[2,4,6,8,10,12,14,16,18,20,22,24,26,28,30,32,34,36,38,40,42,44,-1,46,48,50,52,54,-1,-1,-1,-1,56,58,-1,60,62,64,66,68,70,72,74,76,78,80,-1,82,84,-1,86,-1,-1,-1,88,-1,-1,-1,-1,-1,-1,-1,-1,-1,-1,-1,-1,-1,-1,-1,-1,-1,-1,-1,-1,-1,-1,-1,-1,-1,-1,-1,-1,-1,-1,-1,-1,-1,-1],"split_conditions":[9.0851754E-2,2.1544347E-2,9.0851754E-2,4.216965E-5,2.3713738E-1,6.189658E-1,6.189658E-1,2.6101572E-5,6.189658E-1,5.6234132E-2,1E0,2.3713738E-1,3.1622776E-3,1E0,2.3713738E-1,1.615598E-5,1.3335214E-2,4.641589E-4,1.9573418E-3,6.812921E-5,3.4807004E-2,3.4807004E-2,-4.705065E-3,8.254042E-3,8.254042E-3,2.6101572E-5,3.4807004E-2,1.4677992E-1,-6.708745E-3,-5.0870976E-3,-7.2042434E-3,-7.978238E-4,5.1089698E-3,5.1089698E-3,-2.0145178E-5,1.2115276E-3,3.4807004E-2,4.216965E-5,8.254042E-3,1.615598E-5,8.254042E-3,9.0851754E-2,1.4677992E-1,3.831187E-1,3.831187E-1,2.6101572E-5,-1.2205967E-3,3.831187E-1,5.6234132E-2,-1.7212715E-3,1E0,-3.4355714E-3,-4.49188E-3,-2.2089148E-3,2.3713738E-1,-4.2895396E-4,-6.2979874E-4,1.1661062E-4,6.379783E-5,1.2147211E-3,1.9533369E-3,1.3921103E-3,6.672439E-4,1.5063924E-3,6.555273E-4,-7.673808E-4,-2.2973728E-3,-1.1262402E-3,-2.7216077E-4,8.57643E-4,3.7882353E-5,3.1834442E-4,-3.477645E-4,-8.213753E-4,-1.4959894E-3,-7.629941E-4,-1.8259824E-3,-1.8275687E-3,-3.2272786E-3,-1.4582325E-3,-3.3252846E-4,-1.1285823E-3,-1.6024476E-3,-2.2616785E-3,-3.4544428E-3,-2.3496745E-3,-3.1134016E-3,-3.493132E-3,-4.724578E-3],"split_indices":[0,0,1,1,1,0,1,1,1,1,1,0,1,0,0,1,0,0,0,1,0,0,0,1,1,1,1,0,0,0,0,0,0,0,0,1,1,0,0,1,1,1,1,1,1,1,0,0,1,0,0,0,0,0,1,0,0,0,0,0,0,0,0,0,0,0,0,0,0,0,0,0,0,0,0,0,0,0,0,0,0,0,0,0,0,0,0,0,0],"split_type":[0,0,0,0,0,0,0,0,0,0,0,0,0,0,0,0,0,0,0,0,0,0,0,0,0,0,0,0,0,0,0,0,0,0,0,0,0,0,0,0,0,0,0,0,0,0,0,0,0,0,0,0,0,0,0,0,0,0,0,0,0,0,0,0,0,0,0,0,0,0,0,0,0,0,0,0,0,0,0,0,0,0,0,0,0,0,0,0,0],"sum_hessian":[2.826E3,2.11E3,7.16E2,1.761E3,3.49E2,5.42E2,1.74E2,2.22E2,1.539E3,2.91E2,5.8E1,3.61E2,1.81E2,1.14E2,6E1,1.44E2,7.8E1,1.393E3,1.46E2,2.47E2,4.4E1,4.3E1,1.5E1,1.78E2,1.83E2,1.17E2,6.4E1,9.5E1,1.9E1,2E1,4E1,8E1,6.4E1,7.4E1,4E0,6.68E2,7.25E2,1E2,4.6E1,5.8E1,1.89E2,1.4E1,3E1,1.5E1,2.8E1,1.3E2,4.8E1,1.34E2,4.9E1,2E1,9.7E1,4.5E1,1.9E1,1.8E1,7.7E1,5.2E1,1.2E1,6.5E1,9E0,2.3E2,4.38E2,5.06E2,2.19E2,3E1,7E1,2.6E1,2E1,1.5E1,4.3E1,1.37E2,5.2E1,5E0,9E0,2E1,1E1,5E0,1E1,9E0,1.9E1,2E1,1.1E2,6.5E1,6.9E1,3.9E1,1E1,5E1,4.7E1,3.8E1,3.9E1],"tree_param":{"num_deleted":"0","num_feature":"2","num_nodes":"89","size_leaf_vector":"1"}},{"base_weights":[-3.404671E-4,8.57273E-3,-2.1578204E-2,-1.8749355E-3,1.0678517E-2,-1.5809562E-2,-5.1153492E-2,-6.1503965E-3,2.2125677E-3,1.3430686E-2,2.5858353E-3,-8.14446E-3,-2.5851035E-2,-4.285588E-2,-6.0949544E-3,-7.4866065E-4,-4.4241054E-3,2.8447807E-3,-1.002992E-3,1.5887506E-2,1.0546643E-2,9.368452E-3,-1.3789876E-2,-4.7630365E-3,-1.6156465E-2,-2.236775E-2,-4.049175E-2,-3.6607683E-2,-5.777451E-3,-4.1260896E-3,-7.7115063E-4,1.0025422E-4,4.777968E-3,-2.3872734E-3,-2.6070178E-5,1.1485371E-2,1.8505411E-2,1.2173578E-2,5.5807075E-3,1.3223697E-2,5.844318E-3,-9.611512E-3,-2.9169425E-2,-4.7561293E-4,-8.986725E-3,-1.2905564E-2,-2.4863653E-2,-1.903977E-2,-2.907691E-2,-3.49588E-3,-4.971772E-3,-2.9841103E-3,-4.1320263E-3,-4.3900777E-4,-2.103156E-4,7.480588E-4,3.2052837E-4,-1.8533468E-5,-3.8243431E-4,1.0169948E-3,1.2689641E-3,1.9415247E-3,1.4994056E-3,4.6538163E-4,1.2848851E-3,6.9038663E-4,-2.9019118E-4,1.4729366E-3,6.8488717E-4,7.3724607E-4,-9.215077E-5,1.6987721E-4,-1.2496378E-3,-2.2378366E-3,-3.6395565E-3,-7.250574E-4,2.094281E-4,-1.6734261E-3,-8.3366333E-4,-1.0036018E-3,-1.8118821E-3,-1.907013E-3,-2.91032E-3,-1.2134463E-3,-2.0452994E-3,-2.4279158E-3,-3.374076E-3],"categories":[],"categories_nodes":[],"categories_segments":[],"categories_sizes":[],"default_left":[0,0,0,0,0,0,0,0,0,0,0,0,0,0,0,0,0,0,0,0,0,0,0,0,0,0,0,0,0,0,0,0,0,0,0,0,0,0,0,0,0,0,0,0,0,0,0,0,0,0,0,0,0,0,0,0,0,0,0,0,0,0,0,0,0,0,0,0,0,0,0,0,0,0,0,0,0,0,0,0,0,0,0,0,0,0,0],"id":17,"left_children":[1,3,5,7,9,11,13,15,17,19,21,23,25,27,-1,-1,29,31,33,35,37,39,41,43,45,47,49,51,-1,53,-1,-1,55,57,-1,59,61,63,65,67,69,71,73,75,77,79,81,83,85,-1,-1,-1,-1,-1,-1,-1,-1,-1,-1,-1,-1,-1,-1,-1,-1,-1,-1,-1,-1,-1,-1,-1,-1,-1,-1,-1,-1,-1,-1,-1,-1,-1,-1,-1,-1,-1,-1],"loss_changes":[5.353251E-1,4.3845147E-2,1.4182061E-1,5.8680554E-3,3.689295E-2,5.3744674E-2,8.442551E-3,3.451747E-4,3.525152E-4,8.597299E-3,4.7000807E-2,1.0732746E-2,1.4546618E-2,5.0625205E-3,0E0,0E0,4.0679355E-5,5.0805043E-4,2.9176248E-5,7.4626952E-3,4.5534E-3,3.985053E-3,7.6880436E-3,5.10239E-3,3.0192547E-3,4.961394E-3,1.1716038E-3,5.8457255E-4,0E0,2.8148992E-5,0E0,0E0,2.735483E-4,3.0934614E-5,0E0,2.6855618E-4,1.0379255E-3,2.1236986E-3,1.6250452E-3,1.2620892E-3,1.6403794E-3,3.251465E-3,4.6142936E-4,2.470126E-3,5.7569053E-4,1.1346107E-3,2.0641647E-4,1.3912804E-3,9.708777E-4,0E0,0E0,0E0,0E0,0E0,0E0,0E0,0E0,0E0,0E0,0E0,0E0,0E0,0E0,0E0,0E0,0E0,0E0,0E0,0E0,0E0,0E0,0E0,0E0,0E0,0E0,0E0,0E0,0E0,0E0,0E0,0E0,0E0,0E0,0E0,0E0,0E0,0E0],"parents":[2147483647,0,0,1,1,2,2,3,3,4,4,5,5,6,6,7,7,8,8,9,9,10,10,11,11,12,12,13,13,16,16,17,17,18,18,19,19,20,20,21,21,22,22,23,23,24,24,25,25,26,26,27,27,29,29,32,32,33,33,35,35,36,36,37,37,38,38,39,39,40,40,41,41,42,42,43,43,44,44,45,45,46,46,47,47,48,48],"right_children":[2,4,6,8,10,12,14,16,18,20,22,24,26,28,-1,-1,30,32,34,36,38,40,42,44,46,48,50,52,-1,54,-1,-1,56,58,-1,60,62,64,66,68,70,72,74,76,78,80,82,84,86,-1,-1,-1,-1,-1,-1,-1,-1,-1,-1,-1,-1,-1,-1,-1,-1,-1,-1,-1,-1,-1,-1,-1,-1,-1,-1,-1,-1,-1,-1,-1,-1,-1,-1,-1,-1,-1,-1],"split_conditions":[5.6234132E-2,6.812921E-5,2.3713738E-1,2.6101572E-5,1.4677992E-1,3.831187E-1,3.831187E-1,1.615598E-5,1.3335214E-2,1.2115276E-3,5.1089698E-3,1.3335214E-2,3.4807004E-2,1E0,-6.0949544E-3,-7.4866065E-4,3.4807004E-2,4.216965E-5,2.1544347E-2,1.2115276E-3,2.1544347E-2,1.7782794E-4,1E0,1.4677992E-1,2.3713738E-1,1E0,1E0,1.4677992E-1,-5.777451E-3,1.3335214E-2,-7.7115063E-4,1.0025422E-4,1.7782794E-4,4.216965E-5,-2.6070178E-5,2.872985E-4,5.6234132E-2,1.1006941E-4,3.4807004E-2,1E0,1E0,8.254042E-3,2.1544347E-2,6.812921E-5,1.615598E-5,9.0851754E-2,5.6234132E-2,4.216965E-5,7.498942E-4,-3.49588E-3,-4.971772E-3,-2.9841103E-3,-4.1320263E-3,-4.3900777E-4,-2.103156E-4,7.480588E-4,3.2052837E-4,-1.8533468E-5,-3.8243431E-4,1.0169948E-3,1.2689641E-3,1.9415247E-3,1.4994056E-3,4.6538163E-4,1.2848851E-3,6.9038663E-4,-2.9019118E-4,1.4729366E-3,6.8488717E-4,7.3724607E-4,-9.215077E-5,1.6987721E-4,-1.2496378E-3,-2.2378366E-3,-3.6395565E-3,-7.250574E-4,2.094281E-4,-1.6734261E-3,-8.3366333E-4,-1.0036018E-3,-1.8118821E-3,-1.907013E-3,-2.91032E-3,-1.2134463E-3,-2.0452994E-3,-2.4279158E-3,-3.374076E-3],"split_indices":[0,1,1,1,1,0,0,1,0,0,0,1,1,1,0,0,0,1,0,1,1,0,1,0,0,0,0,0,0,0,0,0,0,1,0,1,1,1,0,1,1,0,0,1,1,1,1,1,1,0,0,0,0,0,0,0,0,0,0,0,0,0,0,0,0,0,0,0,0,0,0,0,0,0,0,0,0,0,0,0,0,0,0,0,0,0,0],"split_type":[0,0,0,0,0,0,0,0,0,0,0,0,0,0,0,0,0,0,0,0,0,0,0,0,0,0,0,0,0,0,0,0,0,0,0,0,0,0,0,0,0,0,0,0,0,0,0,0,0,0,0,0,0,0,0,0,0,0,0,0,0,0,0,0,0,0,0,0,0,0,0,0,0,0,0,0,0,0,0,0,0,0,0,0,0,0,0],"sum_hessian":[2.826E3,1.991E3,8.35E2,3.34E2,1.657E3,7E2,1.35E2,1.63E2,1.71E2,1.236E3,4.21E2,3.98E2,3.02E2,7.6E1,5.9E1,9E1,7.3E1,1.43E2,2.8E1,6.65E2,5.71E2,2.98E2,1.23E2,2.81E2,1.17E2,2.46E2,5.6E1,5.6E1,2E1,6.9E1,4E0,7.4E1,6.9E1,9E0,1.9E1,2.5E2,4.15E2,4.29E2,1.42E2,1.41E2,1.57E2,9.8E1,2.5E1,1.4E2,1.41E2,8.7E1,3E1,1.67E2,7.9E1,3.8E1,1.8E1,2.6E1,3E1,6E1,9E0,2.4E1,4.5E1,4E0,5E0,1.24E2,1.26E2,3.26E2,8.9E1,3.6E1,3.93E2,1.23E2,1.9E1,1.13E2,2.8E1,1.28E2,2.9E1,2E1,7.8E1,1.5E1,1E1,3.8E1,1.02E2,9E0,1.32E2,5.8E1,2.9E1,1.5E1,1.5E1,3E1,1.37E2,4.2E1,3.7E1],"tree_param":{"num_deleted":"0","num_feature":"2","num_nodes":"87","size_leaf_vector":"1"}},{"base_weights":[-3.2229803E-4,6.911659E-3,-2.1620153E-2,8.900917E-3,-3.1225823E-3,-1.4200398E-2,-4.008217E-2,-1.4368057E-3,1.0989186E-2,7.8082894E-4,-2.9596388E-2,-9.245572E-3,-2.3969876E-2,-3.1649098E-2,-5.0717983E-2,-5.3427345E-3,2.2742825E-3,1.2965265E-2,5.1429644E-3,2.863914E-3,-7.988424E-3,-2.3829537E-2,-3.855946E-3,-5.48225E-3,-1.2847616E-2,-2.0355403E-2,-2.8373187E-2,-2.459039E-2,-4.4622354E-2,-3.2625325E-2,-5.3660274E-2,-6.4508873E-4,-3.8796104E-3,8.470793E-4,3.7472798E-3,9.99996E-3,1.4767278E-2,9.134296E-3,-6.2668365E-3,-4.148048E-3,5.0262394E-3,-4.9043433E-3,-1.3757165E-2,-1.5463823E-3,-2.7239202E-3,-1.6339725E-3,-4.696624E-3,-1.0585447E-2,-1.7305309E-3,-1.3839433E-3,-2.1848737E-3,-2.4464943E-2,-3.1725846E-3,-1.4888352E-2,-2.746243E-3,-3.6375185E-3,-5.1050773E-3,-1.8618101E-3,-3.6026307E-3,-4.761682E-3,-6.321845E-3,-3.437953E-4,-5.3817814E-4,9.3118324E-5,8.94732E-6,6.762471E-4,2.1957686E-4,6.780323E-4,1.0596918E-3,1.6452931E-3,1.1269846E-3,1.2429886E-3,6.557195E-4,-9.305437E-5,-1.4179002E-3,-9.512093E-4,-2.1032123E-4,6.876922E-4,1.1264716E-5,-2.4909765E-4,-6.9692475E-4,-8.00362E-4,-1.8710349E-3,-3.0348529E-4,-9.73195E-4,-8.9872425E-4,-1.1931518E-3,-1.8970987E-3,-2.873565E-3,-8.8192226E-4,-1.6323448E-3],"categories":[],"categories_nodes":[],"categories_segments":[],"categories_sizes":[],"default_left":[0,0,0,0,0,0,0,0,0,0,0,0,0,0,0,0,0,0,0,0,0,0,0,0,0,0,0,0,0,0,0,0,0,0,0,0,0,0,0,0,0,0,0,0,0,0,0,0,0,0,0,0,0,0,0,0,0,0,0,0,0,0,0,0,0,0,0,0,0,0,0,0,0,0,0,0,0,0,0,0,0,0,0,0,0,0,0,0,0,0,0],"id":18,"left_children":[1,3,5,7,9,11,13,15,17,19,21,23,25,27,29,31,33,35,37,39,41,43,-1,45,47,49,51,53,55,57,59,-1,61,63,65,67,69,71,73,75,77,79,81,-1,-1,-1,83,85,-1,-1,-1,87,-1,89,-1,-1,-1,-1,-1,-1,-1,-1,-1,-1,-1,-1,-1,-1,-1,-1,-1,-1,-1,-1,-1,-1,-1,-1,-1,-1,-1,-1,-1,-1,-1,-1,-1,-1,-1,-1,-1],"loss_changes":[4.3569902E-1,4.2164832E-2,9.7648054E-2,3.8053736E-2,3.6191463E-2,2.461069E-2,1.6781807E-2,4.317239E-3,1.6869426E-2,5.612611E-3,1.407139E-3,4.5656003E-3,2.1599457E-3,9.616926E-3,2.9871315E-3,2.1007098E-4,3.184724E-4,5.703479E-3,1.6998237E-2,3.7810607E-3,9.822147E-4,4.3450668E-4,0E0,1.3648137E-3,1.5714411E-3,6.51218E-4,2.065599E-4,1.7645732E-3,2.6367605E-4,4.383363E-5,1.3220757E-3,0E0,2.4621608E-5,4.9503687E-6,3.3600896E-4,7.2961673E-4,3.817588E-3,2.2625811E-3,4.0823035E-3,6.2714086E-4,1.7269901E-3,1.8197473E-4,4.2021694E-4,0E0,0E0,0E0,1.3009068E-3,1.4662184E-4,0E0,0E0,0E0,3.6991574E-4,0E0,3.0235853E-5,0E0,0E0,0E0,0E0,0E0,0E0,0E0,0E0,0E0,0E0,0E0,0E0,0E0,0E0,0E0,0E0,0E0,0E0,0E0,0E0,0E0,0E0,0E0,0E0,0E0,0E0,0E0,0E0,0E0,0E0,0E0,0E0,0E0,0E0,0E0,0E0,0E0],"parents":[2147483647,0,0,1,1,2,2,3,3,4,4,5,5,6,6,7,7,8,8,9,9,10,10,11,11,12,12,13,13,14,14,15,15,16,16,17,17,18,18,19,19,20,20,21,21,23,23,24,24,25,25,26,26,27,27,28,28,29,29,30,30,32,32,33,33,34,34,35,35,36,36,37,37,38,38,39,39,40,40,41,41,42,42,46,46,47,47,51,51,53,53],"right_children":[2,4,6,8,10,12,14,16,18,20,22,24,26,28,30,32,34,36,38,40,42,44,-1,46,48,50,52,54,56,58,60,-1,62,64,66,68,70,72,74,76,78,80,82,-1,-1,-1,84,86,-1,-1,-1,88,-1,90,-1,-1,-1,-1,-1,-1,-1,-1,-1,-1,-1,-1,-1,-1,-1,-1,-1,-1,-1,-1,-1,-1,-1,-1,-1,-1,-1,-1,-1,-1,-1,-1,-1,-1,-1,-1,-1],"split_conditions":[9.0851754E-2,2.1544347E-2,5.6234132E-2,6.812921E-5,3.831187E-1,6.189658E-1,3.831187E-1,2.6101572E-5,1.4677992E-1,5.6234132E-2,1E0,2.3713738E-1,1.2115276E-3,6.189658E-1,1.4677992E-1,1.615598E-5,4.216965E-5,1.2115276E-3,3.1622776E-3,6.812921E-5,5.6234132E-2,3.4807004E-2,-3.855946E-3,1.615598E-5,3.1622776E-3,2.6101572E-5,1E0,1.4677992E-1,1E0,6.189658E-1,1E0,-6.4508873E-4,5.1089698E-3,8.254042E-3,1.7782794E-4,1.1006941E-4,1.9573418E-3,1.1006941E-4,6.189658E-1,1.615598E-5,8.254042E-3,3.4807004E-2,1.4677992E-1,-1.5463823E-3,-2.7239202E-3,-1.6339725E-3,8.254042E-3,3.831187E-1,-1.7305309E-3,-1.3839433E-3,-2.1848737E-3,8.254042E-3,-3.1725846E-3,9.0851754E-2,-2.746243E-3,-3.6375185E-3,-5.1050773E-3,-1.8618101E-3,-3.6026307E-3,-4.761682E-3,-6.321845E-3,-3.437953E-4,-5.3817814E-4,9.3118324E-5,8.94732E-6,6.762471E-4,2.1957686E-4,6.780323E-4,1.0596918E-3,1.6452931E-3,1.1269846E-3,1.2429886E-3,6.557195E-4,-9.305437E-5,-1.4179002E-3,-9.512093E-4,-2.1032123E-4,6.876922E-4,1.1264716E-5,-2.4909765E-4,-6.9692475E-4,-8.00362E-4,-1.8710349E-3,-3.0348529E-4,-9.73195E-4,-8.9872425E-4,-1.1931518E-3,-1.8970987E-3,-2.873565E-3,-8.8192226E-4,-1.6323448E-3],"split_indices":[0,0,1,1,1,0,1,1,1,1,1,0,1,0,0,1,1,1,0,1,0,0,0,1,1,1,0,0,0,1,1,0,0,0,0,1,0,0,1,1,1,0,1,0,0,0,1,0,0,0,0,1,0,1,0,0,0,0,0,0,0,0,0,0,0,0,0,0,0,0,0,0,0,0,0,0,0,0,0,0,0,0,0,0,0,0,0,0,0,0,0],"split_type":[0,0,0,0,0,0,0,0,0,0,0,0,0,0,0,0,0,0,0,0,0,0,0,0,0,0,0,0,0,0,0,0,0,0,0,0,0,0,0,0,0,0,0,0,0,0,0,0,0,0,0,0,0,0,0,0,0,0,0,0,0,0,0,0,0,0,0,0,0,0,0,0,0,0,0,0,0,0,0,0,0,0,0,0,0,0,0,0,0,0,0],"sum_hessian":[2.826E3,2.11E3,7.16E2,1.761E3,3.49E2,5.12E2,2.04E2,2.96E2,1.465E3,3.05E2,4.4E1,3.41E2,1.71E2,1.16E2,8.8E1,1.44E2,1.52E2,1.094E3,3.71E2,2.47E2,5.8E1,2.9E1,1.5E1,1.68E2,1.73E2,9.7E1,7.4E1,7.7E1,3.9E1,1.4E1,7.4E1,8E1,6.4E1,7.8E1,7.4E1,4.16E2,6.78E2,2.75E2,9.6E1,5.8E1,1.89E2,3.9E1,1.9E1,1E1,1.9E1,1E1,1.58E2,1.17E2,5.6E1,2E1,7.7E1,3.8E1,3.6E1,1.9E1,5.8E1,2E1,1.9E1,4E0,1E1,4.9E1,2.5E1,5.2E1,1.2E1,7E1,8E0,2.4E1,5E1,6.7E1,3.49E2,4.55E2,2.23E2,1.19E2,1.56E2,5.8E1,3.8E1,1.5E1,4.3E1,1.37E2,5.2E1,1.9E1,2E1,1E1,9E0,1.2E2,3.8E1,5.7E1,6E1,1.9E1,1.9E1,5E0,1.4E1],"tree_param":{"num_deleted":"0","num_feature":"2","num_nodes":"91","size_leaf_vector":"1"}},{"base_weights":[-3.1010027E-4,6.958461E-3,-1.7629076E-2,-1.519933E-3,8.667329E-3,-1.2889144E-2,-4.193101E-2,-5.0159865E-3,1.82235E-3,1.0610611E-2,1.0467875E-3,-6.6503147E-3,-2.1062093E-2,-3.500791E-2,-5.0116807E-2,-6.074546E-4,-3.64646E-3,2.341576E-3,-8.18715E-4,1.2744886E-2,8.094439E-3,7.1400013E-3,-1.3321843E-2,-4.1962573E-3,-1.3945985E-2,-1.8196685E-2,-3.3109352E-2,-2.979657E-2,-4.7485926E-3,-4.2605653E-2,-5.5768997E-3,-3.3600936E-3,-6.9262984E-4,8.162515E-5,3.942401E-3,-2.3020147E-3,-3.6129356E-6,9.351282E-3,1.4557089E-2,9.994542E-3,3.5103338E-3,1.0779301E-2,3.7072639E-3,-9.432791E-3,-2.4177462E-2,-5.775978E-4,-7.715889E-3,-1.1239882E-2,-2.1215668E-2,-1.2595639E-2,-2.1005841E-2,-2.862179E-3,-4.057807E-3,-2.4597547E-3,-3.3363574E-3,-3.4200312E-3,-5.4014847E-3,-3.5946313E-4,-1.593405E-4,6.113248E-4,2.6768885E-4,-1.7765762E-5,-3.6886436E-4,8.2320225E-4,1.0379284E-3,1.5839447E-3,1.1390022E-3,5.481081E-4,1.0902111E-3,4.6170183E-4,-3.5357903E-4,1.2559004E-3,5.068493E-4,5.214683E-4,-1.18980606E-4,1.0185279E-4,-1.2019485E-3,-1.6631903E-3,-2.7853942E-3,-1.2567743E-3,3.7541795E-5,-1.4051711E-3,-7.218867E-4,-8.8340644E-4,-1.455414E-3,-1.2589236E-3,-2.2670093E-3,-1.0347113E-3,-1.6373033E-3,-1.406106E-3,-2.2466609E-3],"categories":[],"categories_nodes":[],"categories_segments":[],"categories_sizes":[],"default_left":[0,0,0,0,0,0,0,0,0,0,0,0,0,0,0,0,0,0,0,0,0,0,0,0,0,0,0,0,0,0,0,0,0,0,0,0,0,0,0,0,0,0,0,0,0,0,0,0,0,0,0,0,0,0,0,0,0,0,0,0,0,0,0,0,0,0,0,0,0,0,0,0,0,0,0,0,0,0,0,0,0,0,0,0,0,0,0,0,0,0,0],"id":19,"left_children":[1,3,5,7,9,11,13,15,17,19,21,23,25,27,29,-1,31,33,35,37,39,41,43,45,47,49,51,53,-1,55,-1,57,-1,-1,59,61,-1,63,65,67,69,71,73,75,77,79,81,83,85,87,89,-1,-1,-1,-1,-1,-1,-1,-1,-1,-1,-1,-1,-1,-1,-1,-1,-1,-1,-1,-1,-1,-1,-1,-1,-1,-1,-1,-1,-1,-1,-1,-1,-1,-1,-1,-1,-1,-1,-1,-1],"loss_changes":[3.5599682E-1,2.8874196E-2,9.575796E-2,3.9235484E-3,2.4541974E-2,3.5603665E-2,5.9527904E-3,2.1560444E-4,2.3778225E-4,6.99088E-3,2.9687403E-2,7.0851725E-3,9.857178E-3,3.5921782E-3,1.7118454E-4,0E0,4.6230387E-5,3.4839805E-4,3.358029E-5,4.2487457E-3,5.2694753E-3,2.933315E-3,4.0359627E-3,3.8164472E-3,1.7287899E-3,3.6217645E-3,7.490143E-4,2.3639947E-4,0E0,1.0296181E-3,0E0,2.3277069E-5,0E0,0E0,1.7594185E-4,2.8801624E-5,0E0,2.0335801E-4,1.6999766E-3,1.7016456E-3,1.4199354E-3,1.1051521E-3,9.2156476E-4,2.066853E-3,2.580043E-4,1.7073109E-3,3.772173E-4,4.6943966E-4,4.0810555E-5,5.525397E-4,1.3376847E-3,0E0,0E0,0E0,0E0,0E0,0E0,0E0,0E0,0E0,0E0,0E0,0E0,0E0,0E0,0E0,0E0,0E0,0E0,0E0,0E0,0E0,0E0,0E0,0E0,0E0,0E0,0E0,0E0,0E0,0E0,0E0,0E0,0E0,0E0,0E0,0E0,0E0,0E0,0E0,0E0],"parents":[2147483647,0,0,1,1,2,2,3,3,4,4,5,5,6,6,7,7,8,8,9,9,10,10,11,11,12,12,13,13,14,14,16,16,17,17,18,18,19,19,20,20,21,21,22,22,23,23,24,24,25,25,26,26,27,27,29,29,31,31,34,34,35,35,37,37,38,38,39,39,40,40,41,41,42,42,43,43,44,44,45,45,46,46,47,47,48,48,49,49,50,50],"right_children":[2,4,6,8,10,12,14,16,18,20,22,24,26,28,30,-1,32,34,36,38,40,42,44,46,48,50,52,54,-1,56,-1,58,-1,-1,60,62,-1,64,66,68,70,72,74,76,78,80,82,84,86,88,90,-1,-1,-1,-1,-1,-1,-1,-1,-1,-1,-1,-1,-1,-1,-1,-1,-1,-1,-1,-1,-1,-1,-1,-1,-1,-1,-1,-1,-1,-1,-1,-1,-1,-1,-1,-1,-1,-1,-1,-1],"split_conditions":[5.6234132E-2,6.812921E-5,2.3713738E-1,2.6101572E-5,2.3713738E-1,3.831187E-1,3.831187E-1,1.615598E-5,1.3335214E-2,1.2115276E-3,5.1089698E-3,2.1544347E-2,3.4807004E-2,1E0,6.189658E-1,-6.074546E-4,3.4807004E-2,4.216965E-5,2.1544347E-2,1.2115276E-3,2.1544347E-2,1.7782794E-4,1E0,1.4677992E-1,2.3713738E-1,6.189658E-1,1E0,1.4677992E-1,-4.7485926E-3,1E0,-5.5768997E-3,1.3335214E-2,-6.9262984E-4,8.162515E-5,1.7782794E-4,4.216965E-5,-3.6129356E-6,2.872985E-4,5.6234132E-2,1.7782794E-4,3.4807004E-2,1E0,1E0,8.254042E-3,1.3335214E-2,1.615598E-5,1.615598E-5,9.0851754E-2,3.4807004E-2,1.9573418E-3,4.216965E-5,-2.862179E-3,-4.057807E-3,-2.4597547E-3,-3.3363574E-3,-3.4200312E-3,-5.4014847E-3,-3.5946313E-4,-1.593405E-4,6.113248E-4,2.6768885E-4,-1.7765762E-5,-3.6886436E-4,8.2320225E-4,1.0379284E-3,1.5839447E-3,1.1390022E-3,5.481081E-4,1.0902111E-3,4.6170183E-4,-3.5357903E-4,1.2559004E-3,5.068493E-4,5.214683E-4,-1.18980606E-4,1.0185279E-4,-1.2019485E-3,-1.6631903E-3,-2.7853942E-3,