{"learner":{"attributes":{},"feature_names":[],"feature_types":[],"gradient_booster":{"model":{"gbtree_model_param":{"num_parallel_tree":"1","num_trees":"20"},"iteration_indptr":[0,1,2,3,4,5,6,7,8,9,10,11,12,13,14,15,16,17,18,19,20],"tree_info":[0,0,0,0,0,0,0,0,0,0,0,0,0,0,0,0,0,0,0,0],"trees":[{"base_weights":[2.5222311E-8,6.695827E-2,-7.8724444E-2,-9.411392E-2,9.786767E-2,-7.7492E-2,-3.1468123E-2,4.590749E-2,1.0606151E-1,-1.1612643E-1,1.8996367E-3,-9.657103E-2,7.413114E-2,1.0845536E-1,4.1640263E-2,-6.9622725E-2,-6.981248E-2,2.6514191E-2,-5.720589E-2,-6.1917648E-2,-6.405145E-2,8.642719E-2,-4.412387E-2,8.912982E-2,1.0997284E-1,-5.0997537E-2,-1.8270213E-2,-7.5446134E-3,3.583045E-2,-5.340881E-2,-8.514112E-3,6.7328513E-3,5.0375085E-2,-8.665617E-3,5.3430017E-2,5.728827E-2,5.056413E-2],"categories":[],"categories_nodes":[],"categories_segments":[],"categories_sizes":[],"default_left":[0,0,0,0,0,0,0,0,0,0,0,0,0,0,0,0,0,0,0,0,0,0,0,0,0,0,0,0,0,0,0,0,0,0,0,0,0],"id":0,"left_children":[1,3,-1,5,7,-1,9,11,13,15,17,19,21,23,-1,-1,25,27,-1,-1,29,31,-1,33,35,-1,-1,-1,-1,-1,-1,-1,-1,-1,-1,-1,-1],"loss_changes":[9.751814E0,3.2403512E0,0E0,3.9551467E-1,2.2716618E-1,0E0,1.4993809E-1,3.127749E-1,1.6599178E-2,6.3399225E-3,1.1468873E-1,3.5942718E-3,1.3541067E-1,2.5734901E-3,0E0,0E0,3.768526E-3,6.30638E-2,0E0,0E0,1.426911E-2,6.1344832E-2,0E0,6.980482E-2,4.1708946E-3,0E0,0E0,0E0,0E0,0E0,0E0,0E0,0E0,0E0,0E0,0E0,0E0],"parents":[2147483647,0,0,1,1,3,3,4,4,6,6,7,7,8,8,9,9,10,10,11,11,12,12,13,13,16,16,17,17,20,20,21,21,23,23,24,24],"right_children":[2,4,-1,6,8,-1,10,12,14,16,18,20,22,24,-1,-1,26,28,-1,-1,30,32,-1,34,36,-1,-1,-1,-1,-1,-1,-1,-1,-1,-1,-1,-1],"split_conditions":[1E0,1.25E-1,-7.8724444E-2,3.125E-2,5E-1,-7.7492E-2,1.5625E-2,3.90625E-3,5E-1,7.8125E-3,2.5E-1,1.953125E-3,5E-1,1E0,4.1640263E-2,-6.9622725E-2,6.25E-2,6.25E-2,-5.720589E-2,-6.1917648E-2,2.5E-1,7.8125E-3,-4.412387E-2,1.953125E-3,6.25E-2,-5.0997537E-2,-1.8270213E-2,-7.5446134E-3,3.583045E-2,-5.340881E-2,-8.514112E-3,6.7328513E-3,5.0375085E-2,-8.665617E-3,5.3430017E-2,5.728827E-2,5.056413E-2],"split_indices":[1,0,0,0,0,0,1,1,1,1,1,1,1,0,0,0,0,0,0,0,0,1,0,1,1,0,0,0,0,0,0,0,0,0,0,0,0],"split_type":[0,0,0,0,0,0,0,0,0,0,0,0,0,0,0,0,0,0,0,0,0,0,0,0,0,0,0,0,0,0,0,0,0,0,0,0,0],"sum_hessian":[9.23E2,6.48E2,2.75E2,1.04E2,5.44E2,5.2E1,5.2E1,7.5E1,4.69E2,1.4E1,3.8E1,1.2E1,6.3E1,4.21E2,4.8E1,8E0,6E0,3.2E1,6E0,5E0,7E0,5.9E1,4E0,3.5E1,3.86E2,2E0,4E0,1.7E1,1.5E1,3E0,4E0,1E1,4.9E1,5E0,3E1,2.46E2,1.4E2],"tree_param":{"num_deleted":"0","num_feature":"2","num_nodes":"37","size_leaf_vector":"1"}},{"base_weights":[-2.604094E-4,3.3229664E-2,-7.9009674E-2,-4.9393173E-2,4.9086854E-2,-3.2840047E-2,-4.0627297E-2,-3.9477054E-2,-1.890029E-2,2.1495095E-2,5.3444058E-2,-5.5592626E-2,8.93274E-3,-5.781171E-2,3.7268426E-2,5.660576E-2,4.7740214E-2,-3.972141E-2,-3.4585867E-2,2.9382477E-2,-3.268907E-2,-3.6118623E-2,-3.9766096E-2,4.4165377E-2,-2.6474316E-2,3.6619864E-2,5.846872E-2,2.9480025E-2,3.980565E-2,-3.534722E-2,-3.3353071E-3,2.149147E-2,2.1399723E-4,-3.338051E-2,-5.1084696E-3,7.5426E-3,2.8636811E-2,-1.4306068E-3,2.7736008E-2,3.1171398E-2,2.290018E-2,1.602683E-2,2.169281E-2],"categories":[],"categories_nodes":[],"categories_segments":[],"categories_sizes":[],"default_left":[0,0,0,0,0,0,0,0,0,0,0,0,0,0,0,0,0,0,0,0,0,0,0,0,0,0,0,0,0,0,0,0,0,0,0,0,0,0,0,0,0,0,0],"id":1,"left_children":[1,3,5,7,9,-1,-1,-1,11,13,15,17,19,21,23,25,27,-1,29,31,-1,-1,33,35,-1,37,39,-1,41,-1,-1,-1,-1,-1,-1,-1,-1,-1,-1,-1,-1,-1,-1],"loss_changes":[2.4395077E0,8.5272235E-1,2.9221773E-3,9.315455E-2,6.437266E-2,0E0,0E0,0E0,5.4623313E-2,9.722543E-2,5.7736635E-3,8.775748E-3,4.902975E-2,5.1154196E-4,4.2160712E-2,8.917093E-3,1.3143271E-2,0E0,1.3640141E-2,9.826461E-3,0E0,0E0,5.6993244E-3,2.2007428E-2,0E0,2.0999212E-2,1.0395765E-2,0E0,1.5232712E-3,0E0,0E0,0E0,0E0,0E0,0E0,0E0,0E0,0E0,0E0,0E0,0E0,0E0,0E0],"parents":[2147483647,0,0,1,1,2,2,3,3,4,4,8,8,9,9,10,10,11,11,12,12,13,13,14,14,15,15,16,16,18,18,19,19,22,22,23,23,25,25,26,26,28,28],"right_children":[2,4,6,8,10,-1,-1,-1,12,14,16,18,20,22,24,26,28,-1,30,32,-1,-1,34,36,-1,38,40,-1,42,-1,-1,-1,-1,-1,-1,-1,-1,-1,-1,-1,-1,-1,-1],"split_conditions":[1E0,1.25E-1,2E0,3.125E-2,5E-1,-3.2840047E-2,-4.0627297E-2,-3.9477054E-2,3.125E-2,3.90625E-3,1.28E2,6.25E-2,2.5E-1,1.953125E-3,5E-1,1.953125E-3,1.5625E-2,-3.972141E-2,7.8125E-3,1.25E-1,-3.268907E-2,-3.6118623E-2,2.5E-1,1.5625E-2,-2.6474316E-2,2E0,2.5E-1,2.9480025E-2,6.25E-2,-3.534722E-2,-3.3353071E-3,2.149147E-2,2.1399723E-4,-3.338051E-2,-5.1084696E-3,7.5426E-3,2.8636811E-2,-1.4306068E-3,2.7736008E-2,3.1171398E-2,2.290018E-2,1.602683E-2,2.169281E-2],"split_indices":[1,0,1,0,0,0,0,0,1,1,0,0,1,1,1,1,1,0,1,1,0,0,0,1,0,0,1,0,1,0,0,0,0,0,0,0,0,0,0,0,0,0,0],"split_type":[0,0,0,0,0,0,0,0,0,0,0,0,0,0,0,0,0,0,0,0,0,0,0,0,0,0,0,0,0,0,0,0,0,0,0,0,0,0,0,0,0,0,0],"sum_hessian":[9.23E2,6.48E2,2.75E2,1.04E2,5.44E2,4.4E1,2.31E2,5.2E1,5.2E1,7.5E1,4.69E2,2.2E1,3E1,1.2E1,6.3E1,2.96E2,1.73E2,9E0,1.3E1,2.4E1,6E0,5E0,7E0,5.9E1,4E0,2.7E1,2.69E2,6.9E1,1.04E2,5E0,8E0,1.6E1,8E0,3E0,4E0,1.9E1,4E1,9E0,1.8E1,2.03E2,6.6E1,3.6E1,6.8E1],"tree_param":{"num_deleted":"0","num_feature":"2","num_nodes":"43","size_leaf_vector":"1"}},{"base_weights":[-2.5969945E-4,1.6543664E-2,-3.9771017E-2,-2.088695E-2,2.6693003E-2,-3.35698E-2,-2.0401206E-2,-3.5162307E-2,-3.107754E-3,2.762421E-2,1.7942065E-2,-2.2138277E-2,-1.4401801E-2,-2.0110955E-2,-2.3029456E-2,-2.41714E-2,1.0803132E-2,2.0903688E-2,2.9385833E-2,-7.6522306E-3,1.1046724E-2,-2.1846768E-2,-8.675065E-3,1.466978E-2,-2.6687691E-2,-1.1518107E-2,3.201265E-2,3.6215883E-2,2.2655375E-2,-8.641809E-3,7.9166295E-4,9.544528E-3,-1.941266E-2,-4.005006E-3,1.012605E-2,-9.775532E-3,2.9137996E-3,7.27745E-3,1.7102975E-2,1.8934585E-2,1.3744675E-2,1.3964231E-2,9.275215E-3],"categories":[],"categories_nodes":[],"categories_segments":[],"categories_sizes":[],"default_left":[0,0,0,0,0,0,0,0,0,0,0,0,0,0,0,0,0,0,0,0,0,0,0,0,0,0,0,0,0,0,0,0,0,0,0,0,0,0,0,0,0,0,0],"id":2,"left_children":[1,3,5,7,9,11,-1,13,15,17,19,-1,-1,-1,21,-1,23,25,27,29,-1,-1,31,33,-1,35,37,39,41,-1,-1,-1,-1,-1,-1,-1,-1,-1,-1,-1,-1,-1,-1],"loss_changes":[6.141228E-1,2.4711001E-1,3.9553642E-4,3.5169523E-2,3.668487E-3,1.0210499E-3,0E0,3.8005486E-3,4.0165607E-2,4.8316717E-3,5.6941565E-3,0E0,0E0,0E0,7.036465E-3,0E0,1.2942633E-2,3.6025796E-2,1.5820444E-2,7.3897536E-4,0E0,0E0,1.4134663E-2,6.112694E-3,0E0,3.7367065E-3,2.3356006E-3,1.5270859E-3,3.4863725E-3,0E0,0E0,0E0,0E0,0E0,0E0,0E0,0E0,0E0,0E0,0E0,0E0,0E0,0E0],"parents":[2147483647,0,0,1,1,2,2,3,3,4,4,5,5,7,7,8,8,9,9,10,10,14,14,16,16,17,17,18,18,19,19,22,22,23,23,25,25,26,26,27,27,28,28],"right_children":[2,4,6,8,10,12,-1,14,16,18,20,-1,-1,-1,22,-1,24,26,28,30,-1,-1,32,34,-1,36,38,40,42,-1,-1,-1,-1,-1,-1,-1,-1,-1,-1,-1,-1,-1,-1],"split_conditions":[1E0,2.5E-1,2E0,6.25E-2,5E-1,1E0,-2.0401206E-2,3.125E-2,7.8125E-3,3.90625E-3,1E0,-2.2138277E-2,-1.4401801E-2,-2.0110955E-2,3.125E-2,-2.41714E-2,5E-1,2E0,3.2E1,5E-1,1.1046724E-2,-2.1846768E-2,1.25E-1,1.5625E-2,-2.6687691E-2,1E0,4E0,2.5E-1,3.125E-2,-8.641809E-3,7.9166295E-4,9.544528E-3,-1.941266E-2,-4.005006E-3,1.012605E-2,-9.775532E-3,2.9137996E-3,7.27745E-3,1.7102975E-2,1.8934585E-2,1.3744675E-2,1.3964231E-2,9.275215E-3],"split_indices":[1,0,1,0,1,0,0,0,1,1,0,0,0,0,1,0,1,0,0,0,0,0,1,1,0,0,0,1,1,0,0,0,0,0,0,0,0,0,0,0,0,0,0],"split_type":[0,0,0,0,0,0,0,0,0,0,0,0,0,0,0,0,0,0,0,0,0,0,0,0,0,0,0,0,0,0,0,0,0,0,0,0,0,0,0,0,0,0,0],"sum_hessian":[9.23E2,6.48E2,2.75E2,1.38E2,5.1E2,4.4E1,2.31E2,7.6E1,6.2E1,4.59E2,5.1E1,1.1E1,3.3E1,5.2E1,2.4E1,1.4E1,4.8E1,9.8E1,3.61E2,7E0,4.4E1,9E0,1.5E1,4.6E1,2E0,2.5E1,7.3E1,1.77E2,1.84E2,3E0,4E0,8E0,7E0,9E0,3.7E1,1.7E1,8E0,9E0,6.4E1,1.46E2,3.1E1,7.8E1,1.06E2],"tree_param":{"num_deleted":"0","num_feature":"2","num_nodes":"43","size_leaf_vector":"1"}},{"base_weights":[-2.1304861E-4,8.241125E-3,-1.004592E-2,-1.11381775E-2,1.34964725E-2,-1.8254213E-2,-2.264004E-3,1.42720025E-2,9.552827E-3,-1.172937E-2,-1.3593455E-2,-1.2891408E-2,4.9818363E-3,7.1663735E-3,1.4971363E-2,7.3227608E-3,7.1420805E-3,-2.9218849E-3,-1.1373021E-2,1.0216456E-2,-1.94183E-2,-1.5145486E-2,1.2169717E-2,1.6653847E-2,1.1756108E-2,2.2027669E-4,6.138849E-3,-1.0324293E-2,4.7876034E-3,-6.951076E-4,8.850167E-3,-4.858136E-3,-1.7791798E-2,5.685176E-4,9.178072E-3,6.026439E-3,8.747368E-3,7.649438E-3,4.824919E-3,1.3780335E-3,-1.3612899E-3],"categories":[],"categories_nodes":[],"categories_segments":[],"categories_sizes":[],"default_left":[0,0,0,0,0,0,0,0,0,0,0,0,0,0,0,0,0,0,0,0,0,0,0,0,0,0,0,0,0,0,0,0,0,0,0,0,0,0,0,0,0],"id":3,"left_children":[1,3,-1,5,7,9,11,13,15,-1,17,-1,19,21,23,-1,25,27,-1,29,31,-1,33,35,37,39,-1,-1,-1,-1,-1,-1,-1,-1,-1,-1,-1,-1,-1,-1,-1],"loss_changes":[1.5545186E-1,6.624771E-2,0E0,8.736374E-3,1.4265105E-3,1.5489068E-3,1.08645E-2,2.004698E-3,9.6351653E-4,0E0,4.1334564E-3,0E0,6.456931E-3,7.86511E-3,1.8923283E-3,0E0,2.165708E-3,4.8498907E-3,0E0,3.5859863E-3,1.0657853E-3,0E0,2.4362323E-3,7.602349E-4,8.672029E-4,2.0899023E-4,0E0,0E0,0E0,0E0,0E0,0E0,0E0,0E0,0E0,0E0,0E0,0E0,0E0,0E0,0E0],"parents":[2147483647,0,0,1,1,3,3,4,4,5,5,6,6,7,7,8,8,10,10,12,12,13,13,14,14,16,16,17,17,19,19,20,20,22,22,23,23,24,24,25,25],"right_children":[2,4,-1,6,8,10,12,14,16,-1,18,-1,20,22,24,-1,26,28,-1,30,32,-1,34,36,38,40,-1,-1,-1,-1,-1,-1,-1,-1,-1,-1,-1,-1,-1,-1,-1],"split_conditions":[1E0,2.5E-1,-1.004592E-2,6.25E-2,5.12E2,3.125E-2,7.8125E-3,1.953125E-3,7.8125E-3,-1.172937E-2,1.25E-1,-1.2891408E-2,2.5E-1,5E-1,1.25E-1,7.3227608E-3,6.25E-2,1.5625E-2,-1.1373021E-2,3.125E-2,5E-1,-1.5145486E-2,4E0,3.90625E-3,4E0,1.024E3,6.138849E-3,-1.0324293E-2,4.7876034E-3,-6.951076E-4,8.850167E-3,-4.858136E-3,-1.7791798E-2,5.685176E-4,9.178072E-3,6.026439E-3,8.747368E-3,7.649438E-3,4.824919E-3,1.3780335E-3,-1.3612899E-3],"split_indices":[1,0,0,0,0,1,1,1,1,0,1,0,1,0,1,0,1,0,0,1,1,0,0,1,0,0,0,0,0,0,0,0,0,0,0,0,0,0,0,0,0],"split_type":[0,0,0,0,0,0,0,0,0,0,0,0,0,0,0,0,0,0,0,0,0,0,0,0,0,0,0,0,0,0,0,0,0,0,0,0,0,0,0,0,0],"sum_hessian":[9.23E2,6.48E2,2.75E2,1.38E2,5.1E2,7.6E1,6.2E1,4.24E2,8.6E1,3.4E1,4.2E1,1.4E1,4.8E1,3.9E1,3.85E2,2.6E1,6E1,2E1,2.2E1,4E1,8E0,4E0,3.5E1,2.5E2,1.35E2,2.6E1,3.4E1,8E0,1.2E1,1.6E1,2.4E1,6E0,2E0,1.3E1,2.2E1,4.1E1,2.09E2,4.8E1,8.7E1,1.4E1,1.2E1],"tree_param":{"num_deleted":"0","num_feature":"2","num_nodes":"41","size_leaf_vector":"1"}},{"base_weights":[-1.397836E-4,4.0886784E-3,-1.0082291E-2,-5.972147E-3,6.817379E-3,-7.7742008E-3,-5.2432613E-3,-1.1910831E-2,-2.7087664E-3,7.2020437E-3,3.2834744E-3,-6.876061E-3,-2.3154386E-3,-1.3690436E-2,-6.9643618E-3,8.6420606E-4,-1.4659828E-2,8.719854E-3,6.0319733E-3,-1.1500619E-2,5.8387914E-3,-5.4763327E-3,-8.305309E-3,-7.2073042E-3,3.3067216E-3,-5.7844273E-3,4.691439E-3,-1.704891E-2,-3.6049844E-3,1.9284288E-3,1.3604723E-2,9.687602E-3,3.4223248E-3,-8.269653E-3,-2.5847733E-3,1.6058922E-3,3.0083742E-3,-6.8840384E-4,4.8971027E-3,-5.3893705E-3,-1.2233236E-2,3.4008846E-3,-1.13079995E-2,-1.6234049E-3,4.459468E-3,8.1319725E-3,4.9112276E-3,6.069422E-3,3.434288E-3,1.2176168E-3,3.8135464E-3],"categories":[],"categories_nodes":[],"categories_segments":[],"categories_sizes":[],"default_left":[0,0,0,0,0,0,0,0,0,0,0,0,0,0,0,0,0,0,0,0,0,0,0,0,0,0,0,0,0,0,0,0,0,0,0,0,0,0,0,0,0,0,0,0,0,0,0,0,0,0,0],"id":4,"left_children":[1,3,5,7,9,11,-1,13,15,17,19,-1,-1,21,23,25,27,29,31,33,35,-1,-1,-1,-1,-1,37,39,41,43,45,47,49,-1,-1,-1,-1,-1,-1,-1,-1,-1,-1,-1,-1,-1,-1,-1,-1,-1,-1],"loss_changes":[3.8887586E-2,1.7857699E-2,1.7598458E-4,2.661582E-3,6.7099E-4,7.8189E-4,0E0,3.3599E-4,3.8984432E-3,7.6433644E-4,2.0316083E-3,0E0,0E0,9.788759E-5,1.6127E-3,3.4327544E-3,4.9316883E-4,6.5424563E-3,2.47584E-3,1.6970153E-4,1.7128186E-6,0E0,0E0,0E0,0E0,0E0,1.7165511E-3,5.269414E-4,1.1430435E-3,3.0678718E-3,9.969082E-4,6.6982675E-4,6.2475225E-4,0E0,0E0,0E0,0E0,0E0,0E0,0E0,0E0,0E0,0E0,0E0,0E0,0E0,0E0,0E0,0E0,0E0,0E0],"parents":[2147483647,0,0,1,1,2,2,3,3,4,4,5,5,7,7,8,8,9,9,10,10,13,13,14,14,15,15,16,16,17,17,18,18,19,19,20,20,26,26,27,27,28,28,29,29,30,30,31,31,32,32],"right_children":[2,4,6,8,10,12,-1,14,16,18,20,-1,-1,22,24,26,28,30,32,34,36,-1,-1,-1,-1,-1,38,40,42,44,46,48,50,-1,-1,-1,-1,-1,-1,-1,-1,-1,-1,-1,-1,-1,-1,-1,-1,-1,-1],"split_conditions":[1E0,2.5E-1,2E0,1.5625E-2,5E-1,2E0,-5.2432613E-3,1.25E-1,2.5E-1,1.6E1,1E0,-6.876061E-3,-2.3154386E-3,3.125E-2,7.8125E-3,1.5625E-2,1.25E-1,1.5625E-2,1.5625E-2,5E-1,2E0,-5.4763327E-3,-8.305309E-3,-7.2073042E-3,3.3067216E-3,-5.7844273E-3,6.25E-2,3.125E-2,5E-1,2E0,1.25E-1,2.56E2,2.5E-1,-8.269653E-3,-2.5847733E-3,1.6058922E-3,3.0083742E-3,-6.8840384E-4,4.8971027E-3,-5.3893705E-3,-1.2233236E-2,3.4008846E-3,-1.13079995E-2,-1.6234049E-3,4.459468E-3,8.1319725E-3,4.9112276E-3,6.069422E-3,3.434288E-3,1.2176168E-3,3.8135464E-3],"split_indices":[1,0,1,1,1,0,0,0,1,0,0,0,0,0,1,0,0,1,1,0,0,0,0,0,0,0,1,0,1,0,1,0,1,0,0,0,0,0,0,0,0,0,0,0,0,0,0,0,0,0,0],"split_type":[0,0,0,0,0,0,0,0,0,0,0,0,0,0,0,0,0,0,0,0,0,0,0,0,0,0,0,0,0,0,0,0,0,0,0,0,0,0,0,0,0,0,0,0,0,0,0,0,0,0,0],"sum_hessian":[9.23E2,6.48E2,2.75E2,1.38E2,5.1E2,4.4E1,2.31E2,4.8E1,9E1,4.59E2,5.1E1,1.4E1,3E1,3.4E1,1.4E1,7E1,2E1,1.97E2,2.62E2,7E0,4.4E1,2E1,1.4E1,9E0,5E0,1.6E1,5.4E1,1.6E1,4E0,8.3E1,1.14E2,1.08E2,1.54E2,3E0,4E0,4E0,4E1,2.5E1,2.9E1,1E1,6E0,3E0,1E0,4.8E1,3.5E1,6.5E1,4.9E1,5.6E1,5.2E1,1.26E2,2.8E1],"tree_param":{"num_deleted":"0","num_feature":"2","num_nodes":"51","size_leaf_vector":"1"}},{"base_weights":[-1.0782622E-4,2.0125788E-3,-5.09346E-3,-5.982517E-3,3.083451E-3,-5.6108166E-3,-4.711415E-3,-4.7239508E-3,-8.732021E-3,1.2746879E-5,3.4559967E-3,-4.2356425E-3,-2.6077032E-3,-1.2125741E-3,-2.6323048E-3,-7.0753535E-3,5.324873E-3,-2.9240937E-3,-5.6731836E-3,-5.040894E-3,3.0446127E-3,8.743089E-4,3.7217562E-3,-3.0217674E-3,-8.9284135E-3,-2.848363E-3,1.2436748E-2,-5.1456136E-3,-2.719048E-3,4.4581685E-3,-7.93765E-3,-8.437937E-3,2.8271226E-3,4.90561E-3,3.0621772E-3,-5.669723E-3,-3.1645065E-3,2.036661E-3,7.483727E-3,-2.806563E-3,-1.8353896E-4,3.8231108E-3,6.033048E-4,4.316428E-5,2.1681539E-3,9.010391E-4,3.5425865E-3,2.5213507E-3,7.7949034E-4],"categories":[],"categories_nodes":[],"categories_segments":[],"categories_sizes":[],"default_left":[0,0,0,0,0,0,0,0,0,0,0,0,0,0,0,0,0,0,0,0,0,0,0,0,0,0,0,0,0,0,0,0,0,0,0,0,0,0,0,0,0,0,0,0,0,0,0,0,0],"id":5,"left_children":[1,3,5,7,9,11,13,15,17,19,21,-1,-1,-1,-1,23,25,-1,-1,27,29,31,33,-1,35,-1,37,-1,39,41,-1,-1,43,45,47,-1,-1,-1,-1,-1,-1,-1,-1,-1,-1,-1,-1,-1,-1],"loss_changes":[9.778375E-3,5.575007E-3,2.811756E-5,2.2520334E-4,6.5545505E-4,8.249725E-5,1.9591628E-4,1.3372612E-3,1.0704924E-4,9.806311E-4,3.4734793E-4,0E0,0E0,0E0,0E0,3.2081734E-5,9.330752E-4,0E0,0E0,2.645888E-4,1.140549E-3,1.7461873E-3,3.465088E-4,0E0,1.5973928E-5,0E0,8.71903E-5,0E0,1.2046164E-4,3.846875E-4,0E0,0E0,1.8576215E-4,1.0965848E-3,8.852738E-4,0E0,0E0,0E0,0E0,0E0,0E0,0E0,0E0,0E0,0E0,0E0,0E0,0E0,0E0],"parents":[2147483647,0,0,1,1,2,2,3,3,4,4,5,5,6,6,7,7,8,8,9,9,10,10,15,15,16,16,19,19,20,20,21,21,22,22,24,24,26,26,28,28,29,29,32,32,33,33,34,34],"right_children":[2,4,6,8,10,12,14,16,18,20,22,-1,-1,-1,-1,24,26,-1,-1,28,30,32,34,-1,36,-1,38,-1,40,42,-1,-1,44,46,48,-1,-1,-1,-1,-1,-1,-1,-1,-1,-1,-1,-1,-1,-1],"split_conditions":[1E0,6.25E-2,1E0,1.25E-1,2.5E-1,2E0,2E0,6.25E-2,1.5625E-2,1.5625E-2,1.953125E-3,-4.2356425E-3,-2.6077032E-3,-1.2125741E-3,-2.6323048E-3,3.125E-2,1.5625E-2,-2.9240937E-3,-5.6731836E-3,3.90625E-3,5E-1,5E-1,8E0,-3.0217674E-3,1.5625E-2,-2.848363E-3,3.125E-2,-5.1456136E-3,1.25E-1,1.25E-1,-7.93765E-3,-8.437937E-3,8E0,3.125E-2,3.125E-2,-5.669723E-3,-3.1645065E-3,2.036661E-3,7.483727E-3,-2.806563E-3,-1.8353896E-4,3.8231108E-3,6.033048E-4,4.316428E-5,2.1681539E-3,9.010391E-4,3.5425865E-3,2.5213507E-3,7.7949034E-4],"split_indices":[1,0,0,1,0,1,1,1,0,1,1,0,0,0,0,0,0,0,0,1,1,0,0,0,1,0,0,0,0,0,0,0,0,1,1,0,0,0,0,0,0,0,0,0,0,0,0,0,0],"split_type":[0,0,0,0,0,0,0,0,0,0,0,0,0,0,0,0,0,0,0,0,0,0,0,0,0,0,0,0,0,0,0,0,0,0,0,0,0,0,0,0,0,0,0,0,0,0,0,0,0],"sum_hessian":[9.23E2,6.48E2,2.75E2,7.6E1,5.72E2,1.11E2,1.64E2,5.4E1,2.2E1,6.2E1,5.1E2,1.1E1,1E2,3.3E1,1.31E2,4.4E1,1E1,1.2E1,1E1,2.3E1,3.9E1,4.8E1,4.62E2,3.1E1,1.3E1,4E0,6E0,6E0,1.7E1,3.7E1,2E0,4E0,4.4E1,1.63E2,2.99E2,5E0,8E0,2E0,4E0,7E0,1E1,1.8E1,1.9E1,1.6E1,2.8E1,6.8E1,9.5E1,1.28E2,1.71E2],"tree_param":{"num_deleted":"0","num_feature":"2","num_nodes":"49","size_leaf_vector":"1"}},{"base_weights":[-9.1358765E-5,1.204628E-3,-2.3735703E-3,-2.921389E-3,1.7656715E-3,-3.7097964E-3,-1.5502484E-3,-3.801134E-3,-1.346948E-3,-4.882906E-5,1.9588075E-3,-9.380929E-3,-2.8665115E-3,1.5229331E-3,-2.3789934E-3,-1.5580943E-3,-5.0952137E-3,3.2690004E-3,-4.254506E-3,-9.758762E-3,1.4626901E-3,2.546568E-3,1.3800657E-3,-2.4944346E-3,-1.2284387E-2,-2.2943143E-3,-1.316761E-3,-5.470912E-4,9.926461E-4,-6.2410795E-4,-1.3261158E-3,-6.614685E-3,-3.5160978E-3,-1.7090082E-3,7.578441E-3,-1.4869372E-3,-5.0624143E-3,-1.2065023E-3,-5.2904435E-3,2.6680995E-3,-1.3970094E-3,6.715468E-4,4.1462136E-3,2.789388E-3,5.98308E-4,-1.4172554E-3,-1.9851327E-4,-7.5320816E-3,-2.967912E-3,-4.5349597E-4,-3.888607E-5,-1.2803972E-3,-4.907489E-3,-9.775102E-4,-2.1869778E-3,1.3577839E-3,4.4902386E-3,-1.6460802E-3,-3.752768E-3,2.2856628E-5,2.6438143E-3,-1.6193853E-3,7.9923373E-4,-7.528989E-4,2.5340319E-3,2.8422838E-3,-6.916944E-5,1.8550887E-3,-8.7748765E-4,6.2256345E-7,1.5962E-3],"categories":[],"categories_nodes":[],"categories_segments":[],"categories_sizes":[],"default_left":[0,0,0,0,0,0,0,0,0,0,0,0,0,0,0,0,0,0,0,0,0,0,0,0,0,0,0,0,0,0,0,0,0,0,0,0,0,0,0,0,0,0,0,0,0,0,0,0,0,0,0,0,0,0,0,0,0,0,0,0,0,0,0,0,0,0,0,0,0,0,0],"id":6,"left_children":[1,3,5,7,9,11,13,15,17,19,21,23,25,27,29,-1,31,33,35,37,39,41,43,45,47,-1,-1,49,-1,-1,-1,51,53,-1,55,-1,57,-1,-1,59,61,63,65,67,69,-1,-1,-1,-1,-1,-1,-1,-1,-1,-1,-1,-1,-1,-1,-1,-1,-1,-1,-1,-1,-1,-1,-1,-1,-1,-1],"loss_changes":[2.735789E-3,1.3709343E-3,3.6279717E-4,9.3222596E-5,1.8232723E-4,5.8047206E-4,5.359217E-4,2.4009147E-5,3.7627865E-4,7.627883E-4,1.563615E-4,2.892717E-4,3.2854034E-5,4.4155386E-5,4.7669746E-5,0E0,1.0334043E-5,3.4289356E-4,2.5337795E-6,1.6742211E-5,1.5884725E-4,6.930693E-4,2.6164902E-4,3.154295E-6,1.0470522E-4,0E0,0E0,1.4496359E-6,0E0,0E0,0E0,5.2707677E-5,3.5014818E-6,0E0,2.333839E-5,0E0,1.4215082E-5,0E0,0E0,2.1957966E-4,8.2414415E-5,1.0414866E-3,8.246815E-4,3.6218553E-4,2.4006562E-4,0E0,0E0,0E0,0E0,0E0,0E0,0E0,0E0,0E0,0E0,0E0,0E0,0E0,0E0,0E0,0E0,0E0,0E0,0E0,0E0,0E0,0E0,0E0,0E0,0E0,0E0],"parents":[2147483647,0,0,1,1,2,2,3,3,4,4,5,5,6,6,7,7,8,8,9,9,10,10,11,11,12,12,13,13,14,14,16,16,17,17,18,18,19,19,20,20,21,21,22,22,23,23,24,24,27,27,31,31,32,32,34,34,36,36,39,39,40,40,41,41,42,42,43,43,44,44],"right_children":[2,4,6,8,10,12,14,16,18,20,22,24,26,28,30,-1,32,34,36,38,40,42,44,46,48,-1,-1,50,-1,-1,-1,52,54,-1,56,-1,58,-1,-1,60,62,64,66,68,70,-1,-1,-1,-1,-1,-1,-1,-1,-1,-1,-1,-1,-1,-1,-1,-1,-1,-1,-1,-1,-1,-1,-1,-1,-1,-1],"split_conditions":[5E-1,6.25E-2,1E0,6.25E-2,1.953125E-3,1E0,1E0,3.125E-2,1.25E-1,5E-1,1.6E1,3.125E-2,2E0,4E0,2E0,-1.5580943E-3,1.5625E-2,1.5625E-2,1.5625E-2,1.25E-1,2.56E2,3.125E-2,1.5625E-2,1.5625E-2,5E-1,-2.2943143E-3,-1.316761E-3,2E0,9.926461E-4,-6.2410795E-4,-1.3261158E-3,7.8125E-3,3.125E-2,-1.7090082E-3,3.125E-2,-1.4869372E-3,2.5E-1,-1.2065023E-3,-5.2904435E-3,8E0,1.024E3,2E0,2.5E-1,1.024E3,2.5E-1,-1.4172554E-3,-1.9851327E-4,-7.5320816E-3,-2.967912E-3,-4.5349597E-4,-3.888607E-5,-1.2803972E-3,-4.907489E-3,-9.775102E-4,-2.1869778E-3,1.3577839E-3,4.4902386E-3,-1.6460802E-3,-3.752768E-3,2.2856628E-5,2.6438143E-3,-1.6193853E-3,7.9923373E-4,-7.528989E-4,2.5340319E-3,2.8422838E-3,-6.916944E-5,1.8550887E-3,-8.7748765E-4,6.2256345E-7,1.5962E-3],"split_indices":[1,0,0,1,1,1,1,0,1,0,0,0,1,0,1,0,1,0,0,0,0,1,1,0,0,0,0,0,0,0,0,1,1,0,0,0,1,0,0,0,0,0,1,0,1,0,0,0,0,0,0,0,0,0,0,0,0,0,0,0,0,0,0,0,0,0,0,0,0,0,0],"split_type":[0,0,0,0,0,0,0,0,0,0,0,0,0,0,0,0,0,0,0,0,0,0,0,0,0,0,0,0,0,0,0,0,0,0,0,0,0,0,0,0,0,0,0,0,0,0,0,0,0,0,0,0,0,0,0,0,0,0,0,0,0,0,0,0,0,0,0,0,0,0,0],"sum_hessian":[9.23E2,5.89E2,3.34E2,7E1,5.19E2,1.26E2,2.08E2,4.4E1,2.6E1,5E1,4.69E2,1.5E1,1.11E2,4.4E1,1.64E2,3.1E1,1.3E1,1E1,1.6E1,6E0,4.4E1,2.31E2,2.38E2,5E0,1E1,1.1E1,1E2,8E0,3.6E1,3.3E1,1.31E2,5E0,8E0,4E0,6E0,8E0,8E0,1E0,5E0,3.1E1,1.3E1,1.07E2,1.24E2,8.4E1,1.54E2,4E0,1E0,6E0,4E0,4E0,4E0,3E0,2E0,4E0,4E0,2E0,4E0,6E0,2E0,1.6E1,1.5E1,8E0,5E0,7.2E1,3.5E1,9.1E1,3.3E1,7E1,1.4E1,1.26E2,2.8E1],"tree_param":{"num_deleted":"0","num_feature":"2","num_nodes":"71","size_leaf_vector":"1"}},{"base_weights":[-7.635852E-5,5.8337074E-4,-1.2380419E-3,-1.0464456E-3,1.0462459E-3,-1.9044646E-3,-7.2563696E-4,-7.446744E-4,-3.7283164E-3,4.161066E-3,7.559041E-4,-4.494217E-3,-1.478278E-3,9.1431197E-4,-1.1661155E-3,-1.6054162E-3,1.1323126E-3,-6.3870074E-3,1.9252449E-3,-4.3576956E-3,6.5000267E-3,-1.5180558E-3,9.6548203E-4,-5.4477043E-3,-2.7210714E-4,-9.926801E-4,-6.632915E-4,1.0150009E-4,1.0805997E-3,-3.063198E-4,-6.4913894E-4,-2.1430452E-3,-9.2650246E-4,3.0372548E-3,-3.8195685E-3,-8.7766844E-4,-5.860406E-3,-2.9465854E-3,-9.753406E-4,1.0239169E-2,3.0242617E-3,-8.431292E-3,5.1112236E-3,2.7568121E-3,8.126737E-4,-7.582456E-4,-7.0967567E-3,3.949053E-4,1.307824E-3,-8.0340635E-4,-1.6078225E-3,-2.2611618E-3,-5.548168E-5,5.4888784E-5,5.1711127E-3,-5.311221E-4,-2.970149E-3,-8.2247256E-4,7.3967874E-4,-5.876753E-4,2.4780268E-3,2.6330352E-5,-5.8492008E-3,4.4286847E-3,1.9276179E-3,1.7860531E-5,3.7268156E-3,6.3547597E-4,4.4280337E-6,-4.3040556E-3,-1.7807543E-3,9.095669E-4,3.256003E-4],"categories":[],"categories_nodes":[],"categories_segments":[],"categories_sizes":[],"default_left":[0,0,0,0,0,0,0,0,0,0,0,0,0,0,0,0,0,0,0,0,0,0,0,0,0,0,0,0,0,0,0,0,0,0,0,0,0,0,0,0,0,0,0,0,0,0,0,0,0,0,0,0,0,0,0,0,0,0,0,0,0,0,0,0,0,0,0,0,0,0,0,0,0],"id":7,"left_children":[1,3,5,7,9,11,13,15,17,19,21,23,25,27,29,31,33,35,-1,37,39,41,43,45,-1,-1,-1,-1,47,-1,-1,49,51,53,55,57,-1,-1,-1,-1,59,61,63,65,67,-1,69,-1,71,-1,-1,-1,-1,-1,-1,-1,-1,-1,-1,-1,-1,-1,-1,-1,-1,-1,-1,-1,-1,-1,-1,-1,-1],"loss_changes":[7.088726E-4,4.461917E-4,1.1301332E-4,1.0324341E-4,4.1286135E-4,1.5339535E-4,1.3903741E-4,1.9407435E-4,2.8653923E-4,8.054021E-4,2.0257897E-4,7.2360854E-5,7.0583774E-6,4.6302157E-6,1.0250049E-5,2.7944785E-5,3.700568E-4,2.8357038E-4,0E0,2.1767511E-5,1.4442133E-3,1.6929662E-3,1.0369319E-4,9.296226E-5,0E0,0E0,0E0,0E0,1.1475204E-6,0E0,0E0,2.0715379E-5,1.1093443E-4,5.9764844E-4,5.8012884E-5,1.3284407E-5,0E0,0E0,0E0,0E0,2.167573E-4,4.995401E-4,5.5249897E-5,3.831479E-4,1.3186595E-4,0E0,2.8115232E-5,0E0,4.5229244E-6,0E0,0E0,0E0,0E0,0E0,0E0,0E0,0E0,0E0,0E0,0E0,0E0,0E0,0E0,0E0,0E0,0E0,0E0,0E0,0E0,0E0,0E0,0E0,0E0],"parents":[2147483647,0,0,1,1,2,2,3,3,4,4,5,5,6,6,7,7,8,8,9,9,10,10,11,11,12,12,13,13,14,14,15,15,16,16,17,17,19,19,20,20,21,21,22,22,23,23,28,28,31,31,32,32,33,33,34,34,35,35,40,40,41,41,42,42,43,43,44,44,46,46,48,48],"right_children":[2,4,6,8,10,12,14,16,18,20,22,24,26,28,30,32,34,36,-1,38,40,42,44,46,-1,-1,-1,-1,48,-1,-1,50,52,54,56,58,-1,-1,-1,-1,60,62,64,66,68,-1,70,-1,72,-1,-1,-1,-1,-1,-1,-1,-1,-1,-1,-1,-1,-1,-1,-1,-1,-1,-1,-1,-1,-1,-1,-1,-1],"split_conditions":[5E-1,2.5E-1,2E0,2.5E-1,5E-1,1E0,1E0,6.25E-2,1.25E-1,3.90625E-3,1E0,1E0,4E0,8E0,2E0,6.25E-2,1.25E-1,3.125E-2,1.9252449E-3,1.953125E-3,7.8125E-3,1.5625E-2,2E0,3.125E-2,-2.7210714E-4,-9.926801E-4,-6.632915E-4,1.0150009E-4,1.28E2,-3.063198E-4,-6.4913894E-4,3.125E-2,3.90625E-3,6.25E-2,1.25E-1,1.5625E-2,-5.860406E-3,-2.9465854E-3,-9.753406E-4,1.0239169E-2,3.125E-2,1.953125E-3,3.125E-2,6.25E-2,6.25E-2,-7.582456E-4,5E-1,3.949053E-4,5.12E2,-8.0340635E-4,-1.6078225E-3,-2.2611618E-3,-5.548168E-5,5.4888784E-5,5.1711127E-3,-5.311221E-4,-2.970149E-3,-8.2247256E-4,7.3967874E-4,-5.876753E-4,2.4780268E-3,2.6330352E-5,-5.8492008E-3,4.4286847E-3,1.9276179E-3,1.7860531E-5,3.7268156E-3,6.3547597E-4,4.4280337E-6,-4.3040556E-3,-1.7807543E-3,9.095669E-4,3.256003E-4],"split_indices":[1,0,0,1,0,1,1,1,0,1,0,0,1,0,1,0,0,0,0,1,1,1,0,0,0,0,0,0,0,0,0,0,1,0,1,0,0,0,0,0,1,1,1,1,1,0,0,0,0,0,0,0,0,0,0,0,0,0,0,0,0,0,0,0,0,0,0,0,0,0,0,0,0],"split_type":[0,0,0,0,0,0,0,0,0,0,0,0,0,0,0,0,0,0,0,0,0,0,0,0,0,0,0,0,0,0,0,0,0,0,0,0,0,0,0,0,0,0,0,0,0,0,0,0,0,0,0,0,0,0,0,0,0,0,0,0,0,0,0,0,0,0,0,0,0,0,0,0,0],"sum_hessian":[9.23E2,5.89E2,3.34E2,1.3E2,4.59E2,1.44E2,1.9E2,1.18E2,1.2E1,3.8E1,4.21E2,1.9E1,1.25E2,4E1,1.5E2,8.1E1,3.7E1,9E0,3E0,8E0,3E1,3.5E1,3.86E2,1.5E1,4E0,2.6E1,9.9E1,8E0,3.2E1,3E1,1.2E2,4.4E1,3.7E1,2.7E1,1E1,5E0,4E0,4E0,4E0,5E0,2.5E1,1.7E1,1.8E1,2.9E1,3.57E2,5E0,1E1,1.6E1,1.6E1,3.1E1,1.3E1,6E0,3.1E1,2E1,7E0,5E0,5E0,4E0,1E0,8E0,1.7E1,5E0,1.2E1,3E0,1.5E1,1.9E1,1E1,2.27E2,1.3E2,6E0,4E0,8E0,8E0],"tree_param":{"num_deleted":"0","num_feature":"2","num_nodes":"73","size_leaf_vector":"1"}},{"base_weights":[-4.022965E-5,3.0202552E-4,-6.428873E-4,-5.7681464E-4,5.5164733E-4,-1.012736E-3,-3.587463E-4,-1.2778506E-3,-1.5600043E-4,2.291004E-3,3.895939E-4,-2.6028752E-3,-7.522953E-4,4.993939E-4,-5.8937544E-4,-3.0509062E-4,-1.7172715E-3,2.1554886E-4,-2.1732312E-3,-2.6145908E-3,3.6413055E-3,-7.4421696E-4,4.9405795E-4,-3.151551E-3,-1.6326904E-4,-1.2520392E-3,-3.3932418E-4,-6.3943866E-5,2.8533227E-4,-1.5810612E-4,-3.2724428E-4,-2.7175585E-3,-6.0249964E-4,-1.5306213E-3,1.0307808E-3,-3.7878274E-3,1.2032837E-3,-1.7679393E-3,-5.8519247E-4,5.3022383E-3,3.107136E-4,-5.6547904E-3,2.277185E-3,1.2238271E-3,2.655687E-4,-1.1402965E-3,-4.5891604E-3,-9.73025E-4,5.665918E-5,3.0274855E-4,-3.300918E-3,-1.8572062E-3,2.3422192E-3,-5.2363507E-4,-1.3627857E-3,1.0588702E-3,-5.699168E-4,-2.2631387E-4,-3.5162508E-3,-4.0247203E-3,1.3078584E-3,1.5353164E-5,-4.408406E-3,-2.5377274E-4,1.4450785E-3,-2.6114963E-4,1.0818999E-3,5.4350565E-4,-3.800392E-5,-1.0853027E-3,1.5179664E-3,-3.0617893E-3,-1.0684549E-3],"categories":[],"categories_nodes":[],"categories_segments":[],"categories_sizes":[],"default_left":[0,0,0,0,0,0,0,0,0,0,0,0,0,0,0,0,0,0,0,0,0,0,0,0,0,0,0,0,0,0,0,0,0,0,0,0,0,0,0,0,0,0,0,0,0,0,0,0,0,0,0,0,0,0,0,0,0,0,0,0,0,0,0,0,0,0,0,0,0,0,0,0,0],"id":8,"left_children":[1,3,5,7,9,11,13,15,17,19,21,23,25,27,29,-1,31,33,35,37,39,41,43,45,-1,47,-1,-1,-1,-1,-1,49,51,53,55,57,-1,-1,-1,-1,59,61,63,65,67,69,71,-1,-1,-1,-1,-1,-1,-1,-1,-1,-1,-1,-1,-1,-1,-1,-1,-1,-1,-1,-1,-1,-1,-1,-1,-1,-1],"loss_changes":[1.9078092E-4,1.2975102E-4,3.4841534E-5,3.8446422E-5,1.2876707E-4,5.809174E-5,3.8095546E-5,1.3328165E-5,6.267699E-5,2.6785777E-4,5.0350427E-5,2.3950313E-5,3.7876816E-6,1.905958E-6,2.478806E-6,0E0,3.0700336E-5,1.02648635E-4,1.052445E-4,7.836425E-6,7.156411E-4,5.470024E-4,6.4205095E-5,4.1029358E-5,0E0,1.4434116E-5,0E0,0E0,0E0,0E0,0E0,1.9761245E-4,2.6418729E-4,1.0429947E-5,1.1802301E-4,1.05033265E-4,0E0,0E0,0E0,0E0,4.4499905E-4,2.5195797E-4,4.0727013E-5,1.5213073E-4,8.313593E-5,4.1012256E-5,2.0779466E-5,0E0,0E0,0E0,0E0,0E0,0E0,0E0,0E0,0E0,0E0,0E0,0E0,0E0,0E0,0E0,0E0,0E0,0E0,0E0,0E0,0E0,0E0,0E0,0E0,0E0,0E0],"parents":[2147483647,0,0,1,1,2,2,3,3,4,4,5,5,6,6,7,7,8,8,9,9,10,10,11,11,12,12,13,13,14,14,16,16,17,17,18,18,19,19,20,20,21,21,22,22,23,23,25,25,31,31,32,32,33,33,34,34,35,35,40,40,41,41,42,42,43,43,44,44,45,45,46,46],"right_children":[2,4,6,8,10,12,14,16,18,20,22,24,26,28,30,-1,32,34,36,38,40,42,44,46,-1,48,-1,-1,-1,-1,-1,50,52,54,56,58,-1,-1,-1,-1,60,62,64,66,68,70,72,-1,-1,-1,-1,-1,-1,-1,-1,-1,-1,-1,-1,-1,-1,-1,-1,-1,-1,-1,-1,-1,-1,-1,-1,-1,-1],"split_conditions":[5E-1,2.5E-1,2E0,1.5625E-2,5E-1,1E0,1E0,3.125E-2,2.5E-1,3.90625E-3,1E0,1E0,2E0,4E0,2E0,-3.0509062E-4,1.25E-1,3.125E-2,1.25E-1,1.953125E-3,1.5625E-2,7.8125E-3,8E0,1.25E-1,-1.6326904E-4,5E-1,-3.3932418E-4,-6.3943866E-5,2.8533227E-4,-1.5810612E-4,-3.2724428E-4,7.8125E-3,7.8125E-3,1.25E-1,1.25E-1,3.125E-2,1.2032837E-3,-1.7679393E-3,-5.8519247E-4,5.3022383E-3,3.125E-2,1.953125E-3,1.5625E-2,7.8125E-3,7.8125E-3,6.25E-2,5E-1,-9.73025E-4,5.665918E-5,3.0274855E-4,-3.300918E-3,-1.8572062E-3,2.3422192E-3,-5.2363507E-4,-1.3627857E-3,1.0588702E-3,-5.699168E-4,-2.2631387E-4,-3.5162508E-3,-4.0247203E-3,1.3078584E-3,1.5353164E-5,-4.408406E-3,-2.5377274E-4,1.4450785E-3,-2.6114963E-4,1.0818999E-3,5.4350565E-4,-3.800392E-5,-1.0853027E-3,1.5179664E-3,-3.0617893E-3,-1.0684549E-3],"split_indices":[1,0,0,1,0,1,1,0,1,1,0,0,1,0,1,0,0,0,0,1,1,1,0,0,0,0,0,0,0,0,0,1,1,1,0,0,0,0,0,0,1,1,1,1,1,0,0,0,0,0,0,0,0,0,0,0,0,0,0,0,0,0,0,0,0,0,0,0,0,0,0,0,0],"split_type":[0,0,0,0,0,0,0,0,0,0,0,0,0,0,0,0,0,0,0,0,0,0,0,0,0,0,0,0,0,0,0,0,0,0,0,0,0,0,0,0,0,0,0,0,0,0,0,0,0,0,0,0,0,0,0,0,0,0,0,0,0,0,0,0,0,0,0,0,0,0,0,0,0],"sum_hessian":[9.23E2,5.89E2,3.34E2,1.3E2,4.59E2,1.44E2,1.9E2,4.8E1,8.2E1,3.8E1,4.21E2,1.9E1,1.25E2,4E1,1.5E2,2E1,2.8E1,7E1,1.2E1,8E0,3E1,3.5E1,3.86E2,1.5E1,4E0,1.4E1,1.11E2,4E0,3.6E1,3E1,1.2E2,1.4E1,1.4E1,2.2E1,4.8E1,9E0,3E0,4E0,4E0,9E0,2.1E1,1.3E1,2.2E1,9.1E1,2.95E2,7E0,8E0,9E0,5E0,8E0,6E0,9E0,5E0,1.7E1,5E0,3.2E1,1.6E1,5E0,4E0,4E0,1.7E1,5E0,8E0,4E0,1.8E1,3.2E1,5.9E1,8.6E1,2.09E2,6E0,1E0,4E0,4E0],"tree_param":{"num_deleted":"0","num_feature":"2","num_nodes":"73","size_leaf_vector":"1"}},{"base_weights":[-3.5022695E-5,-5.8991637E-4,6.649241E-5,-7.9405523E-4,-1.5124142E-4,2.5152334E-4,-2.9960106E-4,-3.8307256E-4,-1.5461239E-3,-3.1038243E-4,3.1196093E-4,-6.064389E-4,-1.8075935E-4,-9.2321367E-4,1.8614206E-3,-8.071973E-4,-3.0984944E-3,2.6571436E-4,-1.8519035E-3,7.115878E-4,2.1281476E-4,-1.5148009E-3,-1.9219021E-4,2.5510206E-4,-1.4895438E-4,-2.2890698E-4,-1.9210407E-3,-8.379221E-4,2.0610604E-3,-1.5899042E-3,-4.632324E-4,-7.7524286E-4,-4.645884E-3,-7.461724E-4,1.7036945E-3,-1.4236702E-3,-2.5048852E-5,1.2257491E-3,-2.861147E-3,1.0666454E-3,9.1300135E-5,1.1384785E-3,-1.981625E-3,5.3458214E-5,4.5801612E-4,-3.1084567E-4,-1.1094456E-3,-1.4128684E-4,-2.0316392E-3,-3.8137802E-4,3.130138E-4,-2.8990507E-3,-2.9730797E-4,4.822798E-4,-2.0371825E-3,1.144732E-3,-2.144575E-5,1.618013E-4,1.3893415E-3,-4.634261E-4,-2.3204833E-3,-1.6380879E-3,1.0207426E-3,-6.553666E-4,1.4667085E-4,-2.7721077E-3,-6.1136234E-4,3.7850274E-4,5.4068034E-5],"categories":[],"categories_nodes":[],"categories_segments":[],"categories_sizes":[],"default_left":[0,0,0,0,0,0,0,0,0,0,0,0,0,0,0,0,0,0,0,0,0,0,0,0,0,0,0,0,0,0,0,0,0,0,0,0,0,0,0,0,0,0,0,0,0,0,0,0,0,0,0,0,0,0,0,0,0,0,0,0,0,0,0,0,0,0,0,0,0],"id":9,"left_children":[1,3,5,7,-1,9,11,13,15,17,19,21,23,25,27,29,31,33,35,37,39,41,-1,43,-1,-1,45,-1,-1,47,49,-1,51,53,55,-1,-1,57,59,61,63,-1,65,-1,67,-1,-1,-1,-1,-1,-1,-1,-1,-1,-1,-1,-1,-1,-1,-1,-1,-1,-1,-1,-1,-1,-1,-1,-1],"loss_changes":[5.2088224E-5,8.150535E-6,5.3046948E-5,2.5061963E-5,0E0,1.7756152E-5,9.480709E-6,6.8397356E-5,3.076445E-5,4.578341E-5,1.8470659E-5,1.4142532E-5,9.828629E-6,2.0017997E-5,9.487169E-5,4.917204E-6,1.4354977E-5,5.6564022E-5,2.4967532E-5,1.7434453E-4,3.9121216E-5,2.929326E-5,0E0,1.1838574E-6,0E0,0E0,4.038706E-6,0E0,0E0,1.825293E-5,5.6976523E-6,0E0,1.5224119E-5,1.3488381E-4,1.6467751E-5,0E0,0E0,1.13980685E-4,3.701086E-5,2.056653E-4,9.44298E-5,0E0,2.836842E-5,0E0,1.6965175E-6,0E0,0E0,0E0,0E0,0E0,0E0,0E0,0E0,0E0,0E0,0E0,0E0,0E0,0E0,0E0,0E0,0E0,0E0,0E0,0E0,0E0,0E0,0E0,0E0],"parents":[2147483647,0,0,1,1,2,2,3,3,5,5,6,6,7,7,8,8,9,9,10,10,11,11,12,12,13,13,14,14,15,15,16,16,17,17,18,18,19,19,20,20,21,21,23,23,26,26,29,29,30,30,32,32,33,33,34,34,37,37,38,38,39,39,40,40,42,42,44,44],"right_children":[2,4,6,8,-1,10,12,14,16,18,20,22,24,26,28,30,32,34,36,38,40,42,-1,44,-1,-1,46,-1,-1,48,50,-1,52,54,56,-1,-1,58,60,62,64,-1,66,-1,68,-1,-1,-1,-1,-1,-1,-1,-1,-1,-1,-1,-1,-1,-1,-1,-1,-1,-1,-1,-1,-1,-1,-1,-1],"split_conditions":[6.25E-2,2E0,5E-1,1.25E-1,-1.5124142E-4,1.953125E-3,2E0,6.25E-2,3.125E-2,2.56E2,5E-1,1E0,1E0,3.125E-2,1.5625E-2,2.5E-1,2.5E-1,8E0,1.024E3,2.5E-1,3.90625E-3,1.25E-1,-1.9219021E-4,1.28E2,-1.4895438E-4,-2.2890698E-4,7.8125E-3,-8.379221E-4,2.0610604E-3,1.5625E-2,1.5625E-2,-7.7524286E-4,1E0,2E0,1.28E2,-1.4236702E-3,-2.5048852E-5,2.5E-1,2.5E-1,2E0,7.8125E-3,1.1384785E-3,2.5E-1,5.3458214E-5,5.12E2,-3.1084567E-4,-1.1094456E-3,-1.4128684E-4,-2.0316392E-3,-3.8137802E-4,3.130138E-4,-2.8990507E-3,-2.9730797E-4,4.822798E-4,-2.0371825E-3,1.144732E-3,-2.144575E-5,1.618013E-4,1.3893415E-3,-4.634261E-4,-2.3204833E-3,-1.6380879E-3,1.0207426E-3,-6.553666E-4,1.4667085E-4,-2.7721077E-3,-6.1136234E-4,3.7850274E-4,5.4068034E-5],"split_indices":[0,1,1,1,0,1,0,1,0,0,0,1,1,0,0,1,1,0,0,1,1,0,0,0,0,0,1,0,0,0,0,0,1,0,0,0,0,0,0,0,1,0,0,0,0,0,0,0,0,0,0,0,0,0,0,0,0,0,0,0,0,0,0,0,0,0,0,0,0],"split_type":[0,0,0,0,0,0,0,0,0,0,0,0,0,0,0,0,0,0,0,0,0,0,0,0,0,0,0,0,0,0,0,0,0,0,0,0,0,0,0,0,0,0,0,0,0,0,0,0,0,0,0,0,0,0,0,0,0,0,0,0,0,0,0,0,0,0,0,0,0],"sum_hessian":[9.23E2,1.42E2,7.81E2,8.2E1,6E1,5.19E2,2.62E2,5.4E1,2.8E1,5E1,4.69E2,7.2E1,1.9E2,4.4E1,1E1,2E1,8E0,3.7E1,1.3E1,9.2E1,3.77E2,1.3E1,5.9E1,4E1,1.5E2,3.1E1,1.3E1,4E0,6E0,5E0,1.5E1,5E0,3E0,2.2E1,1.5E1,8E0,5E0,8.1E1,1.1E1,4.6E1,3.31E2,1E0,1.2E1,2.4E1,1.6E1,3E0,1E1,4E0,1E0,1.2E1,3E0,2E0,1E0,1.5E1,7E0,1.1E1,4E0,5.2E1,2.9E1,6E0,5E0,8E0,3.8E1,4.1E1,2.9E2,1E0,1.1E1,8E0,8E0],"tree_param":{"num_deleted":"0","num_feature":"2","num_nodes":"69","size_leaf_vector":"1"}},{"base_weights":[-3.173154E-5,-2.1177404E-4,6.8177294E-5,-1.322637E-3,-7.5493226E-5,4.218364E-4,-1.160437E-4,-8.088809E-5,-1.8963268E-3,3.445821E-4,-4.950585E-4,1.2740095E-3,-2.6174863E-3,-7.699873E-4,9.910803E-4,-1.1494278E-3,-1.1029005E-3,6.903865E-5,1.6348615E-3,-1.3914447E-3,-1.945107E-4,2.0901363E-4,2.7118123E-3,8.4667956E-4,-7.4024857E-3,-2.0154854E-3,-1.15770505E-4,2.134692E-3,-6.1437684E-5,-1.919965E-4,-8.725047E-4,-7.005142E-4,8.37478E-4,-1.1245067E-3,3.4297481E-3,8.7207016E-5,-1.9423233E-3,-6.4936775E-4,-6.927122E-5,7.170653E-4,-8.8179705E-4,3.317606E-3,-7.288998E-4,-8.4067644E-5,2.7175148E-3,-5.116029E-3,-4.687273E-3,2.348476E-4,-4.436205E-3,8.71749E-4,-2.7603417E-4,-1.684159E-3,3.3913828E-3,1.2723137E-4,-7.4234165E-5,-1.0300653E-4,-8.643329E-4,7.725717E-4,-4.2270203E-4,-8.478165E-5,-8.2298263E-4,7.6402053E-3,-2.4021819E-4,-1.17116506E-4,5.1122904E-4,-1.9327005E-3,-8.1693055E-4,-4.3084324E-4,1.3740857E-4,7.8111514E-4,-8.557316E-4,-2.8017045E-3,3.0060228E-5,9.855244E-4,2.3449755E-3,1.0963132E-3,-1.7644713E-3,-4.230678E-4,3.4320354E-4,2.3352727E-3,4.8128763E-4,-1.1177063E-3,-3.5719872E-3,1.1010994E-3,-1.734307E-3,1.8882293E-4,-3.2205828E-3,2.3528398E-3,-9.1530776E-5,-2.663446E-4,1.2430485E-4,-2.2800297E-3,8.492072E-4,1.0648755E-3,1.9396963E-3],"categories":[],"categories_nodes":[],"categories_segments":[],"categories_sizes":[],"default_left":[0,0,0,0,0,0,0,0,0,0,0,0,0,0,0,0,0,0,0,0,0,0,0,0,0,0,0,0,0,0,0,0,0,0,0,0,0,0,0,0,0,0,0,0,0,0,0,0,0,0,0,0,0,0,0,0,0,0,0,0,0,0,0,0,0,0,0,0,0,0,0,0,0,0,0,0,0,0,0,0,0,0,0,0,0,0,0,0,0,0,0,0,0,0,0],"id":10,"left_children":[1,3,5,7,9,11,13,-1,15,17,19,21,23,25,27,-1,29,31,33,35,37,39,41,43,45,47,49,51,53,-1,-1,55,57,59,61,63,65,67,-1,69,71,73,75,77,79,81,-1,83,85,87,89,91,93,-1,-1,-1,-1,-1,-1,-1,-1,-1,-1,-1,-1,-1,-1,-1,-1,-1,-1,-1,-1,-1,-1,-1,-1,-1,-1,-1,-1,-1,-1,-1,-1,-1,-1,-1,-1,-1,-1,-1,-1,-1,-1],"loss_changes":[1.6635198E-5,4.985862E-5,3.881405E-5,2.3668283E-5,5.2164047E-5,5.3170056E-4,2.845698E-4,0E0,5.1296374E-6,5.250528E-5,3.9601564E-5,2.4443382E-4,7.52189E-4,2.0102864E-4,1.7586722E-4,0E0,3.9460974E-6,7.332328E-5,1.3262837E-4,3.0308016E-5,2.7612823E-6,5.217181E-5,1.4415476E-4,4.724287E-5,3.7711114E-5,4.6407297E-4,2.6037585E-5,3.4164972E-4,2.154742E-6,0E0,0E0,3.1166048E-5,7.514315E-5,5.1985016E-6,7.487537E-4,3.5463916E-6,9.700787E-6,2.591467E-6,0E0,1.3403417E-4,1.3375795E-4,9.7936485E-5,9.772203E-5,1.1736723E-5,2.6351307E-5,4.8289337E-5,0E0,3.3550902E-4,3.9814733E-4,9.387505E-5,1.9118434E-5,1.8284789E-4,2.4369278E-5,0E0,0E0,0E0,0E0,0E0,0E0,0E0,0E0,0E0,0E0,0E0,0E0,0E0,0E0,0E0,0E0,0E0,0E0,0E0,0E0,0E0,0E0,0E0,0E0,0E0,0E0,0E0,0E0,0E0,0E0,0E0,0E0,0E0,0E0,0E0,0E0,0E0,0E0,0E0,0E0,0E0,0E0],"parents":[2147483647,0,0,1,1,2,2,3,3,4,4,5,5,6,6,8,8,9,9,10,10,11,11,12,12,13,13,14,14,16,16,17,17,18,18,19,19,20,20,21,21,22,22,23,23,24,24,25,25,26,26,27,27,28,28,31,31,32,32,33,33,34,34,35,35,36,36,37,37,39,39,40,40,41,41,42,42,43,43,44,44,45,45,47,47,48,48,49,49,50,50,51,51,52,52],"right_children":[2,4,6,8,10,12,14,-1,16,18,20,22,24,26,28,-1,30,32,34,36,38,40,42,44,46,48,50,52,54,-1,-1,56,58,60,62,64,66,68,-1,70,72,74,76,78,80,82,-1,84,86,88,90,92,94,-1,-1,-1,-1,-1,-1,-1,-1,-1,-1,-1,-1,-1,-1,-1,-1,-1,-1,-1,-1,-1,-1,-1,-1,-1,-1,-1,-1,-1,-1,-1,-1,-1,-1,-1,-1,-1,-1,-1,-1,-1,-1],"split_conditions":[1E0,3.90625E-3,3.125E-2,6.25E-2,2.5E-1,5.12E2,1.28E2,-8.088809E-5,5E-1,1.25E-1,1E0,7.8125E-3,7.8125E-3,2.5E-1,5E-1,-1.1494278E-3,1.953125E-3,1.25E-1,6.25E-2,3.125E-2,2E0,3.90625E-3,2.56E2,3.90625E-3,1.024E3,1.6E1,2E0,6.25E-2,1E0,-1.919965E-4,-8.725047E-4,6.25E-2,5E-1,1.5625E-2,1.25E-1,1.5625E-2,6.25E-2,5E-1,-6.927122E-5,1.28E2,2E0,3.2E1,1.5625E-2,1.953125E-3,1.024E3,1.5625E-2,-4.687273E-3,1.25E-1,6.25E-2,5E-1,3.2E1,5.12E2,1.25E-1,1.2723137E-4,-7.4234165E-5,-1.0300653E-4,-8.643329E-4,7.725717E-4,-4.2270203E-4,-8.478165E-5,-8.2298263E-4,7.6402053E-3,-2.4021819E-4,-1.17116506E-4,5.1122904E-4,-1.9327005E-3,-8.1693055E-4,-4.3084324E-4,1.3740857E-4,7.8111514E-4,-8.557316E-4,-2.8017045E-3,3.0060228E-5,9.855244E-4,2.3449755E-3,1.0963132E-3,-1.7644713E-3,-4.230678E-4,3.4320354E-4,2.3352727E-3,4.8128763E-4,-1.1177063E-3,-3.5719872E-3,1.1010994E-3,-1.734307E-3,1.8882293E-4,-3.2205828E-3,2.3528398E-3,-9.1530776E-5,-2.663446E-4,1.2430485E-4,-2.2800297E-3,8.492072E-4,1.0648755E-3,1.9396963E-3],"split_indices":[0,1,1,0,1,0,0,0,0,1,1,1,1,1,1,0,1,0,0,0,1,1,0,1,0,0,0,1,1,0,0,0,0,0,0,0,0,0,0,0,0,0,1,1,0,1,0,1,1,1,0,0,1,0,0,0,0,0,0,0,0,0,0,0,0,0,0,0,0,0,0,0,0,0,0,0,0,0,0,0,0,0,0,0,0,0,0,0,0,0,0,0,0,0,0],"split_type":[0,0,0,0,0,0,0,0,0,0,0,0,0,0,0,0,0,0,0,0,0,0,0,0,0,0,0,0,0,0,0,0,0,0,0,0,0,0,0,0,0,0,0,0,0,0,0,0,0,0,0,0,0,0,0,0,0,0,0,0,0,0,0,0,0,0,0,0,0,0,0,0,0,0,0,0,0,0,0,0,0,0,0,0,0,0,0,0,0,0,0,0,0,0,0],"sum_hessian":[9.23E2,3.29E2,5.94E2,3.5E1,2.94E2,2.03E2,3.91E2,1.2E1,2.3E1,1.47E2,1.47E2,1.59E2,4.4E1,2.46E2,1.45E2,1.4E1,9E0,1.22E2,2.5E1,3.6E1,1.11E2,9.2E1,6.7E1,2.6E1,1.8E1,8.4E1,1.62E2,6.9E1,7.6E1,5E0,4E0,6.1E1,6.1E1,1E1,1.5E1,1E1,2.6E1,1.1E1,1E2,6.3E1,2.9E1,5.7E1,1E1,1.8E1,8E0,1E1,8E0,4.4E1,4E1,2.2E1,1.4E2,1.7E1,5.2E1,1.6E1,6E1,4.2E1,1.9E1,4.3E1,1.8E1,4E0,6E0,3E0,1.2E1,8E0,2E0,2E0,2.4E1,9E0,2E0,4.7E1,1.6E1,4E0,2.5E1,3E1,2.7E1,5E0,5E0,9E0,9E0,3E0,5E0,5E0,5E0,2.9E1,1.5E1,1.2E1,2.8E1,4E0,1.8E1,9.4E1,4.6E1,9E0,8E0,1.6E1,3.6E1],"tree_param":{"num_deleted":"0","num_feature":"2","num_nodes":"95","size_leaf_vector":"1"}},{"base_weights":[-2.2230468E-5,-1.9369855E-4,3.3565357E-5,-8.4657266E-5,-6.2091195E-4,1.2846156E-4,-1.0038676E-4,-3.4127972E-4,9.840783E-5,-2.147132E-3,-1.916386E-4,6.1491976E-4,-3.399909E-4,-6.7655166E-4,5.132666E-4,3.21274E-4,-6.348648E-4,2.2220227E-3,-2.1892216E-4,-7.7204703E-4,-1.4675906E-3,1.2223423E-3,-8.368744E-4,-2.0857419E-4,1.2079289E-3,2.0845691E-4,-8.4506645E-4,4.8589022E-4,-1.4569117E-3,2.4304711E-3,7.912362E-5,-4.1211908E-5,1.5461048E-3,-1.1078732E-4,-1.7381591E-3,-6.4479763E-4,4.7751367E-3,-1.2839139E-3,-9.105346E-5,-6.954223E-4,-1.3481826E-4,9.769499E-4,2.1033628E-4,-2.0990535E-3,8.317828E-5,1.5673892E-3,-5.5100356E-4,1.5329354E-3,3.3418697E-4,-1.0247516E-3,5.648536E-4,-2.952816E-3,6.922963E-5,1.6243187E-3,2.3081957E-4,-3.070483E-3,-1.0108732E-3,-1.672407E-4,1.5523604E-3,7.474309E-4,-6.78928E-5,-3.5349527E-4,1.4247E-3,-3.0722222E-4,5.677668E-4,3.8209888E-5,-1.6798046E-3,-5.0878523E-5,-4.702849E-4,-3.454089E-5,-1.2424648E-3,-7.496346E-5,1.2327387E-4,-4.6168268E-4,-1.4624497E-3,1.2321845E-3,-3.2794705E-4,-6.8943365E-4,2.8627713E-3,1.0288835E-4,-1.0861106E-3,2.0084177E-4,2.1159363E-3,1.0631408E-3,-1.7216504E-3,-1.0858112E-3,-1.3415614E-4,8.627486E-4,-2.2175136E-6,-2.1379876E-3,2.5902392E-4,8.219018E-5,-1.0508448E-4,1.3379082E-3,-4.4237822E-4,-2.325918E-4,8.250948E-4,4.0118693E-4,-3.3181459E-3,-8.209848E-4,5.637477E-4,6.42208E-4,-5.5631E-5,3.38513E-5,-7.340166E-5],"categories":[],"categories_nodes":[],"categories_segments":[],"categories_sizes":[],"default_left":[0,0,0,0,0,0,0,0,0,0,0,0,0,0,0,0,0,0,0,0,0,0,0,0,0,0,0,0,0,0,0,0,0,0,0,0,0,0,0,0,0,0,0,0,0,0,0,0,0,0,0,0,0,0,0,0,0,0,0,0,0,0,0,0,0,0,0,0,0,0,0,0,0,0,0,0,0,0,0,0,0,0,0,0,0,0,0,0,0,0,0,0,0,0,0,0,0,0,0,0,0,0,0,0,0],"id":11,"left_children":[1,3,5,7,9,11,13,15,17,19,21,23,25,27,29,31,33,35,37,39,-1,41,43,45,47,49,51,53,55,57,59,-1,61,63,65,67,-1,69,71,-1,-1,-1,-1,73,75,77,79,81,83,85,87,89,91,93,95,97,99,-1,-1,101,103,-1,-1,-1,-1,-1,-1,-1,-1,-1,-1,-1,-1,-1,-1,-1,-1,-1,-1,-1,-1,-1,-1,-1,-1,-1,-1,-1,-1,-1,-1,-1,-1,-1,-1,-1,-1,-1,-1,-1,-1,-1,-1,-1,-1],"loss_changes":[8.846597E-6,1.052198E-5,8.885556E-6,8.583692E-6,2.972615E-5,9.341303E-5,1.02881255E-4,1.4987175E-5,7.2592324E-5,8.570241E-6,3.4779936E-5,9.840816E-5,5.8070742E-5,1.3677639E-4,1.1716776E-4,1.1994512E-5,3.0452657E-5,3.002809E-4,1.2683931E-5,1.1794295E-6,0E0,6.215656E-6,3.036765E-5,5.255571E-5,3.2712414E-5,4.496949E-5,2.1025908E-4,1.7338236E-5,6.1670464E-5,4.9509443E-5,1.14479935E-5,0E0,1.963319E-5,2.39233E-5,5.0274968E-5,1.6710701E-6,0E0,1.441866E-5,1.7264028E-6,0E0,0E0,0E0,0E0,7.97955E-6,2.9774323E-5,1.7940858E-4,8.8784196E-5,2.5782027E-4,2.3071874E-4,1.9370706E-5,5.2206204E-5,1.5376785E-4,2.081591E-6,3.13886E-5,5.1149833E-5,2.6771222E-4,9.901651E-5,0E0,0E0,9.826118E-6,1.0371296E-6,0E0,0E0,0E0,0E0,0E0,0E0,0E0,0E0,0E0,0E0,0E0,0E0,0E0,0E0,0E0,0E0,0E0,0E0,0E0,0E0,0E0,0E0,0E0,0E0,0E0,0E0,0E0,0E0,0E0,0E0,0E0,0E0,0E0,0E0,0E0,0E0,0E0,0E0,0E0,0E0,0E0,0E0,0E0,0E0],"parents":[2147483647,0,0,1,1,2,2,3,3,4,4,5,5,6,6,7,7,8,8,9,9,10,10,11,11,12,12,13,13,14,14,15,15,16,16,17,17,18,18,19,19,21,21,22,22,23,23,24,24,25,25,26,26,27,27,28,28,29,29,30,30,32,32,33,33,34,34,35,35,37,37,38,38,43,43,44,44,45,45,46,46,47,47,48,48,49,49,50,50,51,51,52,52,53,53,54,54,55,55,56,56,59,59,60,60],"right_children":[2,4,6,8,10,12,14,16,18,20,22,24,26,28,30,32,34,36,38,40,-1,42,44,46,48,50,52,54,56,58,60,-1,62,64,66,68,-1,70,72,-1,-1,-1,-1,74,76,78,80,82,84,86,88,90,92,94,96,98,100,-1,-1,102,104,-1,-1,-1,-1,-1,-1,-1,-1,-1,-1,-1,-1,-1,-1,-1,-1,-1,-1,-1,-1,-1,-1,-1,-1,-1,-1,-1,-1,-1,-1,-1,-1,-1,-1,-1,-1,-1,-1,-1,-1,-1,-1,-1,-1],"split_conditions":[2.5E-1,1.25E-1,6.4E1,1.25E-1,7.8125E-3,1.25E-1,1.25E-1,7.8125E-3,2.5E-1,3.90625E-3,6.25E-2,7.8125E-3,4E0,7.8125E-3,2.5E-1,6.25E-2,6.25E-2,6.25E-2,5E-1,1.953125E-3,-1.4675906E-3,1.5625E-2,2.5E-1,5E-1,6.25E-2,5E-1,5E-1,1.28E2,1.28E2,1.28E2,5E-1,-4.1211908E-5,3.90625E-3,6.25E-2,3.125E-2,1.5625E-2,4.7751367E-3,3.125E-2,6.25E-2,-6.954223E-4,-1.3481826E-4,9.769499E-4,2.1033628E-4,1.25E-1,5E-1,3.90625E-3,3.90625E-3,1.6E1,1.6E1,5E-1,5E-1,3.2E1,3.2E1,3.90625E-3,3.90625E-3,3.125E-2,6.25E-2,-1.672407E-4,1.5523604E-3,5.12E2,2E0,-3.5349527E-4,1.4247E-3,-3.0722222E-4,5.677668E-4,3.8209888E-5,-1.6798046E-3,-5.0878523E-5,-4.702849E-4,-3.454089E-5,-1.2424648E-3,-7.496346E-5,1.2327387E-4,-4.6168268E-4,-1.4624497E-3,1.2321845E-3,-3.2794705E-4,-6.8943365E-4,2.8627713E-3,1.0288835E-4,-1.0861106E-3,2.0084177E-4,2.1159363E-3,1.0631408E-3,-1.7216504E-3,-1.0858112E-3,-1.3415614E-4,8.627486E-4,-2.2175136E-6,-2.1379876E-3,2.5902392E-4,8.219018E-5,-1.0508448E-4,1.3379082E-3,-4.4237822E-4,-2.325918E-4,8.250948E-4,4.0118693E-4,-3.3181459E-3,-8.209848E-4,5.637477E-4,6.42208E-4,-5.5631E-5,3.38513E-5,-7.340166E-5],"split_indices":[0,0,0,1,1,1,1,1,1,1,1,1,0,1,1,0,0,0,1,1,0,1,1,0,1,0,1,0,0,0,1,0,1,1,1,0,0,0,0,0,0,0,0,1,1,1,1,0,0,1,1,0,0,1,1,1,1,0,0,0,1,0,0,0,0,0,0,0,0,0,0,0,0,0,0,0,0,0,0,0,0,0,0,0,0,0,0,0,0,0,0,0,0,0,0,0,0,0,0,0,0,0,0,0,0],"split_type":[0,0,0,0,0,0,0,0,0,0,0,0,0,0,0,0,0,0,0,0,0,0,0,0,0,0,0,0,0,0,0,0,0,0,0,0,0,0,0,0,0,0,0,0,0,0,0,0,0,0,0,0,0,0,0,0,0,0,0,0,0,0,0,0,0,0,0,0,0,0,0,0,0,0,0,0,0,0,0,0,0,0,0,0,0,0,0,0,0,0,0,0,0,0,0,0,0,0,0,0,0,0,0,0,0],"sum_hessian":[9.23E2,2.26E2,6.97E2,1.81E2,4.5E1,4.08E2,2.89E2,7.5E1,1.06E2,9E0,3.6E1,2E2,2.08E2,1.49E2,1.4E2,2.3E1,5.2E1,1.3E1,9.3E1,4E0,5E0,1.1E1,2.5E1,8.4E1,1.16E2,1E2,1.08E2,6E1,8.9E1,2.5E1,1.15E2,1.8E1,5E0,3.6E1,1.6E1,1E1,3E0,9E0,8.4E1,1E0,3E0,5E0,6E0,1E1,1.5E1,1.3E1,7.1E1,8.4E1,3.2E1,2.2E1,7.8E1,3.2E1,7.6E1,1E1,5E1,1.8E1,7.1E1,5E0,2E1,2E1,9.5E1,2E0,3E0,2.6E1,1E1,8E0,8E0,4E0,6E0,5E0,4E0,7.2E1,1.2E1,5E0,5E0,3E0,1.2E1,8E0,5E0,4.9E1,2.2E1,6E1,2.4E1,2.2E1,1E1,8E0,1.4E1,2.5E1,5.3E1,2.3E1,9E0,5.7E1,1.9E1,7E0,3E0,3.4E1,1.6E1,9E0,9E0,5.5E1,1.6E1,1.2E1,8E0,3.5E1,6E1],"tree_param":{"num_deleted":"0","num_feature":"2","num_nodes":"105","size_leaf_vector":"1"}},{"base_weights":[-9.631698E-6,-7.72729E-5,2.7899781E-5,-3.9186177E-4,2.8324464E-5,3.942003E-4,-4.2358456E-6,-5.527157E-5,-1.6042558E-3,-7.2998424E-5,6.470323E-4,2.5578141E-3,-1.5128472E-4,-6.3898164E-4,4.031598E-5,-4.1844285E-4,9.3643204E-4,-1.5486777E-4,-2.0783222E-3,-7.988413E-4,5.948482E-6,2.2542179E-3,1.4413707E-4,-1.3142957E-3,4.7224428E-4,-2.2828102E-3,-5.4761767E-6,6.142457E-4,-5.3266056E-5,4.425645E-5,-7.7111967E-4,-3.830128E-4,2.3750006E-3,-2.866255E-3,-1.2218952E-4,9.896299E-4,-3.3599376E-3,7.414377E-4,-9.243641E-5,9.958694E-4,-3.494308E-4,2.652337E-3,3.1963868E-5,2.0962326E-4,-2.970057E-4,9.7220286E-4,2.8820362E-4,-7.4151944E-4,1.1442326E-5,-2.358324E-4,-5.78021E-4,1.6699582E-3,3.7105085E-4,-5.6465867E-4,-2.0149709E-3,7.319152E-5,9.599924E-4,-2.2267467E-4,2.089113E-3,8.902274E-6,-1.7359051E-4,-3.8565695E-4,1.8120945E-3,-6.7645905E-4,-1.6866361E-5,-1.3211468E-3,2.9207818E-4,-8.060535E-6,4.224658E-4,-4.0338436E-4,2.5856993E-4,-1.2906684E-4,4.9577997E-4,-1.1338206E-4,-2.0467758E-3,2.2596717E-4,-2.1749174E-5],"categories":[],"categories_nodes":[],"categories_segments":[],"categories_sizes":[],"default_left":[0,0,0,0,0,0,0,0,0,0,0,0,0,0,0,0,0,0,0,0,0,0,0,0,0,0,0,0,0,0,0,0,0,0,0,0,0,0,0,0,0,0,0,0,0,0,0,0,0,0,0,0,0,0,0,0,0,0,0,0,0,0,0,0,0,0,0,0,0,0,0,0,0,0,0,0,0],"id":12,"left_children":[1,3,5,7,9,11,13,15,17,19,21,-1,23,25,27,29,31,-1,33,35,37,-1,39,-1,41,-1,43,45,47,-1,49,-1,51,53,-1,55,-1,57,59,61,63,-1,65,67,69,-1,71,73,75,-1,-1,-1,-1,-1,-1,-1,-1,-1,-1,-1,-1,-1,-1,-1,-1,-1,-1,-1,-1,-1,-1,-1,-1,-1,-1,-1,-1],"loss_changes":[2.3478913E-6,1.0973619E-5,7.0055917E-6,3.3781966E-5,1.5594167E-5,1.2439639E-4,1.5522699E-5,2.416229E-5,1.0402666E-5,1.2267605E-5,6.731602E-5,0E0,6.920692E-5,8.95267E-5,2.75857E-5,8.82904E-6,4.5903158E-5,0E0,1.8084855E-5,2.2903178E-4,1.4106575E-5,0E0,1.3800395E-5,0E0,7.642491E-5,0E0,2.06891E-6,3.0665164E-5,1.969329E-5,0E0,2.7974747E-6,0E0,1.32775385E-5,1.36401795E-5,0E0,1.3055767E-5,0E0,9.56717E-5,4.8365064E-6,5.8532052E-5,6.607142E-6,0E0,5.1751478E-5,2.738549E-6,6.2275103E-6,0E0,2.2927874E-5,6.463983E-5,9.821034E-6,0E0,0E0,0E0,0E0,0E0,0E0,0E0,0E0,0E0,0E0,0E0,0E0,0E0,0E0,0E0,0E0,0E0,0E0,0E0,0E0,0E0,0E0,0E0,0E0,0E0,0E0,0E0,0E0],"parents":[2147483647,0,0,1,1,2,2,3,3,4,4,5,5,6,6,7,7,8,8,9,9,10,10,12,12,13,13,14,14,15,15,16,16,18,18,19,19,20,20,22,22,24,24,26,26,27,27,28,28,30,30,32,32,33,33,35,35,37,37,38,38,39,39,40,40,42,42,43,43,44,44,46,46,47,47,48,48],"right_children":[2,4,6,8,10,12,14,16,18,20,22,-1,24,26,28,30,32,-1,34,36,38,-1,40,-1,42,-1,44,46,48,-1,50,-1,52,54,-1,56,-1,58,60,62,64,-1,66,68,70,-1,72,74,76,-1,-1,-1,-1,-1,-1,-1,-1,-1,-1,-1,-1,-1,-1,-1,-1,-1,-1,-1,-1,-1,-1,-1,-1,-1,-1,-1,-1],"split_conditions":[1E0,1.5625E-2,2E0,5E-1,5E-1,1.953125E-3,1.953125E-3,2.5E-1,1.953125E-3,3.125E-2,3.125E-2,2.5578141E-3,7.8125E-3,4E0,7.8125E-3,3.125E-2,3.90625E-3,-1.5486777E-4,7.8125E-3,2.5E-1,6.25E-2,2.2542179E-3,2.5E-1,-1.3142957E-3,1.5625E-2,-2.2828102E-3,2.56E2,8E0,1.5625E-2,4.425645E-5,7.8125E-3,-3.830128E-4,7.8125E-3,3.90625E-3,-1.2218952E-4,6.25E-2,-3.3599376E-3,2.5E-1,1.25E-1,1.25E-1,5E-1,2.652337E-3,6.25E-2,1.28E2,1.024E3,9.7220286E-4,2.56E2,1.024E3,3.125E-2,-2.358324E-4,-5.78021E-4,1.6699582E-3,3.7105085E-4,-5.6465867E-4,-2.0149709E-3,7.319152E-5,9.599924E-4,-2.2267467E-4,2.089113E-3,8.902274E-6,-1.7359051E-4,-3.8565695E-4,1.8120945E-3,-6.7645905E-4,-1.6866361E-5,-1.3211468E-3,2.9207818E-4,-8.060535E-6,4.224658E-4,-4.0338436E-4,2.5856993E-4,-1.2906684E-4,4.9577997E-4,-1.1338206E-4,-2.0467758E-3,2.2596717E-4,-2.1749174E-5],"split_indices":[0,1,0,0,0,1,1,0,1,1,1,0,1,0,1,0,1,0,1,0,1,0,1,0,1,0,0,0,1,0,1,0,1,1,0,0,0,0,0,1,1,0,1,0,0,0,0,0,1,0,0,0,0,0,0,0,0,0,0,0,0,0,0,0,0,0,0,0,0,0,0,0,0,0,0,0,0],"split_type":[0,0,0,0,0,0,0,0,0,0,0,0,0,0,0,0,0,0,0,0,0,0,0,0,0,0,0,0,0,0,0,0,0,0,0,0,0,0,0,0,0,0,0,0,0,0,0,0,0,0,0,0,0,0,0,0,0,0,0,0,0,0,0,0,0,0,0,0,0,0,0,0,0,0,0,0,0],"sum_hessian":[9.23E2,3.29E2,5.94E2,8.2E1,2.47E2,4.7E1,5.47E2,6.5E1,1.7E1,2.13E2,3.4E1,4E0,4.3E1,3.5E1,5.12E2,4.8E1,1.7E1,5E0,1.2E1,2E1,1.93E2,3E0,3.1E1,8E0,3.5E1,4E0,3.1E1,7.1E1,4.41E2,2E1,2.8E1,8E0,9E0,8E0,4E0,1.6E1,4E0,2.2E1,1.71E2,1.1E1,2E1,2E0,3.3E1,1.8E1,1.3E1,1.3E1,5.8E1,3.7E1,4.04E2,1.7E1,1.1E1,5E0,4E0,4E0,4E0,9E0,7E0,1.7E1,5E0,1.2E2,5.1E1,7E0,4E0,4E0,1.6E1,5E0,2.8E1,1.4E1,4E0,8E0,5E0,3.3E1,2.5E1,3.3E1,4E0,4.4E1,3.6E2],"tree_param":{"num_deleted":"0","num_feature":"2","num_nodes":"77","size_leaf_vector":"1"}},{"base_weights":[-4.130202E-6,1.2561384E-5,-1.19366705E-4,1.9933435E-4,-7.8444864E-5,-1.2123969E-3,5.560542E-4,2.7912418E-7,8.6502265E-4,4.5933175E-5,-2.6182857E-4,-3.2744638E-4,-2.1384894E-3,1.5422239E-3,-1.1149873E-5,-1.0535184E-4,1.1035204E-3,-4.7672438E-5,2.1812106E-3,4.3795424E-4,-6.537174E-5,-1.1811842E-3,4.4354474E-5,1.3499128E-4,-1.5432835E-3,1.8185868E-3,4.874576E-4,-3.9105526E-5,-7.2883896E-4,5.7825673E-4,1.0288358E-3,8.060719E-4,-5.437036E-4,3.1953186E-3,-7.813424E-4,-3.4746286E-4,1.2330231E-3,2.1506248E-5,-7.6736935E-4,7.782453E-4,-2.1554537E-3,-2.1478046E-4,5.436613E-4,-2.2397042E-4,3.2691492E-4,-2.6267767E-4,-1.2280702E-3,1.1088053E-3,1.1631516E-3,-6.660319E-5,2.1312873E-4,-9.2726614E-4,1.7858445E-4,1.6033649E-6,4.1673912E-4,4.0253995E-5,1.0479927E-3,-1.3749823E-3,2.632597E-4,1.9874086E-3,1.0091693E-3,9.857331E-5,-4.998884E-4,4.1714418E-4,1.1682643E-3,2.6264347E-4,-3.344804E-5,-1.3018979E-3,4.8695503E-5,1.1942983E-3,-3.0503218E-4,-1.4267594E-3,-6.300393E-4,-8.3848997E-4,3.5267683E-5,1.0846962E-3,7.580189E-5,-4.0497183E-4,1.5083452E-4,3.7877634E-4,-7.99786E-6,2.1383763E-4,7.8408717E-4],"categories":[],"categories_nodes":[],"categories_segments":[],"categories_sizes":[],"default_left":[0,0,0,0,0,0,0,0,0,0,0,0,0,0,0,0,0,0,0,0,0,0,0,0,0,0,0,0,0,0,0,0,0,0,0,0,0,0,0,0,0,0,0,0,0,0,0,0,0,0,0,0,0,0,0,0,0,0,0,0,0,0,0,0,0,0,0,0,0,0,0,0,0,0,0,0,0,0,0,0,0,0,0],"id":13,"left_children":[1,3,5,7,9,11,13,15,17,19,21,23,-1,25,-1,27,29,31,33,35,37,39,41,43,45,47,-1,49,51,53,-1,55,57,59,-1,61,63,65,67,69,71,73,75,77,79,-1,-1,81,-1,-1,-1,-1,-1,-1,-1,-1,-1,-1,-1,-1,-1,-1,-1,-1,-1,-1,-1,-1,-1,-1,-1,-1,-1,-1,-1,-1,-1,-1,-1,-1,-1,-1,-1],"loss_changes":[1.7787949E-6,1.3749622E-5,8.705004E-5,3.511457E-5,1.24200715E-5,1.2063966E-4,4.1670308E-5,2.4006227E-5,7.338195E-5,1.4209639E-5,6.1980434E-5,2.044929E-5,0E0,2.4601832E-6,0E0,7.7365985E-6,7.831395E-6,1.6107166E-5,9.991113E-5,4.5389592E-5,1.5507492E-5,1.06673164E-4,2.1595148E-5,1.9333365E-6,8.00188E-6,3.5468292E-6,0E0,7.5450507E-6,2.2667597E-5,1.9052741E-6,0E0,1.2934063E-5,5.81165E-5,1.0326563E-5,0E0,1.3341586E-5,1.3890884E-5,1.0144671E-5,4.4719513E-5,4.393486E-5,1.953046E-5,4.600904E-5,3.6001777E-5,3.3244416E-6,2.6701823E-6,0E0,0E0,2.1453416E-6,0E0,0E0,0E0,0E0,0E0,0E0,0E0,0E0,0E0,0E0,0E0,0E0,0E0,0E0,0E0,0E0,0E0,0E0,0E0,0E0,0E0,0E0,0E0,0E0,0E0,0E0,0E0,0E0,0E0,0E0,0E0,0E0,0E0,0E0,0E0],"parents":[2147483647,0,0,1,1,2,2,3,3,4,4,5,5,6,6,7,7,8,8,9,9,10,10,11,11,13,13,15,15,16,16,17,17,18,18,19,19,20,20,21,21,22,22,23,23,24,24,25,25,27,27,28,28,29,29,31,31,32,32,33,33,35,35,36,36,37,37,38,38,39,39,40,40,41,41,42,42,43,43,44,44,47,47],"right_children":[2,4,6,8,10,12,14,16,18,20,22,24,-1,26,-1,28,30,32,34,36,38,40,42,44,46,48,-1,50,52,54,-1,56,58,60,-1,62,64,66,68,70,72,74,76,78,80,-1,-1,82,-1,-1,-1,-1,-1,-1,-1,-1,-1,-1,-1,-1,-1,-1,-1,-1,-1,-1,-1,-1,-1,-1,-1,-1,-1,-1,-1,-1,-1,-1,-1,-1,-1,-1,-1],"split_conditions":[5.12E2,3.125E-2,3.125E-2,1.5625E-2,8E0,1.5625E-2,2.5E-1,2.56E2,1.6E1,1.25E-1,1.25E-1,7.8125E-3,-2.1384894E-3,1.25E-1,-1.1149873E-5,1.28E2,7.8125E-3,1.25E-1,2.56E2,2.5E-1,4E0,3.2E1,1.28E2,1.953125E-3,1.024E3,1.024E3,4.874576E-4,3.2E1,3.90625E-3,1.953125E-3,1.0288358E-3,6.25E-2,5E-1,6.4E1,-7.813424E-4,6.25E-2,4E0,2.5E-1,5E-1,6.25E-2,1.28E2,2.5E-1,2.5E-1,1.024E3,1.024E3,-2.6267767E-4,-1.2280702E-3,6.25E-2,1.1631516E-3,-6.660319E-5,2.1312873E-4,-9.2726614E-4,1.7858445E-4,1.6033649E-6,4.1673912E-4,4.0253995E-5,1.0479927E-3,-1.3749823E-3,2.632597E-4,1.9874086E-3,1.0091693E-3,9.857331E-5,-4.998884E-4,4.1714418E-4,1.1682643E-3,2.6264347E-4,-3.344804E-5,-1.3018979E-3,4.8695503E-5,1.1942983E-3,-3.0503218E-4,-1.4267594E-3,-6.300393E-4,-8.3848997E-4,3.5267683E-5,1.0846962E-3,7.580189E-5,-4.0497183E-4,1.5083452E-4,3.7877634E-4,-7.99786E-6,2.1383763E-4,7.8408717E-4],"split_indices":[0,1,1,1,0,1,1,0,0,1,1,1,0,1,0,0,1,0,0,0,0,0,0,1,0,0,0,0,1,1,0,0,0,0,0,0,0,1,1,1,0,1,1,0,0,0,0,1,0,0,0,0,0,0,0,0,0,0,0,0,0,0,0,0,0,0,0,0,0,0,0,0,0,0,0,0,0,0,0,0,0,0,0],"split_type":[0,0,0,0,0,0,0,0,0,0,0,0,0,0,0,0,0,0,0,0,0,0,0,0,0,0,0,0,0,0,0,0,0,0,0,0,0,0,0,0,0,0,0,0,0,0,0,0,0,0,0,0,0,0,0,0,0,0,0,0,0,0,0,0,0,0,0,0,0,0,0,0,0,0,0,0,0,0,0,0,0,0,0],"sum_hessian":[9.23E2,8.07E2,1.16E2,2.64E2,5.43E2,4.4E1,7.2E1,2.04E2,6E1,3.24E2,2.19E2,3.5E1,9E0,2.6E1,4.6E1,1.87E2,1.7E1,3.6E1,2.4E1,7.1E1,2.53E2,5.4E1,1.65E2,2.6E1,9E0,1.6E1,1E1,1.7E2,1.7E1,1.2E1,5E0,1.3E1,2.3E1,1.9E1,5E0,3.6E1,3.5E1,2.26E2,2.7E1,1.8E1,3.6E1,1.09E2,5.6E1,9E0,1.7E1,5E0,4E0,8E0,8E0,1.42E2,2.8E1,8E0,9E0,4E0,8E0,9E0,4E0,7E0,1.6E1,1E1,9E0,2E1,1.6E1,2.7E1,8E0,3.3E1,1.93E2,8E0,1.9E1,8E0,1E1,1.9E1,1.7E1,1.7E1,9.2E1,1E1,4.6E1,4E0,5E0,7E0,1E1,4E0,4E0],"tree_param":{"num_deleted":"0","num_feature":"2","num_nodes":"83","size_leaf_vector":"1"}},{"base_weights":[-4.3800384E-7,-9.7903336E-5,1.73855E-5,-1.7770802E-4,6.144164E-6,2.6065856E-4,2.132651E-6,-1.5024705E-5,-4.8011748E-4,-4.4515458E-4,1.064197E-3,-1.4588037E-4,5.2165985E-4,-8.935087E-5,-4.186722E-4,1.2036065E-3,-1.0008847E-3,2.8826594E-3,-1.7759576E-4,2.4588779E-5,-5.8130705E-4,-7.3165895E-4,1.8649782E-3,-1.3484557E-4,1.0038391E-3,-1.1359274E-3,-4.350589E-4,-6.0777366E-4,1.5543516E-4,-4.785508E-4,-1.3309385E-4,1.8365185E-4,1.1952936E-3,2.9612912E-4,-1.098609E-3,1.0334104E-3,-8.804103E-5],"categories":[],"categories_nodes":[],"categories_segments":[],"categories_sizes":[],"default_left":[0,0,0,0,0,0,0,0,0,0,0,0,0,0,0,0,0,0,0,0,0,0,0,0,0,0,0,0,0,0,0,0,0,0,0,0,0],"id":14,"left_children":[1,3,5,7,-1,9,-1,11,13,15,17,19,21,-1,-1,23,25,-1,27,-1,29,-1,31,-1,-1,-1,33,-1,35,-1,-1,-1,-1,-1,-1,-1,-1],"loss_changes":[1.6068508E-6,1.2596987E-6,2.4948686E-6,4.076135E-6,0E0,2.3159651E-5,0E0,3.938652E-6,2.9729063E-6,2.1362526E-5,1.1194247E-4,3.8505914E-6,3.2060085E-5,0E0,0E0,7.649274E-6,1.1237122E-5,0E0,5.7196585E-6,0E0,1.4031134E-6,0E0,4.6322675E-6,0E0,0E0,0E0,2.4835172E-5,0E0,8.601474E-6,0E0,0E0,0E0,0E0,0E0,0E0,0E0,0E0],"parents":[2147483647,0,0,1,1,2,2,3,3,5,5,7,7,8,8,9,9,10,10,11,11,12,12,15,15,16,16,18,18,20,20,22,22,26,26,28,28],"right_children":[2,4,6,8,-1,10,-1,12,14,16,18,20,22,-1,-1,24,26,-1,28,-1,30,-1,32,-1,-1,-1,34,-1,36,-1,-1,-1,-1,-1,-1,-1,-1],"split_conditions":[6.25E-2,2E0,1.25E-1,1.25E-1,6.144164E-6,1.25E-1,2.132651E-6,6.25E-2,1.5625E-2,7.8125E-3,2.5E-1,3.125E-2,1.5625E-2,-8.935087E-5,-4.186722E-4,3.90625E-3,1.5625E-2,2.8826594E-3,5E-1,2.4588779E-5,1.5625E-2,-7.3165895E-4,3.125E-2,-1.3484557E-4,1.0038391E-3,-1.1359274E-3,6.25E-2,-6.0777366E-4,1E0,-4.785508E-4,-1.3309385E-4,1.8365185E-4,1.1952936E-3,2.9612912E-4,-1.098609E-3,1.0334104E-3,-8.804103E-5],"split_indices":[0,1,0,1,0,1,0,1,0,1,1,0,0,0,0,1,1,0,1,0,1,0,0,0,0,0,1,0,1,0,0,0,0,0,0,0,0],"split_type":[0,0,0,0,0,0,0,0,0,0,0,0,0,0,0,0,0,0,0,0,0,0,0,0,0,0,0,0,0,0,0,0,0,0,0,0,0],"sum_hessian":[9.23E2,1.42E2,7.81E2,8.2E1,6E1,3.9E1,7.42E2,5.4E1,2.8E1,2.1E1,1.8E1,4.4E1,1E1,1.6E1,1.2E1,5E0,1.6E1,3E0,1.5E1,3.1E1,1.3E1,4E0,6E0,2E0,3E0,4E0,1.2E1,3E0,1.2E1,5E0,8E0,2E0,4E0,8E0,4E0,1E0,1.1E1],"tree_param":{"num_deleted":"0","num_feature":"2","num_nodes":"37","size_leaf_vector":"1"}},{"base_weights":[1.6219043E-6],"categories":[],"categories_nodes":[],"categories_segments":[],"categories_sizes":[],"default_left":[0],"id":15,"left_children":[-1],"loss_changes":[0E0],"parents":[2147483647],"right_children":[-1],"split_conditions":[8.1095214E-7],"split_indices":[0],"split_type":[0],"sum_hessian":[9.23E2],"tree_param":{"num_deleted":"0","num_feature":"2","num_nodes":"1","size_leaf_vector":"1"}},{"base_weights":[7.883424E-7],"categories":[],"categories_nodes":[],"categories_segments":[],"categories_sizes":[],"default_left":[0],"id":16,"left_children":[-1],"loss_changes":[0E0],"parents":[2147483647],"right_children":[-1],"split_conditions":[3.941712E-7],"split_indices":[0],"split_type":[0],"sum_hessian":[9.23E2],"tree_param":{"num_deleted":"0","num_feature":"2","num_nodes":"1","size_leaf_vector":"1"}},{"base_weights":[3.715614E-7],"categories":[],"categories_nodes":[],"categories_segments":[],"categories_sizes":[],"default_left":[0],"id":17,"left_children":[-1],"loss_changes":[0E0],"parents":[2147483647],"right_children":[-1],"split_conditions":[1.857807E-7],"split_indices":[0],"split_type":[0],"sum_hessian":[9.23E2],"tree_param":{"num_deleted":"0","num_feature":"2","num_nodes":"1","size_leaf_vector":"1"}},{"base_weights":[1.9294102E-7],"categories":[],"categories_nodes":[],"categories_segments":[],"categories_sizes":[],"default_left":[0],"id":18,"left_children":[-1],"loss_changes":[0E0],"parents":[2147483647],"right_children":[-1],"split_conditions":[9.647051E-8],"split_indices":[0],"split_type":[0],"sum_hessian":[9.23E2],"tree_param":{"num_deleted":"0","num_feature":"2","num_nodes":"1","size_leaf_vector":"1"}},{"base_weights":[7.386073E-8],"categories":[],"categories_nodes":[],"categories_segments":[],"categories_sizes":[],"default_left":[0],"id":19,"left_children":[-1],"loss_changes":[0E0],"parents":[2147483647],"right_children":[-1],"split_conditions":[3.6930366E-8],"split_indices":[0],"split_type":[0],"sum_hessian":[9.23E2],"tree_param":{"num_deleted":"0","num_feature":"2","num_nodes":"1","size_leaf_vector":"1"}}]},"name":"gbtree"},"learner_model_param":{"base_score":"7.1640724E-1","boost_from_average":"1","num_class":"0","num_feature":"2","num_target":"1"},"objective":{"name":"reg:squarederror","reg_loss_param":{"scale_pos_weight":"1"}}},"version":[2,1,1]}