{"learner":{"attributes":{},"feature_names":[],"feature_types":[],"gradient_booster":{"model":{"gbtree_model_param":{"num_parallel_tree":"1","num_trees":"20"},"iteration_indptr":[0,1,2,3,4,5,6,7,8,9,10,11,12,13,14,15,16,17,18,19,20],"tree_info":[0,0,0,0,0,0,0,0,0,0,0,0,0,0,0,0,0,0,0,0],"trees":[{"base_weights":[-2.3089317E-8,3.5828664E-3,-2.5162615E-2,4.87669E-3,-4.2658714E-3,-3.263373E-2,-1.2798252E-4,6.4075934E-3,8.2047726E-4,-3.0175496E-2,7.896384E-3,-1.6392836E-2,-1.7939573E-2,8.640728E-3,-1.4958E-2,7.3924446E-3,3.278242E-3,-2.321125E-3,3.95084E-3,-1.7807143E-2,-1.2126736E-2,5.3073387E-3,8.87961E-3,-1.6026428E-2,1.6090189E-3,9.797955E-3,-1.2824933E-5,4.5947E-3,8.015779E-3,-1.2465E-2,4.1721594E-3,-6.143225E-3,-4.4009447E-4,5.6053153E-3,1.0916719E-3,3.0342222E-3,-1.4023125E-2,2.2680163E-3,2.983312E-3,2.5283496E-3,4.5669824E-3,-1.2899935E-3,1.9003093E-3,3.2756962E-3,5.909886E-3,4.572138E-3,1.6247407E-3,4.9186777E-3,2.872379E-3,7.2643824E-4,2.6187603E-3,-1.8835397E-3,-6.321907E-3,-6.42545E-4,2.0783842E-3,2.9949436E-3,1.0215938E-3,1.1916207E-3,-7.357389E-4,1.7815083E-3,2.29761E-4,1.9028386E-3,-1.2824933E-5,1.6665012E-3,2.29761E-4],"categories":[],"categories_nodes":[],"categories_segments":[],"categories_sizes":[],"default_left":[0,0,0,0,0,0,0,0,0,0,0,0,0,0,0,0,0,0,0,0,0,0,0,0,0,0,0,0,0,0,0,0,0,0,0,0,0,0,0,0,0,0,0,0,0,0,0,0,0,0,0,0,0,0,0,0,0,0,0,0,0,0,0,0,0],"id":0,"left_children":[1,3,5,7,9,11,13,15,17,19,21,23,-1,25,-1,27,29,31,33,-1,35,37,39,-1,41,43,-1,45,47,-1,49,51,53,55,57,59,-1,61,-1,63,-1,-1,-1,-1,-1,-1,-1,-1,-1,-1,-1,-1,-1,-1,-1,-1,-1,-1,-1,-1,-1,-1,-1,-1,-1],"loss_changes":[6.2928036E-2,6.225435E-3,1.6268011E-2,3.2548197E-3,2.7653674E-2,2.9433072E-3,5.743748E-3,1.1499859E-3,1.4351518E-3,2.3166891E-3,1.0560965E-4,3.7163962E-3,0E0,1.7074367E-4,0E0,4.671663E-4,2.449085E-3,5.221289E-4,3.3920165E-4,0E0,2.015939E-3,2.4539477E-5,4.4755638E-5,0E0,7.406992E-5,2.1023443E-5,0E0,3.0689535E-4,9.1564376E-4,0E0,2.560193E-4,3.230821E-4,1.9955824E-4,5.0776755E-5,9.6200514E-5,5.1701572E-6,0E0,1.7732018E-5,0E0,3.4624754E-6,0E0,0E0,0E0,0E0,0E0,0E0,0E0,0E0,0E0,0E0,0E0,0E0,0E0,0E0,0E0,0E0,0E0,0E0,0E0,0E0,0E0,0E0,0E0,0E0,0E0],"parents":[2147483647,0,0,1,1,2,2,3,3,4,4,5,5,6,6,7,7,8,8,9,9,10,10,11,11,13,13,15,15,16,16,17,17,18,18,20,20,21,21,22,22,24,24,25,25,27,27,28,28,30,30,31,31,32,32,33,33,34,34,35,35,37,37,39,39],"right_children":[2,4,6,8,10,12,14,16,18,20,22,24,-1,26,-1,28,30,32,34,-1,36,38,40,-1,42,44,-1,46,48,-1,50,52,54,56,58,60,-1,62,-1,64,-1,-1,-1,-1,-1,-1,-1,-1,-1,-1,-1,-1,-1,-1,-1,-1,-1,-1,-1,-1,-1,-1,-1,-1,-1],"split_conditions":[5.1015043E-1,4.380234E-1,6.8010104E-1,7.400894E-1,3.5407564E-1,5.220229E-1,5.655145E-1,3.3458522E-1,2.5284278E-1,2.6904985E-1,3.945885E-3,4.4118014E-1,-1.7939573E-2,5.5560404E-1,-1.4958E-2,1.4036174E-1,3.2812137E-2,1.02571554E-1,3.7069824E-1,-1.7807143E-2,4.7502118E-1,4.5081192E-1,3.7406626E-1,-1.6026428E-2,5.155307E-1,6.764374E-3,-1.2824933E-5,1.02571554E-1,4.687935E-1,-1.2465E-2,3.382187E-3,7.328072E-3,9.019165E-3,9.689796E-1,6.82E-1,4.5660418E-1,-1.4023125E-2,4.4383496E-1,2.983312E-3,4.8276043E-1,4.5669824E-3,-1.2899935E-3,1.9003093E-3,3.2756962E-3,5.909886E-3,4.572138E-3,1.6247407E-3,4.9186777E-3,2.872379E-3,7.2643824E-4,2.6187603E-3,-1.8835397E-3,-6.321907E-3,-6.42545E-4,2.0783842E-3,2.9949436E-3,1.0215938E-3,1.1916207E-3,-7.357389E-4,1.7815083E-3,2.29761E-4,1.9028386E-3,-1.2824933E-5,1.6665012E-3,2.29761E-4],"split_indices":[0,0,3,3,3,0,0,0,0,3,1,3,0,0,0,3,3,0,0,0,0,0,3,0,3,1,0,0,3,0,1,1,1,3,2,0,0,0,0,0,0,0,0,0,0,0,0,0,0,0,0,0,0,0,0,0,0,0,0,0,0,0,0,0,0],"split_type":[0,0,0,0,0,0,0,0,0,0,0,0,0,0,0,0,0,0,0,0,0,0,0,0,0,0,0,0,0,0,0,0,0,0,0,0,0,0,0,0,0,0,0,0,0,0,0,0,0,0,0,0,0,0,0,0,0,0,0,0,0,0,0,0,0],"sum_hessian":[6.96E2,6.1E2,8.6E1,5.24E2,8.6E1,6.6E1,2E1,3.8E2,1.44E2,2.7E1,5.9E1,1.2E1,5.4E1,1.6E1,4E0,2.88E2,9.2E1,7.2E1,7.2E1,2E1,7E0,1.8E1,4.1E1,6E0,6E0,1.4E1,2E0,5.4E1,2.34E2,2E0,9E1,2.3E1,4.9E1,4.5E1,2.7E1,4E0,3E0,4E0,1.4E1,2E0,3.9E1,2E0,4E0,7E0,7E0,1.1E1,4.3E1,1.28E2,1.06E2,2.6E1,6.4E1,1.8E1,5E0,4.2E1,7E0,4E1,5E0,1.8E1,9E0,3E0,1E0,2E0,2E0,1E0,1E0],"tree_param":{"num_deleted":"0","num_feature":"4","num_nodes":"65","size_leaf_vector":"1"}},{"base_weights":[-7.900831E-5,1.7653777E-3,-1.3031201E-2,2.443226E-3,-2.3453783E-3,-1.8365648E-2,-2.802343E-3,3.216551E-3,3.9439858E-4,-1.6152726E-2,4.1371407E-3,-1.1212431E-2,-9.571425E-3,2.6221613E-3,-1.6353594E-2,1.7032396E-3,4.1811205E-3,-1.7823773E-3,1.7056982E-3,-9.327559E-3,-7.5648576E-3,2.6699146E-3,4.525646E-3,-8.547425E-3,-1.0562986E-3,7.2639748E-3,-1.5072318E-3,-6.174525E-3,-9.189912E-3,2.373279E-3,-1.5836129E-3,4.840541E-3,3.1250399E-3,2.927512E-3,-2.7675189E-3,2.0897745E-3,-3.796061E-4,1.919353E-3,-8.764453E-3,1.8676552E-3,9.1870344E-4,3.6221573E-3,5.6189112E-3,-8.5998577E-4,2.3368001E-4,6.630406E-3,5.3382097E-3,-1.1103118E-2,3.991286E-3,-4.863858E-3,2.3296475E-4,2.712267E-4,1.3584208E-3,-8.584922E-3,1.0153475E-3,3.1153592E-3,1.3412739E-3,4.8083634E-4,1.8563092E-3,-4.5641512E-4,2.3518887E-3,-6.1398745E-4,-3.099382E-3,-2.6521334E-4,1.2672557E-3,-1.6392588E-3,4.8629532E-4,2.9046336E-4,1.3089975E-3,1.0190209E-3,3.167987E-5,3.2529235E-4,1.9128586E-3,5.247593E-4,2.9072298E-3,1.6819239E-3,3.3199012E-3,7.1267784E-4,-7.2957873E-3,8.202592E-5,2.5306728E-3],"categories":[],"categories_nodes":[],"categories_segments":[],"categories_sizes":[],"default_left":[0,0,0,0,0,0,0,0,0,0,0,0,0,0,0,0,0,0,0,0,0,0,0,0,0,0,0,0,0,0,0,0,0,0,0,0,0,0,0,0,0,0,0,0,0,0,0,0,0,0,0,0,0,0,0,0,0,0,0,0,0,0,0,0,0,0,0,0,0,0,0,0,0,0,0,0,0,0,0,0,0],"id":1,"left_children":[1,3,5,7,9,11,13,15,17,19,21,23,-1,25,27,29,31,33,35,-1,37,39,41,-1,43,45,47,49,-1,51,53,55,57,59,61,63,65,67,-1,-1,69,71,73,-1,-1,-1,75,77,79,-1,-1,-1,-1,-1,-1,-1,-1,-1,-1,-1,-1,-1,-1,-1,-1,-1,-1,-1,-1,-1,-1,-1,-1,-1,-1,-1,-1,-1,-1,-1,-1],"loss_changes":[1.667353E-2,1.7082632E-3,4.6957154E-3,8.30546E-4,7.853882E-3,1.0225177E-4,2.3216552E-3,5.490221E-4,4.16929E-4,4.606028E-4,2.2118445E-5,4.598837E-4,0E0,4.5180955E-4,7.213955E-5,3.341065E-4,1.4643837E-4,2.6329688E-4,7.367664E-5,0E0,7.896533E-4,2.4554349E-5,2.508401E-5,0E0,4.848689E-6,5.624449E-5,7.3023664E-4,7.5316864E-5,0E0,7.7151635E-5,1.4995363E-3,4.0628482E-4,1.1337537E-4,7.2508425E-5,2.3538547E-4,9.107246E-5,6.1987135E-5,3.1545424E-6,0E0,0E0,6.572803E-6,1.4448044E-5,1.0874879E-5,0E0,0E0,0E0,3.3628603E-6,2.3932342E-4,3.6027996E-5,0E0,0E0,0E0,0E0,0E0,0E0,0E0,0E0,0E0,0E0,0E0,0E0,0E0,0E0,0E0,0E0,0E0,0E0,0E0,0E0,0E0,0E0,0E0,0E0,0E0,0E0,0E0,0E0,0E0,0E0,0E0,0E0],"parents":[2147483647,0,0,1,1,2,2,3,3,4,4,5,5,6,6,7,7,8,8,9,9,10,10,11,11,13,13,14,14,15,15,16,16,17,17,18,18,20,20,21,21,22,22,24,24,25,25,26,26,27,27,29,29,30,30,31,31,32,32,33,33,34,34,35,35,36,36,37,37,40,40,41,41,42,42,46,46,47,47,48,48],"right_children":[2,4,6,8,10,12,14,16,18,20,22,24,-1,26,28,30,32,34,36,-1,38,40,42,-1,44,46,48,50,-1,52,54,56,58,60,62,64,66,68,-1,-1,70,72,74,-1,-1,-1,76,78,80,-1,-1,-1,-1,-1,-1,-1,-1,-1,-1,-1,-1,-1,-1,-1,-1,-1,-1,-1,-1,-1,-1,-1,-1,-1,-1,-1,-1,-1,-1,-1,-1],"split_conditions":[5.1015043E-1,4.380234E-1,5.723615E-1,7.400894E-1,3.5407564E-1,5.1553124E-1,5.598813E-1,4.265E-1,1.8168224E-1,2.6904985E-1,4.515559E-1,4.4118014E-1,-9.571425E-3,2.58E-1,5.655145E-1,3.7244353E-1,4.5048583E-1,2.2547913E-3,3.9799857E-1,-9.327559E-3,4.7502118E-1,7.26246E-1,7.89177E-3,-8.547425E-3,3.382187E-3,5.755275E-1,6.6082853E-1,1.6910936E-3,-9.189912E-3,1.02571554E-1,8.261768E-2,2.5886872E-1,1.2943174E-1,8.5986686E-1,9.3044156E-1,9.65E-2,4.103019E-1,3.945885E-3,-8.764453E-3,1.8676552E-3,5.17E-1,1.445E-1,4.6084175E-1,-8.5998577E-4,2.3368001E-4,6.630406E-3,5.303502E-1,5.199088E-1,8.75691E-1,-4.863858E-3,2.3296475E-4,2.712267E-4,1.3584208E-3,-8.584922E-3,1.0153475E-3,3.1153592E-3,1.3412739E-3,4.8083634E-4,1.8563092E-3,-4.5641512E-4,2.3518887E-3,-6.1398745E-4,-3.099382E-3,-2.6521334E-4,1.2672557E-3,-1.6392588E-3,4.8629532E-4,2.9046336E-4,1.3089975E-3,1.0190209E-3,3.167987E-5,3.2529235E-4,1.9128586E-3,5.247593E-4,2.9072298E-3,1.6819239E-3,3.3199012E-3,7.1267784E-4,-7.2957873E-3,8.202592E-5,2.5306728E-3],"split_indices":[0,0,3,3,3,0,0,2,0,3,0,3,0,2,0,0,3,1,0,0,0,3,1,0,1,3,3,1,0,0,3,0,0,3,3,2,0,1,0,0,2,2,3,0,0,0,0,0,3,0,0,0,0,0,0,0,0,0,0,0,0,0,0,0,0,0,0,0,0,0,0,0,0,0,0,0,0,0,0,0,0],"split_type":[0,0,0,0,0,0,0,0,0,0,0,0,0,0,0,0,0,0,0,0,0,0,0,0,0,0,0,0,0,0,0,0,0,0,0,0,0,0,0,0,0,0,0,0,0,0,0,0,0,0,0,0,0,0,0,0,0,0,0,0,0,0,0,0,0,0,0,0,0,0,0,0,0,0,0,0,0,0,0,0,0],"sum_hessian":[6.96E2,6.1E2,8.6E1,5.24E2,8.6E1,5.6E1,3E1,3.8E2,1.44E2,2.7E1,5.9E1,7E0,4.9E1,2.2E1,8E0,1.49E2,2.31E2,5.4E1,9E1,2E1,7E0,1.4E1,4.5E1,4E0,3E0,1E1,1.2E1,2E0,6E0,1.24E2,2.5E1,1.4E2,9.1E1,9E0,4.5E1,7.6E1,1.4E1,4E0,3E0,8E0,6E0,2.7E1,1.8E1,2E0,1E0,1E0,9E0,4E0,8E0,1E0,1E0,2E1,1.04E2,4E0,2.1E1,8.4E1,5.6E1,2E1,7.1E1,3E0,6E0,3.2E1,1.3E1,1.1E1,6.5E1,4E0,1E1,2E0,2E0,2E0,4E0,2E0,2.5E1,1E0,1.7E1,5E0,4E0,1E0,3E0,2E0,6E0],"tree_param":{"num_deleted":"0","num_feature":"4","num_nodes":"81","size_leaf_vector":"1"}},{"base_weights":[-8.8179724E-5,8.6792145E-4,-6.801854E-3,1.3620887E-3,-9.013312E-4,-8.409243E-3,2.180193E-3,1.7841103E-3,2.4236468E-4,-7.551834E-3,1.1735952E-3,-2.7513306E-3,-9.353461E-3,3.366906E-3,-3.3117682E-3,-1.3391882E-3,1.969116E-3,-4.502654E-3,6.261681E-4,6.27625E-4,-8.742743E-3,1.5232316E-3,-5.983925E-3,4.3813386E-3,-4.236E-3,-4.802909E-3,-3.2297373E-3,4.6321005E-4,4.0064096E-3,3.281335E-4,-5.4483614E-3,1.326838E-3,2.464557E-3,-2.2268966E-3,-4.535228E-3,1.3536806E-4,2.7541958E-3,9.0197724E-4,-3.789564E-4,-4.956491E-3,-3.8158894E-3,-2.2822022E-3,1.7499271E-3,-4.013814E-3,5.47722E-4,1.279366E-3,4.9728006E-3,1.0937452E-4,-3.3117682E-3,2.186954E-3,1.7473102E-4,2.1947424E-3,-2.269391E-4,1.0015354E-3,1.6772846E-4,3.8541754E-4,1.388237E-3,-2.3731391E-3,-2.980282E-4,8.0598565E-4,-4.2966107E-4,3.3788234E-3,1.1325275E-3,1.0521114E-3,-4.3910146E-3,3.4166873E-4,-1.5059889E-3,-8.881092E-5,9.5352944E-4,-1.9049644E-4,8.94852E-4,3.4832954E-4,-2.6629865E-4],"categories":[],"categories_nodes":[],"categories_segments":[],"categories_sizes":[],"default_left":[0,0,0,0,0,0,0,0,0,0,0,0,0,0,0,0,0,0,0,0,0,0,0,0,0,0,0,0,0,0,0,0,0,0,0,0,0,0,0,0,0,0,0,0,0,0,0,0,0,0,0,0,0,0,0,0,0,0,0,0,0,0,0,0,0,0,0,0,0,0,0,0,0],"id":2,"left_children":[1,3,5,7,9,11,13,15,17,19,21,23,25,27,-1,29,31,33,35,37,39,41,43,45,-1,-1,47,-1,49,51,-1,53,55,57,-1,59,61,-1,-1,-1,63,65,67,-1,-1,69,-1,71,-1,-1,-1,-1,-1,-1,-1,-1,-1,-1,-1,-1,-1,-1,-1,-1,-1,-1,-1,-1,-1,-1,-1,-1,-1],"loss_changes":[4.4799126E-3,5.354291E-4,1.2744092E-3,2.2544526E-4,1.8579694E-3,3.6959583E-4,1.685658E-4,2.0314334E-4,2.4321182E-4,3.171988E-4,2.668755E-4,5.2676245E-4,6.633345E-5,1.6577469E-5,0E0,3.2228525E-4,1.011031E-4,8.375311E-5,1.2809283E-4,9.516485E-6,1.2360956E-4,8.9398454E-5,8.1134465E-5,9.083707E-5,0E0,0E0,4.605354E-5,0E0,1.19107135E-5,5.9160724E-5,0E0,9.653671E-5,9.50672E-5,3.0040621E-5,0E0,1.4973024E-4,2.9733332E-5,0E0,0E0,0E0,2.2428008E-4,1.5043268E-5,2.8809358E-5,0E0,0E0,4.9185846E-6,0E0,1.5020993E-6,0E0,0E0,0E0,0E0,0E0,0E0,0E0,0E0,0E0,0E0,0E0,0E0,0E0,0E0,0E0,0E0,0E0,0E0,0E0,0E0,0E0,0E0,0E0,0E0,0E0],"parents":[2147483647,0,0,1,1,2,2,3,3,4,4,5,5,6,6,7,7,8,8,9,9,10,10,11,11,12,12,13,13,15,15,16,16,17,17,18,18,19,19,20,20,21,21,22,22,23,23,26,26,28,28,29,29,31,31,32,32,33,33,35,35,36,36,40,40,41,41,42,42,45,45,47,47],"right_children":[2,4,6,8,10,12,14,16,18,20,22,24,26,28,-1,30,32,34,36,38,40,42,44,46,-1,-1,48,-1,50,52,-1,54,56,58,-1,60,62,-1,-1,-1,64,66,68,-1,-1,70,-1,72,-1,-1,-1,-1,-1,-1,-1,-1,-1,-1,-1,-1,-1,-1,-1,-1,-1,-1,-1,-1,-1,-1,-1,-1,-1],"split_conditions":[5.1015043E-1,3.9930445E-1,8.8781476E-1,7.400894E-1,2.7104586E-1,1.36E-1,5.655145E-1,3.2812137E-2,6.47147E-2,4.2117113E-1,1.1273957E-2,5.267773E-1,7.84435E-1,2.2547913E-3,-3.3117682E-3,3.1111997E-1,4.53E-1,7.328072E-3,9.582863E-3,4.0435272E-1,2.1409261E-1,4.1144755E-1,7.2E-1,5.237489E-1,-4.236E-3,-4.802909E-3,5.598813E-1,4.6321005E-4,5.5560404E-1,4.45E-2,-5.4483614E-3,4.7320178E-1,1.3578519E-1,4.265E-1,-4.535228E-3,3.945885E-3,2.6E-2,9.0197724E-4,-3.789564E-4,-4.956491E-3,4.5660418E-1,4.905E-1,3.3166537E-1,-4.013814E-3,5.47722E-4,6.65E-2,4.9728006E-3,5.408862E-1,-3.3117682E-3,2.186954E-3,1.7473102E-4,2.1947424E-3,-2.269391E-4,1.0015354E-3,1.6772846E-4,3.8541754E-4,1.388237E-3,-2.3731391E-3,-2.980282E-4,8.0598565E-4,-4.2966107E-4,3.3788234E-3,1.1325275E-3,1.0521114E-3,-4.3910146E-3,3.4166873E-4,-1.5059889E-3,-8.881092E-5,9.5352944E-4,-1.9049644E-4,8.94852E-4,3.4832954E-4,-2.6629865E-4],"split_indices":[0,0,3,3,3,2,0,3,0,0,1,0,3,1,0,0,2,1,1,0,3,0,2,0,0,0,0,0,0,2,0,3,3,2,0,1,2,0,0,0,0,2,3,0,0,2,0,0,0,0,0,0,0,0,0,0,0,0,0,0,0,0,0,0,0,0,0,0,0,0,0,0,0],"split_type":[0,0,0,0,0,0,0,0,0,0,0,0,0,0,0,0,0,0,0,0,0,0,0,0,0,0,0,0,0,0,0,0,0,0,0,0,0,0,0,0,0,0,0,0,0,0,0,0,0,0,0,0,0,0,0,0,0,0,0,0,0,0,0,0,0,0,0,0,0,0,0,0,0],"sum_hessian":[6.96E2,6.1E2,8.6E1,4.77E2,1.33E2,7.3E1,1.3E1,3.46E2,1.31E2,3.1E1,1.02E2,1.1E1,6.2E1,1.2E1,1E0,1.9E1,3.27E2,9E0,1.22E2,4E0,2.7E1,9.8E1,4E0,5E0,6E0,5.9E1,3E0,3E0,9E0,1.7E1,2E0,1.44E2,1.83E2,7E0,2E0,1E2,2.2E1,2E0,2E0,2.1E1,6E0,5E0,9.3E1,3E0,1E0,4E0,1E0,2E0,1E0,8E0,1E0,2E0,1.5E1,8.5E1,5.9E1,2.9E1,1.54E2,2E0,5E0,4E1,6E1,1E0,2.1E1,3E0,3E0,1E0,4E0,7E0,8.6E1,1E0,3E0,1E0,1E0],"tree_param":{"num_deleted":"0","num_feature":"4","num_nodes":"73","size_leaf_vector":"1"}},{"base_weights":[-7.490397E-5,3.56621E-4,-4.2059477E-3,7.072899E-4,-5.8532663E-4,-5.2954783E-3,1.1382302E-3,3.3059402E-4,1.3043368E-3,-4.4844686E-3,5.538664E-4,-2.7073277E-3,-2.422303E-3,2.1449164E-3,-2.4838299E-3,1.5248212E-3,-3.7955582E-5,1.4495013E-3,-3.0986269E-3,-1.0888338E-3,-2.7334322E-3,3.9747424E-4,5.5372417E-3,4.101793E-5,-2.4838299E-3,8.447647E-4,2.7671796E-3,4.3592602E-4,2.084109E-3,-3.968457E-3,1.3067524E-4,-1.7524447E-4,1.8481818E-3,-3.4648776E-3,-9.464502E-4,-6.1450154E-3,1.5213026E-3,5.550783E-4,-3.6851645E-3,3.5716097E-3,1.7982721E-4,8.591215E-4,-1.5515089E-4,1.7059564E-3,3.8511553E-4,1.3254556E-3,-6.677785E-4,2.7123392E-3,8.9793757E-4,7.593632E-4,-2.422098E-3,4.2665817E-4,-3.2882672E-4,2.2242665E-3,-5.4707925E-4,9.618073E-4,-1.1063218E-3,1.7516613E-3,-1.467362E-3,2.0920634E-4,1.159966E-3,-3.5373203E-4,5.2154163E-4,-2.5086254E-3,4.107952E-4],"categories":[],"categories_nodes":[],"categories_segments":[],"categories_sizes":[],"default_left":[0,0,0,0,0,0,0,0,0,0,0,0,0,0,0,0,0,0,0,0,0,0,0,0,0,0,0,0,0,0,0,0,0,0,0,0,0,0,0,0,0,0,0,0,0,0,0,0,0,0,0,0,0,0,0,0,0,0,0,0,0,0,0,0,0],"id":3,"left_children":[1,3,5,7,9,11,13,15,17,19,21,-1,23,25,-1,27,29,31,33,35,-1,37,39,-1,-1,41,43,45,47,49,51,53,55,-1,57,-1,59,61,63,-1,-1,-1,-1,-1,-1,-1,-1,-1,-1,-1,-1,-1,-1,-1,-1,-1,-1,-1,-1,-1,-1,-1,-1,-1,-1],"loss_changes":[1.2440059E-3,2.09171E-4,3.9032206E-4,1.03250044E-4,7.664863E-4,5.7171565E-6,8.4415806E-5,1.2505533E-4,1.18260825E-4,1.24146E-4,1.0223342E-4,0E0,2.590527E-5,6.5617896E-6,0E0,3.9894876E-5,1.450098E-4,1.123854E-4,4.2912918E-5,3.1106337E-4,0E0,8.6336266E-5,3.069127E-5,0E0,0E0,5.577802E-6,6.3845328E-6,9.771185E-5,3.262401E-5,5.0605056E-5,1.2019372E-4,1.5357729E-4,4.68347E-5,0E0,5.451812E-5,0E0,6.956514E-6,7.8986064E-5,3.4139055E-5,0E0,0E0,0E0,0E0,0E0,0E0,0E0,0E0,0E0,0E0,0E0,0E0,0E0,0E0,0E0,0E0,0E0,0E0,0E0,0E0,0E0,0E0,0E0,0E0,0E0,0E0],"parents":[2147483647,0,0,1,1,2,2,3,3,4,4,5,5,6,6,7,7,8,8,9,9,10,10,12,12,13,13,15,15,16,16,17,17,18,18,19,19,21,21,22,22,25,25,26,26,27,27,28,28,29,29,30,30,31,31,32,32,34,34,36,36,37,37,38,38],"right_children":[2,4,6,8,10,12,14,16,18,20,22,-1,24,26,-1,28,30,32,34,36,-1,38,40,-1,-1,42,44,46,48,50,52,54,56,-1,58,-1,60,62,64,-1,-1,-1,-1,-1,-1,-1,-1,-1,-1,-1,-1,-1,-1,-1,-1,-1,-1,-1,-1,-1,-1,-1,-1,-1,-1],"split_conditions":[5.303502E-1,3.8683662E-1,8.8781476E-1,7.328072E-3,2.7104586E-1,7.84435E-1,5.655145E-1,1.6910936E-3,9.5130026E-1,4.3716282E-1,5.237489E-1,-2.7073277E-3,5.598813E-1,5.6369784E-3,-2.4838299E-3,3.045E-1,3.5995565E-2,1.855E-1,6.47147E-2,2.67E-1,-2.7334322E-3,1.1273957E-2,5.2710783E-1,4.101793E-5,-2.4838299E-3,2.53E-1,9.8549414E-1,1.615E-1,3.675E-1,6.47147E-2,5.44899E-1,4.45E-2,9.87E-1,-3.4648776E-3,1.2943174E-1,-6.1450154E-3,4.2117113E-1,3.382187E-3,7.2E-1,3.5716097E-3,1.7982721E-4,8.591215E-4,-1.5515089E-4,1.7059564E-3,3.8511553E-4,1.3254556E-3,-6.677785E-4,2.7123392E-3,8.9793757E-4,7.593632E-4,-2.422098E-3,4.2665817E-4,-3.2882672E-4,2.2242665E-3,-5.4707925E-4,9.618073E-4,-1.1063218E-3,1.7516613E-3,-1.467362E-3,2.0920634E-4,1.159966E-3,-3.5373203E-4,5.2154163E-4,-2.5086254E-3,4.107952E-4],"split_indices":[0,0,3,1,3,3,0,1,3,0,0,0,0,1,0,2,3,2,0,2,0,1,0,0,0,2,3,2,2,0,3,2,2,0,0,0,0,1,2,0,0,0,0,0,0,0,0,0,0,0,0,0,0,0,0,0,0,0,0,0,0,0,0,0,0],"split_type":[0,0,0,0,0,0,0,0,0,0,0,0,0,0,0,0,0,0,0,0,0,0,0,0,0,0,0,0,0,0,0,0,0,0,0,0,0,0,0,0,0,0,0,0,0,0,0,0,0,0,0,0,0,0,0,0,0,0,0,0,0,0,0,0,0],"sum_hessian":[6.96E2,6.31E2,6.5E1,4.6E2,1.71E2,5.4E1,1.1E1,2.83E2,1.77E2,3.8E1,1.33E2,5.1E1,3E0,1E1,1E0,6.6E1,2.17E2,1.72E2,5E0,9E0,2.9E1,1.3E2,3E0,2E0,1E0,4E0,6E0,2.3E1,4.3E1,8E0,2.09E2,3.4E1,1.38E2,1E0,4E0,1E0,8E0,1.26E2,4E0,2E0,1E0,2E0,2E0,4E0,2E0,1E1,1.3E1,2E0,4.1E1,1E0,7E0,1.09E2,1E2,5E0,2.9E1,1.36E2,2E0,1E0,3E0,4E0,4E0,3.5E1,9.1E1,3E0,1E0],"tree_param":{"num_deleted":"0","num_feature":"4","num_nodes":"65","size_leaf_vector":"1"}},{"base_weights":[-5.10362E-5,2.4351361E-4,-1.6774652E-3,-4.6021084E-4,3.65903E-4,-3.029744E-3,4.7830243E-5,3.0081924E-3,-1.5245676E-3,-1.0971427E-3,6.0440606E-4,-4.174143E-3,-1.198802E-3,1.7744601E-3,-2.6809447E-3,7.793563E-4,3.84777E-3,8.6939574E-4,-2.8501248E-3,-6.582368E-4,-4.047579E-3,9.169497E-4,1.866776E-4,-4.1733187E-5,-4.624026E-3,2.5893212E-3,1.3157996E-4,7.2144467E-4,-3.2509775E-3,1.8279925E-3,-1.1460558E-3,7.553756E-4,2.280127E-3,1.611542E-3,-4.049778E-4,-3.3197678E-3,6.7757565E-4,2.4834344E-5,-2.0255616E-3,-4.6087652E-3,-1.124572E-3,3.914034E-4,1.5620707E-3,-1.0991152E-3,4.4923334E-4,-1.6309456E-3,-5.9189573E-3,-4.0559768E-4,3.3634007E-3,-1.1746362E-3,1.3555586E-3,-3.9685518E-3,-1.2739996E-3,-1.7915368E-4,1.1490086E-3,-1.5646815E-3,3.3364445E-4,-1.7390627E-3,6.7445636E-4,6.933689E-4,-7.170588E-4,-6.889324E-4,5.449462E-4,-2.3198067E-3,-5.687861E-4,1.1699178E-3,-1.9989772E-4,-4.2936503E-4,8.9204486E-4,-9.5368974E-4,1.36063E-3,1.5578754E-3,7.173186E-5,-4.0505826E-4,-3.2665303E-3,-5.6764483E-4,2.2964676E-4,1.9556605E-3,3.709048E-4,2.7591587E-4,1.0106638E-3,-9.035349E-4,-2.4117045E-3,-1.2223274E-3,3.557702E-4],"categories":[],"categories_nodes":[],"categories_segments":[],"categories_sizes":[],"default_left":[0,0,0,0,0,0,0,0,0,0,0,0,0,0,0,0,0,0,0,0,0,0,0,0,0,0,0,0,0,0,0,0,0,0,0,0,0,0,0,0,0,0,0,0,0,0,0,0,0,0,0,0,0,0,0,0,0,0,0,0,0,0,0,0,0,0,0,0,0,0,0,0,0,0,0,0,0,0,0,0,0,0,0,0,0],"id":4,"left_children":[1,3,5,7,9,11,13,15,17,19,21,23,-1,25,27,29,31,33,35,37,39,41,43,-1,45,47,49,-1,51,-1,-1,-1,-1,53,55,57,59,61,63,-1,-1,65,67,69,71,-1,73,75,77,-1,79,81,83,-1,-1,-1,-1,-1,-1,-1,-1,-1,-1,-1,-1,-1,-1,-1,-1,-1,-1,-1,-1,-1,-1,-1,-1,-1,-1,-1,-1,-1,-1,-1,-1],"loss_changes":[3.3431634E-4,5.1070274E-5,2.4978456E-4,3.294486E-4,1.7652934E-4,3.3397228E-5,2.3091327E-4,3.6298108E-5,2.1826467E-4,8.927818E-5,5.6491146E-5,3.6420533E-5,0E0,3.9820865E-5,4.9354494E-5,7.0228234E-5,1.8086925E-5,2.4296929E-5,7.514685E-5,5.8891055E-5,6.294885E-5,8.347076E-5,6.362351E-5,0E0,1.2442673E-5,4.7730297E-5,3.6586192E-5,0E0,1.9060753E-5,0E0,0E0,0E0,0E0,2.245944E-5,3.1300864E-5,3.3525197E-5,1.0973942E-5,6.5741835E-5,4.3468375E-5,0E0,0E0,2.1367587E-4,6.119057E-5,1.040024E-4,1.2674605E-4,0E0,1.980632E-5,3.676952E-6,2.0081308E-5,0E0,3.165338E-6,1.3456869E-5,1.5685764E-5,0E0,0E0,0E0,0E0,0E0,0E0,0E0,0E0,0E0,0E0,0E0,0E0,0E0,0E0,0E0,0E0,0E0,0E0,0E0,0E0,0E0,0E0,0E0,0E0,0E0,0E0,0E0,0E0,0E0,0E0,0E0,0E0],"parents":[2147483647,0,0,1,1,2,2,3,3,4,4,5,5,6,6,7,7,8,8,9,9,10,10,11,11,13,13,14,14,15,15,16,16,17,17,18,18,19,19,20,20,21,21,22,22,24,24,25,25,26,26,28,28,33,33,34,34,35,35,36,36,37,37,38,38,41,41,42,42,43,43,44,44,46,46,47,47,48,48,50,50,51,51,52,52],"right_children":[2,4,6,8,10,12,14,16,18,20,22,24,-1,26,28,30,32,34,36,38,40,42,44,-1,46,48,50,-1,52,-1,-1,-1,-1,54,56,58,60,62,64,-1,-1,66,68,70,72,-1,74,76,78,-1,80,82,84,-1,-1,-1,-1,-1,-1,-1,-1,-1,-1,-1,-1,-1,-1,-1,-1,-1,-1,-1,-1,-1,-1,-1,-1,-1,-1,-1,-1,-1,-1,-1,-1],"split_conditions":[4.9280995E-1,1.02571554E-1,4.9315575E-1,2.2699217E-1,1.4824225E-1,5.237489E-1,5.4587454E-1,5.0732805E-3,3.945885E-3,4.0435272E-1,3.235878E-1,1.445E-1,-1.198802E-3,5.2710783E-1,2.23E-1,3.382187E-3,6.47147E-2,5.9612375E-1,9.14E-1,9.201335E-2,4.221916E-1,2.2388375E-1,3.511753E-1,-4.1733187E-5,2.6904985E-1,1.6910936E-3,5.997551E-1,7.2144467E-4,8.06E-1,1.8279925E-3,-1.1460558E-3,7.553756E-4,2.280127E-3,2.676713E-1,7.214885E-1,9.8299426E-1,9.685E-1,4.1007295E-2,1.02179326E-1,-4.6087652E-3,-1.124572E-3,3.8719127E-1,2.0120367E-1,9.04E-1,3.7069824E-1,-1.6309456E-3,4.9328512E-1,5.035954E-1,6.785E-1,-1.1746362E-3,9.614412E-1,5.598813E-1,6.8010104E-1,-1.7915368E-4,1.1490086E-3,-1.5646815E-3,3.3364445E-4,-1.7390627E-3,6.7445636E-4,6.933689E-4,-7.170588E-4,-6.889324E-4,5.449462E-4,-2.3198067E-3,-5.687861E-4,1.1699178E-3,-1.9989772E-4,-4.2936503E-4,8.9204486E-4,-9.5368974E-4,1.36063E-3,1.5578754E-3,7.173186E-5,-4.0505826E-4,-3.2665303E-3,-5.6764483E-4,2.2964676E-4,1.9556605E-3,3.709048E-4,2.7591587E-4,1.0106638E-3,-9.035349E-4,-2.4117045E-3,-1.2223274E-3,3.557702E-4],"split_indices":[0,0,3,3,3,0,0,1,1,0,0,2,0,0,2,1,0,3,2,3,0,0,0,0,3,1,3,0,2,0,0,0,0,3,3,3,2,3,3,0,0,3,3,2,0,0,0,0,2,0,3,0,3,0,0,0,0,0,0,0,0,0,0,0,0,0,0,0,0,0,0,0,0,0,0,0,0,0,0,0,0,0,0,0,0],"split_type":[0,0,0,0,0,0,0,0,0,0,0,0,0,0,0,0,0,0,0,0,0,0,0,0,0,0,0,0,0,0,0,0,0,0,0,0,0,0,0,0,0,0,0,0,0,0,0,0,0,0,0,0,0,0,0,0,0,0,0,0,0,0,0,0,0,0,0,0,0,0,0,0,0,0,0,0,0,0,0,0,0,0,0,0,0],"sum_hessian":[6.96E2,5.9E2,1.06E2,8.7E1,5.03E2,5.9E1,4.7E1,2E1,6.7E1,7E1,4.33E2,1.9E1,4E1,2.9E1,1.8E1,6E0,1.4E1,2.4E1,4.3E1,6.2E1,8E0,2.47E2,1.86E2,2E0,1.7E1,1.9E1,1E1,2E0,1.6E1,3E0,3E0,4E0,1E1,1.5E1,9E0,3.8E1,5E0,4.2E1,2E1,1E0,7E0,1.37E2,1.1E2,3.1E1,1.55E2,1E1,7E0,4E0,1.5E1,3E0,7E0,1.1E1,5E0,4E0,1.1E1,2E0,7E0,3.7E1,1E0,4E0,1E0,1.8E1,2.4E1,4E0,1.6E1,3.9E1,9.8E1,9E0,1.01E2,2.6E1,5E0,1.5E1,1.4E2,1E0,6E0,2E0,2E0,1.2E1,3E0,4E0,3E0,4E0,7E0,3E0,2E0],"tree_param":{"num_deleted":"0","num_feature":"4","num_nodes":"85","size_leaf_vector":"1"}},{"base_weights":[-4.1049472E-5,1.1681038E-4,-9.125833E-4,-1.0047886E-4,4.631984E-4,-1.6239047E-3,-4.419436E-6,-1.2080337E-5,-1.5437461E-3,5.4749276E-4,-1.648797E-3,-2.446264E-3,-6.2094803E-4,9.572367E-4,-1.5225912E-3,-1.1606064E-4,1.3791596E-3,-7.9011254E-4,-2.2745803E-3,1.0375717E-3,2.7634838E-4,-3.8962704E-4,-2.0186305E-3,-1.2277564E-3,-3.2982945E-3,3.2597582E-3,6.7635096E-4,4.809598E-4,-1.8714701E-3,-1.5255885E-4,2.8145611E-3,2.5805288E-3,3.3671517E-4,-2.100803E-3,2.3494526E-4,1.9349543E-3,4.203853E-5,-9.35896E-4,8.79592E-4,-2.2981614E-3,1.616314E-3,-2.7825436E-5,-7.773467E-4,-3.7278666E-3,1.4196336E-4,2.3477674E-3,9.705126E-5,-5.881414E-4,1.1258551E-3,-2.6360005E-3,-1.0726989E-3,-5.1245E-5,-1.1812022E-3,1.6933182E-3,2.745837E-4,5.689694E-4,3.0240614E-3,-1.1384308E-3,8.04916E-4,-3.9488077E-5,-1.3807913E-3,6.1002374E-4,-2.511314E-4,-2.1164119E-4,1.1371225E-3,-6.949734E-4,5.1818724E-4,-7.1715476E-4,1.3960252E-3,8.2858437E-4,-1.0195883E-4,-2.669543E-4,-1.354138E-3,1.1506975E-3,-1.0973215E-4,-1.0467271E-3,-2.6237592E-3,5.916059E-4,-6.878972E-4,1.0169744E-4,6.654701E-4,-4.921779E-4,-1.7150581E-3,-8.7240763E-4,1.8583983E-4],"categories":[],"categories_nodes":[],"categories_segments":[],"categories_sizes":[],"default_left":[0,0,0,0,0,0,0,0,0,0,0,0,0,0,0,0,0,0,0,0,0,0,0,0,0,0,0,0,0,0,0,0,0,0,0,0,0,0,0,0,0,0,0,0,0,0,0,0,0,0,0,0,0,0,0,0,0,0,0,0,0,0,0,0,0,0,0,0,0,0,0,0,0,0,0,0,0,0,0,0,0,0,0,0,0],"id":5,"left_children":[1,3,5,7,9,11,13,15,17,19,21,23,-1,25,27,29,31,33,-1,35,37,39,-1,41,43,45,47,-1,49,51,53,55,57,59,61,63,65,67,69,71,73,-1,-1,75,-1,-1,-1,77,79,81,83,-1,-1,-1,-1,-1,-1,-1,-1,-1,-1,-1,-1,-1,-1,-1,-1,-1,-1,-1,-1,-1,-1,-1,-1,-1,-1,-1,-1,-1,-1,-1,-1,-1,-1],"loss_changes":[9.6E-5,4.4528977E-5,6.911443E-5,4.642145E-5,4.149339E-5,1.5810903E-5,7.153552E-5,4.9923645E-5,4.397026E-5,2.894734E-5,2.5494308E-5,1.4638186E-5,0E0,1.7197624E-5,1.8269282E-5,3.4764318E-5,2.9187755E-5,2.4677178E-5,0E0,6.960184E-5,1.05396044E-4,3.0513402E-5,0E0,3.3623237E-6,1.644667E-5,1.2293374E-5,1.6577207E-5,0E0,7.5540047E-6,3.49428E-5,3.3240722E-6,4.814309E-5,5.0248807E-5,1.0469754E-5,8.601262E-6,3.3767894E-5,5.5547735E-5,9.31915E-5,8.121907E-5,1.4482121E-6,5.5357023E-6,0E0,0E0,1.1368204E-5,0E0,0E0,0E0,1.278955E-5,3.7021346E-6,7.116323E-6,1.0356419E-5,0E0,0E0,0E0,0E0,0E0,0E0,0E0,0E0,0E0,0E0,0E0,0E0,0E0,0E0,0E0,0E0,0E0,0E0,0E0,0E0,0E0,0E0,0E0,0E0,0E0,0E0,0E0,0E0,0E0,0E0,0E0,0E0,0E0,0E0],"parents":[2147483647,0,0,1,1,2,2,3,3,4,4,5,5,6,6,7,7,8,8,9,9,10,10,11,11,13,13,14,14,15,15,16,16,17,17,19,19,20,20,21,21,23,23,24,24,25,25,26,26,28,28,29,29,30,30,31,31,32,32,33,33,34,34,35,35,36,36,37,37,38,38,39,39,40,40,43,43,47,47,48,48,49,49,50,50],"right_children":[2,4,6,8,10,12,14,16,18,20,22,24,-1,26,28,30,32,34,-1,36,38,40,-1,42,44,46,48,-1,50,52,54,56,58,60,62,64,66,68,70,72,74,-1,-1,76,-1,-1,-1,78,80,82,84,-1,-1,-1,-1,-1,-1,-1,-1,-1,-1,-1,-1,-1,-1,-1,-1,-1,-1,-1,-1,-1,-1,-1,-1,-1,-1,-1,-1,-1,-1,-1,-1,-1,-1],"split_conditions":[4.9280995E-1,7.328072E-3,4.9315575E-1,9.485E-1,9.5130026E-1,5.2097183E-1,5.4587454E-1,8.825E-1,8.715591E-1,3.9399132E-1,8.145E-1,4.475E-1,-6.2094803E-4,9.2E-2,2.23E-1,9.895267E-1,4.877291E-1,9.62E-1,-2.2745803E-3,2.5886872E-1,1.9414994E-1,4.475E-1,-2.0186305E-3,1.445E-1,9.1E-1,5.267773E-1,6.081059E-1,4.809598E-4,6.975E-1,9.718313E-1,3.1111997E-1,5.6369784E-3,9.125E-1,1.6910936E-3,2.8184892E-3,2.09834E-2,3.2062343E-1,1.1273957E-2,1.0146561E-2,2.5284278E-1,4.3972108E-1,-2.7825436E-5,-7.773467E-4,2.865465E-1,1.4196336E-4,2.3477674E-3,9.705126E-5,5.325933E-1,1.6910936E-3,4.465E-1,6.8010104E-1,-5.1245E-5,-1.1812022E-3,1.6933182E-3,2.745837E-4,5.689694E-4,3.0240614E-3,-1.1384308E-3,8.04916E-4,-3.9488077E-5,-1.3807913E-3,6.1002374E-4,-2.511314E-4,-2.1164119E-4,1.1371225E-3,-6.949734E-4,5.1818724E-4,-7.1715476E-4,1.3960252E-3,8.2858437E-4,-1.0195883E-4,-2.669543E-4,-1.354138E-3,1.1506975E-3,-1.0973215E-4,-1.0467271E-3,-2.6237592E-3,5.916059E-4,-6.878972E-4,1.0169744E-4,6.654701E-4,-4.921779E-4,-1.7150581E-3,-8.7240763E-4,1.8583983E-4],"split_indices":[0,1,3,2,3,0,0,2,3,3,2,2,0,2,2,3,3,2,0,0,0,2,0,2,2,0,3,0,2,3,0,1,2,1,1,3,0,1,1,0,0,0,0,3,0,0,0,3,1,2,3,0,0,0,0,0,0,0,0,0,0,0,0,0,0,0,0,0,0,0,0,0,0,0,0,0,0,0,0,0,0,0,0,0,0],"split_type":[0,0,0,0,0,0,0,0,0,0,0,0,0,0,0,0,0,0,0,0,0,0,0,0,0,0,0,0,0,0,0,0,0,0,0,0,0,0,0,0,0,0,0,0,0,0,0,0,0,0,0,0,0,0,0,0,0,0,0,0,0,0,0,0,0,0,0,0,0,0,0,0,0,0,0,0,0,0,0,0,0,0,0,0,0],"sum_hessian":[6.96E2,5.9E2,1.06E2,3.63E2,2.27E2,5.9E1,4.7E1,3.43E2,2E1,2.19E2,8E0,1.7E1,4.2E1,2.9E1,1.8E1,3.2E2,2.3E1,1.7E1,3E0,7.7E1,1.42E2,6E0,2E0,8E0,9E0,2E0,2.7E1,2E0,1.6E1,3.17E2,3E0,1E1,1.3E1,7E0,1E1,4E1,3.7E1,4.7E1,9.5E1,3E0,3E0,2E0,6E0,8E0,1E0,1E0,1E0,7E0,2E1,7E0,9E0,3.11E2,6E0,2E0,1E0,8E0,2E0,4E0,9E0,2E0,5E0,4E0,6E0,5E0,3.5E1,1.5E1,2.2E1,4.2E1,5E0,5.5E1,4E1,1E0,2E0,2E0,1E0,5E0,3E0,2E0,5E0,4E0,1.6E1,3E0,4E0,6E0,3E0],"tree_param":{"num_deleted":"0","num_feature":"4","num_nodes":"85","size_leaf_vector":"1"}},{"base_weights":[-2.630677E-5,1.607864E-4,-3.3755225E-4,8.446909E-5,4.233204E-3,-2.1499693E-3,-2.030173E-4,1.5862883E-4,-9.0714294E-4,6.239116E-5,3.3616065E-3,-4.6326816E-3,-1.4890866E-4,-7.146716E-4,-5.4619388E-5,2.321448E-4,-8.6557865E-4,-1.8224749E-3,4.3002E-4,2.2847454E-4,-2.8032064E-4,-7.817447E-4,-3.6555007E-3,1.922667E-3,-9.3286636E-4,7.520132E-4,-1.2834787E-3,2.0112991E-3,-1.6783128E-4,2.6163983E-4,-1.6204914E-3,-4.444301E-3,-2.3305912E-4,1.2112657E-3,-2.2773966E-3,9.379536E-4,-1.4162958E-3,-1.9426431E-4,-8.261204E-4,1.0109923E-3,1.5188257E-4,-2.42231E-3,-7.088972E-4,3.4943323E-3,-1.7060041E-4,-7.1822054E-4,8.889198E-5,9.668669E-5,5.276686E-4,-1.5213639E-3,-3.6374928E-4,-6.3174963E-4,-2.541701E-3,-1.2052612E-3,3.1333996E-4,-1.0669231E-5,9.191185E-4,-1.9086996E-3,-6.1517954E-4,-3.0446052E-5,7.22494E-4,3.151372E-4,7.5984E-4,2.7371198E-4,-2.1306674E-4,-4.7727226E-4,-1.4842948E-3,-4.821878E-4,-2.2850744E-4,1.9282699E-3,4.208237E-4,3.3804774E-4,-4.8021475E-4,-1.0909612E-4,-9.086364E-4,2.3207214E-4,-3.0623106E-4],"categories":[],"categories_nodes":[],"categories_segments":[],"categories_sizes":[],"default_left":[0,0,0,0,0,0,0,0,0,0,0,0,0,0,0,0,0,0,0,0,0,0,0,0,0,0,0,0,0,0,0,0,0,0,0,0,0,0,0,0,0,0,0,0,0,0,0,0,0,0,0,0,0,0,0,0,0,0,0,0,0,0,0,0,0,0,0,0,0,0,0,0,0,0,0,0,0],"id":6,"left_children":[1,3,5,7,9,11,13,15,17,19,-1,21,23,25,27,29,31,33,35,-1,-1,-1,-1,-1,37,39,41,43,45,47,49,51,53,55,57,59,-1,-1,-1,61,63,65,67,69,71,73,75,-1,-1,-1,-1,-1,-1,-1,-1,-1,-1,-1,-1,-1,-1,-1,-1,-1,-1,-1,-1,-1,-1,-1,-1,-1,-1,-1,-1,-1,-1],"loss_changes":[4.064191E-5,1.3514944E-4,6.344787E-5,3.1691565E-5,8.2663435E-5,8.873519E-5,1.856343E-5,3.0319185E-5,3.750214E-5,1.239474E-6,0E0,5.4331555E-5,3.803167E-5,4.684954E-5,4.5009892E-5,2.0860689E-5,6.0081737E-5,2.7600592E-5,2.420031E-5,0E0,0E0,0E0,0E0,0E0,3.2738826E-6,2.3331886E-6,2.4456887E-5,3.2954427E-5,2.578003E-5,1.9789417E-5,5.4067023E-6,1.7085331E-6,4.6439833E-5,2.357648E-6,2.1102285E-5,6.1653773E-6,0E0,0E0,0E0,1.172516E-6,1.6050512E-6,7.589879E-6,1.3610788E-6,2.519082E-6,3.993068E-6,3.1477804E-5,3.3182365E-5,0E0,0E0,0E0,0E0,0E0,0E0,0E0,0E0,0E0,0E0,0E0,0E0,0E0,0E0,0E0,0E0,0E0,0E0,0E0,0E0,0E0,0E0,0E0,0E0,0E0,0E0,0E0,0E0,0E0,0E0],"parents":[2147483647,0,0,1,1,2,2,3,3,4,4,5,5,6,6,7,7,8,8,9,9,11,11,12,12,13,13,14,14,15,15,16,16,17,17,18,18,24,24,25,25,26,26,27,27,28,28,29,29,30,30,31,31,32,32,33,33,34,34,35,35,39,39,40,40,41,41,42,42,43,43,44,44,45,45,46,46],"right_children":[2,4,6,8,10,12,14,16,18,20,-1,22,24,26,28,30,32,34,36,-1,-1,-1,-1,-1,38,40,42,44,46,48,50,52,54,56,58,60,-1,-1,-1,62,64,66,68,70,72,74,76,-1,-1,-1,-1,-1,-1,-1,-1,-1,-1,-1,-1,-1,-1,-1,-1,-1,-1,-1,-1,-1,-1,-1,-1,-1,-1,-1,-1,-1,-1],"split_conditions":[3.7069824E-1,3.6337134E-1,9.000954E-2,3.3963346E-1,3.7406626E-1,2.67E-1,2.7104586E-1,9.3044156E-1,5.6369784E-3,3.6891973E-1,3.3616065E-3,1.855E-1,3.774918E-1,4.3716282E-1,3.141945E-1,9.87E-1,9.361482E-1,2.2570002E-1,9.0660596E-1,2.2847454E-4,-2.8032064E-4,-7.817447E-4,-3.6555007E-3,1.922667E-3,7.2E-1,2.2570002E-1,4.8741698E-1,4.345325E-1,4.3273687E-1,9.155E-1,1.6728936E-1,5.6369784E-3,1.02571554E-1,3.4897828E-1,5.627562E-1,7.4680485E-2,-1.4162958E-3,-1.9426431E-4,-8.261204E-4,4.2117113E-1,5.22E-1,3.945885E-3,3.175E-1,9.019165E-3,4.7502118E-1,6.315E-1,5.2710783E-1,9.668669E-5,5.276686E-4,-1.5213639E-3,-3.6374928E-4,-6.3174963E-4,-2.541701E-3,-1.2052612E-3,3.1333996E-4,-1.0669231E-5,9.191185E-4,-1.9086996E-3,-6.1517954E-4,-3.0446052E-5,7.22494E-4,3.151372E-4,7.5984E-4,2.7371198E-4,-2.1306674E-4,-4.7727226E-4,-1.4842948E-3,-4.821878E-4,-2.2850744E-4,1.9282699E-3,4.208237E-4,3.3804774E-4,-4.8021475E-4,-1.0909612E-4,-9.086364E-4,2.3207214E-4,-3.0623106E-4],"split_indices":[0,0,3,0,3,2,3,3,1,0,0,2,0,0,3,2,3,3,3,0,0,0,0,0,2,3,0,0,0,2,0,1,0,0,3,3,0,0,0,0,2,1,2,1,0,2,0,0,0,0,0,0,0,0,0,0,0,0,0,0,0,0,0,0,0,0,0,0,0,0,0,0,0,0,0,0,0],"split_type":[0,0,0,0,0,0,0,0,0,0,0,0,0,0,0,0,0,0,0,0,0,0,0,0,0,0,0,0,0,0,0,0,0,0,0,0,0,0,0,0,0,0,0,0,0,0,0,0,0,0,0,0,0,0,0,0,0,0,0,0,0,0,0,0,0,0,0,0,0,0,0,0,0,0,0,0,0],"sum_hessian":[6.96E2,4.35E2,2.61E2,4.28E2,7E0,1.7E1,2.44E2,3.99E2,2.9E1,3E0,4E0,7E0,1E1,5.4E1,1.9E2,3.73E2,2.6E1,1.7E1,1.2E1,2E0,1E0,4E0,3E0,1E0,9E0,1.5E1,3.9E1,9E0,1.81E2,3.68E2,5E0,3E0,2.3E1,2E0,1.5E1,1.1E1,1E0,6E0,3E0,1E1,5E0,1.2E1,2.7E1,5E0,4E0,5.7E1,1.24E2,3.4E2,2.8E1,1E0,4E0,1E0,2E0,6E0,1.7E1,1E0,1E0,5E0,1E1,4E0,7E0,7E0,3E0,3E0,2E0,4E0,8E0,1.2E1,1.5E1,4E0,1E0,2E0,2E0,4E1,1.7E1,8.1E1,4.3E1],"tree_param":{"num_deleted":"0","num_feature":"4","num_nodes":"77","size_leaf_vector":"1"}},{"base_weights":[-2.5079104E-5,6.435455E-5,-2.4609128E-4,8.2876283E-4,2.551456E-5,-7.4261014E-4,3.0796804E-5,-6.1353226E-4,1.9027974E-3,1.6979745E-3,4.4461498E-7,-3.8034718E-3,-6.0082163E-4,4.705469E-4,-3.4125673E-4,-2.1905403E-3,1.065731E-3,2.4990886E-3,-5.583167E-4,2.3919344E-3,-6.1644614E-4,2.9632717E-4,-1.1790973E-4,-3.2271445E-4,-2.5298893E-3,5.7091884E-4,-7.8203715E-4,7.7822874E-4,-2.9061237E-4,-1.7660582E-3,-2.153344E-5,-1.4600555E-3,-1.0957271E-3,6.275177E-4,2.9802322E-5,5.118251E-4,1.9227223E-3,8.657575E-5,1.4005303E-3,1.1954219E-3,-3.067277E-4,-4.968092E-4,3.5271168E-4,-1.2056512E-3,-1.461006E-4,6.3458655E-4,1.7028004E-3,-8.089227E-5,-6.201714E-4,-8.6518377E-4,-2.672881E-3,1.5630938E-4,-9.86749E-4,-1.1405349E-4,-9.2464685E-4,-1.5696287E-4,1.1601448E-3,3.670403E-4,1.2305528E-3,-3.4839218E-4,3.535942E-4,-3.1836526E-4,1.0147393E-3,-7.399544E-4,2.8364922E-4,-2.8538547E-4,-9.4210915E-4,-2.2665162E-4,3.9692505E-4,7.369121E-5,-6.1363477E-4,-1.6467869E-3,-4.7716498E-4,-4.7232024E-4,2.963908E-4],"categories":[],"categories_nodes":[],"categories_segments":[],"categories_sizes":[],"default_left":[0,0,0,0,0,0,0,0,0,0,0,0,0,0,0,0,0,0,0,0,0,0,0,0,0,0,0,0,0,0,0,0,0,0,0,0,0,0,0,0,0,0,0,0,0,0,0,0,0,0,0,0,0,0,0,0,0,0,0,0,0,0,0,0,0,0,0,0,0,0,0,0,0,0,0],"id":7,"left_children":[1,3,5,7,9,11,13,15,17,19,21,23,25,27,29,31,33,35,-1,37,-1,39,41,-1,-1,-1,43,45,47,49,51,-1,53,-1,-1,55,-1,-1,-1,57,59,61,63,65,-1,67,-1,-1,-1,69,71,73,-1,-1,-1,-1,-1,-1,-1,-1,-1,-1,-1,-1,-1,-1,-1,-1,-1,-1,-1,-1,-1,-1,-1],"loss_changes":[1.3792685E-5,1.473459E-5,2.765638E-5,3.834522E-5,1.9873345E-5,2.896243E-5,2.142995E-5,3.1464857E-5,2.7997008E-5,1.7186328E-5,1.6423824E-5,8.636685E-6,2.2998744E-5,1.4277856E-5,3.230547E-5,1.5928181E-6,1.0679782E-6,3.013858E-5,0E0,4.961563E-6,0E0,7.302193E-5,5.991183E-5,0E0,0E0,0E0,1.2927798E-5,1.4067118E-5,2.001663E-6,8.307594E-6,2.0789907E-5,0E0,2.1934015E-6,0E0,0E0,9.688445E-6,0E0,0E0,0E0,2.9724608E-5,3.2527016E-5,6.703978E-5,5.9827966E-5,1.357204E-5,0E0,7.636825E-6,0E0,0E0,0E0,3.1139648E-6,3.2570024E-6,2.6989337E-5,0E0,0E0,0E0,0E0,0E0,0E0,0E0,0E0,0E0,0E0,0E0,0E0,0E0,0E0,0E0,0E0,0E0,0E0,0E0,0E0,0E0,0E0,0E0],"parents":[2147483647,0,0,1,1,2,2,3,3,4,4,5,5,6,6,7,7,8,8,9,9,10,10,11,11,12,12,13,13,14,14,15,15,16,16,17,17,19,19,21,21,22,22,26,26,27,27,28,28,29,29,30,30,32,32,35,35,39,39,40,40,41,41,42,42,43,43,45,45,49,49,50,50,51,51],"right_children":[2,4,6,8,10,12,14,16,18,20,22,24,26,28,30,32,34,36,-1,38,-1,40,42,-1,-1,-1,44,46,48,50,52,-1,54,-1,-1,56,-1,-1,-1,58,60,62,64,66,-1,68,-1,-1,-1,70,72,74,-1,-1,-1,-1,-1,-1,-1,-1,-1,-1,-1,-1,-1,-1,-1,-1,-1,-1,-1,-1,-1,-1,-1],"split_conditions":[4.201394E-1,5.6369783E-4,3.5407564E-1,1.9414994E-1,2.6E-2,4.221916E-1,6.307569E-1,4.378965E-1,9.1E-1,8.811157E-1,2.865465E-1,4.2117113E-1,4.3716282E-1,5.267773E-1,7.240517E-1,7.806757E-2,1.2943174E-1,2.207615E-1,-5.583167E-4,5.1967386E-2,-6.1644614E-4,1.9414994E-1,2.5284278E-1,-3.2271445E-4,-2.5298893E-3,5.7091884E-4,5.2097183E-1,5.237489E-1,5.723615E-1,6.8010104E-1,5.655145E-1,-1.4600555E-3,1.8168224E-1,6.275177E-4,2.9802322E-5,3.1111997E-1,1.9227223E-3,8.657575E-5,1.4005303E-3,1.5026626E-1,2.0120367E-1,1.1273957E-2,3.5915715E-1,4.7673446E-1,-1.461006E-4,1.915E-1,1.7028004E-3,-8.089227E-5,-6.201714E-4,5.069304E-1,4.3090603E-1,4.515559E-1,-9.86749E-4,-1.1405349E-4,-9.2464685E-4,-1.5696287E-4,1.1601448E-3,3.670403E-4,1.2305528E-3,-3.4839218E-4,3.535942E-4,-3.1836526E-4,1.0147393E-3,-7.399544E-4,2.8364922E-4,-2.8538547E-4,-9.4210915E-4,-2.2665162E-4,3.9692505E-4,7.369121E-5,-6.1363477E-4,-1.6467869E-3,-4.7716498E-4,-4.7232024E-4,2.963908E-4],"split_indices":[0,1,3,0,2,0,3,3,2,3,3,0,0,0,3,3,0,3,0,3,0,0,0,0,0,0,0,0,3,3,0,0,0,0,0,0,0,0,0,0,3,1,3,0,0,2,0,0,0,0,0,0,0,0,0,0,0,0,0,0,0,0,0,0,0,0,0,0,0,0,0,0,0,0,0],"split_type":[0,0,0,0,0,0,0,0,0,0,0,0,0,0,0,0,0,0,0,0,0,0,0,0,0,0,0,0,0,0,0,0,0,0,0,0,0,0,0,0,0,0,0,0,0,0,0,0,0,0,0,0,0,0,0,0,0,0,0,0,0,0,0,0,0,0,0,0,0,0,0,0,0,0,0],"sum_hessian":[6.96E2,4.96E2,2E2,2.3E1,4.73E2,7.1E1,1.29E2,1E1,1.3E1,6E0,4.67E2,2E0,6.9E1,5.9E1,7E1,5E0,5E0,1.1E1,2E0,5E0,1E0,1.33E2,3.34E2,1E0,1E0,6E0,6.3E1,4.2E1,1.7E1,1.2E1,5.8E1,2E0,3E0,4E0,1E0,5E0,6E0,1E0,4E0,5.3E1,8E1,1.85E2,1.49E2,3.3E1,3E1,4.1E1,1E0,1.6E1,1E0,7E0,5E0,5.4E1,4E0,2E0,1E0,4E0,1E0,4E1,1.3E1,5.8E1,2.2E1,1.76E2,9E0,1.5E1,1.34E2,1.8E1,1.5E1,5E0,3.6E1,2E0,5E0,3E0,2E0,1.5E1,3.9E1],"tree_param":{"num_deleted":"0","num_feature":"4","num_nodes":"75","size_leaf_vector":"1"}},{"base_weights":[-1.6951579E-5,-1.5792251E-3,-7.922694E-6,5.969107E-4,-1.4507571E-3,-1.2073792E-4,1.3635881E-4,-5.7690275E-5,-1.0011861E-3,7.5654313E-4,-2.8220336E-5,-1.6772141E-5,-1.2599677E-3,-2.2872328E-3,-1.8579469E-4,4.6508637E-4,2.283901E-3,1.4131835E-3,-7.0854265E-5,-3.8522482E-4,1.2379259E-4,-3.0346115E-3,4.41151E-4,-1.1694208E-3,-2.2528272E-3,-4.929155E-4,1.1820346E-3,6.8950653E-4,-1.1722957E-3,-2.5262832E-4,2.0085126E-3,1.6930103E-3,-5.315542E-5,-1.8103957E-3,-3.305874E-5,8.8521025E-5,-4.1401712E-4,7.871936E-4,2.6264326E-5,-1.8746495E-3,1.347065E-4,8.095652E-4,-4.2355806E-4,-8.5738796E-4,1.5554826E-4,2.9516645E-4,-6.0094893E-4,2.1907479E-4,1.0675277E-3,-7.5048703E-4,1.9994378E-4,5.5452186E-4,-7.6504546E-4,2.865692E-4,-3.3086538E-4,-1.0863319E-3,-9.033084E-5,-3.3312073E-4,3.7644677E-5],"categories":[],"categories_nodes":[],"categories_segments":[],"categories_sizes":[],"default_left":[0,0,0,0,0,0,0,0,0,0,0,0,0,0,0,0,0,0,0,0,0,0,0,0,0,0,0,0,0,0,0,0,0,0,0,0,0,0,0,0,0,0,0,0,0,0,0,0,0,0,0,0,0,0,0,0,0,0,0],"id":8,"left_children":[1,3,5,-1,-1,7,9,11,13,15,17,19,21,23,25,27,29,31,33,35,37,39,41,43,-1,45,-1,47,49,51,-1,-1,53,55,57,-1,-1,-1,-1,-1,-1,-1,-1,-1,-1,-1,-1,-1,-1,-1,-1,-1,-1,-1,-1,-1,-1,-1,-1],"loss_changes":[9.819082E-6,1.813097E-5,1.1312805E-5,0E0,0E0,2.1591215E-5,3.1152522E-5,1.7935025E-5,2.6839467E-5,2.7427952E-5,1.4971686E-5,1.8381861E-5,3.756528E-5,1.9528772E-5,1.4478263E-5,2.101869E-5,4.497602E-5,2.0429921E-5,1.5456415E-5,2.4546349E-5,2.6484693E-5,1.5178182E-5,1.1994456E-5,6.9927237E-6,0E0,1.2997583E-5,0E0,1.6868615E-5,4.2174206E-6,1.0394364E-5,0E0,0E0,2.2849983E-6,2.5594873E-6,1.5966321E-5,0E0,0E0,0E0,0E0,0E0,0E0,0E0,0E0,0E0,0E0,0E0,0E0,0E0,0E0,0E0,0E0,0E0,0E0,0E0,0E0,0E0,0E0,0E0,0E0],"parents":[2147483647,0,0,1,1,2,2,5,5,6,6,7,7,8,8,9,9,10,10,11,11,12,12,13,13,14,14,15,15,16,16,17,17,18,18,19,19,20,20,21,21,22,22,23,23,25,25,27,27,28,28,29,29,32,32,33,33,34,34],"right_children":[2,4,6,-1,-1,8,10,12,14,16,18,20,22,24,26,28,30,32,34,36,38,40,42,44,-1,46,-1,48,50,52,-1,-1,54,56,58,-1,-1,-1,-1,-1,-1,-1,-1,-1,-1,-1,-1,-1,-1,-1,-1,-1,-1,-1,-1,-1,-1,-1,-1],"split_conditions":[3.3978054E-3,3.89E-1,5.815E-1,5.969107E-4,-1.4507571E-3,5.49E-1,6.575E-1,9.718313E-1,5.565E-1,8.0870664E-1,4.5165263E-2,2.5767222E-1,9.895267E-1,5.555E-1,9.3044156E-1,7.510574E-1,6.11E-1,2.7491435E-1,7.154188E-2,2.5886872E-1,2.865465E-1,3.5948035E-1,5.6369784E-3,2.3200797E-1,-2.2528272E-3,5.6369784E-3,1.1820346E-3,6.534328E-1,1.0710259E-2,3.382187E-3,2.0085126E-3,1.6930103E-3,7.255E-1,2.6452923E-1,7.115E-1,8.8521025E-5,-4.1401712E-4,7.871936E-4,2.6264326E-5,-1.8746495E-3,1.347065E-4,8.095652E-4,-4.2355806E-4,-8.5738796E-4,1.5554826E-4,2.9516645E-4,-6.0094893E-4,2.1907479E-4,1.0675277E-3,-7.5048703E-4,1.9994378E-4,5.5452186E-4,-7.6504546E-4,2.865692E-4,-3.3086538E-4,-1.0863319E-3,-9.033084E-5,-3.3312073E-4,3.7644677E-5],"split_indices":[3,2,2,0,0,2,2,3,2,3,3,3,3,2,3,3,2,0,3,0,3,0,1,0,0,1,0,3,1,1,0,0,2,0,2,0,0,0,0,0,0,0,0,0,0,0,0,0,0,0,0,0,0,0,0,0,0,0,0],"split_type":[0,0,0,0,0,0,0,0,0,0,0,0,0,0,0,0,0,0,0,0,0,0,0,0,0,0,0,0,0,0,0,0,0,0,0,0,0,0,0,0,0,0,0,0,0,0,0,0,0,0,0,0,0,0,0,0,0,0,0],"sum_hessian":[6.96E2,3E0,6.93E2,1E0,2E0,3.89E2,3.04E2,3.64E2,2.5E1,6.3E1,2.41E2,3.53E2,1.1E1,9E0,1.6E1,5.4E1,9E0,6E0,2.35E2,9.7E1,2.56E2,5E0,6E0,7E0,2E0,1.5E1,1E0,4.8E1,6E0,4E0,5E0,2E0,4E0,4E0,2.31E2,4.3E1,5.4E1,1.1E1,2.45E2,4E0,1E0,3E0,3E0,5E0,2E0,6E0,9E0,4.2E1,6E0,5E0,1E0,2E0,2E0,2E0,2E0,3E0,1E0,3.3E1,1.98E2],"tree_param":{"num_deleted":"0","num_feature":"4","num_nodes":"59","size_leaf_vector":"1"}},{"base_weights":[-1.0048471E-5,1.6621814E-5,-4.4852347E-4,-1.8867428E-5,1.2795097E-3,-2.0141237E-4,-1.0690093E-3,9.7987195E-6,-1.5222678E-3,-6.2154233E-4,1.5010203E-3,-1.1354813E-3,3.7590836E-4,-6.5825974E-5,2.4600007E-4,-1.0678725E-3,-2.7641654E-4,1.6035438E-3,-3.4838915E-5,-4.5984983E-5,-1.3017356E-3,-2.3527037E-4,8.6414354E-4,7.938751E-5,-5.3018646E-4,2.4325252E-3,1.5569499E-4,8.438996E-4,1.9749403E-3,-1.4340498E-3,3.8430095E-5,-5.238056E-4,6.625205E-4,1.6331151E-3,-1.5258789E-4,2.0578545E-5,1.4118731E-3,-9.6889137E-4,-1.3575133E-5,1.3495982E-3,2.747923E-4,-9.2732906E-4,1.1220885E-4,1.84382E-4,9.236783E-4,4.96918E-4,1.2316853E-3,-1.339515E-4,-8.3171326E-4,3.9695203E-4,-3.7921467E-4,1.4383078E-3,-1.6476959E-4],"categories":[],"categories_nodes":[],"categories_segments":[],"categories_sizes":[],"default_left":[0,0,0,0,0,0,0,0,0,0,0,0,0,0,0,0,0,0,0,0,0,0,0,0,0,0,0,0,0,0,0,0,0,0,0,0,0,0,0,0,0,0,0,0,0,0,0,0,0,0,0,0,0],"id":9,"left_children":[1,3,5,7,9,11,-1,13,15,-1,17,19,21,23,25,-1,-1,27,-1,-1,29,31,33,35,37,39,41,43,45,47,-1,49,-1,51,-1,-1,-1,-1,-1,-1,-1,-1,-1,-1,-1,-1,-1,-1,-1,-1,-1,-1,-1],"loss_changes":[8.158349E-6,2.9514998E-5,1.6269096E-5,2.76399E-5,1.1923959E-5,1.98401E-5,0E0,1.1269664E-5,5.955999E-6,0E0,2.8492977E-6,2.309116E-6,7.0664846E-6,3.22743E-5,2.983178E-5,0E0,0E0,2.847417E-6,0E0,0E0,2.2991135E-6,5.6463173E-6,1.218764E-5,3.817885E-5,8.066758E-5,1.529319E-6,2.0863441E-5,2.6562088E-6,2.3438224E-6,2.4967194E-6,0E0,3.6937804E-6,0E0,2.047245E-5,0E0,0E0,0E0,0E0,0E0,0E0,0E0,0E0,0E0,0E0,0E0,0E0,0E0,0E0,0E0,0E0,0E0,0E0,0E0],"parents":[2147483647,0,0,1,1,2,2,3,3,4,4,5,5,7,7,8,8,10,10,11,11,12,12,13,13,14,14,17,17,20,20,21,21,22,22,23,23,24,24,25,25,26,26,27,27,28,28,29,29,31,31,33,33],"right_children":[2,4,6,8,10,12,-1,14,16,-1,18,20,22,24,26,-1,-1,28,-1,-1,30,32,34,36,38,40,42,44,46,48,-1,50,-1,52,-1,-1,-1,-1,-1,-1,-1,-1,-1,-1,-1,-1,-1,-1,-1,-1,-1,-1,-1],"split_conditions":[9.485E-1,9.195E-1,8.715591E-1,9.1E-1,2.071762E-1,9.62E-1,-1.0690093E-3,7.84435E-1,2.6452923E-1,-6.2154233E-4,4.9185228E-1,1.6910936E-3,6.764374E-3,5.838653E-1,7.948819E-1,-1.0678725E-3,-2.7641654E-4,4.5095826E-3,-3.4838915E-5,-4.5984983E-5,1.0146561E-2,9.97E-1,9.86E-1,9E-1,2.0514725E-1,3.3458522E-1,7.992289E-1,4.1144755E-1,5.9223235E-1,9.53E-1,3.8430095E-5,9.65E-1,6.625205E-4,3.3458522E-1,-1.5258789E-4,2.0578545E-5,1.4118731E-3,-9.6889137E-4,-1.3575133E-5,1.3495982E-3,2.747923E-4,-9.2732906E-4,1.1220885E-4,1.84382E-4,9.236783E-4,4.96918E-4,1.2316853E-3,-1.339515E-4,-8.3171326E-4,3.9695203E-4,-3.7921467E-4,1.4383078E-3,-1.6476959E-4],"split_indices":[2,2,3,2,3,2,0,3,0,0,0,1,1,3,3,0,0,1,0,0,1,2,2,2,0,0,3,0,3,2,0,2,0,0,0,0,0,0,0,0,0,0,0,0,0,0,0,0,0,0,0,0,0],"split_type":[0,0,0,0,0,0,0,0,0,0,0,0,0,0,0,0,0,0,0,0,0,0,0,0,0,0,0,0,0,0,0,0,0,0,0,0,0,0,0,0,0,0,0,0,0,0,0,0,0,0,0,0,0],"sum_hessian":[6.96E2,6.57E2,3.9E1,6.4E2,1.7E1,3.5E1,4E0,6.29E2,1.1E1,1E0,1.6E1,1.3E1,2.2E1,4.77E2,1.52E2,6E0,5E0,1.5E1,1E0,2E0,1.1E1,1E1,1.2E1,3.64E2,1.13E2,5E0,1.47E2,6E0,9E0,1E1,1E0,9E0,1E0,7E0,5E0,3.6E2,4E0,2.9E1,8.4E1,4E0,1E0,4E0,1.43E2,5E0,1E0,4E0,5E0,2E0,8E0,1E0,8E0,4E0,3E0],"tree_param":{"num_deleted":"0","num_feature":"4","num_nodes":"53","size_leaf_vector":"1"}},{"base_weights":[-2.3604123E-6,8.371414E-5,-1.6977817E-4,3.97712E-5,6.3441606E-4,-1.7345548E-3,-1.14612994E-4,-1.4148281E-4,2.0547344E-4,3.717646E-3,2.161149E-4,-2.447452E-3,8.139312E-4,1.268824E-3,-1.3231342E-4,2.1802772E-4,-1.2904966E-3,1.3795816E-3,1.3250703E-4,1.6330183E-4,2.3695629E-3,-1.5152427E-3,8.842064E-4,5.0887465E-5,-1.4446428E-3,9.2561543E-4,2.6002526E-5,7.1073574E-4,-1.5440302E-4,3.66413E-4,-1.0255225E-3,-9.949816E-4,-2.1831468E-3,1.8972456E-3,-2.5947392E-4,-1.3710558E-3,1.591266E-4,-3.4641227E-4,-1.4448389E-3,-8.342862E-4,1.076086E-3,-7.826835E-5,8.150935E-4,-2.6157433E-5,-3.623058E-4,1.4986215E-5,4.6223289E-4,4.0725726E-4,-1.0516129E-3,-8.345028E-4,1.2650034E-4,1.5348196E-4,1.2674715E-3,-7.362862E-4,8.4495544E-4,-9.7401935E-4,9.430581E-5,-8.129378E-4,3.4989417E-4,1.8356642E-3,3.164977E-4,-1.2009229E-4,3.0833567E-4,-6.877009E-4,-5.3725813E-5],"categories":[],"categories_nodes":[],"categories_segments":[],"categories_sizes":[],"default_left":[0,0,0,0,0,0,0,0,0,0,0,0,0,0,0,0,0,0,0,0,0,0,0,0,0,0,0,0,0,0,0,0,0,0,0,0,0,0,0,0,0,0,0,0,0,0,0,0,0,0,0,0,0,0,0,0,0,0,0,0,0,0,0,0,0],"id":10,"left_children":[1,3,5,7,9,11,13,15,17,19,21,23,-1,25,27,29,31,33,35,-1,-1,37,39,-1,-1,-1,-1,41,43,45,47,49,-1,51,53,-1,55,57,-1,-1,59,-1,-1,61,63,-1,-1,-1,-1,-1,-1,-1,-1,-1,-1,-1,-1,-1,-1,-1,-1,-1,-1,-1,-1],"loss_changes":[1.0058267E-5,1.1130722E-5,2.0259318E-5,1.2883707E-5,4.3046995E-5,2.3160577E-5,5.79999E-6,8.4963285E-5,1.9007377E-5,1.2307708E-5,3.7197653E-5,8.178391E-6,0E0,2.029778E-6,4.355697E-6,2.9346123E-5,4.0193852E-5,1.152253E-5,1.6658822E-5,0E0,0E0,1.3457313E-5,1.306153E-5,0E0,0E0,0E0,0E0,5.039673E-6,5.936285E-6,2.6445265E-5,3.5424346E-5,3.9116076E-5,0E0,9.363048E-6,1.1947701E-5,0E0,1.3476814E-5,9.169221E-6,0E0,0E0,2.2974473E-5,0E0,0E0,1.9272125E-5,2.1798507E-5,0E0,0E0,0E0,0E0,0E0,0E0,0E0,0E0,0E0,0E0,0E0,0E0,0E0,0E0,0E0,0E0,0E0,0E0,0E0,0E0],"parents":[2147483647,0,0,1,1,2,2,3,3,4,4,5,5,6,6,7,7,8,8,9,9,10,10,11,11,13,13,14,14,15,15,16,16,17,17,18,18,21,21,22,22,27,27,28,28,29,29,30,30,31,31,33,33,34,34,36,36,37,37,40,40,43,43,44,44],"right_children":[2,4,6,8,10,12,14,16,18,20,22,24,-1,26,28,30,32,34,36,-1,-1,38,40,-1,-1,-1,-1,42,44,46,48,50,-1,52,54,-1,56,58,-1,-1,60,-1,-1,62,64,-1,-1,-1,-1,-1,-1,-1,-1,-1,-1,-1,-1,-1,-1,-1,-1,-1,-1,-1,-1],"split_conditions":[3.8683662E-1,3.614461E-1,3.9396757E-1,4.925E-1,3.6710665E-1,4.5095826E-3,3.9533067E-1,3.83E-1,5.17E-1,3.6337134E-1,1.915E-1,4.4651774E-1,8.139312E-4,8.455467E-3,2.2E-2,3.235878E-1,9.164145E-1,9.019165E-3,5.22E-1,1.6330183E-4,2.3695629E-3,3.229556E-1,3.2812137E-2,5.0887465E-5,-1.4446428E-3,9.2561543E-4,2.6002526E-5,2.071762E-1,6.307569E-1,2.58E-1,3.382187E-3,4.53E-1,-2.1831468E-3,1.5026626E-1,1.1273957E-2,-1.3710558E-3,3.3978054E-3,9.000954E-2,-1.4448389E-3,-8.342862E-4,2.8E-1,-7.826835E-5,8.150935E-4,5.0572836E-1,7.240517E-1,1.4986215E-5,4.6223289E-4,4.0725726E-4,-1.0516129E-3,-8.345028E-4,1.2650034E-4,1.5348196E-4,1.2674715E-3,-7.362862E-4,8.4495544E-4,-9.7401935E-4,9.430581E-5,-8.129378E-4,3.4989417E-4,1.8356642E-3,3.164977E-4,-1.2009229E-4,3.0833567E-4,-6.877009E-4,-5.3725813E-5],"split_indices":[0,0,0,2,0,1,0,2,2,0,2,3,0,1,2,0,3,1,2,0,0,3,3,0,0,0,0,3,3,2,1,2,0,0,1,0,3,3,0,0,2,0,0,3,3,0,0,0,0,0,0,0,0,0,0,0,0,0,0,0,0,0,0,0,0],"split_type":[0,0,0,0,0,0,0,0,0,0,0,0,0,0,0,0,0,0,0,0,0,0,0,0,0,0,0,0,0,0,0,0,0,0,0,0,0,0,0,0,0,0,0,0,0,0,0,0,0,0,0,0,0,0,0,0,0,0,0,0,0,0,0,0,0],"sum_hessian":[6.96E2,4.6E2,2.36E2,4.27E2,3.3E1,7E0,2.29E2,2.04E2,2.23E2,3E0,3E1,6E0,1E0,2E0,2.27E2,1.56E2,4.8E1,1.2E1,2.11E2,1E0,2E0,8E0,2.2E1,1E0,5E0,1E0,1E0,5E0,2.22E2,1.4E2,1.6E1,4.5E1,3E0,9E0,3E0,1E0,2.1E2,5E0,3E0,1E0,2.1E1,3E0,2E0,1.38E2,8.4E1,8.8E1,5.2E1,6E0,1E1,2.9E1,1.6E1,3E0,6E0,2E0,1E0,2E0,2.08E2,2E0,3E0,2E0,1.9E1,1.04E2,3.4E1,1.6E1,6.8E1],"tree_param":{"num_deleted":"0","num_feature":"4","num_nodes":"65","size_leaf_vector":"1"}},{"base_weights":[-3.011189E-6,-1.5883791E-4,5.2366096E-5,1.1249889E-3,-3.3220428E-4,-5.642242E-4,1.11164816E-4,1.4864481E-5,2.4556518E-3,-1.086235E-3,-2.7186546E-4,-5.617424E-5,-2.9069334E-3,2.069521E-3,6.853553E-5,-1.3459474E-3,5.577028E-4,3.046304E-3,3.1014282E-5,1.51538E-3,-3.5238423E-4,5.901009E-4,-7.3350733E-4,-2.259165E-4,-1.5965572E-3,-1.0295957E-3,3.5447988E-3,-1.7005668E-3,1.0345489E-4,2.7436018E-4,-1.0802051E-3,1.383841E-3,-2.2369623E-4,2.8128922E-4,1.6603768E-3,4.6876073E-4,1.0915771E-3,-7.651964E-4,-2.6677237E-5,6.8962574E-5,1.7601153E-3,-1.992926E-3,1.2473091E-3,-6.89884E-4,5.2303076E-6,5.567074E-5,2.464658E-3,-1.2143055E-3,-9.1679394E-5,1.7997676E-4,-3.491279E-4,6.5267086E-5,8.322671E-4,-4.1971356E-4,3.3592185E-4,5.844931E-4,-4.079789E-4,1.8700957E-4,-5.2318914E-4,2.585062E-4,-1.9605458E-4,2.7291363E-4,-4.87869E-4,-2.987325E-4,-1.3079867E-3,9.751618E-4,2.1771788E-4,-6.0872734E-4,6.504804E-4,6.5687105E-5,6.5240636E-4,-1.0895218E-3,-6.490946E-5],"categories":[],"categories_nodes":[],"categories_segments":[],"categories_sizes":[],"default_left":[0,0,0,0,0,0,0,0,0,0,0,0,0,0,0,0,0,0,0,0,0,0,0,0,0,0,0,0,0,0,0,0,0,0,0,0,0,0,0,0,0,0,0,0,0,0,0,0,0,0,0,0,0,0,0,0,0,0,0,0,0,0,0,0,0,0,0,0,0,0,0,0,0],"id":11,"left_children":[1,3,5,7,9,11,13,15,17,-1,19,21,23,25,27,29,31,33,-1,35,37,39,41,-1,-1,43,45,47,49,-1,-1,51,53,-1,-1,55,-1,57,59,61,-1,63,65,-1,-1,67,-1,-1,-1,69,71,-1,-1,-1,-1,-1,-1,-1,-1,-1,-1,-1,-1,-1,-1,-1,-1,-1,-1,-1,-1,-1,-1],"loss_changes":[6.022912E-6,4.1104475E-5,1.8733901E-5,3.2461932E-5,1.7397775E-5,5.33963E-5,3.9178805E-5,1.03537495E-5,1.3949029E-5,0E0,2.327127E-5,1.7067096E-5,4.178073E-6,4.9370286E-5,2.8716404E-5,7.3580054E-6,6.764996E-6,3.5850753E-6,0E0,3.8689614E-6,2.0416872E-5,3.029729E-5,4.9884664E-5,0E0,0E0,1.4712291E-6,3.354089E-5,9.496045E-6,1.5785981E-5,0E0,0E0,1.5416954E-6,3.8724334E-6,0E0,0E0,4.552214E-6,0E0,2.1853262E-5,1.728934E-5,9.499838E-6,0E0,8.8703055E-6,3.7168293E-6,0E0,0E0,6.340092E-6,0E0,0E0,0E0,2.1095168E-5,2.6204038E-5,0E0,0E0,0E0,0E0,0E0,0E0,0E0,0E0,0E0,0E0,0E0,0E0,0E0,0E0,0E0,0E0,0E0,0E0,0E0,0E0,0E0,0E0],"parents":[2147483647,0,0,1,1,2,2,3,3,4,4,5,5,6,6,7,7,8,8,10,10,11,11,12,12,13,13,14,14,15,15,16,16,17,17,19,19,20,20,21,21,22,22,25,25,26,26,27,27,28,28,31,31,32,32,35,35,37,37,38,38,39,39,41,41,42,42,45,45,49,49,50,50],"right_children":[2,4,6,8,10,12,14,16,18,-1,20,22,24,26,28,30,32,34,-1,36,38,40,42,-1,-1,44,46,48,50,-1,-1,52,54,-1,-1,56,-1,58,60,62,-1,64,66,-1,-1,68,-1,-1,-1,70,72,-1,-1,-1,-1,-1,-1,-1,-1,-1,-1,-1,-1,-1,-1,-1,-1,-1,-1,-1,-1,-1,-1],"split_conditions":[3.382187E-3,1.525E-1,1.055E-1,5.10129E-1,1.865E-1,9.2E-2,1.24E-1,5.6369783E-4,3.3458522E-1,-1.086235E-3,2.335E-1,5.800597E-1,4.221954E-1,3.5567868E-1,1.36E-1,1.02571554E-1,2.2547913E-3,5.85E-2,3.1014282E-5,1.8168224E-1,5.49E-1,5.526913E-1,8.715591E-1,-2.259165E-4,-1.5965572E-3,3.2646096E-1,1.12E-1,3.9667413E-1,8.715591E-1,2.7436018E-4,-1.0802051E-3,1.1273957E-3,1.2943174E-1,2.8128922E-4,1.6603768E-3,1.2943174E-1,1.0915771E-3,5.6369783E-4,7.255E-1,3.229556E-1,1.7601153E-3,7.1651E-1,9.01622E-1,-6.89884E-4,5.2303076E-6,1.6728936E-1,2.464658E-3,-1.2143055E-3,-9.1679394E-5,8.423492E-1,8.8781476E-1,6.5267086E-5,8.322671E-4,-4.1971356E-4,3.3592185E-4,5.844931E-4,-4.079789E-4,1.8700957E-4,-5.2318914E-4,2.585062E-4,-1.9605458E-4,2.7291363E-4,-4.87869E-4,-2.987325E-4,-1.3079867E-3,9.751618E-4,2.1771788E-4,-6.0872734E-4,6.504804E-4,6.5687105E-5,6.5240636E-4,-1.0895218E-3,-6.490946E-5],"split_indices":[1,2,2,3,2,2,2,1,0,0,2,3,3,3,2,0,1,2,0,0,2,3,3,0,0,0,2,0,3,0,0,1,0,0,0,0,0,1,2,3,0,3,3,0,0,0,0,0,0,3,3,0,0,0,0,0,0,0,0,0,0,0,0,0,0,0,0,0,0,0,0,0,0],"split_type":[0,0,0,0,0,0,0,0,0,0,0,0,0,0,0,0,0,0,0,0,0,0,0,0,0,0,0,0,0,0,0,0,0,0,0,0,0,0,0,0,0,0,0,0,0,0,0,0,0,0,0,0,0,0,0,0,0,0,0,0,0,0,0,0,0,0,0,0,0,0,0,0,0],"sum_hessian":[6.96E2,1.82E2,5.14E2,2.1E1,1.61E2,4.4E1,4.7E2,1.2E1,9E0,4E0,1.57E2,3.7E1,7E0,9E0,4.61E2,3E0,9E0,7E0,2E0,6E0,1.51E2,1.9E1,1.8E1,1E0,6E0,3E0,6E0,8E0,4.53E2,1E0,2E0,4E0,5E0,1E0,6E0,3E0,3E0,6.6E1,8.5E1,1.7E1,2E0,1.1E1,7E0,2E0,1E0,2E0,4E0,5E0,3E0,3.88E2,6.5E1,1E0,3E0,3E0,2E0,2E0,1E0,1.3E1,5.3E1,3.4E1,5.1E1,1.2E1,5E0,4E0,7E0,3E0,4E0,1E0,1E0,3.73E2,1.5E1,6E0,5.9E1],"tree_param":{"num_deleted":"0","num_feature":"4","num_nodes":"73","size_leaf_vector":"1"}},{"base_weights":[3.2752624E-7,8.444952E-5,-7.820278E-5,-7.377656E-5,4.2063053E-4,6.9676153E-4,-1.5311386E-4,7.2499446E-4,-1.4093197E-4,-6.8715547E-4,5.1612494E-4,-5.8459153E-4,1.3057671E-3,-9.3946035E-4,-6.257886E-5,-1.1369255E-4,1.4073134E-3,-6.9510087E-4,-3.178759E-5,-1.5908083E-3,4.2005628E-4,8.872574E-4,6.1159546E-5,4.1992217E-4,-1.2237355E-3,2.9813903E-3,4.910715E-4,-1.770694E-3,1.0634586E-4,2.7978487E-4,-2.0807069E-4,-6.413162E-4,1.9275397E-4,1.5916824E-3,-6.300211E-5,-2.4566173E-3,-3.8856268E-4,1.4350772E-3,-1.1788677E-4,4.1155517E-4,-2.238214E-3,1.285509E-3,-3.7087288E-4,1.1434654E-3,-9.1987575E-5,6.0717266E-5,-1.6923646E-3,4.3907017E-4,2.1696463E-3,8.784056E-4,-1.3241598E-4,-2.7955323E-4,-2.61723E-3,7.7678263E-4,-3.4713285E-4,-1.8473424E-4,7.5905974E-4,-7.163025E-4,-1.7369495E-5,2.9744208E-4,-8.3750485E-5,8.991398E-4,-1.527369E-5,-1.4294684E-4,-1.4639124E-3,-3.0784096E-4,6.4920634E-4,4.3494502E-4,1.6304404E-3,-8.2710385E-4,-3.0653042E-5,-1.432918E-3,6.8068504E-5,2.954776E-4,1.0475909E-3,5.0874054E-4,-6.2761706E-4,-5.396936E-4,7.870876E-5,-9.705067E-4,-1.1228025E-4,8.311868E-5,5.7993614E-4,3.7668148E-4,-3.1870007E-4,-3.8271717E-4,7.804036E-4,-1.8335368E-3,-4.7810376E-4,3.187855E-5,-3.0595437E-4,-2.4625973E-4,5.676647E-4,2.4622828E-3,2.7383136E-4,3.3697818E-4,-4.7851886E-4,1.3735394E-4,-1.838071E-4],"categories":[],"categories_nodes":[],"categories_segments":[],"categories_sizes":[],"default_left":[0,0,0,0,0,0,0,0,0,0,0,0,0,0,0,0,0,0,0,0,0,0,0,0,0,0,0,0,0,0,0,0,0,0,0,0,0,0,0,0,0,0,0,0,0,0,0,0,0,0,0,0,0,0,0,0,0,0,0,0,0,0,0,0,0,0,0,0,0,0,0,0,0,0,0,0,0,0,0,0,0,0,0,0,0,0,0,0,0,0,0,0,0,0,0,0,0,0,0],"id":12,"left_children":[1,3,5,7,9,11,13,15,17,19,21,23,25,27,29,31,33,35,37,39,-1,41,43,-1,45,47,49,51,53,55,57,-1,59,61,-1,63,65,67,69,-1,71,73,75,-1,77,-1,79,-1,-1,81,83,85,87,-1,89,91,93,95,97,-1,-1,-1,-1,-1,-1,-1,-1,-1,-1,-1,-1,-1,-1,-1,-1,-1,-1,-1,-1,-1,-1,-1,-1,-1,-1,-1,-1,-1,-1,-1,-1,-1,-1,-1,-1,-1,-1,-1,-1],"loss_changes":[4.6110745E-6,1.795694E-5,2.1063965E-5,1.24397875E-5,1.1779697E-5,2.5734576E-5,2.3434532E-5,1.0460535E-5,1.2861086E-5,1.3757539E-5,1.683098E-5,1.1042363E-5,2.8568626E-5,2.974482E-5,1.4852119E-5,3.4711902E-6,3.0275241E-6,1.7944474E-5,2.2776134E-5,1.1219008E-5,0E0,2.803464E-5,1.5890413E-5,0E0,5.2485984E-6,1.618154E-5,3.9802817E-6,2.3252127E-5,1.1039825E-5,1.9954501E-5,2.0243924E-5,0E0,1.2585988E-6,3.0712636E-6,0E0,4.277257E-6,1.267689E-5,7.4825984E-6,1.4676022E-5,0E0,7.841121E-6,2.2381013E-5,1.8466466E-5,0E0,1.1005463E-5,0E0,1.7539314E-6,0E0,0E0,1.8117025E-6,3.6113242E-6,8.348266E-6,1.7419283E-5,0E0,1.4533323E-6,1.9248791E-5,3.6048317E-5,1.9722007E-5,1.5752665E-5,0E0,0E0,0E0,0E0,0E0,0E0,0E0,0E0,0E0,0E0,0E0,0E0,0E0,0E0,0E0,0E0,0E0,0E0,0E0,0E0,0E0,0E0,0E0,0E0,0E0,0E0,0E0,0E0,0E0,0E0,0E0,0E0,0E0,0E0,0E0,0E0,0E0,0E0,0E0,0E0],"parents":[2147483647,0,0,1,1,2,2,3,3,4,4,5,5,6,6,7,7,8,8,9,9,10,10,11,11,12,12,13,13,14,14,15,15,16,16,17,17,18,18,19,19,21,21,22,22,24,24,25,25,26,26,27,27,28,28,29,29,30,30,32,32,33,33,35,35,36,36,37,37,38,38,40,40,41,41,42,42,44,44,46,46,49,49,50,50,51,51,52,52,54,54,55,55,56,56,57,57,58,58],"right_children":[2,4,6,8,10,12,14,16,18,20,22,24,26,28,30,32,34,36,38,40,-1,42,44,-1,46,48,50,52,54,56,58,-1,60,62,-1,64,66,68,70,-1,72,74,76,-1,78,-1,80,-1,-1,82,84,86,88,-1,90,92,94,96,98,-1,-1,-1,-1,-1,-1,-1,-1,-1,-1,-1,-1,-1,-1,-1,-1,-1,-1,-1,-1,-1,-1,-1,-1,-1,-1,-1,-1,-1,-1,-1,-1,-1,-1,-1,-1,-1,-1,-1,-1],"split_conditions":[5.6369784E-3,7.1514136E-1,9.000954E-2,1.055E-1,9.65E-2,2.23E-1,6.2006763E-3,6.65E-2,2.67E-1,9.01622E-1,3.3963346E-1,4.45E-2,4.32E-1,3.1756184E-1,3.225E-1,6.1861318E-2,5.267773E-1,8.261768E-2,3.105E-1,7.1651E-1,4.2005628E-4,9.211668E-1,7.240517E-1,4.1992217E-4,6.764374E-3,4.1007295E-2,8.45E-1,1.02571554E-1,3.5332185E-1,1.58E-1,1.9414994E-1,-6.413162E-4,5.85E-2,5.755275E-1,-6.300211E-5,1.02571554E-1,5.0732805E-3,5.0732805E-3,3.415E-1,4.1155517E-4,3.3458522E-1,3.382187E-3,3.945885E-3,1.1434654E-3,3.614461E-1,6.0717266E-5,2.3200797E-1,4.3907017E-4,2.1696463E-3,6.764374E-3,1.5026626E-1,7.355E-1,5.84E-1,7.7678263E-4,4.855644E-1,8.6759824E-1,1.615E-1,2.1901205E-1,9.582863E-3,2.9744208E-4,-8.3750485E-5,8.991398E-4,-1.527369E-5,-1.4294684E-4,-1.4639124E-3,-3.0784096E-4,6.4920634E-4,4.3494502E-4,1.6304404E-3,-8.2710385E-4,-3.0653042E-5,-1.432918E-3,6.8068504E-5,2.954776E-4,1.0475909E-3,5.0874054E-4,-6.2761706E-4,-5.396936E-4,7.870876E-5,-9.705067E-4,-1.1228025E-4,8.311868E-5,5.7993614E-4,3.7668148E-4,-3.1870007E-4,-3.8271717E-4,7.804036E-4,-1.8335368E-3,-4.7810376E-4,3.187855E-5,-3.0595437E-4,-2.4625973E-4,5.676647E-4,2.4622828E-3,2.7383136E-4,3.3697818E-4,-4.7851886E-4,1.3735394E-4,-1.838071E-4],"split_indices":[1,3,3,2,2,2,1,2,2,3,0,2,2,0,2,3,0,3,2,3,0,3,3,0,1,3,2,0,0,2,0,0,2,3,0,0,1,1,2,0,0,1,1,0,0,0,0,0,0,1,0,2,2,0,3,3,2,3,1,0,0,0,0,0,0,0,0,0,0,0,0,0,0,0,0,0,0,0,0,0,0,0,0,0,0,0,0,0,0,0,0,0,0,0,0,0,0,0,0],"split_type":[0,0,0,0,0,0,0,0,0,0,0,0,0,0,0,0,0,0,0,0,0,0,0,0,0,0,0,0,0,0,0,0,0,0,0,0,0,0,0,0,0,0,0,0,0,0,0,0,0,0,0,0,0,0,0,0,0,0,0,0,0,0,0,0,0,0,0,0,0,0,0,0,0,0,0,0,0,0,0,0,0,0,0,0,0,0,0,0,0,0,0,0,0,0,0,0,0,0,0],"sum_hessian":[6.96E2,3.36E2,3.6E2,2.29E2,1.07E2,3.1E1,3.29E2,1.7E1,2.12E2,8E0,9.9E1,1E1,2.1E1,3.3E1,2.96E2,8E0,9E0,3.4E1,1.78E2,5E0,3E0,5.4E1,4.5E1,3E0,7E0,6E0,1.5E1,1.8E1,1.5E1,8.8E1,2.08E2,1E0,7E0,8E0,1E0,4E0,3E1,9E0,1.69E2,1E0,4E0,4.1E1,1.3E1,2E0,4.3E1,2E0,5E0,3E0,3E0,9E0,6E0,7E0,1.1E1,3E0,1.2E1,4.5E1,4.3E1,5.6E1,1.52E2,3E0,4E0,7E0,1E0,1E0,3E0,2.7E1,3E0,8E0,1E0,5E0,1.64E2,3E0,1E0,2.3E1,1.8E1,5E0,8E0,8E0,3.5E1,4E0,1E0,3E0,6E0,2E0,4E0,6E0,1E0,6E0,5E0,5E0,7E0,3.7E1,8E0,1E0,4.2E1,8E0,4.8E1,8.3E1,6.9E1],"tree_param":{"num_deleted":"0","num_feature":"4","num_nodes":"99","size_leaf_vector":"1"}},{"base_weights":[8.621722E-6,-1.0320137E-4,4.834018E-5,-3.0712504E-4,1.4619008E-4,2.2465567E-4,-2.7497059E-5,-1.2905571E-4,-1.9146502E-3,1.4321879E-3,8.898346E-6,-4.087246E-4,3.3249846E-4,5.4261047E-5,-3.6815234E-4,-3.5983842E-4,5.3982186E-4,8.709729E-5,-2.8347543E-3,2.3606538E-3,-8.6441636E-5,9.41356E-4,-1.1464603E-4,1.9692977E-4,-1.3727347E-3,1.1890626E-3,1.3298835E-4,2.4562838E-4,-2.3820688E-4,-9.35517E-4,1.9367867E-4,-9.2293085E-5,-1.505242E-3,3.0138946E-4,8.283183E-4,-5.36412E-4,-1.6624809E-3,1.4956519E-3,-4.0486455E-5,-2.6869774E-4,3.1660497E-4,6.2520587E-4,-4.677971E-5,-1.1422435E-3,4.1404368E-5,-5.328059E-4,1.7629623E-3,1.347959E-4,-2.2388299E-3,2.8005044E-3,6.461769E-4,-6.555617E-4,2.8582435E-4,1.319719E-4,1.0836493E-3,2.9269003E-4,-3.5185926E-4,3.150031E-4,-1.2593971E-3,1.1376408E-3,-1.166548E-4,-2.921339E-4,2.3799251E-4,-1.6785562E-3,3.5908073E-5,2.4255169E-4,-4.8129758E-4,3.5243234E-4,-8.8534184E-4,1.5078866E-4,-2.9121008E-4,8.583814E-5,-9.042844E-4,9.301305E-5,1.0553449E-3,-1.3394952E-3,-4.5283636E-4,1.8966198E-4,1.9581318E-3,-3.4647188E-4,5.6937337E-4,3.9591888E-4,-6.365822E-4,5.955524E-4,2.4762508E-5,2.287005E-4,-1.1496464E-4,8.684893E-6,1.12741E-3,4.037507E-4,-1.11971585E-5,-2.010455E-4,4.5199692E-4,-2.8274953E-4,4.782021E-4,-8.968805E-4,-5.9083104E-5,-3.3211708E-4,7.229522E-4,-6.265007E-4,1.6089706E-4],"categories":[],"categories_nodes":[],"categories_segments":[],"categories_sizes":[],"default_left":[0,0,0,0,0,0,0,0,0,0,0,0,0,0,0,0,0,0,0,0,0,0,0,0,0,0,0,0,0,0,0,0,0,0,0,0,0,0,0,0,0,0,0,0,0,0,0,0,0,0,0,0,0,0,0,0,0,0,0,0,0,0,0,0,0,0,0,0,0,0,0,0,0,0,0,0,0,0,0,0,0,0,0,0,0,0,0,0,0,0,0,0,0,0,0,0,0,0,0,0,0],"id":13,"left_children":[1,3,5,7,9,11,13,15,17,19,21,23,25,27,29,31,33,-1,35,37,39,41,43,45,47,49,51,53,55,57,59,61,63,65,-1,-1,-1,-1,-1,-1,-1,-1,-1,67,69,71,73,-1,75,77,79,81,83,85,87,89,91,93,95,97,99,-1,-1,-1,-1,-1,-1,-1,-1,-1,-1,-1,-1,-1,-1,-1,-1,-1,-1,-1,-1,-1,-1,-1,-1,-1,-1,-1,-1,-1,-1,-1,-1,-1,-1,-1,-1,-1,-1,-1,-1],"loss_changes":[3.1006728E-6,9.351697E-6,6.8923864E-6,2.8664244E-5,1.4641475E-5,1.0723252E-5,1.0074307E-5,1.4395864E-5,1.9713345E-5,1.1484026E-5,8.863115E-6,1.3699043E-5,2.2570668E-5,1.6401404E-5,2.2494603E-5,2.1005944E-5,5.8915434E-6,0E0,2.4788824E-6,7.941273E-6,1.6384028E-6,2.9956063E-6,1.09515695E-5,1.8081166E-5,1.340527E-5,2.0061096E-5,1.3323928E-5,1.6715621E-5,7.102159E-6,1.4572364E-5,1.0678661E-5,1.6214075E-5,3.820769E-5,5.3434014E-6,0E0,0E0,0E0,0E0,0E0,0E0,0E0,0E0,0E0,1.1695263E-5,9.913781E-6,1.01967635E-5,2.3490757E-6,0E0,1.0945314E-6,1.4723191E-5,1.3981297E-5,1.709866E-5,1.962139E-5,1.859556E-5,2.6185535E-5,3.4244727E-6,6.419522E-6,5.0588865E-6,1.6863352E-5,5.9594913E-6,1.4353647E-5,0E0,0E0,0E0,0E0,0E0,0E0,0E0,0E0,0E0,0E0,0E0,0E0,0E0,0E0,0E0,0E0,0E0,0E0,0E0,0E0,0E0,0E0,0E0,0E0,0E0,0E0,0E0,0E0,0E0,0E0,0E0,0E0,0E0,0E0,0E0,0E0,0E0,0E0,0E0,0E0],"parents":[2147483647,0,0,1,1,2,2,3,3,4,4,5,5,6,6,7,7,8,8,9,9,10,10,11,11,12,12,13,13,14,14,15,15,16,16,18,18,19,19,20,20,21,21,22,22,23,23,24,24,25,25,26,26,27,27,28,28,29,29,30,30,31,31,32,32,33,33,43,43,44,44,45,45,46,46,48,48,49,49,50,50,51,51,52,52,53,53,54,54,55,55,56,56,57,57,58,58,59,59,60,60],"right_children":[2,4,6,8,10,12,14,16,18,20,22,24,26,28,30,32,34,-1,36,38,40,42,44,46,48,50,52,54,56,58,60,62,64,66,-1,-1,-1,-1,-1,-1,-1,-1,-1,68,70,72,74,-1,76,78,80,82,84,86,88,90,92,94,96,98,100,-1,-1,-1,-1,-1,-1,-1,-1,-1,-1,-1,-1,-1,-1,-1,-1,-1,-1,-1,-1,-1,-1,-1,-1,-1,-1,-1,-1,-1,-1,-1,-1,-1,-1,-1,-1,-1,-1,-1,-1],"split_conditions":[3.382187E-3,4.877291E-1,5.6369784E-3,4.5521864E-1,5.44899E-1,1.02571554E-1,8.1164074E-1,3.3166537E-1,1.12E-1,2.2547913E-3,1.525E-1,6.97E-1,1.8168224E-1,3.5332185E-1,3.4897828E-1,2.6257437E-1,9E-1,8.709729E-5,1.1273957E-3,1.8168224E-1,2.8184892E-3,3.3458522E-1,6.132049E-1,5.295E-1,4.5095826E-3,2.8137955E-1,2.4640095E-1,3.1111997E-1,1.7432807E-1,1.525E-1,3.9667413E-1,1.3578519E-1,3.1111997E-1,8.795E-1,8.283183E-4,-5.36412E-4,-1.6624809E-3,1.4956519E-3,-4.0486455E-5,-2.6869774E-4,3.1660497E-4,6.2520587E-4,-4.677971E-5,1.9414994E-1,7.5E-1,2.615E-1,6.47147E-2,1.347959E-4,8.52E-1,1.5026626E-1,3.6936134E-1,3.945885E-3,3.235878E-1,5.31E-1,3.755E-1,4.0435272E-1,7.84435E-1,8.715591E-1,9.3363875E-1,1E-2,4.515559E-1,-2.921339E-4,2.3799251E-4,-1.6785562E-3,3.5908073E-5,2.4255169E-4,-4.8129758E-4,3.5243234E-4,-8.8534184E-4,1.5078866E-4,-2.9121008E-4,8.583814E-5,-9.042844E-4,9.301305E-5,1.0553449E-3,-1.3394952E-3,-4.5283636E-4,1.8966198E-4,1.9581318E-3,-3.4647188E-4,5.6937337E-4,3.9591888E-4,-6.365822E-4,5.955524E-4,2.4762508E-5,2.287005E-4,-1.1496464E-4,8.684893E-6,1.12741E-3,4.037507E-4,-1.11971585E-5,-2.010455E-4,4.5199692E-4,-2.8274953E-4,4.782021E-4,-8.968805E-4,-5.9083104E-5,-3.3211708E-4,7.229522E-4,-6.265007E-4,1.6089706E-4],"split_indices":[1,3,1,3,3,0,3,3,2,1,2,2,0,0,0,3,2,0,1,0,1,0,3,2,1,3,0,0,3,2,0,3,0,2,0,0,0,0,0,0,0,0,0,0,2,2,0,0,2,0,3,1,0,2,2,0,3,3,3,2,0,0,0,0,0,0,0,0,0,0,0,0,0,0,0,0,0,0,0,0,0,0,0,0,0,0,0,0,0,0,0,0,0,0,0,0,0,0,0,0,0],"split_type":[0,0,0,0,0,0,0,0,0,0,0,0,0,0,0,0,0,0,0,0,0,0,0,0,0,0,0,0,0,0,0,0,0,0,0,0,0,0,0,0,0,0,0,0,0,0,0,0,0,0,0,0,0,0,0,0,0,0,0,0,0,0,0,0,0,0,0,0,0,0,0,0,0,0,0,0,0,0,0,0,0,0,0,0,0,0,0,0,0,0,0,0,0,0,0,0,0,0,0,0,0],"sum_hessian":[6.96E2,1.82E2,5.14E2,1E2,8.2E1,1.54E2,3.6E2,9.1E1,9E0,7E0,7.5E1,2.2E1,1.32E2,2.91E2,6.9E1,6.8E1,2.3E1,3E0,6E0,4E0,3E0,8E0,6.7E1,1.4E1,8E0,2.4E1,1.08E2,1.76E2,1.15E2,3.4E1,3.5E1,5.6E1,1.2E1,2E1,3E0,2E0,4E0,3E0,1E0,2E0,1E0,6E0,2E0,8E0,5.9E1,1E1,4E0,3E0,5E0,5E0,1.9E1,1.7E1,9.1E1,1.56E2,2E1,2E1,9.5E1,7E0,2.7E1,8E0,2.7E1,3E1,2.6E1,5E0,7E0,1.8E1,2E0,2E0,6E0,4.2E1,1.7E1,7E0,3E0,1E0,3E0,3E0,2E0,2E0,3E0,5E0,1.4E1,5E0,1.2E1,1.8E1,7.3E1,8.2E1,7.4E1,1.1E1,9E0,7E0,1.3E1,9.2E1,3E0,3E0,4E0,1.8E1,9E0,1E0,7E0,7E0,2E1],"tree_param":{"num_deleted":"0","num_feature":"4","num_nodes":"101","size_leaf_vector":"1"}},{"base_weights":[5.275909E-6,-1.1144502E-4,3.3770546E-5,1.7585833E-7,-8.993675E-4,9.39548E-4,8.870305E-6,7.3219126E-4,-1.6989009E-4,-5.352162E-4,-1.681447E-3,1.595354E-3,-3.1005344E-4,-2.9439264E-4,3.598355E-5,5.354123E-4,1.2653321E-3,-7.089989E-4,1.49426E-4,8.120835E-4,-7.8745285E-4,-1.05157495E-4,1.8193523E-3,3.219992E-4,-3.1483173E-4,-8.622439E-5,-1.2463927E-3,1.4496222E-3,1.3110378E-5,8.295814E-4,-8.3081424E-5,-8.6853333E-4,6.9428486E-4,-3.441635E-4,3.545099E-4,-9.6933544E-4,-2.2470951E-5,2.1366477E-3,4.7254562E-4,3.9545447E-4,-4.1755644E-4,1.748403E-5,-8.396705E-4,2.7778745E-4,1.6550422E-3,-2.2818412E-4,5.1326962E-5,7.908874E-5,7.871517E-4,-2.9313564E-4,4.7549605E-4,-5.8754534E-4,-9.152045E-5,-4.839566E-5,-1.1992157E-3,2.6899762E-4,-4.5103687E-5,-8.3471835E-4,-2.752377E-4,1.4291704E-4,1.1987388E-3,-3.514886E-4,7.058978E-4,-1.13630296E-4,6.1427697E-4,2.0344854E-4,-3.0627064E-4,5.4512173E-4,-4.4904152E-4,-4.4651888E-4,-1.1584107E-5,1.333779E-4,-4.1380126E-6],"categories":[],"categories_nodes":[],"categories_segments":[],"categories_sizes":[],"default_left":[0,0,0,0,0,0,0,0,0,0,0,0,0,0,0,0,0,0,0,0,0,0,0,0,0,0,0,0,0,0,0,0,0,0,0,0,0,0,0,0,0,0,0,0,0,0,0,0,0,0,0,0,0,0,0,0,0,0,0,0,0,0,0,0,0,0,0,0,0,0,0,0,0],"id":14,"left_children":[1,3,5,7,9,11,13,15,17,19,-1,21,23,25,27,29,-1,31,33,-1,35,-1,37,-1,-1,39,41,43,45,47,49,51,-1,53,55,57,-1,59,61,63,65,-1,-1,67,-1,69,71,-1,-1,-1,-1,-1,-1,-1,-1,-1,-1,-1,-1,-1,-1,-1,-1,-1,-1,-1,-1,-1,-1,-1,-1,-1,-1],"loss_changes":[2.3219302E-6,1.2049116E-5,1.2644504E-5,1.518779E-5,1.3450764E-5,1.2787088E-5,4.5082693E-6,6.7847895E-6,1.7148408E-5,9.993766E-6,0E0,4.427304E-6,2.2350496E-6,8.810459E-6,1.6245198E-5,4.071642E-6,0E0,1.3587494E-5,6.499326E-6,0E0,1.9821828E-6,0E0,2.8363538E-6,0E0,0E0,6.2297595E-6,4.4968283E-6,1.6521733E-5,4.5855522E-6,7.25112E-6,4.720222E-6,7.1399063E-6,0E0,9.423057E-6,3.7204918E-6,2.5999498E-6,0E0,2.693956E-6,4.3047894E-6,8.579738E-6,3.9466263E-6,0E0,0E0,6.7111873E-6,0E0,9.24809E-6,5.510654E-6,0E0,0E0,0E0,0E0,0E0,0E0,0E0,0E0,0E0,0E0,0E0,0E0,0E0,0E0,0E0,0E0,0E0,0E0,0E0,0E0,0E0,0E0,0E0,0E0,0E0,0E0],"parents":[2147483647,0,0,1,1,2,2,3,3,4,4,5,5,6,6,7,7,8,8,9,9,11,11,12,12,13,13,14,14,15,15,17,17,18,18,20,20,22,22,25,25,26,26,27,27,28,28,29,29,30,30,31,31,33,33,34,34,35,35,37,37,38,38,39,39,40,40,43,43,45,45,46,46],"right_children":[2,4,6,8,10,12,14,16,18,20,-1,22,24,26,28,30,-1,32,34,-1,36,-1,38,-1,-1,40,42,44,46,48,50,52,-1,54,56,58,-1,60,62,64,66,-1,-1,68,-1,70,72,-1,-1,-1,-1,-1,-1,-1,-1,-1,-1,-1,-1,-1,-1,-1,-1,-1,-1,-1,-1,-1,-1,-1,-1,-1,-1],"split_conditions":[2.071762E-1,1.7680635E-1,2.1901205E-1,1.6728936E-1,9.582863E-3,2.5886872E-1,1.055E-1,1.5026626E-1,2.9275316E-1,1.8027006E-1,-1.681447E-3,6.47147E-2,1.865E-1,1.0146561E-2,1.22E-1,1.02571554E-1,1.2653321E-3,1.7432807E-1,2.67E-1,8.120835E-4,4.66582E-1,-1.05157495E-4,6.764374E-3,3.219992E-4,-3.1483173E-4,6.0967076E-1,5.05E-2,1.19E-1,1.6910936E-3,7.806757E-2,4.46E-1,9.019165E-3,6.9428486E-4,2.615E-1,5.069304E-1,2.375E-1,-2.2470951E-5,2.16E-1,1.8168224E-1,5.0657094E-1,3.382187E-3,1.748403E-5,-8.396705E-4,1.0146561E-2,1.6550422E-3,3.175E-1,3.225E-1,7.908874E-5,7.871517E-4,-2.9313564E-4,4.7549605E-4,-5.8754534E-4,-9.152045E-5,-4.839566E-5,-1.1992157E-3,2.6899762E-4,-4.5103687E-5,-8.3471835E-4,-2.752377E-4,1.4291704E-4,1.1987388E-3,-3.514886E-4,7.058978E-4,-1.13630296E-4,6.1427697E-4,2.0344854E-4,-3.0627064E-4,5.4512173E-4,-4.4904152E-4,-4.4651888E-4,-1.1584107E-5,1.333779E-4,-4.1380126E-6],"split_indices":[3,3,3,0,1,0,2,0,0,3,0,0,2,1,2,0,0,3,2,0,0,0,1,0,0,3,2,2,1,3,2,1,0,2,0,2,0,2,0,3,1,0,0,1,0,2,2,0,0,0,0,0,0,0,0,0,0,0,0,0,0,0,0,0,0,0,0,0,0,0,0,0,0],"split_type":[0,0,0,0,0,0,0,0,0,0,0,0,0,0,0,0,0,0,0,0,0,0,0,0,0,0,0,0,0,0,0,0,0,0,0,0,0,0,0,0,0,0,0,0,0,0,0,0,0,0,0,0,0,0,0,0,0,0,0,0,0,0,0,0,0,0,0,0,0,0,0,0,0],"sum_hessian":[6.96E2,1.36E2,5.6E2,1.2E2,1.6E1,1.4E1,5.46E2,2.2E1,9.8E1,1.5E1,1E0,9E0,5E0,4.4E1,5.02E2,2.1E1,1E0,3.6E1,6.2E1,1E0,1.4E1,1E0,8E0,1E0,4E0,3.7E1,7E0,7E0,4.95E2,1.4E1,7E0,3.4E1,2E0,1.8E1,4.4E1,1.1E1,3E0,6E0,2E0,1.5E1,2.2E1,2E0,5E0,5E0,2E0,6.7E1,4.28E2,8E0,6E0,5E0,2E0,2.3E1,1.1E1,1.7E1,1E0,3.1E1,1.3E1,3E0,8E0,1E0,5E0,1E0,1E0,9E0,6E0,4E0,1.8E1,3E0,2E0,1.5E1,5.2E1,9.2E1,3.36E2],"tree_param":{"num_deleted":"0","num_feature":"4","num_nodes":"73","size_leaf_vector":"1"}},{"base_weights":[5.3456047E-6,1.0767485E-6,3.7232786E-4,-2.9784342E-5,1.0595857E-4,3.291503E-4,-5.167229E-5,2.9379284E-4,-7.6226985E-5,7.56073E-5,1.1876395E-3,-5.052553E-4,-3.4904602E-5,9.5611415E-4,1.3397075E-4,3.019103E-4,-2.7088655E-4,4.8711398E-4,-2.8251324E-4,1.2003084E-3,2.2232533E-4,3.8789213E-4,-6.26245E-4,1.0363034E-3,-5.032516E-5,-8.530542E-5,1.9633248E-3,5.6439417E-4,-1.7538197E-4,-3.2565174E-5,7.5059134E-4,-1.1020601E-3,-1.541445E-4,3.4166736E-4,-4.1782856E-4,-3.3642352E-4,4.5498214E-6,-2.2877008E-4,7.354468E-4,-3.9485694E-4,1.9992392E-4,1.535813E-5,7.161975E-4,-7.5798034E-4,-1.7476641E-5,1.177775E-3,-1.9556284E-4,3.704357E-4,-5.471905E-4,-3.2228362E-4,2.550166E-4,-2.4891325E-4,1.3323534E-4,4.4674493E-4,-2.053231E-4,-1.0150969E-3,-1.924932E-5],"categories":[],"categories_nodes":[],"categories_segments":[],"categories_sizes":[],"default_left":[0,0,0,0,0,0,0,0,0,0,0,0,0,0,0,0,0,0,0,0,0,0,0,0,0,0,0,0,0,0,0,0,0,0,0,0,0,0,0,0,0,0,0,0,0,0,0,0,0,0,0,0,0,0,0,0,0],"id":15,"left_children":[1,3,-1,5,7,9,11,13,15,17,19,21,23,25,27,29,31,33,35,-1,37,-1,39,41,43,-1,45,47,49,51,53,-1,55,-1,-1,-1,-1,-1,-1,-1,-1,-1,-1,-1,-1,-1,-1,-1,-1,-1,-1,-1,-1,-1,-1,-1,-1],"loss_changes":[2.1989363E-6,2.2494723E-6,0E0,4.2358643E-6,5.429263E-6,6.6577886E-6,3.8383723E-6,8.128487E-6,6.0440348E-6,3.8218413E-6,7.662611E-6,3.2756961E-6,8.1462795E-6,1.7357706E-5,8.620754E-6,4.226482E-6,1.1847491E-5,3.685695E-6,1.5996918E-6,0E0,4.9172854E-6,0E0,3.1672475E-6,2.7441347E-6,1.0851327E-5,0E0,8.3091145E-6,8.71467E-6,1.2549046E-5,2.4978633E-6,2.358177E-6,0E0,1.1203621E-5,0E0,0E0,0E0,0E0,0E0,0E0,0E0,0E0,0E0,0E0,0E0,0E0,0E0,0E0,0E0,0E0,0E0,0E0,0E0,0E0,0E0,0E0,0E0,0E0],"parents":[2147483647,0,0,1,1,3,3,4,4,5,5,6,6,7,7,8,8,9,9,10,10,11,11,12,12,13,13,14,14,15,15,16,16,17,17,18,18,20,20,22,22,23,23,24,24,26,26,27,27,28,28,29,29,30,30,32,32],"right_children":[2,4,-1,6,8,10,12,14,16,18,20,22,24,26,28,30,32,34,36,-1,38,-1,40,42,44,-1,46,48,50,52,54,-1,56,-1,-1,-1,-1,-1,-1,-1,-1,-1,-1,-1,-1,-1,-1,-1,-1,-1,-1,-1,-1,-1,-1,-1,-1],"split_conditions":[5.811797E-1,9.019165E-3,3.7232786E-4,5.281787E-2,2.9672694E-1,4.1007295E-2,8.261768E-2,9.582863E-3,3.225E-1,1.9947838E-2,4.5165263E-2,6.47147E-2,9.201335E-2,4.221954E-1,3.755E-1,1.805E-1,3.1111997E-1,6.075E-1,3.2812137E-2,1.2003084E-3,6.26E-1,3.8789213E-4,9.62E-1,1.855E-1,9.460461E-2,-8.530542E-5,9.305E-1,9.3044156E-1,7.16E-1,5.0133765E-1,1.1273957E-2,-1.1020601E-3,3.275E-1,3.4166736E-4,-4.1782856E-4,-3.3642352E-4,4.5498214E-6,-2.2877008E-4,7.354468E-4,-3.9485694E-4,1.9992392E-4,1.535813E-5,7.161975E-4,-7.5798034E-4,-1.7476641E-5,1.177775E-3,-1.9556284E-4,3.704357E-4,-5.471905E-4,-3.2228362E-4,2.550166E-4,-2.4891325E-4,1.3323534E-4,4.4674493E-4,-2.053231E-4,-1.0150969E-3,-1.924932E-5],"split_indices":[0,1,0,3,0,3,3,1,2,3,3,0,3,3,2,2,0,2,3,0,2,0,2,2,3,0,2,3,2,3,1,0,2,0,0,0,0,0,0,0,0,0,0,0,0,0,0,0,0,0,0,0,0,0,0,0,0],"split_type":[0,0,0,0,0,0,0,0,0,0,0,0,0,0,0,0,0,0,0,0,0,0,0,0,0,0,0,0,0,0,0,0,0,0,0,0,0,0,0,0,0,0,0,0,0,0,0,0,0,0,0,0,0,0,0,0,0],"sum_hessian":[6.96E2,6.93E2,3E0,5.36E2,1.57E2,3E1,5.06E2,7.7E1,8E1,2.4E1,6E0,1.7E1,4.89E2,1.4E1,6.3E1,2.7E1,5.3E1,1.1E1,1.3E1,2E0,4E0,1E0,1.6E1,6E0,4.83E2,7E0,7E0,2.6E1,3.7E1,1.6E1,1.1E1,2E0,5.1E1,1E1,1E0,5E0,8E0,3E0,1E0,1.4E1,2E0,2E0,4E0,4E0,4.79E2,6E0,1E0,2.4E1,2E0,2.2E1,1.5E1,6E0,1E1,1E1,1E0,2E0,4.9E1],"tree_param":{"num_deleted":"0","num_feature":"4","num_nodes":"57","size_leaf_vector":"1"}},{"base_weights":[3.3289664E-6,2.6790156E-5,-1.4206798E-4,-1.3448508E-5,3.3723097E-4,1.09542765E-4,-5.7145127E-4,-8.864145E-5,1.562761E-4,1.1705823E-3,4.2278032E-5,-1.686617E-4,8.5588766E-4,-1.3926923E-3,-4.6719677E-5,2.945463E-6,-5.714631E-4,7.941471E-4,3.5837827E-5,5.0667126E-4,1.6838014E-3,-8.09934E-4,4.096595E-4,1.8877359E-4,-4.5087247E-4,1.595825E-3,5.104244E-4,-1.799042E-3,3.4846863E-4,5.2198995E-4,-3.5729192E-4,-2.5141742E-5,8.662641E-4,-2.7609128E-3,-2.7150815E-4,1.0033823E-3,-1.1091828E-3,6.849293E-4,-1.340675E-4,8.1863254E-4,8.7584056E-5,-1.0121373E-3,4.9710274E-5,1.7561913E-3,1.4438294E-4,-1.4557208E-4,1.2877941E-3,-1.8235942E-3,-3.7196136E-5,5.0051647E-5,1.2693703E-3,1.5585124E-4,-2.0192645E-3,5.008221E-4,1.9751655E-4,3.5226144E-6,-3.7804016E-4,-2.576669E-3,-3.8663746E-4,-5.0773297E-4,-1.4498466E-5,2.271682E-5,6.8669685E-4,5.789414E-4,-1.6473532E-4,-1.2070514E-4,6.3907355E-4,3.6498904E-4,-1.0382798E-4,8.3376966E-5,-6.208203E-4,3.2538176E-4,-4.3836236E-4,1.1548474E-3,2.1639466E-4,-2.9055987E-4,3.356824E-4,-1.8206735E-4,1.579076E-4,8.199513E-4,-3.015995E-5,-1.8118322E-4,-1.0216832E-3,-1.9632776E-4,1.0587619E-4,-6.5876544E-4,1.592815E-4,9.810427E-4,2.1624565E-4,-1.129517E-3,9.460747E-5,-7.91351E-5,3.4090877E-4],"categories":[],"categories_nodes":[],"categories_segments":[],"categories_sizes":[],"default_left":[0,0,0,0,0,0,0,0,0,0,0,0,0,0,0,0,0,0,0,0,0,0,0,0,0,0,0,0,0,0,0,0,0,0,0,0,0,0,0,0,0,0,0,0,0,0,0,0,0,0,0,0,0,0,0,0,0,0,0,0,0,0,0,0,0,0,0,0,0,0,0,0,0,0,0,0,0,0,0,0,0,0,0,0,0,0,0,0,0,0,0,0,0],"id":16,"left_children":[1,3,5,7,9,11,13,15,17,19,21,23,25,27,29,31,33,35,37,39,-1,41,43,45,47,-1,49,51,-1,53,-1,55,-1,57,59,61,-1,63,65,-1,67,69,71,73,75,77,79,81,83,85,87,-1,89,-1,91,-1,-1,-1,-1,-1,-1,-1,-1,-1,-1,-1,-1,-1,-1,-1,-1,-1,-1,-1,-1,-1,-1,-1,-1,-1,-1,-1,-1,-1,-1,-1,-1,-1,-1,-1,-1,-1,-1],"loss_changes":[2.381402E-6,7.5120615E-6,1.05422305E-5,6.8160484E-6,1.6910672E-5,1.3017818E-5,1.5448453E-5,1.6363134E-5,1.2570689E-5,2.4549E-5,1.6612315E-5,4.725229E-6,1.2088544E-5,1.3141505E-5,9.108884E-6,1.5200253E-5,3.7997823E-5,1.8614277E-5,1.5421316E-5,6.963863E-6,0E0,2.8314807E-6,1.2962959E-5,7.903975E-6,1.4696592E-5,0E0,5.526834E-6,6.207403E-6,0E0,1.8254141E-6,0E0,7.25155E-6,0E0,2.930198E-5,9.532715E-6,8.798901E-6,0E0,1.4294644E-5,1.7135164E-5,0E0,2.4275093E-6,3.7243208E-6,2.7978876E-6,3.3954348E-6,1.2624599E-5,1.8293138E-6,2.4723304E-6,1.1863776E-6,1.9414583E-6,4.4590424E-6,2.6297284E-6,0E0,6.252234E-6,0E0,1.6586822E-6,0E0,0E0,0E0,0E0,0E0,0E0,0E0,0E0,0E0,0E0,0E0,0E0,0E0,0E0,0E0,0E0,0E0,0E0,0E0,0E0,0E0,0E0,0E0,0E0,0E0,0E0,0E0,0E0,0E0,0E0,0E0,0E0,0E0,0E0,0E0,0E0,0E0,0E0],"parents":[2147483647,0,0,1,1,2,2,3,3,4,4,5,5,6,6,7,7,8,8,9,9,10,10,11,11,12,12,13,13,14,14,15,15,16,16,17,17,18,18,19,19,21,21,22,22,23,23,24,24,26,26,27,27,29,29,31,31,33,33,34,34,35,35,37,37,38,38,40,40,41,41,42,42,43,43,44,44,45,45,46,46,47,47,48,48,49,49,50,50,52,52,54,54],"right_children":[2,4,6,8,10,12,14,16,18,20,22,24,26,28,30,32,34,36,38,40,-1,42,44,46,48,-1,50,52,-1,54,-1,56,-1,58,60,62,-1,64,66,-1,68,70,72,74,76,78,80,82,84,86,88,-1,90,-1,92,-1,-1,-1,-1,-1,-1,-1,-1,-1,-1,-1,-1,-1,-1,-1,-1,-1,-1,-1,-1,-1,-1,-1,-1,-1,-1,-1,-1,-1,-1,-1,-1,-1,-1,-1,-1,-1,-1],"split_conditions":[8.725E-1,7.875E-1,6.4192545E-1,7.1514136E-1,2.983359E-1,4.783421E-1,9.14E-1,5.838653E-1,7.667731E-1,2.4053167E-1,5.325933E-1,2.5886872E-1,4.877291E-1,4.515559E-1,9.53E-1,5.784433E-1,5.9612375E-1,6.97E-1,1.2943174E-1,8.06E-1,1.6838014E-3,8.455467E-3,5.860193E-1,2.3200797E-1,2.8425914E-1,1.595825E-3,5.9612375E-1,5.6369783E-4,3.4846863E-4,3.945885E-3,-3.5729192E-4,5.526913E-1,8.662641E-4,1.9414994E-1,6.159798E-1,1.36E-1,-1.1091828E-3,8.909152E-1,7.2E-1,8.1863254E-4,1.8168224E-1,2.8184892E-3,1.1273957E-2,8.49E-1,7.966661E-1,1.8168224E-1,9.675E-1,7.154188E-2,9.1E-1,6.47147E-2,6.197167E-1,1.5585124E-4,1.0146561E-2,5.008221E-4,9.305E-1,3.5226144E-6,-3.7804016E-4,-2.576669E-3,-3.8663746E-4,-5.0773297E-4,-1.4498466E-5,2.271682E-5,6.8669685E-4,5.789414E-4,-1.6473532E-4,-1.2070514E-4,6.3907355E-4,3.6498904E-4,-1.0382798E-4,8.3376966E-5,-6.208203E-4,3.2538176E-4,-4.3836236E-4,1.1548474E-3,2.1639466E-4,-2.9055987E-4,3.356824E-4,-1.8206735E-4,1.579076E-4,8.199513E-4,-3.015995E-5,-1.8118322E-4,-1.0216832E-3,-1.9632776E-4,1.0587619E-4,-6.5876544E-4,1.592815E-4,9.810427E-4,2.1624565E-4,-1.129517E-3,9.460747E-5,-7.91351E-5,3.4090877E-4],"split_indices":[2,2,3,3,3,3,2,3,3,3,3,0,3,0,2,3,3,2,0,2,0,1,3,0,0,0,3,1,0,1,0,3,0,0,3,2,0,3,2,0,0,1,1,2,3,0,2,3,2,0,3,0,1,0,2,0,0,0,0,0,0,0,0,0,0,0,0,0,0,0,0,0,0,0,0,0,0,0,0,0,0,0,0,0,0,0,0,0,0,0,0,0,0],"split_type":[0,0,0,0,0,0,0,0,0,0,0,0,0,0,0,0,0,0,0,0,0,0,0,0,0,0,0,0,0,0,0,0,0,0,0,0,0,0,0,0,0,0,0,0,0,0,0,0,0,0,0,0,0,0,0,0,0,0,0,0,0,0,0,0,0,0,0,0,0,0,0,0,0,0,0,0,0,0,0,0,0,0,0,0,0,0,0,0,0,0,0,0,0],"sum_hessian":[6.96E2,6E2,9.6E1,5.32E2,6.8E1,6.1E1,3.5E1,3.69E2,1.63E2,1.7E1,5.1E1,4.5E1,1.6E1,1.3E1,2.2E1,3.11E2,5.8E1,2.5E1,1.38E2,1.4E1,3E0,1.5E1,3.6E1,2E1,2.5E1,1E0,1.5E1,1.1E1,2E0,1.2E1,1E1,3.07E2,4E0,6E0,5.2E1,2.4E1,1E0,2.8E1,1.1E2,3E0,1.1E1,1.2E1,3E0,5E0,3.1E1,1.6E1,4E0,5E0,2E1,1E1,5E0,1E0,1E1,4E0,8E0,2.95E2,1.2E1,2E0,4E0,1.2E1,4E1,7E0,1.7E1,1.9E1,9E0,1.03E2,7E0,3E0,8E0,2E0,1E1,2E0,1E0,3E0,2E0,1.3E1,1.8E1,1.1E1,5E0,3E0,1E0,1E0,4E0,8E0,1.2E1,1E0,9E0,2E0,3E0,9E0,1E0,5E0,3E0],"tree_param":{"num_deleted":"0","num_feature":"4","num_nodes":"93","size_leaf_vector":"1"}},{"base_weights":[5.5530663E-6,-9.472589E-6,1.7771231E-4,-1.03741026E-4,2.5246372E-5,2.2983663E-4,-2.7868152E-4,-5.318104E-6,-6.600045E-4,6.2036514E-4,2.9065798E-6,1.5656526E-4,3.8885078E-4,-4.0171082E-5,8.463164E-4,3.7885705E-4,-1.4470934E-3,9.678324E-4,-6.618798E-4,-1.0712544E-3,1.7254151E-5,4.1389465E-4,-7.7094024E-5,2.527926E-4,-1.213421E-4,-3.290432E-4,5.7079893E-4,-1.0318203E-3,-4.0338436E-4,-4.541278E-4,1.3263271E-3,-2.1477223E-3,1.0777712E-3,6.93731E-4,4.9266046E-6,4.1968623E-4,1.2453728E-4,-1.933525E-4,4.393359E-4,5.660256E-5,7.822017E-4,1.708448E-4,-8.19398E-5,6.87182E-5,-4.9841404E-4,8.958839E-4,2.4234255E-4,-1.2147054E-3,-2.55242E-4,-5.5266995E-5,4.5133704E-5,1.04521005E-5,-2.2423267E-4],"categories":[],"categories_nodes":[],"categories_segments":[],"categories_sizes":[],"default_left":[0,0,0,0,0,0,0,0,0,0,0,0,0,0,0,0,0,0,0,0,0,0,0,0,0,0,0,0,0,0,0,0,0,0,0,0,0,0,0,0,0,0,0,0,0,0,0,0,0,0,0,0,0],"id":17,"left_children":[1,3,5,7,9,11,-1,13,15,17,19,21,-1,23,-1,25,27,29,-1,31,33,35,37,39,41,43,-1,-1,-1,-1,45,47,-1,-1,49,-1,-1,51,-1,-1,-1,-1,-1,-1,-1,-1,-1,-1,-1,-1,-1,-1,-1],"loss_changes":[1.8046868E-6,2.103822E-6,2.2737595E-6,9.468081E-6,6.2467666E-6,2.0058083E-6,0E0,8.826435E-6,2.1807828E-5,1.2765013E-5,7.015351E-6,2.9180242E-6,0E0,3.5025778E-6,0E0,6.854967E-6,4.2569736E-6,1.1293158E-5,0E0,2.5470761E-5,7.5773582E-6,1.4038615E-6,3.0589063E-6,5.6816043E-6,2.32106E-6,2.3175567E-6,0E0,0E0,0E0,0E0,4.2241045E-6,1.0657805E-6,0E0,0E0,4.4046383E-6,0E0,0E0,1.3212061E-6,0E0,0E0,0E0,0E0,0E0,0E0,0E0,0E0,0E0,0E0,0E0,0E0,0E0,0E0,0E0],"parents":[2147483647,0,0,1,1,2,2,3,3,4,4,5,5,7,7,8,8,9,9,10,10,11,11,13,13,15,15,16,16,17,17,19,19,20,20,21,21,22,22,23,23,24,24,25,25,30,30,31,31,34,34,37,37],"right_children":[2,4,6,8,10,12,-1,14,16,18,20,22,-1,24,-1,26,28,30,-1,32,34,36,38,40,42,44,-1,-1,-1,-1,46,48,-1,-1,50,-1,-1,52,-1,-1,-1,-1,-1,-1,-1,-1,-1,-1,-1,-1,-1,-1,-1],"split_conditions":[5.377012E-1,2.6942113E-1,9.8549414E-1,2.2699217E-1,2.928992E-1,9.0660596E-1,-2.7868152E-4,2.2570002E-1,4.5095826E-3,4.3972108E-1,2.983359E-1,3.3414298E-1,3.8885078E-4,1.6728936E-1,8.463164E-4,5.44E-1,2.7491435E-1,3.382187E-3,-6.618798E-4,7.89177E-3,3.04222E-1,3.382187E-3,5.811797E-1,1.5026626E-1,9.8E-2,5.22E-1,5.7079893E-4,-1.0318203E-3,-4.0338436E-4,-4.541278E-4,6.2006763E-3,5.6369784E-3,1.0777712E-3,6.93731E-4,2.5284278E-1,4.1968623E-4,1.2453728E-4,5.526913E-1,4.393359E-4,5.660256E-5,7.822017E-4,1.708448E-4,-8.19398E-5,6.87182E-5,-4.9841404E-4,8.958839E-4,2.4234255E-4,-1.2147054E-3,-2.55242E-4,-5.5266995E-5,4.5133704E-5,1.04521005E-5,-2.2423267E-4],"split_indices":[0,3,3,3,3,3,0,3,1,0,3,3,0,0,0,2,0,1,0,1,3,1,0,0,2,2,0,0,0,0,1,1,0,0,0,0,0,3,0,0,0,0,0,0,0,0,0,0,0,0,0,0,0],"split_type":[0,0,0,0,0,0,0,0,0,0,0,0,0,0,0,0,0,0,0,0,0,0,0,0,0,0,0,0,0,0,0,0,0,0,0,0,0,0,0,0,0,0,0,0,0,0,0,0,0,0,0,0,0],"sum_hessian":[6.96E2,6.41E2,5.5E1,1.72E2,4.69E2,5.2E1,3E0,1.47E2,2.5E1,1.6E1,4.53E2,4.7E1,5E0,1.45E2,2E0,1.1E1,1.4E1,1.4E1,2E0,5E0,4.48E2,2.2E1,2.5E1,3.1E1,1.14E2,6E0,5E0,6E0,8E0,2E0,1.2E1,4E0,1E0,3E0,4.45E2,5E0,1.7E1,2.3E1,2E0,2.9E1,2E0,9E0,1.05E2,4E0,2E0,7E0,5E0,3E0,1E0,1.89E2,2.56E2,1.3E1,1E1],"tree_param":{"num_deleted":"0","num_feature":"4","num_nodes":"53","size_leaf_vector":"1"}},{"base_weights":[5.1816705E-6,4.738673E-5,-5.2154868E-5,-2.7664097E-5,1.634631E-4,-9.725148E-4,-1.6574051E-5,1.5921603E-5,-8.0672593E-4,-2.8119006E-4,2.6139754E-4,-1.0993481E-4,-6.855939E-4,3.928741E-4,-3.438061E-5,-2.6697686E-5,5.956143E-4,1.7734915E-3,-1.465117E-3,2.3509264E-4,-2.8063655E-3,-4.1493028E-4,3.0326116E-4,6.8861246E-4,5.828142E-5,-4.9462255E-5,4.1686164E-4,3.504965E-5,-5.784035E-4,2.1936179E-3,-1.1985501E-4,-2.167523E-3,-8.1011927E-4,-7.546246E-5,1.2310942E-3,-1.7384067E-3,-3.1143427E-5,-7.785459E-4,2.2530556E-4,-1.6200237E-7,4.3891108E-4,-1.060835E-4,5.169958E-4,-3.5481018E-5,-4.7992915E-4,6.3216686E-4,-2.175967E-4,-7.0091087E-4,2.8487812E-5,-3.9460658E-4,5.098979E-4,1.5015801E-3,3.2643476E-4,4.9091503E-4,-9.292901E-4,8.550882E-5,-6.976E-4,2.640287E-4,-2.609069E-4,-3.1004348E-4,1.1558533E-3,7.57277E-5,-6.407052E-4,1.846513E-4,-2.500082E-4,4.3812665E-4,1.4085835E-4,-1.3048947E-4,4.3165684E-4,-3.6492325E-5,6.740292E-5,8.7328255E-5,-3.3403435E-4],"categories":[],"categories_nodes":[],"categories_segments":[],"categories_sizes":[],"default_left":[0,0,0,0,0,0,0,0,0,0,0,0,0,0,0,0,0,0,0,0,0,0,0,0,0,0,0,0,0,0,0,0,0,0,0,0,0,0,0,0,0,0,0,0,0,0,0,0,0,0,0,0,0,0,0,0,0,0,0,0,0,0,0,0,0,0,0,0,0,0,0,0,0],"id":18,"left_children":[1,3,5,7,9,11,13,15,17,19,21,-1,-1,23,25,27,29,-1,31,33,35,37,39,-1,41,43,45,47,49,51,53,-1,55,57,59,-1,-1,61,-1,63,65,-1,67,69,-1,-1,71,-1,-1,-1,-1,-1,-1,-1,-1,-1,-1,-1,-1,-1,-1,-1,-1,-1,-1,-1,-1,-1,-1,-1,-1,-1,-1],"loss_changes":[1.6891363E-6,3.5065962E-6,9.677041E-6,8.332054E-6,6.9539064E-6,2.9991697E-6,2.0986938E-6,5.772421E-6,4.24605E-5,3.8467184E-5,3.806591E-6,0E0,0E0,3.8720127E-6,1.8921248E-6,7.44674E-6,1.8556075E-5,0E0,1.9045656E-5,7.825735E-6,8.98225E-6,2.8686168E-6,5.0626695E-6,0E0,1.350275E-6,3.3644428E-6,5.114286E-6,6.2863164E-6,8.216986E-6,4.275831E-6,2.481114E-5,0E0,6.5530903E-6,5.663186E-6,1.3435914E-5,0E0,0E0,3.0000645E-6,0E0,7.387119E-6,5.596701E-6,0E0,1.303013E-6,1.695842E-6,0E0,0E0,1.1768773E-6,0E0,0E0,0E0,0E0,0E0,0E0,0E0,0E0,0E0,0E0,0E0,0E0,0E0,0E0,0E0,0E0,0E0,0E0,0E0,0E0,0E0,0E0,0E0,0E0,0E0,0E0],"parents":[2147483647,0,0,1,1,2,2,3,3,4,4,5,5,6,6,7,7,8,8,9,9,10,10,13,13,14,14,15,15,16,16,18,18,19,19,20,20,21,21,22,22,24,24,25,25,26,26,27,27,28,28,29,29,30,30,32,32,33,33,34,34,37,37,39,39,40,40,42,42,43,43,46,46],"right_children":[2,4,6,8,10,12,14,16,18,20,22,-1,-1,24,26,28,30,-1,32,34,36,38,40,-1,42,44,46,48,50,52,54,-1,56,58,60,-1,-1,62,-1,64,66,-1,68,70,-1,-1,72,-1,-1,-1,-1,-1,-1,-1,-1,-1,-1,-1,-1,-1,-1,-1,-1,-1,-1,-1,-1,-1,-1,-1,-1,-1,-1],"split_conditions":[3.420588E-1,7.328072E-3,3.4897828E-1,6.764374E-3,1.615E-1,6.59E-1,5.6369783E-4,6.2006763E-3,1.615E-1,1.525E-1,6.47147E-2,-1.0993481E-4,-6.855939E-4,2.74E-1,9.8042804E-1,5.6369784E-3,1.02571554E-1,1.7734915E-3,2.26E-1,1.19E-1,1.9414994E-1,9.019165E-3,2.9598737E-1,6.8861246E-4,8.48E-1,9.689796E-1,9.8549414E-1,4.45E-2,8.1E-1,5.585E-1,5.10129E-1,-2.167523E-3,3.2586747E-1,5.5E-2,3.5567868E-1,-1.7384067E-3,-3.1143427E-5,4.71E-1,2.2530556E-4,1.5382852E-1,4.8950985E-1,-1.060835E-4,3.7069824E-1,5.377012E-1,-4.7992915E-4,6.3216686E-4,5.4587454E-1,-7.0091087E-4,2.8487812E-5,-3.9460658E-4,5.098979E-4,1.5015801E-3,3.2643476E-4,4.9091503E-4,-9.292901E-4,8.550882E-5,-6.976E-4,2.640287E-4,-2.609069E-4,-3.1004348E-4,1.1558533E-3,7.57277E-5,-6.407052E-4,1.846513E-4,-2.500082E-4,4.3812665E-4,1.4085835E-4,-1.3048947E-4,4.3165684E-4,-3.6492325E-5,6.740292E-5,8.7328255E-5,-3.3403435E-4],"split_indices":[0,1,0,1,2,2,1,1,2,2,0,0,0,2,3,1,0,0,2,2,0,1,3,0,2,3,3,2,2,2,3,0,3,2,3,0,0,2,0,3,3,0,0,0,0,0,0,0,0,0,0,0,0,0,0,0,0,0,0,0,0,0,0,0,0,0,0,0,0,0,0,0,0],"split_type":[0,0,0,0,0,0,0,0,0,0,0,0,0,0,0,0,0,0,0,0,0,0,0,0,0,0,0,0,0,0,0,0,0,0,0,0,0,0,0,0,0,0,0,0,0,0,0,0,0,0,0,0,0,0,0,0,0,0,0,0,0,0,0,0,0,0,0,0,0,0,0,0,0],"sum_hessian":[6.96E2,4.01E2,2.95E2,2.44E2,1.57E2,1E1,2.85E2,2.32E2,1.2E1,2.8E1,1.29E2,4E0,6E0,1.1E1,2.74E2,2.17E2,1.5E1,1E0,1.1E1,2.4E1,4E0,7E0,1.22E2,2E0,9E0,2.66E2,8E0,1.96E2,2.1E1,4E0,1.1E1,1E0,1E1,1.9E1,5E0,3E0,1E0,5E0,2E0,3.8E1,8.4E1,6E0,3E0,2.63E2,3E0,3E0,5E0,2E0,1.94E2,1.9E1,2E0,2E0,2E0,7E0,4E0,4E0,6E0,8E0,1.1E1,2E0,3E0,2E0,3E0,2.2E1,1.6E1,2.1E1,6.3E1,1E0,2E0,2.16E2,4.7E1,3E0,2E0],"tree_param":{"num_deleted":"0","num_feature":"4","num_nodes":"73","size_leaf_vector":"1"}},{"base_weights":[1.2982182E-6,3.264865E-5,-5.024491E-5,6.6124608E-6,1.0332573E-3,-3.2511115E-4,1.391117E-5,1.5820291E-5,-9.6416473E-4,4.864335E-4,1.1646549E-3,-7.7114196E-4,1.5176534E-4,-3.3072403E-4,8.047648E-5,-1.542239E-5,3.311195E-4,-7.3599815E-4,1.398325E-4,5.5054825E-4,1.5351603E-4,6.4698133E-6,-1.2575537E-3,-1.0141272E-4,4.946819E-4,-1.1900237E-3,-1.11902584E-4,2.9054284E-4,-1.00401594E-4,1.4605055E-5,-9.4749033E-4,-2.2728575E-4,4.8760374E-4,-7.527471E-5,3.0455986E-4,5.2659214E-4,-5.1769614E-4,1.0634959E-4,-1.3697505E-3,6.798953E-4,-4.3196976E-4,-8.379221E-4,4.312247E-4,5.6406856E-4,-1.9648032E-4,-1.466319E-3,3.737145E-4,-1.0981526E-5,-3.2355957E-4,1.7800301E-5,-3.0998886E-4,-6.387261E-4,6.7052245E-4,6.653582E-5,-4.9617887E-4,2.9824994E-4,-3.4564734E-4,-7.3322654E-4,2.1482507E-5,-7.696947E-5,-7.7247847E-4,5.388771E-4,5.1205356E-5,-2.1488137E-4,1.0155819E-4,-1.6750892E-4,-1.2150556E-3,3.3585072E-4,-5.178433E-5,-4.183696E-5,3.32794E-4,-3.540774E-4,5.5809105E-5],"categories":[],"categories_nodes":[],"categories_segments":[],"categories_sizes":[],"default_left":[0,0,0,0,0,0,0,0,0,0,0,0,0,0,0,0,0,0,0,0,0,0,0,0,0,0,0,0,0,0,0,0,0,0,0,0,0,0,0,0,0,0,0,0,0,0,0,0,0,0,0,0,0,0,0,0,0,0,0,0,0,0,0,0,0,0,0,0,0,0,0,0,0],"id":19,"left_children":[1,3,5,7,9,11,13,15,17,19,-1,21,23,25,27,29,31,-1,-1,-1,33,35,37,-1,39,41,43,45,47,49,51,53,55,-1,-1,-1,57,-1,59,61,-1,-1,-1,-1,63,65,67,69,71,-1,-1,-1,-1,-1,-1,-1,-1,-1,-1,-1,-1,-1,-1,-1,-1,-1,-1,-1,-1,-1,-1,-1,-1],"loss_changes":[1.1279222E-6,1.1299752E-5,4.659989E-6,3.805284E-6,6.6627817E-6,1.0752114E-5,4.958876E-6,4.1522903E-6,2.9382895E-6,1.6726524E-6,0E0,9.8423625E-6,3.14021E-6,6.4479964E-6,6.9065186E-6,1.0761085E-5,3.431327E-6,0E0,0E0,0E0,1.061436E-6,6.580402E-6,2.9306684E-6,0E0,3.8586427E-6,8.425265E-6,3.2631697E-6,1.2822158E-5,1.952017E-6,4.9917044E-6,1.0774671E-5,2.6133487E-6,4.263681E-6,0E0,0E0,0E0,4.3184555E-6,0E0,2.957444E-6,2.6467146E-6,0E0,0E0,0E0,0E0,2.6974205E-6,3.5472258E-6,1.1589724E-5,3.547576E-6,4.765328E-6,0E0,0E0,0E0,0E0,0E0,0E0,0E0,0E0,0E0,0E0,0E0,0E0,0E0,0E0,0E0,0E0,0E0,0E0,0E0,0E0,0E0,0E0,0E0,0E0],"parents":[2147483647,0,0,1,1,2,2,3,3,4,4,5,5,6,6,7,7,8,8,9,9,11,11,12,12,13,13,14,14,15,15,16,16,20,20,21,21,22,22,24,24,25,25,26,26,27,27,28,28,29,29,30,30,31,31,32,32,36,36,38,38,39,39,44,44,45,45,46,46,47,47,48,48],"right_children":[2,4,6,8,10,12,14,16,18,20,-1,22,24,26,28,30,32,-1,-1,-1,34,36,38,-1,40,42,44,46,48,50,52,54,56,-1,-1,-1,58,-1,60,62,-1,-1,-1,-1,64,66,68,70,72,-1,-1,-1,-1,-1,-1,-1,-1,-1,-1,-1,-1,-1,-1,-1,-1,-1,-1,-1,-1,-1,-1,-1,-1],"split_conditions":[6.26E-1,6.145E-1,1.2943174E-1,6.125E-1,8.455467E-3,8.52E-1,6.88E-1,5.71E-1,2.797036E-1,6.175E-1,1.1646549E-3,4.5095826E-3,5.9223235E-1,2.4640095E-1,8.42E-1,5.555E-1,1.8168224E-1,-7.3599815E-4,1.398325E-4,5.5054825E-4,2.9275316E-1,6.785E-1,6.47147E-2,-1.0141272E-4,9.66418E-1,7.84435E-1,5.6369783E-4,1.1273957E-3,7.0875424E-1,9.718313E-1,9.3044156E-1,5.95E-1,9.140011E-1,-7.527471E-5,3.0455986E-4,5.2659214E-4,2.2547913E-3,1.0634959E-4,2.1901205E-1,9.25E-1,-4.3196976E-4,-8.379221E-4,4.312247E-4,5.6406856E-4,5.890316E-1,7.806757E-2,4.0435272E-1,6.5924245E-1,3.8830703E-1,1.7800301E-5,-3.0998886E-4,-6.387261E-4,6.7052245E-4,6.653582E-5,-4.9617887E-4,2.9824994E-4,-3.4564734E-4,-7.3322654E-4,2.1482507E-5,-7.696947E-5,-7.7247847E-4,5.388771E-4,5.1205356E-5,-2.1488137E-4,1.0155819E-4,-1.6750892E-4,-1.2150556E-3,3.3585072E-4,-5.178433E-5,-4.183696E-5,3.32794E-4,-3.540774E-4,5.5809105E-5],"split_indices":[2,2,0,2,1,2,2,2,0,2,0,1,3,0,2,2,0,0,0,0,0,2,0,0,3,3,1,1,3,3,3,2,3,0,0,0,1,0,3,2,0,0,0,0,3,3,0,3,0,0,0,0,0,0,0,0,0,0,0,0,0,0,0,0,0,0,0,0,0,0,0,0,0],"split_type":[0,0,0,0,0,0,0,0,0,0,0,0,0,0,0,0,0,0,0,0,0,0,0,0,0,0,0,0,0,0,0,0,0,0,0,0,0,0,0,0,0,0,0,0,0,0,0,0,0,0,0,0,0,0,0,0,0,0,0,0,0,0,0,0,0,0,0,0,0,0,0,0,0],"sum_hessian":[6.96E2,4.33E2,2.63E2,4.23E2,1E1,4.9E1,2.14E2,4.2E2,3E0,8E0,2E0,2.5E1,2.4E1,3.4E1,1.8E2,3.83E2,3.7E1,2E0,1E0,2E0,6E0,1E1,1.5E1,1.2E1,1.2E1,6E0,2.8E1,8.3E1,9.7E1,3.72E2,1.1E1,8E0,2.9E1,4E0,2E0,3E0,7E0,1E0,1.4E1,1.1E1,1E0,5E0,1E0,1E0,2.7E1,3E0,8E1,7E1,2.7E1,3.61E2,1.1E1,1E1,1E0,6E0,2E0,2.7E1,2E0,2E0,5E0,2E0,1.2E1,6E0,5E0,1.7E1,1E1,2E0,1E0,4.9E1,3.1E1,6.4E1,6E0,1.4E1,1.3E1],"tree_param":{"num_deleted":"0","num_feature":"4","num_nodes":"73","size_leaf_vector":"1"}}]},"name":"gbtree"},"learner_model_param":{"base_score":"8.32414E-1","boost_from_average":"1","num_class":"0","num_feature":"4","num_target":"1"},"objective":{"name":"reg:squarederror","reg_loss_param":{"scale_pos_weight":"1"}}},"version":[2,1,1]}