{"learner":{"attributes":{},"feature_names":[],"feature_types":[],"gradient_booster":{"model":{"gbtree_model_param":{"num_parallel_tree":"1","num_trees":"50"},"iteration_indptr":[0,1,2,3,4,5,6,7,8,9,10,11,12,13,14,15,16,17,18,19,20,21,22,23,24,25,26,27,28,29,30,31,32,33,34,35,36,37,38,39,40,41,42,43,44,45,46,47,48,49,50],"tree_info":[0,0,0,0,0,0,0,0,0,0,0,0,0,0,0,0,0,0,0,0,0,0,0,0,0,0,0,0,0,0,0,0,0,0,0,0,0,0,0,0,0,0,0,0,0,0,0,0,0,0],"trees":[{"base_weights":[-2.9782104E-8,1.17738016E-1,-1.087522E-1,1.268224E-1,1.4837015E-2,-4.5263644E-2,-1.1743181E-1,6.409488E-2,7.370059E-2,1.0398816E-1,-1.04922265E-1,1.1651305E-1,-1.00803345E-1,-5.6086782E-2,-1.2014648E-1,6.1276488E-2,-5.3247668E-2,6.293521E-2,1.9738289E-2,-5.7144735E-2,-5.9253044E-2,6.258098E-2,5.762327E-2,-4.2359356E-2,-1.1650023E-1,1.0464782E-1,-1.1326103E-1,-1.0545417E-1,-6.0802333E-2,5.6127317E-2,-7.524534E-2,4.4062383E-2,-5.476903E-2,8.324216E-2,-3.042724E-2,8.3277516E-2,-5.7811756E-2,2.1940172E-3,-5.9369657E-2,5.8800045E-2,5.2632816E-2,-5.975747E-2,-5.929411E-2,7.985041E-2,-6.032531E-2,1.0970086E-3,-5.0712068E-2,5.1316403E-2,1.1588514E-2,4.9637407E-2,1.0970086E-3,3.2072753E-2,-3.042724E-2,-3.042724E-2,4.810913E-2,-4.8683584E-2,3.2072753E-2,4.949513E-2,1.0970086E-3],"categories":[],"categories_nodes":[],"categories_segments":[],"categories_sizes":[],"default_left":[0,0,0,0,0,0,0,0,0,0,0,0,0,0,0,0,0,0,0,0,0,0,0,0,0,0,0,0,0,0,0,0,0,0,0,0,0,0,0,0,0,0,0,0,0,0,0,0,0,0,0,0,0,0,0,0,0,0,0],"id":0,"left_children":[1,3,5,7,9,11,13,-1,15,17,19,21,23,25,27,-1,-1,-1,29,31,-1,-1,33,35,37,39,41,43,-1,-1,45,-1,-1,47,-1,49,-1,51,-1,-1,53,55,-1,57,-1,-1,-1,-1,-1,-1,-1,-1,-1,-1,-1,-1,-1,-1,-1],"loss_changes":[3.775979E1,1.3217831E0,8.3945465E-1,8.50544E-2,1.2494051E0,1.6829603E0,2.1774483E-1,0E0,3.2115638E-1,1.2103528E-1,2.5678158E-2,1.7235696E-2,1.225822E-1,5.5405545E-1,1.4814377E-2,0E0,0E0,0E0,1.4025971E-1,1.0859801E-1,0E0,0E0,2.9347805E-2,2.9497388E-1,2.9229045E-2,4.5897663E-3,5.4544806E-3,3.5881448E-1,0E0,0E0,1.6440678E-2,0E0,0E0,5.7741925E-3,0E0,1.5347585E-2,0E0,1.56213865E-2,0E0,0E0,3.0587286E-2,3.420539E-2,0E0,1.464612E-2,0E0,0E0,0E0,0E0,0E0,0E0,0E0,0E0,0E0,0E0,0E0,0E0,0E0,0E0,0E0],"parents":[2147483647,0,0,1,1,2,2,3,3,4,4,5,5,6,6,8,8,9,9,10,10,11,11,12,12,13,13,14,14,18,18,19,19,22,22,23,23,24,24,25,25,26,26,27,27,30,30,33,33,35,35,37,37,40,40,41,41,43,43],"right_children":[2,4,6,8,10,12,14,-1,16,18,20,22,24,26,28,-1,-1,-1,30,32,-1,-1,34,36,38,40,42,44,-1,-1,46,-1,-1,48,-1,50,-1,52,-1,-1,54,56,-1,58,-1,-1,-1,-1,-1,-1,-1,-1,-1,-1,-1,-1,-1,-1,-1],"split_conditions":[6.540053E-4,3.9258902E-4,1.2464325E-1,3.329625E-4,6.0675395E-1,3.2857445E-3,9.620713E-4,6.409488E-2,7.195285E-1,5.0812465E-1,6.609128E-1,2.480778E-3,2.377464E-2,3.252198E-1,1.7129029E-3,6.1276488E-2,-5.3247668E-2,6.293521E-2,4.942456E-4,4.2847023E-4,-5.9253044E-2,6.258098E-2,1.0667481E-1,3.352094E-2,3.4856254E-3,2.832368E-1,3.8509598E-1,2.5472838E-1,-6.0802333E-2,5.6127317E-2,5.2460825E-1,4.4062383E-2,-5.476903E-2,6.16714E-2,-3.042724E-2,2.2433443E-2,-5.7811756E-2,5.9076574E-2,-5.9369657E-2,5.8800045E-2,3.0437276E-1,3.7491846E-1,-5.929411E-2,2.4049272E-1,-6.032531E-2,1.0970086E-3,-5.0712068E-2,5.1316403E-2,1.1588514E-2,4.9637407E-2,1.0970086E-3,3.2072753E-2,-3.042724E-2,-3.042724E-2,4.810913E-2,-4.8683584E-2,3.2072753E-2,4.949513E-2,1.0970086E-3],"split_indices":[1,1,0,1,0,1,1,0,0,0,0,1,0,0,1,0,0,0,1,1,0,0,0,1,1,0,0,0,0,0,0,0,0,0,0,1,0,0,0,0,0,0,0,0,0,0,0,0,0,0,0,0,0,0,0,0,0,0,0],"split_type":[0,0,0,0,0,0,0,0,0,0,0,0,0,0,0,0,0,0,0,0,0,0,0,0,0,0,0,0,0,0,0,0,0,0,0,0,0,0,0,0,0,0,0,0,0,0,0,0,0,0,0,0,0,0,0,0,0,0,0],"sum_hessian":[2.947E3,1.415E3,1.532E3,1.3E3,1.15E2,1.85E2,1.347E3,1.266E3,3.4E1,6.6E1,4.9E1,4.7E1,1.38E2,5.8E1,1.289E3,2.7E1,7E0,5.2E1,1.4E1,1.2E1,3.7E1,4E1,7E0,3E1,1.08E2,1.5E1,4.3E1,1.23E2,1.166E3,7E0,7E0,3E0,9E0,6E0,1E0,1.1E1,1.9E1,2E0,1.06E2,1.1E1,4E0,5E0,3.8E1,9E0,1.14E2,2E0,5E0,4E0,2E0,9E0,2E0,1E0,1E0,1E0,3E0,4E0,1E0,7E0,2E0],"tree_param":{"num_deleted":"0","num_feature":"2","num_nodes":"59","size_leaf_vector":"1"}},{"base_weights":[1.0802593E-5,6.0401786E-2,-5.317795E-2,3.207272E-2,1.8631253E-2,-2.1092817E-2,-5.8233432E-2,4.7744814E-2,-3.089863E-2,5.7988033E-2,-5.351766E-2,-1.880169E-2,-5.9920162E-2,3.308061E-2,1.177603E-2,3.2394465E-2,2.3685135E-2,-2.4743386E-2,-6.004758E-2,5.002313E-2,-3.174612E-2,-4.8751783E-2,-3.0336207E-2,3.1853832E-2,-3.0517578E-2,3.4483593E-2,-3.3091452E-2,4.2885967E-2,-3.035118E-2,-2.5427524E-2,-3.0796219E-2,3.321481E-2,3.0326205E-3,5.8016196E-2,-3.090748E-2,-5.615961E-3,-2.5603503E-2,3.277232E-2,6.539814E-3,3.3425927E-2,-2.5974698E-2,2.6059113E-2,-2.340557E-2,3.5171855E-2,2.9020458E-3],"categories":[],"categories_nodes":[],"categories_segments":[],"categories_sizes":[],"default_left":[0,0,0,0,0,0,0,0,0,0,0,0,0,0,0,0,0,0,0,0,0,0,0,0,0,0,0,0,0,0,0,0,0,0,0,0,0,0,0,0,0,0,0,0,0],"id":1,"left_children":[1,3,5,-1,7,9,11,13,-1,15,17,19,21,-1,23,-1,25,27,29,31,-1,33,-1,-1,-1,-1,35,37,-1,39,-1,-1,41,43,-1,-1,-1,-1,-1,-1,-1,-1,-1,-1,-1],"loss_changes":[9.472546E0,2.1475792E-1,2.5310993E-1,0E0,2.7222994E-1,5.5440295E-1,8.892918E-2,5.5526227E-2,0E0,1.3162762E-2,2.7261972E-2,1.7849773E-1,7.947445E-3,0E0,1.1732452E-1,0E0,3.313375E-2,7.555975E-2,5.065739E-3,1.753039E-2,0E0,1.24927714E-1,0E0,0E0,0E0,0E0,1.8008323E-3,6.571794E-3,0E0,2.0604866E-2,0E0,0E0,1.9565994E-2,6.0281716E-3,0E0,0E0,0E0,0E0,0E0,0E0,0E0,0E0,0E0,0E0,0E0],"parents":[2147483647,0,0,1,1,2,2,4,4,5,5,6,6,7,7,9,9,10,10,11,11,12,12,14,14,16,16,17,17,18,18,19,19,21,21,26,26,27,27,29,29,32,32,33,33],"right_children":[2,4,6,-1,8,10,12,14,-1,16,18,20,22,-1,24,-1,26,28,30,32,-1,34,-1,-1,-1,-1,36,38,-1,40,-1,-1,42,44,-1,-1,-1,-1,-1,-1,-1,-1,-1,-1,-1],"split_conditions":[5.4377894E-4,3.329625E-4,1.3933206E-1,3.207272E-2,7.195285E-1,3.9966097E-3,8.12174E-4,5.686476E-1,-3.089863E-2,2.480778E-3,2.377464E-2,4.9398682E-1,1.27839E-3,3.308061E-2,4.487661E-4,3.2394465E-2,6.16714E-2,3.352094E-2,4.9946653E-3,7.885435E-4,-3.174612E-2,2.832368E-1,-3.0336207E-2,3.1853832E-2,-3.0517578E-2,3.4483593E-2,1.0667481E-1,9.355093E-3,-3.035118E-2,5.514121E-2,-3.0796219E-2,3.321481E-2,2.2774397E-1,1.2174789E-3,-3.090748E-2,-5.615961E-3,-2.5603503E-2,3.277232E-2,6.539814E-3,3.3425927E-2,-2.5974698E-2,2.6059113E-2,-2.340557E-2,3.5171855E-2,2.9020458E-3],"split_indices":[1,1,0,0,0,1,1,0,0,1,0,0,1,0,1,0,0,1,1,1,0,0,0,0,0,0,0,1,0,0,0,0,0,1,0,0,0,0,0,0,0,0,0,0,0],"split_type":[0,0,0,0,0,0,0,0,0,0,0,0,0,0,0,0,0,0,0,0,0,0,0,0,0,0,0,0,0,0,0,0,0,0,0,0,0,0,0,0,0,0,0,0,0],"sum_hessian":[2.947E3,1.38E3,1.567E3,1.266E3,1.14E2,2.14E2,1.353E3,8.4E1,3E1,6.2E1,1.52E2,5.6E1,1.297E3,5.5E1,2.9E1,5.1E1,1.1E1,2.9E1,1.23E2,2.2E1,3.4E1,8.6E1,1.211E3,1.7E1,1.2E1,6E0,5E0,1E1,1.9E1,6E0,1.17E2,1.6E1,6E0,9E0,7.7E1,3E0,2E0,5E0,5E0,1E0,5E0,3E0,3E0,7E0,2E0],"tree_param":{"num_deleted":"0","num_feature":"2","num_nodes":"45","size_leaf_vector":"1"}},{"base_weights":[1.8225353E-5,3.0226663E-2,-2.6587559E-2,1.6049016E-2,9.346203E-3,-7.919863E-3,-2.8792208E-2,2.9526263E-2,-2.1565763E-2,3.162619E-2,-2.5579128E-2,-1.1842249E-2,-3.0084953E-2,1.6835654E-2,1.2083015E-2,-2.0430796E-4,-1.594768E-2,1.6942633E-2,8.65905E-3,-5.357702E-3,-2.9992731E-2,3.3864588E-2,-2.732298E-2,-2.5469314E-2,-1.5294149E-2,1.8573547E-2,-1.585214E-2,2.5972387E-2,-1.4813775E-2,1.854945E-2,-3.21471E-2,4.3480113E-2,-1.5523678E-2,4.003197E-3,-3.153105E-2,1.8391758E-2,2.0686988E-2,-1.1435048E-2,-1.602828E-2,3.6359582E-2,-3.1294335E-2,1.5068854E-2,3.7979186E-3,-2.6938766E-3,-2.1416448E-2,2.3548868E-2,4.5391917E-3,3.0163541E-2,-1.2579773E-2,-1.0735267E-2,-1.6393725E-2,-1.5093572E-2,1.70986E-2,1.5979161E-2,-1.6960545E-2,2.5785573E-2,-3.478162E-3,-2.3415733E-2,-1.5257822E-2],"categories":[],"categories_nodes":[],"categories_segments":[],"categories_sizes":[],"default_left":[0,0,0,0,0,0,0,0,0,0,0,0,0,0,0,0,0,0,0,0,0,0,0,0,0,0,0,0,0,0,0,0,0,0,0,0,0,0,0,0,0,0,0,0,0,0,0,0,0,0,0,0,0,0,0,0,0,0,0],"id":2,"left_children":[1,3,5,-1,7,9,11,13,15,17,19,21,23,-1,25,27,-1,-1,29,31,33,35,37,39,-1,-1,-1,41,-1,-1,43,45,-1,47,49,-1,51,53,-1,55,57,-1,-1,-1,-1,-1,-1,-1,-1,-1,-1,-1,-1,-1,-1,-1,-1,-1,-1],"loss_changes":[2.3701677E0,5.366254E-2,6.430411E-2,0E0,7.237437E-2,1.1743413E-1,3.0364275E-2,4.6543553E-3,1.0143625E-2,2.4045818E-3,1.0192238E-2,7.239037E-2,2.245903E-3,0E0,1.7640047E-2,1.309275E-2,0E0,0E0,8.155746E-3,2.8951727E-2,5.0944015E-3,2.3913756E-4,5.349148E-3,4.9398564E-2,0E0,0E0,0E0,4.5997696E-4,0E0,0E0,6.2706205E-4,5.680481E-4,0E0,9.730597E-3,4.4628233E-4,0E0,5.8435583E-3,1.9623218E-2,0E0,8.265577E-3,5.90384E-5,0E0,0E0,0E0,0E0,0E0,0E0,0E0,0E0,0E0,0E0,0E0,0E0,0E0,0E0,0E0,0E0,0E0,0E0],"parents":[2147483647,0,0,1,1,2,2,4,4,5,5,6,6,7,7,8,8,9,9,10,10,11,11,12,12,14,14,15,15,18,18,19,19,20,20,21,21,22,22,23,23,27,27,30,30,31,31,33,33,34,34,36,36,37,37,39,39,40,40],"right_children":[2,4,6,-1,8,10,12,14,16,18,20,22,24,-1,26,28,-1,-1,30,32,34,36,38,40,-1,-1,-1,42,-1,-1,44,46,-1,48,50,-1,52,54,-1,56,58,-1,-1,-1,-1,-1,-1,-1,-1,-1,-1,-1,-1,-1,-1,-1,-1,-1,-1],"split_conditions":[5.4377894E-4,3.329625E-4,1.1118018E-1,1.6049016E-2,6.482698E-1,3.9966097E-3,1.0132709E-3,5.686476E-1,7.195285E-1,2.9676065E-3,1.204211E-2,3.252198E-1,1.88206E-3,1.6835654E-2,4.487661E-4,4.2847023E-4,-1.594768E-2,1.6942633E-2,5.9076574E-2,5.514121E-2,3.1299829E-3,2.832368E-1,4.9398682E-1,2.4049272E-1,-1.5294149E-2,1.8573547E-2,-1.585214E-2,3.694889E-4,-1.4813775E-2,1.854945E-2,3.2857445E-3,9.355093E-3,-1.5523678E-2,3.352094E-2,2.2433443E-2,1.8391758E-2,3.0437276E-1,7.885435E-4,-1.602828E-2,1.7129029E-3,2.5706792E-1,1.5068854E-2,3.7979186E-3,-2.6938766E-3,-2.1416448E-2,2.3548868E-2,4.5391917E-3,3.0163541E-2,-1.2579773E-2,-1.0735267E-2,-1.6393725E-2,-1.5093572E-2,1.70986E-2,1.5979161E-2,-1.6960545E-2,2.5785573E-2,-3.478162E-3,-2.3415733E-2,-1.5257822E-2],"split_indices":[1,1,0,0,0,1,1,0,0,1,1,0,1,0,1,1,0,0,0,0,0,0,0,0,0,0,0,1,0,0,1,1,0,1,1,0,0,1,0,1,0,0,0,0,0,0,0,0,0,0,0,0,0,0,0,0,0,0,0],"split_type":[0,0,0,0,0,0,0,0,0,0,0,0,0,0,0,0,0,0,0,0,0,0,0,0,0,0,0,0,0,0,0,0,0,0,0,0,0,0,0,0,0,0,0,0,0,0,0,0,0,0,0,0,0,0,0,0,0,0,0],"sum_hessian":[2.947E3,1.38E3,1.567E3,1.266E3,1.14E2,1.66E2,1.401E3,6.9E1,4.5E1,5.1E1,1.15E2,1E2,1.301E3,5.5E1,1.4E1,1.5E1,3E1,4.6E1,5E0,2.1E1,9.4E1,2.5E1,7.5E1,1.33E2,1.168E3,9E0,5E0,8E0,7E0,3E0,2E0,7E0,1.4E1,4E0,9E1,1.9E1,6E0,1.8E1,5.7E1,1.1E1,1.22E2,6E0,2E0,1E0,1E0,6E0,1E0,1E0,3E0,1.2E1,7.8E1,1E0,5E0,6E0,1.2E1,8E0,3E0,3E0,1.19E2],"tree_param":{"num_deleted":"0","num_feature":"2","num_nodes":"59","size_leaf_vector":"1"}},{"base_weights":[1.244156E-5,1.5251532E-2,-1.3209577E-2,8.0308365E-3,5.235197E-3,-3.532874E-3,-1.4366903E-2,1.6218359E-2,-1.0722737E-2,1.6835107E-2,-1.240348E-2,-5.8748038E-3,-1.5066804E-2,1.7426135E-2,9.733778E-3,1.5117042E-4,-8.276721E-3,1.7191311E-2,5.286654E-3,-1.6725576E-3,-1.5096843E-2,1.7716788E-2,-1.3107024E-2,-1.1552751E-2,-1.5263113E-2,7.843092E-3,2.6122084E-2,1.0142939E-2,-8.220945E-3,1.5082519E-2,-8.332746E-3,7.951103E-3,1.2806403E-2,5.985394E-3,-2.0204037E-3,2.7081436E-2,-1.9539269E-2,5.518371E-3,-1.6063647E-2,1.5480245E-2,1.8407583E-2,-2.8770755E-3,-1.647134E-2,3.860544E-2,-7.90429E-3,-1.2748815E-2,-7.677215E-3,8.798073E-3,1.931943E-2,8.610785E-3,2.5319457E-3,9.431265E-3,1.9985685E-2,-1.6062342E-2,-8.2792975E-3,2.262266E-2,-7.862348E-3,-4.0621185E-3,-8.264249E-3,9.075567E-3,1.9986208E-3,8.707589E-3,-9.132594E-3,-1.5085121E-2,-7.7638007E-3,8.117445E-3,2.7782181E-2,1.0723159E-2,-7.7225785E-3],"categories":[],"categories_nodes":[],"categories_segments":[],"categories_sizes":[],"default_left":[0,0,0,0,0,0,0,0,0,0,0,0,0,0,0,0,0,0,0,0,0,0,0,0,0,0,0,0,0,0,0,0,0,0,0,0,0,0,0,0,0,0,0,0,0,0,0,0,0,0,0,0,0,0,0,0,0,0,0,0,0,0,0,0,0,0,0,0,0],"id":3,"left_children":[1,3,5,-1,7,9,11,13,15,17,19,21,23,25,27,29,-1,31,33,35,37,39,41,43,45,-1,47,-1,-1,49,-1,-1,-1,-1,-1,51,53,55,57,59,-1,61,63,65,-1,67,-1,-1,-1,-1,-1,-1,-1,-1,-1,-1,-1,-1,-1,-1,-1,-1,-1,-1,-1,-1,-1,-1,-1],"loss_changes":[5.9419847E-1,1.1032969E-2,1.7632633E-2,0E0,1.8401837E-2,3.0923786E-2,8.292019E-3,3.159549E-4,2.7288124E-3,1.2302399E-4,3.4141224E-3,1.8829752E-2,7.2181225E-4,3.6190264E-4,3.6480376E-3,4.268885E-3,0E0,1.355093E-4,2.3540965E-4,1.3372635E-2,1.982078E-3,5.4066535E-4,2.8436203E-3,1.6193222E-2,8.666515E-5,0E0,6.712554E-5,0E0,0E0,1.05665065E-4,0E0,0E0,0E0,0E0,0E0,3.0545052E-4,6.826827E-5,4.93108E-3,2.0156614E-4,6.941911E-4,0E0,7.1877996E-3,3.460031E-4,1.3742018E-3,0E0,4.8491275E-3,0E0,0E0,0E0,0E0,0E0,0E0,0E0,0E0,0E0,0E0,0E0,0E0,0E0,0E0,0E0,0E0,0E0,0E0,0E0,0E0,0E0,0E0,0E0],"parents":[2147483647,0,0,1,1,2,2,4,4,5,5,6,6,7,7,8,8,9,9,10,10,11,11,12,12,13,13,14,14,15,15,17,17,18,18,19,19,20,20,21,21,22,22,23,23,24,24,26,26,29,29,35,35,36,36,37,37,38,38,39,39,41,41,42,42,43,43,45,45],"right_children":[2,4,6,-1,8,10,12,14,16,18,20,22,24,26,28,30,-1,32,34,36,38,40,42,44,46,-1,48,-1,-1,50,-1,-1,-1,-1,-1,52,54,56,58,60,-1,62,64,66,-1,68,-1,-1,-1,-1,-1,-1,-1,-1,-1,-1,-1,-1,-1,-1,-1,-1,-1,-1,-1,-1,-1,-1,-1],"split_conditions":[5.115632E-4,3.329625E-4,1.1118018E-1,8.0308365E-3,6.482698E-1,3.2857445E-3,1.0132709E-3,5.861103E-1,7.195285E-1,2.9676065E-3,1.204211E-2,3.252198E-1,1.5884471E-1,5.217572E-1,4.487661E-4,4.2847023E-4,-8.276721E-3,2.480778E-3,3.1475388E-2,5.9076574E-2,3.1299829E-3,9.620713E-4,4.9398682E-1,1.88206E-3,1.27839E-3,7.843092E-3,4.942456E-4,1.0142939E-2,-8.220945E-3,3.694889E-4,-8.332746E-3,7.951103E-3,1.2806403E-2,5.985394E-3,-2.0204037E-3,2.377464E-2,3.4856254E-3,3.352094E-2,1.1656123E-2,9.1559906E-4,1.8407583E-2,7.885435E-4,5.1006854E-1,1.3933206E-1,-7.90429E-3,2.4049272E-1,-7.677215E-3,8.798073E-3,1.931943E-2,8.610785E-3,2.5319457E-3,9.431265E-3,1.9985685E-2,-1.6062342E-2,-8.2792975E-3,2.262266E-2,-7.862348E-3,-4.0621185E-3,-8.264249E-3,9.075567E-3,1.9986208E-3,8.707589E-3,-9.132594E-3,-1.5085121E-2,-7.7638007E-3,8.117445E-3,2.7782181E-2,1.0723159E-2,-7.7225785E-3],"split_indices":[1,1,0,0,0,1,1,0,0,1,1,0,0,0,1,1,0,1,0,0,0,1,0,1,1,0,1,0,0,1,0,0,0,0,0,0,1,1,0,1,0,1,0,0,0,0,0,0,0,0,0,0,0,0,0,0,0,0,0,0,0,0,0,0,0,0,0,0,0],"split_type":[0,0,0,0,0,0,0,0,0,0,0,0,0,0,0,0,0,0,0,0,0,0,0,0,0,0,0,0,0,0,0,0,0,0,0,0,0,0,0,0,0,0,0,0,0,0,0,0,0,0,0,0,0,0,0,0,0,0,0,0,0,0,0,0,0,0,0,0,0],"sum_hessian":[2.947E3,1.369E3,1.578E3,1.266E3,1.03E2,1.69E2,1.409E3,6.1E1,4.2E1,5.1E1,1.18E2,1.08E2,1.301E3,5E1,1.1E1,1.5E1,2.7E1,4.9E1,2E0,2.4E1,9.4E1,2.5E1,8.3E1,7.2E1,1.229E3,4.4E1,6E0,8E0,3E0,8E0,7E0,4.5E1,4E0,1E0,1E0,9E0,1.5E1,4E0,9E1,2.4E1,1E0,2.1E1,6.2E1,5E0,6.7E1,4.8E1,1.181E3,5E0,1E0,6E0,2E0,7E0,2E0,1E0,1.4E1,1E0,3E0,6E0,8.4E1,1.9E1,5E0,9E0,1.2E1,2E0,6E1,3E0,2E0,3E0,4.5E1],"tree_param":{"num_deleted":"0","num_feature":"2","num_nodes":"69","size_leaf_vector":"1"}},{"base_weights":[4.0884843E-5,7.6552937E-3,-6.5656896E-3,4.0185894E-3,2.9292917E-3,-2.440688E-3,-7.3287785E-3,8.720203E-3,-5.4885177E-3,8.119992E-3,-6.6393823E-3,-3.5963117E-3,-7.6353764E-3,9.41819E-3,5.027073E-3,2.512019E-4,-8.572339E-3,1.0499899E-2,2.696711E-3,1.6816625E-3,-7.251034E-3,1.0167442E-2,-6.830583E-3,-6.313192E-3,-7.6837284E-3,4.0086983E-3,1.7077837E-2,1.1269947E-2,-5.1380806E-3,8.77934E-3,-4.687177E-3,-5.835479E-3,-3.491853E-3,4.2911316E-3,1.8521449E-2,1.0407206E-2,-1.0453748E-2,2.5324905E-2,-5.8201617E-3,-4.272512E-3,-8.323438E-3,7.79611E-3,1.3805687E-2,-1.4116064E-3,-8.730677E-3,1.3403937E-2,-7.8904815E-3,-9.324747E-3,-3.807545E-3,5.1322132E-3,1.4489576E-2,2.416581E-3,6.841406E-3,4.9204486E-3,1.6879638E-3,4.1962736E-3,9.653106E-3,-1.0619946E-2,-3.2252464E-3,4.3003955E-3,1.6803691E-2,9.787679E-3,-4.9041286E-3,-1.16866855E-2,-3.7366203E-3,5.235875E-3,-2.4277382E-3,4.7891764E-3,-4.5803743E-3,-1.4986627E-2,-3.945537E-3,9.846285E-3,2.3717682E-3,-8.286841E-3,-3.6646088E-3,-1.274468E-2,-3.957269E-3],"categories":[],"categories_nodes":[],"categories_segments":[],"categories_sizes":[],"default_left":[0,0,0,0,0,0,0,0,0,0,0,0,0,0,0,0,0,0,0,0,0,0,0,0,0,0,0,0,0,0,0,0,0,0,0,0,0,0,0,0,0,0,0,0,0,0,0,0,0,0,0,0,0,0,0,0,0,0,0,0,0,0,0,0,0,0,0,0,0,0,0,0,0,0,0,0,0],"id":4,"left_children":[1,3,5,-1,7,9,11,13,15,17,19,21,23,25,27,29,31,33,35,37,39,41,43,45,47,-1,49,51,-1,53,-1,-1,-1,-1,-1,55,57,59,-1,61,63,65,-1,67,69,71,73,75,-1,-1,-1,-1,-1,-1,-1,-1,-1,-1,-1,-1,-1,-1,-1,-1,-1,-1,-1,-1,-1,-1,-1,-1,-1,-1,-1,-1,-1],"loss_changes":[1.4834987E-1,2.4490282E-3,4.952401E-3,0E0,5.1175267E-3,1.1050496E-2,1.4968291E-3,1.1247536E-4,7.6326483E-4,8.8807475E-4,9.181397E-4,4.654567E-3,3.0122697E-5,4.102895E-4,1.2622457E-3,1.3957097E-3,5.6325458E-5,2.1761782E-3,2.4409145E-3,4.3894644E-3,4.94672E-4,6.120459E-4,8.5258763E-4,1.629645E-3,6.213039E-5,0E0,2.701655E-4,7.364864E-5,0E0,1.840212E-5,0E0,0E0,0E0,0E0,0E0,1.068986E-4,2.5160937E-4,4.0353555E-4,0E0,6.264724E-3,1.3735732E-3,6.94016E-4,0E0,2.0464882E-3,8.692704E-4,1.2443593E-4,1.0271231E-4,7.7846996E-4,0E0,0E0,0E0,0E0,0E0,0E0,0E0,0E0,0E0,0E0,0E0,0E0,0E0,0E0,0E0,0E0,0E0,0E0,0E0,0E0,0E0,0E0,0E0,0E0,0E0,0E0,0E0,0E0,0E0],"parents":[2147483647,0,0,1,1,2,2,4,4,5,5,6,6,7,7,8,8,9,9,10,10,11,11,12,12,13,13,14,14,15,15,16,16,17,17,18,18,19,19,20,20,21,21,22,22,23,23,24,24,26,26,27,27,29,29,35,35,36,36,37,37,39,39,40,40,41,41,43,43,44,44,45,45,46,46,47,47],"right_children":[2,4,6,-1,8,10,12,14,16,18,20,22,24,26,28,30,32,34,36,38,40,42,44,46,48,-1,50,52,-1,54,-1,-1,-1,-1,-1,56,58,60,-1,62,64,66,-1,68,70,72,74,76,-1,-1,-1,-1,-1,-1,-1,-1,-1,-1,-1,-1,-1,-1,-1,-1,-1,-1,-1,-1,-1,-1,-1,-1,-1,-1,-1,-1,-1],"split_conditions":[5.115632E-4,3.329625E-4,1.5884471E-1,4.0185894E-3,6.482698E-1,3.2857445E-3,1.0132709E-3,5.861103E-1,7.195285E-1,1.9864566E-3,1.1656123E-2,3.252198E-1,1.27839E-3,5.217572E-1,4.487661E-4,4.2847023E-4,3.9258902E-4,1.3933206E-1,1.0667481E-1,3.352094E-2,1.5930196E-2,9.620713E-4,4.976491E-1,2.4049272E-1,1.5362175E-3,4.0086983E-3,4.942456E-4,3.9258902E-4,-5.1380806E-3,3.694889E-4,-4.687177E-3,-5.835479E-3,-3.491853E-3,4.2911316E-3,1.8521449E-2,1.0153955E-1,1.161355E-1,7.991934E-3,-5.8201617E-3,5.9076574E-2,1.62848E-2,9.1559906E-4,1.3805687E-2,7.885435E-4,5.1006854E-1,2.1315745E-1,2.5706792E-1,2.4463025E-1,-3.807545E-3,5.1322132E-3,1.4489576E-2,2.416581E-3,6.841406E-3,4.9204486E-3,1.6879638E-3,4.1962736E-3,9.653106E-3,-1.0619946E-2,-3.2252464E-3,4.3003955E-3,1.6803691E-2,9.787679E-3,-4.9041286E-3,-1.16866855E-2,-3.7366203E-3,5.235875E-3,-2.4277382E-3,4.7891764E-3,-4.5803743E-3,-1.4986627E-2,-3.945537E-3,9.846285E-3,2.3717682E-3,-8.286841E-3,-3.6646088E-3,-1.274468E-2,-3.957269E-3],"split_indices":[1,1,0,0,0,1,1,0,0,1,0,0,1,0,1,1,1,0,0,1,1,1,0,0,1,0,1,1,0,1,0,0,0,0,0,0,0,1,0,0,0,1,0,1,0,0,0,0,0,0,0,0,0,0,0,0,0,0,0,0,0,0,0,0,0,0,0,0,0,0,0,0,0,0,0,0,0],"split_type":[0,0,0,0,0,0,0,0,0,0,0,0,0,0,0,0,0,0,0,0,0,0,0,0,0,0,0,0,0,0,0,0,0,0,0,0,0,0,0,0,0,0,0,0,0,0,0,0,0,0,0,0,0,0,0,0,0,0,0,0,0,0,0,0,0,0,0,0,0,0,0,0,0,0,0,0,0],"sum_hessian":[2.947E3,1.369E3,1.578E3,1.266E3,1.03E2,2.47E2,1.331E3,6.1E1,4.2E1,7E1,1.77E2,1.02E2,1.229E3,5E1,1.1E1,1.5E1,2.7E1,4.8E1,2.2E1,1.2E1,1.65E2,1.9E1,8.3E1,4.8E1,1.181E3,4.4E1,6E0,8E0,3E0,8E0,7E0,7E0,2E1,4.6E1,2E0,1.4E1,8E0,4E0,8E0,4.5E1,1.2E2,1.8E1,1E0,2.2E1,6.1E1,3E0,4.5E1,4.2E1,1.139E3,5E0,1E0,3E0,5E0,6E0,2E0,1.3E1,1E0,1E0,7E0,2E0,2E0,8E0,3.7E1,5E0,1.15E2,1.5E1,3E0,9E0,1.3E1,1E0,6E1,1E0,2E0,1E0,4.4E1,2E0,4E1],"tree_param":{"num_deleted":"0","num_feature":"2","num_nodes":"77","size_leaf_vector":"1"}},{"base_weights":[3.046699E-5,3.845416E-3,-3.279546E-3,2.010873E-3,1.6602658E-3,-1.1092109E-3,-3.6811705E-3,4.8076794E-3,-2.916476E-3,4.584139E-3,-3.2420207E-3,-1.8186361E-3,-3.8341458E-3,4.413808E-3,9.415358E-3,2.4569593E-4,-4.6192715E-3,5.715527E-3,1.5830323E-3,3.5415988E-3,-3.5761858E-3,8.214802E-3,-3.359186E-3,-3.1511523E-3,-3.8592156E-3,4.8217005E-3,-2.4037063E-3,1.0069013E-3,5.605638E-3,2.56198E-3,-2.6365314E-3,-3.2824595E-3,-1.8290536E-3,4.382447E-3,1.2347639E-2,6.800065E-3,-7.0925243E-3,1.7066464E-2,-3.0326222E-3,-1.9189484E-3,-4.1972133E-3,3.7161112E-3,9.26625E-3,-1.1212893E-2,-2.8929794E-3,9.756476E-3,-4.2050513E-3,-5.415189E-3,-1.906302E-3,2.0488845E-3,3.4783585E-3,1.8833883E-3,3.4564957E-3,1.8780231E-3,5.4596425E-3,-7.964961E-3,-1.7771678E-3,1.2766078E-2,2.8669238E-3,5.581835E-3,-2.5708147E-3,-3.9570197E-3,-1.685302E-3,-2.1082163E-4,2.6602373E-3,4.011085E-3,-1.8190963E-3,7.3847175E-3,1.5811721E-3,-6.215133E-3,-1.8730203E-3,-1.2158044E-2,-2.0105464E-3],"categories":[],"categories_nodes":[],"categories_segments":[],"categories_sizes":[],"default_left":[0,0,0,0,0,0,0,0,0,0,0,0,0,0,0,0,0,0,0,0,0,0,0,0,0,0,0,0,0,0,0,0,0,0,0,0,0,0,0,0,0,0,0,0,0,0,0,0,0,0,0,0,0,0,0,0,0,0,0,0,0,0,0,0,0,0,0,0,0,0,0,0,0],"id":5,"left_children":[1,3,5,-1,7,9,11,13,15,17,19,21,23,25,27,29,31,33,35,37,39,41,43,45,47,49,-1,-1,-1,-1,-1,-1,-1,51,-1,53,55,57,-1,59,61,63,-1,-1,65,67,69,71,-1,-1,-1,-1,-1,-1,-1,-1,-1,-1,-1,-1,-1,-1,-1,-1,-1,-1,-1,-1,-1,-1,-1,-1,-1],"loss_changes":[3.723857E-2,5.211942E-4,1.3722684E-3,0E0,1.5121311E-3,3.0262847E-3,3.7254393E-4,7.096189E-5,2.3266973E-4,2.2184034E-4,4.2296492E-4,1.6196672E-3,8.897856E-6,2.4509442E-4,3.0593015E-5,4.5777034E-4,2.8347305E-5,1.1315494E-3,9.534429E-4,1.2728935E-3,1.699957E-4,5.80957E-4,7.351304E-4,7.0759E-4,6.5082684E-5,5.959242E-5,0E0,0E0,0E0,0E0,0E0,0E0,0E0,4.71854E-5,0E0,1.2199336E-4,1.9352676E-4,2.3735629E-4,0E0,2.1232935E-3,3.5737036E-4,7.526642E-5,0E0,0E0,7.5312227E-4,8.5518404E-5,1.2710696E-4,7.4541225E-4,0E0,0E0,0E0,0E0,0E0,0E0,0E0,0E0,0E0,0E0,0E0,0E0,0E0,0E0,0E0,0E0,0E0,0E0,0E0,0E0,0E0,0E0,0E0,0E0,0E0],"parents":[2147483647,0,0,1,1,2,2,4,4,5,5,6,6,7,7,8,8,9,9,10,10,11,11,12,12,13,13,14,14,15,15,16,16,17,17,18,18,19,19,20,20,21,21,22,22,23,23,24,24,25,25,33,33,35,35,36,36,37,37,39,39,40,40,41,41,44,44,45,45,46,46,47,47],"right_children":[2,4,6,-1,8,10,12,14,16,18,20,22,24,26,28,30,32,34,36,38,40,42,44,46,48,50,-1,-1,-1,-1,-1,-1,-1,52,-1,54,56,58,-1,60,62,64,-1,-1,66,68,70,72,-1,-1,-1,-1,-1,-1,-1,-1,-1,-1,-1,-1,-1,-1,-1,-1,-1,-1,-1,-1,-1,-1,-1,-1,-1],"split_conditions":[5.115632E-4,3.329625E-4,1.5884471E-1,2.010873E-3,6.482698E-1,2.9676065E-3,1.0132709E-3,6.287273E-1,7.195285E-1,1.9864566E-3,8.528629E-3,2.832368E-1,1.27839E-3,6.206947E-1,3.5229197E-4,4.2847023E-4,3.9258902E-4,1.3933206E-1,1.0667481E-1,3.352094E-2,1.5930196E-2,9.1559906E-4,3.0437276E-1,2.4049272E-1,1.4723158E-3,5.217572E-1,-2.4037063E-3,1.0069013E-3,5.605638E-3,2.56198E-3,-2.6365314E-3,-3.2824595E-3,-1.8290536E-3,1.1929772E-1,1.2347639E-2,2.480778E-3,1.161355E-1,3.1299829E-3,-3.0326222E-3,5.9076574E-2,3.352094E-2,6.540053E-4,9.26625E-3,-1.1212893E-2,3.252198E-1,2.1315745E-1,2.5706792E-1,2.4463025E-1,-1.906302E-3,2.0488845E-3,3.4783585E-3,1.8833883E-3,3.4564957E-3,1.8780231E-3,5.4596425E-3,-7.964961E-3,-1.7771678E-3,1.2766078E-2,2.8669238E-3,5.581835E-3,-2.5708147E-3,-3.9570197E-3,-1.685302E-3,-2.1082163E-4,2.6602373E-3,4.011085E-3,-1.8190963E-3,7.3847175E-3,1.5811721E-3,-6.215133E-3,-1.8730203E-3,-1.2158044E-2,-2.0105464E-3],"split_indices":[1,1,0,0,0,1,1,0,0,1,0,0,1,0,1,1,1,0,0,1,1,1,0,0,1,0,0,0,0,0,0,0,0,0,0,1,0,0,0,0,1,1,0,0,0,0,0,0,0,0,0,0,0,0,0,0,0,0,0,0,0,0,0,0,0,0,0,0,0,0,0,0,0],"split_type":[0,0,0,0,0,0,0,0,0,0,0,0,0,0,0,0,0,0,0,0,0,0,0,0,0,0,0,0,0,0,0,0,0,0,0,0,0,0,0,0,0,0,0,0,0,0,0,0,0,0,0,0,0,0,0,0,0,0,0,0,0,0,0,0,0,0,0,0,0,0,0,0,0],"sum_hessian":[2.947E3,1.369E3,1.578E3,1.266E3,1.03E2,2.47E2,1.331E3,6.1E1,4.2E1,6.7E1,1.8E2,1.02E2,1.229E3,5.8E1,3E0,1.5E1,2.7E1,4.8E1,1.9E1,8E0,1.72E2,1.3E1,8.9E1,4.8E1,1.181E3,5.6E1,2E0,1E0,2E0,8E0,7E0,7E0,2E1,4.6E1,2E0,1.2E1,7E0,3E0,5E0,4.8E1,1.24E2,1E1,3E0,1E0,8.8E1,3E0,4.5E1,3.1E1,1.15E3,4.4E1,1.2E1,3.9E1,7E0,8E0,4E0,1E0,6E0,1E0,2E0,9E0,3.9E1,2.1E1,1.03E2,3E0,7E0,5E0,8.3E1,1E0,2E0,1E0,4.4E1,1E0,3E1],"tree_param":{"num_deleted":"0","num_feature":"2","num_nodes":"73","size_leaf_vector":"1"}},{"base_weights":[2.1780897E-5,1.9274883E-3,-1.6316965E-3,2.0063657E-3,6.4749556E-4,-4.5278633E-4,-1.8499683E-3,1.0105725E-3,1.6156372E-3,2.9462504E-3,-1.6670518E-3,3.063984E-3,-1.4014397E-3,-8.831557E-4,-1.929425E-3,9.86469E-4,-1.5826039E-3,1.779202E-3,8.360599E-3,-2.573058E-4,-3.4540992E-3,2.1179318E-3,1.0121738E-2,5.1089586E-3,-1.5636821E-3,2.0869877E-3,-2.880944E-3,-2.306579E-3,-9.417623E-4,1.3703789E-3,7.428753E-4,3.088971E-3,9.997591E-3,4.526712E-3,-2.4934728E-3,-3.0155438E-3,-8.3150715E-4,1.6328649E-3,4.3391585E-3,1.2619996E-2,-5.923882E-4,9.574562E-3,-1.5941821E-3,-3.1245666E-4,-2.5339643E-3,4.895076E-3,-4.4556675E-4,-1.07852E-2,-2.2209464E-3,-4.567077E-3,-2.1271356E-3,-7.7590346E-5,1.8844188E-3,4.370153E-4,3.980443E-3,-2.0292029E-3,-9.3412184E-4,1.0161357E-3,-2.987172E-4,9.846134E-4,5.23217E-3,2.2849042E-3,8.231759E-3,2.1876253E-3,-1.0094411E-3,-1.4705926E-2,-8.74682E-4,1.2046974E-3,5.9351204E-3,3.8026704E-3,-2.6232034E-3,-2.378486E-3,-6.452844E-4,2.8038502E-3,-1.212133E-3],"categories":[],"categories_nodes":[],"categories_segments":[],"categories_sizes":[],"default_left":[0,0,0,0,0,0,0,0,0,0,0,0,0,0,0,0,0,0,0,0,0,0,0,0,0,0,0,0,0,0,0,0,0,0,0,0,0,0,0,0,0,0,0,0,0,0,0,0,0,0,0,0,0,0,0,0,0,0,0,0,0,0,0,0,0,0,0,0,0,0,0,0,0,0,0],"id":6,"left_children":[1,3,5,7,9,11,13,-1,15,17,19,21,23,25,27,-1,-1,29,31,33,35,37,39,41,43,45,47,49,-1,-1,-1,51,-1,53,55,-1,-1,57,59,61,-1,-1,-1,63,65,67,69,-1,71,-1,73,-1,-1,-1,-1,-1,-1,-1,-1,-1,-1,-1,-1,-1,-1,-1,-1,-1,-1,-1,-1,-1,-1,-1,-1],"loss_changes":[9.292422E-3,1.3701944E-4,4.0547503E-4,4.1839667E-6,4.358783E-4,8.316706E-4,1.0062009E-4,0E0,9.507117E-5,2.4419583E-4,1.0240184E-4,3.3244403E-4,2.1501625E-4,6.171854E-4,1.6948674E-5,0E0,0E0,5.803864E-6,3.6756782E-4,2.6803592E-4,7.3051095E-5,4.4632063E-5,1.8443144E-4,6.435333E-4,2.323043E-4,3.008698E-4,7.16863E-4,1.3861642E-4,0E0,0E0,0E0,1.381839E-5,0E0,9.339348E-5,9.051415E-6,0E0,0E0,3.7736783E-5,9.552343E-5,7.947028E-5,0E0,0E0,0E0,6.8876706E-4,2.226095E-3,3.1816066E-4,9.2887646E-4,0E0,1.3778795E-4,0E0,3.0547293E-4,0E0,0E0,0E0,0E0,0E0,0E0,0E0,0E0,0E0,0E0,0E0,0E0,0E0,0E0,0E0,0E0,0E0,0E0,0E0,0E0,0E0,0E0,0E0,0E0],"parents":[2147483647,0,0,1,1,2,2,3,3,4,4,5,5,6,6,8,8,9,9,10,10,11,11,12,12,13,13,14,14,17,17,18,18,19,19,20,20,21,21,22,22,23,23,24,24,25,25,26,26,27,27,31,31,33,33,34,34,37,37,38,38,39,39,43,43,44,44,45,45,46,46,48,48,50,50],"right_children":[2,4,6,8,10,12,14,-1,16,18,20,22,24,26,28,-1,-1,30,32,34,36,38,40,42,44,46,48,50,-1,-1,-1,52,-1,54,56,-1,-1,58,60,62,-1,-1,-1,64,66,68,70,-1,72,-1,74,-1,-1,-1,-1,-1,-1,-1,-1,-1,-1,-1,-1,-1,-1,-1,-1,-1,-1,-1,-1,-1,-1,-1,-1],"split_conditions":[5.115632E-4,3.694889E-4,1.5884471E-1,9.546131E-1,5.861103E-1,2.1372298E-3,1.0132709E-3,1.0105725E-3,2.6173543E-4,5.0812465E-1,4.487661E-4,1.3200727E-1,3.1299829E-3,4.976491E-1,1.88206E-3,9.86469E-4,-1.5826039E-3,3.9258902E-4,4.942456E-4,6.609128E-1,6.609128E-1,1.7909863E-3,1.7129029E-3,3.352094E-2,3.168237E-2,7.885435E-4,5.1006854E-1,1.8554036E-1,-9.417623E-4,1.3703789E-3,7.428753E-4,5.2460825E-1,9.997591E-3,6.0675395E-1,3.9258902E-4,-3.0155438E-3,-8.3150715E-4,1.1118018E-1,1.0667481E-1,1.3933206E-1,-5.923882E-4,9.574562E-3,-1.5941821E-3,5.514121E-2,3.352094E-2,6.9257733E-4,2.832368E-1,-1.07852E-2,6.3789034E-1,-4.567077E-3,2.4049272E-1,-7.7590346E-5,1.8844188E-3,4.370153E-4,3.980443E-3,-2.0292029E-3,-9.3412184E-4,1.0161357E-3,-2.987172E-4,9.846134E-4,5.23217E-3,2.2849042E-3,8.231759E-3,2.1876253E-3,-1.0094411E-3,-1.4705926E-2,-8.74682E-4,1.2046974E-3,5.9351204E-3,3.8026704E-3,-2.6232034E-3,-2.378486E-3,-6.452844E-4,2.8038502E-3,-1.212133E-3],"split_indices":[1,1,0,0,0,1,1,0,1,0,1,0,0,0,1,0,0,1,1,0,0,1,1,1,1,1,0,0,0,0,0,0,0,0,1,0,0,0,0,0,0,0,0,0,1,1,0,0,0,0,0,0,0,0,0,0,0,0,0,0,0,0,0,0,0,0,0,0,0,0,0,0,0,0,0],"split_type":[0,0,0,0,0,0,0,0,0,0,0,0,0,0,0,0,0,0,0,0,0,0,0,0,0,0,0,0,0,0,0,0,0,0,0,0,0,0,0,0,0,0,0,0,0,0,0,0,0,0,0,0,0,0,0,0,0,0,0,0,0,0,0,0,0,0,0,0,0,0,0,0,0,0,0],"sum_hessian":[2.947E3,1.369E3,1.578E3,1.289E3,8E1,2.47E2,1.331E3,1.238E3,5.1E1,4E1,4E1,5.2E1,1.95E2,1.02E2,1.229E3,4.8E1,3E0,3.4E1,6E0,2.3E1,1.7E1,4.7E1,5E0,4E0,1.91E2,4.1E1,6.1E1,1.28E2,1.101E3,6E0,2.8E1,5E0,1E0,7E0,1.6E1,6E0,1.1E1,4E1,7E0,4E0,1E0,1E0,3E0,8.4E1,1.07E2,1.9E1,2.2E1,1E0,6E1,2E0,1.26E2,1E0,4E0,4E0,3E0,3E0,1.3E1,3.4E1,6E0,6E0,1E0,2E0,2E0,2.2E1,6.2E1,2E0,1.05E2,1.5E1,4E0,8E0,1.4E1,1.5E1,4.5E1,4E0,1.22E2],"tree_param":{"num_deleted":"0","num_feature":"2","num_nodes":"75","size_leaf_vector":"1"}},{"base_weights":[1.5275853E-5,9.724379E-4,-8.1520376E-4,1.0034812E-3,4.6603841E-4,3.6049634E-3,-8.3153526E-4,1.0233381E-3,8.675568E-4,1.812599E-3,-8.9188904E-4,9.866893E-3,-9.963624E-4,-2.7711768E-4,-9.320547E-4,5.012668E-4,1.0880671E-3,5.021898E-4,-1.5312334E-3,9.4999926E-4,5.866655E-3,-2.9327348E-3,-6.2091276E-4,2.1924078E-4,7.180929E-3,1.8687913E-3,-8.5685804E-4,-2.1226937E-3,-8.982883E-4,7.830773E-4,3.8425677E-4,1.8456379E-3,7.49819E-3,1.4999906E-3,-1.1980133E-3,1.210375E-3,6.71492E-3,-2.6820335E-3,-5.4193824E-4,7.4506656E-4,-3.7759957E-3,1.9456843E-3,-9.443534E-4,-5.8189034E-5,1.1306584E-3,-6.869435E-5,2.4102728E-3,-1.2682527E-3,-4.8604145E-4,4.164271E-4,1.4733411E-3,4.2066695E-3,-4.4429302E-4,7.6379016E-4,-2.5527866E-3,4.282544E-4,-4.232172E-4,-1.1364818E-3,1.3371507E-3,-5.251907E-3,-6.618061E-4,3.26143E-3,-1.6002158E-4,-2.3753259E-4,-4.9083465E-4],"categories":[],"categories_nodes":[],"categories_segments":[],"categories_sizes":[],"default_left":[0,0,0,0,0,0,0,0,0,0,0,0,0,0,0,0,0,0,0,0,0,0,0,0,0,0,0,0,0,0,0,0,0,0,0,0,0,0,0,0,0,0,0,0,0,0,0,0,0,0,0,0,0,0,0,0,0,0,0,0,0,0,0,0,0],"id":7,"left_children":[1,3,5,7,9,11,13,15,17,19,21,23,-1,25,27,-1,-1,-1,-1,29,31,-1,33,-1,-1,35,37,39,41,-1,-1,43,-1,45,47,49,51,53,55,57,59,61,63,-1,-1,-1,-1,-1,-1,-1,-1,-1,-1,-1,-1,-1,-1,-1,-1,-1,-1,-1,-1,-1,-1],"loss_changes":[2.3441683E-3,2.106931E-5,1.169825E-4,2.5937334E-6,1.4972771E-4,2.2997597E-4,8.746039E-5,2.4679583E-5,9.502546E-5,1.3780482E-4,5.161466E-5,1.2084373E-4,0E0,3.0391032E-4,5.1644514E-5,0E0,0E0,0E0,0E0,2.7102033E-6,2.2929757E-4,0E0,5.075599E-5,0E0,0E0,1.5779247E-4,1.08905006E-4,1.7349924E-4,1.7175463E-4,0E0,0E0,5.1565803E-6,0E0,4.9595365E-5,7.2113035E-6,2.8353978E-5,8.495961E-5,2.9345986E-4,7.098556E-5,8.7593435E-5,3.655784E-4,2.1987088E-4,2.1896325E-5,0E0,0E0,0E0,0E0,0E0,0E0,0E0,0E0,0E0,0E0,0E0,0E0,0E0,0E0,0E0,0E0,0E0,0E0,0E0,0E0,0E0,0E0],"parents":[2147483647,0,0,1,1,2,2,3,3,4,4,5,5,6,6,7,7,8,8,9,9,10,10,11,11,13,13,14,14,19,19,20,20,22,22,25,25,26,26,27,27,28,28,31,31,33,33,34,34,35,35,36,36,37,37,38,38,39,39,40,40,41,41,42,42],"right_children":[2,4,6,8,10,12,14,16,18,20,22,24,-1,26,28,-1,-1,-1,-1,30,32,-1,34,-1,-1,36,38,40,42,-1,-1,44,-1,46,48,50,52,54,56,58,60,62,64,-1,-1,-1,-1,-1,-1,-1,-1,-1,-1,-1,-1,-1,-1,-1,-1,-1,-1,-1,-1,-1,-1],"split_conditions":[5.115632E-4,3.694889E-4,3.1299829E-3,8.6653936E-1,5.861103E-1,3.352094E-2,1.5884471E-1,3.329625E-4,3.0046722E-4,5.0812465E-1,5.893855E-1,6.540053E-4,-9.963624E-4,2.1372298E-3,6.540053E-4,5.012668E-4,1.0880671E-3,5.021898E-4,-1.5312334E-3,3.9258902E-4,4.942456E-4,-2.9327348E-3,6.482698E-1,2.1924078E-4,7.180929E-3,1.3200727E-1,2.377464E-2,4.9398682E-1,7.885435E-4,7.830773E-4,3.8425677E-4,5.2460825E-1,7.49819E-3,6.287273E-1,3.9258902E-4,1.7909863E-3,1.7129029E-3,2.2433443E-2,5.514121E-2,3.1812224E-1,5.861103E-1,3.8509598E-1,1.27839E-3,-5.8189034E-5,1.1306584E-3,-6.869435E-5,2.4102728E-3,-1.2682527E-3,-4.8604145E-4,4.164271E-4,1.4733411E-3,4.2066695E-3,-4.4429302E-4,7.6379016E-4,-2.5527866E-3,4.282544E-4,-4.232172E-4,-1.1364818E-3,1.3371507E-3,-5.251907E-3,-6.618061E-4,3.26143E-3,-1.6002158E-4,-2.3753259E-4,-4.9083465E-4],"split_indices":[1,1,0,0,0,1,0,1,1,0,0,1,0,1,1,0,0,0,0,1,1,0,0,0,0,0,0,0,1,0,0,0,0,0,1,1,1,1,0,0,0,0,1,0,0,0,0,0,0,0,0,0,0,0,0,0,0,0,0,0,0,0,0,0,0],"split_type":[0,0,0,0,0,0,0,0,0,0,0,0,0,0,0,0,0,0,0,0,0,0,0,0,0,0,0,0,0,0,0,0,0,0,0,0,0,0,0,0,0,0,0,0,0,0,0,0,0,0,0,0,0,0,0,0,0,0,0,0,0,0,0,0,0],"sum_hessian":[2.947E3,1.369E3,1.578E3,1.289E3,8E1,5E0,1.573E3,1.119E3,1.7E2,4E1,4E1,2E0,3E0,2.42E2,1.331E3,1.101E3,1.8E1,1.65E2,5E0,3.4E1,6E0,1E0,3.9E1,1E0,1E0,5.1E1,1.91E2,3.5E1,1.296E3,6E0,2.8E1,5E0,1E0,8E0,3.1E1,4.6E1,5E0,2.7E1,1.64E2,1.3E1,2.2E1,2E1,1.276E3,1E0,4E0,6E0,2E0,3E0,2.8E1,3.9E1,7E0,4E0,1E0,1E1,1.7E1,2.9E1,1.35E2,5E0,8E0,5E0,1.7E1,6E0,1.4E1,9.5E1,1.181E3],"tree_param":{"num_deleted":"0","num_feature":"2","num_nodes":"65","size_leaf_vector":"1"}},{"base_weights":[1.26888135E-5,4.920193E-4,-4.0320447E-4,5.4172054E-4,4.1805854E-4,2.1775146E-3,-4.2768213E-4,5.154209E-4,3.5075715E-3,4.7784683E-4,-1.3921724E-3,6.5337676E-3,-7.26314E-4,-3.3166942E-3,-4.013459E-4,2.5075677E-4,7.407016E-4,1.715372E-4,5.6236386E-3,2.5159155E-4,1.21180274E-4,-2.7994427E-3,-2.2762518E-4,1.4074922E-3,6.4498186E-3,-1.2987341E-2,3.4989251E-3,5.3811395E-6,-4.6852708E-4,6.4750126E-4,6.784022E-4,1.4553596E-3,-9.646402E-4,-2.199553E-3,-8.99824E-4,2.4542212E-4,9.27488E-4,-1.2277365E-3,-1.794634E-2,3.1645298E-3,-1.5497208E-5,1.2022128E-3,-3.074577E-4,-1.2200408E-3,-4.4730655E-4,4.7440827E-4,1.9726779E-4,2.935312E-4,1.3059591E-3,-8.9321536E-4,-2.9808935E-4,-3.121756E-3,4.7088414E-3,3.4986436E-4,4.0856204E-3,-7.7274215E-4,-1.0804066E-5,1.9342771E-4,-1.0725532E-3,4.5197655E-4,-2.3946182E-4],"categories":[],"categories_nodes":[],"categories_segments":[],"categories_sizes":[],"default_left":[0,0,0,0,0,0,0,0,0,0,0,0,0,0,0,0,0,0,0,0,0,0,0,0,0,0,0,0,0,0,0,0,0,0,0,0,0,0,0,0,0,0,0,0,0,0,0,0,0,0,0,0,0,0,0,0,0,0,0,0,0],"id":8,"left_children":[1,3,5,7,9,11,13,15,17,19,21,23,-1,25,27,-1,29,-1,-1,-1,31,33,-1,35,-1,37,39,41,43,45,-1,47,49,-1,-1,-1,-1,51,-1,-1,-1,53,55,57,59,-1,-1,-1,-1,-1,-1,-1,-1,-1,-1,-1,-1,-1,-1,-1,-1],"loss_changes":[5.878832E-4,4.8095535E-6,1.00676785E-4,6.184071E-5,6.073324E-5,2.4669842E-4,1.1774298E-4,2.1663145E-6,1.6758728E-4,4.800735E-6,2.24586E-5,2.1027631E-4,0E0,9.68202E-4,4.2410014E-5,0E0,1.7054135E-6,0E0,0E0,0E0,5.500503E-5,3.2785028E-6,0E0,1.1404227E-6,0E0,1.5720797E-3,9.0107475E-5,8.311543E-5,2.0696345E-5,2.7507776E-6,0E0,1.5538659E-5,5.2937303E-6,0E0,0E0,0E0,0E0,3.257746E-4,0E0,0E0,0E0,1.553663E-4,6.225113E-5,5.4343283E-5,5.5844517E-5,0E0,0E0,0E0,0E0,0E0,0E0,0E0,0E0,0E0,0E0,0E0,0E0,0E0,0E0,0E0,0E0],"parents":[2147483647,0,0,1,1,2,2,3,3,4,4,5,5,6,6,7,7,8,8,9,9,10,10,11,11,13,13,14,14,16,16,20,20,21,21,23,23,25,25,26,26,27,27,28,28,29,29,31,31,32,32,37,37,41,41,42,42,43,43,44,44],"right_children":[2,4,6,8,10,12,14,16,18,20,22,24,-1,26,28,-1,30,-1,-1,-1,32,34,-1,36,-1,38,40,42,44,46,-1,48,50,-1,-1,-1,-1,52,-1,-1,-1,54,56,58,60,-1,-1,-1,-1,-1,-1,-1,-1,-1,-1,-1,-1,-1,-1,-1,-1],"split_conditions":[5.115632E-4,5.861103E-1,1.1656123E-2,4.942456E-4,4.487661E-4,3.352094E-2,1.9600036E-2,3.329625E-4,4.801852E-1,3.329625E-4,6.609128E-1,7.991934E-3,-7.26314E-4,3.352094E-2,1.5884471E-1,2.5075677E-4,5.2460825E-1,1.715372E-4,5.6236386E-3,2.5159155E-4,7.195285E-1,5.893855E-1,-2.2762518E-4,1.27839E-3,6.4498186E-3,1.5930196E-2,1.62848E-2,1.88206E-3,6.540053E-4,3.9258902E-4,6.784022E-4,3.9258902E-4,3.694889E-4,-2.199553E-3,-8.99824E-4,2.4542212E-4,9.27488E-4,1.204211E-2,-1.794634E-2,3.1645298E-3,-1.5497208E-5,1.3933206E-1,4.8128217E-3,4.9398682E-1,8.12174E-4,4.7440827E-4,1.9726779E-4,2.935312E-4,1.3059591E-3,-8.9321536E-4,-2.9808935E-4,-3.121756E-3,4.7088414E-3,3.4986436E-4,4.0856204E-3,-7.7274215E-4,-1.0804066E-5,1.9342771E-4,-1.0725532E-3,4.5197655E-4,-2.3946182E-4],"split_indices":[1,0,0,1,1,1,0,1,0,1,0,1,0,1,0,0,0,0,0,0,0,0,0,1,0,1,0,1,1,1,0,1,1,0,0,0,0,1,0,0,0,0,1,0,1,0,0,0,0,0,0,0,0,0,0,0,0,0,0,0,0],"split_type":[0,0,0,0,0,0,0,0,0,0,0,0,0,0,0,0,0,0,0,0,0,0,0,0,0,0,0,0,0,0,0,0,0,0,0,0,0,0,0,0,0,0,0,0,0,0,0,0,0,0,0,0,0,0,0,0,0,0,0,0,0],"sum_hessian":[2.947E3,1.369E3,1.578E3,8.15E2,5.54E2,1.4E1,1.564E3,8.09E2,6E0,5.37E2,1.7E1,6E0,8E0,1.3E1,1.551E3,7.65E2,4.4E1,5E0,1E0,5.01E2,3.6E1,6E0,1.1E1,4E0,2E0,5E0,8E0,2.2E2,1.331E3,4E1,4E0,1.6E1,2E1,1E0,5E0,2E0,2E0,4E0,1E0,4E0,4E0,4.5E1,1.75E2,3.5E1,1.296E3,1.7E1,2.3E1,1E1,6E0,5E0,1.5E1,3E0,1E0,4.3E1,2E0,3.2E1,1.43E2,1.3E1,2.2E1,2.9E1,1.267E3],"tree_param":{"num_deleted":"0","num_feature":"2","num_nodes":"61","size_leaf_vector":"1"}},{"base_weights":[6.8195864E-6,2.5015796E-4,-2.1103206E-4,2.4547902E-4,7.279607E-4,1.5485148E-3,-2.2801143E-4,2.4946104E-4,-2.2958964E-4,-4.8950315E-5,4.9275457E-4,4.3558395E-3,-4.0350854E-4,-2.6019365E-3,-2.061259E-4,2.7992358E-4,2.042234E-4,2.3917641E-4,-7.382184E-4,4.691601E-4,4.299879E-3,-9.220217E-3,2.099355E-3,-1.4352462E-3,-1.8723015E-4,1.298432E-4,2.5816646E-3,2.4535833E-4,-7.579132E-4,-1.7568469E-4,3.8496405E-4,-8.8746846E-4,1.1193752E-4,-2.9646157E-4,-1.34597495E-2,1.8987178E-3,-9.298325E-6,-2.1746324E-3,5.110602E-4,3.2018396E-4,-2.1665341E-4,1.000613E-4,4.217729E-3,1.1868278E-4,3.421704E-4,-1.6496703E-3,-2.462119E-4,-1.9511059E-3,3.5316348E-3,-2.9542545E-4,-2.2895124E-3,-1.02608974E-4,1.5825286E-3,1.6840272E-4,-1.19769546E-4],"categories":[],"categories_nodes":[],"categories_segments":[],"categories_sizes":[],"default_left":[0,0,0,0,0,0,0,0,0,0,0,0,0,0,0,0,0,0,0,0,0,0,0,0,0,0,0,0,0,0,0,0,0,0,0,0,0,0,0,0,0,0,0,0,0,0,0,0,0,0,0,0,0,0,0],"id":9,"left_children":[1,3,5,7,9,11,13,15,17,-1,-1,19,-1,21,23,25,27,29,31,-1,-1,33,35,37,39,-1,41,43,45,-1,-1,-1,-1,47,-1,-1,-1,49,-1,51,53,-1,-1,-1,-1,-1,-1,-1,-1,-1,-1,-1,-1,-1,-1],"loss_changes":[1.5633117E-4,2.9354997E-6,4.6840098E-5,2.6697453E-6,2.8615727E-6,1.0270636E-4,7.957764E-5,1.8307619E-6,3.0376996E-6,0E0,0E0,9.345639E-5,0E0,4.5495908E-4,3.5242534E-5,3.733945E-5,2.2151431E-5,2.4645612E-6,6.3818843E-6,0E0,0E0,9.396838E-4,3.24387E-5,4.401242E-5,2.2568533E-5,0E0,9.589926E-5,1.7076927E-6,1.3893937E-5,0E0,0E0,0E0,0E0,1.6024914E-4,0E0,0E0,0E0,6.5839056E-5,0E0,1.2470977E-4,1.8130137E-5,0E0,0E0,0E0,0E0,0E0,0E0,0E0,0E0,0E0,0E0,0E0,0E0,0E0,0E0],"parents":[2147483647,0,0,1,1,2,2,3,3,4,4,5,5,6,6,7,7,8,8,11,11,13,13,14,14,15,15,16,16,17,17,18,18,21,21,22,22,23,23,24,24,26,26,27,27,28,28,33,33,37,37,39,39,40,40],"right_children":[2,4,6,8,10,12,14,16,18,-1,-1,20,-1,22,24,26,28,30,32,-1,-1,34,36,38,40,-1,42,44,46,-1,-1,-1,-1,48,-1,-1,-1,50,-1,52,54,-1,-1,-1,-1,-1,-1,-1,-1,-1,-1,-1,-1,-1,-1],"split_conditions":[5.748368E-4,5.4377894E-4,1.1656123E-2,5.115632E-4,1.6553545E-1,3.352094E-2,1.9600036E-2,5.861103E-1,4.906102E-1,-4.8950315E-5,4.9275457E-4,7.991934E-3,-4.0350854E-4,3.352094E-2,6.540053E-4,4.942456E-4,4.2847023E-4,1.0153955E-1,6.103294E-1,4.691601E-4,4.299879E-3,1.5930196E-2,1.62848E-2,6.3789034E-1,1.0132709E-3,1.298432E-4,4.801852E-1,4.088352E-4,5.893855E-1,-1.7568469E-4,3.8496405E-4,-8.8746846E-4,1.1193752E-4,1.204211E-2,-1.34597495E-2,1.8987178E-3,-9.298325E-6,4.6168092E-1,5.110602E-4,9.620713E-4,6.16714E-2,1.000613E-4,4.217729E-3,1.1868278E-4,3.421704E-4,-1.6496703E-3,-2.462119E-4,-1.9511059E-3,3.5316348E-3,-2.9542545E-4,-2.2895124E-3,-1.02608974E-4,1.5825286E-3,1.6840272E-4,-1.19769546E-4],"split_indices":[1,1,0,1,0,1,0,0,0,0,0,1,0,1,1,1,1,0,0,0,0,1,0,0,1,0,0,1,0,0,0,0,0,1,0,0,0,0,0,1,0,0,0,0,0,0,0,0,0,0,0,0,0,0,0],"split_type":[0,0,0,0,0,0,0,0,0,0,0,0,0,0,0,0,0,0,0,0,0,0,0,0,0,0,0,0,0,0,0,0,0,0,0,0,0,0,0,0,0,0,0,0,0,0,0,0,0,0,0,0,0,0,0],"sum_hessian":[2.947E3,1.392E3,1.555E3,1.38E3,1.2E1,1.4E1,1.541E3,1.369E3,1.1E1,3E0,9E0,6E0,8E0,1.3E1,1.528E3,8.15E2,5.54E2,6E0,5E0,4E0,2E0,5E0,8E0,2.2E1,1.506E3,8.09E2,6E0,5.32E2,2.2E1,3E0,3E0,2E0,3E0,4E0,1E0,4E0,4E0,1.7E1,5E0,8.2E1,1.424E3,5E0,1E0,5.24E2,8E0,1E0,2.1E1,3E0,1E0,1.1E1,6E0,7E1,1.2E1,5.6E1,1.368E3],"tree_param":{"num_deleted":"0","num_feature":"2","num_nodes":"55","size_leaf_vector":"1"}},{"base_weights":[2.3077896E-6,1.3014536E-4,-1.13864546E-4,6.226438E-5,4.4791153E-4,-1.862354E-3,-9.89629E-5,-2.84113E-4,7.660459E-4,-3.0728215E-3,3.4447908E-4,1.1454438E-3,-1.1035943E-4,6.9533075E-5,-8.1159174E-4,6.006573E-4,4.194162E-4,-4.8922E-4,-5.935408E-3,3.3452213E-3,-2.2417307E-4,-2.014524E-3,-9.259655E-5,-5.042404E-4,3.31527E-4,-8.511458E-4,5.110651E-4,3.5897642E-4,2.866586E-3,-6.589984E-3,1.2596183E-3,-4.6473803E-4,-6.63832E-5,5.821387E-5,-6.307304E-4,8.393526E-5,-1.0094814E-2,1.1392354E-3,-5.5789947E-6,8.8062626E-7,-2.8856937E-3,8.2220044E-4,-5.303148E-5],"categories":[],"categories_nodes":[],"categories_segments":[],"categories_sizes":[],"default_left":[0,0,0,0,0,0,0,0,0,0,0,0,0,0,0,0,0,0,0,0,0,0,0,0,0,0,0,0,0,0,0,0,0,0,0,0,0,0,0,0,0,0,0],"id":10,"left_children":[1,3,5,-1,7,9,11,13,15,17,-1,19,21,-1,-1,-1,23,25,-1,27,-1,29,31,-1,-1,33,-1,-1,-1,35,37,39,41,-1,-1,-1,-1,-1,-1,-1,-1,-1,-1],"loss_changes":[4.3796124E-5,2.4500368E-6,4.007125E-5,0E0,5.806815E-6,4.226469E-5,2.1867298E-5,4.7590634E-6,2.0610605E-6,1.9876716E-4,0E0,5.0583585E-5,5.1225117E-5,0E0,0E0,0E0,4.4954636E-6,5.2459554E-6,0E0,3.352658E-5,0E0,2.1803075E-4,1.4670044E-5,0E0,0E0,2.9259386E-6,0E0,0E0,0E0,5.5481575E-4,1.1678026E-5,2.450894E-4,9.582226E-5,0E0,0E0,0E0,0E0,0E0,0E0,0E0,0E0,0E0,0E0],"parents":[2147483647,0,0,1,1,2,2,4,4,5,5,6,6,7,7,8,8,9,9,11,11,12,12,16,16,17,17,19,19,21,21,22,22,25,25,29,29,30,30,31,31,32,32],"right_children":[2,4,6,-1,8,10,12,14,16,18,-1,20,22,-1,-1,-1,24,26,-1,28,-1,30,32,-1,-1,34,-1,-1,-1,36,38,40,42,-1,-1,-1,-1,-1,-1,-1,-1,-1,-1],"split_conditions":[6.252848E-4,5.4377894E-4,6.540053E-4,6.226438E-5,3.1424004E-1,5.1006854E-1,1.1656123E-2,1.6553545E-1,5.457818E-1,3.4516224E-1,3.4447908E-4,3.352094E-2,1.9600036E-2,6.9533075E-5,-8.1159174E-4,6.006573E-4,6.287273E-1,3.1812224E-1,-5.935408E-3,7.991934E-3,-2.2417307E-4,3.352094E-2,8.696813E-2,-5.042404E-4,3.31527E-4,1.1118018E-1,5.110651E-4,3.5897642E-4,2.866586E-3,1.5930196E-2,1.62848E-2,8.271455E-2,1.0667481E-1,5.821387E-5,-6.307304E-4,8.393526E-5,-1.0094814E-2,1.1392354E-3,-5.5789947E-6,8.8062626E-7,-2.8856937E-3,8.2220044E-4,-5.303148E-5],"split_indices":[1,1,1,0,0,0,0,0,0,0,0,1,0,0,0,0,0,0,0,1,0,1,0,0,0,0,0,0,0,1,0,0,0,0,0,0,0,0,0,0,0,0,0],"split_type":[0,0,0,0,0,0,0,0,0,0,0,0,0,0,0,0,0,0,0,0,0,0,0,0,0,0,0,0,0,0,0,0,0,0,0,0,0,0,0,0,0,0,0],"sum_hessian":[2.947E3,1.403E3,1.544E3,1.38E3,2.3E1,1.2E1,1.532E3,7E0,1.6E1,8E0,4E0,1.3E1,1.519E3,6E0,1E0,6E0,1E1,7E0,1E0,5E0,8E0,1.3E1,1.506E3,1E0,9E0,6E0,1E0,3E0,2E0,5E0,8E0,9.8E1,1.408E3,2E0,4E0,4E0,1E0,4E0,4E0,9.1E1,7E0,3.1E1,1.377E3],"tree_param":{"num_deleted":"0","num_feature":"2","num_nodes":"43","size_leaf_vector":"1"}},{"base_weights":[-3.5757832E-6,6.3310355E-5,-7.2626E-5,4.8520305E-5,1.7490571E-3,-3.3692026E-4,-3.8221515E-5,6.256657E-5,-7.7484606E-4,6.670284E-3,-5.896489E-4,-1.1576722E-4,-1.8689476E-3,7.7963836E-4,-7.542633E-5,5.054211E-5,5.3746504E-4,-2.7617982E-3,1.6078353E-3,-2.796203E-4,8.617476E-3,1.3060762E-3,-4.915055E-4,-6.959667E-3,-9.667842E-4,-2.1574497E-3,9.50719E-4,-3.745244E-4,-2.017275E-5,3.243602E-5,-7.898646E-4,2.0833109E-3,-6.6591584E-4,1.0826171E-3,-9.89827E-3,2.2179335E-3,1.7228391E-4,6.823927E-3,1.195699E-3,1.9448757E-4,5.0894534E-3,-8.545071E-3,-2.7713855E-4,1.5942752E-4,-5.3791776E-3,2.7996674E-4,-1.2880396E-3,5.76328E-3,4.6025772E-4,-3.9577126E-3,-7.2804345E-5,-7.129025E-4,-1.7553568E-5,2.4931133E-4,6.4634085E-3,-1.3174514E-3,-1.599875E-4,-1.13336E-3,1.4209321E-3,-7.5957105E-3,-2.388563E-3,4.241705E-4,-2.6911497E-4,2.232492E-4,-1.515713E-4,8.8529784E-4,6.2506497E-3,2.4665147E-3,-8.875318E-3,4.9030443E-4,-2.8427833E-4,-1.1143187E-3,-4.9724005E-4,1.0710458E-3,3.7316878E-3,5.6724856E-4,-1.4316558E-4,2.2954175E-4,-5.348839E-3,-5.6901372E-5,9.114602E-5],"categories":[],"categories_nodes":[],"categories_segments":[],"categories_sizes":[],"default_left":[0,0,0,0,0,0,0,0,0,0,0,0,0,0,0,0,0,0,0,0,0,0,0,0,0,0,0,0,0,0,0,0,0,0,0,0,0,0,0,0,0,0,0,0,0,0,0,0,0,0,0,0,0,0,0,0,0,0,0,0,0,0,0,0,0,0,0,0,0,0,0,0,0,0,0,0,0,0,0,0,0],"id":11,"left_children":[1,3,5,7,9,11,13,15,17,19,-1,21,23,25,27,29,31,33,35,-1,37,39,41,43,45,-1,47,49,-1,-1,51,53,55,57,59,-1,61,-1,-1,63,65,67,69,-1,-1,-1,71,73,75,77,79,-1,-1,-1,-1,-1,-1,-1,-1,-1,-1,-1,-1,-1,-1,-1,-1,-1,-1,-1,-1,-1,-1,-1,-1,-1,-1,-1,-1,-1,-1],"loss_changes":[1.3619943E-5,3.7263693E-5,1.3180931E-5,1.7234399E-5,1.9521054E-4,5.6365323E-5,3.9159208E-5,8.32144E-6,1.2279736E-4,7.5205564E-5,0E0,7.917536E-5,8.971738E-5,5.291057E-5,1.2890798E-5,1.7236554E-5,6.8356E-5,3.948138E-4,4.795319E-5,0E0,9.2640694E-5,1.293825E-4,1.996228E-4,8.6376866E-5,1.0040076E-5,0E0,1.2716804E-4,1.391763E-4,0E0,0E0,1.1469483E-5,2.6849163E-4,1.3461114E-5,6.536483E-5,6.2963634E-5,0E0,4.779734E-6,0E0,0E0,3.2705575E-6,1.500573E-4,4.5978505E-4,4.2708525E-5,0E0,0E0,0E0,2.2016084E-6,1.47945975E-5,2.5997204E-5,3.0260163E-4,1.2757707E-6,0E0,0E0,0E0,0E0,0E0,0E0,0E0,0E0,0E0,0E0,0E0,0E0,0E0,0E0,0E0,0E0,0E0,0E0,0E0,0E0,0E0,0E0,0E0,0E0,0E0,0E0,0E0,0E0,0E0,0E0],"parents":[2147483647,0,0,1,1,2,2,3,3,4,4,5,5,6,6,7,7,8,8,9,9,11,11,12,12,13,13,14,14,15,15,16,16,17,17,18,18,20,20,21,21,22,22,23,23,24,24,26,26,27,27,30,30,31,31,32,32,33,33,34,34,36,36,39,39,40,40,41,41,42,42,46,46,47,47,48,48,49,49,50,50],"right_children":[2,4,6,8,10,12,14,16,18,20,-1,22,24,26,28,30,32,34,36,-1,38,40,42,44,46,-1,48,50,-1,-1,52,54,56,58,60,-1,62,-1,-1,64,66,68,70,-1,-1,-1,72,74,76,78,80,-1,-1,-1,-1,-1,-1,-1,-1,-1,-1,-1,-1,-1,-1,-1,-1,-1,-1,-1,-1,-1,-1,-1,-1,-1,-1,-1,-1,-1,-1],"split_conditions":[1.0132709E-3,9.620713E-4,1.1929772E-1,8.5454795E-4,4.854547E-1,1.0667481E-1,1.5884471E-1,6.9257733E-4,3.7491846E-1,5.1617566E-2,-5.896489E-4,3.2857445E-3,2.6778162E-3,1.0612092E-3,1.88206E-3,6.252848E-4,3.8509598E-1,2.832368E-1,4.976491E-1,-2.796203E-4,2.5472838E-1,2.480778E-3,3.4856254E-3,1.1118018E-1,7.64927E-3,-2.1574497E-3,1.88206E-3,2.5706792E-1,-2.017275E-5,3.243602E-5,5.1006854E-1,3.6927024E-1,4.2715943E-1,9.1559906E-4,3.0437276E-1,2.2179335E-3,6.00447E-1,6.823927E-3,1.195699E-3,8.696813E-2,8.696813E-2,5.9076574E-2,1.024537E-2,1.5942752E-4,-5.3791776E-3,2.7996674E-4,1.1118018E-1,1.6167513E-3,2.8950674E-2,2.4049272E-1,1.7129029E-3,-7.129025E-4,-1.7553568E-5,2.4931133E-4,6.4634085E-3,-1.3174514E-3,-1.599875E-4,-1.13336E-3,1.4209321E-3,-7.5957105E-3,-2.388563E-3,4.241705E-4,-2.6911497E-4,2.232492E-4,-1.515713E-4,8.8529784E-4,6.2506497E-3,2.4665147E-3,-8.875318E-3,4.9030443E-4,-2.8427833E-4,-1.1143187E-3,-4.9724005E-4,1.0710458E-3,3.7316878E-3,5.6724856E-4,-1.4316558E-4,2.2954175E-4,-5.348839E-3,-5.6901372E-5,9.114602E-5],"split_indices":[1,1,0,1,0,0,0,1,0,0,0,1,1,1,1,1,0,0,0,0,0,1,1,0,1,0,1,0,0,0,0,0,0,1,0,0,0,0,0,0,0,0,1,0,0,0,0,1,1,0,1,0,0,0,0,0,0,0,0,0,0,0,0,0,0,0,0,0,0,0,0,0,0,0,0,0,0,0,0,0,0],"split_type":[0,0,0,0,0,0,0,0,0,0,0,0,0,0,0,0,0,0,0,0,0,0,0,0,0,0,0,0,0,0,0,0,0,0,0,0,0,0,0,0,0,0,0,0,0,0,0,0,0,0,0,0,0,0,0,0,0,0,0,0,0,0,0,0,0,0,0,0,0,0,0,0,0,0,0,0,0,0,0,0,0],"sum_hessian":[2.947E3,1.497E3,1.45E3,1.485E3,1.2E1,1.66E2,1.284E3,1.461E3,2.4E1,4E0,8E0,1.46E2,2E1,5.5E1,1.229E3,1.426E3,3.5E1,1.3E1,1.1E1,1E0,3E0,3E1,1.16E2,2E0,1.8E1,1E0,5.4E1,1.28E2,1.101E3,1.403E3,2.3E1,1.5E1,2E1,9E0,4E0,3E0,8E0,1E0,2E0,2.4E1,6E0,2E0,1.14E2,1E0,1E0,3E0,1.5E1,4E0,5E1,9E0,1.19E2,1.2E1,1.1E1,1.4E1,1E0,2E0,1.8E1,3E0,6E0,1E0,3E0,4E0,4E0,1.6E1,8E0,5E0,1E0,1E0,1E0,2.1E1,9.3E1,2E0,1.3E1,2E0,2E0,2.6E1,2.4E1,6E0,3E0,1.03E2,1.6E1],"tree_param":{"num_deleted":"0","num_feature":"2","num_nodes":"81","size_leaf_vector":"1"}},{"base_weights":[-2.8732754E-6,6.8690686E-4,-5.9265003E-6,4.3670338E-5,1.6287446E-3,-2.613191E-4,5.713293E-6,2.0526946E-3,-8.381903E-6,5.9392503E-5,-1.0825652E-3,2.4663433E-3,-4.841844E-6,-9.995437E-5,2.4365585E-3,-7.0089577E-3,-1.2273621E-4,4.302005E-3,-2.2804812E-3,-3.1385335E-4,4.4860117E-6,1.0264133E-4,-2.214715E-3,-7.500045E-3,-6.3057616E-4,5.551173E-4,-4.176423E-4,3.806129E-5,9.527266E-3,-1.834996E-3,-2.9699007E-4,2.8225398E-4,-8.3508814E-4,3.6592988E-4,-3.3967813E-6,2.0129854E-5,1.320079E-3,1.898408E-5,-1.7869591E-3,8.299947E-6,3.8905814E-4,4.00424E-5,8.204937E-4,-1.5711894E-3,1.7319669E-4,5.1875155E-5,6.3274684E-4,-3.4217455E-4,2.9716434E-6],"categories":[],"categories_nodes":[],"categories_segments":[],"categories_sizes":[],"default_left":[0,0,0,0,0,0,0,0,0,0,0,0,0,0,0,0,0,0,0,0,0,0,0,0,0,0,0,0,0,0,0,0,0,0,0,0,0,0,0,0,0,0,0,0,0,0,0,0,0],"id":12,"left_children":[1,3,5,-1,7,9,11,-1,-1,13,15,17,19,21,-1,23,25,27,29,31,33,35,37,-1,-1,39,-1,-1,-1,-1,-1,41,43,45,47,-1,-1,-1,-1,-1,-1,-1,-1,-1,-1,-1,-1,-1,-1],"loss_changes":[6.212718E-6,7.198767E-6,8.729391E-6,0E0,2.0445517E-5,3.377734E-5,7.296809E-5,0E0,0E0,7.182292E-5,2.039194E-4,1.1437342E-4,8.066405E-6,3.9215487E-5,0E0,2.1073996E-4,1.5919792E-5,5.596315E-4,7.193743E-6,2.5714082E-5,7.742485E-6,1.3190437E-5,2.4630535E-5,0E0,0E0,2.0285938E-6,0E0,0E0,0E0,0E0,0E0,1.0581649E-5,1.2103344E-4,1.3547845E-5,1.6922042E-5,0E0,0E0,0E0,0E0,0E0,0E0,0E0,0E0,0E0,0E0,0E0,0E0,0E0,0E0],"parents":[2147483647,0,0,1,1,2,2,4,4,5,5,6,6,9,9,10,10,11,11,12,12,13,13,15,15,16,16,17,17,18,18,19,19,20,20,21,21,22,22,25,25,31,31,32,32,33,33,34,34],"right_children":[2,4,6,-1,8,10,12,-1,-1,14,16,18,20,22,-1,24,26,28,30,32,34,36,38,-1,-1,40,-1,-1,-1,-1,-1,42,44,46,48,-1,-1,-1,-1,-1,-1,-1,-1,-1,-1,-1,-1,-1,-1],"split_conditions":[3.1299829E-3,6.540053E-4,5.1617566E-2,4.3670338E-5,3.352094E-2,2.2433443E-2,5.514121E-2,2.0526946E-3,-8.381903E-6,1.204211E-2,3.352094E-2,4.9946653E-3,8.696813E-2,3.2857445E-3,2.4365585E-3,1.62848E-2,2.377464E-2,2.2789272E-3,1.8596498E-2,2.9676065E-3,1.0667481E-1,2.9676065E-3,1.62848E-2,-7.500045E-3,-6.3057616E-4,1.1656123E-2,-4.176423E-4,3.806129E-5,9.527266E-3,-1.834996E-3,-2.9699007E-4,9.620713E-4,2.0055389E-2,1.024537E-2,1.1929772E-1,2.0129854E-5,1.320079E-3,1.898408E-5,-1.7869591E-3,8.299947E-6,3.8905814E-4,4.00424E-5,8.204937E-4,-1.5711894E-3,1.7319669E-4,5.1875155E-5,6.3274684E-4,-3.4217455E-4,2.9716434E-6],"split_indices":[0,1,0,0,1,1,0,0,0,1,1,1,0,1,0,0,0,1,1,1,0,1,0,0,0,0,0,0,0,0,0,1,1,1,0,0,0,0,0,0,0,0,0,0,0,0,0,0,0],"split_type":[0,0,0,0,0,0,0,0,0,0,0,0,0,0,0,0,0,0,0,0,0,0,0,0,0,0,0,0,0,0,0,0,0,0,0,0,0,0,0,0,0,0,0,0,0,0,0,0,0],"sum_hessian":[2.947E3,1.2E1,2.935E3,8E0,4E0,1.27E2,2.808E3,1E0,3E0,9.2E1,3.5E1,1.1E1,2.797E3,9E1,2E0,4E0,3.1E1,8E0,3E0,8.1E1,2.716E3,8.3E1,7E0,1E0,3E0,1.6E1,1.5E1,7E0,1E0,1E0,2E0,3.8E1,4.3E1,5.7E1,2.659E3,8.2E1,1E0,3E0,4E0,5E0,1.1E1,3.4E1,4E0,1.4E1,2.9E1,4.5E1,1.2E1,3.5E1,2.624E3],"tree_param":{"num_deleted":"0","num_feature":"2","num_nodes":"49","size_leaf_vector":"1"}},{"base_weights":[-3.6386533E-7,3.318549E-5,-3.8978393E-5,1.7491665E-4,-1.238602E-5,-1.6661355E-3,-2.338456E-5,2.307411E-5,1.78927E-3,3.1708358E-5,-4.5648136E-4,-5.470194E-3,1.1050701E-5,9.767844E-4,-3.0030109E-5,3.226033E-5,-6.209016E-4,4.7511715E-4,7.6237717E-3,1.717266E-5,8.0705585E-4,-4.9761576E-3,-1.4183218E-4,2.3774107E-3,-7.253252E-3,1.7982721E-3,1.3316423E-4,-8.383226E-4,-1.4779661E-5,1.1931242E-5,1.9309297E-4,2.5610128E-4,-7.735193E-4,-9.50071E-5,2.1990624E-3,9.886771E-4,4.1787922E-3,3.0130148E-5,-1.5122792E-3,3.6082666E-3,-3.6723216E-4,-2.0071666E-3,-5.697526E-3,-1.5297511E-3,7.8085766E-5,-3.4451485E-5,1.8175095E-3,1.5395284E-3,1.7249584E-4,-2.2212565E-3,2.3171703E-4,4.267667E-4,-3.493313E-5,1.04408886E-4,-1.6188323E-3,1.8056929E-3,6.808887E-4,3.365551E-5,2.803281E-7,-1.5735656E-3,2.125144E-4,-6.538853E-4,4.4801137E-3,2.8618425E-4,-2.3761498E-4,-2.4202515E-3,3.0981377E-4,-1.7676279E-3,-1.1387799E-5,3.246383E-4,-9.056541E-5,-9.668469E-5,-5.625032E-3,3.021527E-4,-8.491799E-5,1.5568715E-3,-2.914816E-4,-6.1513553E-4,-7.4117543E-6],"categories":[],"categories_nodes":[],"categories_segments":[],"categories_sizes":[],"default_left":[0,0,0,0,0,0,0,0,0,0,0,0,0,0,0,0,0,0,0,0,0,0,0,0,0,0,0,0,0,0,0,0,0,0,0,0,0,0,0,0,0,0,0,0,0,0,0,0,0,0,0,0,0,0,0,0,0,0,0,0,0,0,0,0,0,0,0,0,0,0,0,0,0,0,0,0,0,0,0],"id":13,"left_children":[1,3,5,7,9,11,13,15,17,19,21,23,-1,25,27,29,31,33,35,37,39,41,43,45,-1,47,-1,49,51,-1,-1,-1,-1,53,55,-1,-1,57,59,61,63,65,-1,67,69,-1,-1,-1,-1,71,73,75,77,-1,-1,-1,-1,-1,-1,-1,-1,-1,-1,-1,-1,-1,-1,-1,-1,-1,-1,-1,-1,-1,-1,-1,-1,-1,-1],"loss_changes":[3.8204057E-6,1.0194315E-5,3.474827E-5,9.4087685E-5,2.3415092E-5,8.360887E-5,9.062159E-6,2.1023575E-6,2.4940292E-4,1.2248134E-5,1.5288235E-4,3.1814145E-4,0E0,4.7737467E-6,1.6641148E-5,1.0251146E-6,6.039445E-6,2.7729086E-5,8.334551E-6,2.1230848E-5,6.711364E-5,1.10531706E-4,3.1252734E-5,9.479976E-6,0E0,6.3831076E-6,0E0,3.7509555E-5,1.1823471E-5,0E0,0E0,0E0,0E0,2.168207E-5,3.359717E-6,0E0,0E0,1.1664463E-6,2.9842531E-5,1.6958054E-4,1.7941286E-6,4.765486E-5,0E0,4.2230935E-5,1.32951345E-5,0E0,0E0,0E0,0E0,1.99228E-4,2.3468424E-6,1.5917617E-4,3.0509764E-5,0E0,0E0,0E0,0E0,0E0,0E0,0E0,0E0,0E0,0E0,0E0,0E0,0E0,0E0,0E0,0E0,0E0,0E0,0E0,0E0,0E0,0E0,0E0,0E0,0E0,0E0],"parents":[2147483647,0,0,1,1,2,2,3,3,4,4,5,5,6,6,7,7,8,8,9,9,10,10,11,11,13,13,14,14,15,15,16,16,17,17,18,18,19,19,20,20,21,21,22,22,23,23,25,25,27,27,28,28,33,33,34,34,37,37,38,38,39,39,40,40,41,41,43,43,44,44,49,49,50,50,51,51,52,52],"right_children":[2,4,6,8,10,12,14,16,18,20,22,24,-1,26,28,30,32,34,36,38,40,42,44,46,-1,48,-1,50,52,-1,-1,-1,-1,54,56,-1,-1,58,60,62,64,66,-1,68,70,-1,-1,-1,-1,72,74,76,78,-1,-1,-1,-1,-1,-1,-1,-1,-1,-1,-1,-1,-1,-1,-1,-1,-1,-1,-1,-1,-1,-1,-1,-1,-1,-1],"split_conditions":[1.4199261E-3,2.5472838E-1,1.4723158E-3,7.885435E-4,7.885435E-4,2.4463025E-1,8.528629E-3,6.540053E-4,2.0960408E-1,6.540053E-4,3.0437276E-1,1.5884471E-1,1.1050701E-5,3.352094E-2,2.377464E-2,5.748368E-4,6.618852E-2,1.2464325E-1,8.12174E-4,6.252848E-4,3.8509598E-1,3.0089265E-1,3.9163527E-1,9.7947404E-2,-7.253252E-3,3.1299829E-3,1.3316423E-4,3.352094E-2,7.236282E-2,1.1931242E-5,1.9309297E-4,2.5610128E-4,-7.735193E-4,1.1929772E-1,1.3200727E-1,9.886771E-4,4.1787922E-3,5.686476E-1,5.1006854E-1,3.1812224E-1,5.2460825E-1,2.765729E-1,-5.697526E-3,9.620713E-4,5.893855E-1,-3.4451485E-5,1.8175095E-3,1.5395284E-3,1.7249584E-4,2.2433443E-2,1.62848E-2,9.355093E-3,8.696813E-2,1.04408886E-4,-1.6188323E-3,1.8056929E-3,6.808887E-4,3.365551E-5,2.803281E-7,-1.5735656E-3,2.125144E-4,-6.538853E-4,4.4801137E-3,2.8618425E-4,-2.3761498E-4,-2.4202515E-3,3.0981377E-4,-1.7676279E-3,-1.1387799E-5,3.246383E-4,-9.056541E-5,-9.668469E-5,-5.625032E-3,3.021527E-4,-8.491799E-5,1.5568715E-3,-2.914816E-4,-6.1513553E-4,-7.4117543E-6],"split_indices":[1,0,1,1,1,0,0,1,0,1,0,0,0,1,0,1,0,0,1,1,0,0,0,0,0,0,0,1,0,0,0,0,0,0,0,0,0,0,0,0,0,0,0,1,0,0,0,0,0,1,0,1,0,0,0,0,0,0,0,0,0,0,0,0,0,0,0,0,0,0,0,0,0,0,0,0,0,0,0],"split_type":[0,0,0,0,0,0,0,0,0,0,0,0,0,0,0,0,0,0,0,0,0,0,0,0,0,0,0,0,0,0,0,0,0,0,0,0,0,0,0,0,0,0,0,0,0,0,0,0,0,0,0,0,0,0,0,0,0,0,0,0,0,0,0,0,0,0,0,0,0,0,0,0,0,0,0,0,0,0,0],"sum_hessian":[2.947E3,1.577E3,1.37E3,3.83E2,1.194E3,1.2E1,1.358E3,3.51E2,3.2E1,1.087E3,1.07E2,3E0,9E0,8E0,1.35E3,3.47E2,4E0,2.7E1,5E0,1.068E3,1.9E1,6E0,1.01E2,2E0,1E0,3E0,5E0,2.4E1,1.326E3,3.4E2,7E0,2E0,2E0,2.1E1,6E0,1E0,4E0,1.06E3,8E0,5E0,1.4E1,5E0,1E0,1.3E1,8.8E1,1E0,1E0,1E0,2E0,1E1,1.4E1,5.7E1,1.269E3,2E1,1E0,1E0,5E0,4.69E2,5.91E2,4E0,4E0,3E0,2E0,1E0,1.3E1,2E0,3E0,5E0,8E0,2.7E1,6.1E1,9E0,1E0,7E0,7E0,1.5E1,4.2E1,2E1,1.249E3],"tree_param":{"num_deleted":"0","num_feature":"2","num_nodes":"79","size_leaf_vector":"1"}},{"base_weights":[-3.3904184E-6,-1.7627882E-4,5.227512E-6,1.1266052E-5,-4.1271886E-4,1.6446089E-3,-1.8052986E-6,-8.857926E-4,4.5648644E-6,-9.1940165E-5,4.24127E-3,8.385239E-5,-1.1667158E-5,-5.1133014E-4,-4.085511E-3,2.808823E-4,-7.5906515E-5,6.756231E-3,-1.4546439E-3,-6.920651E-5,3.0945355E-4,-1.0209879E-3,-6.8158115E-6,1.3113533E-3,-1.0680326E-3,1.1546463E-3,-4.2187795E-3,-1.7290976E-4,5.207658E-4,-1.3033822E-3,-1.0084113E-4,1.3799802E-4,-3.46044E-3,8.462674E-4,-3.78088E-5,-1.7390038E-3,-6.5689287E-6,2.0043708E-5,-3.5262703E-5,-7.600784E-5,1.6565919E-3,-3.443174E-4,-8.913257E-4,7.7682234E-5,-3.1104684E-4,5.9066356E-6,2.9316338E-4,6.6015124E-4,-2.848972E-3,2.651428E-4,2.599289E-3,2.9335814E-4,-2.2428414E-4,4.7922135E-6,-2.0368248E-3,4.0124173E-6,3.551089E-4,-1.6245306E-4,-4.6270443E-6],"categories":[],"categories_nodes":[],"categories_segments":[],"categories_sizes":[],"default_left":[0,0,0,0,0,0,0,0,0,0,0,0,0,0,0,0,0,0,0,0,0,0,0,0,0,0,0,0,0,0,0,0,0,0,0,0,0,0,0,0,0,0,0,0,0,0,0,0,0,0,0,0,0,0,0,0,0,0,0],"id":14,"left_children":[1,3,5,-1,7,9,11,13,15,-1,17,19,21,23,25,27,-1,-1,29,31,33,35,37,39,41,-1,-1,43,-1,-1,-1,45,47,49,51,53,-1,55,57,-1,-1,-1,-1,-1,-1,-1,-1,-1,-1,-1,-1,-1,-1,-1,-1,-1,-1,-1,-1],"loss_changes":[4.3932655E-6,6.590261E-6,3.238922E-5,0E0,1.2638025E-5,5.775549E-5,2.364572E-6,3.3856184E-5,1.5549896E-6,0E0,2.8369535E-4,1.0000664E-5,1.2283417E-5,2.9811952E-5,1.02976264E-4,4.6673867E-6,0E0,0E0,5.248513E-6,1.2204098E-4,2.1842583E-5,8.66098E-6,1.9101171E-6,2.1009573E-5,4.7371523E-6,0E0,0E0,1.4237509E-6,0E0,0E0,0E0,9.2709215E-6,1.1449234E-4,6.050481E-5,1.8733315E-5,2.8615383E-5,0E0,1.0661817E-5,9.142327E-6,0E0,0E0,0E0,0E0,0E0,0E0,0E0,0E0,0E0,0E0,0E0,0E0,0E0,0E0,0E0,0E0,0E0,0E0,0E0,0E0],"parents":[2147483647,0,0,1,1,2,2,4,4,5,5,6,6,7,7,8,8,10,10,11,11,12,12,13,13,14,14,15,15,18,18,19,19,20,20,21,21,22,22,23,23,24,24,27,27,31,31,32,32,33,33,34,34,35,35,37,37,38,38],"right_children":[2,4,6,-1,8,10,12,14,16,-1,18,20,22,24,26,28,-1,-1,30,32,34,36,38,40,42,-1,-1,44,-1,-1,-1,46,48,50,52,54,-1,56,58,-1,-1,-1,-1,-1,-1,-1,-1,-1,-1,-1,-1,-1,-1,-1,-1,-1,-1,-1,-1],"split_conditions":[5.1617566E-2,8.5454795E-4,5.514121E-2,1.1266052E-5,3.352094E-2,2.2789272E-3,1.5884471E-1,3.168237E-2,1.62848E-2,-9.1940165E-5,4.9946653E-3,4.9946653E-3,1.6306229E-1,1.62848E-2,3.1299829E-3,1.1656123E-2,-7.5906515E-5,6.756231E-3,1.8596498E-2,3.2857445E-3,3.48223E-2,1.88206E-3,1.0612092E-3,7.991934E-3,3.9966097E-3,1.1546463E-3,-4.2187795E-3,8.528629E-3,5.207658E-4,-1.3033822E-3,-1.0084113E-4,8.12174E-4,8.271455E-2,3.0192925E-2,8.696813E-2,1.9266162E-4,-6.5689287E-6,9.620713E-4,1.7129029E-3,-7.600784E-5,1.6565919E-3,-3.443174E-4,-8.913257E-4,7.7682234E-5,-3.1104684E-4,5.9066356E-6,2.9316338E-4,6.6015124E-4,-2.848972E-3,2.651428E-4,2.599289E-3,2.9335814E-4,-2.2428414E-4,4.7922135E-6,-2.0368248E-3,4.0124173E-6,3.551089E-4,-1.6245306E-4,-4.6270443E-6],"split_indices":[0,1,0,0,1,1,0,1,0,0,1,1,0,0,0,0,0,0,1,1,1,1,1,1,1,0,0,0,0,0,0,1,0,1,0,1,0,1,1,0,0,0,0,0,0,0,0,0,0,0,0,0,0,0,0,0,0,0,0],"split_type":[0,0,0,0,0,0,0,0,0,0,0,0,0,0,0,0,0,0,0,0,0,0,0,0,0,0,0,0,0,0,0,0,0,0,0,0,0,0,0,0,0,0,0,0,0,0,0,0,0,0,0,0,0,0,0,0,0,0,0],"sum_hessian":[2.947E3,1.39E2,2.808E3,7.6E1,6.3E1,1.1E1,2.797E3,2.9E1,3.4E1,7E0,4E0,2.88E2,2.509E3,2.7E1,2E0,1.2E1,2.2E1,1E0,3E0,1.72E2,1.16E2,1.1E1,2.498E3,6E0,2.1E1,1E0,1E0,8E0,4E0,1E0,2E0,1.63E2,9E0,4.5E1,7.1E1,6E0,5E0,1.285E3,1.213E3,4E0,2E0,1.5E1,6E0,5E0,3E0,1.28E2,3.5E1,3E0,6E0,4.3E1,2E0,2.8E1,4.3E1,4E0,2E0,1.264E3,2.1E1,9.9E1,1.114E3],"tree_param":{"num_deleted":"0","num_feature":"2","num_nodes":"59","size_leaf_vector":"1"}},{"base_weights":[-1.025026E-6,-8.192705E-5,6.6331186E-6,1.4129628E-7,-3.545633E-4,4.8320548E-4,3.5993588E-7,1.553843E-4,-3.0339565E-4,-6.8334764E-4,5.7175383E-4,-9.158403E-5,1.2859721E-3,-5.764502E-4,5.609493E-6,-7.809301E-5,2.4772089E-3,-1.3480847E-3,-1.3465959E-5,-6.040558E-6,-2.2979998E-3,1.5154481E-4,1.2468448E-3,4.6035945E-3,1.4407834E-4,1.9723376E-4,-1.9751817E-3,2.4428288E-4,-6.564134E-6,-3.568828E-6,-6.6156115E-4,-1.6510487E-4,5.14704E-3,1.0971824E-3,-1.847061E-3,-2.811849E-4,1.1385005E-4,-7.6862276E-3,-6.1957404E-4,-4.7716498E-4,1.7878265E-4,1.0946294E-3,2.2832304E-4,1.1220574E-3,-4.2595528E-4,-4.0202662E-3,-4.0786134E-4,-3.008172E-5,5.106683E-4,-6.8037707E-4,-3.3259105E-6,-4.2360774E-4,3.915727E-4,1.9283891E-4,-5.140205E-4,3.7212595E-3,1.853605E-4,8.65981E-4,-4.3094158E-5,-4.321987E-4,-3.1640902E-3,-6.424529E-6,-3.402382E-4,2.9194355E-4,-6.414205E-5,-3.670007E-4,-5.39767E-3,-5.8357714E-4,-6.996734E-5,3.1448403E-4,-2.4340302E-4,-2.3780976E-4,3.076449E-3,-7.1473914E-4,4.412021E-5,2.5590261E-5,-1.2874007E-3,1.623118E-3,1.3903492E-4,-5.7989144E-4,-3.837049E-6,4.2010517E-5,-4.469695E-6],"categories":[],"categories_nodes":[],"categories_segments":[],"categories_sizes":[],"default_left":[0,0,0,0,0,0,0,0,0,0,0,0,0,0,0,0,0,0,0,0,0,0,0,0,0,0,0,0,0,0,0,0,0,0,0,0,0,0,0,0,0,0,0,0,0,0,0,0,0,0,0,0,0,0,0,0,0,0,0,0,0,0,0,0,0,0,0,0,0,0,0,0,0,0,0,0,0,0,0,0,0,0,0],"id":15,"left_children":[1,3,5,7,9,11,13,15,17,19,21,-1,23,25,27,29,31,33,-1,35,37,39,41,-1,43,-1,45,47,49,-1,51,53,55,57,59,61,63,65,67,-1,-1,-1,69,71,-1,-1,73,75,77,79,81,-1,-1,-1,-1,-1,-1,-1,-1,-1,-1,-1,-1,-1,-1,-1,-1,-1,-1,-1,-1,-1,-1,-1,-1,-1,-1,-1,-1,-1,-1,-1,-1],"loss_changes":[1.8270047E-6,5.7056254E-6,8.053877E-6,9.330175E-6,1.835966E-5,1.8958533E-5,8.057707E-6,7.120768E-5,1.931454E-5,4.8105183E-5,4.3499153E-6,0E0,1.4339645E-4,3.3372424E-5,7.663462E-6,4.9633E-6,8.550419E-5,1.9108391E-5,0E0,1.0876041E-6,1.1280643E-4,2.8473967E-6,5.259357E-6,0E0,1.5566739E-5,0E0,9.178406E-5,9.370463E-6,5.4744487E-6,0E0,4.150302E-6,3.7235247E-6,6.3024534E-5,2.4028136E-6,4.737113E-5,1.0626989E-6,2.69258E-6,5.6921956E-5,2.725726E-6,0E0,0E0,0E0,1.452237E-6,6.72277E-5,0E0,0E0,4.6875716E-6,1.3366316E-5,4.0456092E-5,3.8610738E-6,1.2260615E-6,0E0,0E0,0E0,0E0,0E0,0E0,0E0,0E0,0E0,0E0,0E0,0E0,0E0,0E0,0E0,0E0,0E0,0E0,0E0,0E0,0E0,0E0,0E0,0E0,0E0,0E0,0E0,0E0,0E0,0E0,0E0,0E0],"parents":[2147483647,0,0,1,1,2,2,3,3,4,4,5,5,6,6,7,7,8,8,9,9,10,10,12,12,13,13,14,14,15,15,16,16,17,17,19,19,20,20,21,21,22,22,24,24,26,26,27,27,28,28,30,30,31,31,32,32,33,33,34,34,35,35,36,36,37,37,38,38,42,42,43,43,46,46,47,47,48,48,49,49,50,50],"right_children":[2,4,6,8,10,12,14,16,18,20,22,-1,24,26,28,30,32,34,-1,36,38,40,42,-1,44,-1,46,48,50,-1,52,54,56,58,60,62,64,66,68,-1,-1,-1,70,72,-1,-1,74,76,78,80,82,-1,-1,-1,-1,-1,-1,-1,-1,-1,-1,-1,-1,-1,-1,-1,-1,-1,-1,-1,-1,-1,-1,-1,-1,-1,-1,-1,-1,-1,-1,-1,-1],"split_conditions":[9.565754E-2,7.236282E-2,1.0667481E-1,9.355093E-3,2.0055389E-2,2.1372298E-3,1.161355E-1,2.9676065E-3,3.352094E-2,1.7909863E-3,8.271455E-2,-9.158403E-5,2.6778162E-3,1.1201708E-3,1.5884471E-1,1.4199261E-3,2.377464E-2,1.1656123E-2,-1.3465959E-5,8.271455E-2,3.4856254E-3,3.48223E-2,8.696813E-2,4.6035945E-3,3.352094E-2,1.9723376E-4,2.6778162E-3,1.0612092E-3,1.6306229E-1,-3.568828E-6,5.514121E-2,1.9600036E-2,5.9076574E-2,3.1299829E-3,3.168237E-2,6.252848E-4,8.696813E-2,3.2857445E-3,8.271455E-2,-4.7716498E-4,1.7878265E-4,1.0946294E-3,3.0192925E-2,2.6900368E-2,-4.2595528E-4,-4.0202662E-3,1.1118018E-1,9.620713E-4,1.88206E-3,1.88206E-3,2.1315745E-1,-4.2360774E-4,3.915727E-4,1.9283891E-4,-5.140205E-4,3.7212595E-3,1.853605E-4,8.65981E-4,-4.3094158E-5,-4.321987E-4,-3.1640902E-3,-6.424529E-6,-3.402382E-4,2.9194355E-4,-6.414205E-5,-3.670007E-4,-5.39767E-3,-5.8357714E-4,-6.996734E-5,3.1448403E-4,-2.4340302E-4,-2.3780976E-4,3.076449E-3,-7.1473914E-4,4.412021E-5,2.5590261E-5,-1.2874007E-3,1.623118E-3,1.3903492E-4,-5.7989144E-4,-3.837049E-6,4.2010517E-5,-4.469695E-6],"split_indices":[0,0,0,1,1,1,0,1,1,1,0,0,1,1,0,1,0,0,0,0,1,1,0,0,1,0,1,1,0,0,0,0,0,0,1,1,0,1,0,0,0,0,1,1,0,0,0,1,1,1,0,0,0,0,0,0,0,0,0,0,0,0,0,0,0,0,0,0,0,0,0,0,0,0,0,0,0,0,0,0,0,0,0],"split_type":[0,0,0,0,0,0,0,0,0,0,0,0,0,0,0,0,0,0,0,0,0,0,0,0,0,0,0,0,0,0,0,0,0,0,0,0,0,0,0,0,0,0,0,0,0,0,0,0,0,0,0,0,0,0,0,0,0,0,0,0,0,0,0,0,0,0,0,0,0,0,0,0,0,0,0,0,0,0,0,0,0,0,0],"sum_hessian":[2.947E3,2.54E2,2.693E3,1.96E2,5.8E1,3.4E1,2.659E3,1.3E2,6.6E1,4.3E1,1.5E1,1.9E1,1.5E1,2.3E1,2.636E3,1.19E2,1.1E1,1.3E1,5.3E1,3.1E1,1.2E1,1E1,5E0,1E0,1.4E1,1.4E1,9E0,1.27E2,2.509E3,1.07E2,1.2E1,6E0,5E0,2E0,1.1E1,9E0,2.2E1,2E0,1E1,1E0,9E0,2E0,3E0,7E0,7E0,1E0,8E0,6.3E1,6.4E1,1.1E1,2.498E3,1.1E1,1E0,4E0,2E0,3E0,2E0,1E0,1E0,1E1,1E0,6E0,3E0,7E0,1.5E1,1E0,1E0,4E0,6E0,2E0,1E0,6E0,1E0,2E0,6E0,6.2E1,1E0,4E0,6E1,6E0,5E0,1.5E2,2.348E3],"tree_param":{"num_deleted":"0","num_feature":"2","num_nodes":"83","size_leaf_vector":"1"}},{"base_weights":[-1.3666407E-6],"categories":[],"categories_nodes":[],"categories_segments":[],"categories_sizes":[],"default_left":[0],"id":16,"left_children":[-1],"loss_changes":[0E0],"parents":[2147483647],"right_children":[-1],"split_conditions":[-6.8332037E-7],"split_indices":[0],"split_type":[0],"sum_hessian":[2.947E3],"tree_param":{"num_deleted":"0","num_feature":"2","num_nodes":"1","size_leaf_vector":"1"}},{"base_weights":[-6.9606824E-7],"categories":[],"categories_nodes":[],"categories_segments":[],"categories_sizes":[],"default_left":[0],"id":17,"left_children":[-1],"loss_changes":[0E0],"parents":[2147483647],"right_children":[-1],"split_conditions":[-3.4803412E-7],"split_indices":[0],"split_type":[0],"sum_hessian":[2.947E3],"tree_param":{"num_deleted":"0","num_feature":"2","num_nodes":"1","size_leaf_vector":"1"}},{"base_weights":[-3.3856165E-7],"categories":[],"categories_nodes":[],"categories_segments":[],"categories_sizes":[],"default_left":[0],"id":18,"left_children":[-1],"loss_changes":[0E0],"parents":[2147483647],"right_children":[-1],"split_conditions":[-1.6928082E-7],"split_indices":[0],"split_type":[0],"sum_hessian":[2.947E3],"tree_param":{"num_deleted":"0","num_feature":"2","num_nodes":"1","size_leaf_vector":"1"}},{"base_weights":[-1.5980838E-7],"categories":[],"categories_nodes":[],"categories_segments":[],"categories_sizes":[],"default_left":[0],"id":19,"left_children":[-1],"loss_changes":[0E0],"parents":[2147483647],"right_children":[-1],"split_conditions":[-7.990419E-8],"split_indices":[0],"split_type":[0],"sum_hessian":[2.947E3],"tree_param":{"num_deleted":"0","num_feature":"2","num_nodes":"1","size_leaf_vector":"1"}},{"base_weights":[-8.5080174E-8],"categories":[],"categories_nodes":[],"categories_segments":[],"categories_sizes":[],"default_left":[0],"id":20,"left_children":[-1],"loss_changes":[0E0],"parents":[2147483647],"right_children":[-1],"split_conditions":[-4.2540087E-8],"split_indices":[0],"split_type":[0],"sum_hessian":[2.947E3],"tree_param":{"num_deleted":"0","num_feature":"2","num_nodes":"1","size_leaf_vector":"1"}},{"base_weights":[-4.063953E-8],"categories":[],"categories_nodes":[],"categories_segments":[],"categories_sizes":[],"default_left":[0],"id":21,"left_children":[-1],"loss_changes":[0E0],"parents":[2147483647],"right_children":[-1],"split_conditions":[-2.0319765E-8],"split_indices":[0],"split_type":[0],"sum_hessian":[2.947E3],"tree_param":{"num_deleted":"0","num_feature":"2","num_nodes":"1","size_leaf_vector":"1"}},{"base_weights":[-2.5495746E-8],"categories":[],"categories_nodes":[],"categories_segments":[],"categories_sizes":[],"default_left":[0],"id":22,"left_children":[-1],"loss_changes":[0E0],"parents":[2147483647],"right_children":[-1],"split_conditions":[-1.2747873E-8],"split_indices":[0],"split_type":[0],"sum_hessian":[2.947E3],"tree_param":{"num_deleted":"0","num_feature":"2","num_nodes":"1","size_leaf_vector":"1"}},{"base_weights":[-2.5495746E-8],"categories":[],"categories_nodes":[],"categories_segments":[],"categories_sizes":[],"default_left":[0],"id":23,"left_children":[-1],"loss_changes":[0E0],"parents":[2147483647],"right_children":[-1],"split_conditions":[-1.2747873E-8],"split_indices":[0],"split_type":[0],"sum_hessian":[2.947E3],"tree_param":{"num_deleted":"0","num_feature":"2","num_nodes":"1","size_leaf_vector":"1"}},{"base_weights":[-2.5495746E-8],"categories":[],"categories_nodes":[],"categories_segments":[],"categories_sizes":[],"default_left":[0],"id":24,"left_children":[-1],"loss_changes":[0E0],"parents":[2147483647],"right_children":[-1],"split_conditions":[-1.2747873E-8],"split_indices":[0],"split_type":[0],"sum_hessian":[2.947E3],"tree_param":{"num_deleted":"0","num_feature":"2","num_nodes":"1","size_leaf_vector":"1"}},{"base_weights":[-2.5495746E-8],"categories":[],"categories_nodes":[],"categories_segments":[],"categories_sizes":[],"default_left":[0],"id":25,"left_children":[-1],"loss_changes":[0E0],"parents":[2147483647],"right_children":[-1],"split_conditions":[-1.2747873E-8],"split_indices":[0],"split_type":[0],"sum_hessian":[2.947E3],"tree_param":{"num_deleted":"0","num_feature":"2","num_nodes":"1","size_leaf_vector":"1"}},{"base_weights":[-2.5495746E-8],"categories":[],"categories_nodes":[],"categories_segments":[],"categories_sizes":[],"default_left":[0],"id":26,"left_children":[-1],"loss_changes":[0E0],"parents":[2147483647],"right_children":[-1],"split_conditions":[-1.2747873E-8],"split_indices":[0],"split_type":[0],"sum_hessian":[2.947E3],"tree_param":{"num_deleted":"0","num_feature":"2","num_nodes":"1","size_leaf_vector":"1"}},{"base_weights":[-2.5495746E-8],"categories":[],"categories_nodes":[],"categories_segments":[],"categories_sizes":[],"default_left":[0],"id":27,"left_children":[-1],"loss_changes":[0E0],"parents":[2147483647],"right_children":[-1],"split_conditions":[-1.2747873E-8],"split_indices":[0],"split_type":[0],"sum_hessian":[2.947E3],"tree_param":{"num_deleted":"0","num_feature":"2","num_nodes":"1","size_leaf_vector":"1"}},{"base_weights":[-2.5495746E-8],"categories":[],"categories_nodes":[],"categories_segments":[],"categories_sizes":[],"default_left":[0],"id":28,"left_children":[-1],"loss_changes":[0E0],"parents":[2147483647],"right_children":[-1],"split_conditions":[-1.2747873E-8],"split_indices":[0],"split_type":[0],"sum_hessian":[2.947E3],"tree_param":{"num_deleted":"0","num_feature":"2","num_nodes":"1","size_leaf_vector":"1"}},{"base_weights":[-2.5495746E-8],"categories":[],"categories_nodes":[],"categories_segments":[],"categories_sizes":[],"default_left":[0],"id":29,"left_children":[-1],"loss_changes":[0E0],"parents":[2147483647],"right_children":[-1],"split_conditions":[-1.2747873E-8],"split_indices":[0],"split_type":[0],"sum_hessian":[2.947E3],"tree_param":{"num_deleted":"0","num_feature":"2","num_nodes":"1","size_leaf_vector":"1"}},{"base_weights":[-2.5495746E-8],"categories":[],"categories_nodes":[],"categories_segments":[],"categories_sizes":[],"default_left":[0],"id":30,"left_children":[-1],"loss_changes":[0E0],"parents":[2147483647],"right_children":[-1],"split_conditions":[-1.2747873E-8],"split_indices":[0],"split_type":[0],"sum_hessian":[2.947E3],"tree_param":{"num_deleted":"0","num_feature":"2","num_nodes":"1","size_leaf_vector":"1"}},{"base_weights":[-2.5495746E-8],"categories":[],"categories_nodes":[],"categories_segments":[],"categories_sizes":[],"default_left":[0],"id":31,"left_children":[-1],"loss_changes":[0E0],"parents":[2147483647],"right_children":[-1],"split_conditions":[-1.2747873E-8],"split_indices":[0],"split_type":[0],"sum_hessian":[2.947E3],"tree_param":{"num_deleted":"0","num_feature":"2","num_nodes":"1","size_leaf_vector":"1"}},{"base_weights":[-2.5495746E-8],"categories":[],"categories_nodes":[],"categories_segments":[],"categories_sizes":[],"default_left":[0],"id":32,"left_children":[-1],"loss_changes":[0E0],"parents":[2147483647],"right_children":[-1],"split_conditions":[-1.2747873E-8],"split_indices":[0],"split_type":[0],"sum_hessian":[2.947E3],"tree_param":{"num_deleted":"0","num_feature":"2","num_nodes":"1","size_leaf_vector":"1"}},{"base_weights":[-2.5495746E-8],"categories":[],"categories_nodes":[],"categories_segments":[],"categories_sizes":[],"default_left":[0],"id":33,"left_children":[-1],"loss_changes":[0E0],"parents":[2147483647],"right_children":[-1],"split_conditions":[-1.2747873E-8],"split_indices":[0],"split_type":[0],"sum_hessian":[2.947E3],"tree_param":{"num_deleted":"0","num_feature":"2","num_nodes":"1","size_leaf_vector":"1"}},{"base_weights":[-2.5495746E-8],"categories":[],"categories_nodes":[],"categories_segments":[],"categories_sizes":[],"default_left":[0],"id":34,"left_children":[-1],"loss_changes":[0E0],"parents":[2147483647],"right_children":[-1],"split_conditions":[-1.2747873E-8],"split_indices":[0],"split_type":[0],"sum_hessian":[2.947E3],"tree_param":{"num_deleted":"0","num_feature":"2","num_nodes":"1","size_leaf_vector":"1"}},{"base_weights":[-2.5495746E-8],"categories":[],"categories_nodes":[],"categories_segments":[],"categories_sizes":[],"default_left":[0],"id":35,"left_children":[-1],"loss_changes":[0E0],"parents":[2147483647],"right_children":[-1],"split_conditions":[-1.2747873E-8],"split_indices":[0],"split_type":[0],"sum_hessian":[2.947E3],"tree_param":{"num_deleted":"0","num_feature":"2","num_nodes":"1","size_leaf_vector":"1"}},{"base_weights":[-2.5495746E-8],"categories":[],"categories_nodes":[],"categories_segments":[],"categories_sizes":[],"default_left":[0],"id":36,"left_children":[-1],"loss_changes":[0E0],"parents":[2147483647],"right_children":[-1],"split_conditions":[-1.2747873E-8],"split_indices":[0],"split_type":[0],"sum_hessian":[2.947E3],"tree_param":{"num_deleted":"0","num_feature":"2","num_nodes":"1","size_leaf_vector":"1"}},{"base_weights":[-2.5495746E-8],"categories":[],"categories_nodes":[],"categories_segments":[],"categories_sizes":[],"default_left":[0],"id":37,"left_children":[-1],"loss_changes":[0E0],"parents":[2147483647],"right_children":[-1],"split_conditions":[-1.2747873E-8],"split_indices":[0],"split_type":[0],"sum_hessian":[2.947E3],"tree_param":{"num_deleted":"0","num_feature":"2","num_nodes":"1","size_leaf_vector":"1"}},{"base_weights":[-2.5495746E-8],"categories":[],"categories_nodes":[],"categories_segments":[],"categories_sizes":[],"default_left":[0],"id":38,"left_children":[-1],"loss_changes":[0E0],"parents":[2147483647],"right_children":[-1],"split_conditions":[-1.2747873E-8],"split_indices":[0],"split_type":[0],"sum_hessian":[2.947E3],"tree_param":{"num_deleted":"0","num_feature":"2","num_nodes":"1","size_leaf_vector":"1"}},{"base_weights":[-2.5495746E-8],"categories":[],"categories_nodes":[],"categories_segments":[],"categories_sizes":[],"default_left":[0],"id":39,"left_children":[-1],"loss_changes":[0E0],"parents":[2147483647],"right_children":[-1],"split_conditions":[-1.2747873E-8],"split_indices":[0],"split_type":[0],"sum_hessian":[2.947E3],"tree_param":{"num_deleted":"0","num_feature":"2","num_nodes":"1","size_leaf_vector":"1"}},{"base_weights":[-2.5495746E-8],"categories":[],"categories_nodes":[],"categories_segments":[],"categories_sizes":[],"default_left":[0],"id":40,"left_children":[-1],"loss_changes":[0E0],"parents":[2147483647],"right_children":[-1],"split_conditions":[-1.2747873E-8],"split_indices":[0],"split_type":[0],"sum_hessian":[2.947E3],"tree_param":{"num_deleted":"0","num_feature":"2","num_nodes":"1","size_leaf_vector":"1"}},{"base_weights":[-2.5495746E-8],"categories":[],"categories_nodes":[],"categories_segments":[],"categories_sizes":[],"default_left":[0],"id":41,"left_children":[-1],"loss_changes":[0E0],"parents":[2147483647],"right_children":[-1],"split_conditions":[-1.2747873E-8],"split_indices":[0],"split_type":[0],"sum_hessian":[2.947E3],"tree_param":{"num_deleted":"0","num_feature":"2","num_nodes":"1","size_leaf_vector":"1"}},{"base_weights":[-2.5495746E-8],"categories":[],"categories_nodes":[],"categories_segments":[],"categories_sizes":[],"default_left":[0],"id":42,"left_children":[-1],"loss_changes":[0E0],"parents":[2147483647],"right_children":[-1],"split_conditions":[-1.2747873E-8],"split_indices":[0],"split_type":[0],"sum_hessian":[2.947E3],"tree_param":{"num_deleted":"0","num_feature":"2","num_nodes":"1","size_leaf_vector":"1"}},{"base_weights":[-2.5495746E-8],"categories":[],"categories_nodes":[],"categories_segments":[],"categories_sizes":[],"default_left":[0],"id":43,"left_children":[-1],"loss_changes":[0E0],"parents":[2147483647],"right_children":[-1],"split_conditions":[-1.2747873E-8],"split_indices":[0],"split_type":[0],"sum_hessian":[2.947E3],"tree_param":{"num_deleted":"0","num_feature":"2","num_nodes":"1","size_leaf_vector":"1"}},{"base_weights":[-2.5495746E-8],"categories":[],"categories_nodes":[],"categories_segments":[],"categories_sizes":[],"default_left":[0],"id":44,"left_children":[-1],"loss_changes":[0E0],"parents":[2147483647],"right_children":[-1],"split_conditions":[-1.2747873E-8],"split_indices":[0],"split_type":[0],"sum_hessian":[2.947E3],"tree_param":{"num_deleted":"0","num_feature":"2","num_nodes":"1","size_leaf_vector":"1"}},{"base_weights":[-2.5495746E-8],"categories":[],"categories_nodes":[],"categories_segments":[],"categories_sizes":[],"default_left":[0],"id":45,"left_children":[-1],"loss_changes":[0E0],"parents":[2147483647],"right_children":[-1],"split_conditions":[-1.2747873E-8],"split_indices":[0],"split_type":[0],"sum_hessian":[2.947E3],"tree_param":{"num_deleted":"0","num_feature":"2","num_nodes":"1","size_leaf_vector":"1"}},{"base_weights":[-2.5495746E-8],"categories":[],"categories_nodes":[],"categories_segments":[],"categories_sizes":[],"default_left":[0],"id":46,"left_children":[-1],"loss_changes":[0E0],"parents":[2147483647],"right_children":[-1],"split_conditions":[-1.2747873E-8],"split_indices":[0],"split_type":[0],"sum_hessian":[2.947E3],"tree_param":{"num_deleted":"0","num_feature":"2","num_nodes":"1","size_leaf_vector":"1"}},{"base_weights":[-2.5495746E-8],"categories":[],"categories_nodes":[],"categories_segments":[],"categories_sizes":[],"default_left":[0],"id":47,"left_children":[-1],"loss_changes":[0E0],"parents":[2147483647],"right_children":[-1],"split_conditions":[-1.2747873E-8],"split_indices":[0],"split_type":[0],"sum_hessian":[2.947E3],"tree_param":{"num_deleted":"0","num_feature":"2","num_nodes":"1","size_leaf_vector":"1"}},{"base_weights":[-2.5495746E-8],"categories":[],"categories_nodes":[],"categories_segments":[],"categories_sizes":[],"default_left":[0],"id":48,"left_children":[-1],"loss_changes":[0E0],"parents":[2147483647],"right_children":[-1],"split_conditions":[-1.2747873E-8],"split_indices":[0],"split_type":[0],"sum_hessian":[2.947E3],"tree_param":{"num_deleted":"0","num_feature":"2","num_nodes":"1","size_leaf_vector":"1"}},{"base_weights":[-2.5495746E-8],"categories":[],"categories_nodes":[],"categories_segments":[],"categories_sizes":[],"default_left":[0],"id":49,"left_children":[-1],"loss_changes":[0E0],"parents":[2147483647],"right_children":[-1],"split_conditions":[-1.2747873E-8],"split_indices":[0],"split_type":[0],"sum_hessian":[2.947E3],"tree_param":{"num_deleted":"0","num_feature":"2","num_nodes":"1","size_leaf_vector":"1"}}]},"name":"gbtree"},"learner_model_param":{"base_score":"6.1811197E-1","boost_from_average":"1","num_class":"0","num_feature":"2","num_target":"1"},"objective":{"name":"reg:squarederror","reg_loss_param":{"scale_pos_weight":"1"}}},"version":[2,1,1]}