{"learner":{"attributes":{},"feature_names":[],"feature_types":[],"gradient_booster":{"model":{"gbtree_model_param":{"num_parallel_tree":"1","num_trees":"20"},"iteration_indptr":[0,1,2,3,4,5,6,7,8,9,10,11,12,13,14,15,16,17,18,19,20],"tree_info":[0,0,0,0,0,0,0,0,0,0,0,0,0,0,0,0,0,0,0,0],"trees":[{"base_weights":[-1.2671854E-9,2.1267278E-2,-1.3319394E-1,3.1666033E-2,-1.6966732E-2,-1.8860549E-1,-9.534486E-2,3.699595E-2,1.883365E-2,-4.465469E-2,-6.860667E-4,-1.4994478E-1,-1.0337578E-1,-6.1662193E-2,-1.6798644E-1,1.6044719E-3,3.7346028E-2,2.301903E-2,1.0629357E-2,-2.5889106E-2,-7.944633E-2,5.65015E-3,-5.656355E-3,-1.837756E-1,-3.2811303E-2,-5.6831334E-2,-9.441289E-2,-9.5699616E-2,-8.4285736E-2,-2.080818E-3,2.371621E-3,3.926647E-2,3.1453572E-2,1.5944395E-2,2.5034275E-2,-4.065167E-3,1.3704467E-2,-3.479658E-2,-7.2250725E-3,-1.4006282E-1,-5.845626E-2,1.4139595E-3,7.7361097E-3,-4.1103438E-3,-1.5542583E-2,-9.529636E-2,-1.6971111E-2,-3.6766905E-2,-3.0058004E-2,-2.7700186E-2,-7.048348E-2,-2.3976479E-2,-7.048348E-2,1.7370718E-2,2.0314135E-2,1.1800079E-2,1.6511967E-2,8.551586E-3,3.2637317E-3,8.586347E-4,1.2601512E-2,-9.282112E-3,-9.304742E-4,5.0818417E-3,8.265348E-3,-8.650377E-3,-2.3764843E-2,-9.513487E-3,-2.428348E-3,-2.243965E-2,-8.458018E-2,-2.9865235E-2,-7.287368E-3,2.6054762E-3,-9.538233E-4,4.4136373E-3,1.8300685E-3,-9.100845E-4,-3.1756621E-3,-1.1089101E-2,-3.1582664E-3,-2.4152197E-2,-5.476773E-3],"categories":[],"categories_nodes":[],"categories_segments":[],"categories_sizes":[],"default_left":[0,0,0,0,0,0,0,0,0,0,0,0,0,0,0,0,0,0,0,0,0,0,0,0,0,0,0,0,0,0,0,0,0,0,0,0,0,0,0,0,0,0,0,0,0,0,0,0,0,0,0,0,0,0,0,0,0,0,0,0,0,0,0,0,0,0,0,0,0,0,0,0,0,0,0,0,0,0,0,0,0,0,0],"id":0,"left_children":[1,3,5,7,9,11,13,15,17,19,21,23,-1,25,27,29,31,33,35,37,39,41,43,45,-1,47,49,-1,51,-1,-1,53,55,57,59,61,63,65,67,69,71,73,75,77,79,-1,-1,81,-1,-1,-1,-1,-1,-1,-1,-1,-1,-1,-1,-1,-1,-1,-1,-1,-1,-1,-1,-1,-1,-1,-1,-1,-1,-1,-1,-1,-1,-1,-1,-1,-1,-1,-1],"loss_changes":[3.6003273E0,4.3629166E-1,3.4904075E-1,5.8260143E-2,1.059023E-1,1.810646E-2,2.4899834E-1,7.472992E-3,8.511536E-3,5.474423E-2,4.7243903E-3,6.2110066E-2,0E0,6.342232E-3,4.8536777E-2,1.4642908E-4,5.5772066E-3,1.9960403E-3,4.032192E-3,9.391058E-3,2.9982805E-2,5.722721E-4,1.2199895E-3,1.1916697E-2,0E0,2.205357E-3,6.7199096E-3,0E0,1.1774696E-2,0E0,0E0,1.3614893E-3,1.1075288E-3,3.248453E-4,4.6429038E-4,4.7679845E-4,5.625021E-4,7.865977E-3,4.6661892E-4,1.1795446E-2,4.7138333E-4,3.000193E-4,1.6338332E-4,3.6822516E-4,5.33337E-4,0E0,0E0,3.0447505E-3,0E0,0E0,0E0,0E0,0E0,0E0,0E0,0E0,0E0,0E0,0E0,0E0,0E0,0E0,0E0,0E0,0E0,0E0,0E0,0E0,0E0,0E0,0E0,0E0,0E0,0E0,0E0,0E0,0E0,0E0,0E0,0E0,0E0,0E0,0E0],"parents":[2147483647,0,0,1,1,2,2,3,3,4,4,5,5,6,6,7,7,8,8,9,9,10,10,11,11,13,13,14,14,15,15,16,16,17,17,18,18,19,19,20,20,21,21,22,22,23,23,25,25,26,26,28,28,31,31,32,32,33,33,34,34,35,35,36,36,37,37,38,38,39,39,40,40,41,41,42,42,43,43,44,44,47,47],"right_children":[2,4,6,8,10,12,14,16,18,20,22,24,-1,26,28,30,32,34,36,38,40,42,44,46,-1,48,50,-1,52,-1,-1,54,56,58,60,62,64,66,68,70,72,74,76,78,80,-1,-1,82,-1,-1,-1,-1,-1,-1,-1,-1,-1,-1,-1,-1,-1,-1,-1,-1,-1,-1,-1,-1,-1,-1,-1,-1,-1,-1,-1,-1,-1,-1,-1,-1,-1,-1,-1],"split_conditions":[8.1928325E-1,6.4033717E-1,3.5513535E-1,4.4656342E-1,3.8886088E-1,8.606215E-1,9.177834E-1,5.633803E-4,5.656148E-1,7.59366E-1,7.154375E-1,2.2873318E-1,-1.0337578E-1,9.091715E-1,7.623266E-1,2.0760823E-2,3.393015E-1,3.108091E-1,1.3252509E-1,1.9340554E-1,6.3790895E-2,6.203169E-1,8.06295E-1,9.455E-1,-3.2811303E-2,8.3193886E-1,7.725E-1,-9.5699616E-2,9.458312E-1,-2.080818E-3,2.371621E-3,2.4202873E-1,1.3726626E-1,5.5032754E-1,5.633803E-4,5.633803E-4,5.528267E-1,6.9503546E-1,3.943662E-3,7.756817E-1,8.1665874E-1,6.859389E-1,7.062986E-1,7.564395E-1,7.034092E-1,-9.529636E-2,-1.6971111E-2,7.150282E-1,-3.0058004E-2,-2.7700186E-2,-7.048348E-2,-2.3976479E-2,-7.048348E-2,1.7370718E-2,2.0314135E-2,1.1800079E-2,1.6511967E-2,8.551586E-3,3.2637317E-3,8.586347E-4,1.2601512E-2,-9.282112E-3,-9.304742E-4,5.0818417E-3,8.265348E-3,-8.650377E-3,-2.3764843E-2,-9.513487E-3,-2.428348E-3,-2.243965E-2,-8.458018E-2,-2.9865235E-2,-7.287368E-3,2.6054762E-3,-9.538233E-4,4.4136373E-3,1.8300685E-3,-9.100845E-4,-3.1756621E-3,-1.1089101E-2,-3.1582664E-3,-2.4152197E-2,-5.476773E-3],"split_indices":[0,0,3,0,3,0,0,1,0,0,0,3,0,0,3,3,0,3,3,3,3,3,0,2,0,0,2,0,0,0,0,3,3,0,1,1,3,0,1,0,0,0,0,0,3,0,0,3,0,0,0,0,0,0,0,0,0,0,0,0,0,0,0,0,0,0,0,0,0,0,0,0,0,0,0,0,0,0,0,0,0,0,0],"split_type":[0,0,0,0,0,0,0,0,0,0,0,0,0,0,0,0,0,0,0,0,0,0,0,0,0,0,0,0,0,0,0,0,0,0,0,0,0,0,0,0,0,0,0,0,0,0,0,0,0,0,0,0,0,0,0,0,0,0,0,0,0,0,0,0,0,0,0,0,0,0,0,0,0,0,0,0,0,0,0,0,0,0,0],"sum_hessian":[1.269E3,1.095E3,1.74E2,8.61E2,2.34E2,6.9E1,1.05E2,6.07E2,2.54E2,8.6E1,1.48E2,2.5E1,4.4E1,7.3E1,3.2E1,6E0,6.01E2,1.67E2,8.7E1,5.7E1,2.9E1,6.5E1,8.3E1,1.7E1,8E0,6.6E1,7E0,2.4E1,8E0,2E0,4E0,4.49E2,1.52E2,3.9E1,1.28E2,1.5E1,7.2E1,3.8E1,1.9E1,6E0,2.3E1,2.2E1,4.3E1,7.3E1,1E1,1.6E1,1E0,1.1E1,5.5E1,5E0,2E0,6E0,2E0,1.1E2,3.39E2,2.8E1,1.24E2,3.4E1,5E0,1E0,1.27E2,1E0,1.4E1,3.4E1,3.8E1,1.7E1,2.1E1,2E0,1.7E1,2E0,4E0,2.2E1,1E0,1E1,1.2E1,3.3E1,1E1,3.7E1,3.6E1,5E0,5E0,7E0,4E0],"tree_param":{"num_deleted":"0","num_feature":"4","num_nodes":"83","size_leaf_vector":"1"}},{"base_weights":[-5.5177754E-4,1.1406191E-2,-6.49658E-2,1.684269E-2,-4.566724E-3,-8.6495206E-2,-3.6826484E-2,1.9388296E-2,1.2395531E-2,-2.7451245E-2,-8.6257746E-4,-6.842977E-2,-5.376388E-2,-2.544348E-2,-9.517639E-2,2.2413533E-3,1.9554617E-2,1.456076E-2,9.392998E-3,-5.8981827E-3,-3.601367E-2,2.697406E-3,-8.540641E-3,-1.00579165E-1,-3.9836563E-2,-4.7161058E-3,-3.0546721E-2,-9.947497E-2,-9.8237395E-3,5.533099E-4,1.8724799E-3,2.0731822E-2,1.7578788E-2,8.7918965E-3,1.531991E-2,6.995477E-3,5.9568407E-3,-7.1823993E-3,-2.7683794E-3,-5.500517E-2,-3.0319273E-2,-1.53403655E-2,3.5201428E-3,-2.424816E-2,-2.3879397E-3,-5.516896E-2,-7.1003735E-2,-3.715822E-2,-3.4281686E-2,-2.9156182E-3,-1.0965705E-3,-3.94812E-2,-2.4335152E-2,-5.210111E-2,-1.0686979E-2,4.9914914E-4,-1.9541383E-4,8.203415E-3,1.0569034E-2,-6.438941E-4,8.841608E-3,-1.8854141E-3,4.7848425E-3,6.439835E-4,7.703302E-3,5.5625703E-4,3.8871553E-3,-6.73376E-4,-1.5926276E-3,-3.0304074E-2,-8.148313E-3,-2.3453634E-3,-1.626836E-2,2.8731378E-3,7.572472E-4,-3.9622583E-3,-1.2774679E-2,-3.8048538E-4,-2.3969018E-3,-1.1537174E-3,-4.394469E-2,-5.320251E-3,-1.775154E-2,7.106364E-5,-7.208884E-4,-1.5531505E-2,-3.1787038E-2,-6.172123E-3,-1.4697318E-2],"categories":[],"categories_nodes":[],"categories_segments":[],"categories_sizes":[],"default_left":[0,0,0,0,0,0,0,0,0,0,0,0,0,0,0,0,0,0,0,0,0,0,0,0,0,0,0,0,0,0,0,0,0,0,0,0,0,0,0,0,0,0,0,0,0,0,0,0,0,0,0,0,0,0,0,0,0,0,0,0,0,0,0,0,0,0,0,0,0,0,0,0,0,0,0,0,0,0,0,0,0,0,0,0,0,0,0,0,0],"id":1,"left_children":[1,3,5,7,9,11,13,15,17,19,21,23,-1,25,27,29,31,33,35,37,39,41,43,45,47,49,51,53,-1,55,-1,57,59,61,63,65,-1,-1,67,69,71,-1,73,75,77,-1,79,-1,81,-1,83,85,87,-1,-1,-1,-1,-1,-1,-1,-1,-1,-1,-1,-1,-1,-1,-1,-1,-1,-1,-1,-1,-1,-1,-1,-1,-1,-1,-1,-1,-1,-1,-1,-1,-1,-1,-1,-1],"loss_changes":[9.7897226E-1,9.3165904E-2,1.1737347E-1,8.816227E-3,2.3117881E-2,3.5197675E-2,5.6027725E-2,1.402095E-3,1.7745756E-3,6.8003517E-3,6.4738095E-3,5.390629E-2,0E0,7.7891983E-3,2.5908947E-3,1.3156794E-5,8.032024E-4,6.054342E-4,6.7812484E-4,2.782189E-4,1.2522005E-3,4.556751E-3,7.1903714E-3,5.3554773E-4,4.155908E-3,5.8185746E-5,2.36905E-3,2.5724322E-3,0E0,2.0706834E-6,0E0,1.9609928E-4,4.0498748E-4,2.510507E-4,1.6019493E-4,2.9833475E-4,0E0,0E0,1.6366757E-6,9.6707605E-5,1.1544675E-3,0E0,7.0120674E-4,2.4357997E-4,2.1163677E-4,0E0,1.1397019E-2,0E0,5.462393E-4,0E0,2.3429475E-6,2.6900172E-3,1.9425228E-3,0E0,0E0,0E0,0E0,0E0,0E0,0E0,0E0,0E0,0E0,0E0,0E0,0E0,0E0,0E0,0E0,0E0,0E0,0E0,0E0,0E0,0E0,0E0,0E0,0E0,0E0,0E0,0E0,0E0,0E0,0E0,0E0,0E0,0E0,0E0,0E0],"parents":[2147483647,0,0,1,1,2,2,3,3,4,4,5,5,6,6,7,7,8,8,9,9,10,10,11,11,13,13,14,14,15,15,16,16,17,17,18,18,19,19,20,20,21,21,22,22,23,23,24,24,25,25,26,26,27,27,29,29,31,31,32,32,33,33,34,34,35,35,38,38,39,39,40,40,42,42,43,43,44,44,46,46,48,48,50,50,51,51,52,52],"right_children":[2,4,6,8,10,12,14,16,18,20,22,24,-1,26,28,30,32,34,36,38,40,42,44,46,48,50,52,54,-1,56,-1,58,60,62,64,66,-1,-1,68,70,72,-1,74,76,78,-1,80,-1,82,-1,84,86,88,-1,-1,-1,-1,-1,-1,-1,-1,-1,-1,-1,-1,-1,-1,-1,-1,-1,-1,-1,-1,-1,-1,-1,-1,-1,-1,-1,-1,-1,-1,-1,-1,-1,-1,-1,-1],"split_conditions":[7.991772E-1,5.87893E-1,4.9459606E-1,3.720795E-1,1.0904439E-1,8.8893604E-1,9.3477356E-1,5.633803E-4,4.99648E-1,6.6319346E-1,7.326399E-1,2.4901594E-1,-5.376388E-2,8.2377714E-1,9.49E-1,2.305E-1,2.3178118E-1,1.0904439E-1,5.480244E-1,7.3239435E-3,1.6338028E-2,5.633803E-4,3.5090646E-1,1.4428616E-1,3.3802816E-3,8.294973E-1,6.706623E-1,9.398231E-1,-9.8237395E-3,1.555E-1,1.8724799E-3,9.9154875E-2,4E-3,5.633803E-4,5.633803E-4,7.096136E-2,5.9568407E-3,-7.1823993E-3,4E-2,2.135E-1,2.1971831E-2,-1.53403655E-2,6.6319346E-1,3.943662E-3,3.830986E-2,-5.516896E-2,8.2731974E-1,-3.715822E-2,5.6338026E-3,-2.9156182E-3,6.197183E-3,9.177834E-1,2.8732395E-2,-5.210111E-2,-1.0686979E-2,4.9914914E-4,-1.9541383E-4,8.203415E-3,1.0569034E-2,-6.438941E-4,8.841608E-3,-1.8854141E-3,4.7848425E-3,6.439835E-4,7.703302E-3,5.5625703E-4,3.8871553E-3,-6.73376E-4,-1.5926276E-3,-3.0304074E-2,-8.148313E-3,-2.3453634E-3,-1.626836E-2,2.8731378E-3,7.572472E-4,-3.9622583E-3,-1.2774679E-2,-3.8048538E-4,-2.3969018E-3,-1.1537174E-3,-4.394469E-2,-5.320251E-3,-1.775154E-2,7.106364E-5,-7.208884E-4,-1.5531505E-2,-3.1787038E-2,-6.172123E-3,-1.4697318E-2],"split_indices":[0,0,3,0,3,0,0,1,0,0,0,3,0,0,2,2,0,3,3,1,1,1,3,3,1,3,3,3,0,2,0,3,2,1,1,3,0,0,1,2,1,0,0,1,1,0,0,0,1,0,1,0,1,0,0,0,0,0,0,0,0,0,0,0,0,0,0,0,0,0,0,0,0,0,0,0,0,0,0,0,0,0,0,0,0,0,0,0,0],"split_type":[0,0,0,0,0,0,0,0,0,0,0,0,0,0,0,0,0,0,0,0,0,0,0,0,0,0,0,0,0,0,0,0,0,0,0,0,0,0,0,0,0,0,0,0,0,0,0,0,0,0,0,0,0,0,0,0,0,0,0,0,0,0,0,0,0,0,0,0,0,0,0,0,0,0,0,0,0,0,0,0,0,0,0,0,0,0,0,0,0],"sum_hessian":[1.269E3,1.071E3,1.98E2,7.99E2,2.72E2,1.11E2,8.7E1,5.06E2,2.93E2,3.7E1,2.35E2,6.2E1,4.9E1,7.4E1,1.3E1,5E0,5.01E2,1.68E2,1.25E2,1.1E1,2.6E1,1.61E2,7.4E1,2.8E1,3.4E1,1.5E1,5.9E1,1.2E1,1E0,3E0,2E0,3.08E2,1.93E2,2.1E1,1.47E2,6.6E1,5.9E1,2E0,9E0,4E0,2.2E1,3E0,1.58E2,2E1,5.4E1,1.9E1,9E0,3E0,3.1E1,1.1E1,4E0,2.2E1,3.7E1,1.1E1,1E0,2E0,1E0,3E1,2.78E2,1E0,1.92E2,1E0,2E1,1E0,1.46E2,8E0,5.8E1,3E0,6E0,3E0,1E0,2E0,2E1,7.4E1,8.4E1,2E0,1.8E1,3.3E1,2.1E1,2E0,7E0,2E0,2.9E1,1E0,3E0,1.8E1,4E0,1.2E1,2.5E1],"tree_param":{"num_deleted":"0","num_feature":"4","num_nodes":"89","size_leaf_vector":"1"}},{"base_weights":[-5.952393E-4,6.029959E-3,-3.259404E-2,8.780058E-3,-9.6703816E-4,-4.4248793E-2,-1.8137831E-2,9.674773E-3,6.513119E-3,-8.06952E-3,1.587794E-3,-3.4797933E-2,-2.739265E-2,-1.2623109E-2,-5.7067648E-2,8.2393475E-3,1.0883796E-2,4.543066E-3,7.723205E-3,-1.3401798E-3,-1.3672219E-2,3.4117904E-3,-4.7946893E-4,-5.1800743E-2,-8.112702E-3,-5.983498E-3,-2.081176E-2,-5.9576415E-2,-7.3678046E-3,3.0690432E-4,8.4323585E-3,3.6093115E-3,1.0972917E-2,4.9377866E-3,1.9770907E-3,8.17147E-3,5.7503707E-3,-5.1659793E-3,-8.034094E-4,-1.7797403E-2,-6.316206E-3,4.3524774E-3,2.017521E-3,-2.8543528E-3,2.0445152E-3,-5.34566E-2,-1.6871354E-2,-8.592623E-3,-4.1327756E-4,-3.224257E-2,-1.3856257E-2,-3.1163981E-2,-8.01523E-3,-1.040409E-3,8.3907845E-4,4.7889096E-3,3.6896076E-3,4.1645765E-4,2.047591E-3,1.5009543E-3,5.5092406E-3,1.1850198E-3,2.7534564E-3,1.7714301E-3,6.8516354E-4,4.234312E-3,2.6971216E-3,2.9296875E-3,7.018149E-4,-2.3604482E-3,-9.634802E-6,-4.915561E-3,-9.802667E-3,1.282163E-3,-6.3945055E-3,1.8231478E-3,3.00947E-3,-1.5555397E-3,1.2098136E-3,-1.2309969E-3,-4.351894E-3,1.6529812E-3,-3.8012862E-5,-1.1040375E-2,-2.7970487E-2,-1.7421544E-3,-1.091136E-2,-1.3387674E-3,-7.539876E-3,5.2850097E-3,-8.801799E-4,-9.991757E-3,-2.8947167E-2,-5.525978E-3,-2.0990953E-2],"categories":[],"categories_nodes":[],"categories_segments":[],"categories_sizes":[],"default_left":[0,0,0,0,0,0,0,0,0,0,0,0,0,0,0,0,0,0,0,0,0,0,0,0,0,0,0,0,0,0,0,0,0,0,0,0,0,0,0,0,0,0,0,0,0,0,0,0,0,0,0,0,0,0,0,0,0,0,0,0,0,0,0,0,0,0,0,0,0,0,0,0,0,0,0,0,0,0,0,0,0,0,0,0,0,0,0,0,0,0,0,0,0,0,0],"id":2,"left_children":[1,3,5,7,9,11,13,15,17,19,21,23,-1,25,27,29,31,33,35,37,39,41,43,45,-1,47,49,51,-1,53,55,57,59,61,63,65,67,-1,69,71,73,75,77,79,81,83,85,87,89,91,93,-1,-1,-1,-1,-1,-1,-1,-1,-1,-1,-1,-1,-1,-1,-1,-1,-1,-1,-1,-1,-1,-1,-1,-1,-1,-1,-1,-1,-1,-1,-1,-1,-1,-1,-1,-1,-1,-1,-1,-1,-1,-1,-1,-1],"loss_changes":[2.6943448E-1,2.0270772E-2,3.5926804E-2,1.4703572E-3,5.420216E-3,1.0043085E-2,2.0533655E-2,8.4747747E-4,4.822258E-4,2.960172E-3,8.311853E-4,2.0001337E-2,0E0,4.659985E-3,3.965199E-4,3.8170628E-4,1.4840066E-4,7.6329336E-5,7.062964E-5,1.702805E-4,1.1924198E-3,1.4467258E-4,6.2922935E-4,1.0646135E-3,0E0,7.231191E-4,2.6540142E-3,3.188625E-4,0E0,2.641113E-5,2.2487529E-4,3.333902E-6,7.079914E-5,9.36283E-5,7.495797E-6,4.1795895E-5,5.0424132E-6,0E0,1.1049589E-4,1.9612443E-4,1.0099884E-3,5.925412E-5,1.08577486E-4,1.02505495E-4,1.366738E-4,1.2591481E-3,1.2281543E-4,1.2642695E-3,2.7012892E-4,3.2455977E-3,1.5867115E-3,0E0,0E0,0E0,0E0,0E0,0E0,0E0,0E0,0E0,0E0,0E0,0E0,0E0,0E0,0E0,0E0,0E0,0E0,0E0,0E0,0E0,0E0,0E0,0E0,0E0,0E0,0E0,0E0,0E0,0E0,0E0,0E0,0E0,0E0,0E0,0E0,0E0,0E0,0E0,0E0,0E0,0E0,0E0,0E0],"parents":[2147483647,0,0,1,1,2,2,3,3,4,4,5,5,6,6,7,7,8,8,9,9,10,10,11,11,13,13,14,14,15,15,16,16,17,17,18,18,19,19,20,20,21,21,22,22,23,23,25,25,26,26,27,27,29,29,30,30,31,31,32,32,33,33,34,34,35,35,36,36,38,38,39,39,40,40,41,41,42,42,43,43,44,44,45,45,46,46,47,47,48,48,49,49,50,50],"right_children":[2,4,6,8,10,12,14,16,18,20,22,24,-1,26,28,30,32,34,36,38,40,42,44,46,-1,48,50,52,-1,54,56,58,60,62,64,66,68,-1,70,72,74,76,78,80,82,84,86,88,90,92,94,-1,-1,-1,-1,-1,-1,-1,-1,-1,-1,-1,-1,-1,-1,-1,-1,-1,-1,-1,-1,-1,-1,-1,-1,-1,-1,-1,-1,-1,-1,-1,-1,-1,-1,-1,-1,-1,-1,-1,-1,-1,-1,-1,-1],"split_conditions":[7.78977E-1,5.5032754E-1,4.9459606E-1,3.9891416E-1,2.458793E-1,8.79952E-1,9.4010663E-1,4.526648E-1,4.3565118E-1,6.7295283E-1,6.810348E-1,2.4901594E-1,-2.739265E-2,8.606215E-1,9.49E-1,1.1267606E-3,1.1267606E-3,5.320341E-1,5.2593106E-1,5.633803E-4,6.375E-1,6.2340826E-1,6.851902E-1,9.455E-1,-8.112702E-3,6.22E-1,6.2481654E-1,9.398231E-1,-7.3678046E-3,2.0760823E-2,1.8150465E-1,6.4651445E-2,4E-3,8.29392E-2,1.6901408E-3,6.028169E-2,6.253521E-2,-5.1659793E-3,3.7246056E-2,6.9503546E-1,7.2411793E-1,7.808574E-1,2.892684E-1,6.140845E-2,3.380282E-2,7.846799E-1,8.3193886E-1,8.2377714E-1,3.3802816E-3,9.177834E-1,9.715E-1,-3.1163981E-2,-8.01523E-3,-1.040409E-3,8.3907845E-4,4.7889096E-3,3.6896076E-3,4.1645765E-4,2.047591E-3,1.5009543E-3,5.5092406E-3,1.1850198E-3,2.7534564E-3,1.7714301E-3,6.8516354E-4,4.234312E-3,2.6971216E-3,2.9296875E-3,7.018149E-4,-2.3604482E-3,-9.634802E-6,-4.915561E-3,-9.802667E-3,1.282163E-3,-6.3945055E-3,1.8231478E-3,3.00947E-3,-1.5555397E-3,1.2098136E-3,-1.2309969E-3,-4.351894E-3,1.6529812E-3,-3.8012862E-5,-1.1040375E-2,-2.7970487E-2,-1.7421544E-3,-1.091136E-2,-1.3387674E-3,-7.539876E-3,5.2850097E-3,-8.801799E-4,-9.991757E-3,-2.8947167E-2,-5.525978E-3,-2.0990953E-2],"split_indices":[0,0,3,0,3,0,0,3,3,0,0,3,0,0,2,1,1,0,0,1,2,0,3,2,0,2,3,3,0,3,0,0,2,3,1,1,1,0,3,0,0,3,3,1,1,0,0,0,1,0,2,0,0,0,0,0,0,0,0,0,0,0,0,0,0,0,0,0,0,0,0,0,0,0,0,0,0,0,0,0,0,0,0,0,0,0,0,0,0,0,0,0,0,0,0],"split_type":[0,0,0,0,0,0,0,0,0,0,0,0,0,0,0,0,0,0,0,0,0,0,0,0,0,0,0,0,0,0,0,0,0,0,0,0,0,0,0,0,0,0,0,0,0,0,0,0,0,0,0,0,0,0,0,0,0,0,0,0,0,0,0,0,0,0,0,0,0,0,0,0,0,0,0,0,0,0,0,0,0,0,0,0,0,0,0,0,0,0,0,0,0,0,0],"sum_hessian":[1.269E3,1.052E3,2.17E2,7.55E2,2.97E2,1.19E2,9.8E1,5.39E2,2.16E2,7.8E1,2.19E2,6.5E1,5.4E1,8.7E1,1.1E1,2.5E2,2.89E2,8.4E1,1.32E2,3.6E1,4.2E1,1.16E2,1.03E2,3.3E1,3.2E1,4.9E1,3.8E1,1E1,1E0,6E0,2.44E2,4E0,2.85E2,7.2E1,1.2E1,1.05E2,2.7E1,1E0,3.5E1,2.6E1,1.6E1,6.8E1,4.8E1,5.3E1,5E1,3.1E1,2E0,3.3E1,1.6E1,1.3E1,2.5E1,9E0,1E0,2E0,4E0,1.13E2,1.31E2,1E0,3E0,2E0,2.83E2,1.4E1,5.8E1,2E0,1E1,9.3E1,1.2E1,2.6E1,1E0,5E0,3E1,6E0,2E1,7E0,9E0,5E1,1.8E1,3E0,4.5E1,5.1E1,2E0,3.1E1,1.9E1,3E0,2.8E1,1E0,1E0,1.8E1,1.5E1,1E0,1.5E1,1E1,3E0,2.4E1,1E0],"tree_param":{"num_deleted":"0","num_feature":"4","num_nodes":"95","size_leaf_vector":"1"}},{"base_weights":[-4.5178016E-4,2.5052004E-3,-2.0269772E-2,4.013395E-3,-3.1938315E-3,-2.6529891E-2,-1.4490692E-2,4.7040572E-3,1.9972406E-3,-1.9075042E-2,-1.5228343E-3,-1.9668398E-2,-2.8874258E-2,-9.906337E-3,-1.6527195E-2,4.019267E-3,5.5914354E-3,-8.093183E-4,2.5361055E-3,-1.0991072E-2,-1.9400224E-2,-1.6028136E-2,-1.2365648E-3,-2.9179288E-2,-6.6402177E-3,-1.4605613E-2,-2.5852323E-3,-8.353346E-3,-3.4218848E-2,4.7091097E-3,3.1100863E-3,5.953454E-3,4.1283583E-3,9.082148E-4,-2.4842557E-3,1.9022839E-3,3.3759088E-3,-5.234182E-4,-1.3196753E-2,-2.1212548E-3,-9.271254E-3,2.0833607E-4,-3.459319E-3,-1.5516829E-2,-1.265351E-2,-3.4747124E-3,-8.870363E-4,8.8914335E-3,-9.271918E-3,-3.523022E-3,-2.0463884E-2,3.474752E-4,2.4020446E-3,1.8505114E-5,1.6880864E-3,4.9084425E-5,3.0029994E-3,2.1279727E-3,1.6404192E-4,9.053133E-5,8.4802177E-4,-3.8744807E-3,-8.806371E-4,1.4887499E-3,6.582619E-4,1.9034016E-3,1.0334388E-3,-1.9037724E-3,2.3322403E-3,-8.564959E-3,-4.5541693E-3,5.9741375E-4,-1.1117652E-3,-8.454168E-3,-1.2764263E-3,-1.3066083E-3,-8.183524E-3,-1.1682212E-3,1.0643765E-2,-2.7918036E-3,-7.962345E-3],"categories":[],"categories_nodes":[],"categories_segments":[],"categories_sizes":[],"default_left":[0,0,0,0,0,0,0,0,0,0,0,0,0,0,0,0,0,0,0,0,0,0,0,0,0,0,0,0,0,0,0,0,0,0,0,0,0,0,0,0,0,0,0,0,0,0,0,0,0,0,0,0,0,0,0,0,0,0,0,0,0,0,0,0,0,0,0,0,0,0,0,0,0,0,0,0,0,0,0,0,0],"id":3,"left_children":[1,3,5,7,9,11,13,15,17,19,21,23,25,27,-1,29,31,33,35,37,-1,39,41,43,45,-1,-1,47,49,51,53,55,57,59,61,63,65,67,69,-1,-1,71,73,-1,75,-1,-1,77,79,-1,-1,-1,-1,-1,-1,-1,-1,-1,-1,-1,-1,-1,-1,-1,-1,-1,-1,-1,-1,-1,-1,-1,-1,-1,-1,-1,-1,-1,-1,-1,-1],"loss_changes":[7.447458E-2,9.519164E-3,5.584888E-3,1.2090262E-3,6.1276425E-3,6.8678334E-4,7.16158E-3,3.731195E-4,3.4233253E-4,3.0816523E-3,8.563418E-4,2.6561646E-3,2.962649E-4,2.4326704E-3,0E0,2.1804217E-4,1.2425799E-4,1.08696375E-4,9.4179995E-5,3.8559386E-4,0E0,3.9867125E-5,6.687459E-4,5.698763E-6,4.2223546E-6,0E0,0E0,1.1754399E-3,4.4082198E-4,7.6345634E-5,1.3316097E-4,6.8019144E-5,2.72108E-5,1.0577463E-5,5.8671365E-5,6.536013E-5,3.7256163E-5,8.591108E-5,6.9100875E-5,0E0,0E0,3.073317E-4,9.565045E-4,0E0,6.90844E-5,0E0,0E0,6.0646445E-4,1.5305569E-3,0E0,0E0,0E0,0E0,0E0,0E0,0E0,0E0,0E0,0E0,0E0,0E0,0E0,0E0,0E0,0E0,0E0,0E0,0E0,0E0,0E0,0E0,0E0,0E0,0E0,0E0,0E0,0E0,0E0,0E0,0E0,0E0],"parents":[2147483647,0,0,1,1,2,2,3,3,4,4,5,5,6,6,7,7,8,8,9,9,10,10,11,11,12,12,13,13,15,15,16,16,17,17,18,18,19,19,21,21,22,22,23,23,24,24,27,27,28,28,29,29,30,30,31,31,32,32,33,33,34,34,35,35,36,36,37,37,38,38,41,41,42,42,44,44,47,47,48,48],"right_children":[2,4,6,8,10,12,14,16,18,20,22,24,26,28,-1,30,32,34,36,38,-1,40,42,44,46,-1,-1,48,50,52,54,56,58,60,62,64,66,68,70,-1,-1,72,74,-1,76,-1,-1,78,80,-1,-1,-1,-1,-1,-1,-1,-1,-1,-1,-1,-1,-1,-1,-1,-1,-1,-1,-1,-1,-1,-1,-1,-1,-1,-1,-1,-1,-1,-1,-1,-1],"split_conditions":[8.2731974E-1,6.567252E-1,3.9543295E-1,4.8386514E-1,7.681823E-2,8.564158E-1,9.4010663E-1,5.7753295E-1,2.2873318E-1,7.846799E-1,5.633803E-4,2.4418241E-1,6.535211E-2,9.675E-1,-1.6527195E-2,2.794302E-1,5.1267605E-2,5.7430786E-1,6.6653174E-1,6.7295283E-1,-1.9400224E-2,6.6319346E-1,7.5207615E-1,9.455E-1,3.7904677E-1,-1.4605613E-2,-2.5852323E-3,4.183258E-1,8.9704335E-1,1.6E-2,4.205335E-2,5.633803E-4,9.798819E-1,5.3418565E-1,5.633803E-4,5.2822626E-1,5.0140847E-2,6.669281E-1,5.9160683E-2,-2.1212548E-3,-9.271254E-3,4.507042E-2,1.3726626E-1,-1.5516829E-2,8.3193886E-1,-3.4747124E-3,-8.870363E-4,8.3571875E-1,4.112676E-2,-3.523022E-3,-2.0463884E-2,3.474752E-4,2.4020446E-3,1.8505114E-5,1.6880864E-3,4.9084425E-5,3.0029994E-3,2.1279727E-3,1.6404192E-4,9.053133E-5,8.4802177E-4,-3.8744807E-3,-8.806371E-4,1.4887499E-3,6.582619E-4,1.9034016E-3,1.0334388E-3,-1.9037724E-3,2.3322403E-3,-8.564959E-3,-4.5541693E-3,5.9741375E-4,-1.1117652E-3,-8.454168E-3,-1.2764263E-3,-1.3066083E-3,-8.183524E-3,-1.1682212E-3,1.0643765E-2,-2.7918036E-3,-7.962345E-3],"split_indices":[0,0,3,0,3,0,0,3,3,0,1,3,1,2,0,0,1,0,3,0,0,0,0,2,3,0,0,3,0,2,3,1,3,0,1,0,1,0,3,0,0,1,3,0,0,0,0,0,1,0,0,0,0,0,0,0,0,0,0,0,0,0,0,0,0,0,0,0,0,0,0,0,0,0,0,0,0,0,0,0,0],"split_type":[0,0,0,0,0,0,0,0,0,0,0,0,0,0,0,0,0,0,0,0,0,0,0,0,0,0,0,0,0,0,0,0,0,0,0,0,0,0,0,0,0,0,0,0,0,0,0,0,0,0,0,0,0,0,0,0,0,0,0,0,0,0,0,0,0,0,0,0,0,0,0,0,0,0,0,0,0,0,0,0,0],"sum_hessian":[1.269E3,1.105E3,1.64E2,8.74E2,2.31E2,7.7E1,8.7E1,6.5E2,2.24E2,2.1E1,2.1E2,2.2E1,5.5E1,7.1E1,1.6E1,3.7E2,2.8E2,3.6E1,1.88E2,1.6E1,5E0,3E0,2.07E2,1.2E1,1E1,5.4E1,1E0,6.8E1,3E0,2.08E2,1.62E2,2.22E2,5.8E1,1.8E1,1.8E1,1.09E2,7.9E1,3E0,1.3E1,1E0,2E0,1.26E2,8.1E1,1E1,2E0,9E0,1E0,3E0,6.5E1,1E0,2E0,5E0,2.03E2,1.3E1,1.49E2,2E0,2.2E2,5.6E1,2E0,1E1,8E0,1E0,1.7E1,3.7E1,7.2E1,5.8E1,2.1E1,2E0,1E0,5E0,8E0,9E1,3.6E1,4E0,7.7E1,1E0,1E0,2E0,1E0,4.3E1,2.2E1],"tree_param":{"num_deleted":"0","num_feature":"4","num_nodes":"81","size_leaf_vector":"1"}},{"base_weights":[-3.2904936E-4,1.5949298E-3,-8.721731E-3,2.2037602E-3,-3.7474753E-4,-1.1294112E-2,-3.2298465E-3,2.7792614E-3,1.7029669E-3,-2.8149644E-3,6.3715107E-4,-8.733605E-3,-1.6968463E-2,-1.6454615E-3,-2.1704158E-2,3.9318204E-4,2.8801106E-3,8.335661E-4,1.9178654E-3,-1.1986375E-2,-2.2424918E-3,2.4049635E-4,2.3246605E-3,-1.2508171E-2,-2.5301224E-3,-5.9194863E-3,-2.181839E-2,-1.0699193E-3,-1.062724E-2,-5.9844553E-3,-1.3724883E-2,6.27556E-4,-4.1581193E-4,2.596533E-3,3.494118E-3,-8.6625916E-4,1.0944239E-3,3.348142E-4,1.989899E-3,-1.5909374E-3,-6.9302917E-3,-8.5996214E-4,-5.1569883E-3,-3.945142E-3,3.5921618E-4,2.431022E-3,-2.6972592E-4,-8.194226E-3,-1.6134279E-2,-3.744928E-3,1.0554165E-2,-1.7835382E-2,-2.8943496E-2,1.7371759E-2,-2.077876E-3,-4.8696995E-4,4.1283324E-4,-2.1173358E-4,1.3243153E-3,1.9023548E-3,1.3364671E-3,-1.6494692E-4,-1.1826953E-3,3.332086E-5,6.751294E-4,9.620935E-4,-8.998926E-5,1.1460193E-3,7.653853E-4,-4.344652E-3,1.2625165E-4,-5.835056E-4,-3.9147553E-3,-2.6681721E-3,5.711615E-5,9.326168E-4,4.521488E-5,6.24001E-4,1.3280133E-3,-8.190401E-3,-4.344959E-4,-8.416277E-3,-3.0826777E-3,-8.263424E-3,-1.5061044E-3,-1.0816753E-3,7.7572265E-3,-3.6469698E-3,-1.01631135E-2,-1.6857874E-2,-5.670955E-3,3.692549E-4,-2.4576809E-3],"categories":[],"categories_nodes":[],"categories_segments":[],"categories_sizes":[],"default_left":[0,0,0,0,0,0,0,0,0,0,0,0,0,0,0,0,0,0,0,0,0,0,0,0,0,0,0,0,0,0,0,0,0,0,0,0,0,0,0,0,0,0,0,0,0,0,0,0,0,0,0,0,0,0,0,0,0,0,0,0,0,0,0,0,0,0,0,0,0,0,0,0,0,0,0,0,0,0,0,0,0,0,0,0,0,0,0,0,0,0,0,0,0],"id":4,"left_children":[1,3,5,7,9,11,13,15,17,19,21,23,25,27,29,31,33,35,37,39,41,43,45,47,49,-1,51,53,-1,-1,-1,55,-1,57,59,61,63,65,67,-1,-1,69,71,73,75,77,-1,79,81,83,85,87,89,-1,91,-1,-1,-1,-1,-1,-1,-1,-1,-1,-1,-1,-1,-1,-1,-1,-1,-1,-1,-1,-1,-1,-1,-1,-1,-1,-1,-1,-1,-1,-1,-1,-1,-1,-1,-1,-1,-1,-1],"loss_changes":[2.0521037E-2,1.240798E-3,3.3116713E-3,2.2295048E-4,6.0676027E-4,2.1910071E-3,2.2181089E-3,8.693966E-5,7.780548E-5,3.5114808E-4,1.1590934E-4,2.614298E-3,9.606974E-4,7.8983826E-4,7.0657115E-6,5.1148927E-6,5.2043004E-5,3.9081544E-5,3.8104947E-5,2.1903194E-5,2.7359225E-4,7.1979564E-5,1.1364231E-5,9.6279103E-4,7.388985E-4,0E0,1.64886E-4,2.6351782E-3,0E0,0E0,0E0,5.2459727E-6,0E0,3.951136E-5,1.7376035E-5,8.868657E-6,1.9630716E-5,1.3437472E-5,4.1575753E-5,0E0,0E0,4.2026796E-4,2.254555E-4,2.3199216E-5,5.609812E-5,5.2031974E-6,0E0,2.0246974E-3,1.5378091E-4,3.3420563E-4,2.8589336E-4,3.2436894E-4,2.0559365E-4,0E0,5.630319E-4,0E0,0E0,0E0,0E0,0E0,0E0,0E0,0E0,0E0,0E0,0E0,0E0,0E0,0E0,0E0,0E0,0E0,0E0,0E0,0E0,0E0,0E0,0E0,0E0,0E0,0E0,0E0,0E0,0E0,0E0,0E0,0E0,0E0,0E0,0E0,0E0,0E0,0E0],"parents":[2147483647,0,0,1,1,2,2,3,3,4,4,5,5,6,6,7,7,8,8,9,9,10,10,11,11,12,12,13,13,14,14,15,15,16,16,17,17,18,18,19,19,20,20,21,21,22,22,23,23,24,24,26,26,27,27,31,31,33,33,34,34,35,35,36,36,37,37,38,38,41,41,42,42,43,43,44,44,45,45,47,47,48,48,49,49,50,50,51,51,52,52,54,54],"right_children":[2,4,6,8,10,12,14,16,18,20,22,24,26,28,30,32,34,36,38,40,42,44,46,48,50,-1,52,54,-1,-1,-1,56,-1,58,60,62,64,66,68,-1,-1,70,72,74,76,78,-1,80,82,84,86,88,90,-1,92,-1,-1,-1,-1,-1,-1,-1,-1,-1,-1,-1,-1,-1,-1,-1,-1,-1,-1,-1,-1,-1,-1,-1,-1,-1,-1,-1,-1,-1,-1,-1,-1,-1,-1,-1,-1,-1,-1],"split_conditions":[7.655693E-1,5.796834E-1,6.4487195E-1,2.839813E-1,3.0186996E-1,9.091715E-1,9.458312E-1,3.7246056E-2,2.1005188E-1,5.633803E-4,8.673093E-1,3.5513535E-1,3.3845374E-1,9.84E-1,6.91E-1,2.0494673E-1,6.9958735E-1,3.943662E-3,2.8169013E-3,2.185E-1,7.084343E-1,7E-3,5.859155E-2,8.3193886E-1,5.6338027E-2,-5.9194863E-3,7.815E-1,6.615642E-1,-1.062724E-2,-5.9844553E-3,-1.3724883E-2,5.633803E-4,-4.1581193E-4,1.1267606E-3,4.112676E-2,7.63E-1,3.232715E-1,3.09351E-1,4.169014E-2,-1.5909374E-3,-6.9302917E-3,3.0083084E-2,2.253521E-2,6.410735E-1,7.887324E-3,8.797903E-1,-2.6972592E-4,1.2684804E-1,5.971831E-2,1.6901408E-3,8.487123E-1,9.177834E-1,9.4010663E-1,1.7371759E-2,8.4121215E-1,-4.8696995E-4,4.1283324E-4,-2.1173358E-4,1.3243153E-3,1.9023548E-3,1.3364671E-3,-1.6494692E-4,-1.1826953E-3,3.332086E-5,6.751294E-4,9.620935E-4,-8.998926E-5,1.1460193E-3,7.653853E-4,-4.344652E-3,1.2625165E-4,-5.835056E-4,-3.9147553E-3,-2.6681721E-3,5.711615E-5,9.326168E-4,4.521488E-5,6.24001E-4,1.3280133E-3,-8.190401E-3,-4.344959E-4,-8.416277E-3,-3.0826777E-3,-8.263424E-3,-1.5061044E-3,-1.0816753E-3,7.7572265E-3,-3.6469698E-3,-1.01631135E-2,-1.6857874E-2,-5.670955E-3,3.692549E-4,-2.4576809E-3],"split_indices":[0,0,3,0,3,0,0,3,3,1,3,3,3,2,2,0,3,1,1,2,0,2,1,0,1,0,2,3,0,0,0,1,0,1,1,2,0,3,1,0,0,3,1,3,1,3,0,3,1,1,0,0,0,0,0,0,0,0,0,0,0,0,0,0,0,0,0,0,0,0,0,0,0,0,0,0,0,0,0,0,0,0,0,0,0,0,0,0,0,0,0,0,0],"split_type":[0,0,0,0,0,0,0,0,0,0,0,0,0,0,0,0,0,0,0,0,0,0,0,0,0,0,0,0,0,0,0,0,0,0,0,0,0,0,0,0,0,0,0,0,0,0,0,0,0,0,0,0,0,0,0,0,0,0,0,0,0,0,0,0,0,0,0,0,0,0,0,0,0,0,0,0,0,0,0,0,0,0,0,0,0,0,0,0,0,0,0,0,0],"sum_hessian":[1.269E3,1.033E3,2.36E2,7.89E2,2.44E2,1.6E2,7.6E1,3.65E2,4.24E2,7.1E1,1.73E2,1.12E2,4.8E1,7.1E1,5E0,1.5E1,3.5E2,8.5E1,3.39E2,3E0,6.8E1,1.41E2,3.2E1,6.9E1,4.3E1,2.5E1,2.3E1,7E1,1E0,3E0,2E0,1.3E1,2E0,2.43E2,1.07E2,1.1E1,7.4E1,1.5E1,3.24E2,1E0,2E0,4.7E1,2.1E1,3E0,1.38E2,3.1E1,1E0,3.3E1,3.6E1,4E1,3E0,1.7E1,6E0,1E0,6.9E1,1E0,1.2E1,4E0,2.39E2,7.5E1,3.2E1,9E0,2E0,1.5E1,5.9E1,3E0,1.2E1,1.93E2,1.31E2,5E0,4.2E1,9E0,1.2E1,2E0,1E0,2E1,1.18E2,6E0,2.5E1,1.5E1,1.8E1,3.3E1,3E0,1E0,3.9E1,1E0,2E0,4E0,1.3E1,4E0,2E0,3.5E1,3.4E1],"tree_param":{"num_deleted":"0","num_feature":"4","num_nodes":"93","size_leaf_vector":"1"}},{"base_weights":[-2.3673529E-4,7.560154E-4,-4.9011568E-3,1.0822072E-3,-5.43059E-4,-6.4233653E-3,-1.8116871E-3,1.3058252E-3,5.910611E-4,-8.965045E-3,-3.784869E-4,-4.941551E-3,-9.346629E-3,-4.3842508E-4,-1.1833562E-2,-3.6381735E-4,1.3604345E-3,2.4304661E-4,1.0994277E-3,-1.1932105E-3,-5.181223E-3,-6.73064E-3,-2.2094157E-4,-7.0713633E-3,-1.5168026E-3,-3.0735652E-3,-1.24233095E-2,-1.7996281E-3,9.825401E-3,-1.2922935E-2,-7.7964365E-4,-6.831569E-4,7.835229E-4,1.6935589E-3,1.1748779E-3,-1.7531812E-3,2.9299414E-4,-2.283752E-4,1.1946576E-3,-1.5756687E-3,-4.8210323E-3,4.0802252E-4,-9.4689004E-4,-1.1157113E-2,-4.545273E-3,-2.175542E-3,6.0435086E-3,-1.5186957E-2,-3.8882738E-3,7.377636E-5,-5.846121E-3,-6.7911E-3,2.115352E-2,-3.498304E-3,-8.550055E-3,8.101084E-5,-9.568504E-4,8.145637E-5,8.7874307E-4,4.9293804E-4,8.431661E-4,-1.1614859E-3,-1.09523535E-5,1.8024015E-4,-3.6080182E-4,-6.560087E-4,3.4210682E-4,6.170914E-4,-2.4735928E-4,-1.1996925E-4,-1.0617822E-3,5.388585E-4,-2.9163162E-4,-1.6288124E-3,-8.174694E-5,-7.53487E-3,-2.2818625E-3,-4.255108E-3,-4.5720013E-4,-6.1975718E-3,-7.902086E-4,-8.027836E-3,-9.7341835E-4,-4.1375245E-4,2.00383E-3,-5.036384E-3,-2.0237486E-3,7.86225E-4,-7.970437E-3,1.4799967E-2,-3.158033E-3],"categories":[],"categories_nodes":[],"categories_segments":[],"categories_sizes":[],"default_left":[0,0,0,0,0,0,0,0,0,0,0,0,0,0,0,0,0,0,0,0,0,0,0,0,0,0,0,0,0,0,0,0,0,0,0,0,0,0,0,0,0,0,0,0,0,0,0,0,0,0,0,0,0,0,0,0,0,0,0,0,0,0,0,0,0,0,0,0,0,0,0,0,0,0,0,0,0,0,0,0,0,0,0,0,0,0,0,0,0,0,0],"id":5,"left_children":[1,3,5,7,9,11,13,15,17,19,21,23,25,27,29,31,33,35,37,-1,-1,39,41,43,45,-1,47,49,51,53,-1,55,-1,57,59,61,63,65,67,69,-1,71,73,75,77,79,-1,81,-1,83,85,87,89,-1,-1,-1,-1,-1,-1,-1,-1,-1,-1,-1,-1,-1,-1,-1,-1,-1,-1,-1,-1,-1,-1,-1,-1,-1,-1,-1,-1,-1,-1,-1,-1,-1,-1,-1,-1,-1,-1],"loss_changes":[5.8845775E-3,4.4467504E-4,1.037091E-3,9.126484E-5,2.8905796E-4,5.9924135E-4,1.0270114E-3,5.292229E-5,4.6439396E-5,1.2042787E-5,2.0666939E-4,7.259755E-4,4.059798E-4,9.5374923E-4,8.0582104E-5,1.2785957E-5,3.244041E-5,1.6267317E-5,1.3802623E-5,0E0,0E0,5.9848855E-5,9.353184E-5,5.891884E-4,3.8475072E-4,0E0,1.9010622E-4,4.552743E-4,1.6495255E-3,7.839978E-5,0E0,1.799056E-5,0E0,1.8990133E-5,3.323384E-5,3.8949775E-6,1.0873182E-5,8.809058E-6,7.2878756E-6,1.6859981E-6,0E0,7.3653035E-5,1.7143835E-4,5.245672E-4,5.680664E-4,2.1760612E-4,0E0,1.2976839E-4,0E0,1.5222885E-4,1.0367128E-4,3.3116463E-4,1.3470526E-3,0E0,0E0,0E0,0E0,0E0,0E0,0E0,0E0,0E0,0E0,0E0,0E0,0E0,0E0,0E0,0E0,0E0,0E0,0E0,0E0,0E0,0E0,0E0,0E0,0E0,0E0,0E0,0E0,0E0,0E0,0E0,0E0,0E0,0E0,0E0,0E0,0E0,0E0],"parents":[2147483647,0,0,1,1,2,2,3,3,4,4,5,5,6,6,7,7,8,8,9,9,10,10,11,11,12,12,13,13,14,14,15,15,16,16,17,17,18,18,21,21,22,22,23,23,24,24,26,26,27,27,28,28,29,29,31,31,33,33,34,34,35,35,36,36,37,37,38,38,39,39,41,41,42,42,43,43,44,44,45,45,47,47,49,49,50,50,51,51,52,52],"right_children":[2,4,6,8,10,12,14,16,18,20,22,24,26,28,30,32,34,36,38,-1,-1,40,42,44,46,-1,48,50,52,54,-1,56,-1,58,60,62,64,66,68,70,-1,72,74,76,78,80,-1,82,-1,84,86,88,90,-1,-1,-1,-1,-1,-1,-1,-1,-1,-1,-1,-1,-1,-1,-1,-1,-1,-1,-1,-1,-1,-1,-1,-1,-1,-1,-1,-1,-1,-1,-1,-1,-1,-1,-1,-1,-1,-1],"split_conditions":[7.756817E-1,6.1395574E-1,6.4487195E-1,4.2278734E-1,5.633803E-4,9.091715E-1,9.4010663E-1,2.3093572E-2,6.1347824E-1,6.6319346E-1,3.0083084E-2,3.5513535E-1,3.3845374E-1,9.177834E-1,9.49E-1,3.7712282E-1,1.5011938E-1,1.1267606E-3,4.5070425E-3,-1.1932105E-3,-5.181223E-3,6.669281E-1,7.084343E-1,1.971831E-2,6.253521E-2,-3.0735652E-3,9.4010663E-1,8.606215E-1,1.0140845E-2,6.91E-1,-7.7964365E-4,2.0494673E-1,7.835229E-4,1.6901408E-3,7.583439E-1,6.28E-1,6.3098595E-2,4.8068488E-1,6.3098595E-2,6.525491E-1,-4.8210323E-3,3.943662E-2,2.1005188E-1,5.79E-1,2.865E-1,1.6901408E-3,6.0435086E-3,6.227515E-1,-3.8882738E-3,7.35E-1,1.35211265E-2,9.2685676E-1,2.8732395E-2,-3.498304E-3,-8.550055E-3,8.101084E-5,-9.568504E-4,8.145637E-5,8.7874307E-4,4.9293804E-4,8.431661E-4,-1.1614859E-3,-1.09523535E-5,1.8024015E-4,-3.6080182E-4,-6.560087E-4,3.4210682E-4,6.170914E-4,-2.4735928E-4,-1.1996925E-4,-1.0617822E-3,5.388585E-4,-2.9163162E-4,-1.6288124E-3,-8.174694E-5,-7.53487E-3,-2.2818625E-3,-4.255108E-3,-4.5720013E-4,-6.1975718E-3,-7.902086E-4,-8.027836E-3,-9.7341835E-4,-4.1375245E-4,2.00383E-3,-5.036384E-3,-2.0237486E-3,7.86225E-4,-7.970437E-3,1.4799967E-2,-3.158033E-3],"split_indices":[0,0,3,0,1,0,0,3,3,0,3,3,3,0,2,0,0,1,1,0,0,0,0,1,1,0,0,0,1,2,0,0,0,1,3,2,1,0,1,0,0,1,3,2,2,1,0,3,0,2,1,0,1,0,0,0,0,0,0,0,0,0,0,0,0,0,0,0,0,0,0,0,0,0,0,0,0,0,0,0,0,0,0,0,0,0,0,0,0,0,0],"split_type":[0,0,0,0,0,0,0,0,0,0,0,0,0,0,0,0,0,0,0,0,0,0,0,0,0,0,0,0,0,0,0,0,0,0,0,0,0,0,0,0,0,0,0,0,0,0,0,0,0,0,0,0,0,0,0,0,0,0,0,0,0,0,0,0,0,0,0,0,0,0,0,0,0,0,0,0,0,0,0,0,0,0,0,0,0,0,0,0,0,0,0],"sum_hessian":[1.269E3,1.047E3,2.22E2,8.37E2,2.1E2,1.48E2,7.4E1,5.74E2,2.63E2,3E0,2.07E2,1E2,4.8E1,6.6E1,8E0,1.8E1,5.56E2,1.57E2,1.06E2,1E0,2E0,4E0,2.03E2,6.1E1,3.9E1,2.5E1,2.3E1,5.9E1,7E0,7E0,1E0,1.6E1,2E0,1.96E2,3.6E2,3E0,1.54E2,7E0,9.9E1,2E0,2E0,1.09E2,9.4E1,2.2E1,3.9E1,3.8E1,1E0,1.3E1,1E1,4.1E1,1.8E1,3E0,4E0,4E0,3E0,1E1,6E0,8E0,1.88E2,2.65E2,9.5E1,2E0,1E0,1.45E2,9E0,3E0,4E0,9.7E1,2E0,1E0,1E0,6.5E1,4.4E1,2.3E1,7.1E1,1.3E1,9E0,1.8E1,2.1E1,1E0,3.7E1,1.2E1,1E0,3.4E1,7E0,4E0,1.4E1,2E0,1E0,3E0,1E0],"tree_param":{"num_deleted":"0","num_feature":"4","num_nodes":"91","size_leaf_vector":"1"}},{"base_weights":[-1.6420432E-4,3.5416803E-4,-2.7382595E-3,5.990493E-4,-2.0742102E-4,-2.1103008E-3,-6.3569103E-3,1.4042725E-4,7.03534E-4,-5.567229E-3,-1.2249504E-4,-2.4196233E-3,6.01261E-3,-2.5639425E-3,-8.040993E-3,-1.036942E-3,2.3060759E-4,8.424979E-4,3.945146E-4,-1.0762811E-3,-7.1261525E-3,-3.468403E-3,-4.7033987E-5,-6.237322E-3,-1.9482026E-3,7.9549354E-4,9.328827E-3,-6.870985E-3,8.787938E-4,-9.359792E-3,-3.1840305E-3,-5.8762566E-4,5.196035E-5,3.4696178E-4,-6.128289E-4,6.7271583E-4,1.1356977E-3,1.1826158E-3,3.243075E-4,-8.829087E-4,-4.4617057E-3,-4.9199164E-4,-2.7888566E-3,-5.717825E-4,3.5121368E-4,-6.584561E-3,-3.5109003E-3,-1.390692E-4,-3.2306083E-3,3.1167865E-3,-1.538837E-3,-3.915854E-3,-7.570237E-4,2.3035407E-3,-7.6565146E-4,-2.7518868E-3,-1.0107215E-2,1.4708042E-3,-4.1645668E-3,6.361222E-5,5.4289744E-4,-4.422491E-4,8.0871585E-5,-6.9790584E-4,3.5901903E-4,-5.4057688E-5,5.9866987E-4,6.879774E-4,-2.4696192E-5,-1.8636882E-4,1.9620536E-4,9.2228256E-5,-6.30334E-4,-3.601769E-4,1.3712794E-3,1.0129576E-4,6.0614484E-4,-1.32707E-3,-3.0266147E-3,5.985938E-3,-4.4691516E-4,-4.8805685E-3,-1.2073524E-3,-1.8550952E-4,-1.0968546E-3,-1.9609928E-5,2.3329556E-3,-5.872647E-4,1.1524558E-4,-1.6999096E-3,-3.6400557E-4,-1.7060438E-3,-5.4693646E-3,1.3703605E-3,-5.8473647E-4],"categories":[],"categories_nodes":[],"categories_segments":[],"categories_sizes":[],"default_left":[0,0,0,0,0,0,0,0,0,0,0,0,0,0,0,0,0,0,0,0,0,0,0,0,0,0,0,0,0,0,0,0,0,0,0,0,0,0,0,0,0,0,0,0,0,0,0,0,0,0,0,0,0,0,0,0,0,0,0,0,0,0,0,0,0,0,0,0,0,0,0,0,0,0,0,0,0,0,0,0,0,0,0,0,0,0,0,0,0,0,0,0,0,0,0],"id":6,"left_children":[1,3,5,7,9,11,13,15,17,19,21,23,25,27,29,31,33,35,37,-1,39,41,43,45,47,49,-1,51,53,55,57,-1,-1,59,61,63,65,67,69,-1,-1,71,-1,73,75,-1,77,79,81,-1,83,-1,-1,85,87,89,91,93,-1,-1,-1,-1,-1,-1,-1,-1,-1,-1,-1,-1,-1,-1,-1,-1,-1,-1,-1,-1,-1,-1,-1,-1,-1,-1,-1,-1,-1,-1,-1,-1,-1,-1,-1,-1,-1],"loss_changes":[1.6955549E-3,1.4562323E-4,4.7059846E-4,3.521747E-5,1.4588823E-4,4.7435373E-4,1.7740123E-4,1.4891357E-5,2.5433139E-5,1.12765265E-5,8.012733E-5,3.064028E-4,4.4695268E-4,1.6914631E-4,1.04710576E-4,1.7000511E-6,1.2872348E-5,1.9795174E-5,1.0018564E-5,0E0,1.3144629E-5,4.1203042E-5,6.540254E-5,3.128457E-4,3.6843756E-4,8.57581E-5,0E0,1.3875077E-5,1.8164137E-5,5.120854E-5,1.5594813E-4,0E0,0E0,1.8369672E-5,3.5099001E-6,2.575232E-5,1.16301235E-5,3.6408928E-6,8.406227E-6,0E0,0E0,2.3124173E-6,0E0,6.8451765E-5,2.2533946E-5,0E0,1.660637E-5,6.2313915E-4,4.7195994E-4,0E0,3.009949E-6,0E0,0E0,2.2320868E-5,1.8999215E-6,1.458895E-6,4.0615443E-5,1.6616927E-5,0E0,0E0,0E0,0E0,0E0,0E0,0E0,0E0,0E0,0E0,0E0,0E0,0E0,0E0,0E0,0E0,0E0,0E0,0E0,0E0,0E0,0E0,0E0,0E0,0E0,0E0,0E0,0E0,0E0,0E0,0E0,0E0,0E0,0E0,0E0,0E0,0E0],"parents":[2147483647,0,0,1,1,2,2,3,3,4,4,5,5,6,6,7,7,8,8,9,9,10,10,11,11,12,12,13,13,14,14,15,15,16,16,17,17,18,18,20,20,21,21,22,22,23,23,24,24,25,25,27,27,28,28,29,29,30,30,33,33,34,34,35,35,36,36,37,37,38,38,41,41,43,43,44,44,46,46,47,47,48,48,50,50,53,53,54,54,55,55,56,56,57,57],"right_children":[2,4,6,8,10,12,14,16,18,20,22,24,26,28,30,32,34,36,38,-1,40,42,44,46,48,50,-1,52,54,56,58,-1,-1,60,62,64,66,68,70,-1,-1,72,-1,74,76,-1,78,80,82,-1,84,-1,-1,86,88,90,92,94,-1,-1,-1,-1,-1,-1,-1,-1,-1,-1,-1,-1,-1,-1,-1,-1,-1,-1,-1,-1,-1,-1,-1,-1,-1,-1,-1,-1,-1,-1,-1,-1,-1,-1,-1,-1,-1],"split_conditions":[7.846799E-1,5.3892463E-1,8.685E-1,1.8149155E-1,5.633803E-4,8.475E-1,8.487123E-1,3.943662E-3,4.5633804E-2,3.5E-1,1.5E-2,7.681823E-2,9.019794E-1,2.4418241E-1,8.336496E-1,4.0990084E-1,4.5330945E-1,7.0624644E-1,2.4202873E-1,-1.0762811E-3,5.944879E-1,6.7295283E-1,4.526648E-1,8.1086487E-1,8.564158E-1,7.991772E-1,9.328827E-3,4.450704E-2,3.4929577E-2,1.0904439E-1,2.5915492E-2,-5.8762566E-4,5.196035E-5,3.6301616E-1,1.5190677E-1,1.6E-2,1.6901408E-3,8.5E-1,1.06E-1,-8.829087E-4,-4.4617057E-3,5.1830985E-2,-2.7888566E-3,9.6E-1,9.195508E-1,-6.584561E-3,5.9160683E-2,1.5190677E-1,4.5070425E-3,3.1167865E-3,8.1928325E-1,-3.915854E-3,-7.570237E-4,8.1928325E-1,5.3521127E-2,8.5089755E-1,4.5070425E-3,9.4010663E-1,-4.1645668E-3,6.361222E-5,5.4289744E-4,-4.422491E-4,8.0871585E-5,-6.9790584E-4,3.5901903E-4,-5.4057688E-5,5.9866987E-4,6.879774E-4,-2.4696192E-5,-1.8636882E-4,1.9620536E-4,9.2228256E-5,-6.30334E-4,-3.601769E-4,1.3712794E-3,1.0129576E-4,6.0614484E-4,-1.32707E-3,-3.0266147E-3,5.985938E-3,-4.4691516E-4,-4.8805685E-3,-1.2073524E-3,-1.8550952E-4,-1.0968546E-3,-1.9609928E-5,2.3329556E-3,-5.872647E-4,1.1524558E-4,-1.6999096E-3,-3.6400557E-4,-1.7060438E-3,-5.4693646E-3,1.3703605E-3,-5.8473647E-4],"split_indices":[0,0,2,3,1,2,0,1,1,2,2,3,0,3,3,0,0,3,3,0,0,0,3,0,0,0,0,1,1,3,1,0,0,0,3,2,1,2,2,0,0,1,0,2,3,0,3,3,1,0,0,0,0,0,1,0,1,0,0,0,0,0,0,0,0,0,0,0,0,0,0,0,0,0,0,0,0,0,0,0,0,0,0,0,0,0,0,0,0,0,0,0,0,0,0],"split_type":[0,0,0,0,0,0,0,0,0,0,0,0,0,0,0,0,0,0,0,0,0,0,0,0,0,0,0,0,0,0,0,0,0,0,0,0,0,0,0,0,0,0,0,0,0,0,0,0,0,0,0,0,0,0,0,0,0,0,0,0,0,0,0,0,0,0,0,0,0,0,0,0,0,0,0,0,0,0,0,0,0,0,0,0,0,0,0,0,0,0,0,0,0,0,0],"sum_hessian":[1.269E3,1.057E3,2.12E2,7.36E2,3.21E2,1.82E2,3E1,1.37E2,5.99E2,4E0,3.17E2,1.76E2,6E0,1E1,2E1,9E0,1.28E2,4.12E2,1.87E2,2E0,2E0,6E0,3.11E2,1.8E1,1.58E2,5E0,1E0,4E0,6E0,1.5E1,5E0,8E0,1E0,1.13E2,1.5E1,2.63E2,1.49E2,1.4E1,1.73E2,1E0,1E0,3E0,3E0,1.34E2,1.77E2,4E0,1.4E1,6.6E1,9.2E1,1E0,4E0,3E0,1E0,3E0,3E0,2E0,1.3E1,3E0,2E0,8.8E1,2.5E1,1.1E1,4E0,5E0,2.58E2,7E0,1.42E2,1.2E1,2E0,1.5E1,1.58E2,2E0,1E0,1.29E2,5E0,1.52E2,2.5E1,1.2E1,2E0,3E0,6.3E1,9E0,8.3E1,2E0,2E0,2E0,1E0,2E0,1E0,1E0,1E0,2E0,1.1E1,2E0,1E0],"tree_param":{"num_deleted":"0","num_feature":"4","num_nodes":"95","size_leaf_vector":"1"}},{"base_weights":[-1.00371406E-4,2.2590076E-4,-1.2817049E-3,-2.1806061E-3,2.5498928E-4,-2.2065386E-3,-4.3732626E-4,-1.0980368E-3,-5.062302E-3,4.1843543E-4,5.614727E-6,-1.9188193E-3,-7.880886E-3,4.976941E-4,-2.666856E-3,-3.9496025E-4,-8.6106063E-4,-3.3462793E-3,-4.504472E-4,-1.5736156E-3,4.482651E-4,1.664823E-4,-6.974315E-4,-7.1157455E-3,-1.6901024E-3,-5.404651E-4,-9.024692E-3,3.8572636E-3,-3.0435456E-5,-5.9459037E-3,-1.0477384E-3,-2.9877425E-4,1.5449524E-4,2.9444695E-4,-1.9911528E-3,4.2340744E-4,2.7847488E-3,2.1689372E-4,-2.2359635E-4,-2.4388235E-3,-2.4288388E-4,-6.721407E-3,-1.0866374E-3,-2.1015076E-5,-2.700063E-3,-5.289376E-3,-7.021129E-4,7.437229E-4,9.312892E-3,-2.585816E-4,3.899765E-3,-7.418497E-3,-4.0979683E-4,1.0739694E-2,-3.8348127E-3,-1.3225674E-4,7.723123E-4,3.6878622E-4,1.7096121E-4,1.6165137E-3,1.3583899E-4,8.878805E-5,6.9708296E-4,-1.7493086E-5,-8.854419E-4,-2.3492798E-4,-2.051469E-3,-2.5361243E-5,-1.4362112E-3,-6.7632465E-4,9.980251E-3,-1.0023986E-3,-2.3401724E-3,-4.1665634E-4,6.2107295E-4,3.2311678E-4,5.658999E-3,-1.5221718E-5,-1.9741654E-3,4.03442E-3,-7.846157E-4,-1.3994724E-3,-4.4004805E-3,3.1526387E-4,-4.833738E-4,7.5716227E-3,6.4419705E-4,-3.5042316E-4,-3.1235772E-3],"categories":[],"categories_nodes":[],"categories_segments":[],"categories_sizes":[],"default_left":[0,0,0,0,0,0,0,0,0,0,0,0,0,0,0,0,0,0,0,0,0,0,0,0,0,0,0,0,0,0,0,0,0,0,0,0,0,0,0,0,0,0,0,0,0,0,0,0,0,0,0,0,0,0,0,0,0,0,0,0,0,0,0,0,0,0,0,0,0,0,0,0,0,0,0,0,0,0,0,0,0,0,0,0,0,0,0,0,0],"id":7,"left_children":[1,3,5,7,9,11,13,15,17,19,21,23,25,27,29,31,-1,-1,-1,33,35,37,39,41,43,-1,45,47,49,51,53,-1,-1,55,-1,57,59,61,63,65,67,-1,-1,69,71,-1,-1,73,75,77,79,81,83,85,87,-1,-1,-1,-1,-1,-1,-1,-1,-1,-1,-1,-1,-1,-1,-1,-1,-1,-1,-1,-1,-1,-1,-1,-1,-1,-1,-1,-1,-1,-1,-1,-1,-1,-1],"loss_changes":[4.897936E-4,7.0277725E-5,2.1378521E-4,3.1877033E-5,4.014557E-5,1.987511E-4,3.0360237E-4,3.7076225E-6,1.4323203E-5,3.6061625E-5,4.4337172E-5,1.3774028E-4,3.6911923E-5,1.8286907E-4,2.2206432E-4,1.0403096E-6,0E0,0E0,0E0,4.1668827E-5,3.2913624E-5,6.3214457E-6,5.719048E-5,1.2714186E-4,2.056002E-4,0E0,4.435834E-5,2.3088227E-4,8.170781E-5,1.1109398E-4,1.0267582E-3,0E0,0E0,4.601373E-6,0E0,1.4646859E-5,5.880989E-6,1.28517995E-5,1.07359065E-5,4.7221023E-5,2.9666755E-5,0E0,0E0,1.277579E-3,9.5255324E-5,0E0,0E0,8.895404E-6,7.957374E-5,7.227224E-5,1.2666514E-4,4.5616587E-5,2.9271996E-6,2.3020525E-4,1.8462664E-4,0E0,0E0,0E0,0E0,0E0,0E0,0E0,0E0,0E0,0E0,0E0,0E0,0E0,0E0,0E0,0E0,0E0,0E0,0E0,0E0,0E0,0E0,0E0,0E0,0E0,0E0,0E0,0E0,0E0,0E0,0E0,0E0,0E0,0E0],"parents":[2147483647,0,0,1,1,2,2,3,3,4,4,5,5,6,6,7,7,8,8,9,9,10,10,11,11,12,12,13,13,14,14,15,15,19,19,20,20,21,21,22,22,23,23,24,24,26,26,27,27,28,28,29,29,30,30,33,33,35,35,36,36,37,37,38,38,39,39,40,40,43,43,44,44,47,47,48,48,49,49,50,50,51,51,52,52,53,53,54,54],"right_children":[2,4,6,8,10,12,14,16,18,20,22,24,26,28,30,32,-1,-1,-1,34,36,38,40,42,44,-1,46,48,50,52,54,-1,-1,56,-1,58,60,62,64,66,68,-1,-1,70,72,-1,-1,74,76,78,80,82,84,86,88,-1,-1,-1,-1,-1,-1,-1,-1,-1,-1,-1,-1,-1,-1,-1,-1,-1,-1,-1,-1,-1,-1,-1,-1,-1,-1,-1,-1,-1,-1,-1,-1,-1,-1],"split_conditions":[7.390731E-1,5.633803E-4,4.466222E-1,6.6319346E-1,3.943662E-2,4.3003175E-1,8.924469E-1,1.5011938E-1,6.9754726E-1,1.5E-2,5.87893E-1,2.0760823E-2,7.719337E-1,6.197183E-3,1.6338028E-2,2.88E-1,-8.6106063E-4,-3.3462793E-3,-4.504472E-4,2.140845E-2,7.326399E-1,6.3098595E-2,1.0904439E-1,7.8805745E-1,3.725E-1,-5.404651E-4,8.7086886E-1,8.1928325E-1,8.856746E-1,8.080863E-1,2.8732395E-2,-2.9877425E-4,1.5449524E-4,7.808574E-1,-1.9911528E-3,1.5011938E-1,2.253521E-2,5.656148E-1,5.4534096E-1,6.302709E-1,7.326399E-1,-6.721407E-3,-1.0866374E-3,3.455E-1,3.1952715E-1,-5.289376E-3,-7.021129E-4,1.6901408E-3,2.8169013E-3,5.802817E-2,4.710366E-1,9.0821207E-1,6.7605632E-3,9.3477356E-1,9.177834E-1,-1.3225674E-4,7.723123E-4,3.6878622E-4,1.7096121E-4,1.6165137E-3,1.3583899E-4,8.878805E-5,6.9708296E-4,-1.7493086E-5,-8.854419E-4,-2.3492798E-4,-2.051469E-3,-2.5361243E-5,-1.4362112E-3,-6.7632465E-4,9.980251E-3,-1.0023986E-3,-2.3401724E-3,-4.1665634E-4,6.2107295E-4,3.2311678E-4,5.658999E-3,-1.5221718E-5,-1.9741654E-3,4.03442E-3,-7.846157E-4,-1.3994724E-3,-4.4004805E-3,3.1526387E-4,-4.833738E-4,7.5716227E-3,6.4419705E-4,-3.5042316E-4,-3.1235772E-3],"split_indices":[0,1,3,0,1,3,0,0,0,2,0,3,0,1,1,2,0,0,0,1,0,1,3,0,2,0,0,0,0,3,1,0,0,3,0,0,1,0,0,0,0,0,0,2,3,0,0,1,1,1,3,0,1,0,0,0,0,0,0,0,0,0,0,0,0,0,0,0,0,0,0,0,0,0,0,0,0,0,0,0,0,0,0,0,0,0,0,0,0],"split_type":[0,0,0,0,0,0,0,0,0,0,0,0,0,0,0,0,0,0,0,0,0,0,0,0,0,0,0,0,0,0,0,0,0,0,0,0,0,0,0,0,0,0,0,0,0,0,0,0,0,0,0,0,0,0,0,0,0,0,0,0,0,0,0,0,0,0,0,0,0,0,0,0,0,0,0,0,0,0,0,0,0,0,0,0,0,0,0,0,0],"sum_hessian":[1.269E3,9.95E2,2.74E2,1.1E1,9.84E2,1.3E2,1.44E2,9E0,2E0,5.94E2,3.9E2,1.25E2,5E0,1.02E2,4.2E1,5E0,4E0,1E0,1E0,8E0,5.86E2,3.18E2,7.2E1,4E0,1.21E2,1E0,4E0,1.3E1,8.9E1,1.3E1,2.9E1,4E0,1E0,5E0,3E0,5.81E2,5E0,2.82E2,3.6E1,1.4E1,5.8E1,1E0,3E0,4.6E1,7.5E1,3E0,1E0,9E0,4E0,8.5E1,4E0,1E1,3E0,5E0,2.4E1,4E0,1E0,1.18E2,4.63E2,4E0,1E0,2.74E2,8E0,3.3E1,3E0,7E0,7E0,5.5E1,3E0,4.4E1,2E0,5.7E1,1.8E1,2E0,7E0,1E0,3E0,8.1E1,4E0,2E0,2E0,3E0,7E0,1E0,2E0,3E0,2E0,1.1E1,1.3E1],"tree_param":{"num_deleted":"0","num_feature":"4","num_nodes":"89","size_leaf_vector":"1"}},{"base_weights":[-5.7970774E-5,5.2613737E-5,-1.0117419E-3,-1.1755483E-3,9.95447E-5,-5.1849766E-4,-3.7479848E-3,-9.6542E-5,-5.121178E-3,5.9830392E-5,1.2694547E-3,-9.233917E-4,3.7442506E-3,-6.22268E-3,-1.9367888E-3,-3.8163416E-4,1.2974938E-3,-2.3769636E-3,-7.957205E-3,1.0483031E-4,-3.0911525E-3,6.445726E-3,2.266457E-4,-2.3722071E-3,-2.7564535E-4,1.1727214E-3,7.308364E-3,-1.3956627E-3,-7.599076E-3,-9.280692E-4,-3.510356E-3,-1.5731368E-5,-6.7794695E-4,8.706525E-4,1.3662378E-4,-1.4718592E-3,1.142025E-4,-4.701177E-3,-9.0543926E-4,-1.6184092E-3,1.2129912E-4,-5.424328E-3,-3.715828E-4,1.0575786E-2,-7.257581E-4,-3.0433312E-3,1.3071945E-3,-4.8242724E-3,-4.405693E-4,2.1121246E-3,-8.281976E-4,1.2412667E-3,1.5228987E-4,4.8281252E-3,6.617606E-5,-1.0243356E-3,-2.2411346E-5,-2.0256639E-4,-4.4784187E-3,-1.5658796E-3,7.53661E-4,-1.7352898E-4,1.0345048E-4,-4.3148655E-4,2.057453E-4,-1.9710858E-3,-2.7234852E-4,1.1337035E-4,-4.0101688E-5,-3.5403012E-3,-9.989515E-4,4.6839318E-4,-4.8191845E-4,-9.2794E-4,9.486824E-4,2.0660956E-4,-2.1321923E-3,1.3540387E-3,-1.2409091E-3,1.6817251E-3,-3.2345902E-3,6.989697E-5,-1.7912189E-3,3.6751994E-4,5.0035566E-3,2.664298E-4,-7.35964E-4,-3.1950077E-4,4.46409E-4,-2.2574663E-3,-3.6827393E-4],"categories":[],"categories_nodes":[],"categories_segments":[],"categories_sizes":[],"default_left":[0,0,0,0,0,0,0,0,0,0,0,0,0,0,0,0,0,0,0,0,0,0,0,0,0,0,0,0,0,0,0,0,0,0,0,0,0,0,0,0,0,0,0,0,0,0,0,0,0,0,0,0,0,0,0,0,0,0,0,0,0,0,0,0,0,0,0,0,0,0,0,0,0,0,0,0,0,0,0,0,0,0,0,0,0,0,0,0,0,0,0],"id":8,"left_children":[1,3,5,7,9,11,13,15,17,19,21,23,25,27,29,31,33,35,37,39,41,43,45,47,49,51,53,55,57,59,-1,61,63,-1,-1,-1,-1,-1,-1,65,67,69,71,-1,73,75,77,79,81,83,85,-1,87,-1,-1,-1,-1,-1,-1,89,-1,-1,-1,-1,-1,-1,-1,-1,-1,-1,-1,-1,-1,-1,-1,-1,-1,-1,-1,-1,-1,-1,-1,-1,-1,-1,-1,-1,-1,-1,-1],"loss_changes":[1.3400307E-4,6.576764E-5,1.7620865E-4,1.783147E-4,5.093951E-5,1.9849105E-4,7.759113E-5,1.4007742E-5,5.1130002E-5,1.5105103E-4,1.9286215E-4,9.694646E-5,8.308154E-5,4.2545347E-5,6.0151586E-5,3.1335635E-6,2.2516251E-6,9.531988E-6,1.8502906E-5,2.996662E-5,9.316292E-5,6.481274E-4,1.1351268E-4,1.4944261E-4,9.80631E-5,8.977948E-6,6.611583E-5,2.5545037E-6,5.4977223E-5,2.1000098E-5,0E0,1.1045028E-6,3.580296E-6,0E0,0E0,0E0,0E0,0E0,0E0,2.2803231E-5,2.2114793E-5,3.1254458E-5,7.102005E-6,0E0,1.8343526E-5,3.5527184E-5,1.3411208E-4,2.103115E-4,3.514588E-5,1.4485333E-4,5.335356E-5,0E0,3.5003798E-6,0E0,0E0,0E0,0E0,0E0,0E0,2.1131971E-5,0E0,0E0,0E0,0E0,0E0,0E0,0E0,0E0,0E0,0E0,0E0,0E0,0E0,0E0,0E0,0E0,0E0,0E0,0E0,0E0,0E0,0E0,0E0,0E0,0E0,0E0,0E0,0E0,0E0,0E0,0E0],"parents":[2147483647,0,0,1,1,2,2,3,3,4,4,5,5,6,6,7,7,8,8,9,9,10,10,11,11,12,12,13,13,14,14,15,15,16,16,17,17,18,18,19,19,20,20,21,21,22,22,23,23,24,24,25,25,26,26,27,27,28,28,29,29,31,31,32,32,39,39,40,40,41,41,42,42,44,44,45,45,46,46,47,47,48,48,49,49,50,50,52,52,59,59],"right_children":[2,4,6,8,10,12,14,16,18,20,22,24,26,28,30,32,34,36,38,40,42,44,46,48,50,52,54,56,58,60,-1,62,64,-1,-1,-1,-1,-1,-1,66,68,70,72,-1,74,76,78,80,82,84,86,-1,88,-1,-1,-1,-1,-1,-1,90,-1,-1,-1,-1,-1,-1,-1,-1,-1,-1,-1,-1,-1,-1,-1,-1,-1,-1,-1,-1,-1,-1,-1,-1,-1,-1,-1,-1,-1,-1,-1],"split_conditions":[8.487123E-1,3.7246056E-2,8.875E-1,6.525491E-1,8.2377714E-1,8.215E-1,9.37E-1,5.690141E-2,1.61E-1,8.1086487E-1,8.2731974E-1,8.856746E-1,6.410735E-1,1.0904439E-1,9.895E-1,2.0494673E-1,6.084507E-2,8.3193886E-1,7.8805745E-1,5.633803E-4,4.6803808E-1,3.725E-1,2.4418241E-1,3.5513535E-1,8.9704335E-1,8.79952E-1,2.5352113E-2,8.5089755E-1,2.2535212E-3,8.797903E-1,-3.510356E-3,3.88E-1,5.100462E-1,8.706525E-4,1.3662378E-4,-1.4718592E-3,1.142025E-4,-4.701177E-3,-9.0543926E-4,1.5190677E-1,4.28169E-2,4.9577463E-2,1.61E-1,1.0575786E-2,6.4487195E-1,5.9160683E-2,4.3380283E-2,8.564158E-1,6.49E-1,6.084507E-2,3.1549297E-2,1.2412667E-3,8.475E-1,4.8281252E-3,6.617606E-5,-1.0243356E-3,-2.2411346E-5,-2.0256639E-4,-4.4784187E-3,9.49E-1,7.53661E-4,-1.7352898E-4,1.0345048E-4,-4.3148655E-4,2.057453E-4,-1.9710858E-3,-2.7234852E-4,1.1337035E-4,-4.0101688E-5,-3.5403012E-3,-9.989515E-4,4.6839318E-4,-4.8191845E-4,-9.2794E-4,9.486824E-4,2.0660956E-4,-2.1321923E-3,1.3540387E-3,-1.2409091E-3,1.6817251E-3,-3.2345902E-3,6.989697E-5,-1.7912189E-3,3.6751994E-4,5.0035566E-3,2.664298E-4,-7.35964E-4,-3.1950077E-4,4.46409E-4,-2.2574663E-3,-3.6827393E-4],"split_indices":[0,3,2,0,0,2,2,1,2,0,0,0,3,3,2,0,1,0,0,1,3,2,3,3,0,0,1,0,1,3,0,2,0,0,0,0,0,0,0,3,1,1,2,0,3,3,1,0,2,1,1,0,2,0,0,0,0,0,0,2,0,0,0,0,0,0,0,0,0,0,0,0,0,0,0,0,0,0,0,0,0,0,0,0,0,0,0,0,0,0,0],"split_type":[0,0,0,0,0,0,0,0,0,0,0,0,0,0,0,0,0,0,0,0,0,0,0,0,0,0,0,0,0,0,0,0,0,0,0,0,0,0,0,0,0,0,0,0,0,0,0,0,0,0,0,0,0,0,0,0,0,0,0,0,0,0,0,0,0,0,0,0,0,0,0,0,0,0,0,0,0,0,0,0,0,0,0,0,0,0,0,0,0,0,0],"sum_hessian":[1.269E3,1.138E3,1.31E2,4.1E1,1.097E3,1.12E2,1.9E1,3.3E1,8E0,1.062E3,3.5E1,1.03E2,9E0,7E0,1.2E1,2.8E1,5E0,5E0,3E0,1.048E3,1.4E1,5E0,3E1,3.1E1,7.2E1,6E0,3E0,2E0,5E0,1.1E1,1E0,1.3E1,1.5E1,3E0,2E0,4E0,1E0,2E0,1E0,9E0,1.039E3,7E0,7E0,1E0,4E0,7E0,2.3E1,1.3E1,1.8E1,1.3E1,5.9E1,2E0,4E0,2E0,1E0,1E0,1E0,1E0,4E0,9E0,2E0,5E0,8E0,1.3E1,2E0,2E0,7E0,6.82E2,3.57E2,4E0,3E0,2E0,5E0,3E0,1E0,2E0,5E0,1.7E1,6E0,2E0,1.1E1,1.6E1,2E0,1.2E1,1E0,1.9E1,4E1,2E0,2E0,1E0,8E0],"tree_param":{"num_deleted":"0","num_feature":"4","num_nodes":"91","size_leaf_vector":"1"}},{"base_weights":[-3.4818593E-5,8.634846E-5,-3.6385184E-4,6.480672E-5,1.8782128E-3,-2.63553E-3,-2.6607874E-4,-9.686557E-5,1.4766355E-4,3.2330453E-3,7.7281595E-4,9.875447E-4,-3.713418E-3,-3.720948E-4,1.5863148E-3,2.6578893E-5,-4.8054283E-4,4.0648595E-4,6.425058E-5,1.3889173E-3,-1.2106895E-4,8.677642E-4,-3.1410158E-4,-6.0254536E-3,-7.824798E-4,-2.0580215E-4,-1.6412884E-3,3.8692714E-3,6.576649E-4,-3.0770045E-4,2.603846E-4,-3.2195947E-4,-1.0119816E-3,4.469555E-4,-1.9668936E-4,3.4181794E-5,8.984022E-4,1.2564659E-4,9.474531E-4,2.7426085E-4,-3.7515163E-4,-3.364098E-3,-6.2793493E-4,-4.9827097E-4,7.195771E-5,-3.007633E-4,4.1334033E-3,-3.4317884E-3,-4.800584E-4,3.165851E-3,5.8541696E-5,2.8386712E-5,1.477778E-3,-1.0257677E-4,-1.3331324E-3,1.00518446E-4,1.1139736E-3,3.6631027E-4,-1.8547784E-4,1.4519691E-4,-6.024957E-4,2.0560416E-4,4.334867E-4,2.9431496E-4,-7.609129E-4,2.1772459E-4,-1.1688075E-5,7.1020797E-4,1.6728375E-4,-3.029883E-3,-1.1783021E-4,5.2962005E-3,-8.720979E-4,-1.16298594E-4,-2.5916365E-3,2.7248263E-4,-1.7375598E-3,2.8207526E-4,-4.1725635E-4],"categories":[],"categories_nodes":[],"categories_segments":[],"categories_sizes":[],"default_left":[0,0,0,0,0,0,0,0,0,0,0,0,0,0,0,0,0,0,0,0,0,0,0,0,0,0,0,0,0,0,0,0,0,0,0,0,0,0,0,0,0,0,0,0,0,0,0,0,0,0,0,0,0,0,0,0,0,0,0,0,0,0,0,0,0,0,0,0,0,0,0,0,0,0,0,0,0,0,0],"id":9,"left_children":[1,3,5,7,9,11,13,15,17,-1,19,21,23,25,27,29,31,33,35,37,39,-1,-1,41,43,45,47,49,51,53,55,57,59,61,63,65,67,-1,-1,-1,-1,-1,-1,-1,-1,69,71,73,75,-1,-1,77,-1,-1,-1,-1,-1,-1,-1,-1,-1,-1,-1,-1,-1,-1,-1,-1,-1,-1,-1,-1,-1,-1,-1,-1,-1,-1,-1],"loss_changes":[5.0663763E-5,3.5737557E-5,7.526002E-5,1.2324908E-5,5.0788592E-5,5.8340927E-5,6.52004E-5,1.4789976E-5,1.31000825E-5,0E0,5.675393E-6,5.924476E-6,6.9825954E-5,6.5512184E-5,3.561653E-5,1.8603192E-5,6.0792627E-6,3.7006266E-6,1.1532056E-5,2.9775738E-6,2.5182046E-6,0E0,0E0,1.1661017E-5,1.3332547E-6,1.15382645E-4,7.320312E-5,4.5456174E-5,2.016028E-5,2.315563E-5,1.5899943E-5,3.3719957E-6,4.623229E-6,1.730501E-6,1.1302344E-5,1.0311051E-5,4.234046E-6,0E0,0E0,0E0,0E0,0E0,0E0,0E0,0E0,1.00552235E-4,2.4625563E-4,7.724104E-5,7.2504015E-5,0E0,0E0,6.018514E-6,0E0,0E0,0E0,0E0,0E0,0E0,0E0,0E0,0E0,0E0,0E0,0E0,0E0,0E0,0E0,0E0,0E0,0E0,0E0,0E0,0E0,0E0,0E0,0E0,0E0,0E0,0E0],"parents":[2147483647,0,0,1,1,2,2,3,3,4,4,5,5,6,6,7,7,8,8,10,10,11,11,12,12,13,13,14,14,15,15,16,16,17,17,18,18,19,19,20,20,23,23,24,24,25,25,26,26,27,27,28,28,29,29,30,30,31,31,32,32,33,33,34,34,35,35,36,36,45,45,46,46,47,47,48,48,51,51],"right_children":[2,4,6,8,10,12,14,16,18,-1,20,22,24,26,28,30,32,34,36,38,40,-1,-1,42,44,46,48,50,52,54,56,58,60,62,64,66,68,-1,-1,-1,-1,-1,-1,-1,-1,70,72,74,76,-1,-1,78,-1,-1,-1,-1,-1,-1,-1,-1,-1,-1,-1,-1,-1,-1,-1,-1,-1,-1,-1,-1,-1,-1,-1,-1,-1,-1,-1],"split_conditions":[6.9503546E-1,6.859389E-1,2.2535212E-3,3.600528E-1,9.1536045E-2,1.12014584E-1,6.253521E-2,2.766685E-1,1.6712585E-1,3.2330453E-3,6.90825E-1,7.125E-1,4.4409803E-1,5.464789E-2,1.33E-1,2.7042253E-2,5.431589E-1,5.971831E-2,6.669281E-1,4.58E-1,3.380282E-2,8.677642E-4,-3.1410158E-4,8.7086886E-1,7.034092E-1,5.3521127E-2,5.690141E-2,8.9704335E-1,6.535211E-2,9.22E-1,2.659939E-1,1.6901408E-3,1.475E-1,9.50685E-1,8.634657E-1,4.183258E-1,6.765875E-1,1.2564659E-4,9.474531E-4,2.7426085E-4,-3.7515163E-4,-3.364098E-3,-6.2793493E-4,-4.9827097E-4,7.195771E-5,2.0760823E-2,8.2731974E-1,2.15E-1,6.140845E-2,3.165851E-3,5.8541696E-5,5.86E-1,1.477778E-3,-1.0257677E-4,-1.3331324E-3,1.00518446E-4,1.1139736E-3,3.6631027E-4,-1.8547784E-4,1.4519691E-4,-6.024957E-4,2.0560416E-4,4.334867E-4,2.9431496E-4,-7.609129E-4,2.1772459E-4,-1.1688075E-5,7.1020797E-4,1.6728375E-4,-3.029883E-3,-1.1783021E-4,5.2962005E-3,-8.720979E-4,-1.16298594E-4,-2.5916365E-3,2.7248263E-4,-1.7375598E-3,2.8207526E-4,-4.1725635E-4],"split_indices":[0,0,1,3,3,3,1,3,0,0,0,2,3,1,2,1,0,1,0,2,1,0,0,0,3,1,1,0,1,2,3,1,2,3,3,3,0,0,0,0,0,0,0,0,0,3,0,2,1,0,0,2,0,0,0,0,0,0,0,0,0,0,0,0,0,0,0,0,0,0,0,0,0,0,0,0,0,0,0],"split_type":[0,0,0,0,0,0,0,0,0,0,0,0,0,0,0,0,0,0,0,0,0,0,0,0,0,0,0,0,0,0,0,0,0,0,0,0,0,0,0,0,0,0,0,0,0,0,0,0,0,0,0,0,0,0,0,0,0,0,0,0,0,0,0,0,0,0,0,0,0,0,0,0,0,0,0,0,0,0,0],"sum_hessian":[1.269E3,9.28E2,3.41E2,9.18E2,1E1,1.3E1,3.28E2,3.11E2,6.07E2,1E0,9E0,3E0,1E1,3.11E2,1.7E1,2.36E2,7.5E1,1.47E2,4.6E2,5E0,4E0,2E0,1E0,5E0,5E0,2.76E2,3.5E1,4E0,1.3E1,9.7E1,1.39E2,5.9E1,1.6E1,1.38E2,9E0,4.45E2,1.5E1,2E0,3E0,2E0,2E0,4E0,1E0,4E0,1E0,2.71E2,5E0,1.3E1,2.2E1,2E0,2E0,1.1E1,2E0,9.4E1,3E0,1.36E2,3E0,2E0,5.7E1,2E0,1.4E1,1.29E2,9E0,6E0,3E0,5.5E1,3.9E2,7E0,8E0,2E0,2.69E2,2E0,3E0,5E0,8E0,1.7E1,5E0,7E0,4E0],"tree_param":{"num_deleted":"0","num_feature":"4","num_nodes":"79","size_leaf_vector":"1"}},{"base_weights":[-1.5223777E-5,-6.598768E-4,1.0089853E-5,-3.2510012E-4,-2.0744535E-3,8.6205977E-4,-9.135943E-6,-6.521752E-4,-2.7848915E-5,-3.174613E-3,9.4398856E-5,-6.2094367E-4,3.075605E-3,-4.5731902E-4,2.5968526E-5,-2.0902648E-4,-1.7614762E-3,-3.7698104E-4,4.2880775E-4,-4.207343E-4,-3.472948E-3,-1.752774E-4,3.5731494E-4,-1.8779805E-3,2.3543835E-4,5.018711E-4,6.063712E-3,-1.7452458E-4,-4.245957E-3,-7.26817E-4,4.610224E-5,-1.1759251E-3,-1.4518201E-4,-2.7649998E-4,7.865578E-5,5.44952E-4,-1.5412271E-4,-1.935117E-3,-4.709512E-4,-2.5934577E-3,6.0372055E-4,-2.1792948E-6,3.2808632E-4,-4.0230155E-4,8.537173E-4,7.87735E-4,3.3959523E-3,-1.1593791E-3,1.0870184E-5,-3.9976835E-4,-2.3876666E-3,-7.073641E-5,-3.8618564E-3,2.5295014E-5,6.024471E-4,3.9747855E-4,1.6853213E-5,-2.579391E-4,-2.249539E-3,5.357464E-5,6.00107E-4,-8.502177E-6,-1.0680641E-3,-6.7639456E-5,3.310419E-4,-4.212608E-4,8.2167986E-5,-3.5455425E-3,3.2732883E-4,2.66677E-5,-1.4411092E-3,7.082056E-4,-1.3643578E-3],"categories":[],"categories_nodes":[],"categories_segments":[],"categories_sizes":[],"default_left":[0,0,0,0,0,0,0,0,0,0,0,0,0,0,0,0,0,0,0,0,0,0,0,0,0,0,0,0,0,0,0,0,0,0,0,0,0,0,0,0,0,0,0,0,0,0,0,0,0,0,0,0,0,0,0,0,0,0,0,0,0,0,0,0,0,0,0,0,0,0,0,0,0],"id":10,"left_children":[1,3,5,7,9,11,13,15,17,19,21,23,25,27,29,-1,31,33,35,-1,37,-1,-1,39,41,43,45,47,49,51,53,-1,-1,-1,-1,55,-1,-1,-1,57,-1,-1,-1,-1,59,-1,-1,61,63,-1,-1,65,67,69,71,-1,-1,-1,-1,-1,-1,-1,-1,-1,-1,-1,-1,-1,-1,-1,-1,-1,-1],"loss_changes":[2.0731164E-5,2.2056829E-5,2.004037E-5,3.870776E-6,2.1774427E-5,9.054254E-5,1.8844552E-5,4.1981393E-6,3.6691895E-6,1.2539786E-6,1.3544131E-6,1.8742714E-5,8.1553306E-5,9.247127E-5,1.6872233E-5,0E0,1.9226263E-6,1.3095864E-6,1.0240242E-6,0E0,1.3823555E-6,0E0,0E0,1.8584291E-5,1.1126588E-6,3.9046495E-6,5.6410936E-6,1.4984725E-5,7.1286704E-6,5.937514E-5,1.2521561E-5,0E0,0E0,0E0,0E0,1.1235309E-6,0E0,0E0,0E0,2.1433483E-5,0E0,0E0,0E0,0E0,1.4234984E-6,0E0,0E0,1.4469253E-5,6.7517653E-6,0E0,0E0,4.674091E-6,7.7566525E-5,8.535027E-5,1.0961142E-4,0E0,0E0,0E0,0E0,0E0,0E0,0E0,0E0,0E0,0E0,0E0,0E0,0E0,0E0,0E0,0E0,0E0,0E0],"parents":[2147483647,0,0,1,1,2,2,3,3,4,4,5,5,6,6,7,7,8,8,9,9,10,10,11,11,12,12,13,13,14,14,16,16,17,17,18,18,20,20,23,23,24,24,25,25,26,26,27,27,28,28,29,29,30,30,35,35,39,39,44,44,47,47,48,48,51,51,52,52,53,53,54,54],"right_children":[2,4,6,8,10,12,14,16,18,20,22,24,26,28,30,-1,32,34,36,-1,38,-1,-1,40,42,44,46,48,50,52,54,-1,-1,-1,-1,56,-1,-1,-1,58,-1,-1,-1,-1,60,-1,-1,62,64,-1,-1,66,68,70,72,-1,-1,-1,-1,-1,-1,-1,-1,-1,-1,-1,-1,-1,-1,-1,-1,-1,-1],"split_conditions":[2.2535212E-3,7.5207615E-1,3.3802816E-3,1.1267606E-3,8.856746E-1,4.735E-1,7E-2,6.6319346E-1,4.3140385E-1,8.06295E-1,9.549843E-1,2.741676E-1,6.9503546E-1,6.75E-2,4.5070425E-3,-2.0902648E-4,6.9754726E-1,4.365E-1,1.6901408E-3,-4.207343E-4,8.7086886E-1,-1.752774E-4,3.5731494E-4,8.8893604E-1,5.5032754E-1,3.6564413E-1,5.225E-1,1.8149155E-1,5.636417E-1,8.1928325E-1,9.2199874E-1,-1.1759251E-3,-1.4518201E-4,-2.7649998E-4,7.865578E-5,6.19E-1,-1.5412271E-4,-1.935117E-3,-4.709512E-4,1.8150465E-1,6.0372055E-4,-2.1792948E-6,3.2808632E-4,-4.0230155E-4,2.1477456E-1,7.87735E-4,3.3959523E-3,5.700626E-1,8.3571875E-1,-3.9976835E-4,-2.3876666E-3,1.285E-1,9.2685676E-1,9.142972E-1,8.875E-1,3.9747855E-4,1.6853213E-5,-2.579391E-4,-2.249539E-3,5.357464E-5,6.00107E-4,-8.502177E-6,-1.0680641E-3,-6.7639456E-5,3.310419E-4,-4.212608E-4,8.2167986E-5,-3.5455425E-3,3.2732883E-4,2.66677E-5,-1.4411092E-3,7.082056E-4,-1.3643578E-3],"split_indices":[1,0,1,1,0,2,2,0,0,0,0,3,0,2,1,0,0,2,1,0,0,0,0,0,0,3,2,3,0,0,0,0,0,0,0,2,0,0,0,0,0,0,0,0,0,0,0,0,0,0,0,2,0,0,2,0,0,0,0,0,0,0,0,0,0,0,0,0,0,0,0,0,0],"split_type":[0,0,0,0,0,0,0,0,0,0,0,0,0,0,0,0,0,0,0,0,0,0,0,0,0,0,0,0,0,0,0,0,0,0,0,0,0,0,0,0,0,0,0,0,0,0,0,0,0,0,0,0,0,0,0,0,0,0,0,0,0,0,0,0,0,0,0,0,0,0,0,0,0],"sum_hessian":[1.269E3,4.7E1,1.222E3,3.9E1,8E0,2.6E1,1.196E3,1.8E1,2.1E1,5E0,3E0,1.6E1,1E1,8.6E1,1.11E3,1.6E1,2E0,1.2E1,9E0,1E0,4E0,2E0,1E0,6E0,1E1,6E0,4E0,8.1E1,5E0,2.8E1,1.082E3,1E0,1E0,9E0,3E0,8E0,1E0,3E0,1E0,5E0,1E0,7E0,3E0,1E0,5E0,1E0,3E0,1.2E1,6.9E1,1E0,4E0,2.4E1,4E0,1.044E3,3.8E1,5E0,3E0,3E0,2E0,2E0,3E0,6E0,6E0,5.7E1,1.2E1,5E0,1.9E1,2E0,2E0,1.035E3,9E0,3.1E1,7E0],"tree_param":{"num_deleted":"0","num_feature":"4","num_nodes":"73","size_leaf_vector":"1"}},{"base_weights":[-1.5847092E-5,-7.078081E-5,2.263962E-4,7.877765E-5,-1.8576387E-4,3.2302583E-4,-5.982137E-4,-3.552274E-5,5.6430284E-4,2.7627934E-4,-3.0533783E-4,3.5147354E-4,-1.4127493E-3,-1.9885812E-4,-1.0142773E-3,8.078235E-5,-1.0718784E-3,-1.5615014E-4,7.312085E-4,-1.9236477E-5,3.9559472E-3,-1.3513282E-3,-2.1197426E-4,2.5869254E-4,9.98128E-4,3.517717E-4,-7.783638E-4,-7.6790527E-4,2.3031234E-5,-2.704179E-4,1.6466263E-4,-8.479804E-4,-6.895704E-4,7.035335E-5,-2.9156604E-4,7.9261995E-4,-4.5226017E-4,3.3511518E-4,-8.524393E-4,-2.3314783E-4,6.205926E-3,-1.8501948E-3,2.3112297E-3,-1.9169637E-4,-2.318576E-3,8.133087E-5,4.187595E-4,1.9177496E-3,-6.901301E-5,-5.173832E-4,3.182143E-4,4.135271E-4,-3.943344E-4,-1.0571749E-4,-6.9962937E-4,3.7874386E-4,2.531767E-5,-6.617556E-4,-3.265911E-4,-1.8440485E-4,1.6801804E-4,7.123168E-4,3.158743E-4,7.4573065E-5,1.1266002E-3,-2.0829837E-3,-6.8743684E-5,-5.86307E-4,7.051726E-4,-6.4236723E-4,-2.436459E-3,1.8149614E-4,1.3537705E-3,-3.1663672E-5,-2.671028E-4,-3.7570793E-5,-2.2622198E-3,5.7004305E-5,-4.4671693E-4,2.4187041E-4,-2.4291022E-4,1.2060851E-3,5.393667E-4,4.2188464E-4,-1.1668578E-3],"categories":[],"categories_nodes":[],"categories_segments":[],"categories_sizes":[],"default_left":[0,0,0,0,0,0,0,0,0,0,0,0,0,0,0,0,0,0,0,0,0,0,0,0,0,0,0,0,0,0,0,0,0,0,0,0,0,0,0,0,0,0,0,0,0,0,0,0,0,0,0,0,0,0,0,0,0,0,0,0,0,0,0,0,0,0,0,0,0,0,0,0,0,0,0,0,0,0,0,0,0,0,0,0,0],"id":11,"left_children":[1,3,5,7,9,11,13,15,17,19,21,23,-1,25,27,29,31,33,35,37,39,41,43,45,47,-1,49,-1,51,53,55,57,-1,59,-1,61,-1,63,65,67,-1,69,71,73,75,77,79,81,83,-1,-1,-1,-1,-1,-1,-1,-1,-1,-1,-1,-1,-1,-1,-1,-1,-1,-1,-1,-1,-1,-1,-1,-1,-1,-1,-1,-1,-1,-1,-1,-1,-1,-1,-1,-1],"loss_changes":[1.6916325E-5,1.7830404E-5,1.8918447E-5,2.5048615E-5,3.2459888E-5,1.9892017E-5,3.9522365E-6,4.4201828E-5,1.045548E-5,1.3165148E-4,4.522191E-5,1.2341212E-5,0E0,7.868868E-6,6.5272616E-6,9.765922E-6,1.3759454E-6,1.6851448E-6,7.748611E-6,3.3648557E-5,3.2169715E-4,7.370707E-5,1.7881319E-5,5.218045E-6,2.5647865E-5,0E0,3.9233637E-6,0E0,3.9153992E-6,3.965416E-6,1.8010374E-5,1.3586887E-6,0E0,1.52407E-6,0E0,6.01375E-6,0E0,2.8200307E-5,7.997368E-5,1.2461835E-5,0E0,5.185342E-5,2.877725E-6,1.8696357E-5,1.9454868E-5,2.936786E-6,5.9367467E-6,3.2054886E-6,2.8842464E-5,0E0,0E0,0E0,0E0,0E0,0E0,0E0,0E0,0E0,0E0,0E0,0E0,0E0,0E0,0E0,0E0,0E0,0E0,0E0,0E0,0E0,0E0,0E0,0E0,0E0,0E0,0E0,0E0,0E0,0E0,0E0,0E0,0E0,0E0,0E0,0E0],"parents":[2147483647,0,0,1,1,2,2,3,3,4,4,5,5,6,6,7,7,8,8,9,9,10,10,11,11,13,13,14,14,15,15,16,16,17,17,18,18,19,19,20,20,21,21,22,22,23,23,24,24,26,26,28,28,29,29,30,30,31,31,33,33,35,35,37,37,38,38,39,39,41,41,42,42,43,43,44,44,45,45,46,46,47,47,48,48],"right_children":[2,4,6,8,10,12,14,16,18,20,22,24,-1,26,28,30,32,34,36,38,40,42,44,46,48,-1,50,-1,52,54,56,58,-1,60,-1,62,-1,64,66,68,-1,70,72,74,76,78,80,82,84,-1,-1,-1,-1,-1,-1,-1,-1,-1,-1,-1,-1,-1,-1,-1,-1,-1,-1,-1,-1,-1,-1,-1,-1,-1,-1,-1,-1,-1,-1,-1,-1,-1,-1,-1,-1],"split_conditions":[8.080863E-1,4.1104537E-1,5.859155E-2,3.393015E-1,1.5190677E-1,9.458312E-1,5.86E-1,3.1081587E-1,1.2957746E-2,1.4101937E-1,2.2873318E-1,7.8805745E-1,-1.4127493E-3,2.839813E-1,6.366197E-2,1.4101937E-1,3.2614186E-1,3.864585E-1,6.478873E-2,7.846799E-1,6.9754726E-1,9.3E-1,9.92E-1,8.864274E-1,9.344761E-1,3.517717E-4,5.32E-1,-7.6790527E-4,6.535211E-2,2.964369E-1,2.4202873E-1,2.0475672E-1,-6.895704E-4,1.5770626E-1,-2.9156604E-4,1.0332674E-1,-4.5226017E-4,7.70256E-1,8.2377714E-1,4.450704E-2,6.205926E-3,8.875E-1,3.943662E-3,4.7323942E-2,7.59366E-1,7.629387E-1,9.685E-1,8.5089755E-1,9.0821207E-1,-5.173832E-4,3.182143E-4,4.135271E-4,-3.943344E-4,-1.0571749E-4,-6.9962937E-4,3.7874386E-4,2.531767E-5,-6.617556E-4,-3.265911E-4,-1.8440485E-4,1.6801804E-4,7.123168E-4,3.158743E-4,7.4573065E-5,1.1266002E-3,-2.0829837E-3,-6.8743684E-5,-5.86307E-4,7.051726E-4,-6.4236723E-4,-2.436459E-3,1.8149614E-4,1.3537705E-3,-3.1663672E-5,-2.671028E-4,-3.7570793E-5,-2.2622198E-3,5.7004305E-5,-4.4671693E-4,2.4187041E-4,-2.4291022E-4,1.2060851E-3,5.393667E-4,4.2188464E-4,-1.1668578E-3],"split_indices":[3,0,1,0,3,0,2,0,1,3,3,0,0,0,1,3,0,0,1,0,0,2,2,3,3,0,2,0,1,0,3,3,0,3,0,3,0,0,0,1,0,2,1,1,0,0,2,0,0,0,0,0,0,0,0,0,0,0,0,0,0,0,0,0,0,0,0,0,0,0,0,0,0,0,0,0,0,0,0,0,0,0,0,0,0],"split_type":[0,0,0,0,0,0,0,0,0,0,0,0,0,0,0,0,0,0,0,0,0,0,0,0,0,0,0,0,0,0,0,0,0,0,0,0,0,0,0,0,0,0,0,0,0,0,0,0,0,0,0,0,0,0,0,0,0,0,0,0,0,0,0,0,0,0,0,0,0,0,0,0,0,0,0,0,0,0,0,0,0,0,0,0,0],"sum_hessian":[1.269E3,1.035E3,2.34E2,4.5E2,5.85E2,2.1E2,2.4E1,3.65E2,8.5E1,1.2E2,4.65E2,2.09E2,1E0,1.3E1,1.1E1,3.29E2,3.6E1,1.6E1,6.9E1,1.12E2,8E0,3.7E1,4.28E2,1.84E2,2.5E1,5E0,8E0,7E0,4E0,6.3E1,2.66E2,2.3E1,1.3E1,1.1E1,5E0,6.7E1,2E0,7.9E1,3.3E1,6E0,2E0,3.3E1,4E0,4.25E2,3E0,8.8E1,9.6E1,1.3E1,1.2E1,7E0,1E0,2E0,2E0,6.1E1,2E0,4.2E1,2.24E2,5E0,1.8E1,4E0,7E0,1.2E1,5.5E1,7.3E1,6E0,5E0,2.8E1,4E0,2E0,2.9E1,4E0,1E0,3E0,3.1E2,1.15E2,2E0,1E0,8.6E1,2E0,9E1,6E0,7E0,6E0,9E0,3E0],"tree_param":{"num_deleted":"0","num_feature":"4","num_nodes":"85","size_leaf_vector":"1"}},{"base_weights":[-9.48507E-6,-1.3347062E-4,7.119837E-5,-6.360811E-5,-2.1187558E-3,1.7127792E-3,5.8230155E-5,-1.2790861E-4,1.3632178E-3,-4.874155E-3,-1.0326393E-3,3.8259227E-3,-3.002733E-4,2.7222211E-5,6.507447E-4,-7.6272896E-5,-1.917376E-3,-2.6676536E-3,2.468579E-3,-2.4125353E-3,3.0867258E-4,2.3994744E-3,4.6996772E-4,1.8832088E-4,-5.827546E-4,6.231873E-5,-9.227808E-4,-1.7212152E-3,2.1061052E-3,-5.5989396E-4,4.733896E-6,-3.3009548E-3,-4.6546894E-4,-1.6949674E-3,-5.280773E-4,3.794009E-3,3.3106124E-5,-4.1659674E-4,-1.4000585E-3,-1.4354785E-4,4.5491755E-4,3.0913754E-5,1.191271E-3,-9.218335E-3,1.5261273E-4,-2.4573694E-3,2.4256707E-4,7.23657E-3,3.7511086E-4,-1.224122E-4,-9.006697E-4,8.992446E-4,-3.1033727E-5,-6.6024065E-4,1.0587488E-4,2.118339E-3,6.006658E-4,-3.4888586E-4,1.1045933E-3,4.5755506E-4,-2.6915074E-4,-1.0955887E-5,2.0716096E-4,2.3802742E-3,1.12248585E-4,-6.3671917E-3,-5.465597E-4,8.92405E-4,-9.6930156E-4,-2.4511665E-4,-2.8886497E-3,8.0892444E-4,-1.31464E-3,5.0429255E-3,5.126695E-4,9.43321E-4,-7.687012E-5],"categories":[],"categories_nodes":[],"categories_segments":[],"categories_sizes":[],"default_left":[0,0,0,0,0,0,0,0,0,0,0,0,0,0,0,0,0,0,0,0,0,0,0,0,0,0,0,0,0,0,0,0,0,0,0,0,0,0,0,0,0,0,0,0,0,0,0,0,0,0,0,0,0,0,0,0,0,0,0,0,0,0,0,0,0,0,0,0,0,0,0,0,0,0,0,0,0],"id":12,"left_children":[1,3,5,7,9,11,13,15,17,-1,19,21,23,25,27,29,31,33,35,37,39,-1,-1,-1,-1,41,43,45,47,49,51,-1,53,-1,-1,55,57,-1,-1,59,-1,61,63,65,67,69,71,73,75,-1,-1,-1,-1,-1,-1,-1,-1,-1,-1,-1,-1,-1,-1,-1,-1,-1,-1,-1,-1,-1,-1,-1,-1,-1,-1,-1,-1],"loss_changes":[1.2714051E-5,6.9352434E-5,1.629231E-5,4.4671E-5,1.3080543E-4,2.6672036E-5,1.4037367E-5,4.2819964E-5,1.0015225E-4,0E0,3.0358617E-5,3.913723E-6,2.7817443E-6,2.4330338E-5,1.3480322E-4,1.7749644E-5,8.5346604E-5,2.2394815E-6,5.4751225E-5,2.5639529E-6,2.5773265E-6,0E0,0E0,0E0,0E0,2.4887842E-5,2.3335245E-4,2.2280776E-5,2.1042483E-4,2.4983197E-5,4.6723664E-5,0E0,6.6489456E-6,0E0,0E0,7.5350254E-6,1.267465E-5,0E0,0E0,3.0000597E-6,0E0,1.388289E-5,6.449427E-5,7.178576E-5,8.5378684E-5,6.900608E-5,2.4001774E-5,9.584383E-5,1.5478177E-5,0E0,0E0,0E0,0E0,0E0,0E0,0E0,0E0,0E0,0E0,0E0,0E0,0E0,0E0,0E0,0E0,0E0,0E0,0E0,0E0,0E0,0E0,0E0,0E0,0E0,0E0,0E0,0E0],"parents":[2147483647,0,0,1,1,2,2,3,3,4,4,5,5,6,6,7,7,8,8,10,10,11,11,12,12,13,13,14,14,15,15,16,16,17,17,18,18,19,19,20,20,25,25,26,26,27,27,28,28,29,29,30,30,32,32,35,35,36,36,39,39,41,41,42,42,43,43,44,44,45,45,46,46,47,47,48,48],"right_children":[2,4,6,8,10,12,14,16,18,-1,20,22,24,26,28,30,32,34,36,38,40,-1,-1,-1,-1,42,44,46,48,50,52,-1,54,-1,-1,56,58,-1,-1,60,-1,62,64,66,68,70,72,74,76,-1,-1,-1,-1,-1,-1,-1,-1,-1,-1,-1,-1,-1,-1,-1,-1,-1,-1,-1,-1,-1,-1,-1,-1,-1,-1,-1,-1],"split_conditions":[3.915E-1,9.177834E-1,3.935E-1,8.77801E-1,9.2199874E-1,9.1536045E-2,9.177834E-1,8.564158E-1,1.35211265E-2,-4.874155E-3,9.549843E-1,6.9503546E-1,3.1408915E-1,8.79952E-1,1.6338028E-2,1.3252509E-1,8.606215E-1,1.675E-1,2.725E-1,1.3252509E-1,4.6803808E-1,2.3994744E-3,4.6996772E-4,1.8832088E-4,-5.827546E-4,8.4632504E-1,8.856746E-1,7.548078E-1,2.8732395E-2,7.1425474E-1,1.5190677E-1,-3.3009548E-3,1.51E-1,-1.6949674E-3,-5.280773E-4,5.4977965E-1,5.859155E-2,-4.1659674E-4,-1.4000585E-3,3.943662E-3,4.5491755E-4,9.275E-1,6.197183E-3,1.971831E-2,7.495E-1,4.9459606E-1,9.458312E-1,9.3477356E-1,9.2411846E-1,-1.224122E-4,-9.006697E-4,8.992446E-4,-3.1033727E-5,-6.6024065E-4,1.0587488E-4,2.118339E-3,6.006658E-4,-3.4888586E-4,1.1045933E-3,4.5755506E-4,-2.6915074E-4,-1.0955887E-5,2.0716096E-4,2.3802742E-3,1.12248585E-4,-6.3671917E-3,-5.465597E-4,8.92405E-4,-9.6930156E-4,-2.4511665E-4,-2.8886497E-3,8.0892444E-4,-1.31464E-3,5.0429255E-3,5.126695E-4,9.43321E-4,-7.687012E-5],"split_indices":[2,0,2,0,0,3,0,0,1,0,0,0,0,0,1,3,0,2,2,3,3,0,0,0,0,0,0,3,1,0,3,0,2,0,0,3,1,0,0,1,0,2,1,1,2,3,0,0,0,0,0,0,0,0,0,0,0,0,0,0,0,0,0,0,0,0,0,0,0,0,0,0,0,0,0,0,0],"split_type":[0,0,0,0,0,0,0,0,0,0,0,0,0,0,0,0,0,0,0,0,0,0,0,0,0,0,0,0,0,0,0,0,0,0,0,0,0,0,0,0,0,0,0,0,0,0,0,0,0,0,0,0,0,0,0,0,0,0,0,0,0,0,0,0,0,0,0,0,0,0,0,0,0,0,0,0,0],"sum_hessian":[1.269E3,5E2,7.69E2,4.84E2,1.6E1,5E0,7.64E2,4.64E2,2E1,1E0,1.5E1,2E0,3E0,7.27E2,3.7E1,4.52E2,1.2E1,4E0,1.6E1,7E0,8E0,1E0,1E0,2E0,1E0,7.02E2,2.5E1,1.4E1,2.3E1,6.4E1,3.88E2,2E0,1E1,2E0,2E0,1E1,6E0,2E0,5E0,5E0,3E0,6.84E2,1.8E1,2E0,2.3E1,1E1,4E0,5E0,1.8E1,5.2E1,1.2E1,1.3E1,3.75E2,4E0,6E0,8E0,2E0,5E0,1E0,1E0,4E0,6.02E2,8.2E1,3E0,1.5E1,1E0,1E0,1.3E1,1E1,7E0,3E0,3E0,1E0,3E0,2E0,4E0,1.4E1],"tree_param":{"num_deleted":"0","num_feature":"4","num_nodes":"77","size_leaf_vector":"1"}},{"base_weights":[-1.0912953E-5,-6.806195E-5,9.230733E-5,-3.249822E-5,-6.9292163E-4,4.7407193E-5,1.3156794E-3,-8.2309234E-5,4.136631E-4,-1.0341406E-4,-4.4092336E-3,1.1440099E-4,-9.766243E-4,6.2371343E-3,-2.9982053E-4,-5.6589808E-5,-1.8461465E-3,4.2943284E-5,1.9678236E-3,-2.9381612E-4,8.1802905E-4,-7.1567893E-3,3.6195913E-4,7.2451454E-5,7.098869E-4,-2.494961E-3,-3.204584E-4,-9.7449124E-4,4.80775E-3,1.5022308E-3,-9.90659E-4,-7.2254934E-6,-4.730445E-4,-9.6434355E-4,-3.5822392E-3,-5.8173423E-4,1.1817917E-3,3.4965763E-3,-1.7889977E-3,-4.369406E-4,7.131E-4,-4.3938854E-3,-5.65961E-4,6.4658123E-4,6.272597E-5,9.976969E-4,-1.6932935E-3,-2.3466349E-3,-2.3732186E-4,-6.4667885E-4,1.146093E-3,8.152425E-5,9.4713765E-4,-3.0179534E-4,-9.742528E-4,-1.1021201E-5,6.435556E-4,-4.488471E-4,1.001022E-3,6.4603984E-5,-8.23158E-4,-2.5711358E-3,-1.15543604E-4,1.344255E-5,-1.5858635E-3,2.8860793E-3,1.02314356E-4,4.824832E-3,9.581506E-4,-1.2243788E-4,-1.3683935E-3,-1.0259251E-4,-8.7004306E-4,4.222686E-5,-1.5843766E-4,1.0281553E-4,7.8241824E-4,-3.0881166E-4,3.20971E-4,-5.0505996E-4,2.1380186E-4,8.215408E-4,-8.621812E-5,8.1317127E-4,-4.4710436E-4],"categories":[],"categories_nodes":[],"categories_segments":[],"categories_sizes":[],"default_left":[0,0,0,0,0,0,0,0,0,0,0,0,0,0,0,0,0,0,0,0,0,0,0,0,0,0,0,0,0,0,0,0,0,0,0,0,0,0,0,0,0,0,0,0,0,0,0,0,0,0,0,0,0,0,0,0,0,0,0,0,0,0,0,0,0,0,0,0,0,0,0,0,0,0,0,0,0,0,0,0,0,0,0,0,0],"id":13,"left_children":[1,3,5,7,9,11,13,15,17,19,21,23,25,27,29,31,33,35,37,39,-1,41,-1,43,45,47,49,-1,-1,51,53,55,57,59,61,63,65,67,69,71,-1,-1,-1,-1,73,75,-1,-1,77,79,81,-1,-1,83,-1,-1,-1,-1,-1,-1,-1,-1,-1,-1,-1,-1,-1,-1,-1,-1,-1,-1,-1,-1,-1,-1,-1,-1,-1,-1,-1,-1,-1,-1,-1],"loss_changes":[7.4979303E-6,1.8155353E-5,2.4820723E-5,1.7257453E-5,9.593897E-5,3.0160172E-5,1.290798E-4,3.1560216E-5,4.4855824E-5,1.3397465E-5,8.9802656E-5,1.0240476E-5,2.610005E-5,1.2936324E-4,1.767224E-5,1.4161045E-5,1.18544085E-5,4.6217923E-5,9.240414E-5,9.485517E-6,0E0,2.9358707E-5,0E0,4.5014776E-6,3.5211957E-5,3.859009E-5,1.0309535E-5,0E0,0E0,1.791218E-6,6.0102075E-6,1.186124E-5,7.852356E-5,6.178893E-6,1.4495403E-5,6.6290704E-5,1.01986196E-4,8.846763E-5,6.6473403E-6,9.911342E-6,0E0,0E0,0E0,0E0,3.193948E-6,1.13577335E-5,0E0,0E0,2.0684051E-6,7.069384E-6,2.9045018E-6,0E0,0E0,9.450073E-6,0E0,0E0,0E0,0E0,0E0,0E0,0E0,0E0,0E0,0E0,0E0,0E0,0E0,0E0,0E0,0E0,0E0,0E0,0E0,0E0,0E0,0E0,0E0,0E0,0E0,0E0,0E0,0E0,0E0,0E0,0E0],"parents":[2147483647,0,0,1,1,2,2,3,3,4,4,5,5,6,6,7,7,8,8,9,9,10,10,11,11,12,12,13,13,14,14,15,15,16,16,17,17,18,18,19,19,21,21,23,23,24,24,25,25,26,26,29,29,30,30,31,31,32,32,33,33,34,34,35,35,36,36,37,37,38,38,39,39,44,44,45,45,48,48,49,49,50,50,53,53],"right_children":[2,4,6,8,10,12,14,16,18,20,22,24,26,28,30,32,34,36,38,40,-1,42,-1,44,46,48,50,-1,-1,52,54,56,58,60,62,64,66,68,70,72,-1,-1,-1,-1,74,76,-1,-1,78,80,82,-1,-1,84,-1,-1,-1,-1,-1,-1,-1,-1,-1,-1,-1,-1,-1,-1,-1,-1,-1,-1,-1,-1,-1,-1,-1,-1,-1,-1,-1,-1,-1,-1,-1],"split_conditions":[6.4487195E-1,9.142972E-1,9.177834E-1,8.2377714E-1,5.4977965E-1,8.4121215E-1,6.851902E-1,8.1086487E-1,5.3521127E-2,4.9459606E-1,6.227515E-1,7.8805745E-1,8.564158E-1,1.0140845E-2,8.450705E-3,7.1425474E-1,7.29E-1,6.685E-1,5.875E-1,9.625E-1,8.1802905E-4,9.2685676E-1,3.6195913E-4,4E-3,5.802817E-2,3.605634E-2,9.798819E-1,-9.7449124E-4,4.80775E-3,6.7605632E-3,8.8947964E-1,7.062986E-1,8.295E-1,8.1928325E-1,8.1665874E-1,5.085E-1,6.83E-1,8.2731974E-1,9.075E-1,8.1E-1,7.131E-4,-4.3938854E-3,-5.65961E-4,6.4658123E-4,7.4948364E-1,7.583439E-1,-1.6932935E-3,-2.3466349E-3,2.025E-1,6.79E-1,9.0821207E-1,8.152425E-5,9.4713765E-4,9.4010663E-1,-9.742528E-4,-1.1021201E-5,6.435556E-4,-4.488471E-4,1.001022E-3,6.4603984E-5,-8.23158E-4,-2.5711358E-3,-1.15543604E-4,1.344255E-5,-1.5858635E-3,2.8860793E-3,1.02314356E-4,4.824832E-3,9.581506E-4,-1.2243788E-4,-1.3683935E-3,-1.0259251E-4,-8.7004306E-4,4.222686E-5,-1.5843766E-4,1.0281553E-4,7.8241824E-4,-3.0881166E-4,3.20971E-4,-5.0505996E-4,2.1380186E-4,8.215408E-4,-8.621812E-5,8.1317127E-4,-4.4710436E-4],"split_indices":[3,0,0,0,3,0,3,0,1,3,3,0,0,1,1,0,2,2,2,2,0,0,0,2,1,1,3,0,0,1,3,0,2,0,0,2,2,0,2,2,0,0,0,0,0,3,0,0,2,2,0,0,0,0,0,0,0,0,0,0,0,0,0,0,0,0,0,0,0,0,0,0,0,0,0,0,0,0,0,0,0,0,0,0,0],"split_type":[0,0,0,0,0,0,0,0,0,0,0,0,0,0,0,0,0,0,0,0,0,0,0,0,0,0,0,0,0,0,0,0,0,0,0,0,0,0,0,0,0,0,0,0,0,0,0,0,0,0,0,0,0,0,0,0,0,0,0,0,0,0,0,0,0,0,0,0,0,0,0,0,0,0,0,0,0,0,0,0,0,0,0,0,0],"sum_hessian":[1.269E3,8.17E2,4.52E2,7.74E2,4.3E1,4.37E2,1.5E1,6.97E2,7.7E1,3.8E1,5E0,4.11E2,2.6E1,3E0,1.2E1,6.88E2,9E0,6.3E1,1.4E1,3.5E1,3E0,3E0,2E0,3.85E2,2.6E1,7E0,1.9E1,1E0,2E0,3E0,9E0,6.16E2,7.2E1,7E0,2E0,4.1E1,2.2E1,1E1,4E0,3.3E1,2E0,2E0,1E0,2E0,3.83E2,2.5E1,1E0,3E0,4E0,1.6E1,3E0,1E0,2E0,6E0,3E0,6.1E2,6E0,6.2E1,1E1,3E0,4E0,1E0,1E0,3.4E1,7E0,3E0,1.9E1,1E0,9E0,2E0,2E0,2.9E1,4E0,3.63E2,2E1,1.1E1,1.4E1,3E0,1E0,1.2E1,4E0,2E0,1E0,1E0,5E0],"tree_param":{"num_deleted":"0","num_feature":"4","num_nodes":"85","size_leaf_vector":"1"}},{"base_weights":[-4.2728084E-6,-8.8441564E-5,4.060881E-5,8.287748E-6,-9.213349E-4,3.2178278E-4,-1.6894833E-7,-5.3863343E-5,2.848743E-4,-3.5570064E-4,-2.6887439E-3,2.4821557E-4,1.7434836E-3,-6.974913E-4,2.5731835E-5,-2.5149286E-5,-3.1274557E-3,2.2012545E-3,-1.282047E-4,4.585584E-5,-5.342197E-4,-1.2060463E-3,-4.3789297E-3,3.157283E-4,-7.0348807E-4,2.2521913E-3,-7.2836876E-5,6.8558584E-5,-2.1520918E-3,6.4356724E-4,-1.929556E-6,2.7400846E-4,-1.8093032E-4,-2.2568107E-3,-8.878112E-5,-2.5966763E-4,3.7717894E-3,-4.059913E-4,1.329106E-3,-1.388304E-4,2.7715563E-4,-1.6934871E-4,-9.832057E-4,-1.4000386E-3,-1.2287924E-4,2.7169826E-4,1.1136383E-3,-1.0914356E-3,-9.311239E-5,-6.146133E-4,3.6118427E-4,6.8520906E-4,-6.242262E-4,-1.2603743E-3,-1.7577013E-3,-1.83326E-4,2.0885034E-3,-1.0273589E-4,6.5780994E-5,6.3134656E-5,1.2254758E-3,-3.8745955E-5,-1.0366954E-3,2.3137778E-4,-5.681713E-4,3.0616447E-3,5.6811573E-4,-6.186508E-4,7.612165E-5,1.8059313E-3,-8.259927E-5,-1.7670046E-4,2.1257252E-4,-1.3942271E-4,-6.0624257E-4,-1.7930071E-4,3.2286346E-4,4.5204433E-4,9.2825365E-5,-5.9345365E-4,1.8151403E-4,1.2469292E-4,5.3557754E-4,-4.71477E-4,1.637737E-4,-7.9713267E-4,1.8574297E-4,2.189517E-4,-3.65707E-4,2.1100641E-4,1.4902481E-3,-2.7256157E-5,-7.475813E-4,1.0508859E-5,4.5985432E-4],"categories":[],"categories_nodes":[],"categories_segments":[],"categories_sizes":[],"default_left":[0,0,0,0,0,0,0,0,0,0,0,0,0,0,0,0,0,0,0,0,0,0,0,0,0,0,0,0,0,0,0,0,0,0,0,0,0,0,0,0,0,0,0,0,0,0,0,0,0,0,0,0,0,0,0,0,0,0,0,0,0,0,0,0,0,0,0,0,0,0,0,0,0,0,0,0,0,0,0,0,0,0,0,0,0,0,0,0,0,0,0,0,0,0,0],"id":14,"left_children":[1,3,5,7,9,11,13,15,17,19,21,23,25,27,29,31,33,35,37,39,41,43,-1,45,47,-1,49,51,53,55,57,59,61,-1,-1,63,65,67,69,-1,-1,71,73,-1,75,77,-1,-1,79,-1,-1,81,83,85,-1,87,89,91,93,-1,-1,-1,-1,-1,-1,-1,-1,-1,-1,-1,-1,-1,-1,-1,-1,-1,-1,-1,-1,-1,-1,-1,-1,-1,-1,-1,-1,-1,-1,-1,-1,-1,-1,-1,-1],"loss_changes":[4.801181E-6,3.5617453E-5,9.505073E-6,6.839836E-6,4.5030138E-5,1.0549246E-5,1.3112314E-5,2.8604321E-5,5.8070204E-5,2.6051753E-6,8.8422916E-5,6.7115757E-6,2.5401472E-5,2.9119255E-5,1.1964374E-5,1.5102379E-5,1.1465674E-5,5.122395E-5,2.5233712E-5,2.127836E-6,3.9290444E-6,1.6921947E-5,0E0,7.3905812E-6,6.117604E-6,0E0,4.566224E-6,8.117435E-6,6.5104723E-6,3.6227113E-5,4.5867705E-6,3.5390305E-5,4.1534742E-5,0E0,0E0,4.325831E-6,4.262264E-5,2.431981E-5,3.4708013E-5,0E0,0E0,1.7915147E-6,1.4383522E-6,0E0,1.4998012E-6,4.9472255E-6,0E0,0E0,3.4244254E-6,0E0,0E0,1.4149114E-6,3.0390725E-6,4.4062917E-6,0E0,7.1300565E-6,1.5093665E-5,1.8048398E-5,1.5346955E-5,0E0,0E0,0E0,0E0,0E0,0E0,0E0,0E0,0E0,0E0,0E0,0E0,0E0,0E0,0E0,0E0,0E0,0E0,0E0,0E0,0E0,0E0,0E0,0E0,0E0,0E0,0E0,0E0,0E0,0E0,0E0,0E0,0E0,0E0,0E0,0E0],"parents":[2147483647,0,0,1,1,2,2,3,3,4,4,5,5,6,6,7,7,8,8,9,9,10,10,11,11,12,12,13,13,14,14,15,15,16,16,17,17,18,18,19,19,20,20,21,21,23,23,24,24,26,26,27,27,28,28,29,29,30,30,31,31,32,32,35,35,36,36,37,37,38,38,41,41,42,42,44,44,45,45,48,48,51,51,52,52,53,53,55,55,56,56,57,57,58,58],"right_children":[2,4,6,8,10,12,14,16,18,20,22,24,26,28,30,32,34,36,38,40,42,44,-1,46,48,-1,50,52,54,56,58,60,62,-1,-1,64,66,68,70,-1,-1,72,74,-1,76,78,-1,-1,80,-1,-1,82,84,86,-1,88,90,92,94,-1,-1,-1,-1,-1,-1,-1,-1,-1,-1,-1,-1,-1,-1,-1,-1,-1,-1,-1,-1,-1,-1,-1,-1,-1,-1,-1,-1,-1,-1,-1,-1,-1,-1,-1,-1],"split_conditions":[3.600528E-1,3.249944E-1,4.211657E-1,7.8805745E-1,6.9503546E-1,6.3098595E-2,4.466222E-1,7.846799E-1,8.2731974E-1,3.3444706E-1,5.725E-1,8.79952E-1,1.33E-1,7.020757E-1,4.710366E-1,9.9154875E-2,1.6338028E-2,1.2684804E-1,2.741676E-1,4.358678E-1,3.5912898E-1,7.8805745E-1,-4.3789297E-3,8.77801E-1,9.177834E-1,2.2521913E-3,5.8225936E-1,4.6027377E-1,8.295E-1,7.59366E-1,3.915E-1,7.5207615E-1,7.5207615E-1,-2.2568107E-3,-8.878112E-5,8.1086487E-1,2.0044507E-1,8.77801E-1,8.564158E-1,-1.388304E-4,2.7715563E-4,2.3178118E-1,1.61E-1,-1.4000386E-3,3.5513535E-1,3.6316273E-1,1.1136383E-3,-1.0914356E-3,1.465E-1,-6.146133E-4,3.6118427E-4,3.4408608E-1,4.3786347E-1,6.685E-1,-1.7577013E-3,3.039032E-1,2.21E-1,9.177834E-1,9.091715E-1,6.3134656E-5,1.2254758E-3,-3.8745955E-5,-1.0366954E-3,2.3137778E-4,-5.681713E-4,3.0616447E-3,5.6811573E-4,-6.186508E-4,7.612165E-5,1.8059313E-3,-8.259927E-5,-1.7670046E-4,2.1257252E-4,-1.3942271E-4,-6.0624257E-4,-1.7930071E-4,3.2286346E-4,4.5204433E-4,9.2825365E-5,-5.9345365E-4,1.8151403E-4,1.2469292E-4,5.3557754E-4,-4.71477E-4,1.637737E-4,-7.9713267E-4,1.8574297E-4,2.189517E-4,-3.65707E-4,2.1100641E-4,1.4902481E-3,-2.7256157E-5,-7.475813E-4,1.0508859E-5,4.5985432E-4],"split_indices":[3,3,3,0,0,1,3,0,0,3,2,0,2,0,3,3,1,3,3,0,0,0,0,0,0,0,0,0,2,0,2,0,0,0,0,0,3,0,0,0,0,0,2,0,3,3,0,0,2,0,0,0,3,2,0,0,2,0,0,0,0,0,0,0,0,0,0,0,0,0,0,0,0,0,0,0,0,0,0,0,0,0,0,0,0,0,0,0,0,0,0,0,0,0,0],"split_type":[0,0,0,0,0,0,0,0,0,0,0,0,0,0,0,0,0,0,0,0,0,0,0,0,0,0,0,0,0,0,0,0,0,0,0,0,0,0,0,0,0,0,0,0,0,0,0,0,0,0,0,0,0,0,0,0,0,0,0,0,0,0,0,0,0,0,0,0,0,0,0,0,0,0,0,0,0,0,0,0,0,0,0,0,0,0,0,0,0,0,0,0,0,0,0],"sum_hessian":[1.269E3,4.41E2,8.28E2,3.96E2,4.5E1,1.04E2,7.24E2,3.24E2,7.2E1,3.5E1,1E1,1E2,4E0,2.5E1,6.99E2,3.22E2,2E0,1.2E1,6E1,1.1E1,2.4E1,9E0,1E0,9.4E1,6E0,1E0,3E0,1.7E1,8E0,2.9E1,6.7E2,1.1E2,2.12E2,1E0,1E0,5E0,7E0,5.1E1,9E0,7E0,4E0,1.4E1,1E1,3E0,6E0,9.3E1,1E0,1E0,5E0,1E0,2E0,9E0,8E0,6E0,2E0,1.9E1,1E1,2.69E2,4.01E2,1.04E2,6E0,2.02E2,1E1,3E0,2E0,3E0,4E0,2E1,3.1E1,3E0,6E0,1.1E1,3E0,3E0,7E0,5E0,1E0,1E1,8.3E1,1E0,4E0,5E0,4E0,6E0,2E0,5E0,1E0,9E0,1E1,4E0,6E0,2.61E2,8E0,3.82E2,1.9E1],"tree_param":{"num_deleted":"0","num_feature":"4","num_nodes":"95","size_leaf_vector":"1"}},{"base_weights":[-4.082965E-6,4.1222793E-5,-1.0165446E-4,2.0447384E-5,5.8334135E-4,-4.1881132E-5,-3.955101E-4,6.195012E-6,5.481514E-4,1.4980534E-3,3.2262006E-4,-9.6343414E-5,1.5759901E-3,-1.4969409E-3,-2.7140975E-4,3.4519115E-5,-4.1061526E-4,-1.17943564E-4,2.3440619E-3,1.2443747E-4,2.0647843E-3,-2.679852E-5,-3.806241E-4,1.2480319E-3,-2.7310849E-5,2.5275876E-4,-4.4419884E-4,7.249728E-6,4.0828495E-4,-2.8888881E-3,-1.9992737E-4,-7.034811E-4,4.0951796E-4,9.4103816E-5,3.3984631E-3,5.4088235E-4,-1.307104E-4,1.4515966E-3,9.699166E-5,-7.274662E-5,5.6710053E-4,-9.610335E-4,1.2774467E-4,-1.6897172E-4,3.0380487E-4,-2.8034233E-4,1.0543807E-3,-9.367168E-4,-3.131108E-4,1.709515E-5,-5.850848E-4,6.4025103E-4,-2.5659113E-4,-1.9989114E-3,1.0947883E-4,2.3400357E-4,-5.204691E-4,3.4977496E-4,-4.568696E-4,-2.327462E-4,3.1116605E-4,2.675876E-4,-1.28676E-4,-2.2994533E-5,-6.7395566E-4,4.593571E-4,-3.0058026E-4,2.4874645E-4,-8.575857E-4,5.9999526E-4,-9.158679E-5,3.8095712E-4,-4.923812E-4,-2.9051304E-4,7.11893E-4,-4.1681703E-4,-8.78111E-6],"categories":[],"categories_nodes":[],"categories_segments":[],"categories_sizes":[],"default_left":[0,0,0,0,0,0,0,0,0,0,0,0,0,0,0,0,0,0,0,0,0,0,0,0,0,0,0,0,0,0,0,0,0,0,0,0,0,0,0,0,0,0,0,0,0,0,0,0,0,0,0,0,0,0,0,0,0,0,0,0,0,0,0,0,0,0,0,0,0,0,0,0,0,0,0,0,0],"id":15,"left_children":[1,3,5,7,9,11,13,15,17,-1,19,21,23,-1,25,27,29,31,33,35,37,39,41,-1,43,45,47,49,51,53,55,57,-1,59,-1,-1,61,-1,-1,63,65,67,69,-1,-1,71,73,-1,75,-1,-1,-1,-1,-1,-1,-1,-1,-1,-1,-1,-1,-1,-1,-1,-1,-1,-1,-1,-1,-1,-1,-1,-1,-1,-1,-1,-1],"loss_changes":[5.61829E-6,9.764126E-6,7.062022E-6,6.2917097E-6,1.9163293E-5,2.9757788E-5,2.1114633E-5,9.647688E-6,2.6593902E-5,0E0,1.0101063E-5,6.434908E-6,1.6294876E-5,0E0,6.0899342E-6,7.7941995E-6,2.6573818E-5,9.903E-6,5.9472928E-5,6.9806783E-6,4.142318E-6,7.2181388E-6,1.9006739E-5,0E0,1.1914728E-6,7.560461E-6,8.781187E-6,2.2688335E-5,4.245054E-5,1.4660945E-5,2.8012437E-5,3.884191E-6,0E0,1.7676635E-6,0E0,0E0,2.0772914E-6,0E0,0E0,8.297481E-6,8.3570485E-6,3.3851185E-5,1.1888135E-5,0E0,0E0,8.826355E-6,5.056154E-6,0E0,7.2158355E-6,0E0,0E0,0E0,0E0,0E0,0E0,0E0,0E0,0E0,0E0,0E0,0E0,0E0,0E0,0E0,0E0,0E0,0E0,0E0,0E0,0E0,0E0,0E0,0E0,0E0,0E0,0E0,0E0],"parents":[2147483647,0,0,1,1,2,2,3,3,4,4,5,5,6,6,7,7,8,8,10,10,11,11,12,12,14,14,15,15,16,16,17,17,18,18,19,19,20,20,21,21,22,22,24,24,25,25,26,26,27,27,28,28,29,29,30,30,31,31,33,33,36,36,39,39,40,40,41,41,42,42,45,45,46,46,48,48],"right_children":[2,4,6,8,10,12,14,16,18,-1,20,22,24,-1,26,28,30,32,34,36,38,40,42,-1,44,46,48,50,52,54,56,58,-1,60,-1,-1,62,-1,-1,64,66,68,70,-1,-1,72,74,-1,76,-1,-1,-1,-1,-1,-1,-1,-1,-1,-1,-1,-1,-1,-1,-1,-1,-1,-1,-1,-1,-1,-1,-1,-1,-1,-1,-1,-1],"split_conditions":[6.875E-1,6.685E-1,7.991772E-1,9.2685676E-1,3.3802816E-3,7.719337E-1,8.1665874E-1,8.564158E-1,6.1347824E-1,1.4980534E-3,8.856746E-1,6.087759E-1,6.1724555E-1,-1.4969409E-3,8.487123E-1,7.991772E-1,8.606215E-1,4.9577463E-2,4.58E-1,8.29392E-2,8.8893604E-1,5.656148E-1,3.5492957E-2,1.2480319E-3,5.3521127E-2,8.3571875E-1,8.5089755E-1,7.756817E-1,5.528267E-1,4.7323942E-2,3.705E-1,3.943662E-3,4.0951796E-4,9.458312E-1,3.3984631E-3,5.4088235E-4,1.0247129E-1,1.4515966E-3,9.699166E-5,5.553036E-1,6.1971832E-2,1.2957746E-2,2.4418241E-1,-1.6897172E-4,3.0380487E-4,8.02E-1,2.2535212E-3,-9.367168E-4,7.98E-1,1.709515E-5,-5.850848E-4,6.4025103E-4,-2.5659113E-4,-1.9989114E-3,1.0947883E-4,2.3400357E-4,-5.204691E-4,3.4977496E-4,-4.568696E-4,-2.327462E-4,3.1116605E-4,2.675876E-4,-1.28676E-4,-2.2994533E-5,-6.7395566E-4,4.593571E-4,-3.0058026E-4,2.4874645E-4,-8.575857E-4,5.9999526E-4,-9.158679E-5,3.8095712E-4,-4.923812E-4,-2.9051304E-4,7.11893E-4,-4.1681703E-4,-8.78111E-6],"split_indices":[2,2,0,0,1,0,0,0,3,0,0,0,3,0,0,0,0,1,2,3,0,0,1,0,1,0,0,0,3,1,2,1,0,0,0,0,0,0,0,0,1,1,3,0,0,2,1,0,2,0,0,0,0,0,0,0,0,0,0,0,0,0,0,0,0,0,0,0,0,0,0,0,0,0,0,0,0],"split_type":[0,0,0,0,0,0,0,0,0,0,0,0,0,0,0,0,0,0,0,0,0,0,0,0,0,0,0,0,0,0,0,0,0,0,0,0,0,0,0,0,0,0,0,0,0,0,0,0,0,0,0,0,0,0,0,0,0,0,0,0,0,0,0,0,0,0,0,0,0,0,0,0,0,0,0,0,0],"sum_hessian":[1.269E3,8.67E2,4.02E2,8.36E2,3.1E1,3.35E2,6.7E1,8.15E2,2.1E1,2E0,2.9E1,3.25E2,1E1,2E0,6.5E1,7.64E2,5.1E1,1.6E1,5E0,2.7E1,2E0,2.62E2,6.3E1,6E0,4E0,1.6E1,4.9E1,7.13E2,5.1E1,3E0,4.8E1,1E1,6E0,4E0,1E0,5E0,2.2E1,1E0,1E0,2.44E2,1.8E1,2.9E1,3.4E1,3E0,1E0,1E1,6E0,3E0,4.6E1,6.98E2,1.5E1,2.6E1,2.5E1,2E0,1E0,2.7E1,2.1E1,1E0,9E0,2E0,2E0,3E0,1.9E1,2.4E2,4E0,1.4E1,4E0,1E1,1.9E1,7E0,2.7E1,4E0,6E0,1E0,5E0,1.6E1,3E1],"tree_param":{"num_deleted":"0","num_feature":"4","num_nodes":"77","size_leaf_vector":"1"}},{"base_weights":[5.849234E-7,7.234169E-6,-4.8992917E-4,-3.538369E-5,8.42543E-5,-3.0963868E-4,-8.4364414E-4,-1.007922E-3,-2.5626277E-5,4.4032838E-4,2.4689207E-5,-4.2891502E-4,3.6987662E-4,-2.2864838E-4,-8.8659924E-4,-4.7724196E-5,2.809454E-4,2.1288141E-4,3.7988126E-3,7.468238E-5,-4.1947304E-4,3.0393401E-5,-3.3992232E-4,-3.8259765E-5,-1.2117823E-3,-1.0783502E-4,9.4726385E-4,5.72518E-4,-1.5362231E-4,2.4869244E-3,6.842613E-5,-1.9421486E-5,3.550539E-4,8.681655E-4,-5.9143646E-4,-2.5762004E-6,-1.602276E-4,-1.6889125E-3,-5.1504372E-5,9.770393E-5,-2.4007447E-4,1.16974115E-4,7.5480883E-4,9.848603E-5,4.1640137E-4,-6.482303E-4,-1.5050173E-5,1.2766285E-5,-4.7529986E-4,-7.118359E-4,2.1776414E-4,5.684197E-4,-5.1632524E-5,-9.977967E-4,-8.456303E-5],"categories":[],"categories_nodes":[],"categories_segments":[],"categories_sizes":[],"default_left":[0,0,0,0,0,0,0,0,0,0,0,0,0,0,0,0,0,0,0,0,0,0,0,0,0,0,0,0,0,0,0,0,0,0,0,0,0,0,0,0,0,0,0,0,0,0,0,0,0,0,0,0,0,0,0],"id":16,"left_children":[1,3,5,7,9,11,-1,13,15,17,19,21,-1,-1,-1,23,25,27,29,31,33,-1,-1,35,37,39,41,43,45,-1,-1,47,49,51,53,-1,-1,-1,-1,-1,-1,-1,-1,-1,-1,-1,-1,-1,-1,-1,-1,-1,-1,-1,-1],"loss_changes":[4.145711E-6,4.1191524E-6,3.1473814E-6,7.6416545E-6,9.469813E-6,2.3199732E-6,0E0,2.5601657E-6,5.439859E-6,4.8079433E-5,8.558078E-6,1.884536E-6,0E0,0E0,0E0,8.1944645E-6,1.40909315E-5,8.128248E-6,1.653106E-5,9.135775E-6,9.1491065E-6,0E0,0E0,6.94001E-6,1.406196E-5,4.045379E-6,7.669545E-6,2.8661761E-6,4.337111E-6,0E0,0E0,1.0907932E-5,1.3073394E-5,1.4223856E-6,2.0417145E-5,0E0,0E0,0E0,0E0,0E0,0E0,0E0,0E0,0E0,0E0,0E0,0E0,0E0,0E0,0E0,0E0,0E0,0E0,0E0,0E0],"parents":[2147483647,0,0,1,1,2,2,3,3,4,4,5,5,7,7,8,8,9,9,10,10,11,11,15,15,16,16,17,17,18,18,19,19,20,20,23,23,24,24,25,25,26,26,27,27,28,28,31,31,32,32,33,33,34,34],"right_children":[2,4,6,8,10,12,-1,14,16,18,20,22,-1,-1,-1,24,26,28,30,32,34,-1,-1,36,38,40,42,44,46,-1,-1,48,50,52,54,-1,-1,-1,-1,-1,-1,-1,-1,-1,-1,-1,-1,-1,-1,-1,-1,-1,-1,-1,-1],"split_conditions":[9.895E-1,6.4487195E-1,8.487123E-1,7E-3,6.9710827E-1,7.59366E-1,-8.4364414E-4,4.6803808E-1,6.1971832E-2,9.091715E-1,8.3193886E-1,1.6712585E-1,3.6987662E-4,-2.2864838E-4,-8.8659924E-4,6.140845E-2,3.872227E-1,6.05E-1,9.3477356E-1,6.482667E-1,8.450705E-3,3.0393401E-5,-3.3992232E-4,8.564158E-1,5.725E-1,2.3304296E-1,4.9137154E-1,6.7688787E-1,6.14E-1,2.4869244E-3,6.842613E-5,6.1395574E-1,6.9958735E-1,8.25E-1,2.3661971E-2,-2.5762004E-6,-1.602276E-4,-1.6889125E-3,-5.1504372E-5,9.770393E-5,-2.4007447E-4,1.16974115E-4,7.5480883E-4,9.848603E-5,4.1640137E-4,-6.482303E-4,-1.5050173E-5,1.2766285E-5,-4.7529986E-4,-7.118359E-4,2.1776414E-4,5.684197E-4,-5.1632524E-5,-9.977967E-4,-8.456303E-5],"split_indices":[2,3,0,2,3,0,0,3,1,0,0,0,0,0,0,1,3,2,0,0,1,0,0,0,2,3,0,3,2,0,0,0,3,2,1,0,0,0,0,0,0,0,0,0,0,0,0,0,0,0,0,0,0,0,0],"split_type":[0,0,0,0,0,0,0,0,0,0,0,0,0,0,0,0,0,0,0,0,0,0,0,0,0,0,0,0,0,0,0,0,0,0,0,0,0,0,0,0,0,0,0,0,0,0,0,0,0,0,0,0,0,0,0],"sum_hessian":[1.269E3,1.253E3,1.6E1,8.07E2,4.46E2,1.5E1,1E0,7E0,8E2,6.3E1,3.83E2,1.4E1,1E0,5E0,2E0,7.47E2,5.3E1,6E1,3E0,3.45E2,3.8E1,5E0,9E0,7.42E2,5E0,3.4E1,1.9E1,3E1,3E1,2E0,1E0,2.59E2,8.6E1,4E0,3.4E1,6.65E2,7.7E1,1E0,4E0,1.9E1,1.5E1,9E0,1E1,1.3E1,1.7E1,2E0,2.8E1,2.48E2,1.1E1,3E0,8.3E1,3E0,1E0,7E0,2.7E1],"tree_param":{"num_deleted":"0","num_feature":"4","num_nodes":"55","size_leaf_vector":"1"}},{"base_weights":[-1.4333275E-6,-2.7117002E-4,8.696731E-6,-4.652594E-5,-7.81319E-4,2.1373222E-4,-8.533214E-6,-1.5547275E-4,3.9110333E-4,-2.184232E-3,2.4076964E-4,6.0459547E-4,-1.98311E-4,-2.4132573E-4,1.7798815E-5,1.00192425E-4,-3.175253E-4,-4.1544437E-4,-1.6303062E-3,3.1098298E-4,-3.6447248E-4,1.6130086E-4,2.121313E-3,-3.9849317E-4,2.5531053E-4,-3.9485813E-4,7.333346E-4,4.498677E-4,-6.8964987E-6,2.1345913E-6,-4.7872748E-4,3.824505E-4,-9.043046E-4,3.32091E-3,-8.082092E-4,-1.4605989E-4,-8.900816E-4,1.3296247E-3,-1.2811205E-4,-2.1770393E-4,-1.563682E-3,2.6937872E-3,6.388028E-5,6.4632087E-4,-2.3454428E-4,-9.859601E-4,-7.5737717E-7,-3.6386773E-4,-6.2878644E-5,6.334419E-5,4.412288E-4,2.1462142E-4,-1.005888E-3,6.304085E-4,2.1524013E-3,-5.817513E-4,6.441772E-5,2.3390565E-5,-2.0071566E-4,-2.0550688E-4,-1.0152956E-3,1.6182661E-4,9.4619393E-4,-1.8329342E-4,2.9771667E-4,-1.7946959E-5,-1.1193553E-3,2.5285373E-4,-4.604578E-4,2.2470568E-4,1.0264755E-3,1.5046922E-4,-1.0598997E-3,-9.825528E-4,-2.5555491E-6,4.853954E-4,-3.43668E-6],"categories":[],"categories_nodes":[],"categories_segments":[],"categories_sizes":[],"default_left":[0,0,0,0,0,0,0,0,0,0,0,0,0,0,0,0,0,0,0,0,0,0,0,0,0,0,0,0,0,0,0,0,0,0,0,0,0,0,0,0,0,0,0,0,0,0,0,0,0,0,0,0,0,0,0,0,0,0,0,0,0,0,0,0,0,0,0,0,0,0,0,0,0,0,0,0,0],"id":17,"left_children":[1,3,5,7,9,11,13,15,-1,17,19,21,23,25,27,-1,29,-1,-1,-1,-1,31,33,35,37,39,41,43,45,-1,47,49,51,53,55,57,59,61,-1,63,65,-1,67,69,71,73,75,-1,-1,-1,-1,-1,-1,-1,-1,-1,-1,-1,-1,-1,-1,-1,-1,-1,-1,-1,-1,-1,-1,-1,-1,-1,-1,-1,-1,-1,-1],"loss_changes":[3.472568E-6,5.235338E-6,4.3294426E-6,3.1011084E-6,2.0600517E-5,1.541989E-5,6.9372113E-6,1.7936563E-6,0E0,6.0310704E-6,3.7802433E-6,3.2603108E-5,4.3696664E-6,1.7498385E-5,1.0854571E-5,0E0,1.0913973E-6,0E0,0E0,0E0,0E0,9.536524E-6,4.1340703E-5,3.965073E-6,8.583915E-6,2.0365787E-5,4.950865E-5,7.5466114E-6,5.787452E-6,0E0,1.138975E-6,4.1083376E-6,1.12016E-5,1.0787713E-5,1.481603E-6,1.1514394E-6,5.175595E-6,2.2181412E-6,0E0,1.0871756E-5,1.3326557E-5,0E0,6.9923576E-6,1.0987469E-5,1.376171E-5,5.752319E-6,5.699082E-6,0E0,0E0,0E0,0E0,0E0,0E0,0E0,0E0,0E0,0E0,0E0,0E0,0E0,0E0,0E0,0E0,0E0,0E0,0E0,0E0,0E0,0E0,0E0,0E0,0E0,0E0,0E0,0E0,0E0,0E0],"parents":[2147483647,0,0,1,1,2,2,3,3,4,4,5,5,6,6,7,7,9,9,10,10,11,11,12,12,13,13,14,14,16,16,21,21,22,22,23,23,24,24,25,25,26,26,27,27,28,28,30,30,31,31,32,32,33,33,34,34,35,35,36,36,37,37,39,39,40,40,42,42,43,43,44,44,45,45,46,46],"right_children":[2,4,6,8,10,12,14,16,-1,18,20,22,24,26,28,-1,30,-1,-1,-1,-1,32,34,36,38,40,42,44,46,-1,48,50,52,54,56,58,60,62,-1,64,66,-1,68,70,72,74,76,-1,-1,-1,-1,-1,-1,-1,-1,-1,-1,-1,-1,-1,-1,-1,-1,-1,-1,-1,-1,-1,-1,-1,-1,-1,-1,-1,-1,-1,-1],"split_conditions":[3.7246056E-2,6.0256445E-1,1.0118669E-1,5.100462E-1,7.8805745E-1,3.5492957E-2,1.8510489E-1,1.2930523E-1,3.9110333E-4,6.765875E-1,2.3093572E-2,2.7042253E-2,7.020757E-1,8.2377714E-1,2.4418241E-1,1.00192425E-4,2.6478874E-2,-4.1544437E-4,-1.6303062E-3,3.1098298E-4,-3.6447248E-4,7.92E-1,7.1425474E-1,7.681823E-2,7.719337E-1,7.1425474E-1,8.2731974E-1,5.5774648E-2,2.458793E-1,2.1345913E-6,6.685E-1,7.681823E-2,2.3178118E-1,4.2278734E-1,3.1549297E-2,5.0140847E-2,6.1040056E-1,7.70256E-1,-1.2811205E-4,6.4033717E-1,2.8169013E-3,2.6937872E-3,9.177834E-1,2.4202873E-1,6.087759E-1,3.5492957E-2,2.4901594E-1,-3.6386773E-4,-6.2878644E-5,6.334419E-5,4.412288E-4,2.1462142E-4,-1.005888E-3,6.304085E-4,2.1524013E-3,-5.817513E-4,6.441772E-5,2.3390565E-5,-2.0071566E-4,-2.0550688E-4,-1.0152956E-3,1.6182661E-4,9.4619393E-4,-1.8329342E-4,2.9771667E-4,-1.7946959E-5,-1.1193553E-3,2.5285373E-4,-4.604578E-4,2.2470568E-4,1.0264755E-3,1.5046922E-4,-1.0598997E-3,-9.825528E-4,-2.5555491E-6,4.853954E-4,-3.43668E-6],"split_indices":[3,0,3,0,0,1,3,0,0,0,3,1,0,0,3,0,1,0,0,0,0,2,0,3,0,0,0,1,3,0,2,3,0,0,1,1,0,0,0,0,1,0,0,3,0,1,3,0,0,0,0,0,0,0,0,0,0,0,0,0,0,0,0,0,0,0,0,0,0,0,0,0,0,0,0,0,0],"split_type":[0,0,0,0,0,0,0,0,0,0,0,0,0,0,0,0,0,0,0,0,0,0,0,0,0,0,0,0,0,0,0,0,0,0,0,0,0,0,0,0,0,0,0,0,0,0,0,0,0,0,0,0,0,0,0,0,0,0,0,0,0,0,0,0,0,0,0,0,0,0,0,0,0,0,0,0,0],"sum_hessian":[1.269E3,4.5E1,1.224E3,3.2E1,1.3E1,9.4E1,1.13E3,2.9E1,3E0,5E0,8E0,4.8E1,4.6E1,1.14E2,1.016E3,9E0,2E1,3E0,2E0,6E0,2E0,3.8E1,1E1,3.2E1,1.4E1,9.9E1,1.5E1,5.4E1,9.62E2,7E0,1.3E1,3.2E1,6E0,7E0,3E0,2.2E1,1E1,4E0,1E1,8.7E1,1.2E1,1E0,1.4E1,4.2E1,1.2E1,5E0,9.57E2,7E0,6E0,2.2E1,1E1,3E0,3E0,3E0,4E0,2E0,1E0,1.3E1,9E0,8E0,2E0,2E0,2E0,7.4E1,1.3E1,4E0,8E0,1E1,4E0,3.8E1,4E0,1E1,2E0,2E0,3E0,5E0,9.52E2],"tree_param":{"num_deleted":"0","num_feature":"4","num_nodes":"77","size_leaf_vector":"1"}},{"base_weights":[-4.8669303E-8,-2.721337E-4,1.0630096E-5,-3.4717057E-4,3.2003224E-4,-3.3181268E-4,1.8638262E-5,-2.0976663E-4,-1.205335E-3,-5.966127E-4,1.3166125E-4,4.312555E-4,1.3386235E-5,-2.7339082E-4,3.3303103E-4,-7.2288513E-4,-7.8976154E-7,-3.528837E-4,9.2208385E-5,3.6405525E-4,-4.0892097E-5,-5.686283E-5,7.1511866E-4,1.00744E-5,3.3041337E-4,-1.6377313E-4,-5.8209896E-4,-6.454438E-5,1.095363E-3,1.36370145E-5,-8.277297E-4,-1.3552E-4,8.8112225E-5,-6.301204E-5,8.0456136E-4,-1.053415E-5,3.4422144E-5,-8.8754296E-4,-7.355958E-5],"categories":[],"categories_nodes":[],"categories_segments":[],"categories_sizes":[],"default_left":[0,0,0,0,0,0,0,0,0,0,0,0,0,0,0,0,0,0,0,0,0,0,0,0,0,0,0,0,0,0,0,0,0,0,0,0,0,0,0],"id":18,"left_children":[1,3,5,7,-1,9,11,13,15,17,19,21,23,25,-1,-1,-1,-1,-1,-1,-1,-1,27,29,-1,31,-1,-1,33,35,37,-1,-1,-1,-1,-1,-1,-1,-1],"loss_changes":[3.6929187E-6,3.5077394E-6,3.3600647E-6,5.053344E-6,0E0,3.5149317E-6,2.5860513E-6,2.4110514E-6,1.7342672E-6,1.6647114E-6,1.459951E-6,2.4018286E-6,2.527806E-6,3.5199675E-6,0E0,0E0,0E0,0E0,0E0,0E0,0E0,0E0,3.3514507E-6,3.5243652E-6,0E0,1.3242301E-6,0E0,0E0,4.5952856E-6,2.2489014E-6,2.962754E-6,0E0,0E0,0E0,0E0,0E0,0E0,0E0,0E0],"parents":[2147483647,0,0,1,1,2,2,3,3,5,5,6,6,7,7,8,8,9,9,10,10,11,11,12,12,13,13,22,22,23,23,25,25,28,28,29,29,30,30],"right_children":[2,4,6,8,-1,10,12,14,16,18,20,22,24,26,-1,-1,-1,-1,-1,-1,-1,-1,28,30,-1,32,-1,-1,34,36,38,-1,-1,-1,-1,-1,-1,-1,-1],"split_conditions":[2.2535212E-3,8.856746E-1,2.15E-2,7.5207615E-1,3.2003224E-4,6.495801E-1,3.45E-2,7.1898204E-1,8.7086886E-1,5.971831E-2,4E-3,3.1081587E-1,9.64887E-1,6.765875E-1,3.3303103E-4,-7.2288513E-4,-7.8976154E-7,-3.528837E-4,9.2208385E-5,3.6405525E-4,-4.0892097E-5,-5.686283E-5,2.568285E-1,9.621827E-1,3.3041337E-4,5.2425635E-1,-5.8209896E-4,-6.454438E-5,1.0140845E-2,5.656148E-1,3.4929577E-2,-1.3552E-4,8.8112225E-5,-6.301204E-5,8.0456136E-4,-1.053415E-5,3.4422144E-5,-8.8754296E-4,-7.355958E-5],"split_indices":[1,0,2,0,0,3,2,0,0,1,2,0,0,0,0,0,0,0,0,0,0,0,3,0,0,0,0,0,1,0,1,0,0,0,0,0,0,0,0],"split_type":[0,0,0,0,0,0,0,0,0,0,0,0,0,0,0,0,0,0,0,0,0,0,0,0,0,0,0,0,0,0,0,0,0,0,0,0,0,0,0],"sum_hessian":[1.269E3,4.7E1,1.222E3,4.4E1,3E0,2.7E1,1.195E3,3.9E1,5E0,1.7E1,1E1,1.4E1,1.181E3,3.7E1,2E0,4E0,1E0,1.5E1,2E0,2E0,8E0,5E0,9E0,1.176E3,5E0,3.4E1,3E0,3E0,6E0,1.172E3,4E0,2.6E1,8E0,2E0,4E0,7.2E2,4.52E2,1E0,3E0],"tree_param":{"num_deleted":"0","num_feature":"4","num_nodes":"39","size_leaf_vector":"1"}},{"base_weights":[-5.1691774E-7,1.21874764E-4,-1.2575807E-5,1.5642025E-4,-4.2852334E-4,1.4489372E-5,-9.2435206E-5,2.1754719E-5,1.6214947E-4,-1.8199285E-5,-6.95318E-4,-1.0168124E-5,3.57744E-4,-5.3310394E-4,-7.5268086E-5,2.5197367E-5,-4.2416155E-4,5.797018E-6,-1.2847662E-3,-1.2896137E-4,8.838198E-4,-3.6323072E-5,-4.102826E-4,-1.968451E-6,7.7483803E-4,-2.7275283E-3,4.3968856E-4,1.4279506E-4,-1.5706539E-3,1.5099327E-3,1.4985459E-4,-7.2756884E-5,2.454281E-4,-1.1328789E-3,-9.602579E-5,5.337821E-6,-3.095176E-4,-6.903495E-5,1.1209995E-3,6.346032E-4,-2.5444975E-5,1.2225658E-4,-2.2078305E-3,9.734283E-4,-8.91611E-5,-8.991361E-5,2.52613E-4,1.9157458E-5,-1.5684187E-4,3.3821663E-4,-1.9851484E-5,-1.0171473E-3,-2.4437904E-6,3.3429265E-4,-2.4870833E-4],"categories":[],"categories_nodes":[],"categories_segments":[],"categories_sizes":[],"default_left":[0,0,0,0,0,0,0,0,0,0,0,0,0,0,0,0,0,0,0,0,0,0,0,0,0,0,0,0,0,0,0,0,0,0,0,0,0,0,0,0,0,0,0,0,0,0,0,0,0,0,0,0,0,0,0],"id":19,"left_children":[1,3,5,7,9,11,13,15,-1,-1,-1,17,19,-1,21,-1,-1,23,25,27,29,31,33,35,-1,-1,37,39,41,43,45,47,49,51,53,-1,-1,-1,-1,-1,-1,-1,-1,-1,-1,-1,-1,-1,-1,-1,-1,-1,-1,-1,-1],"loss_changes":[1.8759356E-6,2.2345992E-6,2.5020895E-6,2.4345518E-6,2.59026E-6,7.3248243E-6,4.8177935E-6,1.5628127E-6,0E0,0E0,0E0,1.6449552E-5,1.4964526E-5,0E0,3.755722E-6,0E0,0E0,9.582217E-6,7.43133E-5,1.2369747E-5,1.2640994E-5,2.6868267E-6,6.7036394E-6,6.217199E-6,0E0,0E0,8.639952E-6,5.9551526E-6,2.6900503E-5,1.14117465E-5,1.7310863E-6,6.19362E-6,3.7136451E-6,9.141159E-6,7.0845394E-6,0E0,0E0,0E0,0E0,0E0,0E0,0E0,0E0,0E0,0E0,0E0,0E0,0E0,0E0,0E0,0E0,0E0,0E0,0E0,0E0],"parents":[2147483647,0,0,1,1,2,2,3,3,4,4,5,5,6,6,7,7,11,11,12,12,14,14,17,17,18,18,19,19,20,20,21,21,22,22,23,23,26,26,27,27,28,28,29,29,30,30,31,31,32,32,33,33,34,34],"right_children":[2,4,6,8,10,12,14,16,-1,-1,-1,18,20,-1,22,-1,-1,24,26,28,30,32,34,36,-1,-1,38,40,42,44,46,48,50,52,54,-1,-1,-1,-1,-1,-1,-1,-1,-1,-1,-1,-1,-1,-1,-1,-1,-1,-1,-1,-1],"split_conditions":[1.0247129E-1,9.538668E-1,7.58E-1,6.355E-1,3.661972E-2,8.8893604E-1,7.61E-1,6.253521E-2,1.6214947E-4,-1.8199285E-5,-6.95318E-4,8.79952E-1,3.96E-1,-5.3310394E-4,8.9704335E-1,2.5197367E-5,-4.2416155E-4,8.77801E-1,3.320828E-1,3.62E-1,6.355E-1,5.802817E-2,7.98E-1,8.564158E-1,7.7483803E-4,-2.7275283E-3,6.79E-1,8.9704335E-1,4.5633804E-2,5.5774648E-2,6.975E-1,4.28169E-2,6.1971832E-2,9.2685676E-1,8.875E-1,5.337821E-6,-3.095176E-4,-6.903495E-5,1.1209995E-3,6.346032E-4,-2.5444975E-5,1.2225658E-4,-2.2078305E-3,9.734283E-4,-8.91611E-5,-8.991361E-5,2.52613E-4,1.9157458E-5,-1.5684187E-4,3.3821663E-4,-1.9851484E-5,-1.0171473E-3,-2.4437904E-6,3.3429265E-4,-2.4870833E-4],"split_indices":[0,3,2,2,1,0,2,1,0,0,0,0,2,0,0,0,0,0,3,2,2,1,2,0,0,0,2,0,1,1,2,1,1,0,2,0,0,0,0,0,0,0,0,0,0,0,0,0,0,0,0,0,0,0,0],"split_type":[0,0,0,0,0,0,0,0,0,0,0,0,0,0,0,0,0,0,0,0,0,0,0,0,0,0,0,0,0,0,0,0,0,0,0,0,0,0,0,0,0,0,0,0,0,0,0,0,0,0,0,0,0,0,0],"sum_hessian":[1.269E3,1.13E2,1.156E3,1.07E2,6E0,8.64E2,2.92E2,6E1,4.7E1,5E0,1E0,8.07E2,5.7E1,4E0,2.88E2,5.9E1,1E0,7.98E2,9E0,3E1,2.7E1,2.59E2,2.9E1,7.95E2,3E0,2E0,7E0,2.6E1,4E0,1.4E1,1.3E1,2.3E2,2.9E1,8E0,2.1E1,7.8E2,1.5E1,6E0,1E0,3E0,2.3E1,3E0,1E0,1.1E1,3E0,7E0,6E0,1.58E2,7.2E1,1.1E1,1.8E1,4E0,4E0,7E0,1.4E1],"tree_param":{"num_deleted":"0","num_feature":"4","num_nodes":"55","size_leaf_vector":"1"}}]},"name":"gbtree"},"learner_model_param":{"base_score":"9.2582744E-1","boost_from_average":"1","num_class":"0","num_feature":"4","num_target":"1"},"objective":{"name":"reg:squarederror","reg_loss_param":{"scale_pos_weight":"1"}}},"version":[2,1,1]}